park	-0.8664579391479492 3.5411601066589355 -0.09697061032056808 0.3552139103412628 1.9280608892440796 -0.86837238073349 -0.021662265062332153 2.890669822692871 -0.361188143491745 -2.0702569484710693 -1.6112812757492065 0.4676530361175537 1.204467535018921 1.5928317308425903 -1.0401535034179688 6.926660537719727 0.9882415533065796 0.7121315002441406 1.553816795349121 -0.7154761552810669 -3.51755952835083 0.2726367712020874 -1.3025763034820557 1.5229673385620117 0.26969242095947266 -4.468863010406494 -0.6112627983093262 -0.615074634552002 -2.1100645065307617 0.7548448443412781 0.30458858609199524 -0.7078367471694946 1.4761124849319458 -0.4170118272304535 1.6284594535827637 -3.927577257156372 -0.5309728980064392 1.9073879718780518 0.8537953495979309 2.3853344917297363 -2.997523546218872 1.4458860158920288 1.309172511100769 0.2619803845882416 0.02809429168701172 0.8544020652770996 3.572052478790283 -2.5288379192352295 -1.4565361738204956 0.04478222131729126 -1.5593507289886475 1.847301721572876 -6.065182685852051 -2.7333152294158936 -0.6312649250030518 2.5643508434295654 1.0725829601287842 -4.374727725982666 -0.48794716596603394 -1.2836410999298096 -1.8718184232711792 -1.1274216175079346 1.9481278657913208 -1.9412897825241089 1.3286452293395996 -3.481877326965332 1.7390007972717285 3.9620795249938965 -0.8379802703857422 2.1366946697235107 0.5071606636047363 0.5645864009857178 1.385709524154663 1.7342517375946045 0.16698811948299408 1.5260883569717407 2.62209415435791 0.5761342644691467 -2.006704568862915 -3.8816871643066406 0.006826132535934448 5.560408592224121 0.8379448056221008 0.8102463483810425 0.7150244116783142 4.882650375366211 -0.12399850785732269 -0.4010956883430481 -0.9397150278091431 2.4057841300964355 -4.052971363067627 1.7879647016525269 0.13307660818099976 0.7756292819976807 1.884412169456482 -3.368514060974121 -0.09449805319309235 -1.0279412269592285 -1.1497297286987305 3.6164603233337402 -6.28507661819458 -0.9632841348648071 0.35526394844055176 2.1241202354431152 -1.7348217964172363 -0.6842747926712036 1.2172483205795288 0.7949471473693848 -2.0452194213867188 -2.2404110431671143 1.4436243772506714 -0.8702816367149353 0.3764108717441559 -3.153775691986084 -0.8549197912216187 2.020249366760254 -1.6012907028198242 -1.4455475807189941 -0.14026625454425812 -1.6814073324203491 -4.821328639984131 0.6392462253570557 1.0228060483932495 3.117918014526367 1.482649326324463 4.004345893859863 0.6680653095245361 -1.1127241849899292 2.6598854064941406 2.6497836112976074 1.2075366973876953 0.22822768986225128 -2.001467704772949 3.0884323120117188 -1.113516092300415 0.6457699537277222 1.2288799285888672 0.7452874183654785 -0.19838489592075348 -0.9578530788421631 -4.097348213195801 -3.0966315269470215 -2.7680234909057617 -0.8562868237495422 -0.8874815702438354 -1.1817436218261719 -2.024036407470703 2.6557679176330566 -0.49931883811950684 5.239564895629883 -0.7422724366188049 1.1049132347106934 -2.9946718215942383 1.7938990592956543 -3.1391918659210205 -2.425475597381592 0.6101381182670593 3.363896608352661 4.457786560058594 1.903602123260498 -1.010990858078003 1.9582979679107666 -0.346883088350296 1.4163657426834106 -1.6295981407165527 -3.0889718532562256 -0.7587895393371582 -2.602454900741577 -1.1668765544891357 -2.8047056198120117 -3.5117714405059814 -1.0906468629837036 1.5357818603515625 3.398794412612915 0.04714316129684448 -0.09869928658008575 -1.065242886543274 -1.5818617343902588 -0.3075343370437622 2.801342487335205 0.6931750774383545 -0.7840679287910461 0.14852124452590942 1.8478593826293945 2.9389941692352295 -1.212881326675415 0.9656349420547485 -1.8139187097549438 0.7038310766220093 1.8562387228012085 -0.06768172979354858 0.1242312639951706 -0.5467385053634644 -2.339858293533325 -0.5521354675292969 -0.7823971509933472 -1.6690635681152344 -2.4598374366760254 -1.8817882537841797 1.6681931018829346 0.27798303961753845 0.03782019019126892 2.291693925857544 0.3911290764808655 -1.5643123388290405 2.4691646099090576 0.7935928702354431 -0.24695590138435364 -0.9253328442573547 2.031019687652588 0.2501898407936096 3.264279365539551 1.4641931056976318 0.9422000050544739 -2.0867602825164795 1.712575912475586 -1.916579246520996 -0.1928510218858719 -1.3557319641113281 -1.062787413597107 2.469102382659912 -2.2195487022399902 -1.836694598197937 0.27441826462745667 -1.1744638681411743 5.113433361053467 -1.102126121520996 -3.3239455223083496 -0.13956740498542786 2.273374557495117 0.7778286933898926 -1.9143881797790527 -2.067338466644287 0.6847566962242126 -0.05229061841964722 -0.09172698855400085 -3.9865763187408447 0.19261965155601501 1.8411140441894531 -1.034550666809082 2.9339284896850586 -2.643961191177368 -1.2250332832336426 3.3053581714630127 0.9578491449356079 -0.9459912180900574 2.0831704139709473 -5.239469051361084 -0.37926897406578064 -1.2841439247131348 -3.151142120361328 1.1915093660354614 0.22789672017097473 2.179931879043579 -0.22252215445041656 3.2375707626342773 -0.7229284048080444 0.42448505759239197 -1.104343295097351 4.100242614746094 3.0918514728546143 3.0020699501037598 0.6411669850349426 -0.728306770324707 1.4343554973602295 -0.2125411033630371 -0.766344428062439 -0.8232865929603577 0.719072699546814 0.7755611538887024 1.5570827722549438 -0.4980110228061676 2.6857259273529053 1.7285492420196533 -3.042987823486328 3.961104154586792 0.9606192708015442 -3.4491238594055176 0.6040165424346924 -0.734483540058136 -2.6264424324035645 2.066396951675415 2.000734806060791 2.000250816345215 2.0218749046325684 -1.9445230960845947 -1.176666498184204 4.531327247619629 -0.3816413879394531 -4.67644739151001 0.15687412023544312 1.645730972290039 -0.4624207317829132 -1.038277506828308 4.257962226867676 -2.2928690910339355 2.161803722381592 -2.924635171890259 6.593541622161865 -3.1225881576538086 -5.485947608947754 1.61465322971344 0.7008381485939026 0.23287691175937653 2.1640853881835938 -5.583612442016602 2.2206578254699707 3.6875507831573486 -12.97043228149414 0.8626154661178589 -1.391875147819519 0.7487320899963379 0.7022000551223755 -0.5935828685760498 0.02757108211517334 -3.270688056945801 0.7025213241577148 -0.3091263175010681 0.4652557969093323 -0.7153956890106201 0.7802274227142334 -2.0865554809570312 0.05726452171802521 -2.0080385208129883 4.02689790725708 -0.48126786947250366 -0.08977295458316803 1.090381145477295 -1.77894127368927 -0.379020631313324 0.23167845606803894 -0.47942355275154114 2.5465612411499023 5.939356327056885 0.43095749616622925 -0.2687716484069824 -1.0791563987731934 -0.5585651993751526 1.2580170631408691 1.2556356191635132 3.256840229034424 2.164403200149536 1.288074254989624 -1.2190213203430176 -2.0580315589904785 -1.8769116401672363 -1.9053738117218018 2.897223472595215 -2.505150079727173 -3.295779228210449 -0.8068023920059204 -2.0756049156188965 1.3049027919769287 2.5454792976379395 4.682848930358887 4.41725492477417 0.5299314856529236 0.3343049883842468 -2.072728395462036 1.812088966369629 5.384141445159912 -2.7315728664398193 -1.8110854625701904 1.565338134765625 0.008538171648979187 3.7093348503112793 0.3562261760234833 -4.793495178222656 -1.830225944519043 -0.927739143371582 -2.897252082824707 1.8363929986953735 0.6740049123764038 -0.7383894920349121 -4.659177303314209 2.2366437911987305 2.731735944747925 1.7755727767944336 1.0886476039886475 4.443073272705078 -2.145354747772217 -9.857826232910156 -2.5150530338287354 -1.233756184577942 0.6955091953277588 -2.687011241912842 1.2418546676635742 0.08594357967376709 -2.399787664413452 -0.7422308325767517 3.282959222793579 3.0316338539123535 -1.4098401069641113 -2.8032493591308594 1.5204243659973145 -2.5970826148986816 -2.7227530479431152 -1.210694432258606 1.8287712335586548 0.36452555656433105 3.063833475112915 -1.7901312112808228 0.6034661531448364 0.8273965120315552 2.5562522411346436 -2.1672399044036865 1.444271445274353 0.6583449244499207 4.032949447631836 2.474754571914673 3.1993274688720703 -1.3530620336532593 -3.5920615196228027 -1.9500937461853027 -0.36774349212646484 -1.6487321853637695 2.634185791015625 2.6313605308532715 -2.3637917041778564 -2.1774375438690186 -1.8027499914169312 -0.6081015467643738 2.589799165725708 -1.8855828046798706 -1.0273089408874512 -3.437187671661377 -0.8402148485183716 -3.766456127166748 2.9558963775634766 4.4262285232543945 -3.2495033740997314 -2.9613211154937744 -1.8708953857421875 3.1434855461120605 -0.15925122797489166 -1.1124370098114014 -2.5109071731567383 -2.0515923500061035 -0.6630446314811707 -3.7921369075775146 -1.1428494453430176 -1.2181795835494995 -0.9000144600868225 -0.8668949604034424 0.3989904522895813 -0.9733179807662964 -5.63238000869751 -0.9843059778213501 2.743882179260254 0.34647440910339355 -1.493605375289917 5.102842330932617 0.3678549528121948 1.0660686492919922 -2.1286919116973877 2.432281970977783 1.0484827756881714 -0.4268341362476349 -2.479400634765625 -5.022010326385498 -1.7622569799423218 -0.47978562116622925 3.7601771354675293 2.1139464378356934 -2.488564968109131 -4.710947036743164 -1.4466211795806885 0.15398475527763367 4.895529747009277 -1.3912923336029053 0.31392210721969604 2.0158135890960693 -4.766051769256592 -0.6588879227638245 -3.3937697410583496 0.8018733859062195 -3.301180839538574 -1.9506490230560303 -0.5707101821899414 1.6586748361587524 -2.3225016593933105 0.3827255964279175 -1.191981554031372 4.771939277648926 -0.17841976881027222 -1.0347639322280884 -2.182448387145996 -2.362229824066162 3.213510036468506 3.9962284564971924 -2.455134391784668 -0.3919909596443176 2.021883010864258 1.7461186647415161 -0.6378247141838074 -0.8086570501327515 0.04503682255744934 0.731189489364624 -2.8425686359405518 2.8129560947418213 1.0356961488723755 1.8413958549499512 -2.554318904876709 -0.30239930748939514 -0.5270024538040161 -2.449496030807495 3.319685935974121 1.971304178237915 -5.247638702392578 4.204198360443115 1.4579918384552002 0.923986554145813 -2.0550341606140137 0.8707501888275146 1.1008673906326294 2.1829841136932373 -2.0977883338928223 -2.5502712726593018 -4.093264102935791 -5.336769104003906 -0.41055944561958313 -3.346708059310913 4.361722946166992 -0.4444144368171692 -1.7005349397659302 -1.885316014289856 -3.6668381690979004 -2.281442642211914 -0.9102497696876526 2.3135018348693848 1.3257510662078857 3.1048192977905273 1.6582180261611938 2.8805572986602783 1.4994380474090576 0.8495677709579468 0.3787747025489807 0.33798569440841675 -0.0707550048828125 -5.239739418029785 1.371731162071228 0.9663336873054504 4.031476974487305 -3.282590627670288 -0.42698174715042114 -4.344827651977539 -0.054825685918331146 -2.116182327270508 2.0921971797943115 -0.7533441781997681 -0.5001015067100525 -0.9024354815483093 -1.44931960105896 5.003017902374268 -1.8457497358322144 2.293076515197754 -2.5009748935699463 0.3645102083683014 0.3842995762825012 -0.05400431156158447 -0.03946821019053459 -2.6335439682006836 -1.2229418754577637 -3.1578128337860107 -0.8804064989089966 -4.921167373657227 0.8664129972457886 -3.421347141265869 -0.9865289926528931 0.5720399618148804 -3.3766722679138184 -3.6769964694976807 -5.502131462097168 -1.4124000072479248 2.335737705230713 -0.09071515500545502 -2.4181406497955322 1.0920825004577637 0.010514259338378906 -1.7648985385894775 0.17806240916252136 8.09394645690918 -3.7713966369628906 0.021292254328727722 -2.0493645668029785 0.144453763961792 4.371058464050293 2.462318181991577 0.2581534683704376 -0.026570096611976624 -1.8142993450164795 1.3868482112884521 3.262753486633301 -0.8061338067054749 0.6625624895095825 2.8047351837158203 1.266555905342102 -3.005018711090088 3.707178831100464 2.453524112701416 0.018635183572769165 -4.505248069763184 -3.8901114463806152 -0.46357640624046326 -3.6879146099090576 -0.16587398946285248 -1.9153227806091309 3.1759650707244873 -0.3020766079425812 -0.7015513777732849 4.268947124481201 0.43927720189094543 3.96653413772583 -1.8492059707641602 -1.730391502380371 -1.250064730644226 2.624606132507324 -2.6060497760772705 -2.5993738174438477 -3.555818557739258 2.087000846862793 6.414250373840332 0.48103976249694824 0.0983123779296875 -0.5967065095901489 0.012570589780807495 -2.4533426761627197 -0.27877122163772583 -0.5491394996643066 7.765176773071289 0.07988858222961426 1.1527899503707886 -0.7311506271362305 4.5530314445495605 -0.8818073272705078 -2.5971829891204834 -5.381157875061035 -1.7243850231170654 -0.18918180465698242 -1.01203453540802 -1.578181266784668 2.24160099029541 3.118717670440674 -1.3326455354690552 0.09430240094661713 -4.60750675201416 -2.9599907398223877 -3.1066508293151855 1.3336279392242432 1.590754747390747 4.2832841873168945 3.1086487770080566 0.10587004572153091 -1.8724627494812012 -0.06478947401046753 1.9697924852371216 0.6712849140167236 -1.4939297437667847 0.410243421792984 0.7838537096977234 2.7997541427612305 -0.8556126356124878 -1.3965976238250732 -0.23866721987724304 -2.4554595947265625 -1.6810808181762695 -3.6951966285705566 0.506490170955658 2.3521616458892822 -1.916006326675415 -0.8532698750495911 -6.231810569763184 0.4476456940174103 2.258575916290283 -0.12394636869430542 2.8741488456726074 -1.0113072395324707 -1.1896222829818726 2.1799628734588623 3.0183627605438232 3.169435501098633 -0.8181279897689819 -1.544039011001587 3.6329193115234375 -3.2719151973724365 3.0024845600128174 0.8475959300994873 -1.563490390777588 0.3703647255897522 -3.5495996475219727 -3.1480045318603516 0.7241107225418091 -4.44403076171875 -2.474301338195801 2.729440927505493 -0.2202671617269516 -2.4895029067993164 -2.788562774658203 1.528761625289917 0.9906432628631592 0.5803995132446289 1.5867050886154175 2.829759359359741 -1.2355918884277344 2.1457581520080566 0.77448570728302 1.7180781364440918 -3.513401746749878 -0.016372546553611755 -1.3582873344421387 -0.7585034370422363 1.7443995475769043 0.02619139850139618 -0.12912681698799133 0.4149518311023712 1.2380714416503906 -0.5562297105789185 -1.6208429336547852 -2.5425949096679688 3.4366273880004883 -2.706068277359009 1.7162981033325195 -3.470531702041626 2.794948101043701 2.9053280353546143 3.7537918090820312 -3.972865343093872 0.99737548828125 -3.5199391841888428 -2.246293067932129 0.05803561210632324 0.7478570342063904 3.057647228240967 -2.8691112995147705 -1.577590823173523 1.59372878074646 -0.04069256782531738 3.453023910522461 0.07508721947669983 0.8046184778213501 -0.7919950485229492 0.7058085203170776 0.8404223322868347 6.524631977081299 -1.0481998920440674 2.9306540489196777 -1.226334571838379 -2.5440688133239746 -1.8124390840530396 -0.6724776029586792 -2.804887056350708 0.17945998907089233 3.19331955909729 -1.7515982389450073 3.514202117919922 0.5025498867034912 2.3499112129211426 -3.1990323066711426 -5.380360126495361 0.7815619707107544 1.2168391942977905 -1.6696219444274902 -1.9608358144760132 2.625807285308838 -5.110965728759766 -1.775047779083252 -2.121994972229004 -1.981424331665039 
maryland	-3.5834882259368896 3.535151481628418 0.7478049993515015 -1.0538628101348877 0.7006950378417969 5.2378082275390625 -0.5556702613830566 0.5150613188743591 -1.294472336769104 -1.2205922603607178 -1.3999061584472656 3.08618426322937 2.822026252746582 0.6985925436019897 0.38439515233039856 0.583803653717041 -1.393629789352417 -1.7183798551559448 3.0358221530914307 1.166752815246582 0.829264760017395 3.3178863525390625 3.0341086387634277 -0.3150063753128052 -0.3151789605617523 -2.1535136699676514 0.760865330696106 0.19778604805469513 -1.7351270914077759 0.3263899087905884 3.531670093536377 -1.2645014524459839 -0.6398661136627197 -1.8082304000854492 0.5116049647331238 -3.457217216491699 -2.6059532165527344 3.0321154594421387 1.4816365242004395 2.9865760803222656 0.07328764349222183 -3.3191287517547607 -1.4752190113067627 -1.299182653427124 -1.8194711208343506 0.7506945133209229 -0.4605734646320343 4.68518590927124 -0.04741373658180237 -3.0931198596954346 2.272111177444458 0.9833886027336121 -4.320222854614258 -1.256604552268982 -1.1155545711517334 1.4446871280670166 -1.5766469240188599 -1.7263307571411133 -2.900944948196411 -0.5676246881484985 -2.8637924194335938 -0.02261759340763092 0.7563077807426453 -1.5864441394805908 1.160213828086853 -1.8440942764282227 2.330859422683716 2.4622020721435547 -0.4437510669231415 -0.03407356142997742 1.2471840381622314 2.828871726989746 -1.1859238147735596 0.8390633463859558 -0.15431825816631317 -1.144024133682251 2.2039783000946045 -0.8310521245002747 -1.296898365020752 -0.6572869420051575 2.2715752124786377 2.6596527099609375 -0.9040985703468323 -0.8930397033691406 2.362917423248291 -0.8347384333610535 -0.7798112630844116 0.3562808334827423 -3.042395830154419 -1.7032320499420166 -1.6798423528671265 3.654068946838379 -0.7600207924842834 -0.011013016104698181 3.1855714321136475 -1.8436400890350342 -3.238250494003296 -1.1632590293884277 -2.724133014678955 4.367559432983398 -0.6377842426300049 -3.628697156906128 2.4657084941864014 -0.8615737557411194 0.5830732583999634 -1.1909008026123047 0.6540207862854004 1.2642229795455933 -4.5497636795043945 -0.4748862683773041 -1.3199859857559204 -0.9396135807037354 -0.20644956827163696 -3.683596134185791 -5.011441230773926 0.39874792098999023 1.3342721462249756 -3.094548225402832 2.5246822834014893 -1.7756023406982422 -0.3553915023803711 -1.4198230504989624 -1.5654468536376953 0.9485339522361755 1.0904269218444824 2.5383636951446533 -1.6155351400375366 -1.8940051794052124 -0.2725573182106018 1.8671903610229492 -3.0971148014068604 1.0311864614486694 -2.5836129188537598 0.7156534194946289 -1.7035191059112549 5.673671245574951 1.61336088180542 1.5766247510910034 -3.7126259803771973 -1.0704905986785889 -6.490889549255371 -0.18816207349300385 -0.43625926971435547 -2.699747085571289 -1.968874454498291 -0.5401822328567505 -3.6614675521850586 4.121937274932861 -5.185746669769287 5.0948333740234375 -0.3727441430091858 3.088468551635742 -2.3967714309692383 1.7760696411132812 -1.1124904155731201 1.5653952360153198 3.1744565963745117 -0.49151867628097534 -2.8519437313079834 1.3300247192382812 0.8051478862762451 0.10486508160829544 -2.0946922302246094 0.7703823447227478 -2.205103874206543 -2.016639232635498 -2.410630464553833 -1.8837947845458984 -2.4359748363494873 -1.6848222017288208 -3.1990137100219727 -4.518634796142578 2.0534443855285645 1.1583205461502075 1.6292309761047363 -1.7115305662155151 -5.193617343902588 -2.1228976249694824 -2.372818946838379 3.7868826389312744 -0.7249339818954468 0.3176078498363495 -0.0902705267071724 -3.714839458465576 -0.8967463374137878 -1.1761033535003662 2.486327648162842 2.2858660221099854 -1.9527168273925781 -0.9346420168876648 2.340282678604126 -1.0982861518859863 -4.380810260772705 -3.260806083679199 -1.3040803670883179 4.481971263885498 -0.010925590991973877 1.3879384994506836 -1.3494873046875 1.767413854598999 0.5391784906387329 -3.3869495391845703 3.355668067932129 -0.08812975883483887 -4.911927223205566 -0.5085564851760864 1.6778521537780762 1.767993450164795 -3.013789653778076 2.5052096843719482 -0.6238328218460083 3.2538001537323 2.2345352172851562 0.46758562326431274 2.878692865371704 1.2174755334854126 -1.4048466682434082 -1.994356393814087 2.9456582069396973 -0.6350120306015015 2.5849785804748535 -0.9968740344047546 1.5928614139556885 0.30872195959091187 -0.08174958825111389 4.2011871337890625 2.53743052482605 -0.0038704127073287964 0.2700271010398865 2.148040294647217 -0.28537142276763916 -0.749146044254303 2.3004164695739746 -0.78659987449646 0.5681689381599426 -1.9223233461380005 0.6334421038627625 1.1228588819503784 2.7793216705322266 -1.0301381349563599 0.6735721826553345 -1.4476336240768433 1.067639946937561 3.1443088054656982 0.2755981981754303 -1.46561598777771 -1.957365870475769 -0.3460218906402588 2.616405963897705 -2.520328998565674 -2.2008464336395264 -2.305887222290039 -0.36036086082458496 -0.26550057530403137 -2.476698160171509 4.730597019195557 1.3223958015441895 -0.22746522724628448 -2.7676026821136475 1.486522912979126 2.655240297317505 3.4664602279663086 -0.5862972736358643 -4.245380878448486 0.7190940976142883 0.18359319865703583 -2.4740519523620605 -2.897247552871704 -0.744777262210846 0.16214218735694885 -1.4949809312820435 -1.949439525604248 1.65353524684906 -0.7189555168151855 -3.8054537773132324 3.354377508163452 1.318486213684082 -2.3291141986846924 1.7606942653656006 1.050865650177002 -0.5440459251403809 2.7860231399536133 0.4850683808326721 -0.12318682670593262 4.826363563537598 -0.01702125370502472 -0.7103120684623718 2.167102336883545 -0.7710548639297485 -1.2769180536270142 -1.977083683013916 4.635864734649658 -2.9626517295837402 -0.4692855477333069 2.658379316329956 -1.0457566976547241 0.9171290397644043 -1.344875454902649 4.279122829437256 -1.3683958053588867 -7.235285758972168 3.5307698249816895 0.869049608707428 -1.1524323225021362 1.5231573581695557 0.20258936285972595 -0.04859796538949013 0.7811759114265442 -34.82707595825195 -0.21389716863632202 -0.8541697859764099 -3.2993342876434326 1.2544935941696167 -4.606681823730469 1.7656781673431396 1.184256911277771 -4.484431266784668 -2.9213056564331055 -2.2896170616149902 2.2206993103027344 3.5751709938049316 0.5042828321456909 -2.2273221015930176 0.4835854172706604 1.613938808441162 -1.9726898670196533 -1.3788992166519165 4.0679450035095215 1.6174144744873047 0.794355034828186 -2.1375813484191895 0.5453101992607117 2.1428780555725098 1.2620928287506104 -0.63954758644104 -1.6828373670578003 -3.8190791606903076 -0.16496507823467255 3.224313497543335 0.8573674559593201 1.6096374988555908 1.4210373163223267 -0.7039867639541626 -1.4989714622497559 -0.8538088202476501 0.45386916399002075 1.4552150964736938 4.6738786697387695 1.0543025732040405 0.236610546708107 0.45775675773620605 5.366912841796875 2.985105037689209 3.4508156776428223 2.109971284866333 4.9041972160339355 -0.14612318575382233 -0.4314992427825928 -1.2841659784317017 1.262974739074707 3.104656219482422 -0.6064745187759399 0.16186435520648956 1.011656403541565 0.6102157235145569 4.763594150543213 0.6906084418296814 -4.54585599899292 2.7478978633880615 -2.0452675819396973 -0.043476201593875885 -0.023981153964996338 -1.7704169750213623 3.613921880722046 -1.1312634944915771 -3.376970052719116 1.5592244863510132 1.5261807441711426 -2.867400884628296 -0.14523455500602722 -2.2133045196533203 -8.71497917175293 0.16442567110061646 0.41946670413017273 -0.9357067346572876 -4.039852619171143 -0.14258861541748047 0.9555306434631348 -4.64683198928833 -0.8144537806510925 1.2799859046936035 0.47774818539619446 -0.4143792986869812 -1.3486328125 3.0685064792633057 -3.412921190261841 -2.8674278259277344 0.14255748689174652 2.006699800491333 3.352161169052124 0.2169833481311798 0.3263479173183441 -1.140418529510498 2.5298988819122314 -0.9044346213340759 0.06532934308052063 1.120469331741333 1.6091294288635254 5.292317867279053 1.4804637432098389 1.6213829517364502 -1.2522552013397217 -3.3914389610290527 0.5801905393600464 2.449864387512207 1.0851246118545532 0.2812163829803467 2.9933242797851562 1.4303361177444458 -0.5160057544708252 -0.27776360511779785 0.11146014928817749 -0.21329686045646667 -0.7693911790847778 -2.82889461517334 0.8727607727050781 -0.0903441458940506 -0.6114619970321655 -0.6722468733787537 0.8656679391860962 -3.310434579849243 -3.2335634231567383 -3.7809746265411377 0.5773503184318542 -2.1286540031433105 -0.5521807670593262 1.099568247795105 -0.06937102973461151 1.2600839138031006 -1.873332142829895 -0.7946772575378418 0.049450501799583435 -1.164825439453125 1.2267875671386719 -3.696913003921509 -0.5740580558776855 -0.08082619309425354 2.2556235790252686 2.1036715507507324 0.07108356058597565 2.224255323410034 -1.4913675785064697 1.7642889022827148 -1.0815329551696777 -0.6409908533096313 0.9440962076187134 1.3329468965530396 1.8640756607055664 -1.57900071144104 -2.618878126144409 1.876329779624939 0.29672977328300476 3.661792039871216 -1.9609192609786987 1.072218894958496 -4.9985833168029785 1.8057042360305786 -1.3823026418685913 1.2831430435180664 -0.8382269740104675 0.4317747950553894 1.0227395296096802 -1.6853680610656738 1.5114784240722656 -2.6203134059906006 -0.9994432926177979 -2.109029769897461 -3.632935047149658 -1.642917275428772 -0.26154667139053345 -2.189223289489746 0.35342708230018616 -3.4841432571411133 4.865862846374512 -2.569369316101074 3.857098340988159 1.8846641778945923 -0.24396371841430664 1.511630892753601 5.406591892242432 -3.3893542289733887 -2.7217469215393066 0.12339160591363907 -2.0833191871643066 2.8957111835479736 -2.1335480213165283 1.880413293838501 1.616922378540039 0.5440465807914734 3.1479527950286865 -1.139555811882019 0.10177934169769287 -4.0482096672058105 -1.5020787715911865 0.5511215925216675 3.5637433528900146 3.768557548522949 2.0455844402313232 -2.083414077758789 3.125760078430176 -0.8676053881645203 2.7573180198669434 0.7698494791984558 3.866602897644043 3.087587356567383 -2.0346126556396484 0.13324788212776184 -2.232996702194214 -1.8801994323730469 -3.253666877746582 -0.7143212556838989 -3.388784170150757 4.191408634185791 -3.4837329387664795 -0.9307318925857544 -1.6531951427459717 -1.1588385105133057 -0.6991687417030334 2.472788095474243 2.0060341358184814 0.3910630941390991 1.2596135139465332 2.1481802463531494 5.579319000244141 -1.4360363483428955 -1.4514076709747314 -5.749194622039795 -0.5706081390380859 0.8206517696380615 -4.992018699645996 -0.6796888113021851 0.9344426393508911 2.950756072998047 -2.898627758026123 0.035095930099487305 -3.4387409687042236 1.6871631145477295 3.536746025085449 0.7252494096755981 1.3760281801223755 1.8088295459747314 -3.433292865753174 -1.5363459587097168 1.1074438095092773 -0.9998372793197632 4.277765274047852 2.3494532108306885 2.229423999786377 -0.15901382267475128 -1.8762834072113037 -1.1287736892700195 -2.779675245285034 -1.0622972249984741 -0.04128517955541611 -0.39450278878211975 -1.3438389301300049 -0.5579507946968079 -2.606513023376465 -0.9351344704627991 -0.09071047604084015 -3.4915852546691895 -2.0355114936828613 -4.461413383483887 1.1614346504211426 -2.7980387210845947 -1.2590786218643188 1.9627625942230225 -2.902439832687378 1.4549309015274048 1.395063877105713 2.4099483489990234 1.0553258657455444 -1.6143473386764526 -2.2861878871917725 -3.939622402191162 2.0099122524261475 3.9658617973327637 1.9041513204574585 0.9520759582519531 -1.9937902688980103 2.182161331176758 2.984084367752075 2.050797939300537 -0.42401322722435 -1.4389266967773438 3.1340701580047607 -3.4414517879486084 -2.3804163932800293 0.24817094206809998 0.10468312352895737 -0.317128449678421 -3.3510382175445557 -0.7344609498977661 2.867354393005371 1.289522409439087 -3.4666802883148193 -2.9885385036468506 3.0107412338256836 -2.3027853965759277 -0.8939553499221802 2.4261136054992676 -0.799904465675354 4.613304615020752 -1.0891058444976807 -2.785231113433838 1.1466281414031982 1.6756346225738525 -0.08102984726428986 -1.183820366859436 -0.6774315237998962 3.575312376022339 6.421219348907471 -0.30398431420326233 -1.2442805767059326 3.3207356929779053 -1.0873708724975586 -1.754123568534851 0.9745628833770752 -1.355257272720337 1.185778260231018 4.727876663208008 3.0549542903900146 2.950089454650879 2.3164474964141846 1.4309016466140747 -0.8619906306266785 -0.6559643745422363 -2.171400547027588 1.6942341327667236 -1.6364091634750366 -1.3129419088363647 1.6581151485443115 4.729656219482422 0.6015385389328003 0.21262764930725098 -3.367828845977783 -5.391409873962402 2.0944154262542725 -0.8712034821510315 1.0740442276000977 -1.103313684463501 0.13391871750354767 1.1872111558914185 -2.2784204483032227 2.2728540897369385 0.7962278127670288 1.2817656993865967 -1.8212149143218994 1.4163050651550293 -0.6649793386459351 -1.6495020389556885 -5.024866580963135 -0.836320161819458 0.010622352361679077 -1.1806354522705078 0.7568013668060303 -1.7230472564697266 5.429328918457031 -1.1382453441619873 0.20787778496742249 -0.651092529296875 -1.3987793922424316 1.9800622463226318 1.586806058883667 -0.7720299363136292 0.7416420578956604 -2.377978801727295 0.2144668698310852 3.547441005706787 -1.7528207302093506 -3.160231590270996 -0.6210265755653381 1.302194595336914 0.5408321619033813 0.09921501576900482 -1.649891972541809 -0.375696063041687 3.560973644256592 0.027448013424873352 -2.7314610481262207 0.03972350060939789 2.479795217514038 -2.0033864974975586 -5.451189994812012 -0.27846699953079224 0.7315213680267334 -2.3552324771881104 -0.5174885988235474 0.09894594550132751 -0.8818330764770508 2.2760984897613525 -0.216364324092865 -0.48716795444488525 -0.9601006507873535 1.242340087890625 1.3416633605957031 2.343656539916992 -1.4049068689346313 0.6686015129089355 -6.588162422180176 -0.6446883082389832 3.812431812286377 1.0988472700119019 1.3513232469558716 1.668082356452942 -0.17772331833839417 -3.7964658737182617 -0.23193448781967163 -3.2291743755340576 4.7680864334106445 -1.4488438367843628 1.0680046081542969 -0.9740596413612366 -1.0752533674240112 4.395223617553711 0.9386284351348877 -2.1972362995147705 0.8736799359321594 -4.039853096008301 -4.561164855957031 2.8123133182525635 -0.6962316632270813 2.756519317626953 -4.381255149841309 -1.3279300928115845 0.5504852533340454 2.8688933849334717 3.9796242713928223 -3.285071849822998 -1.2022135257720947 0.3404538035392761 -1.3380368947982788 -0.8236561417579651 -0.10140493512153625 -1.4260199069976807 5.580965995788574 0.8247519731521606 -0.7891349196434021 -2.0148396492004395 -0.45394790172576904 0.21884076297283173 -0.1562822461128235 2.5417628288269043 -1.5437480211257935 5.180521488189697 0.13789154589176178 0.6610123515129089 -3.6932075023651123 -3.5201776027679443 -3.1708076000213623 2.9693236351013184 -1.571826696395874 -1.0976017713546753 0.5270637273788452 -2.527880907058716 -0.24920931458473206 -0.231592059135437 -0.782480001449585 
lerxst	-1.7047580480575562 -2.587735414505005 5.034050464630127 -0.5513705611228943 2.9015235900878906 -1.7166423797607422 1.4602501392364502 1.643614649772644 -2.153644561767578 -1.9983785152435303 0.013805985450744629 -0.8552259206771851 2.218470573425293 3.0640714168548584 -0.7842984199523926 3.490475654602051 0.2451433688402176 0.7308894395828247 -1.2681283950805664 -2.234070301055908 2.186567783355713 -0.6618715524673462 0.4571124017238617 2.185241222381592 1.4369257688522339 0.593950092792511 0.847248375415802 -1.1498538255691528 -0.6759338974952698 -0.6032736897468567 2.0498480796813965 -1.1042174100875854 -1.7095131874084473 -1.8391462564468384 -3.731381893157959 -0.6863098740577698 -0.16296523809432983 1.6154316663742065 0.24948617815971375 1.0355336666107178 1.5858831405639648 -2.360342264175415 -1.8623011112213135 0.5640698075294495 -0.4882413148880005 0.287109375 0.7598820924758911 0.7736179828643799 3.1111996173858643 0.5384067893028259 -4.097373008728027 2.4278604984283447 -0.5194337368011475 -2.5389585494995117 -3.215299129486084 3.693467140197754 3.243297576904297 -3.197413682937622 0.5149194002151489 -0.20582930743694305 -1.5898208618164062 0.6552138924598694 1.3095433712005615 0.7601075768470764 0.1954137682914734 -0.5465584397315979 -1.1325230598449707 1.6193687915802002 -3.69806170463562 1.3695005178451538 1.0412324666976929 -1.510223627090454 2.352031946182251 2.9640018939971924 2.4018330574035645 0.5016420483589172 0.7224862575531006 0.5531177520751953 -0.7255665063858032 -1.9453232288360596 1.9870185852050781 1.7736940383911133 0.20021989941596985 4.294031143188477 1.9916343688964844 0.9464197158813477 -0.6867712736129761 -0.050529539585113525 -0.44931915402412415 -0.1523594707250595 1.1582880020141602 -0.6776177287101746 1.7672674655914307 1.1258220672607422 1.2614655494689941 -3.8178770542144775 -3.6820497512817383 -3.006774425506592 1.9633386135101318 2.8259360790252686 0.9671090841293335 -0.9994754791259766 -1.0770479440689087 -0.011748433113098145 -1.7800283432006836 1.5494577884674072 -0.4023308753967285 -1.199546217918396 3.0130419731140137 0.015429913997650146 -0.18649032711982727 1.9366583824157715 -0.42002665996551514 -1.513603687286377 -1.0299866199493408 2.289196014404297 -0.9691935181617737 3.142622232437134 0.8541611433029175 -2.6793270111083984 -2.7466025352478027 2.650491237640381 1.9996660947799683 0.17403040826320648 0.7150208353996277 1.5332343578338623 -2.120783805847168 -0.5499621629714966 -0.3602369427680969 0.4378453493118286 1.0864900350570679 1.3560094833374023 -0.840433657169342 2.088510036468506 0.7505408525466919 1.537825107574463 -0.3969215452671051 -0.9433349370956421 0.06511509418487549 -0.7907857298851013 -2.033414363861084 -0.11050999164581299 0.2426825761795044 -1.7580653429031372 -2.562108039855957 -1.1136914491653442 -1.6873600482940674 2.9096570014953613 0.6084401607513428 5.129263877868652 1.5871533155441284 -2.0657472610473633 0.45340874791145325 -1.9507157802581787 0.3638225495815277 -2.382805824279785 0.763141930103302 0.7988224625587463 1.8381459712982178 1.874760627746582 -3.3308205604553223 0.05443495512008667 1.4683228731155396 -1.6791210174560547 2.012486219406128 -4.772190093994141 0.11956053227186203 0.45539653301239014 0.24519750475883484 -0.20832370221614838 0.513843297958374 -4.232478618621826 2.747692346572876 -0.02052849531173706 1.4333829879760742 1.5088789463043213 2.570678472518921 -3.288241386413574 1.880242109298706 3.074645519256592 -0.9669283628463745 0.6641247868537903 -0.018193289637565613 0.5271126627922058 2.509092330932617 0.8342846035957336 2.881767511367798 -1.5792310237884521 0.8948291540145874 -0.11162200570106506 0.3798752427101135 -2.3559000492095947 1.5800262689590454 -2.3603570461273193 1.3733365535736084 -1.7123137712478638 -1.6588627099990845 2.660745143890381 2.3140976428985596 -0.38278141617774963 2.005241870880127 -1.0236212015151978 1.9011832475662231 -1.141924500465393 -3.8025848865509033 5.354538917541504 -1.932098150253296 0.10759992897510529 -4.237216472625732 -0.3401954174041748 -0.6565290689468384 3.4943184852600098 1.5827103853225708 1.213531494140625 -2.894528865814209 -1.7766097784042358 1.1240874528884888 -0.6667613983154297 1.4157211780548096 1.17369544506073 -1.279736876487732 -1.6148583889007568 0.36565297842025757 -0.5328121185302734 -3.546663522720337 2.9845542907714844 2.1303794384002686 0.5915331840515137 1.2981586456298828 0.4472382068634033 -1.3512202501296997 -2.832329034805298 1.0099672079086304 -1.874681830406189 1.8103702068328857 2.1815707683563232 -0.564874529838562 1.058221459388733 -0.7720163464546204 0.31407493352890015 -3.409087896347046 2.5925168991088867 0.39096471667289734 -0.5792980194091797 0.3343660235404968 0.9719020128250122 0.785087525844574 -0.6755214929580688 0.5416847467422485 -0.029077231884002686 -2.037686347961426 -1.2796813249588013 1.2212560176849365 1.555084466934204 -1.653676152229309 -2.137382745742798 1.2575163841247559 -3.536926507949829 -0.30736052989959717 0.12814101576805115 -0.007462531328201294 -1.0871303081512451 1.420585036277771 0.5304446220397949 1.019389271736145 0.14481371641159058 -0.6693803668022156 -1.0916749238967896 1.1592965126037598 -1.5406385660171509 -0.6639533042907715 4.704338073730469 2.70721435546875 3.1159591674804688 -2.573127508163452 -1.3135669231414795 1.4924328327178955 -0.8802249431610107 0.41085243225097656 -3.036763906478882 -1.2947206497192383 1.1362392902374268 0.8265917301177979 0.1592921018600464 0.7254054546356201 -1.9514305591583252 1.3871634006500244 2.129037380218506 -1.94540274143219 -3.1554436683654785 1.6415281295776367 -0.46461379528045654 -0.8532797694206238 -1.713381052017212 3.1308038234710693 1.0442744493484497 -0.6361832022666931 0.08788725733757019 -5.1531453132629395 -2.5402071475982666 -2.8378379344940186 2.0384469032287598 1.6883137226104736 0.9554774165153503 -2.8004488945007324 -2.34566068649292 -1.592165470123291 -3.945429563522339 -29.693574905395508 -2.434523582458496 -1.6035585403442383 -1.9191429615020752 0.1690545380115509 -0.4267134964466095 -0.3585132956504822 -0.5325449109077454 -0.5530500411987305 -0.6185621023178101 0.14054469764232635 -1.7826470136642456 0.6484650373458862 -0.30222004652023315 -0.021709024906158447 0.8143259882926941 1.3619825839996338 3.367763042449951 -1.847804069519043 1.3438811302185059 -1.773817777633667 1.649390459060669 3.888155937194824 -0.9332994222640991 2.360048770904541 -0.6624103784561157 0.9076333045959473 1.6570353507995605 -3.078245162963867 0.17358309030532837 -1.9503943920135498 -1.1144559383392334 0.6858882904052734 2.8092703819274902 -0.3186148405075073 -2.719231128692627 0.6217480897903442 -3.2837812900543213 -1.705267071723938 -2.6287806034088135 0.04871225357055664 -1.9345316886901855 -1.213937759399414 -1.2453416585922241 1.0397038459777832 -0.5596307516098022 0.2513306140899658 -1.417791724205017 0.7798410654067993 1.7939224243164062 -1.0343964099884033 1.7389369010925293 -0.7941187620162964 -2.936309337615967 1.112617015838623 -1.7476179599761963 -2.0622870922088623 2.449366331100464 -0.9075444340705872 0.30121731758117676 3.8085365295410156 1.421036958694458 -3.4352622032165527 0.34847086668014526 -3.070997476577759 2.7435150146484375 0.944473385810852 0.21912553906440735 -1.9313652515411377 0.037119850516319275 3.308762311935425 -0.11679936945438385 0.3417039215564728 -9.609610557556152 0.8200355768203735 1.488433837890625 0.6574598550796509 1.1416023969650269 -0.5022333264350891 0.44235503673553467 -4.062919616699219 -0.835724949836731 0.7672962546348572 0.48583707213401794 0.2918822169303894 -2.2296552658081055 -1.4053609371185303 -2.749793529510498 -2.5369229316711426 0.889265775680542 0.09793512523174286 -0.6959993839263916 0.45585766434669495 -1.11212158203125 -0.6001467704772949 -2.9296607971191406 -1.2242381572723389 -2.40380859375 4.46889591217041 0.5200631022453308 0.5939249992370605 2.619377851486206 2.275442361831665 -1.2909538745880127 -2.224456310272217 -0.4220162034034729 -0.6751914620399475 0.18303599953651428 1.4621258974075317 -1.982290506362915 -0.9340384602546692 -0.7273697853088379 -1.1567761898040771 0.5203776955604553 -1.5918391942977905 -0.40220677852630615 1.1816352605819702 -0.4783278703689575 -1.014574408531189 -0.6837891340255737 -2.323392152786255 1.1934670209884644 -3.4817535877227783 -2.5723161697387695 -3.597538471221924 3.1380112171173096 -1.2713075876235962 2.070050001144409 -1.5026599168777466 1.9199597835540771 0.11522179841995239 1.0949296951293945 -1.2458276748657227 -1.1168553829193115 0.4413878917694092 -1.586111307144165 2.0234720706939697 -1.719805359840393 -2.6809444427490234 0.5578283071517944 1.402233362197876 0.5255752801895142 4.003839492797852 1.9447509050369263 0.44808995723724365 -1.0046741962432861 -0.6198756098747253 -3.024860143661499 -0.1432800590991974 0.7277226448059082 0.25146400928497314 -3.5295164585113525 3.7068285942077637 0.7038793563842773 2.125347137451172 0.266727477312088 0.7153806686401367 -2.7958693504333496 -1.3881468772888184 -4.3640899658203125 -0.8428628444671631 -0.4010021686553955 3.788956642150879 -0.6908695697784424 3.4492502212524414 -1.679534673690796 -0.5861828923225403 -1.4655113220214844 1.0641624927520752 -0.0706285834312439 1.225151777267456 2.3108997344970703 0.42636799812316895 1.5003163814544678 -1.4900084733963013 2.058204412460327 2.335620880126953 -2.0956530570983887 -0.13205280900001526 -0.17064368724822998 -0.18869701027870178 3.281459331512451 -0.17060339450836182 -0.1921754628419876 1.4863964319229126 0.23270469903945923 2.160989284515381 1.0361522436141968 3.064790725708008 1.8537225723266602 -2.5382447242736816 1.6766575574874878 -1.454925298690796 -0.7842053771018982 1.218135118484497 -0.14144299924373627 -2.1083197593688965 -1.6766993999481201 0.5323164463043213 3.306886672973633 -0.6769598722457886 0.4287244379520416 -1.0707157850265503 1.1147710084915161 -1.2806507349014282 -4.541477203369141 2.496713399887085 0.4152330160140991 3.744933605194092 -0.8942795991897583 1.678935170173645 -3.532804012298584 1.3799315690994263 -0.6443811655044556 0.9130436778068542 -0.5251947641372681 -0.7704036235809326 -0.6870490312576294 -4.358565330505371 -0.7789662480354309 1.432314157485962 0.37618836760520935 -0.803543746471405 -1.1832365989685059 -2.4477121829986572 1.4291249513626099 -0.7552545070648193 -3.703355550765991 1.1194509267807007 1.1082221269607544 0.3020389676094055 -6.170579433441162 1.9684584140777588 1.8657644987106323 0.1691880226135254 -3.0763936042785645 1.900955080986023 1.0544261932373047 0.32223111391067505 -1.4717109203338623 -1.9340245723724365 -1.5106582641601562 -1.5650396347045898 -4.261096000671387 4.127552509307861 3.988891839981079 -0.35476821660995483 -1.6241633892059326 0.7777892351150513 3.5526790618896484 4.085872650146484 -1.0264222621917725 -1.851876974105835 -0.5006321668624878 0.2708284258842468 -3.192135810852051 -3.26169490814209 0.6585463285446167 -2.161651611328125 1.858835220336914 -2.4651360511779785 -1.7085614204406738 -1.965147614479065 -1.2061786651611328 -1.9082390069961548 1.0194380283355713 2.84329891204834 -1.4832581281661987 0.5097140669822693 -1.642038106918335 -1.624570369720459 -1.5392966270446777 0.9603679180145264 1.3067132234573364 2.0656228065490723 -3.1374995708465576 -3.763457775115967 0.047048844397068024 -0.03185379505157471 0.3389374017715454 -1.06892991065979 -0.9987506866455078 1.8501672744750977 3.1128270626068115 -0.16430242359638214 -1.2906951904296875 0.943476140499115 -2.7507190704345703 0.12317100167274475 0.45702505111694336 2.5698599815368652 0.3003356158733368 -3.1852710247039795 -1.1786556243896484 -0.28297510743141174 1.243671178817749 2.103330612182617 -1.7820260524749756 -0.08785794675350189 2.6965131759643555 -2.9284965991973877 -1.5767477750778198 1.2713512182235718 1.723974347114563 -1.1334611177444458 0.5501075983047485 -0.03224622458219528 -0.8563421964645386 -1.2264511585235596 -0.550603985786438 -1.4660917520523071 -1.8472166061401367 0.8314553499221802 0.21975120902061462 -0.44912242889404297 -0.2505010962486267 0.6788436770439148 0.63883376121521 0.38098859786987305 0.41846275329589844 -2.0090627670288086 2.197878122329712 3.144045829772949 -0.006119266152381897 0.4341088831424713 0.10017238557338715 -1.2520191669464111 -0.7849927544593811 0.6947235465049744 4.104872703552246 0.7826575636863708 2.0517210960388184 -1.2154910564422607 2.5062711238861084 -1.829963207244873 -0.8780421614646912 -0.5650187730789185 -1.5565632581710815 -1.1245136260986328 -1.298662781715393 1.7789803743362427 1.3896112442016602 -0.08408978581428528 1.883542776107788 -0.5028356909751892 -0.6457028985023499 -0.7948299646377563 0.6557009220123291 3.597346067428589 1.2553757429122925 -1.3026936054229736 -0.7013040781021118 0.6406879425048828 2.541281223297119 2.4984350204467773 -2.2253668308258057 -0.48816367983818054 -0.16357800364494324 -2.60324764251709 3.704789638519287 0.8396791219711304 1.4250568151474 0.0113849937915802 0.3749125003814697 -2.254997968673706 -0.16786646842956543 0.7569200396537781 0.03906792402267456 -2.4924533367156982 -1.037257432937622 1.3197433948516846 -0.7457728385925293 -1.728661060333252 1.7860909700393677 -1.042772889137268 -0.829679548740387 -0.020184427499771118 0.6443033218383789 -0.8923159837722778 1.0107271671295166 -3.3698205947875977 -0.17710471153259277 0.47793978452682495 -1.8060942888259888 0.8573346138000488 1.18986177444458 -0.8375467658042908 0.9407548904418945 -1.8841508626937866 -2.3602495193481445 0.01254129409790039 2.472797393798828 -0.21201136708259583 -2.0849008560180664 0.9199671745300293 -2.5098700523376465 1.991015911102295 1.0164390802383423 1.0091853141784668 1.6499919891357422 0.9334791898727417 2.664764881134033 -0.10349269211292267 -4.009429931640625 1.7221053838729858 0.1946571171283722 -2.141845464706421 -1.306058406829834 0.3882124423980713 0.5092581510543823 -0.02312745526432991 -0.8266574740409851 0.19180414080619812 1.701826810836792 0.500251293182373 1.3379896879196167 1.5343656539916992 -3.210456132888794 -4.792035102844238 -0.233280211687088 -3.8376877307891846 0.04901004582643509 0.3457493782043457 0.2456226646900177 -0.10948652029037476 -0.7439143657684326 -0.8877641558647156 2.4676363468170166 0.5334208011627197 1.5472054481506348 2.5926074981689453 1.547824501991272 1.0374870300292969 0.0029816627502441406 1.0666344165802002 0.6555616855621338 -1.5172615051269531 0.3871903419494629 0.967995285987854 1.3315353393554688 3.783886432647705 -0.7211140394210815 -0.9843776822090149 2.1529290676116943 1.0891609191894531 -0.17589861154556274 0.41669851541519165 1.5778998136520386 -2.7728657722473145 -1.487461805343628 0.6868554353713989 -2.0732944011688232 -2.2166731357574463 -1.8114869594573975 -1.166031002998352 1.5134687423706055 -0.888994574546814 -3.1227946281433105 -0.6666205525398254 -2.039733409881592 
wondering	2.536407947540283 -4.653052806854248 2.225142478942871 -0.29735976457595825 3.438244581222534 2.7733795642852783 0.5969632267951965 2.01697039604187 -2.399531364440918 -1.1268565654754639 1.511012077331543 0.7059261798858643 1.6980479955673218 1.7731385231018066 -0.7738327980041504 2.1521244049072266 -3.2237186431884766 4.513177871704102 -0.04955330491065979 2.2959656715393066 0.46294844150543213 1.1516536474227905 -0.18268150091171265 0.5471556186676025 1.6345815658569336 -2.8517229557037354 -1.8451403379440308 -1.2755534648895264 -1.4494835138320923 -2.4929323196411133 0.4301236867904663 1.1999753713607788 1.0148674249649048 0.40861618518829346 -2.893094301223755 -4.762568473815918 -1.0270724296569824 -2.1525864601135254 5.340295791625977 2.177372455596924 -1.7507604360580444 -2.1780776977539062 0.41889333724975586 -5.163389682769775 -0.36002272367477417 0.693892776966095 -2.1447231769561768 -3.973480701446533 -1.200832724571228 -2.5476372241973877 -3.894714593887329 -0.10833226144313812 -3.4272141456604004 -1.2368881702423096 -2.067497968673706 2.3138837814331055 0.7749012112617493 -1.949249267578125 2.083638906478882 -0.07586293667554855 -2.5487513542175293 0.7450258731842041 1.780336618423462 0.954779863357544 2.8831119537353516 -1.1746909618377686 -1.2991406917572021 2.920504331588745 0.2561377286911011 -0.47390586137771606 1.760917067527771 2.279402256011963 -2.3426175117492676 1.3943864107131958 1.3783162832260132 0.8696327209472656 1.3802683353424072 0.8972329497337341 1.0255180597305298 1.790860652923584 -0.2878018617630005 -1.6053352355957031 0.11681478470563889 2.6512646675109863 3.6098625659942627 1.2638789415359497 0.8867605328559875 3.2114531993865967 -0.5599586963653564 -2.180276870727539 -1.7409565448760986 -1.2074286937713623 -0.6134520173072815 1.3656365871429443 2.1583783626556396 -3.123433828353882 -0.42221641540527344 -2.991884231567383 1.1732549667358398 -0.27234959602355957 -4.37745475769043 2.575016975402832 -0.09711603075265884 0.9561998844146729 -3.92044997215271 0.2521117329597473 -0.8961130976676941 1.7044143676757812 -3.8867979049682617 -1.0350289344787598 -2.3795998096466064 -2.4260497093200684 -0.5694253444671631 -2.5223493576049805 -2.553903579711914 1.4986557960510254 -0.5353356599807739 -0.8641359806060791 -1.1334062814712524 -2.5793800354003906 -1.573986291885376 0.10982353240251541 2.4178366661071777 2.884176731109619 3.142702579498291 2.6162917613983154 0.49235981702804565 -0.48563116788864136 0.9729784727096558 1.2876919507980347 0.4793162941932678 2.8543431758880615 -1.779064416885376 0.18594107031822205 0.3782557249069214 2.87172794342041 -2.328585624694824 0.35986754298210144 2.85410737991333 -2.296555519104004 -1.7173784971237183 2.2584426403045654 2.2814903259277344 4.25804328918457 -0.26245179772377014 0.5422167181968689 0.05425542593002319 3.151421308517456 -1.8902881145477295 1.6984601020812988 -0.7405175566673279 1.956130862236023 -1.9921166896820068 0.8028864860534668 -0.920143723487854 -1.7003796100616455 2.7906625270843506 -0.6509034633636475 1.7027581930160522 -1.340478539466858 2.0748114585876465 2.5211243629455566 -1.009433627128601 -0.4240570664405823 0.07237524539232254 -3.8527612686157227 0.9392346143722534 -1.3646295070648193 0.9455812573432922 -0.9895904064178467 0.8522243499755859 -0.4533764123916626 -0.8706461191177368 -1.285264492034912 0.3641102910041809 1.2028197050094604 0.38336777687072754 -1.9634006023406982 -3.0223042964935303 0.4753439724445343 -0.3664206266403198 0.39811351895332336 -1.3098140954971313 6.271603584289551 4.773257732391357 -0.7358235716819763 0.10036510229110718 1.8208816051483154 -1.978890061378479 -2.4310405254364014 0.13870178163051605 0.1719200760126114 2.2123522758483887 -2.0695173740386963 0.5184862613677979 -2.3148696422576904 6.0223612785339355 -2.0602259635925293 -0.3189179301261902 -0.9025542736053467 1.0657211542129517 -2.093165159225464 1.414312481880188 -1.3963229656219482 -3.521757125854492 1.881204605102539 2.3155739307403564 -0.2008761465549469 -0.2081131488084793 0.45954135060310364 -1.0396599769592285 0.4848557710647583 0.9294938445091248 0.014621846377849579 -1.0686476230621338 -1.8748341798782349 0.2485625147819519 -3.6598305702209473 -0.4669415056705475 -2.8513705730438232 0.8657968044281006 1.6618525981903076 0.2907165288925171 1.9472342729568481 -0.6430736184120178 4.3013997077941895 1.635462760925293 0.6118906140327454 2.0150721073150635 4.461230278015137 2.269150495529175 4.283058166503906 -1.9228123426437378 -4.669723033905029 -2.471611976623535 -1.385094165802002 -1.0949316024780273 -1.0474501848220825 -2.1550769805908203 1.8006985187530518 -0.07813960313796997 2.96171498298645 2.9104983806610107 3.17905592918396 0.3440326452255249 0.2096887081861496 -0.2610589861869812 1.170957088470459 2.652182102203369 -0.6559169888496399 -1.167931318283081 0.1845056116580963 1.9255990982055664 -1.266754150390625 2.1424660682678223 -0.916226327419281 2.609501600265503 -2.365952491760254 -2.6014790534973145 1.3701635599136353 4.009057998657227 -0.49726831912994385 -2.3828177452087402 0.24936270713806152 0.37247195839881897 -3.688302993774414 -1.9621665477752686 -2.2643239498138428 2.0956151485443115 1.382590651512146 1.4468708038330078 -1.713707685470581 1.4507436752319336 1.440438985824585 -0.4341354966163635 -0.6744246482849121 -0.5870606899261475 -1.0415326356887817 2.181227684020996 2.497412919998169 -0.7136133313179016 4.53191614151001 1.7472963333129883 0.2897700071334839 -2.657790422439575 1.1564829349517822 2.000389814376831 5.186953544616699 -0.7510530352592468 -1.1742384433746338 -1.6262366771697998 1.31368088722229 -0.9374886751174927 -2.5945229530334473 3.1437549591064453 -2.0525779724121094 1.083387017250061 0.5013801455497742 5.210229873657227 0.5033366084098816 -3.483212471008301 2.2893550395965576 1.7118456363677979 1.7644277811050415 2.0677313804626465 -1.804476261138916 -3.868612289428711 -2.931889057159424 -32.298160552978516 0.8270068168640137 -1.8728686571121216 -0.5567612051963806 2.846120834350586 -3.2603464126586914 0.3722502887248993 1.7573615312576294 -1.9449870586395264 -2.536823272705078 1.7087135314941406 0.30140918493270874 -0.9189321398735046 -2.5469391345977783 -0.8064185976982117 -2.902832508087158 -1.061513066291809 -1.533031702041626 -1.6399285793304443 1.4899256229400635 -0.06233643367886543 -2.247119426727295 0.21187052130699158 -0.226609006524086 2.09572696685791 1.0270557403564453 -1.2206480503082275 3.5454561710357666 -0.39643317461013794 -1.0226678848266602 -0.825858473777771 -1.034281849861145 -2.03188157081604 -1.0137557983398438 -1.2441139221191406 -2.14217472076416 -0.6871355175971985 0.4265574812889099 -1.9528932571411133 -1.1247358322143555 1.163207769393921 2.3143556118011475 0.4259198307991028 -1.845869541168213 -2.602151870727539 1.421303153038025 -3.7697267532348633 0.9505780339241028 2.889887571334839 0.0596776157617569 0.13259075582027435 0.9313997030258179 2.2941861152648926 -3.8289072513580322 -0.703690767288208 -4.0435991287231445 -1.4820791482925415 -1.058262825012207 2.339919090270996 -2.3357601165771484 4.840831279754639 0.6648174524307251 -1.936201810836792 1.5430396795272827 -2.329859495162964 1.650625228881836 -3.200644016265869 0.9823280572891235 -2.252788543701172 1.8330674171447754 -0.22253362834453583 -0.8980152606964111 2.9766931533813477 -10.937845230102539 -1.9356921911239624 -0.618767261505127 -0.7284771800041199 -0.3541315197944641 4.592732906341553 -2.8536877632141113 -2.1980278491973877 -1.4397916793823242 -3.7897024154663086 -0.7903203964233398 -2.7162060737609863 -3.33135986328125 1.9931079149246216 -3.312556505203247 -0.35179823637008667 0.700893223285675 0.19646382331848145 2.7491562366485596 1.6976358890533447 0.0896071344614029 0.8258259296417236 1.7677085399627686 0.41831374168395996 1.5152266025543213 2.05783748626709 -1.8592579364776611 0.2950620651245117 -1.8851561546325684 2.9250967502593994 -0.734925389289856 -2.050652027130127 -0.7543901205062866 1.3104604482650757 2.1112232208251953 0.42692333459854126 -1.687116265296936 -0.23764175176620483 -2.4538583755493164 2.7855474948883057 -0.3259797692298889 1.1354012489318848 1.4453942775726318 0.4075034558773041 1.246086835861206 -1.0599260330200195 -1.3394674062728882 1.2429718971252441 1.4984219074249268 1.6635112762451172 -2.3074183464050293 -2.909910202026367 2.9969210624694824 -2.593076229095459 1.7793081998825073 0.26762476563453674 1.2773792743682861 4.333374500274658 -0.7057797312736511 -1.2457799911499023 -1.9281210899353027 2.1204142570495605 1.1267499923706055 -2.1232028007507324 0.5515245199203491 -0.866521954536438 0.2435210645198822 -1.1595101356506348 0.9609434604644775 1.7518802881240845 -0.4450065493583679 2.7953298091888428 2.687373638153076 -0.6761764883995056 -2.047612190246582 1.0575791597366333 2.7844412326812744 -1.3149428367614746 -6.295698165893555 -1.996206283569336 2.159078598022461 -2.2691283226013184 -0.4317293167114258 3.0814576148986816 -1.7019039392471313 -2.5054240226745605 -2.7269136905670166 -1.8273839950561523 -3.6711394786834717 3.653993606567383 0.6624513864517212 1.1435925960540771 -0.18774928152561188 -1.8752793073654175 -2.3990256786346436 -1.4499523639678955 -2.8600540161132812 -3.0620875358581543 2.3581278324127197 2.154221534729004 0.32683420181274414 0.49363207817077637 3.01522159576416 -0.5894917249679565 -1.3942817449569702 -2.4584295749664307 -1.2229681015014648 -0.08609866350889206 1.6924656629562378 -3.5641911029815674 0.6301685571670532 -0.2807208001613617 1.8794201612472534 2.8881916999816895 -0.18923349678516388 2.0925300121307373 3.1041572093963623 3.924835681915283 2.2561488151550293 -2.120260715484619 1.285293459892273 -0.21247288584709167 -0.0741981714963913 0.6616033315658569 -2.541185140609741 -0.18945367634296417 3.1751859188079834 -3.4870216846466064 0.004083648324012756 -0.6135575175285339 1.324100136756897 -1.1279261112213135 -0.3522796332836151 3.020747184753418 0.9594366550445557 2.1469483375549316 0.6688721179962158 -1.992118000984192 0.3184453248977661 2.9503397941589355 -2.963021993637085 1.4074329137802124 3.945361614227295 0.13816973567008972 1.831613302230835 -0.4486766457557678 -2.1496195793151855 3.491607427597046 0.6263034343719482 0.13149045407772064 0.30247169733047485 -0.4983365535736084 -0.9635246992111206 0.7321045398712158 -2.518026828765869 -4.780657768249512 2.747451066970825 -3.169172525405884 -1.3373817205429077 0.9933123588562012 -1.8190820217132568 3.3890607357025146 0.4062807559967041 -3.3496062755584717 -1.2650773525238037 -2.213676929473877 1.4980154037475586 -0.5248502492904663 -2.616285800933838 -0.09622111171483994 -2.3307924270629883 -2.7851736545562744 -1.9550806283950806 2.2181661128997803 -3.0681772232055664 0.7086737751960754 1.2615011930465698 1.5069811344146729 -1.0003771781921387 -0.04613544046878815 -0.5478231906890869 2.620884656906128 -0.4005676507949829 -2.332101583480835 -2.0909790992736816 0.10227622091770172 1.8066587448120117 -3.0234222412109375 -0.1574307680130005 -0.48382771015167236 1.2971835136413574 1.240368366241455 -0.20229950547218323 -0.6654667854309082 -0.6362159848213196 -1.2336628437042236 -1.1444566249847412 0.5838887691497803 2.3678369522094727 4.706575870513916 0.954206109046936 -3.09118390083313 -0.452290415763855 -5.906095504760742 4.29159688949585 -0.6336153149604797 3.2348570823669434 0.6590139269828796 3.6505954265594482 0.5424822568893433 0.5427165627479553 0.064620241522789 -1.2265325784683228 -1.2242118120193481 0.5763523578643799 -2.1823363304138184 -1.9471588134765625 3.530285358428955 1.1267632246017456 -2.650108814239502 -0.048527367413043976 0.1643388867378235 1.3159945011138916 1.7800899744033813 -0.29012352228164673 -1.9888607263565063 2.0082743167877197 -0.49842602014541626 -3.5296390056610107 4.957929611206055 -4.265968322753906 -0.3177322745323181 0.4876016676425934 -0.17759999632835388 -1.7162894010543823 0.2870258688926697 3.0108067989349365 1.364884614944458 -1.0979361534118652 1.3144053220748901 -0.5996642708778381 0.11521884799003601 -6.443698883056641 1.971379280090332 -0.8920258283615112 -0.6718140840530396 -1.2956534624099731 -1.6625807285308838 0.5335717797279358 -0.13195981085300446 0.026916205883026123 -0.790534496307373 3.3531200885772705 -1.4808984994888306 -2.1068201065063477 2.689034938812256 1.8723886013031006 2.0122933387756348 1.2722126245498657 -0.025256574153900146 -0.1396726667881012 -0.2183213084936142 -0.17510154843330383 0.4134533405303955 -1.979063868522644 -5.290273189544678 1.4898897409439087 -1.0715550184249878 -3.5531063079833984 0.7648460865020752 0.136448934674263 -1.5730865001678467 1.5090079307556152 0.6345197558403015 1.2116174697875977 3.35331392288208 -1.2239885330200195 0.6042444705963135 -3.7770283222198486 3.1608688831329346 -5.992233753204346 1.9752659797668457 -2.9603309631347656 -1.7011072635650635 0.785198986530304 -0.8355194330215454 1.0702539682388306 -1.457690715789795 -2.9591166973114014 0.25963810086250305 -1.1235417127609253 -1.4755027294158936 0.9408239126205444 4.427121162414551 0.5103816986083984 -0.6671754717826843 0.8792140483856201 -0.7076318860054016 -5.623270034790039 -0.17774748802185059 0.9370992183685303 2.837752342224121 2.6545183658599854 -2.7891106605529785 1.136432409286499 -1.641690969467163 1.9361584186553955 0.11138080060482025 -2.4624998569488525 0.19642329216003418 1.477966547012329 1.665108561515808 -2.8145804405212402 0.8193524479866028 -0.8067124485969543 -0.4423229694366455 -1.5842417478561401 -2.672076940536499 2.2892374992370605 2.645526647567749 1.7276560068130493 3.6400904655456543 0.03466796875 -5.418634414672852 -0.3148864507675171 -0.5061452388763428 0.30395597219467163 3.6558496952056885 -2.16929292678833 0.7023909091949463 -0.40926769375801086 -0.6426506042480469 -2.076380729675293 -2.2097060680389404 -1.1688990592956543 -1.0508044958114624 -1.4630076885223389 -0.06274881958961487 1.7495787143707275 -0.701758086681366 3.467668294906616 -3.9573018550872803 -0.4019382894039154 -3.7546050548553467 1.1419308185577393 -2.852965831756592 0.3022076487541199 -0.28813984990119934 -0.39103907346725464 1.191772699356079 2.2098569869995117 2.727444887161255 -7.258182525634766 -1.9202803373336792 -1.2716666460037231 0.5518965721130371 2.4565913677215576 1.1026458740234375 1.4231730699539185 2.2380502223968506 0.4695171117782593 3.9782283306121826 0.5216289162635803 0.017232485115528107 -0.4353557229042053 3.0493218898773193 1.740954041481018 -1.561371922492981 -0.24473564326763153 -2.710434913635254 0.31583428382873535 -1.6279399394989014 -1.7064203023910522 -0.7485255599021912 -3.601055860519409 -2.379425287246704 2.682213068008423 -3.1305739879608154 -3.5536320209503174 1.4944050312042236 3.3355276584625244 2.4890005588531494 1.1553072929382324 -1.5519018173217773 -3.241180181503296 -0.6278170943260193 5.546037673950195 
car	2.379262924194336 -0.5892210006713867 2.5834617614746094 -0.36425358057022095 3.4642248153686523 0.0358005166053772 0.42688146233558655 2.0719594955444336 0.7254227995872498 -1.986539602279663 1.3323067426681519 -0.6704749464988708 1.285573959350586 2.0834696292877197 -2.9101107120513916 1.2149441242218018 0.18086284399032593 3.2324142456054688 -1.487287163734436 0.11582115292549133 0.13682430982589722 -2.426680564880371 0.9333623051643372 -0.5770421624183655 -0.4979653060436249 1.0949618816375732 -0.8155753016471863 0.4519275426864624 -1.640735149383545 -0.816478967666626 -1.3478914499282837 1.8609342575073242 0.14591993391513824 1.4218852519989014 -1.4489459991455078 -2.4468812942504883 -2.8084964752197266 -1.50087308883667 -0.6701374053955078 1.8371145725250244 -1.010878324508667 -2.142770767211914 1.4954187870025635 0.455003559589386 -0.6072465777397156 1.8990576267242432 1.311902642250061 0.5119044780731201 4.1428117752075195 -1.0738193988800049 1.2333343029022217 0.0026407092809677124 -4.487311363220215 -0.6388593316078186 -0.7856692671775818 1.7452471256256104 0.31396737694740295 -3.012477397918701 2.7718937397003174 0.9513642191886902 -0.29302555322647095 -2.557095527648926 2.790889263153076 -1.945152759552002 2.8390746116638184 0.6949734091758728 -0.23974870145320892 -0.877662181854248 -0.18377406895160675 0.13965201377868652 -1.2204192876815796 -0.8744482398033142 -0.2421923726797104 -0.2464582920074463 1.1359977722167969 0.8768699169158936 1.800809383392334 1.0256726741790771 0.28183743357658386 -0.6227556467056274 0.7264915108680725 3.2233803272247314 -0.6761928796768188 4.181025505065918 0.7247259020805359 0.8532721996307373 1.0835304260253906 -2.91672420501709 -0.3625713288784027 1.4570332765579224 1.3094508647918701 -0.525751531124115 -0.9306140542030334 -0.17691482603549957 -0.38613998889923096 -1.5361571311950684 -0.8059374094009399 -1.4167397022247314 0.24331802129745483 -0.5820614099502563 -0.6144700646400452 -0.5969911813735962 -1.2832916975021362 1.8039592504501343 -1.3064556121826172 1.516990065574646 -2.5631260871887207 0.06809508800506592 0.014757096767425537 1.6330790519714355 -0.40113624930381775 0.2304389476776123 0.039748966693878174 -1.7872776985168457 -2.5759809017181396 -0.454340398311615 -0.8149164319038391 -1.2968008518218994 0.2502581775188446 -0.8554738163948059 -3.4640603065490723 -0.6755546927452087 2.1652469635009766 2.023338556289673 1.3988687992095947 0.5409777760505676 0.26000624895095825 3.014110565185547 0.7477856278419495 0.9952669739723206 0.6178909540176392 -0.6950111389160156 -1.191637635231018 -0.350744366645813 1.9571256637573242 -0.6441298723220825 2.2678067684173584 -1.2319433689117432 1.0642746686935425 -1.486490249633789 -1.487278938293457 -0.07080185413360596 2.5352232456207275 1.3388595581054688 -0.4521383047103882 -0.148595929145813 -1.0289511680603027 0.1474689245223999 -0.6679863929748535 1.486350178718567 -0.49562129378318787 0.3316013216972351 -1.5975182056427002 0.7249982953071594 0.18825620412826538 -0.3408810496330261 -2.4761428833007812 -1.9171000719070435 -0.3917850852012634 0.5556910634040833 -1.6427831649780273 -0.7624240517616272 -0.5194681286811829 -0.9811246991157532 -0.7936246395111084 -1.5263227224349976 0.42924466729164124 -0.7763702869415283 1.0152162313461304 0.07677341997623444 -0.349303662776947 -0.7536259889602661 2.2958409786224365 -1.3635261058807373 2.158114194869995 -0.5912104249000549 0.29068583250045776 -2.9652113914489746 -2.2554073333740234 1.4305620193481445 -0.9663181900978088 1.213273525238037 0.1417604684829712 1.808464765548706 -0.8723322153091431 1.6520869731903076 3.5784077644348145 -0.37424060702323914 0.6369950771331787 -1.6259164810180664 1.0249989032745361 -0.2772591710090637 0.029604464769363403 -2.08843731880188 2.1200103759765625 -3.2374470233917236 0.8561801314353943 -1.3794106245040894 -1.4843900203704834 -0.8283616304397583 0.5060746073722839 -0.7970791459083557 0.11514756083488464 -1.4296717643737793 -2.3418779373168945 1.192856788635254 1.1524858474731445 0.8459139466285706 -3.012587547302246 1.7655038833618164 -0.9300358295440674 0.25279974937438965 0.33848512172698975 2.8960845470428467 -0.5713679194450378 -0.9876919388771057 -0.5440630912780762 -0.47910523414611816 0.17285913228988647 0.6602215766906738 0.4235978126525879 -0.7374991178512573 -2.4459047317504883 1.3766233921051025 -1.4079337120056152 2.0841076374053955 0.8222330212593079 -0.5340731143951416 0.16481372714042664 2.2502682209014893 2.496574878692627 0.7326048016548157 -0.8903698921203613 -1.5828081369400024 -0.7815409898757935 -0.4046059846878052 1.5247650146484375 0.15225185453891754 -1.4661846160888672 0.12961480021476746 0.17144334316253662 -1.737001657485962 1.885524034500122 1.7834950685501099 1.2794498205184937 -2.1885228157043457 -0.034660279750823975 -0.9868753552436829 -1.5721609592437744 -2.5742077827453613 -0.695156455039978 -1.742080569267273 0.43344056606292725 -0.04705783724784851 1.4003448486328125 2.295837640762329 0.5468976497650146 -1.3164989948272705 0.797676682472229 0.6356645226478577 2.2892982959747314 1.165477991104126 -3.0641367435455322 -0.8761658072471619 -2.8664612770080566 -0.55157470703125 -0.5863288044929504 -0.2304503619670868 -0.09180966019630432 1.2966846227645874 -2.521466016769409 -0.7213160991668701 2.522231340408325 1.540390133857727 -1.1864063739776611 -0.9309840202331543 0.055844515562057495 1.0131078958511353 1.7469770908355713 1.625037670135498 1.0813875198364258 1.6818315982818604 2.1003572940826416 0.07739613950252533 -0.8737433552742004 -0.37675756216049194 -0.0649072527885437 3.0704169273376465 0.4438261389732361 0.19605672359466553 -1.9217472076416016 0.24109435081481934 -2.4439830780029297 -0.9863226413726807 2.3803606033325195 -1.308664083480835 -0.4685998857021332 0.5532023906707764 0.9918993711471558 -1.8050036430358887 -0.6957811713218689 2.2039546966552734 -0.4194032549858093 -0.8548812866210938 0.9829709529876709 0.7984524965286255 0.2991185784339905 -0.8850336670875549 -29.73040008544922 -2.2143144607543945 -1.321241855621338 -1.0169683694839478 1.5775902271270752 0.3942633867263794 1.0589414834976196 -0.7024481296539307 -2.212916135787964 -0.03838589787483215 -1.0387277603149414 -0.33231911063194275 0.9106742143630981 -0.36401891708374023 -0.6750292778015137 -1.6919987201690674 -2.882917642593384 -0.4110143184661865 -1.371457815170288 0.1997550129890442 -0.7469893097877502 -2.4849610328674316 -0.17404907941818237 -1.5613090991973877 0.5991072654724121 -3.21425724029541 -0.9828454852104187 2.4325737953186035 -1.850661277770996 2.4986300468444824 2.933110237121582 -1.6042208671569824 -0.18366625905036926 2.9813432693481445 0.7988154888153076 -0.33867141604423523 0.8156241774559021 1.1474404335021973 2.7197840213775635 0.498386412858963 -2.2724108695983887 2.033198356628418 1.1418952941894531 2.0927815437316895 -1.4008533954620361 -0.2799607217311859 -2.6247901916503906 -1.4884321689605713 1.4651414155960083 0.9316730499267578 -1.1835472583770752 0.3498973250389099 0.060230553150177 -0.956387996673584 1.0778528451919556 -0.21640223264694214 1.4721819162368774 0.772365927696228 -0.6737229228019714 -0.12686344981193542 1.1191465854644775 -0.5748004913330078 -2.8375186920166016 0.934299647808075 1.0662930011749268 1.4528021812438965 -2.4025795459747314 -0.6764810085296631 1.3384886980056763 -0.14970967173576355 -1.7813763618469238 1.7228872776031494 2.9491283893585205 -11.689850807189941 -0.14499357342720032 1.3739227056503296 0.27486783266067505 2.5176401138305664 -0.3517976701259613 2.289567470550537 -3.064281463623047 -0.9882540702819824 -0.31926092505455017 -2.288870096206665 0.5751986503601074 -2.482637882232666 0.24782702326774597 -1.5862152576446533 -0.4495314657688141 2.6068947315216064 3.4069414138793945 0.4014532268047333 1.3558791875839233 -0.7724645137786865 0.2034665048122406 1.116619348526001 -1.083642601966858 -0.24693626165390015 3.2841134071350098 -0.5732382535934448 0.6261577010154724 -0.8167620301246643 1.3732409477233887 -0.671527087688446 -1.8018012046813965 -2.097893238067627 -0.3557093143463135 2.056492567062378 1.3041319847106934 0.7807032465934753 2.4376721382141113 -3.222381591796875 0.8094853758811951 -0.7372387647628784 0.1556004285812378 -0.43970656394958496 3.369792938232422 0.9267026782035828 0.49538832902908325 -1.587064504623413 -1.5293298959732056 -1.25957190990448 -2.2884647846221924 -3.07564640045166 -2.3924527168273926 2.523606538772583 -1.6573047637939453 -0.17117410898208618 -2.769254684448242 -0.3972570300102234 -0.25033071637153625 2.0838654041290283 -0.24937306344509125 1.3647671937942505 1.318242073059082 -0.7362772226333618 -0.5150264501571655 -1.9272632598876953 0.7988742589950562 -0.8024894595146179 1.5534284114837646 -0.6178375482559204 2.3495540618896484 -1.437023639678955 -0.11366468667984009 -0.3879079222679138 -1.0207419395446777 -2.987919569015503 -1.7399132251739502 -0.8312594890594482 -1.452775001525879 -1.9775922298431396 0.9226055145263672 1.499569296836853 -0.03559613227844238 0.47733938694000244 0.741702675819397 -1.1234493255615234 -1.5374033451080322 -3.9697046279907227 -2.283505439758301 -0.15365922451019287 -1.000196099281311 -0.7098134160041809 2.041475772857666 2.3658385276794434 1.0824533700942993 0.13430488109588623 0.3330259919166565 -1.0139316320419312 -1.1689388751983643 -1.1924161911010742 -1.187185287475586 -0.9203978776931763 2.0431013107299805 1.4367625713348389 -0.07268983125686646 -2.701317310333252 -3.3422369956970215 0.06741410493850708 -1.1642086505889893 0.35971248149871826 -0.9790996313095093 -1.2079133987426758 2.1028964519500732 2.469780683517456 -0.0321502685546875 -2.1698052883148193 0.5088879466056824 1.2019647359848022 0.8099216222763062 0.7818691730499268 -1.2330982685089111 0.37374985218048096 -0.6913301944732666 -1.9526065587997437 1.0589655637741089 -1.869651436805725 0.1629071682691574 -0.6438514590263367 -0.5339839458465576 2.216207504272461 1.1031763553619385 -0.4010964334011078 0.5259097218513489 1.6296939849853516 -0.37064969539642334 -1.1123342514038086 1.033567190170288 1.373416781425476 0.41703736782073975 -0.43603816628456116 -1.5703423023223877 -2.0331873893737793 1.7515661716461182 1.859653115272522 -2.138352155685425 0.7857213616371155 -2.7543134689331055 2.6306042671203613 0.27577248215675354 0.912781834602356 -1.52272629737854 0.23236697912216187 -0.8897553086280823 0.4695349335670471 -0.38938939571380615 0.8101540803909302 -2.6349098682403564 2.4854683876037598 -0.5503990054130554 -3.1729867458343506 1.5014514923095703 -0.5006616115570068 2.8710312843322754 -1.201096773147583 -0.7958767414093018 -1.8058247566223145 0.007702350616455078 0.7207282185554504 0.8921200037002563 -1.6406114101409912 0.5626710057258606 -3.0970704555511475 -1.2235114574432373 4.676009654998779 -1.5667963027954102 2.125792980194092 -1.3490214347839355 1.434783935546875 0.9668813943862915 1.1072324514389038 0.7830243110656738 -0.14286279678344727 2.2566637992858887 -3.0321414470672607 -4.215349197387695 -0.05983876436948776 -0.2754233479499817 2.2930917739868164 -3.1090667247772217 -2.160097599029541 -2.063668966293335 0.9104719161987305 -2.6152493953704834 1.1027696132659912 1.09983491897583 0.862877607345581 -0.29047340154647827 -2.090610980987549 2.2233409881591797 -1.5222902297973633 1.6414761543273926 0.7392104864120483 -1.709324598312378 -1.6329777240753174 -2.4680287837982178 -1.3799151182174683 0.894271194934845 2.203110694885254 -0.8791666626930237 0.19869080185890198 0.3722051978111267 2.2787413597106934 -2.5984320640563965 2.946401596069336 -1.242598295211792 -0.7481805682182312 0.06459656357765198 0.44122427701950073 0.5832110643386841 0.9486353397369385 -0.5870825052261353 0.7192198038101196 1.0879952907562256 2.21008038520813 -0.5658659934997559 0.3612268567085266 0.11873626708984375 4.009125709533691 -0.17305803298950195 -0.5340559482574463 0.6247919797897339 0.15474648773670197 -1.9248889684677124 0.5257073640823364 -0.8028833866119385 -1.5286352634429932 0.4271010756492615 1.691735029220581 -0.3994241952896118 -0.8303830027580261 0.11071807146072388 1.8998873233795166 0.0843699648976326 -2.9925079345703125 0.8029497265815735 -1.960715651512146 -2.223951578140259 1.21852445602417 0.5038163065910339 0.5884448885917664 2.4624123573303223 0.021681785583496094 -0.070946604013443 0.8812679052352905 -1.5982948541641235 -0.9096809029579163 -1.99588942527771 0.21204669773578644 1.9035089015960693 0.5101536512374878 -0.9013384580612183 1.3034965991973877 -0.348143607378006 2.4218428134918213 -2.3137545585632324 -2.8875701427459717 -1.5167503356933594 2.0892140865325928 0.21566927433013916 1.8352731466293335 0.6226837635040283 -1.035862684249878 -0.46004384756088257 0.6938244700431824 -0.09393247961997986 0.8280670046806335 3.6723718643188477 3.9818358421325684 3.055172920227051 -1.5660756826400757 0.9323201179504395 -3.8398914337158203 -0.7429068088531494 0.893848180770874 -0.44011634588241577 -0.047843337059020996 1.2675608396530151 1.3389537334442139 0.6516746878623962 -1.0875777006149292 1.0986384153366089 -1.4868568181991577 -0.29507970809936523 2.9311447143554688 2.3439784049987793 -0.46713435649871826 -0.6587834358215332 -1.9190258979797363 0.22677358984947205 -0.6531124114990234 1.312079906463623 -0.8367178440093994 0.6009271144866943 1.064014196395874 1.0414682626724243 -0.03599298745393753 0.7631382942199707 0.7169917821884155 1.3988573551177979 -0.00485210120677948 -2.8361995220184326 -0.9768916964530945 -1.8710651397705078 0.6240538358688354 -0.7266878485679626 -0.6264194846153259 2.573819637298584 -2.1641287803649902 -1.6807365417480469 1.605870008468628 0.5558390021324158 -1.3743653297424316 -0.5337778925895691 -0.5219674110412598 -1.6773333549499512 -0.9096904993057251 0.5910816788673401 0.0568256676197052 0.9855673909187317 -2.077033519744873 -1.16932213306427 -1.5748412609100342 -1.2407642602920532 -0.047263287007808685 0.9765084981918335 -0.32638755440711975 -1.0607390403747559 -2.2660419940948486 -2.5982353687286377 2.5278568267822266 -0.6078382134437561 1.1671936511993408 -1.073041558265686 1.0164196491241455 0.803364634513855 1.0288467407226562 -0.7271552681922913 0.4501808285713196 0.0037776529788970947 0.6683080196380615 1.4937560558319092 0.055258870124816895 -0.779097318649292 -2.354804039001465 -0.8104589581489563 0.9492756128311157 0.684723973274231 -0.009464561939239502 -0.8098366260528564 0.8576071262359619 0.5482015609741211 -0.3115246891975403 2.5292775630950928 0.7181995511054993 -0.12377192080020905 -0.5560473203659058 -0.3779514729976654 0.42914605140686035 3.132795572280884 0.7947434186935425 1.9211084842681885 1.7679246664047241 -0.6732133626937866 1.01841139793396 -0.014994978904724121 -1.9322843551635742 -0.46792006492614746 0.9522222876548767 -0.18910454213619232 -1.0786054134368896 -1.2915706634521484 0.5987861752510071 2.915128231048584 -1.4424159526824951 -2.3188247680664062 -4.000941276550293 -0.3276600241661072 -2.889608860015869 
thing	1.1698977947235107 0.051658064126968384 3.5388665199279785 1.384058952331543 4.286539077758789 0.43288278579711914 4.093641757965088 3.4285078048706055 -1.9541094303131104 -3.239032745361328 1.0061696767807007 0.36032918095588684 3.1531805992126465 1.4391705989837646 -3.019657611846924 -0.7598458528518677 -1.8767057657241821 -0.6588163375854492 0.9416701793670654 0.176033154129982 2.227358341217041 -1.6660006046295166 -0.9383846521377563 -1.3722457885742188 -0.35362493991851807 -4.060824394226074 3.051058530807495 -2.020583152770996 -2.0339508056640625 -0.1912698596715927 -0.47199809551239014 1.2080416679382324 2.8057570457458496 1.55623197555542 -3.6403889656066895 -5.239505767822266 -0.6900986433029175 1.414865255355835 -2.3635735511779785 1.0339020490646362 -1.8561367988586426 -2.230229616165161 5.515314102172852 2.4437992572784424 -0.337496280670166 1.825644612312317 1.6734033823013306 2.0543887615203857 2.2106122970581055 -2.6261870861053467 2.207451105117798 -1.124557614326477 -3.7529914379119873 -2.228032350540161 -0.5475457310676575 4.181555271148682 2.176172971725464 -3.1149771213531494 -0.23370234668254852 1.3348156213760376 -0.8271521925926208 0.540368378162384 1.4149847030639648 1.1816611289978027 2.000828742980957 -3.1365878582000732 -1.3488597869873047 0.5039892792701721 -3.1061530113220215 -1.335168719291687 -1.50282621383667 0.9309982657432556 0.5282877683639526 -0.1961565464735031 1.981225609779358 0.2709629535675049 4.562376022338867 0.2803896367549896 0.1712561547756195 -2.4344289302825928 0.6949240565299988 3.126919746398926 0.5348223447799683 1.9604239463806152 -0.409792959690094 -1.5950071811676025 -1.5273162126541138 -0.5566886067390442 -1.151513695716858 0.5522749423980713 0.9265961050987244 -3.1900393962860107 -1.6533268690109253 0.8075661063194275 0.3891943395137787 -1.950582504272461 -2.1043875217437744 -0.4207611680030823 -0.5971440076828003 2.792989492416382 1.1148782968521118 -0.05190014839172363 -1.1141310930252075 1.2271294593811035 0.6558661460876465 -0.3468357026576996 0.666013777256012 -0.8753831386566162 1.5883281230926514 1.139817714691162 -2.7739779949188232 2.4898319244384766 -2.158177375793457 -0.47593945264816284 -3.668548107147217 2.241109848022461 -1.052135705947876 0.36603736877441406 0.5602748990058899 0.9122093319892883 -1.824798822402954 2.211669921875 0.255479633808136 0.20557990670204163 1.015057921409607 1.0341877937316895 -2.22047758102417 -1.147740364074707 -0.44999200105667114 -0.4408600926399231 0.08654838055372238 -1.5584144592285156 -2.393338680267334 -1.4135578870773315 3.627577066421509 3.6648011207580566 -0.676158607006073 1.195007085800171 -0.3082370162010193 -1.876582145690918 -0.5294455289840698 1.0673296451568604 2.8899147510528564 -1.8414759635925293 -2.227407217025757 -0.5398645401000977 -1.3340076208114624 0.7805725336074829 -1.9558000564575195 4.681613922119141 -1.347423791885376 -2.259209394454956 0.15416954457759857 2.1451709270477295 -1.3054492473602295 -2.6981801986694336 -1.9353193044662476 -1.3771884441375732 2.0452473163604736 1.2374002933502197 -2.3432528972625732 0.8404698371887207 1.0041292905807495 0.6525049209594727 2.0537784099578857 0.9080542922019958 -0.7938480377197266 0.7560889720916748 -0.052226677536964417 -1.4826228618621826 1.1051931381225586 -0.5095198750495911 2.281531810760498 -0.24162861704826355 3.5662083625793457 0.8951706886291504 2.2334768772125244 -5.953819274902344 -3.251556158065796 0.007397502660751343 -0.5399971604347229 0.5524691939353943 -0.4523908495903015 1.839627742767334 -3.2729475498199463 3.648845911026001 1.091010570526123 -1.7987585067749023 2.0318048000335693 -2.2774956226348877 -2.271846055984497 0.34632807970046997 1.3712714910507202 -3.8940441608428955 2.265817642211914 1.2482914924621582 -2.1071319580078125 1.0980310440063477 0.15837539732456207 0.6590028405189514 2.316495418548584 1.1418274641036987 2.5170583724975586 -1.2861299514770508 -3.1394944190979004 2.525541067123413 -0.39762285351753235 2.1530072689056396 -3.310920476913452 -0.2908373773097992 -0.43354955315589905 4.377567291259766 -0.32877928018569946 -1.3602232933044434 -0.9819003939628601 -1.4445393085479736 1.565341830253601 0.4123310446739197 2.3598151206970215 1.182605504989624 -5.242181777954102 0.6137348413467407 -1.1483162641525269 -2.8255555629730225 -5.485527515411377 1.6147562265396118 2.8261561393737793 -1.5293872356414795 2.105315923690796 2.1214137077331543 -0.005936130881309509 -1.5844680070877075 -0.8419924974441528 -4.498776912689209 3.023012161254883 0.9302123785018921 0.07136654108762741 -0.837817370891571 -0.1702881008386612 1.1123956441879272 -2.4506540298461914 -0.6329388618469238 -0.7820671200752258 1.5355933904647827 -2.7996342182159424 -0.9647465944290161 -0.6989496946334839 -1.5333693027496338 0.43727773427963257 -1.5000274181365967 -3.568244457244873 -0.9159972667694092 1.0693258047103882 1.6113028526306152 -0.06069962680339813 0.6271731853485107 -1.0482100248336792 -2.654013156890869 -0.22574642300605774 1.8410001993179321 2.206925868988037 -1.364421010017395 -0.6613122820854187 -0.2227524369955063 -0.6866941452026367 -1.4300342798233032 -1.4151742458343506 -1.0538196563720703 1.898979902267456 3.735003709793091 1.1907556056976318 2.080305814743042 1.8205763101577759 -0.5406641364097595 -3.5790512561798096 -1.2745404243469238 1.047129511833191 5.931234359741211 0.9882147908210754 -0.17934325337409973 -0.7851549983024597 2.659595012664795 1.280935525894165 -1.0130093097686768 4.27073335647583 -0.013641327619552612 -2.179966449737549 2.60349178314209 -2.2151310443878174 -0.48825788497924805 2.2266154289245605 -1.9650709629058838 -3.301532745361328 1.881854772567749 4.188333511352539 -0.7772467136383057 -2.9931106567382812 1.5826938152313232 -5.129447937011719 -4.510592460632324 0.7678911089897156 2.557671546936035 1.6337151527404785 -2.6045162677764893 0.07272613048553467 -1.1890628337860107 0.7470028400421143 -4.290747165679932 -41.26910400390625 -2.362016439437866 1.4436441659927368 -1.0049121379852295 -0.11274740099906921 -2.826009750366211 -0.6437435150146484 0.32739800214767456 -1.0361298322677612 -0.720762312412262 2.4691858291625977 1.3117570877075195 -0.08612099289894104 -1.782553791999817 -1.7533451318740845 -2.0063107013702393 -3.0521903038024902 1.0571651458740234 -2.098404884338379 3.75711989402771 0.12038920074701309 0.11532177776098251 3.4239394664764404 -0.2880408465862274 3.63238263130188 -1.584058403968811 -1.6582468748092651 6.102330207824707 -0.841867983341217 -0.5059226751327515 0.6696776151657104 2.4221789836883545 -0.2929842472076416 1.0083942413330078 0.4166363477706909 -1.7802003622055054 1.1642003059387207 -0.8067070245742798 1.029262900352478 3.3079066276550293 -2.622246742248535 -2.1381616592407227 0.3659622073173523 -0.2467155009508133 -1.1333566904067993 -1.6952342987060547 -2.1821963787078857 -1.663610816001892 0.5138609409332275 -0.2925741672515869 -1.5336216688156128 0.9709696173667908 0.27531012892723083 -1.9095913171768188 -0.8539458513259888 -0.34727540612220764 0.13326700031757355 5.878195285797119 0.942254900932312 -4.960725784301758 0.7637864351272583 -1.7115570306777954 0.2622148096561432 1.1585582494735718 2.0034027099609375 2.729548215866089 0.3478594720363617 -3.5059475898742676 0.35198336839675903 0.7648950815200806 -1.3580242395401 4.049490928649902 0.3570721745491028 -10.565877914428711 -0.11922340095043182 2.1715216636657715 0.14304044842720032 -0.34434986114501953 0.260202020406723 0.8163723349571228 -0.5301421880722046 1.806287169456482 -0.31708818674087524 1.9852274656295776 -4.076287746429443 -2.6381497383117676 -1.9421602487564087 -2.925346851348877 -2.606281280517578 -0.9218344688415527 2.4814705848693848 2.446406126022339 -0.6705771684646606 -0.7419917583465576 -0.3829744756221771 -1.0316697359085083 -0.04268558323383331 -2.1292481422424316 2.1301565170288086 2.7364652156829834 -0.5288776159286499 1.155144453048706 1.4438927173614502 -1.098441481590271 -1.8158882856369019 -2.4139621257781982 0.49216094613075256 3.4894514083862305 1.099673867225647 -2.4380927085876465 1.2773890495300293 -0.8857314586639404 0.9569680690765381 -0.9066740274429321 -0.44094377756118774 1.084944725036621 -0.2858174741268158 2.835650682449341 2.2606427669525146 -0.5913305282592773 -1.7612825632095337 -1.1942739486694336 -2.847731113433838 -3.226707696914673 -3.208508014678955 1.6004371643066406 -4.911197662353516 2.196497678756714 0.6782780289649963 2.5695364475250244 -1.41030752658844 1.6006996631622314 -1.251915693283081 -0.6943892240524292 1.9718480110168457 -0.24778880178928375 0.9791381359100342 -0.5859252214431763 -0.46495574712753296 0.43556690216064453 5.365706443786621 0.3865933418273926 2.471370220184326 -0.3020282983779907 -3.2536978721618652 -0.1186859980225563 -2.638864040374756 1.6975427865982056 -3.223524808883667 1.5944902896881104 0.0917389988899231 -5.505134105682373 3.991374969482422 2.281928539276123 -3.8939247131347656 0.031235534697771072 1.3877267837524414 -0.31509020924568176 -0.11177253723144531 -4.662357330322266 0.2465304285287857 0.1363077163696289 -1.442563533782959 -0.04785774648189545 3.7137961387634277 -1.042472243309021 -4.0472636222839355 -0.1662185937166214 4.560391426086426 -4.082857608795166 3.2984256744384766 0.24995557963848114 -1.9956068992614746 -0.2275373935699463 0.020014137029647827 2.2611145973205566 0.20493848621845245 -1.3603651523590088 -1.6876386404037476 4.162846088409424 2.353073835372925 1.8538434505462646 1.5504069328308105 2.8305177688598633 2.187199115753174 1.3121998310089111 0.509993314743042 -0.5496833920478821 2.315755605697632 3.0734145641326904 -1.3733412027359009 0.7286407351493835 -0.0104483962059021 1.2457934617996216 -0.08469435572624207 -1.5185221433639526 1.205513596534729 -1.291862964630127 -1.7592108249664307 -0.6358461380004883 -1.152751088142395 -0.7222474813461304 0.7201544046401978 -0.8079534769058228 -0.826293408870697 -0.05461360514163971 2.917315721511841 0.010496199131011963 1.8138999938964844 -1.210088849067688 -0.7192023992538452 -0.33014434576034546 0.4825739860534668 -2.9406845569610596 -0.1433173269033432 -3.03839373588562 -3.366100788116455 -0.35209789872169495 -3.459484338760376 -3.0137808322906494 -1.9508569240570068 -1.0432453155517578 -0.22520223259925842 -0.7504385709762573 -1.194616436958313 1.3195130825042725 2.421140432357788 -3.399279832839966 0.03733104467391968 -1.1346824169158936 -0.3420143127441406 -1.6996873617172241 1.307745099067688 1.4668608903884888 3.9939799308776855 1.5424895286560059 -1.6680848598480225 -0.7435671091079712 1.3002828359603882 2.8263802528381348 2.3280413150787354 -2.15372633934021 0.2339516580104828 -5.678378105163574 3.2636985778808594 -1.433266520500183 2.5949506759643555 -0.05104610323905945 0.5728614926338196 1.5850164890289307 4.613115310668945 1.8913609981536865 -1.5488324165344238 -4.826609134674072 1.7030458450317383 0.04668452590703964 -0.592272937297821 0.41149312257766724 -0.5594426393508911 -2.226485252380371 -2.547186851501465 0.6849600076675415 -1.777069091796875 -2.008544921875 -0.3203865587711334 1.5112531185150146 0.31840431690216064 -1.1546655893325806 0.1696292608976364 -0.6678109765052795 0.109855055809021 0.7419506907463074 1.3291966915130615 -1.261106252670288 -0.7498747110366821 -0.23677821457386017 -3.290294885635376 -1.922492265701294 2.0399482250213623 2.535431146621704 0.1549791544675827 -1.9585384130477905 0.5495147109031677 2.5721421241760254 -1.2646676301956177 0.3984314501285553 0.02456974983215332 0.3041868805885315 -2.2057416439056396 -0.7328171730041504 3.253065824508667 -0.8831381797790527 -3.70098876953125 -2.8947720527648926 2.5444276332855225 0.03393486142158508 1.7954117059707642 -1.6286308765411377 5.525644302368164 2.5180869102478027 -1.365896463394165 0.2500799894332886 3.1593003273010254 0.5949849486351013 -0.7075359225273132 0.6847116351127625 -1.6896157264709473 -1.2688356637954712 -1.5402387380599976 0.10238461941480637 0.17197927832603455 2.3879663944244385 0.9534176588058472 1.353893756866455 -1.685925841331482 -1.3842047452926636 -1.1671857833862305 -2.1763505935668945 -1.3164258003234863 0.7320588827133179 0.37419193983078003 -2.178455114364624 4.734466075897217 1.1972861289978027 -2.3417370319366455 -0.8150807619094849 -0.9570905566215515 1.337986707687378 0.1451229453086853 2.959566831588745 0.8916512727737427 1.7038261890411377 -3.191243886947632 1.384202241897583 0.08539906144142151 -2.66489577293396 0.9597187638282776 -2.7025270462036133 -0.16535568237304688 3.833937168121338 1.1027559041976929 -0.9891339540481567 -4.241907596588135 -1.476245403289795 0.5731312036514282 0.2591491937637329 -1.0252248048782349 0.9944396615028381 3.979210138320923 2.9071364402770996 3.50238037109375 -2.765477418899536 -0.3802575170993805 -1.8532626628875732 3.7611701488494873 -0.18195953965187073 -0.6334409117698669 -0.970887303352356 -1.2553448677062988 3.216865062713623 1.5305821895599365 -0.850263774394989 -1.7066121101379395 1.1592490673065186 -1.3773866891860962 1.242112636566162 -4.167223930358887 1.0030453205108643 -0.8077831268310547 1.31895112991333 2.4895730018615723 -1.0273865461349487 -2.3233251571655273 1.5799771547317505 0.29688647389411926 -0.1238892674446106 2.923609733581543 -0.6503434777259827 -0.38842085003852844 0.0655510276556015 3.929866075515747 -0.2765015959739685 2.8188629150390625 -2.477522850036621 -1.280173897743225 1.1997406482696533 0.781596302986145 2.5666491985321045 0.6468708515167236 -1.7402478456497192 -0.8093136548995972 0.871840238571167 0.7067954540252686 -0.977473795413971 0.7939244508743286 0.025857150554656982 1.456398844718933 -2.5591611862182617 2.9570727348327637 1.069827914237976 0.4963933825492859 -2.9978208541870117 -1.8718701601028442 -3.2029175758361816 0.8138307332992554 -0.2966345548629761 -2.0611190795898438 2.2058472633361816 -4.8770432472229 2.8649959564208984 -1.2314642667770386 0.9898217916488647 -0.16716603934764862 -1.523664951324463 3.428534984588623 -0.46042898297309875 2.6372694969177246 -0.26214444637298584 -3.3042171001434326 3.6672756671905518 -2.7236201763153076 -3.7958505153656006 -1.2511045932769775 -0.4950826168060303 0.7052085995674133 -5.725114822387695 -2.8690414428710938 0.6166960000991821 0.761214017868042 0.24477796256542206 -5.9835309982299805 3.8922483921051025 1.1103625297546387 -0.23602648079395294 0.782020628452301 -0.5260961055755615 -0.18089474737644196 -0.8417597413063049 1.1561964750289917 3.143002986907959 3.4359750747680664 -0.6453918218612671 1.9326586723327637 1.2632743120193481 -1.2648977041244507 0.6294114589691162 2.037484645843506 1.316283941268921 -2.934945821762085 -3.049325466156006 2.121046543121338 -2.1611499786376953 -0.48057615756988525 -1.0988013744354248 -0.7224408984184265 1.287609338760376 1.34879469871521 0.8917659521102905 0.1854666769504547 -3.253880500793457 
