reply	0.001867287 0.001264238 -0.000731740 -0.002576596 0.002878291 -0.003297727 0.001249603 0.001870304 -0.000648577 -0.000087742 0.000595078 0.002687722 0.000750028 0.000513387 0.003752721 -0.000685375 0.000039088 0.000803614 -0.001937609 0.000763234 0.000496273 0.000491164 -0.002324414 0.000494209 0.006435985 0.002676921 -0.000775913 -0.001453534 -0.003423902 0.003222540 0.002551723 0.001943730 0.002023823 0.002477301 0.001765684 -0.000955446 -0.000045654 0.000184256 -0.001799154 -0.002830015 0.002453983 -0.000068823 -0.001441979 -0.003897382 0.004964391 0.001136919 -0.001575651 0.001628401 0.001043848 0.001166009 0.001092955 0.002673437 0.003086614 -0.000673529 0.000542128 0.005227053 0.000065118 0.001737649 0.000741899 -0.002952057 -0.002609917 -0.002180317 0.002958971 -0.000439033 0.000970773 -0.000286770 0.002526104 0.001715232 -0.001763507 -0.000012509 -0.001386833 -0.001375053 0.002379286 0.002548127 0.000196600 0.003111883 0.000836003 0.000059956 0.000527975 -0.002517359 -0.000794532 -0.002575988 0.000405213 -0.002064658 -0.004442333 0.003483074 -0.001615568 0.001917618 0.003918740 -0.001394491 -0.001501567 -0.000551832 0.001802616 0.000689125 0.002278884 0.003658687 -0.000421690 -0.001815780 -0.005223570 0.005043819 0.001110863 0.000617202 0.001000821 -0.002218643 -0.001357331 -0.002492081 0.003310370 0.000983573 0.002335189 0.000188340 0.003837388 -0.002469190 -0.000403003 0.000920276 0.000103269 -0.000122833 -0.001990883 0.000265282 -0.000048243 0.002593871 0.001198195 -0.001545570 -0.000222322 0.000216068 -0.003793628 0.000391309 -0.003192077 -0.000692435 0.001205318 -0.001083219 0.002204872 -0.003451101 -0.002129443 0.002121620 0.001316398 -0.000694607 0.000437558 0.000198662 0.000042968 -0.001229845 -0.004610495 0.003871272 0.001510092 0.003323485 -0.001462893 -0.001620738 0.000038729 0.004223018 -0.001923699 0.002414584 -0.002050155 -0.000124965 -0.001503132 0.000109297 -0.000664142 0.002190941 -0.000167135 0.000147584 0.000353610 -0.001014909 -0.002342801 0.000108062 0.003818680 0.002066266 -0.003193285 -0.001626437 0.000065372 0.000033880 -0.000659237 -0.000637114 0.003316051 0.002796317 -0.000888160 -0.000701907 -0.001164239 -0.001133827 0.000039884 0.001497599 -0.000421343 0.002460808 -0.001510003 -0.000742068 0.000826700 0.000002292 -0.000848839 0.000909290 -0.000270447 -0.003018581 -0.000081350 0.001646717 0.002691701 -0.000174239 -0.000142525 -0.001733655 0.001460281 -0.001242471 0.000227793 0.001545445 0.001328510 -0.002082928 0.000594609 -0.001636838 0.001227631 -0.000381279 -0.002686911 -0.002413734 -0.003565020 0.002790813 -0.001009480 -0.002236951 0.000475773 0.002707381 0.001285933 0.000358990 -0.001672115 0.001720629 -0.001462419 -0.000367938 0.000437518 -0.001550183 -0.001853713 0.001416556 -0.002531508 0.000908582 -0.002344939 0.000557558 0.000162681 -0.002108003 0.002306801 0.000529238 0.002920381 0.002333061 0.000654075 0.001068492 0.002051021 0.000007333 -0.002423712 0.001356715 -0.000269624 -0.002445691 -0.003439896 0.002057152 -0.002851724 -0.006266792 -0.001948080 -0.000636756 0.000119617 -0.004051233 -0.001957437 -0.001738216 0.002375029 0.002364152 0.002942442 0.000462578 0.000214508 0.003566328 -0.000142115 -0.002773885 -0.001594379 -0.000784678 0.003868952 -0.000805796 -0.000700005 0.000834259 0.002583436 0.000450819 -0.001794894 0.002210776 0.001330559 -0.001477470 0.003534516 -0.002001791 0.000571136 -0.003757611 0.002222036 0.000048814 -0.005024751 0.002121116 0.003522635 0.000419442 0.000656660 -0.000973315 0.000700454 0.000682833 0.000693199 -0.001057683 -0.000027383 -0.001732233 -0.003688594 0.001185282 0.000481881 0.002629479 0.000278995 0.001078676 -0.001556654 -0.000195363 0.000972753 -0.000887027 0.000649174 0.000754692
college	0.000440435 -0.001200349 -0.000266409 -0.002391752 0.001015386 -0.001709292 -0.000982940 -0.000424549 -0.001271219 0.000212161 -0.001003260 0.001635998 0.001114020 0.000844867 -0.000266240 -0.001178468 -0.001769310 0.003058590 0.000511495 -0.001079179 -0.000602104 -0.000106551 -0.002728609 -0.001408589 0.004855976 0.001056131 0.000064742 -0.001056541 -0.001870943 0.001337597 0.001602717 0.002004802 0.002715831 0.001920317 0.002830995 -0.000523145 0.000427075 0.000269950 -0.000288692 -0.002822001 -0.000642030 -0.001174714 -0.000210535 -0.000336055 0.000516517 0.001353719 0.000672560 0.001410390 0.000147669 -0.001103095 -0.000361476 0.001191940 0.002223668 -0.001867929 -0.001771536 0.003626650 -0.000307237 0.002665431 0.000129036 -0.000303715 -0.000721778 -0.002035133 -0.000517872 -0.000350114 0.000524375 -0.000911452 0.000537132 -0.001435074 -0.000744951 -0.000022528 0.000140518 0.001050188 0.000498869 0.001626831 -0.000433464 0.003227450 -0.000361859 -0.000797645 0.000242160 0.000473384 0.001109772 -0.003996135 0.000311479 -0.002142544 -0.003321579 0.001386839 0.000427917 0.002325455 0.001522310 -0.001809787 -0.000977615 0.001990432 0.000454849 0.000533796 0.000833444 0.001742359 -0.000371489 -0.002165743 -0.002667598 0.001267991 0.000936438 0.002239931 0.002017374 0.000355870 0.001282628 -0.003206902 0.002575954 -0.001187120 0.003022120 -0.001820321 0.002603012 -0.000882387 0.001693689 -0.000755466 0.000869749 -0.000848344 -0.000950792 -0.000691943 -0.001991522 0.003038244 -0.000742715 -0.001818620 -0.000051687 0.000744930 -0.002444612 0.001198623 -0.001952152 0.000625019 -0.000795316 -0.000173387 -0.000310190 -0.000344513 -0.000620742 0.001285634 0.001561618 -0.001589569 -0.000549509 -0.000517419 0.000030910 -0.000310123 -0.003402226 0.002760875 0.000992500 0.002877014 0.001569847 0.000708826 -0.000282841 0.003136760 -0.000777308 0.002075045 -0.002342970 -0.001783903 -0.002947549 0.001886684 -0.000645153 0.001371718 -0.000195385 -0.000120620 0.000023628 -0.000952351 -0.000719676 -0.000639071 0.003163243 0.001585778 -0.002462469 -0.001592535 0.000291077 -0.000375647 0.002147784 -0.001441740 -0.000229278 0.000157316 0.001554740 -0.000481731 -0.001089742 0.000432409 0.000885229 0.001627547 -0.000543378 0.000035876 -0.001172129 0.000492881 -0.000860335 -0.000387451 0.000289089 -0.000887793 -0.000041328 -0.000849397 -0.001843281 0.000978573 0.001511767 -0.001996088 -0.001504865 -0.000927368 0.002127791 -0.000847187 -0.001167709 0.000489571 0.002377813 -0.002224031 -0.000559916 -0.001932203 0.000757753 0.000864898 -0.001304067 -0.001884441 -0.003318729 0.000848324 0.000332310 -0.000687419 0.000117043 0.001249590 0.001260893 -0.001002786 -0.001229632 0.001578182 -0.000297812 -0.001857664 0.001370603 -0.001593145 -0.001980497 0.000312579 -0.000932721 0.000529131 -0.001942224 -0.000833874 -0.001027447 0.000287384 -0.000573755 -0.000882875 0.001495483 0.002600485 0.001630910 0.000571200 0.000507340 0.000635960 -0.002672449 0.002921730 -0.000200511 0.000091347 -0.001479228 0.000681115 -0.000604766 -0.003658818 -0.000141152 -0.001107165 -0.001471414 -0.003642616 -0.001888616 0.000143095 0.000742633 0.001841323 0.001735817 0.001115653 0.001406441 0.003459530 -0.000323789 -0.002976371 0.000262062 -0.000593418 0.004155294 0.000576914 -0.000986865 -0.000384429 0.001778492 0.000199514 -0.000973048 -0.000822841 0.000781510 -0.001724956 0.000487364 -0.002484178 0.001030426 -0.001334489 0.000288981 -0.002261499 -0.004082330 -0.001271523 0.001053260 0.000511572 -0.000924648 0.000611846 0.001304248 -0.001185189 0.000809491 -0.000637746 0.001301841 -0.000483730 -0.000086411 0.000253499 -0.001163675 -0.000595234 0.001770154 0.001155349 -0.000609762 0.001124809 0.001924626 0.000103687 0.000558579 0.000528776
disclaimer	0.000389742 0.000665285 -0.002389578 0.000031975 -0.000317945 -0.001918270 0.000349900 -0.000355595 -0.001643365 0.001354187 0.001813724 0.001926635 0.000170528 0.000043811 0.001696126 0.000162050 -0.001429125 0.000523239 -0.001424510 0.000349175 0.000349296 -0.001488070 -0.000531120 -0.000140808 0.003898439 0.001094757 -0.000227020 -0.001222757 0.000081494 0.000592511 0.000792729 -0.000856545 0.000781421 0.001547937 0.001654326 0.001106491 -0.002154622 -0.001255076 -0.000026111 -0.001740701 0.001885468 -0.002017142 -0.000437946 -0.001756759 0.001015878 0.000800388 -0.000870570 -0.001184839 0.000504828 0.000867603 0.001475200 0.001797569 0.001682717 -0.001223344 -0.000617994 0.000721593 -0.001101777 0.002165545 0.001076062 -0.000480840 -0.000261472 -0.000960771 0.000646871 -0.001623780 0.000670904 0.001199547 -0.001084641 -0.000861966 -0.002304542 0.000462498 -0.001714411 0.001075025 0.000321290 0.000884040 -0.000642563 0.001842470 0.000701717 0.000261715 -0.000975315 0.000764631 -0.001191029 -0.001182926 0.000858423 -0.000935122 -0.001808000 0.002342408 -0.000009536 0.002655946 0.000757207 0.000498942 -0.001346883 0.001256423 -0.000668151 0.000027773 0.000780761 0.002131249 0.001151396 0.001118919 -0.002427925 0.002199825 0.000465262 -0.000041689 -0.001025257 0.000482067 0.001212543 -0.000940648 0.001806737 0.000312060 0.002445375 0.000804686 0.001247654 0.001052131 0.001482491 -0.000680999 -0.002165285 -0.001681475 -0.001438630 -0.001086503 -0.001523305 0.001421091 -0.000752757 0.000293360 0.000967049 0.001200312 -0.001880161 -0.000285023 -0.001793911 0.000320206 0.000359201 -0.001490923 -0.000338471 -0.001004767 -0.001644506 0.001084064 -0.000109173 -0.001416280 0.001752886 -0.001686289 0.000384558 0.000304025 -0.000159294 0.001970517 0.000827954 0.000986510 0.001521956 -0.000092087 0.001272028 0.002089692 -0.001858133 0.000939733 -0.000505673 -0.000549086 -0.001132869 0.001710775 0.001659913 -0.000524216 -0.000754111 0.000056017 -0.000233495 -0.001288568 -0.002391120 0.000361152 0.002596549 -0.000678671 0.000691639 -0.002062984 0.001030718 0.001087624 -0.000303707 -0.001620673 0.002033231 0.000725688 -0.000030209 -0.001673644 -0.001824285 -0.002200850 0.000607222 0.001041932 -0.001302927 0.001799526 -0.001358273 0.000833926 -0.001437720 0.001610007 -0.002325612 -0.001726896 -0.000939953 -0.001175147 -0.000367971 0.001433951 -0.000138066 -0.000778849 -0.000170497 0.000452768 0.001419658 0.001494510 -0.001488443 0.000562432 0.000940999 -0.002529472 -0.001232571 0.000970106 0.001003650 0.000568870 0.000257439 -0.001573232 -0.003220932 0.000585960 -0.000077519 -0.002001952 0.001570398 -0.000487410 -0.001334250 -0.000262038 -0.002020103 0.000766310 -0.001768040 0.001155371 -0.001058946 -0.002669738 -0.002116187 -0.000828540 -0.002973544 -0.000127270 -0.001688212 -0.001851167 -0.001787260 0.000608084 0.001199143 -0.000318009 0.000119349 0.002704131 0.001834333 -0.001151498 -0.000690126 -0.000290342 -0.002293109 0.001834064 0.000726111 -0.000527863 -0.002925696 0.000057699 0.000147009 -0.002372347 -0.001251349 -0.001225502 -0.000820955 -0.001678939 -0.000944195 0.000248490 0.000137158 -0.000908620 0.002696299 0.001072525 -0.000157602 0.001703080 -0.000569060 0.000214099 -0.000115755 0.001856679 0.002949765 -0.001959926 -0.001187419 -0.000925585 0.001604886 -0.000864998 -0.000928365 0.001124231 0.001537091 -0.001073473 -0.000626032 -0.002013748 -0.000896593 -0.002420347 0.000027671 -0.000087229 -0.001661611 -0.000973201 0.000770920 0.001013420 -0.000546994 -0.001412448 0.001485941 0.000311621 0.001085432 -0.000280858 -0.001003271 -0.001657150 -0.001522933 0.001594185 -0.001083830 -0.000453274 0.000593688 -0.000687765 -0.001772100 -0.000343683 0.001109228 0.001003770 0.000337382 0.001418429
care	0.002195743 -0.000118869 -0.001549953 -0.001323844 0.002479524 -0.003249595 0.000118334 0.001427867 0.000353121 -0.001533341 0.000881711 0.002375755 0.000576071 0.000595290 0.003019413 0.000629338 0.000826547 0.000304438 -0.000365069 -0.000117133 0.001396833 0.001371566 -0.002955538 -0.000997483 0.002959608 0.000540152 0.000659889 0.000163856 -0.001326906 0.002566294 0.000359516 0.000931337 0.002856687 0.000873104 0.000518332 -0.001031178 -0.002121983 -0.001778331 -0.000897800 -0.004430612 0.001784949 -0.002044736 -0.000947794 -0.001189715 0.003939480 0.000314148 -0.000170503 -0.000866244 0.002428877 -0.001371274 -0.000870997 0.001675391 0.001472351 -0.002262548 -0.001313301 0.003256804 -0.001428253 0.002795385 0.001363139 -0.003417054 -0.002048623 -0.002454488 0.000120753 -0.000096987 0.001630074 -0.001165783 0.001848599 0.001235493 -0.002139850 -0.000717752 0.001067816 -0.001048835 0.001759108 0.000651617 0.001076639 0.001245629 -0.000917817 0.002146294 0.000292324 -0.001002438 -0.002157493 -0.003617447 0.000764584 -0.003542145 -0.002633245 0.001020917 -0.000820758 0.001592260 0.002356529 -0.003191178 -0.001991796 -0.000608947 0.000251898 0.000917408 0.000012577 0.000841042 0.001560463 -0.000081956 -0.004101338 0.002907368 0.000901899 0.000756271 0.001200379 -0.001888226 -0.000210293 -0.002972266 0.000530141 0.001499618 0.002885067 -0.000849470 0.002070363 -0.001355891 -0.001168891 -0.001663848 -0.002189825 -0.002010247 -0.000081715 -0.001036700 -0.001556478 0.001777899 0.001015720 -0.000414659 -0.000649228 0.001366055 -0.002665541 -0.001627378 -0.003888488 -0.000712882 0.000359862 -0.001104158 0.001906168 -0.001073963 -0.001192393 0.000163805 0.001321501 0.000619953 0.001558945 0.001467072 0.001530390 0.000552183 -0.002381115 0.003351876 0.000385038 0.001017928 0.000890720 -0.001565938 -0.000184807 0.002474391 -0.001065469 0.001282167 -0.000027607 -0.001673299 -0.001784983 0.000660148 -0.001659483 -0.000868958 0.000233556 -0.001083978 0.000986145 0.000113431 -0.003360194 0.000815336 0.002116219 0.000517150 -0.002514574 -0.003304649 -0.001909332 -0.001493059 0.001521808 0.000498465 0.002165978 0.001452700 0.000491798 0.000431259 -0.002203444 -0.001858763 -0.000477370 0.000471504 0.000562976 0.000412568 -0.002490739 -0.001672713 -0.000884341 0.000464726 -0.001595359 0.000085324 0.000760489 -0.002451213 -0.000471660 0.000385997 -0.000265029 -0.002586010 0.000131863 -0.000365257 0.002216999 0.000010024 0.001621752 0.001547932 0.000462269 -0.002833288 0.000671732 -0.000174294 0.001629910 0.001015404 -0.002232911 -0.001474454 -0.003983510 0.003755550 -0.001728735 -0.002830647 0.001018048 0.001831417 -0.000639193 -0.000167204 -0.001306436 -0.000764037 0.000497685 -0.000277663 -0.001436987 -0.001287301 0.000585795 -0.000512974 -0.000958576 0.001273254 -0.000904734 -0.000839791 -0.002046515 0.000298871 0.000790482 0.000961416 0.000688434 0.003234730 0.002211438 -0.001069016 -0.000737641 0.002313947 -0.001490552 0.000627067 0.001608648 -0.000817725 -0.003643707 0.000446787 -0.002547354 -0.003299092 -0.003285622 -0.000234215 -0.000381500 -0.003158790 -0.002554626 -0.000697603 0.001580270 0.000666906 0.002065646 0.000612158 0.001649737 0.003424315 -0.000215131 -0.001759799 0.000206407 -0.000885526 0.004286949 -0.002369204 -0.001263477 -0.001926606 0.001093186 0.000352189 -0.001732844 0.001514598 0.002512048 -0.000692279 0.003010919 -0.001970938 0.000687807 -0.003590196 0.000834214 -0.002512986 -0.002086178 -0.000131571 0.000375067 -0.000626302 -0.000823411 -0.000443714 0.001089943 -0.000287869 -0.001231197 -0.002116004 0.002055739 -0.000138470 -0.002793032 0.001870312 0.001276079 0.002398376 -0.000941463 -0.000963347 -0.001479375 0.001905752 0.002016425 0.000227875 -0.001029192 0.001049080
info	0.001977746 -0.000581923 -0.001767730 -0.000168814 0.001289033 -0.003283534 0.002291302 0.001356533 -0.001423627 -0.001915720 0.001330287 0.002622277 -0.000115600 0.001075105 0.002351823 -0.001083463 0.000207501 0.000782948 -0.000886694 0.000699843 -0.000874277 0.000057633 -0.001090725 0.000033734 0.006134191 0.000399840 0.000039077 0.000320388 -0.001013489 0.002408361 0.002965533 -0.000114236 0.002097090 0.000744850 0.002208111 -0.001419900 -0.002477416 -0.000982344 0.000495216 -0.001800699 0.000515514 0.000475716 -0.000342667 -0.002887577 0.002766546 -0.000711809 -0.002039852 0.000405307 0.001336897 0.000718339 -0.001555371 0.001116580 0.002273566 0.000616092 -0.000178355 0.004573376 -0.001389180 0.001307816 0.001718762 -0.001921920 -0.002504953 -0.001399451 0.001028524 -0.000178229 0.001084160 -0.001221810 0.001694890 -0.001307639 -0.002594100 -0.000929053 0.000044791 -0.001389679 0.002062734 0.002296616 0.001420996 0.002104918 -0.000003971 -0.000408448 0.000073366 0.000649487 0.000627988 -0.002640435 -0.001315236 -0.001256589 -0.002082418 0.002777806 0.000691105 0.003382540 0.002899877 -0.003287590 -0.001022135 0.002194830 0.001664708 -0.002297025 0.002327651 0.001960906 0.000256080 0.000466529 -0.003047784 0.004005383 -0.000097881 0.002276537 0.001150836 0.000287070 0.000854177 -0.002143500 0.003650349 -0.001209437 0.002892296 -0.001001684 0.001936077 -0.000849247 -0.000268516 -0.001651327 -0.001043566 -0.002695934 -0.002627958 -0.002269362 -0.000791800 0.003665658 -0.000189382 -0.001805227 -0.001089667 0.002479243 -0.005269095 0.000598840 -0.002957831 -0.000528360 -0.000159337 0.001929954 0.001767495 -0.003573025 -0.001048915 0.001868129 0.000823596 0.000187048 0.002151137 -0.000240460 0.001222931 0.001065643 -0.004568422 0.000606242 0.001021709 0.002206694 0.000549540 -0.001273914 0.000426613 0.002241089 -0.004358532 0.002121103 -0.003430171 0.000764071 -0.002675664 0.001767140 -0.000660690 0.001922528 -0.000470213 -0.000506597 -0.001263481 -0.001152062 -0.003404883 0.001418951 0.004956557 0.003387361 -0.001748513 -0.003563880 0.000629638 -0.000043572 0.000204466 0.001580287 0.001146051 0.000313336 0.001149831 -0.000077242 -0.001457373 -0.000801637 0.000430827 0.001847328 0.000367922 0.003240997 -0.001385029 0.000630236 -0.000888188 0.001213416 -0.000531326 0.000020539 -0.000296144 -0.003781886 0.000408848 0.002724711 0.001366041 -0.001391653 -0.001314644 -0.001533092 0.001959832 0.000688180 -0.000318021 0.001054530 0.002594462 -0.001293007 0.001031175 -0.000966045 -0.000137797 0.002529254 -0.001108632 -0.003215181 -0.002217137 0.003218307 -0.001069403 -0.001736792 0.002544626 -0.000308885 0.000951824 0.001644458 -0.001248838 -0.000404556 -0.001794126 -0.001488335 0.001043348 -0.003459915 -0.002391185 -0.000044664 -0.004091846 0.003835679 -0.000851573 -0.000754355 -0.001907504 -0.002395677 0.003114994 0.000335218 0.001361401 0.003018565 0.000615630 0.000151094 -0.000825498 0.002155053 -0.002159333 0.001050870 -0.001080048 -0.001061414 -0.002512275 0.002100085 -0.003386724 -0.003866057 -0.001744256 -0.000505567 -0.000613339 -0.004227310 -0.003174480 -0.000610571 0.002702496 0.002691274 0.003722458 0.000296774 0.000907089 0.003235468 -0.000288180 -0.001827678 -0.001060582 -0.000397723 0.005077154 -0.002508834 -0.000281993 0.000310686 0.002394286 0.000310955 -0.000423564 0.000162197 -0.000549953 -0.002530648 0.003160663 -0.003391743 -0.002530933 -0.003662460 0.000056213 -0.001459949 -0.005727456 0.000584583 0.000063145 0.000219486 0.000047663 -0.001378957 0.000898358 -0.000953421 -0.000212341 -0.001910959 0.002045451 0.001066938 -0.002890686 -0.000484686 0.000355169 0.000931298 0.001808886 -0.001067229 0.000814742 0.001402575 0.000497699 0.000812413 0.001075648 -0.001584574
robert	-0.000428034 -0.000235615 -0.002045230 -0.001044090 0.000454923 -0.002768558 -0.000785996 -0.000298542 0.000428927 -0.001257173 0.000561555 0.000584325 0.000904763 -0.001413634 0.001773563 0.000368716 -0.002192363 0.001731103 -0.001809218 0.000262874 0.000127356 0.000224171 -0.002326244 0.000514221 0.003394427 0.000610088 -0.000893559 0.000122642 -0.002968392 -0.000438835 0.002699093 0.000701822 0.002767054 0.003394447 0.003263768 -0.000800033 -0.001783594 -0.000863335 -0.001099738 -0.002709023 -0.000891855 0.000228476 0.000597560 -0.000759075 0.002900578 0.001389272 -0.000862028 0.001388542 0.000587738 -0.000536322 -0.001478589 0.002715887 -0.000431003 -0.002391385 -0.000735349 0.001823843 0.000115243 0.003298598 0.000042974 -0.002280639 -0.000335333 -0.001441744 0.001925411 -0.001011193 0.001281904 -0.001024658 -0.000695889 -0.001688507 -0.000854409 0.000008968 -0.000205817 -0.000951329 0.002863020 0.000033079 0.000310122 0.002592614 -0.000399656 -0.000321753 -0.000611049 0.000051663 -0.001588989 -0.002673846 0.000749414 -0.000665619 -0.003539021 0.000893186 -0.001242317 0.002260393 0.003125891 -0.003010993 -0.001403724 0.000601543 0.000332679 -0.001832116 0.000135905 0.001871897 -0.001430433 0.000687762 -0.001102887 0.003032915 0.002338239 0.002444253 0.001553730 -0.000888573 0.000970183 -0.002811279 0.000604494 -0.000590760 0.001316828 -0.000230173 0.001527119 -0.002322178 0.001789986 -0.000050765 -0.000434904 -0.002489815 -0.000703651 -0.000664761 -0.002276300 0.002041932 -0.000357217 0.000145629 0.001929262 -0.000591456 -0.003786206 0.000361273 -0.001282905 0.000152607 0.000418125 -0.000591105 0.002195785 -0.002756036 -0.002183628 0.000244256 0.000598402 0.000746240 0.000327029 -0.000916180 -0.000388084 0.001407711 -0.004028385 0.003238301 -0.000575814 0.002944313 0.000789901 -0.000078517 -0.000845438 0.001166525 -0.003365854 0.002269976 -0.003010284 -0.000638390 -0.003157572 0.002024940 0.000010269 0.000601204 0.000329720 -0.001330656 -0.001011171 0.001076003 -0.003912915 0.001348598 0.002547458 0.002064049 -0.002609515 -0.000017073 -0.000437505 -0.001318761 0.001816935 0.000427915 0.000529270 0.000831182 0.000100505 0.000510154 -0.002101343 -0.000025971 -0.001838548 0.002028929 -0.000585065 0.002007227 -0.000768412 -0.000982763 -0.001354962 0.000862049 -0.000192685 0.000401547 -0.000667021 -0.002383286 -0.000974412 0.000188257 0.002259581 -0.000545106 -0.001553257 0.000633453 -0.000073516 0.001804944 0.000059728 0.002104559 -0.000216826 -0.002713757 0.001232913 -0.002651016 -0.000050317 0.000357367 -0.001819180 -0.000653777 -0.002466637 0.004166285 0.000191391 -0.001146443 0.000925610 0.000945157 -0.000609790 0.000326733 0.001035607 0.000157336 -0.000817380 -0.001485607 0.000376648 -0.001415220 0.000424032 0.000248285 -0.003558518 0.001555843 -0.002188680 -0.001852838 0.000725372 -0.000451543 0.001160269 -0.000386119 0.001948972 0.003366179 0.002953364 -0.001098663 0.001990068 0.001382507 -0.001532933 0.002004811 -0.000393389 -0.001958184 -0.003469867 0.001385072 -0.000173321 -0.004248523 -0.001789009 0.000780912 -0.001441677 -0.001827944 -0.002905900 -0.000080808 0.001351999 0.002313981 0.003063930 -0.001633899 -0.000280687 0.002993500 -0.001874278 -0.001629728 0.000588039 0.000173575 0.002324391 -0.000253462 0.000194250 0.000119690 0.002202551 -0.001024675 -0.002085502 0.002341992 -0.000360811 -0.000357454 0.001112496 -0.002762994 -0.000614319 -0.000873718 0.001412479 -0.001229419 -0.004874977 0.001705078 -0.000099606 -0.000047321 0.000937387 -0.001583696 0.000685805 -0.001475016 0.000177533 -0.000372977 0.002049516 0.000368331 -0.003434665 0.001503856 0.001709039 -0.000443508 0.001427989 -0.000933417 -0.001512744 0.000144699 0.001206192 -0.000785488 -0.001156454 0.000132376
writes	0.002656289 0.001901306 -0.004854434 -0.003826907 0.004074477 -0.003754769 0.002907671 0.002446947 -0.003664039 -0.000574650 -0.000477394 0.004781435 -0.000889253 -0.001015503 0.003715194 0.000513021 -0.002709133 0.005764887 0.000534523 0.000245560 0.001345871 0.000072674 -0.004056444 -0.002394715 0.009955375 0.001719113 0.002443302 -0.001148341 -0.003275106 0.004032776 0.005474697 0.000163698 0.006103078 0.006316132 0.004934024 -0.000787742 -0.001642995 -0.001297535 -0.002062425 -0.007765598 0.003381996 -0.003317321 -0.003742757 -0.006037930 0.007208027 -0.001254698 -0.001334103 -0.000398598 0.001596787 -0.001553814 -0.000429211 0.004258256 0.001966366 -0.001138908 -0.003367922 0.008348065 -0.000214180 0.007138113 0.002748377 -0.004458790 -0.003917672 -0.003991049 0.003886048 0.001582912 0.003668752 0.001867992 0.003278197 -0.000097840 -0.002606024 -0.001640851 0.001472518 -0.000893483 0.006964050 0.002909388 -0.000666432 0.008278484 -0.002026791 0.000786504 0.001315902 -0.001420809 0.000444924 -0.008638862 -0.000852650 -0.006993053 -0.004694889 0.004941252 -0.002137251 0.002882979 0.007941077 -0.004544747 -0.004579626 0.000859081 0.002703795 -0.002497400 0.001885938 0.004478517 0.002002525 0.000019713 -0.006397769 0.006143130 0.001193755 0.003815356 0.001248629 -0.002102278 -0.001209581 -0.007355790 0.006244940 0.002221618 0.006486705 -0.001125414 0.004407373 -0.002793815 0.001140918 0.001159148 -0.003462961 -0.001875995 -0.001479766 -0.000358117 -0.001975711 0.007951885 -0.001147219 -0.004324363 0.000308501 0.003088903 -0.007725509 -0.000063179 -0.007213533 0.000617561 0.001482860 0.001920238 0.004025398 -0.005920650 -0.002468657 0.002690337 0.002835160 -0.001876245 0.003149336 -0.000811782 0.001649361 -0.000619840 -0.009032266 0.004973960 -0.000492466 0.004936132 0.001131613 -0.002651567 0.000155643 0.006205810 -0.006609139 0.006578147 -0.004881497 -0.002410901 -0.004031314 0.002264922 0.000949793 0.001108715 0.000994654 -0.001237052 0.002165535 -0.001049321 -0.007979651 0.002060873 0.008534458 0.002487192 -0.002780241 -0.005180620 -0.000202444 -0.001459443 0.001257772 -0.001268043 0.003625082 0.003340353 0.001236418 -0.003413463 -0.005009258 -0.004059401 -0.001324852 0.002447767 0.002080289 0.006556765 -0.005709602 -0.000145119 -0.000197059 0.004137671 -0.004359132 0.000406658 -0.000000628 -0.006955346 -0.001267438 0.003909651 0.002021701 -0.004444174 -0.000636713 -0.000525808 0.003778174 -0.000739018 0.001451050 0.003719700 0.003463128 -0.002928877 0.002337645 -0.002128989 0.004567821 0.002731649 -0.001915514 -0.004779113 -0.007241774 0.007050387 -0.002774354 -0.003327380 0.003375725 0.001352391 0.000045206 0.000523858 -0.000401991 0.002169722 -0.004509041 -0.000853553 0.000617867 -0.005980269 -0.002522257 -0.001546954 -0.004670802 0.005988877 -0.002402138 0.000230553 -0.002082487 -0.002625419 0.004022502 -0.002562286 0.001326787 0.005743471 0.004585643 -0.000603348 0.001811992 0.000191599 -0.007989665 0.005749101 -0.000581151 -0.003645055 -0.006433311 0.004451438 -0.004090007 -0.012346440 -0.004319585 0.001159365 -0.002544279 -0.007313652 -0.004515151 0.000046413 0.003365430 0.003601413 0.004820175 0.000110434 -0.000776309 0.004745085 -0.004450365 -0.005739649 -0.001384316 0.000719459 0.006256104 -0.003969485 -0.002056135 -0.002145606 0.001740639 -0.001944104 -0.003330980 0.002003023 0.003033568 -0.003302946 0.004259871 -0.004123365 -0.000888076 -0.006658229 0.003263767 -0.003877481 -0.009461068 -0.000367288 0.004976118 0.000627424 -0.002473780 0.001350012 0.002593213 -0.000750078 0.001181544 -0.000912190 0.003421632 0.000719904 -0.003261273 0.001814808 0.000510739 0.003308133 0.000139139 -0.000636950 -0.003020187 0.001653129 0.001855954 0.000917073 -0.000266675 -0.001499016
understand	0.001078967 0.001545853 -0.001654757 0.000816208 0.001183058 -0.000410887 -0.000608639 0.001283001 -0.001937987 -0.001840897 -0.000928736 0.001489902 0.001673939 -0.000460153 0.002724731 0.001624575 0.000563193 0.001365348 0.001001572 -0.001521670 -0.000091472 0.001031567 -0.001936908 -0.000903661 0.002373710 -0.000591241 0.000790788 -0.000338910 -0.001602759 0.002512588 0.001077050 0.001516812 0.002533026 0.000406919 0.000470304 -0.001280984 -0.002104261 -0.002350618 -0.002361463 -0.004164798 0.000636774 -0.001879192 -0.000380846 -0.002525253 0.003915752 -0.001524811 -0.000867143 -0.000650092 0.000927658 -0.000323949 0.000780461 -0.000190220 0.000662895 -0.000260167 -0.000681463 0.002671346 0.001245584 0.001900647 0.000599355 -0.002235793 -0.000162148 -0.000902049 0.000939932 -0.000810694 0.001158416 -0.000260017 0.001011041 0.000927940 0.000202942 0.000841858 0.001527975 0.000299555 0.003573798 -0.000653430 -0.001076980 0.001551146 -0.001353054 -0.000703089 0.000108715 -0.001697197 0.000718548 -0.001569645 -0.000024007 -0.003167649 -0.000517097 0.002613500 0.001046525 0.000235680 0.003752114 -0.003163098 -0.001258658 0.001348069 0.002126485 -0.002346348 0.002251790 0.002228467 0.000368894 -0.000908427 -0.002780499 0.001997579 0.001382255 -0.000122361 -0.000587856 -0.001971778 -0.000129970 -0.003896416 0.002289596 0.000029743 0.003386099 0.000250925 0.001810664 -0.001754791 -0.000452330 0.000762076 -0.002167528 0.000164849 0.000606431 0.001096969 -0.000511030 0.003816712 0.001327984 -0.001856224 0.001046397 0.001553706 -0.003652958 -0.001405675 -0.001490267 0.001694163 -0.000484600 -0.001305467 0.000711767 -0.001749317 -0.002367395 0.001164850 -0.000575056 0.001117500 0.002017676 -0.000344461 -0.000942224 -0.000271915 -0.002937717 0.002021890 -0.001365715 0.003026038 -0.001605846 -0.000870126 -0.001575515 0.001149573 -0.002971280 0.002834843 -0.002948132 -0.001598251 -0.003193682 0.002261538 0.000255348 0.001632015 -0.000740253 -0.000843776 0.001864861 0.000667659 -0.003482033 0.000634572 0.002652231 0.000530150 0.000107022 -0.001710415 0.000229427 0.001531714 -0.000933288 -0.000337647 0.000786710 0.000367658 0.002004242 -0.000512317 -0.002886340 -0.001393329 -0.001773765 -0.001020023 -0.000053723 0.001970002 -0.002742148 -0.001375937 -0.000879399 0.002663268 -0.002124638 0.000475060 0.001517868 -0.003357287 0.000647044 0.001924520 0.000337678 -0.001565640 0.001136726 -0.000138901 0.001226029 -0.000296508 0.001142527 0.000048157 0.001543369 -0.000539114 0.000775616 -0.001155638 0.000844514 -0.000354055 -0.001716353 -0.000793244 -0.002532283 0.002963056 -0.001721930 -0.001334075 -0.000245725 0.001104723 -0.001127894 -0.001188818 -0.001434790 0.001619164 -0.000519518 -0.001541340 -0.001548090 -0.001843454 -0.000190832 -0.000673659 -0.001429035 0.003030163 -0.001348743 0.001224760 0.000732746 -0.000229881 0.002739967 -0.000233062 0.001229201 0.002943825 0.001739206 -0.000533613 0.000455875 -0.000756690 -0.001837773 0.002555393 0.001034703 -0.000764924 -0.003335050 0.001826400 -0.002567545 -0.005446953 -0.002767363 -0.000409093 -0.001860376 -0.003968425 -0.000077486 -0.000222316 0.000717979 0.002288023 0.000440230 -0.001701357 -0.000545519 0.002301139 -0.002654488 -0.000231646 -0.000613615 0.002027359 0.002839802 0.000479892 -0.001399747 -0.001628317 -0.000034576 -0.001818360 -0.001825732 0.000421562 0.002445310 -0.001670131 0.002031678 -0.001133059 -0.002420561 -0.004034847 0.001374758 -0.000888291 -0.002806355 0.002060000 0.000651186 0.000857670 0.000058911 0.000152034 -0.000405857 -0.001692429 -0.000931701 -0.001791141 0.001414939 -0.001815001 -0.003219442 -0.000009975 -0.000362903 0.002002436 0.000045965 -0.000883491 -0.001633839 0.000654722 0.001649799 0.001270131 -0.001357405 -0.000579238
current	0.002177208 -0.000383427 -0.000912111 -0.002323051 0.003595335 -0.001095572 -0.000015484 -0.001042368 -0.002094437 -0.000297259 -0.000577207 0.004368484 0.000284596 -0.001652755 0.001997686 0.001675486 -0.001775195 0.002206351 -0.002129563 0.000614501 0.002193685 -0.001782638 -0.001454685 -0.000859664 0.005446883 -0.000254629 0.001434263 -0.001313830 -0.003454534 0.000471672 0.001406920 0.000896127 0.002988686 0.001296914 0.001427628 -0.001918186 -0.002614292 -0.002011843 -0.002726373 -0.002481315 0.000780267 -0.002590809 -0.001907470 -0.001394592 0.003258075 -0.001745642 -0.002175801 -0.000980182 0.001491570 0.000419396 -0.000685262 0.000199547 0.002788120 -0.002555709 0.000569910 0.003422754 0.001799744 0.001846675 -0.000121543 -0.003532051 -0.001208491 -0.002858987 0.003436414 0.000803563 0.001327661 0.001543138 0.001587335 0.000930036 -0.002808091 0.000415412 0.000074685 -0.001082203 0.003594966 0.002547201 0.001391681 0.004201439 -0.001003576 0.000476461 -0.000245702 -0.002524206 -0.002014959 -0.004334734 -0.001937902 -0.004824638 -0.001461689 0.003841178 0.000397914 0.000737635 0.004198999 -0.003490148 -0.002359810 0.000722626 -0.000543868 -0.001641186 0.001762543 0.001903186 0.001233545 -0.000468263 -0.005298967 0.005116124 0.002036122 0.000431039 -0.000297754 0.000212350 -0.001235029 -0.001788585 0.001357079 0.000487634 0.002121404 0.000093247 0.004242739 -0.002327110 0.001673853 0.001056756 -0.002476074 -0.002698137 -0.001924398 0.000736318 -0.001400251 0.003225581 -0.001960105 -0.003232457 -0.000415006 0.002463602 -0.004679428 -0.000779455 -0.004007267 0.001752578 0.000367366 0.001362034 0.001316305 -0.004068749 -0.001653980 0.003120530 0.002711486 -0.000299972 0.002236723 -0.001389679 -0.000895638 0.001208917 -0.004165579 0.000953909 0.000640177 0.003561840 -0.001216269 0.000391927 -0.001890361 0.001863309 -0.003603151 0.004386786 -0.003228906 -0.000738163 -0.002751415 0.002415296 0.001421543 -0.000473787 0.000438748 0.001048862 0.001836464 0.000464887 -0.002817579 0.001486722 0.005610796 0.002956245 -0.003788431 -0.003379516 -0.000880905 0.000019723 0.000917006 0.000775311 0.000502971 0.003407680 -0.000110596 -0.001154083 -0.002489130 -0.001456177 -0.000464237 -0.000476827 0.000494999 0.002163353 -0.001593167 0.000814663 -0.001211431 0.000894147 -0.001714826 -0.001519176 -0.000038052 -0.004463994 -0.000199282 0.001192969 0.000584700 -0.003104466 -0.000299667 0.000083247 0.001337267 0.000676017 0.000567416 0.000246493 0.000376922 -0.000728855 0.001602268 -0.000481492 0.000365371 0.000967617 -0.002109620 -0.001648093 -0.003519356 0.004215776 -0.001787708 -0.000797560 0.001370868 -0.000454578 0.000455332 0.000058189 -0.002303764 -0.000412668 -0.001690072 0.000853594 0.000559380 -0.001748007 -0.001577551 0.000310163 -0.001645184 0.002899019 -0.001648304 -0.001387654 -0.001075527 -0.001038570 0.001785339 -0.000742804 0.001067138 0.005527169 0.003468353 0.000099014 -0.000496688 -0.000116436 -0.002028499 0.002052519 0.000695435 -0.002699872 -0.004183142 0.001339320 -0.000886698 -0.006660533 -0.001527421 0.001561864 -0.002101290 -0.004392206 -0.002471179 -0.000058078 0.000688213 0.001204993 0.003182655 0.000801398 0.001231867 0.002133650 -0.001578182 -0.003355206 -0.000905759 0.000390446 0.002485364 -0.002154855 -0.001610805 -0.001783854 0.000221190 -0.000532266 -0.002176682 0.000272619 0.001511467 -0.001094928 0.002639559 -0.001474728 0.000110202 -0.004012306 0.001760099 -0.000640708 -0.004806466 0.001600987 0.002980734 0.000856402 0.000960711 0.000756952 0.002849903 -0.001851422 0.000452874 0.000127322 0.000591659 -0.000523541 -0.001301636 -0.000168788 -0.001143984 0.000854803 0.000299078 -0.001238300 -0.001836001 0.001544231 0.000787349 0.001431535 0.001041840 -0.000640256
situation	0.002218809 0.000793373 -0.000780475 -0.001407659 0.000040708 -0.002786462 0.001315856 0.001697677 0.000667047 0.000405239 0.001306794 0.000715974 -0.000814295 -0.000937145 0.001967754 0.000793032 -0.001767327 0.001816184 0.001212997 -0.000957771 0.000768004 0.001505565 -0.000431034 -0.001312798 0.005453555 -0.000248334 -0.000447863 -0.000502407 -0.000486402 0.002336986 0.002975643 0.000896037 0.002980968 0.002274262 0.003268591 0.000480260 0.000004305 -0.000877979 0.000668891 -0.001361403 0.001473227 -0.000439046 -0.000487201 -0.001164238 0.001115343 0.000189050 0.000095507 0.000969752 0.000438150 -0.000020689 -0.000340323 0.000839761 0.001173384 -0.000532974 -0.000211818 0.003489126 0.001491106 0.001844485 0.002228875 -0.001649490 -0.002335562 -0.000999650 0.002167644 0.000745833 0.000666741 0.000242239 -0.000254749 -0.001402438 -0.000702654 -0.001293070 -0.001630896 0.001311098 0.001416023 0.000880087 -0.001087841 0.003420856 -0.001689168 -0.000319476 0.001493864 0.000054743 -0.000837202 -0.002309368 -0.002062868 -0.002781694 -0.001196056 0.002916476 -0.000489385 0.002427218 0.003548867 -0.002826602 -0.002388775 -0.000195986 0.000289850 -0.000275851 -0.000147922 0.001333667 0.000070914 -0.000458430 -0.004077029 0.002363527 0.001680282 0.000580365 0.001213538 0.000377236 -0.000195730 -0.003714291 0.002387990 -0.001155204 0.002655360 -0.000039386 0.001008225 -0.001953086 -0.000453204 -0.001591998 -0.001327747 -0.001920989 -0.000560035 0.000949954 -0.001996571 0.000993473 0.000602202 -0.000914095 0.001011714 0.000494655 -0.002549326 -0.002083666 -0.001535748 0.001560574 -0.001018560 0.000678923 0.002200248 -0.001330861 -0.000264708 0.002213847 0.002357287 0.001273344 0.001296964 0.000796543 0.001014947 -0.000069971 -0.004396905 0.000923483 0.001306796 0.003115536 -0.000322084 -0.001685021 0.000808175 0.003058298 -0.002736235 0.003324549 -0.000185082 -0.000381148 -0.003207575 0.002257268 0.000939926 -0.000096664 -0.000937668 -0.001395450 0.000722664 0.000335338 -0.001847401 0.001673446 0.003284238 0.001657547 -0.001255298 -0.002631435 -0.001101044 0.000128851 0.002203255 -0.000910516 0.001903197 0.002003046 -0.001230555 0.000120830 -0.000345739 -0.001542989 -0.001259292 -0.000373635 -0.001195244 0.003146659 -0.001621867 0.000170680 0.000624659 0.001748259 -0.000776921 -0.000285162 0.000469613 -0.001382844 0.000853968 0.000201618 0.002463802 -0.002331715 -0.000602389 -0.001332748 -0.000024963 0.001681466 0.000713282 -0.000304108 0.002608509 -0.001430497 -0.000143470 -0.001535887 0.002475152 -0.000309471 -0.002502672 -0.002189773 -0.003306953 0.002765589 -0.000133964 -0.002537394 0.002598779 -0.000626041 0.001886090 0.001372870 -0.000250268 -0.000125736 -0.000332008 -0.001624083 -0.001428066 -0.001942884 -0.000676648 -0.001631663 -0.001217657 0.000501117 -0.001950495 0.000147563 -0.001151728 -0.001436184 0.002076370 -0.001002043 0.002404563 0.002665265 0.002844356 0.000358910 0.000181348 -0.000964000 -0.003274693 0.001835061 0.000221954 -0.002382078 -0.001052455 0.001681931 -0.003201632 -0.004708746 -0.002620279 0.000204382 -0.001718807 -0.003272321 -0.002370103 -0.000861590 0.001175770 0.001297345 0.002227227 -0.000465045 -0.000893619 0.003262349 0.000223024 -0.002865648 0.000616759 0.001384051 0.003966389 -0.001836592 -0.001950164 -0.001647504 0.001848900 0.000746075 -0.000345928 0.001025979 0.000738800 -0.002283936 0.002027892 -0.001189026 -0.000889105 -0.002951999 0.001915192 -0.001408041 -0.002429372 0.000731329 0.002489650 0.000260540 0.000437218 -0.000957117 0.001908977 -0.001575958 -0.001168881 0.000064432 0.000350998 -0.000601152 -0.003014206 0.000650489 0.000486757 -0.000066880 0.001934676 0.000195921 0.000957902 0.001080879 -0.000348403 -0.000378909 -0.000175632 -0.001513262
give	0.002874949 0.000787522 -0.001914467 -0.000049706 0.001323846 -0.003675425 0.000701411 0.000118705 -0.001056670 0.000843430 -0.000738647 0.004434784 -0.000635724 -0.000290234 0.000649521 0.000519994 -0.001518835 0.001000764 -0.000862025 -0.000355950 0.001915496 0.001154044 -0.003660782 0.000158412 0.006188147 -0.000013625 0.001241418 -0.000604360 -0.001125172 0.000700198 0.003141911 0.001925910 0.003296137 0.002273593 0.002159914 -0.001823859 -0.003301713 -0.002154553 -0.001845326 -0.005262606 0.001047322 -0.000852527 -0.001438863 -0.002542240 0.003772247 0.000130751 -0.002360999 -0.000723926 0.001487511 -0.000250267 0.001184319 0.001128746 0.001345596 -0.002489689 -0.000971134 0.004235672 0.000398951 0.003411185 0.000799457 -0.001965340 -0.000718543 -0.000087701 0.000539315 0.001132671 0.002612048 -0.000508453 0.001751027 0.001256254 -0.000777500 -0.000882053 -0.001515160 -0.000778135 0.004795196 0.001730806 -0.001674203 0.002554318 -0.000942784 0.000193442 0.001567595 -0.001716202 -0.001991201 -0.005348383 -0.002220226 -0.002910065 -0.003509905 0.003509749 -0.000409833 0.003751888 0.005339892 -0.000803732 -0.002188244 0.002135210 0.000315140 -0.000298876 0.002794282 0.001354918 -0.001145066 0.000513569 -0.004416088 0.004566560 0.001421286 0.000890013 0.001361846 0.000370451 -0.002008363 -0.002535617 0.002892350 0.001271372 0.004055938 0.000106180 0.003860941 -0.001931797 -0.000154665 0.000187746 0.000198960 -0.000948163 -0.001660732 0.000823462 -0.001941192 0.004876927 0.001236089 -0.002794113 -0.000687397 0.000598644 -0.004289664 -0.000179293 -0.002750418 0.001137359 -0.000867739 -0.001115681 0.001994765 -0.003975672 -0.000762395 0.003216529 0.001675314 -0.000010408 0.000336969 -0.001593069 -0.000810458 -0.000567526 -0.004764549 0.001667911 0.000813268 0.003691961 0.000568070 -0.002122430 0.000724817 0.004419729 -0.004541719 0.004556610 -0.001246381 -0.001185015 -0.003911851 0.001243534 -0.000616378 0.002241930 0.000790272 -0.001141960 0.001952602 -0.000614619 -0.003793569 0.001760418 0.002743546 0.002787748 -0.003010519 -0.000956495 -0.000059668 0.000181626 -0.000048526 -0.000702446 0.000702978 0.002583755 0.000695015 -0.002530637 -0.002364790 -0.001711768 -0.000142587 0.000812734 -0.000628164 0.002448654 -0.003394505 -0.000220218 -0.000824119 0.001815574 -0.001666473 -0.001802437 0.002069581 -0.002347935 0.001266179 0.000458771 0.001865551 -0.002586541 -0.001652315 -0.000479311 0.002516301 0.000934725 0.001202396 0.000949169 0.000848392 -0.001052444 -0.001105509 -0.000399978 0.001779595 0.000433455 0.000085693 -0.000236714 -0.004683572 0.003258594 -0.000742784 -0.000301940 0.002443203 -0.000158679 -0.000191820 -0.000711615 0.000023544 0.000821101 -0.000112920 -0.002009541 0.000683909 -0.003054968 -0.000799577 -0.000750113 -0.004036424 0.003652710 -0.002790045 0.000809180 -0.001097756 0.000835218 0.000399899 -0.001672966 0.002902126 0.003981560 0.001983939 -0.000947788 0.001799149 0.001454033 -0.003278865 0.001218635 -0.000437957 -0.002835006 -0.001355042 0.001976392 -0.003257146 -0.005791892 -0.003206996 0.000755100 0.000132441 -0.003390654 -0.002135363 -0.001183445 0.000684522 0.002531381 0.002753253 -0.001704076 -0.000476912 0.001547475 -0.001311091 -0.002334242 0.000057505 -0.000934945 0.005749172 -0.001835379 -0.001329295 -0.001915072 0.002605667 -0.001103907 -0.001911547 -0.000160938 -0.000223589 -0.000328183 0.003516949 -0.003399428 -0.000343701 -0.001878154 0.001748231 -0.000953336 -0.005490133 0.000282505 0.002490870 0.001138192 -0.000850745 0.001118181 0.002241375 0.000818050 -0.001439318 -0.002505948 0.000979412 -0.001032747 -0.002817350 -0.000895652 0.001270727 0.001679019 0.001594285 0.000924235 -0.001398862 0.000996775 0.002706864 0.000193445 0.000534600 -0.000873968
years	0.003337756 0.001121983 -0.002813312 -0.002683760 0.003642245 -0.003979893 0.002792888 0.002019968 -0.002217670 -0.001855869 -0.000737702 0.003104343 0.001185864 -0.001755022 0.002377006 0.001045272 -0.000269249 0.004189994 0.000481496 0.000895319 0.000620503 -0.000343111 -0.003484851 -0.000706161 0.009369513 0.002725692 -0.000647640 -0.000812954 -0.003752052 0.001235512 0.002780928 0.002337978 0.002797777 0.003355857 0.003898220 -0.000870641 -0.003502291 -0.002006483 -0.000997608 -0.006969003 0.000111418 -0.002494961 -0.002354140 -0.002074424 0.003616704 -0.001623136 0.000408424 -0.001278030 0.000603718 -0.000758031 0.000192433 0.002089346 0.002953178 0.000177321 -0.001102964 0.005213206 -0.000549949 0.005206930 0.001840253 -0.003521636 -0.003408758 -0.002050023 0.001994112 -0.000956153 0.003370271 -0.000910893 0.000524261 0.000561177 -0.002120971 -0.000269174 -0.000173142 0.000516175 0.003445877 0.001820718 -0.001635812 0.004548694 -0.001718715 0.001158854 0.000188493 -0.001820117 -0.001147334 -0.005736363 -0.002827150 -0.002970451 -0.003669138 0.003774546 -0.000992339 0.004690801 0.006425695 -0.003047893 -0.002181428 0.002146012 0.001819152 -0.002429579 0.000007204 0.004893738 -0.000198612 -0.002458350 -0.004294056 0.004561501 0.001197275 0.002673886 0.001162853 -0.000528538 -0.000387312 -0.005777170 0.004895477 0.002178178 0.004216551 0.000154347 0.003626173 -0.002749203 -0.000938487 -0.000404114 -0.000764475 -0.002504575 -0.000785343 -0.002601367 -0.000738024 0.006707179 -0.000758162 -0.001427395 0.000521460 0.001317160 -0.004377292 0.000343600 -0.006411422 0.000208131 -0.000703653 0.000779246 0.001972978 -0.005767825 -0.003026435 0.002679890 0.000949107 -0.000455429 0.000443908 -0.000753950 -0.000247599 0.000835290 -0.004302192 0.004752138 0.000118300 0.005648523 0.000243474 0.000201684 -0.000577158 0.005692293 -0.005951681 0.004633923 -0.002041348 0.000208636 -0.003330637 0.001688575 0.000287050 0.000312943 -0.000072385 -0.002442678 0.000216253 0.000383223 -0.005683266 0.001842550 0.005122542 0.004192711 -0.003582106 -0.004302695 -0.001693207 -0.000921906 0.000106275 -0.000230260 0.004304560 0.003025884 -0.000762591 -0.001460630 -0.002999820 -0.003389179 0.000448007 0.001838238 0.000074189 0.004611130 -0.005249025 0.000594362 -0.001519802 0.002272611 -0.002477075 -0.002276107 0.001473750 -0.005669170 -0.000232734 0.001238715 0.003059599 -0.003963128 -0.001208297 -0.000367869 0.002764531 -0.001162262 -0.000452095 0.002765787 0.003054223 -0.003489105 -0.000478605 -0.002170329 0.004087395 0.002891991 -0.002469369 -0.002649836 -0.006545932 0.005916761 -0.000922340 -0.001829469 0.000802939 0.000781608 0.000537781 0.001942229 -0.000938119 0.001671749 -0.003633349 0.000450283 0.001008525 -0.003452749 -0.001931652 0.000036884 -0.003333207 0.003877898 -0.001512787 -0.000073099 -0.000481314 -0.001280910 0.000828615 -0.000529643 0.000307305 0.004013591 0.001675847 -0.001841256 -0.000152796 0.001814278 -0.005144749 0.003176969 0.000845378 -0.001581184 -0.002941385 0.003959957 -0.001562635 -0.008760491 -0.004800660 0.000508983 0.000478877 -0.005163229 -0.002910792 -0.000225032 0.002216084 0.002552566 0.004114276 -0.000984532 0.000179705 0.005914639 -0.002683169 -0.003700348 -0.000791605 0.000853316 0.005822123 -0.001508647 0.000156313 -0.000850292 0.000393244 -0.001566585 -0.001927877 0.000824786 0.001466395 -0.000297126 0.003072591 -0.001840475 -0.000672349 -0.004922501 0.003064813 -0.001697270 -0.005612292 0.001916889 0.003920284 0.000036960 -0.000361231 0.000935803 0.003220365 -0.002168174 -0.001233024 -0.001900351 0.003043529 0.000100453 -0.003826078 0.000623324 -0.001134681 0.003135933 0.000291469 -0.000948171 -0.001645015 -0.000595030 0.003535550 0.000830299 0.001900103 -0.000789153
add	0.000261648 -0.000143207 -0.001555985 -0.000106224 0.001271675 -0.001008480 0.001121704 -0.000782229 -0.000815105 -0.002018109 0.000686095 0.002407517 -0.001433403 -0.001173184 0.002493103 -0.000413061 -0.000674937 0.002201321 0.000728971 -0.000888432 -0.000296085 -0.001291869 -0.001854841 0.001068344 0.004513296 0.001299878 0.000776805 -0.001402871 -0.002478990 0.000939019 0.003028423 -0.000545545 0.003216360 0.002504684 0.002148143 -0.001967542 -0.000871410 0.000334705 -0.001612005 -0.001466435 0.000076780 0.000030507 -0.001961184 -0.003437773 0.003429891 -0.000876476 -0.000860332 0.000192635 -0.000316059 0.000992431 0.000176082 -0.000222761 0.001581743 -0.000532426 -0.002504694 0.002599306 0.001590749 0.001642943 -0.000611791 -0.001294385 -0.000704724 -0.000891459 0.001664973 0.000584921 0.001209692 0.000530480 0.000006249 0.001425089 -0.001558194 -0.001660481 0.000583973 -0.000984210 0.004134218 -0.000424589 0.000367718 0.002333868 -0.000979306 0.000291844 -0.001595732 -0.001132030 -0.000893164 -0.002285571 -0.002095812 -0.004129160 -0.000730224 0.003865083 -0.001207965 0.000051270 0.001648150 -0.002734470 -0.000128580 0.000033162 0.000377946 -0.000859127 -0.000418197 0.003609878 0.000310228 -0.000264148 -0.004092140 0.002119671 0.001721681 0.000613624 -0.000374947 0.000729157 -0.001293167 -0.001391350 0.001868443 0.000102191 0.003459630 0.000895796 0.002595096 -0.001124416 0.001360898 0.000095847 -0.001448179 -0.001430248 -0.000999914 0.000680853 0.000586062 0.002491544 -0.001801406 -0.001314663 0.001307200 0.001903073 -0.003082344 -0.001941509 -0.003102202 0.002307553 -0.000910932 -0.000490475 0.000276199 -0.003468578 -0.002406629 0.002042359 -0.000173080 -0.000078235 -0.000636198 0.000520953 0.001748622 -0.001078951 -0.002499794 0.000340847 0.000350897 0.001719778 -0.000752958 -0.001345714 -0.000496306 0.000818717 -0.003192378 0.001317529 -0.002369699 -0.000322551 -0.002564207 0.001143512 -0.000311498 0.000535137 -0.000909825 -0.000203703 -0.000577101 -0.000948023 -0.003013226 0.000687104 0.004180642 0.003074741 -0.001992671 -0.002859166 -0.000208968 -0.000442051 0.001784243 0.001086493 0.001729279 0.000906352 -0.000084190 -0.001821453 -0.000846283 -0.000333259 0.000119577 0.001092998 -0.001436668 0.000962893 -0.002999464 0.000138205 0.000066689 -0.000344913 -0.002191791 -0.001694150 0.002079688 -0.002367385 -0.000394464 0.002361137 0.001299227 -0.002236766 -0.001584759 -0.000577695 -0.000299190 0.000972157 0.000246962 0.002546085 0.000295998 -0.001635714 0.000605581 -0.002256053 0.002032900 0.000137493 -0.000288392 -0.002928696 -0.003909340 0.004738650 -0.000575062 -0.000266302 0.000626803 0.002423122 -0.001077967 0.001486157 -0.000528682 0.001476069 -0.002345787 0.000887285 0.000324408 -0.000950973 -0.001068883 -0.000152847 -0.003726177 0.002784689 -0.002001056 -0.001516710 -0.000837894 0.000486831 0.000699997 -0.001251214 0.000676699 0.003138045 0.001923228 -0.001098463 -0.000470364 -0.001038260 -0.003893085 0.001451259 0.001214857 -0.002230543 -0.003495932 0.000356282 -0.003368152 -0.005421874 -0.001086466 -0.000025285 0.000573671 -0.003670074 -0.000735817 0.000870891 0.001078527 0.000253107 0.001996312 0.001363373 -0.000406122 0.001385049 -0.000936061 -0.000604870 -0.000496023 -0.000779231 0.003164179 -0.000565991 -0.000829884 -0.000728922 0.002094252 -0.000522586 -0.001538676 0.001449588 0.000324308 -0.001314431 0.001028029 -0.001020147 -0.000293176 -0.004126078 0.002407600 -0.002021329 -0.003239961 -0.001097306 0.001895278 0.000837912 -0.002091236 -0.001724531 0.001356071 0.000122333 0.000410023 -0.001795786 0.001430125 -0.001541516 -0.003546751 0.000368403 0.000724345 0.000554095 0.000738768 -0.000037056 0.000532109 0.001856469 -0.000421213 -0.000240191 -0.001065140 0.000574178
memory	0.001383049 -0.000439047 -0.003791184 -0.001364312 0.001570126 -0.003746017 0.000596081 0.001359098 -0.000569776 -0.001046436 0.000401981 0.004390428 0.001965139 0.000608129 0.003846354 0.001556542 -0.002729490 0.002263999 0.000157428 -0.000462507 -0.000327646 -0.001023383 -0.001713346 0.000431071 0.005268666 0.001711959 0.002309562 0.000479615 -0.001516195 0.002756917 0.000952663 0.001257504 0.004897042 0.002256075 0.003518266 0.000811042 -0.000867155 -0.002772878 -0.003085745 -0.004049749 0.002015857 -0.002229879 -0.001482003 -0.003859672 0.003775187 0.000226833 0.000085218 0.001375095 0.001341025 -0.001732346 -0.000121493 0.003139050 0.000924227 -0.000436979 -0.001964660 0.004281892 -0.001012060 0.003433247 0.000988526 -0.003958747 -0.001630140 0.000146698 0.002989633 0.000899246 0.003839658 0.001554500 0.002645676 -0.001106083 -0.000413847 0.000614642 0.000784537 -0.000500600 0.004710058 0.000924179 0.000398792 0.005040064 -0.001733115 -0.000781230 0.001540954 -0.000160005 -0.000025538 -0.004268351 -0.000312234 -0.002947564 -0.003361678 0.002763932 -0.001484592 0.002644512 0.006164598 -0.002965939 -0.003360758 0.000567836 0.001859786 -0.002753583 0.000768890 0.002591469 -0.001345181 -0.000805015 -0.004963189 0.004801764 0.002974112 0.002424590 0.001334881 0.000312203 -0.001605781 -0.003835996 0.003673900 0.000925831 0.003151690 0.000067807 0.004445175 -0.002428249 -0.000704604 0.000388497 0.000225145 -0.001290739 0.000203500 -0.001169520 0.000026451 0.005609983 -0.000224463 -0.002389234 -0.000894919 0.001751730 -0.006284051 -0.001216546 -0.002824447 -0.000159956 0.000709704 0.001217524 0.002018666 -0.004979301 -0.001485090 0.003856811 -0.000030286 0.000025588 0.000940283 -0.000468434 0.000794835 -0.001770025 -0.002959204 0.002735308 0.001402007 0.004911979 -0.001629887 -0.000476654 0.001003391 0.003624631 -0.002452274 0.002551444 -0.003344191 -0.000881580 -0.003023088 0.001693980 0.000950730 -0.000934086 -0.000518913 -0.001922498 0.002017085 0.000842209 -0.003514854 0.001211185 0.005390846 0.003589012 -0.003336389 -0.002726243 -0.001769897 -0.000680119 0.000210617 0.000716119 0.001117576 0.000754310 -0.000646434 -0.002320621 -0.003583348 -0.002157519 -0.000969529 0.001242716 0.000335336 0.004706040 -0.004007395 -0.001520636 -0.000790541 0.003344531 -0.003874435 -0.000156121 0.001166465 -0.004233954 0.001176547 0.001375846 0.000347066 -0.001126556 0.000787186 0.001139837 0.001529533 -0.000414325 -0.000933919 0.001883186 0.003274838 -0.003294335 -0.000348072 -0.002297342 0.001455629 0.001299030 -0.001354113 -0.003063552 -0.005062462 0.005868770 -0.000552851 -0.003086103 0.000528642 0.001344170 0.000126812 0.000998976 -0.002043363 0.001490138 -0.001859594 0.000544558 -0.000413891 -0.004079497 -0.000931152 0.000272611 -0.003144770 0.002290488 -0.002052106 -0.000667935 -0.000562563 -0.001745000 0.001508377 -0.001781172 0.002845730 0.005675263 0.001762150 -0.000676892 0.001267584 0.002001406 -0.003775721 0.001919310 -0.000661384 -0.001156116 -0.003014143 0.003744585 -0.001680224 -0.008326207 -0.003022698 0.000518842 -0.002033722 -0.003630633 -0.003506976 0.000367477 0.003756908 0.003110983 0.004366705 0.000198959 -0.000267572 0.004457451 -0.002075685 -0.003008147 -0.002301891 -0.000355828 0.005299069 0.000057421 -0.000580157 -0.000935708 0.001682463 -0.001451872 0.000330673 0.000843845 0.001096826 -0.000729235 0.002430283 -0.003903639 -0.000869927 -0.002915640 -0.000127506 -0.001235408 -0.004337142 0.000306512 0.003412594 0.001574376 -0.002046362 -0.001417371 0.001607581 -0.001997757 -0.000778826 -0.001747705 -0.000055759 -0.001846254 -0.001988641 0.001416136 -0.000757329 0.000806503 -0.000426915 -0.001663937 0.000318802 0.000498077 0.003056502 0.001361731 -0.000887562 0.001143083
faster	-0.000489757 0.000452740 -0.002020285 -0.002210671 0.001483728 -0.002311598 -0.000089925 -0.000218427 -0.000203260 -0.000883881 -0.000906803 0.001351341 -0.000948245 -0.001296504 0.002939749 0.001153134 -0.001767835 0.001930449 -0.001209284 -0.002028067 0.000798089 -0.000591057 -0.001615440 0.000012828 0.005438463 0.001670298 0.000317129 0.000467256 -0.000863385 0.001557570 0.000571713 0.000814676 0.002732231 0.002347103 0.003769540 -0.000125884 -0.002696910 -0.000101878 0.000128651 -0.003943270 0.000108128 -0.002321457 -0.002085894 -0.002866755 0.003103152 0.000156120 0.000135649 0.001244004 0.000341906 0.001123217 0.000428675 0.001278870 0.001854978 -0.001383863 -0.002175265 0.003398243 -0.001092934 0.004267538 0.002695123 -0.001330114 -0.002823791 -0.002527016 0.000828053 -0.000004570 0.002331407 0.000088600 0.001126957 -0.000765598 -0.001221138 0.000851526 -0.001640473 0.000050943 0.003529319 0.001528080 -0.001181014 0.002719586 0.000908115 0.002154224 -0.000343671 -0.002238111 -0.001664774 -0.005216946 -0.001702248 -0.003239529 -0.003622132 0.003736286 0.000367398 0.002044801 0.004812556 -0.003090866 -0.002303629 -0.000024501 -0.000623892 -0.000008061 0.002079994 0.001517491 0.000557357 -0.000650964 -0.003488803 0.004522642 0.000886791 0.003226280 0.000030231 -0.002290666 -0.000719410 -0.003837024 0.002123770 0.001439974 0.002962160 -0.001057197 0.004134515 -0.002549266 0.001225296 0.000389750 -0.002527208 -0.001721186 -0.000238774 -0.000127912 -0.000279970 0.002044960 -0.000390206 -0.000446418 0.000957328 0.001872149 -0.005251082 -0.002115899 -0.003161708 0.002069429 -0.000770035 0.000926508 0.001116653 -0.003111841 -0.002549365 0.002819718 0.003015851 -0.001234013 0.001954879 -0.000108088 -0.000678955 0.001320611 -0.003248629 0.002813566 0.001296373 0.003473527 -0.000637872 -0.001596991 -0.000520622 0.002290466 -0.004548650 0.003803026 -0.001339772 0.000980769 -0.001124279 0.001267495 0.000041860 0.001807919 0.000879911 -0.002064098 0.001711133 0.000383410 -0.004153811 0.002209947 0.003469877 0.000224624 -0.003146613 -0.003727940 0.001005661 -0.000561760 0.000730476 -0.000752693 0.003406599 0.000719241 0.002164368 -0.002594207 -0.001247284 -0.000851991 0.000526108 0.000060153 0.001862568 0.001430659 -0.002070097 -0.000001758 -0.000045239 0.001976275 -0.002151788 0.000022447 0.001894085 -0.004186483 -0.001288543 0.002418869 0.000168927 -0.002204247 -0.001150379 -0.001767822 0.000812374 -0.000386687 -0.000408682 0.000043605 0.000573671 -0.002737476 0.000533672 -0.000407726 0.000358570 0.000513447 -0.002382016 -0.002890124 -0.003069943 0.005228643 -0.002026139 -0.000624678 0.002196850 0.000176751 0.001212920 0.001294870 -0.001844814 -0.000485842 -0.000807706 -0.002020720 0.001029929 -0.001160775 -0.000548170 0.000220819 -0.001616981 0.002518726 -0.001661063 0.001178202 0.000220192 -0.000133204 0.001739403 -0.000160681 0.000246405 0.002247693 0.003066979 -0.002113330 0.002116853 0.001207923 -0.002003646 0.003855052 -0.000024553 -0.002640345 -0.003852906 0.001391118 -0.003031638 -0.006626759 -0.004327450 0.001488011 0.000152041 -0.005382659 -0.002571367 0.000051176 0.001779256 -0.000153555 0.003970518 0.000034279 -0.001299741 0.002618256 -0.001532998 -0.000758365 0.000685197 0.001402675 0.002851133 -0.001129671 -0.001637578 -0.002178052 0.000711279 0.000536231 0.000063169 0.000952458 0.002071208 -0.000800250 0.003522533 -0.003674012 0.000138836 -0.002489671 0.001499285 -0.002180499 -0.005787906 0.000628434 0.001107955 -0.001170518 -0.000023584 -0.000392693 0.000559616 -0.000243713 0.001471593 -0.000649060 0.000506289 -0.000576324 -0.003482722 -0.000791627 -0.001080289 0.000935244 0.000876740 0.000974463 -0.001730670 0.001348478 0.002719504 -0.000346733 -0.000591060 0.001306185
today	0.002072521 0.000159993 -0.000802985 0.000238849 0.000546901 -0.003008474 0.000616049 -0.001112925 -0.001743834 -0.000606781 0.000601968 0.001926508 0.000944011 0.000436434 0.001329571 0.001570940 0.000363535 0.002937584 0.001000855 -0.001147301 0.001349640 -0.001654928 -0.000384363 -0.000258306 0.003538008 0.000659964 0.001089099 0.000756999 -0.002844101 0.000778171 0.000914926 -0.000928106 0.003491991 -0.000085855 -0.000107499 -0.001736406 -0.002649758 0.000593669 -0.001329707 -0.001894192 -0.000747086 -0.000171995 -0.001048913 -0.002001969 0.003623380 0.000340020 0.000264342 -0.000982590 0.001280581 0.000033312 -0.000829230 0.002109908 0.001907719 -0.001066880 0.000360585 0.003952345 -0.001088994 0.001163746 0.000124881 -0.000355651 -0.000120751 -0.000971743 0.000311700 0.000760577 0.000880161 -0.001141688 0.001139175 -0.000793710 -0.002170945 -0.000074107 -0.000741265 0.000953753 0.003403845 0.002204607 -0.001379204 0.003983173 -0.001801151 0.000645009 0.001184504 0.000015779 -0.001051172 -0.002732365 -0.001559127 -0.002738408 -0.001154727 0.000720077 -0.001628219 0.002180091 0.001987729 -0.002893213 -0.002165128 0.001213644 -0.000473718 -0.000837455 0.000583600 0.001570261 0.000535288 -0.002221033 -0.002610400 0.003746662 0.002310002 0.001698294 -0.000862629 -0.001948922 -0.000347168 -0.002799082 0.000937476 0.001043335 0.000752017 -0.000016763 0.003569892 -0.000492988 0.001459316 -0.001429344 -0.001569040 0.000835867 0.000630390 0.000372616 -0.001051165 0.001779367 -0.001544968 -0.001012169 -0.000401381 0.001715079 -0.002658337 0.000164409 -0.001921394 -0.000406799 -0.001130510 -0.000800487 0.002495026 -0.001964295 -0.000838988 0.002690750 0.001979188 0.001488774 0.001083996 -0.000281315 -0.000076931 0.000880880 -0.003460036 0.001391589 0.000915481 0.000427334 -0.001540148 -0.002110764 0.001373867 0.003171030 -0.003410717 0.002374462 -0.002842358 -0.000337537 -0.000441654 0.000852440 -0.000842591 0.001331829 -0.000112506 -0.000474957 -0.000567842 -0.001480568 -0.001111648 0.002385465 0.001629919 0.000164977 -0.002201881 -0.001976008 0.001275256 0.000565286 0.001646923 -0.000398100 -0.000095011 0.001678896 0.001587180 -0.000076354 -0.001884896 0.000273968 -0.001750647 -0.001095899 0.001732296 0.001710601 -0.001365968 -0.000908046 -0.001626445 -0.000342795 0.000210510 -0.001397615 0.001310444 -0.003842430 -0.001529186 0.001938664 0.002675278 -0.000120527 -0.000031335 -0.000594159 0.001354456 -0.001116236 -0.000336621 0.001178581 0.000639037 -0.002733495 0.000215298 0.000503140 0.002184005 0.000048722 -0.001837478 -0.001681299 -0.002622101 0.003472339 -0.002079332 0.000451373 0.001452096 0.000680694 -0.000907124 0.001743126 -0.000050831 -0.000747073 -0.001389833 -0.002085936 0.001034766 -0.002081214 0.000227450 0.000179289 -0.002424855 0.000131381 0.000252707 -0.001585764 -0.001479844 -0.001581390 0.001683664 -0.001152123 0.000612945 0.002793494 0.000803613 -0.000782376 0.000065557 0.002112470 -0.002260673 0.001945412 0.001064261 -0.001815975 -0.000946581 0.002046325 -0.002089661 -0.005309000 -0.001643147 -0.000567880 0.000417606 -0.002305947 -0.000616607 0.000941706 0.000342716 0.002291939 0.003349773 -0.000717714 0.000796118 0.003209044 0.000392383 -0.002469819 -0.001963479 0.001615979 0.003648173 -0.000830196 -0.001128700 -0.000673756 0.001802306 -0.001089826 0.000436669 0.001984961 0.000137961 -0.000599600 0.002030597 -0.001321826 -0.002070677 -0.003671925 0.001830885 -0.001271931 -0.004502787 0.000338003 0.001192406 0.001378840 -0.000484492 -0.001562692 0.002056759 -0.000903232 -0.001117841 0.000324760 0.002153315 -0.001466352 -0.000861665 0.000546933 -0.000117593 -0.000152822 0.001451973 0.000387217 -0.000220643 -0.000707136 -0.000478413 0.000208301 -0.000575590 0.001309358
system	0.000945131 0.002266828 -0.003969097 -0.000542027 0.003436175 -0.003683469 0.000843285 0.001891383 -0.002409097 -0.000643345 0.001272126 0.004930998 0.000178256 -0.001345611 0.002783479 0.001575518 -0.000834426 0.004374152 0.000761761 0.000829201 -0.000222075 -0.001485545 -0.004359279 -0.000281727 0.008952990 0.002027987 -0.000054575 0.001220998 -0.004096221 0.000905778 0.002066764 -0.000175761 0.003780093 0.002738550 0.003871715 -0.002432932 -0.002743953 -0.002216311 -0.001199610 -0.005917457 0.002063377 -0.002269704 -0.002400031 -0.004142490 0.006066660 0.001389477 -0.000087006 -0.001045339 0.001707918 0.000471198 -0.000516316 0.003711094 0.002197671 -0.002777493 -0.000758394 0.006193841 -0.001022797 0.003382999 0.001541325 -0.005013743 -0.003157693 -0.003193111 0.001687955 -0.000709983 0.003093145 0.000866827 0.000810894 0.001469738 -0.003195985 -0.000496792 -0.000213496 -0.000200755 0.003430493 0.002797884 -0.000437612 0.006864023 -0.001931433 0.002497611 -0.001487402 -0.000767361 -0.001436314 -0.004537278 -0.002094200 -0.005009725 -0.002901888 0.005645074 -0.000437659 0.002352816 0.006526342 -0.001756359 -0.001692660 0.001582694 0.001365124 -0.002997789 0.002091956 0.004878965 -0.001253717 -0.002145350 -0.005386043 0.004755844 0.002313332 0.004141815 0.000188340 -0.002646974 -0.001647564 -0.005242156 0.003659645 -0.000785685 0.006442176 -0.002729165 0.004527625 -0.002073264 0.001801432 0.000156302 -0.001591399 -0.003191705 -0.002102691 -0.000547030 -0.002342288 0.005969789 -0.001472974 -0.000784632 0.001180494 0.002395868 -0.007590204 -0.001857612 -0.004476657 0.002385141 0.000672241 0.000974524 0.002116336 -0.003314677 -0.001494575 0.003850823 0.003671447 0.000110108 0.001989697 -0.001747559 0.000763702 -0.000138168 -0.006753050 0.003384585 -0.000625354 0.005897458 -0.000721599 -0.000865401 -0.000002880 0.004390848 -0.005387829 0.005164804 -0.003366731 -0.001463168 -0.004790613 0.002884124 -0.000597978 0.000209304 0.000168733 -0.000681719 0.001547054 -0.000677922 -0.005285221 0.000849318 0.006984779 0.003393906 -0.001989116 -0.004859483 0.000710469 -0.001140523 0.002280772 0.000470330 0.002978367 0.002203769 0.000595332 -0.001305380 -0.003788536 -0.002681928 -0.000953601 0.002376141 -0.000090708 0.004738179 -0.004425832 -0.000980979 -0.002738771 0.001120978 -0.003852752 0.000606578 0.000575858 -0.004223522 -0.000724246 0.000584456 0.002361305 -0.002650449 -0.001952422 -0.001314356 0.001171371 0.001655275 -0.000303097 0.003125240 0.003191102 -0.003969151 0.001212194 -0.003397924 0.004140520 0.001846430 -0.002614040 -0.003662455 -0.005913315 0.005526827 -0.002216225 -0.002722668 0.003019650 0.000850502 0.001242724 0.001319663 -0.002107383 0.001780210 -0.004086955 -0.000917686 -0.001122502 -0.004285664 -0.001420639 0.001450381 -0.004586261 0.004742276 -0.003248893 0.000668971 0.000436525 -0.002474438 0.003340635 0.000172030 0.002166136 0.005416934 0.004441352 -0.000938423 -0.000087267 -0.000331905 -0.004190670 0.002566998 0.000036301 -0.002633934 -0.003905417 0.003111003 -0.003361040 -0.008301659 -0.004955528 0.000913126 -0.002621826 -0.006282201 -0.002220476 -0.001244097 0.003755901 0.001814374 0.003168709 -0.000794903 0.001951605 0.004497265 -0.001549940 -0.004809794 -0.001241705 0.000035681 0.006888821 -0.002482745 -0.002794083 -0.001413050 0.003000678 -0.000842621 -0.002323210 0.001995796 0.001247583 -0.003655953 0.004004023 -0.003945398 -0.002652487 -0.003654540 0.003580991 -0.002732581 -0.007721675 0.000212394 0.002589044 0.000264685 -0.001173361 -0.001612976 0.000749566 -0.001770934 0.000474976 -0.000443120 0.002103758 0.000354629 -0.002152303 0.001659550 0.000545423 0.002951693 0.002303089 -0.001642589 -0.000520539 0.000526217 0.002569865 -0.000158587 0.001853202 -0.001195944
mac	0.001701103 -0.000814509 -0.001128538 0.000385085 0.000311541 0.000526970 0.000259877 0.001307411 -0.001574296 0.000130887 0.000719360 0.000786532 0.000288446 -0.000195471 -0.000093672 -0.000942540 -0.000855093 0.002566612 0.001346876 0.001293784 0.000610013 -0.001560380 0.000088697 0.000353690 0.001878603 0.001091432 0.001155295 -0.001042132 0.000028192 -0.000065877 0.001159170 0.000851018 0.002195234 0.002547855 0.000738403 0.001065117 -0.001571005 0.000957442 -0.001561702 -0.001977582 -0.000231430 -0.001211480 -0.001591086 -0.002250589 0.001243032 0.001561345 0.000169701 0.000198862 0.002233274 -0.001210925 0.000124829 -0.000091414 0.000792360 -0.000718958 0.000032153 0.003313421 0.001545898 0.001575269 0.001740399 -0.001443880 -0.000768734 -0.001145521 0.000053116 0.000235459 -0.000510029 -0.001094625 0.001708206 0.001395639 -0.001406908 0.000916489 -0.001689336 -0.001486546 0.001883961 0.000369654 -0.001053500 0.001271050 0.001106695 -0.000030811 0.001522215 0.000511079 0.000158593 -0.002240449 -0.001633742 -0.002948596 -0.001513203 0.001241213 -0.000759271 0.001758797 0.000839507 -0.001069879 -0.000054891 0.000155267 -0.001247962 0.000576397 -0.000001425 0.001347043 0.001055894 0.000312066 -0.002549591 0.002045840 -0.000839052 0.000446454 0.000135404 0.000152146 0.001208697 -0.001575838 0.002528634 -0.000239690 -0.000085562 -0.000373820 0.003061902 -0.001633311 0.000248386 0.000394628 -0.001155713 0.001019400 -0.001047492 0.000670601 -0.001086587 0.002643218 0.000959314 -0.000225524 0.001436175 0.000472772 -0.002796112 0.000315673 -0.001172853 -0.001162440 -0.001324422 0.000824412 0.002317780 -0.001867150 0.001093062 -0.000065107 0.000209036 0.000116273 0.001047792 -0.000654741 -0.000780334 -0.000965821 -0.002982280 0.000897399 0.000730754 0.000501768 0.001135372 -0.000973282 -0.001448834 0.001809512 -0.001023125 0.001699934 0.000055963 0.000775428 -0.001104748 0.002150620 0.000665215 0.000741447 -0.001238947 0.001393792 0.001516953 0.000085930 -0.001944025 0.000065466 0.000777827 0.000560274 -0.001185247 -0.000292641 -0.001956297 0.001274566 -0.000669704 0.001482157 -0.000704147 0.000974974 0.001619930 0.000336690 -0.001553754 -0.000824093 -0.001614186 0.001463025 0.000780327 0.002156650 -0.000021777 -0.000190631 -0.001934569 0.000572512 -0.000436480 0.000129886 0.001305257 -0.000814522 0.000136535 0.001149864 0.000256667 -0.000355544 -0.000297564 -0.000950494 0.000774516 -0.000303940 -0.000067605 0.002142363 -0.000659083 -0.001167568 -0.001086646 -0.000321213 0.000722567 0.000341465 -0.002135343 0.000433669 -0.001030235 0.002506653 -0.001151077 0.000469108 0.000540397 0.001927624 -0.001422010 0.001630427 -0.000869246 0.000795369 -0.002489764 -0.000047706 -0.001637759 -0.000551299 -0.002185312 -0.001083520 -0.002447262 0.001000790 -0.001379010 -0.000807745 0.000379443 0.000609448 -0.000054749 0.000781596 0.001110690 0.002060081 -0.000110112 -0.000043005 0.001805071 0.000252456 -0.002676217 0.001027453 0.000167482 -0.000648762 -0.002224613 0.001913751 0.000460817 -0.003558302 -0.000715714 -0.000174494 0.000133153 -0.002304546 -0.001558634 -0.001333211 0.002430131 0.002180875 0.000388690 -0.001367570 -0.000267883 -0.000010226 -0.000536470 -0.001786618 0.000929787 -0.000238993 0.003271392 -0.000729399 -0.001127418 0.001085406 0.000919143 0.000024683 0.000201801 -0.000222650 -0.000099277 -0.000703733 -0.000032705 -0.001094816 0.000922728 -0.002281779 0.000497394 0.001010065 -0.003284429 -0.001244792 0.001333293 0.000001675 -0.001700802 -0.000162959 0.000111443 0.000419170 0.000933764 -0.002228988 0.000582547 -0.000156918 -0.002352201 0.000140565 0.000070869 0.002100455 0.001112186 -0.001760537 -0.002029587 0.001353850 0.001524458 -0.000939753 0.001815714 0.000556550
answer	0.000653561 -0.000443108 -0.003397899 -0.001289239 0.003139008 -0.002940356 0.002562309 0.001844880 -0.002609638 0.000598743 -0.000504713 0.002437351 0.000878385 -0.001051104 0.001553728 0.001254274 0.000120094 0.003366777 0.000044511 -0.001439206 0.001308694 -0.000105544 -0.004149456 0.000984591 0.006430199 0.002515205 0.000546630 -0.001263625 -0.002405465 0.000241002 0.001292385 0.000041992 0.004413469 0.002501426 0.001161020 -0.000234310 -0.002018357 -0.000088322 -0.001094201 -0.004403715 -0.000486991 -0.002833447 -0.000890368 -0.001012937 0.004751051 -0.000716730 0.000638273 -0.000748198 0.002908523 -0.000761947 -0.001150304 0.003026200 0.003039863 -0.000339854 0.000069864 0.003858738 0.001384471 0.003039980 -0.000520718 -0.004195951 -0.001194177 -0.001048667 0.001339933 0.001011878 0.000835577 -0.000774326 -0.000038577 -0.001459436 -0.001347030 -0.001676898 0.000908778 -0.001371347 0.001837271 0.001389217 -0.001197603 0.004778664 -0.000539503 -0.000347901 -0.000244864 -0.002305454 -0.000451296 -0.003945732 -0.002024997 -0.003594377 -0.001861432 0.002836425 0.000363256 0.002350655 0.003760515 -0.002477840 -0.002989582 0.000863847 0.000867261 -0.002154769 0.001837281 0.002363672 0.001791552 -0.002265578 -0.004948891 0.002075562 0.002411561 0.002050564 -0.000410091 0.000004075 -0.000746127 -0.002739683 0.002078720 0.000842345 0.004675128 -0.000306790 0.003028379 0.000310825 -0.000746671 0.000665079 -0.000822801 -0.001711424 -0.002327871 -0.002138790 -0.002344918 0.004884954 0.000515180 -0.000223135 0.000019561 0.000293748 -0.004750592 -0.001308230 -0.001791472 -0.000589667 0.001583542 -0.001238437 0.000329488 -0.003425591 -0.002765898 0.002463417 0.002608091 0.000780477 0.002023110 -0.000130836 0.000874462 0.000086487 -0.005065425 0.002924222 -0.000289842 0.002611551 0.000708322 -0.000729185 0.000845184 0.002461453 -0.002772843 0.002943364 -0.003550913 -0.002052520 -0.002654528 0.002424774 -0.000540948 -0.000579792 0.001305840 0.000922156 -0.000293211 -0.000682114 -0.001964375 0.002299544 0.005009661 0.003479942 -0.003540762 -0.002047166 0.000687589 0.001375680 0.000318071 0.000019960 0.001621631 0.003156133 0.001622987 -0.001011417 -0.002246154 -0.000400666 0.000331882 0.001152369 0.001878121 0.004094247 -0.001362322 -0.001016455 -0.000957936 0.000123393 -0.002996875 -0.001379532 0.002060633 -0.005156504 -0.001324966 -0.000334487 0.000416570 -0.001272878 -0.001495560 0.000863004 0.001050752 -0.001194943 -0.000525147 0.002317079 0.003193621 -0.002002615 0.001682093 -0.002808668 0.001703833 0.002495057 -0.002103185 -0.003389818 -0.001805318 0.005194483 -0.001019489 -0.001824851 0.003097709 0.001031875 -0.000848029 0.001395045 -0.000313564 0.000930573 -0.001591026 -0.001891371 -0.000251894 -0.001509024 -0.002094271 -0.000495304 -0.003776794 0.001411573 -0.003010328 -0.000208599 0.000102627 -0.001913870 0.001691967 -0.001304814 0.002209353 0.004837111 0.002130106 -0.001288096 0.001981793 -0.000626801 -0.004720917 0.003240946 0.000731459 -0.001339294 -0.003392358 0.003015979 -0.001628895 -0.004705591 -0.001786741 0.001723503 -0.000667124 -0.003213152 -0.002145358 -0.000263395 0.003320640 0.001460884 0.004199373 0.001264017 0.000698908 0.001640473 -0.000773947 -0.002840134 0.000437239 -0.000511315 0.005454270 -0.001855617 -0.002428047 -0.000393682 0.000157779 -0.000232727 -0.001853564 0.000113658 0.000746852 -0.001232681 0.003405902 -0.000406347 -0.001404986 -0.002855359 -0.000226408 -0.000505475 -0.004856865 -0.000579173 0.003212064 -0.000604570 -0.001755115 -0.001506935 0.002750105 -0.000764999 -0.000780122 -0.001098441 -0.000329395 0.000045537 -0.002244689 -0.000956916 -0.000010280 0.000785130 0.001558323 -0.001012431 -0.000586667 0.000785137 0.000336994 0.000425511 0.001326446 -0.001551239
cs	0.002098236 0.000240240 -0.004056702 -0.000861042 0.001655232 -0.004186667 0.002510921 0.001931392 -0.002327332 -0.000430910 -0.000779966 0.002520456 -0.000301441 0.001165759 0.003742072 0.000456561 -0.001636633 0.002821957 0.000899958 -0.000914071 0.001620177 0.000807239 -0.002943788 0.000369658 0.007558646 0.001184093 0.002325436 0.001277024 -0.002123534 0.002390714 0.004211888 0.002740627 0.004128373 0.002258824 0.002921646 0.000057401 -0.003628168 -0.002612128 -0.001740125 -0.004917025 0.002121988 -0.001664753 -0.001819801 -0.003300622 0.006233497 -0.000721324 0.000480528 0.001060140 0.001844334 -0.000327705 0.000089358 0.003633868 0.002971456 -0.001012341 -0.000050967 0.004742366 -0.000566488 0.005492232 0.002719854 -0.004459643 -0.001553841 -0.001131817 0.001972812 -0.000290180 0.004015883 0.000977971 0.002777846 0.000588240 -0.003066374 -0.001157915 -0.001403008 0.001054534 0.003659434 0.000801819 -0.001449172 0.004781929 -0.001854762 0.002033277 -0.001545054 -0.000262333 -0.000068869 -0.004215161 -0.002327564 -0.002589873 -0.004728088 0.005110734 -0.000250944 0.003292904 0.004557794 -0.002818858 -0.003079732 0.000199026 -0.000176114 0.000442379 0.000116009 0.002170107 -0.000142876 -0.002031696 -0.004839862 0.005409163 0.000241626 0.002561445 -0.000616195 -0.002110181 -0.001212389 -0.004611589 0.002877376 -0.000893385 0.005879913 -0.000467774 0.004104435 -0.001098799 0.000243018 0.001206570 -0.002098620 -0.000908329 -0.002433489 -0.001843539 -0.001824629 0.004802705 0.000650180 -0.001112808 0.001428834 0.001318806 -0.005520989 -0.000102919 -0.005689284 0.001803347 -0.000560556 0.001454594 0.001632803 -0.003742239 -0.000095543 0.002525288 0.000186384 0.000831671 0.001216614 -0.000810811 -0.000282258 -0.000016444 -0.003936140 0.003273819 0.000125828 0.005381553 0.001517016 0.000480525 -0.000903129 0.002837158 -0.003795821 0.002918072 -0.002715857 -0.002536011 -0.002112190 0.002576096 -0.000667581 0.000828915 -0.001670402 -0.001894975 -0.000086963 0.000997680 -0.005323593 0.003242220 0.006118715 0.002770022 -0.002978651 -0.002214687 -0.001216625 0.000556909 0.000462305 0.000874484 0.003559629 0.004333441 0.000973218 -0.000943564 -0.003219342 -0.003120952 -0.001462139 0.002042471 -0.000221453 0.004911510 -0.002656571 0.000696894 -0.001177538 0.000794863 -0.002509849 -0.000607541 -0.000325709 -0.005949451 0.000167491 0.003127717 0.002877209 -0.003434068 -0.000582098 -0.000316683 0.003185497 0.001085833 -0.000931007 0.000767609 0.002792208 -0.002928758 0.001102249 -0.003308679 0.001668987 0.002085849 -0.001019398 -0.002034166 -0.003636267 0.005505149 -0.001896412 -0.002085166 0.002135744 0.001452603 0.001048014 -0.000760773 -0.002459674 0.000360925 -0.003222340 -0.000910081 -0.000998792 -0.003021483 -0.000130595 0.000882775 -0.003525463 0.004713907 -0.001030962 0.000703678 -0.001808116 -0.001087990 0.003006774 -0.001299810 0.001332010 0.003958580 0.003904034 0.000030843 -0.000012610 -0.000577773 -0.005962045 0.001936411 0.001937150 -0.000210910 -0.004557370 0.002505787 -0.001344334 -0.008218227 -0.003630517 -0.000094886 -0.002022584 -0.005449540 -0.003574691 -0.000583461 0.002441947 0.002044351 0.004775381 0.001071513 0.000404621 0.002720884 -0.002885565 -0.001439055 -0.000540003 0.002225367 0.006221161 -0.001564444 -0.001139615 -0.000416348 0.002271644 0.000165147 -0.001193692 0.001500977 0.000538289 -0.002629462 0.001243212 -0.003533589 -0.001220182 -0.005209757 0.001532419 -0.003409011 -0.005705809 0.000630746 0.002349012 0.001845067 -0.001456196 0.001135190 0.001059660 -0.000989294 0.000806968 -0.000019318 0.001091547 0.001497662 -0.002899337 0.000053626 -0.000139111 0.002276726 -0.000283566 -0.001914012 -0.000725816 0.000613090 0.002499887 -0.000554835 -0.000934125 -0.001288733
university	0.002431908 0.000433351 -0.001530222 -0.000797377 0.000557774 -0.003859019 0.002550323 0.000364316 -0.001812775 0.000282992 0.001889437 0.003961204 -0.001352289 -0.001580172 0.002759119 0.000419528 -0.000789255 0.003314111 -0.001544080 0.000886048 0.002436085 0.000634674 -0.003151712 -0.001693286 0.005893060 0.001469690 -0.000121717 -0.001753210 -0.003248466 0.003381260 0.003517166 0.002142085 0.004405601 0.000969103 0.002232941 0.000315768 -0.001309635 -0.002808161 -0.000892099 -0.003115980 0.001639453 -0.001704844 -0.001757139 -0.000914917 0.004400199 -0.000675268 0.000361007 0.001737094 0.001083342 -0.001864856 -0.000760542 0.000105541 0.002456542 -0.001190622 0.000417382 0.004009466 -0.000345914 0.002729174 0.002462978 -0.001412090 -0.001270216 -0.000727341 0.003101605 0.000099003 0.001672882 -0.000785371 0.001534785 -0.000782274 -0.001825171 -0.000994307 -0.001601152 0.001312371 0.002229774 0.000403988 0.000201028 0.003520054 0.000950508 0.001000982 0.000326147 -0.000154348 0.000092169 -0.002901057 -0.000163802 -0.004721805 -0.004607955 0.003928987 -0.000114030 0.002562332 0.004594537 -0.002617704 -0.001013095 0.001286031 0.001098312 -0.001401059 -0.000180483 0.003416837 -0.001350785 0.000864976 -0.002520329 0.002011450 0.001877447 0.000293859 0.000340284 -0.002267249 -0.001853810 -0.003552850 0.003075004 0.001493477 0.004203815 -0.000375932 0.003234866 -0.001965611 0.000600017 0.001478603 -0.000646530 -0.000870610 -0.000723352 -0.001414412 -0.000010366 0.003115233 0.001267635 -0.001493418 0.001252248 0.000076731 -0.005085126 0.000827654 -0.003259435 0.000509518 0.000414101 0.001862432 0.002505169 -0.003866066 -0.002563786 0.001804888 0.000316207 -0.001000809 0.001976908 -0.000656709 0.001732146 0.001134527 -0.003466883 0.000769440 -0.001263964 0.001417594 -0.000381123 0.000280984 -0.000997762 0.002252629 -0.003458483 0.003841058 -0.003224587 -0.000555717 -0.001869158 0.000663186 0.000695377 0.001525899 -0.001427808 0.000988812 -0.000323311 -0.001206482 -0.003753342 0.002317557 0.005439413 0.002531408 -0.001607028 -0.003693282 -0.000762482 0.000233420 0.001825596 0.001537963 0.001076759 0.003266589 -0.000379373 -0.000235734 -0.003603834 -0.002586737 -0.001818319 0.000624344 -0.000193402 0.003786349 -0.004033320 -0.001805890 0.000298020 0.001116716 -0.003256642 -0.000827580 -0.000211402 -0.005268591 0.000725781 0.001521019 0.001861069 -0.003027621 0.000625965 0.001458723 0.000783588 0.001675228 -0.000345367 0.001928075 0.001007842 -0.000656959 0.000779916 -0.001290209 0.001090423 0.001509811 -0.002757057 -0.000564592 -0.003309931 0.005151543 -0.001587361 -0.000354770 0.000471007 0.001310309 0.001112606 -0.001348727 -0.001098932 -0.000221571 -0.002563583 -0.001792446 -0.001684128 -0.002005919 0.000028366 0.000603206 -0.004526291 0.002242731 -0.002533163 -0.001853250 -0.002061313 -0.001941814 0.002578221 -0.000622650 0.002648062 0.003427552 0.003355807 -0.002187457 0.002358657 0.001945121 -0.002886332 0.001604786 0.000979183 -0.002385108 -0.003636154 0.003293474 -0.003432205 -0.005878422 -0.002193117 0.001164650 -0.002042823 -0.004340077 -0.001443660 -0.001587698 0.001968260 0.001078660 0.003448743 -0.000496516 0.001128870 0.001674464 -0.002023368 -0.001942865 -0.001769398 0.002271223 0.003097131 -0.002216345 0.000122986 -0.000047129 0.002530779 -0.001801230 0.000238722 0.002076407 0.002801570 -0.002852575 0.003059150 -0.003480622 0.000469547 -0.004686897 0.002197561 -0.000408912 -0.004180346 0.002186443 0.000648704 0.001430216 -0.001941131 -0.000487792 0.001511058 -0.001503251 -0.000293833 -0.000231456 0.001988572 -0.001358275 -0.003632207 0.001648487 -0.000177336 0.001192950 0.000789737 0.001122755 -0.001062566 0.000932252 0.000898450 -0.001319826 0.001935652 -0.001469686
department	-0.000570958 -0.000117414 -0.001529370 -0.001356188 0.002025237 -0.000462682 0.002050231 0.001363919 -0.000592127 -0.001367293 0.000142250 0.003291568 0.000348607 0.000566440 0.002477922 0.000557982 -0.000512383 0.002318333 -0.001919804 -0.000020257 0.002151414 0.000051139 -0.001434332 -0.001807671 0.002937509 0.001132456 0.001071951 -0.001712946 -0.002991647 -0.000452632 0.001737980 -0.000439807 0.000999403 0.003197179 0.001538525 0.000983510 0.000283573 -0.002235513 -0.000002383 -0.003149722 0.002060621 -0.001312404 -0.002471771 -0.002004264 0.003059786 -0.000869705 0.000239395 -0.001045930 -0.000356532 -0.001741463 0.000863982 0.000605367 -0.000033056 -0.000761486 -0.001675743 0.004053301 -0.001283188 0.002387533 0.000212403 -0.003516702 -0.000447172 -0.001387861 0.002184634 -0.001483549 0.001292470 0.000936445 0.000441616 0.000730833 -0.001750151 0.001518082 -0.000390243 0.000406822 0.001635483 -0.000431180 -0.001199559 0.001961015 -0.001787736 0.000975143 0.000130104 0.000617754 -0.000553087 -0.002475034 -0.002454263 -0.001949420 -0.002430357 0.000510095 -0.000369028 0.002348666 0.001206361 -0.001171902 -0.001925438 0.001467550 0.000655227 -0.002277114 0.000972510 0.001905359 0.000479548 -0.000116602 -0.001617394 0.003638262 0.000355389 0.000424485 -0.001173823 0.000116868 -0.001122581 -0.001294740 0.001882428 0.000076184 0.002222133 0.000224429 0.001569333 0.000575020 -0.000027029 0.001465673 -0.000254298 -0.002213563 0.000837938 -0.000641304 0.000860873 0.003679469 0.001256418 -0.000576969 -0.000496744 -0.000669936 -0.003296149 -0.000774856 -0.001644221 0.002004299 0.000925059 0.001861131 -0.000240774 -0.003696402 -0.001575992 0.001793655 0.002381124 -0.001453974 0.000626959 -0.000699440 -0.001068658 0.001212846 -0.003544044 0.002953365 -0.000272447 0.000629197 0.000297460 -0.000235872 0.001289123 0.001788030 -0.000931826 0.002560358 -0.001073222 -0.001210581 -0.003138399 -0.000510527 -0.000860060 0.001587489 -0.000833588 0.000729848 0.001048949 -0.001813941 -0.004137903 0.002524727 0.003180619 0.001729517 -0.002718954 -0.001319813 -0.000840147 -0.001255270 0.001308700 0.000748479 0.002097444 0.000612776 -0.000624922 -0.001485435 -0.000883353 -0.001896324 0.000649477 0.000068010 -0.000911650 0.000677686 -0.003502744 -0.000361730 -0.001405023 0.000365959 -0.002419458 0.000716529 0.000722844 -0.001868062 -0.000123361 0.001296205 0.001785010 -0.000381255 -0.001731361 0.001154276 0.000560179 -0.000577446 0.000223732 0.001662767 0.000071355 -0.002142490 -0.000056219 -0.001110230 0.000040770 0.002119952 -0.000704329 0.000267175 -0.002577742 0.002298405 -0.002175709 -0.001184336 0.002289719 0.000250570 -0.001069448 -0.000447276 -0.001551886 0.001245964 -0.001556792 0.001032428 -0.001152376 -0.002848763 -0.001294772 -0.000220282 -0.001764088 0.000678868 -0.001212584 -0.001494718 -0.001786028 0.000196541 -0.000181078 -0.000131935 0.001042649 0.002456720 0.001475043 0.000965336 -0.000232716 0.000206911 -0.003618611 0.001012095 -0.000689124 -0.001184941 -0.000590415 -0.000299515 -0.000664066 -0.005172448 -0.000337166 0.001058930 0.000246944 -0.003356683 -0.001440691 0.000814034 0.001479268 0.000081998 0.001688983 -0.001207104 -0.000027701 0.002687979 -0.000176637 -0.000922148 -0.001931883 -0.001229933 0.003765135 -0.002306405 -0.001194043 -0.001833516 0.002080702 -0.001246964 -0.002184731 -0.000051485 0.002396927 -0.001639486 0.001683602 -0.000166299 -0.002332447 -0.003282666 0.000099249 -0.000567861 -0.002583724 0.000861452 0.000008660 -0.000592014 -0.000433277 -0.001470735 -0.000557501 -0.000431650 0.001019640 -0.001397766 0.001021205 0.000524475 -0.000741437 -0.000580354 0.000798653 0.000118555 0.001142814 0.001278297 0.000845980 0.001762760 0.002148350 0.001348077 0.000085285 -0.001867623
computer	0.000395054 -0.000294025 -0.003892381 -0.000700101 0.003785145 -0.003278438 0.000545854 -0.000508364 0.000487397 -0.000775948 0.000668249 0.003872529 0.001900368 -0.000226130 0.003475248 -0.000976404 -0.001512624 0.001875226 0.000158779 0.001165577 0.001299908 0.001435697 -0.001876197 -0.001931757 0.006238636 0.000986285 0.000408900 0.001276401 -0.002005494 0.001009695 0.001060318 0.000960749 0.003552548 0.003739152 0.001433544 -0.000726504 -0.001952651 -0.000485830 -0.001397447 -0.003497035 0.001615248 -0.001996857 -0.002358359 -0.003511435 0.002961230 -0.000144387 -0.000114041 0.000559116 0.000195169 -0.001664871 -0.000314387 0.002547031 0.003271512 -0.002091588 -0.001369977 0.003776975 0.001337980 0.003453459 0.000507171 -0.003183254 -0.002197100 -0.002180791 0.002001408 0.001274850 0.002374753 0.000374118 0.000585312 -0.000917866 -0.003498721 0.001401899 -0.001388372 -0.000123989 0.004296316 0.002282447 -0.000539544 0.004663955 -0.000441429 0.002207453 -0.001313435 -0.001586202 -0.001813974 -0.005535387 -0.000826540 -0.002594391 -0.004676254 0.001638011 -0.001919023 0.002601945 0.005654948 -0.001632611 -0.001666849 0.000808763 0.002439085 -0.000360802 0.002397145 0.001987152 -0.000725530 -0.001181834 -0.003082647 0.005022696 0.001967199 0.003565351 -0.000728463 0.000162873 -0.000570737 -0.003866197 0.002880604 -0.000555616 0.003165904 -0.001151175 0.004617542 -0.001004514 0.000191979 0.000443113 -0.002363385 -0.001693544 -0.001775026 -0.002377068 -0.001443224 0.005029880 -0.000809834 -0.000813487 0.002158534 -0.000473394 -0.005347244 0.000748340 -0.002851912 0.000245354 0.001319939 0.002025094 0.003111435 -0.004205517 -0.002649773 0.003883327 -0.000156076 0.000489124 0.000997361 -0.000317912 0.000768528 -0.001949647 -0.005641205 0.002920012 0.000176222 0.002672265 0.000920202 -0.000087401 -0.000027875 0.002687376 -0.005314970 0.004686594 -0.003526411 0.000052262 -0.001235219 0.002924279 0.001205133 0.000821308 -0.000966324 0.000217315 0.000531723 0.000654345 -0.005129346 0.001678861 0.003844572 0.000681606 -0.003725870 -0.001602417 -0.000410824 0.000410571 0.001716192 0.000860819 0.003775308 0.003553892 0.001647920 -0.001682653 -0.004210207 -0.000569320 0.000208684 0.000828946 -0.000444250 0.002683876 -0.003272909 0.000179924 -0.002018155 0.003119896 -0.002629814 -0.000886360 0.001907201 -0.002937821 0.001012953 0.002321501 0.003033076 -0.002103601 -0.001398861 0.000056324 0.001757383 0.001162957 0.001071726 0.001298754 0.002614769 -0.003469996 -0.000002126 -0.001998944 0.001390227 -0.000497765 -0.001417253 -0.001323695 -0.002812748 0.004109235 -0.001028574 -0.001420845 0.000160550 -0.000047556 0.001972972 -0.000703274 -0.001707767 0.000965671 -0.002577575 -0.000669292 -0.001005301 -0.002553387 -0.000664902 -0.000156249 -0.002740426 0.001823465 -0.001277702 0.001000577 -0.001167512 -0.000680547 0.000933410 -0.002499321 -0.000130669 0.002721229 0.003200216 -0.001827485 -0.000691724 -0.000342715 -0.004438448 0.001194879 0.001600160 0.000221093 -0.002360421 0.003656361 -0.003130904 -0.006606568 -0.003288721 -0.001148388 -0.001006474 -0.003687331 -0.003103401 -0.000397864 0.003674321 0.002970294 0.004296942 0.000695824 0.000814151 0.002623438 -0.001838121 -0.003590413 0.000489045 0.001254629 0.003279090 -0.003191692 -0.002008901 -0.000388546 0.000478332 -0.000111325 -0.002837054 -0.000261713 0.000651748 -0.001197833 0.001724604 -0.003106319 -0.000696873 -0.005017775 0.000619799 -0.001743705 -0.006166188 -0.000274104 0.002850008 0.000571119 -0.000676912 -0.000453842 0.001044548 0.000056215 0.001740086 -0.000978664 0.001922910 0.001362557 -0.004313928 -0.000909101 -0.000318739 0.000525565 0.000089616 -0.001682149 0.000431322 0.000135892 0.000482137 0.000815759 0.001301485 -0.001392670
science	0.002456061 -0.000128053 -0.002578124 -0.001517514 0.003271533 -0.001042530 0.000248452 -0.000404786 -0.001888433 -0.001589610 0.001998764 0.004233377 -0.001119038 0.000226714 0.001068468 0.002390056 0.000085430 0.003700155 -0.000597441 -0.000985875 0.001694472 -0.001773132 -0.003141065 -0.000066897 0.005738857 -0.000094005 0.001699435 0.000948091 -0.000887648 0.003456686 0.000971542 0.000738880 0.003114290 0.003653466 0.002700198 -0.001938834 -0.003402913 -0.000948091 -0.003122155 -0.005758468 0.001103246 0.000074106 -0.001608674 -0.002091521 0.003821540 -0.001249204 -0.000003874 0.001636358 0.002511258 -0.000916976 -0.000652035 0.003453425 0.003027430 -0.002284169 -0.002475654 0.004502847 -0.000299665 0.002692556 0.000414267 -0.003541069 -0.000913453 -0.000633740 0.003993226 -0.000412737 0.002992980 -0.001334688 0.001666576 0.000502965 -0.001270942 -0.000515728 -0.000964735 0.000244690 0.003012523 0.001704451 0.001580071 0.004895539 -0.000887246 0.000736029 0.001123437 0.000272893 -0.001315089 -0.004428559 -0.001493195 -0.002809067 -0.003350663 0.003464777 -0.001302168 0.002913600 0.004203301 -0.003865192 -0.002736394 0.002439457 0.000034760 -0.002185042 0.000537419 0.004798576 -0.001104618 -0.001767887 -0.005904467 0.004603706 0.000981309 0.003673628 -0.000131824 -0.002669514 -0.001785997 -0.003636678 0.002127540 0.000571920 0.003732030 -0.001148658 0.002349276 -0.002635414 0.001250112 -0.001190818 0.000390927 -0.000820181 -0.001735956 -0.001534101 -0.001758332 0.003888292 -0.001499932 -0.002807440 0.000039952 0.000598275 -0.003264212 -0.000690717 -0.005461083 0.000773799 -0.000338751 0.001504413 0.002547717 -0.002779856 -0.001781950 0.003607152 0.001396035 0.001279211 -0.000185080 0.000464208 -0.000618181 -0.000136232 -0.005279716 0.001164514 -0.000329133 0.002227374 0.001395477 -0.002156385 -0.001774350 0.004766504 -0.002774517 0.004046104 -0.003540033 -0.001088450 -0.003745114 0.002219663 -0.000575453 0.001275242 -0.000713877 0.000440523 0.001843530 -0.001847489 -0.004079270 0.002552502 0.005142339 0.000927614 -0.003776813 -0.002315061 -0.002376549 -0.000643707 0.002465544 0.001081650 0.000917402 0.003905152 0.001159049 -0.002606410 -0.004011997 -0.003088781 -0.001528830 0.000229299 -0.000325019 0.004683569 -0.004598185 -0.001799219 0.000051344 0.000094117 -0.003737564 -0.000452793 0.000520443 -0.004535536 0.000507047 0.001953022 0.001442064 -0.002793164 0.000665490 0.000048556 0.002971757 0.001787233 0.000856623 0.000825539 0.002801082 -0.001891949 0.001429918 -0.001157307 0.002029318 0.000341898 -0.001923917 -0.000672614 -0.002627032 0.003995284 -0.001260709 -0.002564940 0.000557555 0.000470793 -0.000553382 -0.000467698 -0.002360543 0.001734824 -0.002047246 0.000485842 0.000387102 -0.003129291 -0.000955750 -0.001055415 -0.002998221 0.001926091 -0.003142565 -0.000314325 -0.001391315 0.000268973 0.003017739 -0.001645932 0.003107602 0.004405303 0.002281131 -0.000651559 0.000133611 0.001001537 -0.004570429 0.001467248 -0.000573586 -0.002292886 -0.003254443 0.001881875 -0.001218759 -0.005800203 -0.003635673 0.000208538 0.000087655 -0.004125154 -0.002279758 -0.001125148 0.001536040 0.003061754 0.004120400 0.001135475 0.001488325 0.003264339 -0.002077054 -0.001994168 0.000334671 0.001276265 0.005601823 -0.001342852 0.000746705 0.000705742 0.001206703 0.000386297 -0.001477315 0.001867296 0.001660151 -0.002644273 0.002133106 -0.003388341 -0.001802087 -0.004923348 0.002465219 -0.002245631 -0.006798494 0.001361865 0.001153149 0.000875031 -0.001283494 -0.000504707 0.002727149 -0.002620421 -0.000495303 -0.000536628 0.002696740 -0.000807766 -0.004242822 -0.000273393 -0.000620133 0.002934981 0.000390702 0.000410006 -0.000279019 0.000241023 0.000240094 0.000297643 -0.000094141 0.000150033
figure	0.000884373 0.001282584 0.000005405 0.000508311 0.002639988 -0.001027853 -0.001200086 0.000461882 -0.000944870 0.001263610 -0.001063960 0.001247983 0.001128304 0.000133383 0.000129123 0.001169867 -0.000219281 0.002020927 -0.000479372 0.000774613 0.001910394 0.000348780 -0.000787684 0.000529322 0.002461371 0.000093718 0.001617570 -0.000485131 -0.002583666 0.000557344 -0.000028936 0.000505016 0.002244589 0.001672381 0.000591255 0.000338784 -0.001643612 -0.000167496 -0.001183852 -0.002710972 0.002171552 -0.000048104 -0.000026406 -0.001189050 0.000282265 -0.001132487 -0.000246641 -0.000322807 0.000193381 -0.001179900 -0.000224285 0.000573687 0.000344193 -0.000538754 -0.000093497 0.001106719 -0.000936120 0.003022405 0.000191188 -0.001334375 -0.000326193 0.000249572 0.001041779 0.000625943 0.002449722 -0.000309576 0.001942887 0.000205200 -0.001833462 0.000180150 0.000936970 -0.000106355 0.000906853 0.000621798 -0.001140022 0.002726215 -0.000413943 0.001020595 0.001542206 -0.000632072 -0.000476648 -0.001310516 -0.000353197 -0.000618394 -0.001476158 0.001185201 -0.000827355 0.001563740 0.002527018 -0.000245867 -0.000022801 -0.000196840 0.000269417 -0.000975633 0.001982583 0.000181361 0.000518696 -0.000937657 -0.000798093 0.000983170 0.001338779 0.001274586 0.001734570 -0.002094188 0.000950707 -0.000164922 0.002131849 -0.000202282 0.000934844 -0.000919763 0.002518739 -0.000602828 0.000738988 -0.000503846 -0.000248823 0.000637008 -0.002083038 -0.000168893 -0.001085371 0.001156061 -0.000053516 -0.002024510 -0.000847926 0.000782593 -0.001438929 -0.001171952 -0.001522261 0.000104520 -0.000109981 -0.001286978 0.001716081 -0.003303603 -0.000396832 -0.000238100 0.001036663 0.000115825 -0.000113372 -0.001208250 -0.000445433 -0.000456667 -0.001916766 0.002011560 -0.001334642 0.002795638 -0.000620253 0.001248847 0.000301179 0.001731399 -0.000857789 0.000227708 -0.001572068 -0.000807610 -0.001674755 0.000167737 -0.001438095 0.001109935 0.000336952 -0.001545341 0.001007896 0.000430950 -0.000306926 0.001273509 0.001900568 0.000682049 -0.002228085 -0.002774688 -0.000066649 -0.000673907 -0.000342683 0.000950781 -0.000368097 0.000481841 0.000247679 -0.002239441 -0.001416559 -0.002156193 0.001294944 -0.001198926 -0.000498691 0.001148832 -0.002291056 -0.001271041 -0.001700308 0.000756316 -0.001119253 -0.000173127 0.001712234 -0.000610132 -0.001809085 0.002072873 0.002323770 0.000382979 0.000049595 0.001149334 0.001704439 -0.001135298 -0.000230575 0.002001028 0.000455693 -0.001163840 -0.000869197 -0.000301067 0.000198551 0.000986339 0.000000904 -0.000274780 -0.003164802 0.003410516 -0.002016260 -0.000811449 0.002111804 -0.000985645 0.000926572 -0.000423745 0.000032527 0.000134648 0.000260314 0.000010020 -0.000848803 -0.001092389 0.000652359 0.000055922 -0.002092419 0.001485790 -0.001103624 -0.001005171 -0.001116900 -0.001137182 0.000268235 0.000099812 0.002070293 0.002577209 0.001383685 -0.001346120 0.001342512 -0.000829180 -0.001157513 0.001155734 -0.000632153 0.000305814 -0.002834577 0.001567569 -0.002580742 -0.002046450 -0.001133113 -0.001488782 -0.001055602 -0.003603380 -0.001569821 -0.000758481 -0.000110090 0.001156989 0.002889432 -0.000541458 0.000434383 0.001573645 -0.001086819 -0.002146972 0.001074573 0.001562080 0.002450072 -0.002004263 -0.001847910 -0.000028143 -0.000546347 -0.001139367 -0.002035097 0.001471278 0.001642841 -0.002112912 0.000878130 -0.000157910 -0.001648057 -0.002644684 0.000002014 0.000416190 -0.002812519 -0.000557168 0.001826180 0.001243750 -0.001762244 -0.000622748 0.000211812 -0.001992020 0.000556371 -0.000683438 -0.000846474 0.000243531 -0.002624033 0.000098081 -0.000606952 0.001541782 -0.000669278 -0.001428287 0.000864385 0.001048012 0.000883705 -0.001221535 0.001351798 -0.001514908
make	0.002549131 0.000976332 -0.004050883 0.000143573 0.000986665 -0.003843541 -0.000063150 0.000814471 -0.000724442 -0.002101191 -0.000557548 0.003933696 0.001698838 -0.001616140 0.001238552 -0.000015962 -0.000521667 0.001907260 -0.002257209 0.000481877 0.000795104 0.000737796 -0.003113555 0.000422219 0.006785883 0.002086147 0.001794669 0.000932651 -0.002493277 0.000918580 0.002218088 0.000461798 0.004241734 0.004226523 0.003090679 -0.000651770 -0.001434574 -0.000292609 -0.000450769 -0.005768025 -0.000017787 -0.001691020 -0.000251686 -0.004134696 0.005368431 -0.000696849 -0.000733138 0.001712437 0.002260552 -0.000137115 -0.001686537 0.003238233 0.002457481 -0.000706704 -0.001017390 0.005493259 -0.001316947 0.005197266 0.001708313 -0.003457572 -0.001223284 -0.002247142 0.002664567 -0.000105151 0.002216490 0.001213697 0.001853908 0.001441156 -0.000482723 -0.000210922 0.001198110 -0.000940466 0.002752490 -0.000204646 -0.001142252 0.004120474 0.000000263 0.001419936 0.000510826 -0.002323147 -0.002394751 -0.006445905 -0.002989526 -0.003355501 -0.002612369 0.002178703 -0.001582941 0.003810063 0.006552068 -0.001209804 -0.002971841 0.002111980 0.000808319 -0.002492392 0.002475647 0.004673215 -0.000296095 -0.002146900 -0.004937208 0.005084425 0.002854288 0.002104400 0.000954416 -0.002045183 -0.000612436 -0.004346772 0.004166165 -0.000473536 0.002330394 -0.002004801 0.003588232 -0.002947445 0.000992121 -0.000419938 -0.000192749 -0.002736468 -0.001652596 0.000322376 -0.000108942 0.003856618 -0.000121011 -0.002188953 0.000120224 0.000128313 -0.006601678 -0.001907681 -0.003550989 0.001438825 -0.000307133 -0.001226337 0.003500841 -0.004398491 -0.002799952 0.003356050 0.001455980 -0.001823049 0.000037424 0.000081492 0.001529246 -0.000338854 -0.006267827 0.003834264 0.000686784 0.004441825 0.000594717 -0.000586213 -0.000152884 0.003134372 -0.003581238 0.002595085 -0.003918980 -0.001690771 -0.001734310 0.002015261 0.001605101 0.000262604 -0.000127385 -0.000641403 0.000433878 0.000099760 -0.005568057 0.002617172 0.006380279 0.002118551 -0.002743231 -0.003678513 -0.000531447 -0.000525582 0.002414297 0.000300525 0.002250977 0.003570847 0.002222634 -0.002179991 -0.002421835 -0.000586149 -0.000499890 0.000097004 -0.001346654 0.003170042 -0.002628492 0.000216883 0.000186072 0.000775650 -0.003182261 -0.001628966 -0.000568198 -0.005535005 -0.000092930 0.003315618 0.001424089 -0.002035655 -0.002130217 -0.001064775 0.001937385 0.000358404 -0.000719098 0.003270686 0.000573244 -0.000690234 -0.000099816 -0.000534325 0.001387502 0.000185703 -0.002714791 -0.000617512 -0.004122468 0.004322067 -0.002890280 -0.003010253 0.003374631 0.000387947 -0.000343664 -0.000613651 -0.000919992 -0.000127469 -0.000395619 -0.000198899 0.000882782 -0.004399435 -0.000508574 0.001345261 -0.003764123 0.003338559 -0.000528723 0.000324454 0.000261069 0.000525549 0.001838486 -0.001381107 0.001491073 0.003036334 0.003488410 0.000689205 0.001574413 0.000527614 -0.004378429 0.003134276 0.000130049 0.000048105 -0.002480751 0.002016733 -0.001286655 -0.005923475 -0.003128924 -0.000082432 -0.001336817 -0.005416434 -0.003928435 -0.000041519 0.003528606 0.002129175 0.004641881 -0.000040140 0.001555188 0.002024645 -0.002547474 -0.003472141 -0.000190185 0.001411258 0.004194625 -0.001803138 -0.000462467 0.000171003 0.000128779 0.000815870 -0.001540393 0.000921030 0.002773031 -0.002924768 0.002057436 -0.003970148 -0.000867747 -0.004184466 0.001968282 -0.002250292 -0.004012842 0.000436359 0.003841318 -0.000412190 0.000433257 0.000144183 -0.000158216 -0.001020341 0.000234437 -0.000177444 0.002297460 0.000837574 -0.004577200 0.000895826 0.001825581 0.000600378 0.000072374 -0.000189555 -0.001701474 0.001377151 0.000060192 -0.000960320 0.000726119 -0.001084692
