reply	0.003997256 0.002505067 0.000554526 0.000026892 0.000209396 0.001264649 0.000363553 0.000426877 0.000026945 0.001420358 -0.000527119 0.003614624 0.002393228 0.000856315 0.001365491 -0.004070510 0.001613079 -0.000433929 -0.000924855 0.001295682 0.002477281 0.000520676 -0.003333796 0.001645811 0.001887835 0.000366865 0.003075694 0.002729828 -0.000887726 0.001136468 0.000392505 0.000345740 -0.000981108 0.000865552 -0.001561316 0.003328054 0.001854704 0.000108921 -0.002821641 0.003758658 -0.000099181 0.000841998 -0.000284421 0.003512047 -0.003863341 0.001690865 0.004700096 -0.000568063 -0.003221455 -0.002106624 -0.003146035 -0.001515344 0.001820946 0.000274703 -0.004175511 0.000559163 0.001844918 0.000237082 -0.001934776 0.000431333 0.001225680 -0.000103769 -0.002528783 -0.000256549 0.001486894 0.002002177 0.004735016 -0.001208087 0.002885361 0.003227164 0.000700144 -0.003000646 -0.003646383 0.001138739 0.006220057 0.000823835 0.002527183 -0.001038818 0.002832157 0.002177515 0.002226999 -0.000369220 -0.001900142 -0.002790676 0.000300264 -0.001299555 0.001742638 -0.001307276 -0.001304192 0.001909140 0.001591261 0.000010828 0.002106379 0.004269836 0.000589819 -0.004815214 0.001717004 -0.002512594 -0.003587942 -0.004559801 0.002256642 0.001879726 -0.001309107 -0.002746698 -0.000424029 0.000572170 -0.000012737 -0.003255930 -0.001754473 -0.001005566 0.000272857 -0.000112175 0.001595645 0.001638750 0.002528404 0.000662837 -0.000323465 -0.001384912 0.002413294 -0.002966442 -0.000596831 -0.001247181 0.001376734 -0.001582005 0.002515281 -0.000025155 -0.001847376 -0.002365251 0.000901641 0.001152608 -0.000993008 -0.001619672 -0.000570052 -0.000391445 0.001574476 -0.000654103 0.003618322 0.001381638 0.000560414 -0.004826200 -0.003430650 -0.004755071 0.002276272 0.001177226 -0.001902016 -0.000240631 0.002578911 -0.001211801 -0.000005339 0.001737177 0.001421052 -0.002851071 0.001069241 0.001951068 0.000495993 -0.001215760 -0.002503852 -0.001920711 0.001645902 -0.002705537 -0.000294745 0.000617010 -0.002305068 -0.003502633 -0.003512440 0.002445838 0.001492042 -0.005562971 -0.002283323 -0.003639601 -0.003695262 -0.000949029 -0.000388672 0.002532046 -0.003721861 -0.001262336 -0.004555316 0.000877336 -0.003806554 0.001259451 0.001112742 0.001283919 -0.002633676 0.000475827 -0.000750244 0.000494859 -0.002109321 0.000106577 0.000886835 0.000372723 -0.000787732 0.002235089 -0.000089727 0.001308377 0.002556119 -0.003272471 0.004666859 -0.001447458 0.001515260 0.000802092 0.000733732 -0.001898319 -0.001214661 0.001500858 -0.000689908 0.006386492 -0.004213566 -0.001266004 0.002694151 -0.003664992 -0.004219239 -0.003602404 0.004298363 0.001773864 0.000256159 -0.001081304 0.003837863 -0.001579418 0.000024795 0.002111869 0.000055828 0.000177461 -0.001189260 -0.003490529 -0.004671982 -0.000091347 -0.000813410 -0.002635720 0.000445093 -0.000934482 -0.002864650 0.001688023 -0.000696601 -0.001796493 0.001609475 -0.001919100 0.000760247 0.001090303 -0.003382022 0.002255758 0.000363957 -0.000576346 0.002136090 0.002680782 -0.001097464 -0.000656996 0.001115855 -0.001312340 -0.002837175 -0.001131360 0.001953315 0.000514217 0.000184094 -0.002265753 0.000766923 0.001171818 0.004606893 -0.000304259 0.000062891 0.004804824 -0.003034550 -0.002387625 -0.000421768 -0.004557452 0.000807769 0.001795103 -0.000291237 0.000389268 -0.002919262 -0.006743027 0.000074292 -0.002158400 -0.000717380 0.000975659 -0.000489392 0.003494032 0.000131741 -0.002741266 -0.000622140 -0.000705047 0.000735478 0.000509381 0.002788780 -0.005359331 -0.000177856 -0.001214790 0.000260683 0.003269889 -0.000760866 0.002439381 -0.000044811 -0.002573787 -0.002288533 -0.002907662 -0.000492396 -0.001542342 0.000587695 0.003298442 -0.002176616 -0.000456861
college	0.003840007 0.001112872 -0.001077688 0.000838278 -0.000606482 0.001423060 0.002372538 -0.001187593 0.000304410 0.002182559 0.001283092 0.001284621 0.000295291 0.002108086 -0.001506806 -0.000109908 0.000038714 -0.000073079 -0.000648804 -0.000688626 0.001124793 0.002300577 -0.002183539 0.001001447 0.000311572 0.001071155 -0.000386346 -0.000159292 0.000541251 0.000329461 -0.001048089 -0.000278414 -0.002281297 0.001189959 -0.001111986 0.002380720 0.002801781 -0.001401183 -0.001457699 0.002337410 -0.000294048 -0.000706395 -0.001824043 0.001743868 -0.002504194 0.001788002 0.003399887 0.000355850 -0.003137635 -0.002348565 0.000423070 -0.002185838 0.002223990 -0.000803148 -0.001641826 -0.001375597 0.000742028 -0.000694985 -0.002051235 0.001086216 0.001003155 -0.000532603 -0.002622841 -0.000606950 -0.000208841 0.000575254 0.000705806 -0.002208853 0.001092172 0.001090456 0.000867011 -0.002515143 -0.000417139 0.000800963 0.002677127 0.000400581 0.000669948 -0.000145984 -0.000325612 -0.000772955 0.001720433 0.001339962 -0.001962446 0.000135581 0.002167328 0.000161629 0.003243996 0.000872027 -0.000846758 0.001702018 -0.001233287 -0.000374930 0.001246888 0.003630127 -0.000555256 -0.003487936 0.002452915 0.000760903 -0.000769291 -0.002369455 0.001284145 0.001951185 -0.000366713 -0.002668951 -0.000442246 0.001249151 -0.001265967 -0.002704277 -0.000884068 -0.001250262 0.000647365 -0.000378171 0.001889557 0.002397828 -0.000917627 0.002076391 0.000914208 -0.002867504 -0.000051551 -0.001194514 -0.000230217 -0.002092052 0.000729352 0.000256239 0.000296847 0.001211159 -0.001052770 -0.001698574 0.002547456 0.001958380 0.000663981 -0.002095181 -0.000758406 -0.002283214 0.000619573 0.000903311 0.000016288 -0.000509776 0.000378973 -0.002476785 -0.002035304 -0.002316696 0.000495010 0.001300062 -0.000515577 0.000552766 -0.000420094 0.001005649 -0.000591073 0.000373002 0.001526348 -0.002307757 0.000809620 -0.000508099 0.000592811 -0.001394630 -0.001325374 0.000039295 0.001318975 -0.002734002 -0.000671514 -0.000363451 -0.000688558 -0.001480183 -0.002241412 -0.000958508 0.001657099 -0.001523904 -0.001132813 -0.001399279 -0.001470389 -0.002358654 -0.000153457 0.000927844 -0.001062973 -0.001679923 -0.000790586 0.001512698 -0.001829310 0.000985307 0.000636472 0.001200717 -0.001273746 -0.000244810 -0.000193089 -0.001481661 -0.001189329 -0.000773537 0.002591116 -0.001750864 0.000845044 0.001467219 -0.001739890 -0.000378540 0.002793197 -0.002774569 0.002770564 0.000732506 0.002573340 0.000065683 -0.000069264 -0.002513694 -0.001812768 -0.000173955 -0.002280857 0.004601901 -0.003014951 -0.001395019 -0.000517026 0.000094189 -0.002902216 -0.002229079 0.002521349 0.000412861 -0.000748809 0.000642709 0.001096769 0.000681233 0.002154671 0.001993359 -0.000651411 -0.000997375 -0.001674300 -0.001623279 -0.001523903 -0.000674045 0.001299984 -0.000631350 0.001473244 -0.000652886 0.000467693 0.000735213 -0.001072496 -0.000191820 0.002390128 -0.001001548 -0.000294228 -0.000191017 -0.000339691 -0.000974531 -0.002376098 0.000869350 0.001420465 0.002646958 -0.002562155 -0.002708823 0.002353175 0.000508243 -0.001768264 0.001892295 0.002592532 -0.000878936 -0.000400394 -0.002978061 0.002016259 -0.001620816 0.000506077 -0.000825959 -0.000174297 0.002414655 -0.000604243 0.000913837 0.000659867 -0.003384897 0.000982304 0.002820524 -0.000559505 0.000992718 -0.001456135 -0.004118280 -0.001648493 -0.001132884 0.001053572 0.000810581 -0.000877761 0.002051103 0.000034020 -0.001652497 -0.001337823 -0.001308402 -0.002048658 -0.001691338 0.001295192 -0.003573897 -0.000964184 -0.000245120 -0.000749206 0.002285505 -0.001603511 0.000124929 -0.001454301 -0.002152703 -0.002570270 -0.001312776 -0.000999120 -0.000865810 -0.001303689 0.001891049 -0.000139440 -0.002490766
disclaimer	0.002468418 -0.000913295 0.000664435 0.001467262 -0.000796011 0.000378960 0.000662759 -0.000077196 -0.000719679 0.001534505 -0.000392559 -0.000468428 0.001942099 -0.001097617 0.000844262 -0.001795004 0.002015484 -0.000443242 -0.000232020 0.000122445 0.002293587 -0.000116747 -0.001788308 0.000457966 0.000110913 0.001542664 0.002208217 0.000969561 -0.001512570 0.001000873 -0.000581742 0.000404706 -0.001929718 0.002276849 -0.001032941 0.001177437 -0.000175614 -0.000966529 -0.001422289 0.002335520 -0.001248893 0.000138311 -0.001073397 0.001585856 -0.001208395 -0.001414759 0.002805911 -0.000096407 -0.003159823 0.000772011 -0.000175977 -0.000576461 -0.000820658 -0.001292194 -0.003116611 -0.000632916 -0.001213038 -0.000602060 -0.001511092 0.001049584 -0.000849295 0.001569073 -0.002703176 0.000143544 0.000332283 0.001683903 0.000283867 0.000275604 0.000794348 0.002317877 0.001499797 -0.000099185 -0.000315700 -0.001281647 0.003912679 -0.000279048 0.002511368 0.001181922 0.001653637 0.001811521 0.001854997 0.000602876 -0.002033693 0.000418760 0.000392975 -0.000389132 0.002700488 0.000159691 0.001585339 -0.000359289 0.001596826 0.001423255 0.000840753 0.000875214 0.000998545 -0.000776289 0.001966575 -0.001158459 -0.002499440 -0.001099430 0.001003807 0.000029178 -0.001559351 -0.001070834 -0.000464964 -0.000489798 0.001176714 -0.001342360 -0.001108303 0.000376739 -0.001613939 -0.000232335 0.000466861 0.002088150 0.000814822 0.002389556 -0.001185077 -0.001624165 0.001508740 -0.001706999 -0.000220800 -0.000312504 0.001706432 -0.000177145 -0.000685815 -0.000218582 -0.001470613 -0.000161886 0.000931280 0.000427121 -0.001379276 -0.002145370 -0.001012058 -0.001667107 -0.001367102 -0.001278618 0.002322609 -0.000291647 -0.000020671 -0.000390145 -0.001967418 -0.000836745 0.000312825 0.001831632 -0.002125578 -0.000405401 0.001560206 -0.000346228 0.000892405 0.000965148 0.000889176 -0.002387978 0.000887206 -0.000454834 0.001480682 0.001548547 0.000902558 0.000090755 0.000922123 -0.002588403 0.000435531 -0.001094557 -0.001814209 -0.000480252 -0.001475100 -0.001148964 0.001997995 -0.003405592 -0.001812729 -0.002853099 -0.000490663 -0.001887218 -0.001467656 0.000851953 -0.003006854 -0.001112557 0.000138710 -0.000031983 -0.002011488 -0.001286868 0.000101264 0.000026596 -0.001026687 0.000539398 -0.000221359 0.001398875 -0.001030757 -0.000775157 -0.000370502 0.000401463 -0.000851314 0.001603164 -0.000698888 -0.001444816 0.001686963 -0.002363077 0.001502775 -0.001254965 0.002582386 -0.000602729 0.001534431 -0.001368611 0.000760317 -0.000038522 0.000411549 0.003550514 -0.001559228 -0.000004634 0.000911961 -0.001838309 -0.000789570 -0.001044822 0.001942814 -0.000315738 0.000124138 0.000015648 0.000720984 -0.000896046 -0.000348355 -0.000062618 -0.000818393 -0.001172032 -0.000981118 -0.001677437 -0.003137567 -0.000504214 -0.000177254 -0.001470404 0.001522304 -0.000931629 0.000038991 0.002245435 -0.000023946 0.000279207 0.000329993 -0.000574606 0.001291178 0.001236209 -0.001516057 0.001613058 -0.001574515 -0.000878371 0.001969568 0.001271766 -0.002275089 -0.000931574 0.001813568 0.000916301 -0.002010808 -0.001228594 0.001173436 0.001429841 0.001036364 -0.000795766 0.001571749 0.000043060 0.000857774 0.001393886 0.001365380 0.002315730 -0.001173712 -0.001035166 -0.000135401 -0.001152280 0.001784834 0.001756777 -0.000956886 -0.000716559 -0.001088604 -0.002842855 -0.001042266 -0.001613998 -0.000101812 -0.000714099 -0.001552607 0.001371883 -0.000511553 -0.001546140 -0.000411005 0.000719842 -0.001780408 -0.001638379 0.000022230 -0.002267471 0.000768081 -0.000079105 0.000220323 0.003662785 0.001287510 0.000866400 0.000254461 -0.001545408 -0.001912021 -0.002144180 -0.001584600 -0.000879610 -0.000830267 0.001460025 -0.001415693 -0.001835157
care	0.003178172 0.001215679 0.001063915 0.001486589 0.001244947 -0.000173535 0.000228565 0.000017927 0.000517407 -0.000178940 0.000569360 0.001358933 0.000598041 0.000467735 0.000509682 -0.000613578 -0.000651570 -0.000490800 -0.001077119 -0.000771308 0.002169407 0.001065254 -0.001834261 0.001693703 0.001366092 0.001606005 0.000830805 0.001369370 0.000423162 0.001852521 0.001059441 0.000237435 -0.001431813 0.002017040 -0.001729240 0.002384937 0.002907854 -0.000427772 -0.000255088 0.003386531 -0.000123582 0.000133424 -0.000061987 0.000848879 -0.003292335 0.000959671 0.003509718 -0.001741566 -0.002852537 -0.002644680 -0.000276690 -0.001493685 0.000382112 0.000150236 -0.004033126 -0.000410213 -0.000638517 -0.000198499 -0.001056873 0.000231463 -0.001221186 0.000356231 -0.003691986 -0.001433311 -0.000580972 0.001093708 0.003326876 -0.002119478 0.002116705 0.001328945 -0.000132077 -0.002931132 -0.002145396 -0.000633649 0.002888569 0.001705573 0.001895527 -0.001603035 0.001582571 0.000327438 0.002683267 -0.000020293 -0.000967699 0.000070057 0.002716304 -0.001179324 0.003078555 0.001190706 0.001440276 0.001421617 0.000584310 0.000027141 0.002336658 0.003800170 0.000668436 -0.003693848 0.000929416 0.000347557 -0.002831571 -0.002511618 0.001759638 0.002368319 0.000673689 -0.004485928 -0.001234086 -0.000053838 -0.000202796 -0.003402096 -0.001817548 -0.001296120 -0.001975915 -0.000628448 0.003014748 0.002210665 0.001733026 0.002373120 0.000830041 -0.003007579 0.000628197 -0.001508943 -0.001866921 -0.002616332 0.002610667 -0.001698834 0.001950337 -0.000597139 -0.001512117 -0.003055885 -0.000137959 0.000744206 0.000785070 -0.002308864 0.001642759 -0.003062807 0.001492441 0.001175603 0.002144793 0.000799933 -0.000345346 -0.003343066 -0.002087839 -0.004089977 -0.001175524 0.002959772 -0.002478851 0.001145494 -0.000430754 -0.000906893 -0.002130457 0.001589356 -0.000771269 0.000364112 0.000904411 0.002807539 -0.001487009 0.000778554 -0.001356823 -0.001514087 0.001642664 -0.001854769 0.000079346 -0.001168818 -0.002426835 -0.002388655 -0.000938079 0.000865590 0.000180829 -0.002095869 -0.000134230 -0.002896227 -0.002381092 -0.000719666 -0.000792496 0.001961702 -0.001882264 -0.001029960 -0.003767205 0.000524477 -0.002225222 0.001401240 0.001489764 0.000360135 -0.002651407 0.001393568 -0.002078435 -0.001218420 -0.000346298 -0.000358742 0.001513272 0.000348199 0.000843391 -0.001086898 -0.002069897 0.000968387 0.000975199 -0.001518638 0.003857386 -0.000139758 0.000775209 0.000232677 0.000752102 0.000182959 -0.000835216 0.001565846 -0.001967300 0.002434415 -0.003019211 -0.000636208 0.002527377 -0.002030311 -0.002885981 -0.002645261 0.003087220 0.001629693 -0.000079188 -0.001243300 0.001910184 0.000087017 0.001103021 0.003278253 0.001055251 0.000076595 0.000419822 -0.004408169 -0.004452614 -0.000472672 0.001004078 -0.000871612 0.001152320 -0.000871675 0.000529094 0.002454592 0.000666496 -0.000368688 0.003155473 -0.001430536 0.001405073 0.001678713 -0.001717792 0.000292082 -0.002205034 0.000542780 0.000176803 0.001932141 -0.001445829 -0.002280714 0.001173883 0.000225866 -0.004515299 0.001188965 -0.000071612 0.001373538 -0.000958043 -0.003050932 0.002461070 -0.001513250 0.002021598 0.000483001 -0.000714105 0.004403715 -0.001654660 -0.000800386 0.000772655 -0.001109435 0.001919060 0.002585853 -0.000328342 0.000052902 -0.000720654 -0.003526931 -0.001599432 -0.003149976 -0.001537452 0.001213392 -0.002589541 0.001517734 0.000633670 -0.000867234 -0.002403376 0.000352859 -0.001799390 0.000683392 -0.000377823 -0.002666669 -0.000512359 0.000079426 0.000305232 0.003942694 -0.000517088 0.000463112 0.001483113 -0.001357970 -0.002091296 -0.001975759 -0.001896439 -0.002125415 0.000589003 0.003520103 -0.001394523 -0.001932117
info	0.004101825 0.002279370 0.000701785 -0.000716010 0.002346637 0.001666552 0.000576834 -0.001357728 -0.001329677 0.001625378 0.000938476 0.003250922 0.002095259 0.002727312 0.000935682 -0.002732018 0.000190874 0.000326299 -0.001111953 0.000988591 0.000038803 0.000581985 -0.003304586 0.001664527 0.001449355 0.000777836 0.001741158 0.003439897 -0.002364600 0.002766845 0.001916503 0.001748900 -0.000214618 0.003116778 -0.001528238 0.003075972 0.002494629 0.001257604 -0.002896453 0.001698213 -0.001331965 0.000047705 0.000552802 0.002976426 -0.003639542 -0.000825276 0.002756251 -0.000951309 -0.003458286 -0.001359887 -0.002345186 -0.001481959 0.001085214 -0.000377924 -0.002409081 0.001263467 -0.000359411 0.001395328 -0.001354430 0.000293967 0.000840094 -0.000788071 -0.003094129 -0.001598737 0.001278672 0.001226742 0.002947418 -0.000925671 0.000351153 0.000602139 -0.000281769 -0.002459223 -0.004099139 -0.000190082 0.004316588 0.002281789 0.003408617 0.000554160 -0.000196945 0.001458705 0.002076789 0.000448486 -0.001610650 -0.000988906 0.002087167 -0.000688377 0.001138442 0.001099476 0.000202448 0.000052671 0.000178865 0.001097873 0.000861602 0.004154705 -0.000869307 -0.004722818 0.001180438 0.000285459 -0.002451822 -0.002616727 0.000308981 0.000856520 0.000919678 -0.004273909 -0.002189297 -0.000921574 0.000261420 -0.002854607 -0.002092944 -0.000615421 -0.002356921 -0.002187571 0.003441980 0.000818107 0.001195350 0.002517838 0.001504107 -0.000994325 0.002387519 -0.002904530 0.000745068 -0.002864772 0.002080182 -0.001147423 0.001263967 -0.001481891 -0.001673226 -0.003591656 0.002331298 0.000603006 -0.001266249 -0.001400243 0.000158226 -0.001647719 0.000308810 0.000504644 0.002322075 0.001523215 -0.000766100 -0.002603942 -0.003755816 -0.003929784 0.000353829 0.003040889 -0.000542254 0.000829679 0.001379121 -0.001367309 -0.001159864 -0.000171058 0.002398438 -0.000625464 0.001233599 0.001336561 0.001624591 -0.001386535 0.000647363 0.000278004 0.000611425 -0.002428372 0.000179786 0.000734402 -0.004896478 -0.002187417 -0.002400120 0.001336686 0.003537513 -0.003049589 -0.002103968 -0.005511186 -0.001983008 -0.002068101 -0.001544688 0.004440331 -0.002039718 -0.002906234 -0.002292347 0.000017084 -0.002198069 -0.000125528 -0.000047642 -0.000148367 -0.003120752 -0.000406594 0.000561006 -0.001420547 -0.003066313 -0.000690871 0.001449924 -0.001075059 -0.001390878 -0.000893306 -0.001291475 -0.001347204 0.003712697 -0.002429087 0.002021909 -0.000787073 0.002433026 0.001278005 0.001266457 -0.000970585 -0.002160257 0.000740232 -0.002464018 0.003777574 -0.002747178 0.001640590 -0.000458512 -0.003586163 -0.001963038 -0.001513552 0.002647592 0.001784136 0.000462062 -0.001640649 0.001467211 -0.001017584 0.002060167 0.003874883 -0.000367264 0.001199630 -0.000131864 -0.004354645 -0.004553625 -0.001488953 0.002217579 -0.002742635 0.001315598 -0.000398715 -0.001971132 0.002713812 0.001279623 -0.002385766 0.002836367 -0.001721225 0.002508173 0.000115072 -0.002476914 -0.000067811 0.000402800 -0.002367811 0.001411026 0.003613036 -0.001185643 -0.001875316 0.001189459 -0.000294407 -0.004443182 0.001147045 0.000443447 0.000989426 -0.000523111 -0.002985622 0.001968071 -0.001213541 0.002050757 0.000408581 -0.000043287 0.003040930 -0.001213725 -0.000183894 -0.000951810 -0.003935252 0.000103129 0.003490603 0.000800464 0.000817038 -0.003391698 -0.003530761 -0.000501425 -0.001383000 -0.000173459 0.001821310 -0.002666581 0.001928406 -0.000587247 -0.002134484 -0.000038818 -0.001885336 -0.002430374 -0.001453545 0.000382647 -0.003177868 -0.000132685 0.000157670 0.001595988 0.004266561 -0.000202674 0.000919259 -0.000559726 -0.002867854 -0.001826045 -0.000257182 0.001121526 -0.000779355 0.000543319 0.002847577 -0.003126012 -0.002239678
robert	0.004905373 -0.000022248 0.000448384 -0.000371003 -0.000195264 0.001122018 0.001759590 -0.000446943 -0.001161650 0.000905523 -0.000939754 0.001798135 0.001810448 -0.000623084 0.001312789 -0.002455760 0.001379468 -0.000458214 0.001201951 -0.000528888 -0.000148317 0.001926984 -0.002906191 0.000843702 0.000689399 -0.000832233 0.000055494 0.000827532 -0.002594703 0.002273491 -0.000027986 -0.000339357 -0.000907545 0.001862954 -0.000864262 0.002751853 0.001602237 -0.000677267 -0.000001391 0.002072764 -0.001292062 -0.000059604 0.000892794 0.004023245 -0.001930090 0.000826583 0.001867522 0.001245834 -0.001329308 -0.001393321 -0.000270097 0.000245833 -0.000602972 0.001805931 -0.002124398 -0.000492599 0.000928179 0.001513817 -0.002070144 0.001905097 -0.000381721 0.001795604 -0.001954593 -0.001458276 -0.000234917 -0.000480116 0.001225150 -0.001890114 0.000505599 0.002407493 0.000050915 -0.003397044 -0.003846926 0.000222490 0.005309023 0.002714169 0.002023046 0.000251913 -0.000715312 0.000894986 0.002148246 0.001969863 -0.001418527 -0.000726492 0.000795052 0.000203024 0.001793777 -0.000950192 0.001242210 -0.000646923 -0.000902891 -0.000527560 0.002127220 0.003264558 0.001551930 -0.002950759 0.002314035 -0.002371533 -0.003364817 -0.003615020 0.002397101 -0.000750418 -0.001854856 -0.003200610 -0.002297735 0.000122634 0.000955556 -0.000790767 -0.003451810 -0.000367418 -0.001614049 -0.002465985 0.003780535 0.002176693 -0.000354733 0.000393258 0.000022274 -0.000744654 0.000460205 0.000246050 -0.000721183 -0.001825614 0.000119428 -0.000837184 0.002677370 -0.001796991 -0.001938450 -0.001418200 0.002659555 -0.000490338 0.001353668 -0.002561471 -0.001258114 -0.000785682 0.000798410 0.001336974 0.001608230 0.000927273 -0.001501785 -0.002155285 -0.003358028 -0.002595112 -0.000477051 0.002089737 -0.000073324 -0.000292993 0.000157668 -0.000450202 0.000235073 0.001600794 -0.000281203 -0.000214838 -0.000322957 0.002281776 -0.000607138 -0.001360094 -0.000059351 -0.001858985 0.000492584 -0.001615921 -0.000244286 0.001070558 -0.001564591 -0.002984207 -0.001322361 0.001864613 0.002569104 -0.002070761 -0.001507202 -0.004516752 -0.003063726 -0.001056588 -0.001768773 0.002242028 -0.004079159 0.000329519 -0.003594989 0.000824590 -0.003311139 0.000935932 0.000628475 0.001326688 -0.001229544 -0.000533840 -0.000003242 0.001706687 -0.002787430 -0.000908126 0.003268850 -0.001095510 0.000191097 -0.000638678 -0.002216306 0.001109046 0.002073258 -0.001003534 0.001503090 -0.000836514 0.001270871 0.000602854 0.000096783 -0.001246562 0.000099922 0.000553614 -0.003035619 0.004770346 -0.003129913 -0.001341379 0.000779638 -0.000645064 -0.003393178 -0.001636341 0.001543493 0.000226206 -0.000932432 0.001303265 0.001887721 0.000795576 0.001554275 0.001473853 0.000019352 -0.000138331 0.000940040 -0.004149942 -0.004623666 0.000123090 0.000567794 -0.000942273 0.001858473 -0.001213434 0.000095111 0.001119519 -0.000262825 -0.000356224 0.001817073 -0.001811240 -0.000592381 0.000256155 -0.001308661 -0.000701586 0.000102302 -0.001061795 0.001657405 0.002225259 -0.002828587 -0.000483946 0.000170115 0.000641113 -0.004022988 0.001601065 0.000718156 0.000031877 -0.001045143 -0.000948280 0.000575883 -0.001766771 0.003092206 0.000798043 -0.001112563 0.002697088 -0.001901118 -0.001415362 -0.002196826 -0.003088498 0.002091150 0.000734249 -0.001814236 0.001752552 -0.003100414 -0.004390959 -0.001037466 -0.002812085 0.001113155 0.002709450 -0.001068157 0.001515241 0.001540033 -0.001794710 -0.002530290 0.001171233 -0.001476830 -0.001422291 0.002133398 -0.004312938 -0.001851195 -0.000124997 0.000058301 0.004153930 -0.000372658 0.001234347 -0.001150488 -0.000318055 -0.000146319 -0.002604025 -0.000746987 0.001243496 -0.000919288 0.002192210 -0.001566278 -0.001335337
writes	0.010590391 0.002814954 -0.000503290 0.002414848 0.001750945 0.000115498 0.003674856 -0.002581147 -0.000975551 0.001675936 -0.001007912 0.003872122 0.001809025 0.002165136 0.000345474 -0.005541269 0.002557036 0.000387098 -0.002026922 -0.001613517 0.004199340 0.002446115 -0.002715191 0.001688291 0.006549871 0.002856438 0.004438876 0.002718818 -0.001340698 0.004562603 0.002840405 0.003208993 -0.002378484 0.001845564 -0.004831332 0.004556810 0.004389460 -0.002119026 -0.004951313 0.005809851 -0.002685253 0.002238308 -0.003578521 0.007783630 -0.004925935 0.000608981 0.007044448 0.000621209 -0.009254849 -0.003615682 -0.001937758 -0.002901408 0.002562195 0.001163576 -0.009474142 -0.001125815 0.000080328 0.000698915 -0.003211646 0.003123101 0.000301547 0.001628382 -0.004592846 -0.000924260 -0.000482935 0.000251121 0.005093269 -0.001804160 0.004098150 0.004554850 -0.000694931 -0.003446721 -0.005667462 -0.000283458 0.009902550 0.004798590 0.007384303 -0.000594174 0.003439208 0.001377716 0.004802223 -0.000228288 -0.006309372 -0.003516727 0.003281070 -0.002732849 0.004553117 -0.000960362 0.000864673 0.000689464 0.001111699 0.003432615 0.004396555 0.007584415 -0.000168502 -0.007902780 0.003542969 -0.003054212 -0.005642820 -0.006651205 0.002680223 0.003220893 0.000764412 -0.006786249 -0.004563948 0.002369921 0.001122620 -0.003928576 -0.006463703 0.000997116 -0.002970625 -0.002099738 0.005858787 0.002653004 0.002836072 0.003987149 0.000952940 -0.004065888 0.001350979 -0.003069092 -0.001254505 -0.003049163 0.004971150 -0.004569061 0.003077161 0.000294878 -0.004957204 -0.006200205 0.002456376 0.001897065 -0.001318200 -0.001069390 -0.000004937 -0.003592553 0.002438318 -0.001092635 0.004503735 0.001530104 -0.001407759 -0.006929535 -0.005328335 -0.007881890 0.002528796 0.004252455 -0.004274317 0.001642511 0.000927369 -0.002122561 -0.004165246 0.003227014 0.002726258 -0.003801493 0.001698449 0.004916735 -0.000213055 0.000629545 -0.003029397 -0.002081183 0.001535202 -0.004192706 0.001156559 -0.001650600 -0.006281304 -0.005251274 -0.005989127 0.001632792 0.005378812 -0.008591561 -0.004024070 -0.008144138 -0.004695307 -0.003374344 -0.002353037 0.007719350 -0.006971606 -0.002507275 -0.004876358 0.002789076 -0.005806146 0.000859772 0.001548104 0.004180868 -0.005235146 0.001927660 -0.002853412 0.000077170 -0.003021258 0.001074226 0.004308882 -0.001628536 -0.001457750 0.002976275 -0.001578905 -0.001504632 0.005845013 -0.004587144 0.008207788 -0.001181233 0.004920720 0.004222735 0.000131390 -0.004469584 -0.003035838 0.001109502 -0.005566256 0.010019992 -0.006775470 -0.001083851 0.003101449 -0.004267507 -0.004935950 -0.006563883 0.003803117 0.004051661 -0.002971734 0.000175276 0.004128425 -0.002938150 0.000957653 0.005995860 -0.000099923 0.000606442 -0.002051099 -0.008073742 -0.008425458 -0.000965873 0.000436014 -0.005301445 0.003383524 -0.005085577 -0.003506372 0.001080041 -0.002275408 -0.003064187 0.004087760 -0.004054226 0.002341195 -0.000186277 -0.004755809 0.001277456 -0.001303601 -0.000444074 0.001806511 0.007020084 -0.004150094 -0.003866170 0.001864552 -0.003268958 -0.007498913 0.000515478 0.002104988 0.000242420 0.002420606 -0.005637487 0.001356770 -0.001956698 0.004796737 0.001941639 0.000563115 0.009673075 -0.003247791 -0.003095933 -0.000761226 -0.006037261 0.000271171 0.006998999 -0.000176272 0.002690490 -0.005555537 -0.010432944 -0.004014906 -0.005198929 -0.000065058 0.003941325 -0.002209237 0.005216167 0.002208127 -0.002017511 -0.003183258 -0.001180089 -0.002304302 0.000251489 0.002803626 -0.009858673 -0.000413157 0.001964907 -0.000567743 0.009207509 -0.001482035 0.003308396 -0.001226399 -0.003861370 -0.004655879 -0.003286696 -0.001663036 0.000325271 -0.001149202 0.005731595 -0.007271050 -0.003839668
understand	0.005305054 0.001334584 -0.001521522 0.000638439 0.001252548 0.000856716 0.001551334 0.001055903 0.000182056 0.002486162 0.000226775 0.002938370 0.000142626 -0.000678772 0.001039837 -0.001638183 0.001120481 0.000518629 0.000693546 0.000317399 -0.000068023 -0.000396060 -0.002552720 -0.000886232 0.003148788 0.000701353 0.001023953 0.001756586 -0.000250424 0.000811126 0.000425631 0.000225617 -0.000526101 0.001048612 -0.002969830 0.003030313 0.002377660 0.001163191 -0.002426571 0.003006391 0.000626139 0.000172540 -0.000955030 0.000898682 -0.001352405 -0.000669636 0.003245442 -0.001566620 -0.003462747 -0.002610761 0.000084312 -0.002192894 0.000397208 -0.000389479 -0.003792018 -0.000209191 -0.001278227 -0.000651050 -0.002268824 0.002503658 0.000504399 0.002029862 -0.002740577 -0.000926716 -0.000568740 0.000656423 0.002650846 -0.001325311 0.000951797 0.001688976 0.001385996 -0.000939232 -0.002706540 -0.001661392 0.004583104 0.000268754 0.003592801 -0.000909083 0.001405188 0.001330200 0.003233371 0.000994690 -0.003311541 -0.002472895 0.002287045 -0.000973888 0.003350267 0.000876390 0.001258307 0.000438673 0.000949579 0.001862801 0.000803377 0.002766294 -0.001068221 -0.003515662 0.001970451 0.000908360 -0.001219610 -0.001430842 0.001322574 0.001263520 -0.001301685 -0.004186546 -0.001769217 0.001721168 -0.000517284 -0.002815786 -0.003103096 0.001381557 -0.001857047 -0.001663093 0.002483362 0.000212581 -0.000234350 0.002009367 -0.000480388 -0.000769275 0.000505142 -0.002305677 -0.001937623 -0.003179391 0.001212211 -0.002452667 0.001924439 0.000779424 -0.002395697 -0.002493440 0.000795482 0.001131665 0.001389318 0.000481069 0.000676571 -0.001326378 0.001085942 -0.001148355 0.000622381 -0.001098516 0.001034102 -0.002345548 -0.000580695 -0.002014044 -0.000665563 0.002625289 -0.001775738 0.001740105 0.002303018 -0.001734146 -0.001740738 0.000560352 0.000935456 -0.002365073 -0.000419237 0.002350561 -0.000321564 -0.000989058 -0.001700753 -0.002109732 -0.000934881 -0.000001775 0.000745220 -0.001357377 -0.002910276 -0.000366028 -0.002380245 0.000256187 0.001430736 -0.001671772 -0.000400987 -0.001667159 -0.002382338 -0.001433396 0.000118409 0.002203128 -0.003886455 -0.002378017 -0.001630142 0.001519914 -0.002964770 0.001279372 0.000389905 0.002470618 -0.002762396 0.001389914 -0.001937171 -0.000445538 -0.002498419 -0.000465421 0.003524791 -0.001359812 -0.000390196 0.000554907 0.000815354 0.000638903 0.000367530 -0.000052563 0.003121098 -0.001373922 0.003084120 0.001442440 0.000137940 -0.000085262 -0.001459615 0.000913404 -0.000138225 0.004939474 -0.001943246 0.000286205 0.000793701 -0.003297896 -0.000700104 -0.001529061 0.002447073 0.001995492 -0.001202940 -0.001758953 0.002288664 -0.000456368 -0.000345392 0.003215370 0.000089414 0.000517060 0.000630146 -0.002932608 -0.001765422 0.000536708 0.001313877 -0.002153142 0.001243251 -0.003109039 -0.001047061 0.000908035 0.001282301 0.000660927 0.001259916 -0.000235499 0.001277351 0.001363322 -0.000907805 0.001359327 0.000542549 -0.000025551 -0.000122081 0.001382834 -0.002290252 -0.002627739 0.001483101 -0.000140611 -0.004363146 0.000498928 0.002076901 0.001740766 0.000052928 -0.001801323 0.000076479 -0.000594459 0.001944495 0.000166314 -0.001149664 0.004299705 -0.001096497 -0.001976753 0.000335955 -0.001460864 0.000607672 0.004084792 -0.000022663 0.001145946 -0.001903686 -0.002172942 -0.002516633 -0.001835753 -0.001355060 0.001156028 -0.000720297 0.001884331 -0.000397333 -0.000442513 -0.002054073 -0.000873171 -0.001528030 0.000465282 0.002220318 -0.004459155 0.000874386 -0.000859045 -0.000894260 0.004535273 0.001256771 0.001429214 -0.001233817 -0.002547143 -0.001667276 -0.001696815 0.001112490 0.000838403 0.001089322 0.002050057 -0.002514271 -0.002569795
current	0.007178261 0.001887823 0.001914737 0.000303774 0.002472715 0.001722600 0.002964180 -0.000759692 -0.001448585 0.000760217 0.000563046 0.003856829 0.001063615 0.002756516 0.000154473 -0.003851211 0.000754617 0.000375032 -0.000224880 -0.000986382 0.001369832 0.001915774 -0.001345202 0.001417645 0.003319289 0.002731099 0.001620167 0.002642218 -0.002814828 0.002952738 0.000181166 0.000804271 -0.003179442 0.002942502 -0.003453998 0.002466859 0.004098613 0.001157580 -0.000462878 0.002722222 -0.000791980 0.001790127 -0.001030959 0.003399626 -0.003093885 0.000977775 0.004434331 0.001125749 -0.004369168 -0.003416250 -0.001734028 -0.002161332 0.001997414 0.000336785 -0.005074596 0.000689219 0.001604513 0.001028383 -0.002573373 0.000214766 0.000052657 0.000879414 -0.001195387 -0.001039897 0.001287727 0.001349389 0.005233229 -0.001599088 0.001267612 0.003790115 -0.001601163 -0.002508487 -0.004871049 0.000187215 0.004531661 0.003309771 0.003798698 -0.000108954 0.001078374 0.001942631 0.002204861 0.000164291 -0.003125722 -0.001158662 0.002005034 0.000658304 0.004281582 -0.000363578 -0.000597331 0.001313369 0.001005871 0.000397000 0.001393366 0.005205493 0.000090610 -0.004993119 0.002447897 -0.002468889 -0.002079254 -0.001402125 0.000527797 0.002282047 -0.001332223 -0.002470416 -0.001519364 -0.000096514 -0.001074966 -0.001556335 -0.003780688 0.001609957 -0.001971711 -0.000268464 0.003769540 0.000794038 0.002562939 0.001599905 -0.001133173 -0.001484189 0.002332337 -0.002404369 -0.000766824 -0.001946081 0.000871549 -0.003258981 0.002142547 -0.000711393 -0.001553686 -0.000854065 0.001886794 0.001092503 -0.001170638 -0.001732784 -0.001184296 -0.002200115 0.000674428 -0.000828507 0.002766602 0.002110207 -0.001354806 -0.002218559 -0.003658882 -0.004004623 0.001059395 0.002934265 -0.001487726 -0.000430692 0.001071254 -0.000410391 -0.003187187 0.001167201 0.002517030 -0.001593640 0.000630391 0.003374856 -0.000081470 -0.000097044 0.000764782 -0.001491767 0.000834290 -0.001347593 -0.000046162 -0.000415133 -0.005105190 -0.003244768 -0.003172449 0.000768634 0.002677649 -0.003729431 -0.001687328 -0.004055565 -0.003484898 -0.003721498 0.000144497 0.005104584 -0.004627367 -0.002907918 -0.003579727 0.002884971 -0.000988264 0.002007545 0.002396512 0.001569885 -0.001674693 0.000041844 0.000195857 0.000516958 -0.003274600 0.000755363 0.001340005 0.001043554 -0.002694321 0.001165869 -0.002286463 -0.000779847 0.003138850 -0.002710210 0.001982470 0.000653897 0.003244943 0.000524341 0.000992910 -0.000198107 -0.001638097 -0.000886747 -0.003884440 0.003949485 -0.001601508 -0.001279072 0.000806502 -0.001934402 -0.001904494 -0.001727572 0.002942069 0.002391509 -0.001565914 0.000570583 0.003505467 -0.000190047 0.002283077 0.002673512 0.000702914 0.000967082 0.000473303 -0.002621987 -0.005494060 -0.001096960 0.001669873 -0.001031155 0.000254446 -0.003816642 -0.000195112 0.002025242 -0.000731515 0.000016566 0.002636974 -0.000735105 0.002385359 0.000451977 -0.003757344 0.001268172 -0.000990700 -0.002207894 0.000522412 0.002117725 -0.003311573 -0.002478536 0.000367540 0.000252169 -0.004614256 -0.000959767 0.001618101 -0.000150553 0.001001113 -0.000968751 0.002633523 -0.001358277 0.003464725 -0.000028161 0.001284527 0.002970082 -0.001367230 -0.000936162 -0.001964021 -0.002896108 -0.000044510 0.003841247 -0.000877934 -0.000567493 -0.001178605 -0.004241700 0.000023321 -0.000910433 -0.001272524 0.001408511 -0.002139519 0.002705310 0.000654616 -0.002727402 -0.000991463 -0.001766634 0.000804715 -0.000091577 0.001105591 -0.003935823 -0.001615864 0.000846940 0.000001302 0.005203887 -0.000398719 0.000952175 0.001631803 -0.003316298 -0.001398270 -0.000843159 -0.001603317 -0.000676261 -0.001344905 0.004050216 -0.003634598 -0.000129815
situation	0.003434382 0.002424431 -0.001507632 -0.000528610 0.002329545 -0.000305895 0.000761220 0.000616334 0.000445299 0.002703978 -0.000936411 0.000989083 -0.000627505 0.002543423 -0.000793327 -0.001418220 -0.000362198 0.000983179 -0.000583242 0.001408680 0.002046705 0.002367268 -0.002455683 0.001200339 0.001248125 -0.000296846 0.001871809 0.000821297 -0.001627616 0.001247357 -0.000358240 0.000348757 -0.000028319 0.000658654 -0.002781857 0.000013872 0.000238515 0.000604949 -0.002391615 0.003104442 -0.001336728 0.001025830 -0.000960273 0.001139964 -0.002621028 0.001253504 0.002261354 -0.000379712 -0.003744256 -0.002015318 -0.001092727 -0.002931072 0.001194363 -0.000150042 -0.002396830 0.000474388 -0.000796485 0.001738003 -0.000561763 0.002258769 0.000795992 0.001800657 -0.002154608 -0.002446021 0.000919459 0.001980393 0.001599552 -0.001193563 0.000812176 0.002616040 0.000086151 -0.002084008 -0.003415647 -0.000811687 0.003533959 0.002204524 0.003398363 -0.001489875 -0.000247659 -0.000718166 0.001410895 0.001671355 -0.001514398 -0.000998921 0.002311063 0.001051628 0.002607512 0.001297373 -0.000158668 0.002111825 -0.000650463 0.001567103 -0.000273550 0.002727938 -0.001033559 -0.003037004 0.000484773 -0.000127507 -0.000448790 -0.002702324 -0.000558909 0.001637440 -0.001068066 -0.004364925 -0.000519856 0.001701602 -0.001271704 -0.000754685 -0.003691382 0.001025824 -0.002113899 0.000707421 0.001178470 0.000128936 0.001576716 0.001442093 0.001427657 -0.001428496 0.001991350 -0.002732261 0.000846762 -0.002039087 -0.000081135 -0.002966621 0.001962282 0.000578460 -0.002624679 -0.001296441 -0.000001413 -0.000235584 -0.000395349 -0.001528215 -0.000347541 -0.000629349 0.001574714 -0.000294980 0.001689209 -0.000218053 0.000304153 -0.000817305 -0.001941929 -0.000832603 0.000988072 0.002643768 -0.001698220 -0.000506794 -0.000636132 0.001139498 -0.002631476 0.000371888 0.000665898 -0.000981786 0.000259569 0.001983487 -0.000809087 -0.001367144 0.001101468 -0.000783827 -0.000924625 -0.001257102 -0.000182164 -0.001961889 -0.001492181 -0.000616795 -0.000544978 0.002150713 0.001706804 -0.004805759 0.000175164 -0.002806813 -0.001098072 -0.001645233 -0.000927980 0.003736322 -0.003637025 -0.001441719 -0.001247286 0.000872333 -0.001396402 0.000481675 -0.000426865 0.002706749 -0.001670151 0.000621951 -0.002179009 -0.000177115 -0.001870518 0.001676530 0.000947777 0.000380080 -0.002202573 0.000555783 -0.000744927 -0.000276947 0.001687659 -0.000618453 0.002524097 0.000078407 0.003177378 0.001987069 -0.000937703 -0.002868265 -0.000960624 -0.001294087 -0.000178676 0.003540270 -0.001784263 -0.001595637 -0.000681765 -0.001871558 -0.001597982 -0.002192199 0.000503417 0.002164827 -0.000807772 -0.001860670 0.001616718 -0.000154722 -0.000602501 0.001301626 -0.001473809 -0.000603947 -0.002051040 -0.001480335 -0.003348590 -0.001095579 -0.000387086 -0.003181152 0.000193552 -0.002752997 0.000398937 0.002390127 -0.001353844 -0.000136705 0.003618266 -0.001650749 0.001252834 -0.000066196 -0.002442092 0.001518383 -0.001720189 -0.001540944 0.001654973 0.000665381 -0.002345952 -0.003147957 0.000973974 -0.000978502 -0.003952074 0.001693724 0.002640665 0.000438695 0.000540870 -0.001825888 0.002303267 0.000493377 0.003800004 0.001221985 0.001410363 0.003110349 -0.001278665 -0.001945590 -0.000649979 -0.002969241 -0.000344443 0.002234597 -0.001428993 0.000729095 -0.002899070 -0.005240128 -0.002720610 -0.001725116 0.000407080 0.001579653 -0.002671510 0.002728578 -0.000538686 -0.002347269 -0.001553441 -0.000643324 0.000384233 0.000324635 0.001456696 -0.002399397 0.000621195 -0.000159900 0.000380849 0.004825323 0.000079890 0.001194550 -0.001238201 -0.001944148 -0.002351024 -0.002038312 -0.001712528 -0.001959896 0.001152912 0.003508820 -0.000481817 -0.000792817
give	0.006467804 0.002602377 0.001606610 0.001270137 -0.000189017 -0.000811168 0.000191259 -0.001096869 0.000503317 0.001610922 -0.000419597 0.002593400 0.000117009 -0.000312125 0.001532691 -0.002807037 0.001273301 0.000718233 0.000341034 -0.000310489 0.003113715 0.002119607 -0.001018569 -0.000127693 0.001383906 0.001940670 0.000183915 0.003387348 -0.002390798 0.002131030 0.001789271 0.000768748 -0.002053450 0.000763677 -0.003106314 0.003445962 0.001738731 -0.000183324 -0.001080618 0.003935449 -0.002013946 -0.000313197 -0.001029097 0.004022501 -0.002929411 0.001515110 0.005402145 0.000742937 -0.005195837 -0.001687255 -0.001099701 -0.001607301 0.001074856 -0.000238719 -0.002882343 -0.002068066 0.002000445 0.000990285 0.000209307 0.001750665 0.000708662 0.000851577 -0.001811571 -0.001907061 0.001212556 -0.000177197 0.004711378 -0.001311395 0.001543607 0.000733375 -0.000594361 -0.003091403 -0.004303392 0.000966693 0.004607643 0.003628472 0.001761998 0.001227812 -0.000300724 0.001172285 0.002234891 0.001697147 -0.004830544 -0.001247824 0.001737969 -0.001620424 0.002599088 -0.001201551 0.001128643 -0.000819296 0.000877120 0.002350989 0.000948820 0.005042378 0.000306097 -0.002832880 0.002900923 -0.001549737 -0.002864754 -0.002043612 0.001254115 0.002261703 0.000929887 -0.005584882 -0.000061342 -0.000230236 0.001574526 -0.002104844 -0.004199746 -0.000495227 -0.002138105 0.000231677 0.004202218 0.001936145 0.001063627 0.002652029 0.000679107 -0.002526995 0.000787459 -0.000425972 -0.000351589 -0.001260199 0.002339099 -0.002269832 0.003396173 -0.000046510 -0.002440380 -0.003227562 0.002223309 0.001161979 0.001201353 -0.002420831 -0.001015760 -0.002249517 0.000756564 -0.000297494 0.002309944 0.000946830 -0.001296095 -0.003258689 -0.001152444 -0.003299802 0.002214910 0.002991876 -0.002270032 0.000584148 0.000268461 0.000584113 -0.001989575 0.001991684 0.002780241 -0.001854119 0.001660130 0.003077911 -0.000118191 -0.000365147 0.000599560 0.000878448 0.001522611 -0.000637860 -0.000653137 0.000878051 -0.005084426 -0.003835102 -0.003093358 -0.000333911 0.003532305 -0.003360784 -0.003202413 -0.005818903 -0.002311539 -0.001621518 -0.000746654 0.002071407 -0.004438533 -0.000369257 -0.003449626 0.000499045 -0.001994884 -0.000316928 0.000698993 0.001543782 -0.003118396 -0.001229107 -0.001791157 -0.000122113 -0.001617208 0.000568280 0.003469490 0.000944645 -0.000110224 0.002175324 -0.000527342 -0.000038277 0.001324108 -0.002222532 0.004880575 0.001355582 0.003259147 0.002021462 -0.001328506 -0.002282164 -0.002585634 0.000941046 -0.001231354 0.004404309 -0.004703798 -0.001066423 0.001877684 -0.001802613 -0.004491831 -0.002189748 0.001768649 0.001591782 0.000408016 -0.001734140 0.003151790 -0.000032097 -0.000568684 0.003638297 -0.000596945 -0.000963852 -0.001167947 -0.003075806 -0.004892372 0.000735585 -0.000353903 -0.001477273 0.003032658 -0.003429677 0.000094411 0.000345942 -0.000127691 -0.002362444 0.002468736 -0.001919423 0.001773569 0.001045506 -0.003384196 0.001492849 -0.000774351 -0.000401545 0.000664611 0.004447000 -0.001110916 -0.003811222 0.002733220 -0.002185676 -0.005012359 0.001274747 0.002012007 0.001569873 0.000564886 -0.002722730 0.002093818 -0.000171044 0.004609552 -0.000795327 0.000097093 0.003617281 -0.002265762 -0.000222377 -0.000038025 -0.002100760 -0.000002172 0.001785527 0.000294601 0.002003065 -0.002303200 -0.004162603 -0.003118741 -0.002509361 -0.000110656 0.000157140 -0.002861467 0.002239045 0.001649782 -0.002714911 -0.000469091 -0.002102739 -0.000636814 -0.001299016 0.002410538 -0.003281290 0.000284715 0.000521264 0.000144552 0.003163137 -0.000132448 0.002097683 0.000515822 -0.000908495 -0.001554228 -0.002985567 -0.001860661 -0.001947067 0.000623859 0.001827355 -0.001844178 -0.001921412
years	0.008836179 0.001613773 -0.000556774 0.000978290 0.002471006 0.000773508 0.003533441 -0.000319194 -0.001157829 0.001228179 0.000881245 0.002247001 0.000552456 0.003370466 0.000567344 -0.003979375 0.000982991 0.002904470 0.000553994 0.001400697 0.002139791 0.001545069 -0.004041389 -0.000509916 0.004731818 0.002590840 0.003594585 0.002304621 -0.002745369 0.004447844 0.001980815 0.001837837 -0.002583454 0.004043810 -0.003096000 0.004165820 0.002275695 -0.001573384 -0.003214451 0.003572624 -0.001992766 0.001754713 -0.001995564 0.005537867 -0.001782888 -0.000566827 0.006056584 -0.001087627 -0.007026121 -0.001452329 -0.002698313 -0.002362466 0.001586715 0.002256002 -0.005645334 0.000095031 0.000052371 0.000375028 -0.000731036 0.003254187 0.001147322 0.000775825 -0.002577878 -0.001768118 -0.001032026 0.000114816 0.006516384 -0.003386684 0.002892897 0.005174923 0.000756614 -0.004874154 -0.006043713 0.000458411 0.008201327 0.003787070 0.003058098 -0.000584744 0.003445309 -0.000122957 0.004322844 0.002338755 -0.005061737 -0.002653814 0.002294394 -0.001164105 0.005460016 0.000994789 -0.001357043 0.001577137 0.000547425 0.001856474 0.001682956 0.006272021 -0.000686957 -0.004795430 0.001828406 -0.002177211 -0.002783775 -0.004850482 0.002399457 0.001359670 -0.000910683 -0.004448454 -0.003198173 0.001983867 0.001592773 -0.002806545 -0.003090758 -0.000307903 -0.001546812 -0.002512895 0.002841978 0.002899414 0.001410034 0.001209813 0.001228693 -0.005300608 0.001797113 -0.001106932 -0.001010033 -0.001702191 0.003132800 -0.001527965 0.003714952 -0.000509909 -0.002848841 -0.004392413 0.001151503 0.001132391 0.000563633 -0.001908359 0.001126908 -0.003744957 0.002369493 -0.000210981 0.003098869 0.001650014 0.000539238 -0.004295647 -0.003528409 -0.004833536 0.002292573 0.004163073 -0.000532483 0.001734413 0.002868270 -0.000720102 -0.001467571 0.002730477 0.002107062 -0.001737740 0.001799040 0.001937127 -0.000126617 0.001634230 -0.000884355 -0.002211245 0.000764241 -0.003122598 0.002216782 -0.000845767 -0.004604420 -0.003008642 -0.004348931 0.001667154 0.004466947 -0.008105080 -0.001487696 -0.005255519 -0.003944843 -0.004071949 -0.002396924 0.004799551 -0.006641127 -0.001084855 -0.002882289 0.002899289 -0.004641070 0.001392971 0.002305184 0.003901979 -0.003467439 0.001802636 -0.000153432 -0.000125457 -0.002758248 -0.000190841 0.001977753 0.000051536 -0.002437733 0.002030646 -0.000974474 0.000034968 0.004679807 -0.004682129 0.005312250 -0.000220136 0.004446670 0.003123733 0.001141346 -0.003628439 -0.000916254 0.001316948 -0.002812459 0.006800962 -0.003973338 0.000367410 0.001586077 -0.004695291 -0.005414795 -0.006133911 0.004355147 0.003053380 -0.001161296 0.000342112 0.003293482 -0.002409224 0.002314241 0.005173796 -0.000250454 0.001735109 -0.002806112 -0.006330847 -0.005952048 0.000395600 -0.000001489 -0.002124439 0.001887970 -0.003664774 -0.000202482 0.002559929 -0.001189261 -0.001186954 0.005076103 -0.003565223 0.002100110 0.001651044 -0.004852070 -0.000084496 -0.001798784 -0.002358807 -0.000037402 0.005880511 -0.003574727 -0.002516410 0.001196110 -0.002848913 -0.007596480 0.000263815 0.001856169 0.002114568 0.000195863 -0.004551653 0.001615615 -0.000221537 0.005943926 0.000082002 0.002036379 0.004535690 -0.004997033 -0.002085120 -0.002896140 -0.003006066 0.002454325 0.003204198 0.000280893 0.000482523 -0.003303976 -0.006126274 -0.002799098 -0.003200466 -0.001122882 0.003005000 -0.001117754 0.001732532 0.001737662 -0.001166310 -0.000833174 -0.000000237 0.000131267 -0.001280351 0.001713750 -0.006388771 -0.000842609 0.001016222 -0.001455640 0.005905295 -0.001279890 0.002020980 0.000817295 -0.001470240 -0.003158860 -0.002967031 0.000498602 -0.000023736 -0.000118079 0.003809606 -0.004678646 -0.003894162
add	0.004188560 0.000804753 -0.000794841 0.000602880 0.001935504 0.002177639 0.000600806 -0.000644588 -0.001445553 -0.000086341 0.000782171 0.000921727 0.001237815 -0.000104520 0.000926762 -0.003484458 0.001663645 0.000737049 0.001027579 0.000856296 0.001068053 0.001142962 0.000018952 0.001925339 0.001805200 0.001344762 0.000948296 0.000522383 -0.000140280 0.000487643 0.001244452 0.000096139 -0.000770599 0.002156043 -0.003399361 0.000193779 0.003399807 -0.001182741 -0.002885342 0.003734226 0.000508360 -0.000295044 -0.000706173 0.003621403 -0.003154704 0.001243589 0.003848414 -0.001246840 -0.002617423 -0.002740814 -0.000881677 0.000076260 0.002268334 -0.000032738 -0.003916963 -0.000137445 -0.000246262 0.000040447 0.000008379 0.002854845 0.000814575 -0.000144658 -0.000957938 0.000030981 0.000413966 0.001975997 0.004454242 -0.001471126 0.002515368 0.002659502 -0.000619788 -0.003614863 -0.004028198 0.000825121 0.005160613 0.003213945 0.001546214 0.000254411 0.001248935 -0.000384921 0.001504421 -0.000974053 -0.001574687 -0.000433508 0.000624469 -0.001155100 0.003818765 0.000968746 0.000722032 -0.000631718 -0.000406311 0.002520239 0.001082398 0.002142733 -0.001338429 -0.002546653 0.001666964 -0.001370635 -0.000483929 -0.001517141 0.000019644 0.002209958 0.001019331 -0.003323092 -0.001484735 -0.000739167 0.000616969 -0.001353728 -0.003265057 -0.000738496 0.000194465 0.000436769 0.000807376 0.001999364 0.001889037 0.001383273 -0.000669943 -0.000951757 -0.000308294 -0.002397516 -0.000815462 -0.002577510 0.001341793 -0.002863802 0.002986406 0.001287359 -0.002481528 -0.000408917 -0.000218535 0.000506652 -0.000174442 -0.002114216 -0.000854063 -0.002351578 0.001357164 0.001270469 0.003622755 0.002030616 -0.000279593 -0.002564030 -0.003519956 -0.004191509 -0.001152506 0.002241755 -0.000381733 0.000268832 0.001240140 0.000617454 -0.002828934 -0.000549662 0.001936736 0.000144063 0.002185673 0.001655283 0.001750704 -0.001144787 -0.002302116 -0.001837603 0.000616685 -0.001482386 0.001092009 -0.000608032 -0.002046907 -0.000250748 -0.003230476 0.000830495 0.001208702 -0.003539357 -0.000273936 -0.002107002 -0.002875149 -0.000737861 -0.000149140 0.004121143 -0.004430041 -0.001560378 -0.003910618 0.001477970 -0.001988997 0.001199507 0.000639691 -0.000361727 -0.002569915 -0.001461291 0.000324792 -0.000569080 -0.003131256 0.000133575 0.000661132 0.000939606 -0.001661226 -0.000237816 -0.000984471 -0.000318578 0.003339894 -0.002171527 0.004342410 -0.001396030 0.000550714 0.002738174 0.001166237 -0.001315966 0.000283941 -0.001434753 -0.001654833 0.005290316 -0.001471273 0.000685637 0.001011110 -0.002630117 -0.001124056 -0.002152191 0.000753925 -0.000227234 -0.001697624 -0.001238977 0.000043021 -0.002082216 0.000786469 0.001964741 0.000308302 -0.000989236 -0.001571009 -0.001882542 -0.003413427 0.000386789 0.002155372 -0.000120297 0.001544897 -0.001453604 -0.001320593 -0.000187206 -0.001128646 -0.001823670 0.002879214 -0.001025987 0.001515535 -0.000994988 -0.000367495 0.001925491 0.000149322 -0.001700669 0.000514049 0.003904205 -0.000796221 -0.001868580 0.000059009 0.000646059 -0.004098523 -0.001195925 0.001987307 -0.000564821 0.000287999 -0.001355895 0.001669919 -0.000114068 0.001929656 -0.001151528 0.001518514 0.004843687 -0.000952616 0.000486779 -0.002340652 -0.001902371 -0.001097908 0.003744378 0.001127856 0.000802933 -0.002037003 -0.003843678 -0.002793588 -0.000165261 -0.001799575 0.000915079 -0.000240274 0.001395167 0.001304824 -0.001186134 -0.000974478 0.000658804 -0.002321746 -0.001382520 0.001228689 -0.004700819 -0.000805893 -0.001312128 -0.001467953 0.001934868 -0.000129965 0.002495667 0.000950541 -0.001135374 -0.002797207 -0.001338697 -0.001948938 0.001124310 -0.000363004 0.002099609 -0.001662483 -0.001841443
memory	0.007762378 0.002205528 -0.000691910 -0.000534269 0.002513287 0.001393641 0.002940272 -0.000722300 0.000561506 0.002891268 -0.001599940 0.001820362 0.001945822 -0.000182083 -0.000659229 -0.002757942 0.001357636 0.001005727 -0.000371632 -0.001309269 0.002703377 0.002539611 -0.002858443 0.000041579 0.002767246 0.002883470 0.002901449 0.003681217 -0.002886116 0.002932430 0.000521571 -0.000102376 -0.002149283 0.002933861 -0.004582767 0.003406515 0.002606379 -0.000774125 -0.001005636 0.003666158 -0.001992739 -0.000025932 0.000088097 0.004161800 -0.003057855 -0.000069412 0.002687884 0.000821797 -0.003686360 -0.002758452 -0.003357872 -0.002312641 0.001372494 0.000728468 -0.006367152 0.000027163 0.000568741 0.001065503 -0.000535672 0.000850028 0.001345137 -0.000449961 -0.002761631 -0.001715079 0.001623281 0.000435281 0.004109203 -0.002592203 0.000523563 0.002899239 0.000233784 -0.002880206 -0.002289456 -0.000182830 0.007812702 0.001404753 0.002628198 0.001121169 0.001129707 0.002479222 0.001086430 0.001477676 -0.004483799 -0.002936756 0.001859773 -0.000496411 0.002632960 -0.000677872 -0.000294685 0.000293413 0.000005559 0.000918860 0.002468491 0.005666366 -0.000395432 -0.003538201 0.002729929 -0.001956447 -0.004097762 -0.004144687 0.003183879 0.000028254 -0.002072530 -0.003409866 -0.000183530 -0.000316871 0.001585800 -0.003804066 -0.002512446 0.000265949 -0.002310868 -0.003237189 0.003023044 0.001823478 0.001258643 0.001183254 0.001615244 -0.003438827 0.000730150 -0.001702059 -0.001983676 -0.002741648 0.000735083 -0.001401642 0.002564263 0.000238052 -0.001609981 -0.001379690 0.001512101 0.002087937 0.001330737 -0.000526914 -0.001537555 -0.000800452 -0.000418332 0.000501124 0.001526131 0.001077023 -0.000511331 -0.004246958 -0.001503996 -0.004925444 -0.000352797 0.003249416 -0.001084003 0.001077890 0.000995408 -0.000936414 -0.001405066 0.001786654 0.002393047 -0.000329665 0.001334882 0.001073809 0.000557765 0.001854486 0.000565673 0.000057229 0.001774191 -0.002385844 0.000904002 -0.001850529 -0.003175272 -0.003244400 -0.001803739 0.001790240 0.001850501 -0.006094743 -0.003174787 -0.005750068 -0.001437065 -0.003282344 -0.003310335 0.004865284 -0.003420923 -0.001893344 -0.003995290 0.002047644 -0.001612465 0.002017920 0.001439033 0.002400635 -0.001107649 0.000818053 -0.000047890 -0.000925930 -0.003947539 0.001213333 0.003402535 0.000087264 -0.001054920 0.000644849 -0.001748446 0.001339090 0.003014025 -0.003136161 0.002977266 -0.000223153 0.001127173 0.002102809 0.000024359 -0.002506304 -0.000004093 -0.000205436 -0.002867363 0.007078880 -0.004257544 -0.000634065 0.001886635 -0.001970215 -0.003821001 -0.002475064 0.004304542 0.002474325 0.000737284 -0.002085147 0.003276208 -0.001844168 0.000660986 0.004336748 -0.000021372 0.000608755 -0.000758718 -0.005499861 -0.004172991 -0.002107611 0.001994864 -0.003858427 0.001355300 -0.003241936 -0.001162474 0.000302848 0.000216220 -0.001627571 0.003013546 -0.002063880 0.000782609 0.000502981 -0.003347127 0.001767944 -0.002672737 -0.002536372 -0.000570211 0.004680091 -0.002358889 -0.003167904 0.002892654 0.000342615 -0.006750321 -0.000465356 0.001829839 0.001024738 -0.000975825 -0.001838268 0.001471427 -0.001219160 0.004767037 0.001085669 0.001186413 0.003634039 -0.002199664 -0.001741917 -0.000379434 -0.002134913 0.001754873 0.003322704 -0.000782934 0.001878056 -0.001351719 -0.006834755 -0.001344301 -0.001225862 -0.000529025 0.000407358 -0.000101991 0.001576859 0.001824832 -0.002498672 -0.000333534 0.000639428 -0.002730733 -0.000797466 0.000588903 -0.006772453 -0.000719308 0.000229407 0.001522265 0.005708512 -0.000216731 0.001017315 0.000200797 -0.003360438 -0.003729871 -0.002132021 0.000162377 -0.002008305 -0.000747712 0.003511387 -0.004280996 -0.001780246
faster	0.006108935 0.002339287 -0.000878576 0.001971269 0.000846821 0.001816264 0.000873122 0.000029562 -0.000015585 0.001810521 -0.000809887 0.001958332 0.001480053 0.002337752 -0.000012368 -0.002303159 -0.000280192 0.002258907 0.000850004 0.000183169 0.000078449 0.002326106 -0.002546943 -0.000252806 0.002926522 0.001003432 0.000051365 0.000800037 -0.000715160 0.001343731 0.000507533 -0.000087158 -0.000627508 0.003280483 -0.002397352 0.000753039 0.003801571 -0.000716963 -0.003382463 0.003080057 -0.002620511 0.000289648 -0.001322541 0.001933247 -0.001581576 0.000984015 0.004573082 -0.001780368 -0.002751090 -0.000276701 -0.000457450 -0.000287501 0.002427364 0.000734116 -0.005462773 -0.000045253 0.001796585 0.000091858 -0.000891489 0.001215189 0.000177991 0.001705784 -0.003330174 -0.002197759 0.001505952 0.000629629 0.002163880 -0.001981995 0.000421799 0.003530763 -0.001633400 -0.001633404 -0.002301830 0.001381333 0.005555719 0.002074234 0.004404866 -0.000066495 -0.000243696 0.001035660 0.001371580 -0.000378086 -0.001632808 -0.002728723 0.000906555 0.000167715 0.002763469 0.001126095 0.001146542 0.000891929 0.001584235 0.003094815 0.001333576 0.002934596 0.000369033 -0.002147176 0.002026434 -0.000772915 -0.002520094 -0.002241661 0.000972136 0.001925059 -0.000126629 -0.004988845 -0.002831446 -0.000250524 0.000856195 -0.002938162 -0.002081125 0.001561943 -0.000403994 -0.002132927 0.003271359 0.001774038 -0.000019294 0.000306211 0.001200602 -0.002669267 0.002115072 -0.001279369 0.000341727 -0.001504033 0.000792861 -0.000778836 0.001928969 0.000204198 -0.001488356 -0.001703022 0.001444276 0.001841877 -0.001282773 -0.001618126 -0.000886216 -0.000601818 0.002156125 -0.001639918 0.003112140 0.000057632 0.001487749 -0.002387041 -0.002771812 -0.004661755 -0.000449053 0.000161279 -0.001790402 0.000001198 0.000948636 -0.000879461 -0.001539494 0.002068301 0.001224352 -0.000730564 -0.000443031 0.003001590 0.001822377 -0.001190335 -0.001945824 -0.000914548 0.000533377 -0.000850191 0.002432046 -0.002064127 -0.002724170 -0.002226931 -0.003257150 0.001903730 0.001368001 -0.005630802 -0.002594988 -0.004130837 -0.003538810 -0.002228193 0.000227864 0.004556274 -0.003906063 -0.001244800 -0.002112781 0.002254213 -0.003632292 -0.000653379 0.000615446 0.002293870 -0.003647848 -0.000466040 0.000023500 0.001917880 -0.002891331 0.001270854 0.003720015 -0.001499400 -0.001806910 0.000897843 -0.000448762 0.001236799 0.003235263 -0.002811744 0.003259032 -0.000777405 0.002099996 0.003095114 0.001013060 -0.001558797 0.000613819 -0.001324749 -0.000603810 0.004534487 -0.004103980 0.000086283 0.002707491 -0.003298420 -0.004478442 -0.003084331 0.001731913 0.002609990 -0.001424894 -0.001973623 0.000818859 -0.000375088 -0.000181496 0.002805885 0.000468237 -0.000176482 -0.002244943 -0.003683120 -0.005565072 0.000421722 -0.000031989 -0.003349391 0.002719948 -0.001759482 -0.000874629 0.000258149 0.000177408 -0.002024434 0.002793104 -0.001105557 0.002111609 0.002061462 -0.002804402 0.002455660 -0.001720026 -0.001644932 0.002143092 0.001786570 -0.000513085 -0.001486055 0.002700015 0.000483573 -0.004119636 -0.000498848 0.000403709 0.001064254 -0.001099097 -0.000684318 -0.000411465 -0.001902057 0.003203693 -0.001038271 -0.000520431 0.003555994 -0.003187257 -0.000734356 -0.000628984 -0.003203361 0.000435160 0.003652990 0.000001909 -0.000233667 -0.003121728 -0.005887697 -0.000946809 -0.001367963 0.001051908 0.003035096 -0.002436516 0.000608933 -0.000478835 0.000281083 -0.002324157 -0.000531755 -0.001988120 -0.001645394 0.003234567 -0.004467348 -0.001205084 0.000185175 0.000844164 0.003201446 -0.001729996 0.002716967 0.001744595 -0.001796814 -0.000773116 -0.000676874 0.000939645 -0.000648172 -0.000529009 0.002580839 -0.003139099 0.000023420
today	0.003464019 0.000137796 -0.001531812 0.001160544 0.001716229 -0.000899415 0.001962459 -0.000489574 -0.000677036 0.000601217 -0.000560076 0.001052824 0.000436295 0.001995253 -0.000558336 -0.001540463 0.001111002 0.000881386 0.000800133 -0.001267501 0.000496013 0.001594228 0.000178797 0.001371475 0.003618918 0.001084721 0.000380038 0.001399375 -0.001065252 0.001157614 0.001569179 0.001440950 -0.000487843 0.001122303 -0.002054658 0.001558051 0.001960567 -0.001605578 -0.001211700 0.002197206 -0.000191244 -0.000513085 0.000034160 0.002208023 -0.000514966 -0.000975632 0.000951678 -0.000295191 -0.002581286 -0.001539551 0.000454735 -0.002883861 0.000646037 -0.001269764 -0.004266047 -0.000078754 0.000848958 -0.000075941 -0.000644531 0.000378903 0.001368649 0.000995207 -0.002347962 -0.002263485 0.001728582 -0.000058184 0.003076889 0.000485098 -0.000096615 0.001850133 -0.001573376 -0.001160327 -0.000705004 0.001142851 0.004873750 0.001153247 0.002303169 -0.001897652 0.000097316 0.000662181 -0.000134556 -0.000388881 -0.000532000 -0.000109369 0.000569750 -0.000244785 0.000410048 0.000325771 0.001217774 0.001991344 -0.000432264 0.000522810 -0.000188972 0.002644422 -0.000341724 -0.001787611 0.002912187 0.000193759 -0.001010805 -0.001238343 -0.000563297 0.002208296 -0.001777846 -0.001338038 -0.000583397 0.000819185 0.001789882 -0.002172059 -0.003198401 0.001486432 -0.000782967 0.000036259 0.002280222 0.001588161 0.001157526 0.002688427 -0.000767957 -0.001763098 0.000676564 -0.001887257 0.000201977 -0.001661151 0.002808250 -0.001463374 0.001361977 0.000164432 -0.001934528 -0.000092206 -0.000305678 0.000110029 -0.000772049 -0.001245096 -0.000582111 -0.001562061 -0.000365824 -0.001147961 0.001932371 0.000301216 -0.001687395 -0.003495296 -0.002092639 -0.003248523 0.002087069 0.002830596 0.000504500 0.002093935 0.001335280 -0.001855417 -0.000976854 -0.000959272 0.002256526 0.000339196 0.002091755 0.002646331 -0.000805633 -0.001017992 -0.002136268 -0.001632970 0.000338431 -0.000022835 0.000272227 0.000309238 -0.003466004 -0.000360612 -0.001476482 0.001680618 -0.000175940 -0.002925630 -0.000451853 -0.003673613 -0.000047855 -0.001670325 -0.001977365 0.000814537 -0.002600181 0.000295776 -0.002633927 0.000842488 -0.002728097 0.000364510 -0.000358401 0.000699528 -0.002776721 -0.001505032 0.000980719 0.001064453 -0.001193510 0.001565019 0.000365594 -0.001343673 -0.000433198 -0.000840369 -0.001504444 0.001176335 0.001668657 0.000211848 0.001122302 -0.000585920 0.002152350 -0.000337344 0.000901356 -0.001338981 -0.001421113 -0.000846179 -0.003017837 0.004410104 -0.003355458 -0.000374747 0.000207444 -0.000581034 -0.001180443 -0.003492970 0.002693638 -0.000263227 0.000245438 0.001141370 0.002762418 -0.000205432 0.001561354 0.000847294 -0.001411538 -0.001136085 -0.000251950 -0.001270684 -0.002548202 -0.000825490 0.000648759 -0.002490805 0.002062460 -0.003030710 -0.002030734 0.001944771 -0.000285645 0.000496943 0.003183267 -0.000269551 0.000417957 -0.000371589 -0.002976064 -0.000240828 0.000300278 0.000501376 -0.000782845 0.001375213 -0.000599641 -0.000624359 0.002068682 0.000213407 -0.003661585 0.000429764 0.001824277 -0.001163555 -0.000660837 -0.002024691 0.001154797 -0.000377442 0.002065679 -0.000919887 -0.001003574 0.003094093 -0.000805488 0.000508609 0.000134673 -0.002239818 -0.000092571 0.001093481 -0.000276907 0.000971465 -0.000971494 -0.004854097 0.000133071 -0.002578488 -0.000012714 0.000627436 -0.002523680 0.001301236 0.000181692 -0.002034037 -0.001664112 -0.001580941 -0.000759672 -0.000879853 0.000206937 -0.002097990 0.000367373 0.000639238 0.000545478 0.003570874 -0.000781870 0.000895239 -0.000980557 -0.001518884 -0.002778874 -0.002757916 0.001224104 -0.000367923 -0.001190679 0.003201262 -0.003350466 -0.000796554
system	0.009678413 0.000681068 -0.000675290 -0.000722216 0.000754727 0.001690790 0.001712606 -0.000945196 -0.000827191 0.002107216 -0.000000971 0.003569088 0.001040970 0.002348822 -0.001200154 -0.004953673 0.001408551 0.002847977 -0.001104040 0.000558570 0.001228141 0.001766371 -0.003519563 0.002498760 0.004797056 0.000080394 0.001889439 0.002347752 -0.001325709 0.004421144 0.002740619 0.000292890 -0.002057638 0.001825468 -0.004481502 0.001326019 0.005496287 0.000629470 -0.002313690 0.004517098 0.000093306 0.000052322 -0.001666167 0.004821866 -0.004458142 0.000317060 0.005509516 -0.000264890 -0.005417581 -0.003080588 -0.001897322 -0.001797447 0.002046765 -0.000142486 -0.006174022 -0.002024126 -0.000318646 0.000293381 -0.003550814 0.001813759 0.000934281 -0.000416700 -0.004781746 -0.001821441 0.000172082 0.001056715 0.004450117 -0.000763415 0.003486522 0.002580931 -0.000033483 -0.003438443 -0.003579013 0.000145301 0.008273104 0.003047800 0.003509020 0.000485379 0.003475446 0.000535737 0.001662256 0.000567760 -0.004935236 -0.001865038 0.001063993 -0.001495296 0.004018405 -0.000864483 0.000139005 0.000237834 0.001060089 0.003108372 0.000888765 0.005887872 -0.000462710 -0.006808547 0.003028626 -0.001738109 -0.003197861 -0.003956261 0.002426672 0.003306096 -0.000722323 -0.007495579 -0.003085840 0.002004346 0.001230410 -0.005425031 -0.005242171 0.000739808 -0.003105998 -0.000681151 0.006044028 0.002710445 0.002000385 0.002324472 0.000619895 -0.003020165 0.001064201 -0.002824198 -0.001111460 -0.004097982 0.003344240 -0.001761441 0.003647342 0.001445361 -0.003518993 -0.003656873 0.001548044 0.002845057 -0.000216393 -0.000220012 -0.000945312 -0.003863306 0.002559618 0.000139353 0.004768780 -0.000177383 -0.000749721 -0.004337296 -0.005124391 -0.003723304 -0.000274619 0.001412039 -0.002955839 0.000607135 0.003582967 -0.000127741 -0.003579077 0.002416008 0.003159406 -0.001004077 0.001756361 0.002922368 0.001346274 -0.000180317 -0.002378145 -0.002410157 0.000944727 -0.001875874 0.002043722 0.000097122 -0.005666091 -0.004624369 -0.003446761 0.002720591 0.003238495 -0.006951641 -0.004341614 -0.008397251 -0.004944054 -0.004094395 -0.002560180 0.005603466 -0.006405046 -0.003909196 -0.005697271 0.001894304 -0.004975488 0.000678953 0.000315436 0.000895385 -0.002905172 0.001444620 -0.000651240 0.001775989 -0.004675853 0.000579788 0.005135929 -0.000705879 -0.001127560 0.002460673 -0.001146816 -0.000534814 0.005448793 -0.003930988 0.004316165 0.001517871 0.001775764 0.003982411 -0.001359110 -0.002950528 -0.001629690 0.000736888 -0.003939997 0.009292790 -0.005584798 -0.000293301 0.003336050 -0.004267153 -0.005075721 -0.005394266 0.003017124 0.002970432 -0.001368900 -0.000331647 0.003072817 -0.002315947 0.001689839 0.004746818 -0.000879727 0.001573466 0.000029977 -0.005445480 -0.004993150 -0.000940657 0.000690771 -0.004602766 0.003519666 -0.002645395 -0.000577571 0.002630566 -0.002304341 -0.000883459 0.006065402 -0.003036526 0.003062533 0.000928089 -0.002755093 -0.000344128 -0.002612676 0.000219922 0.000306373 0.004194008 -0.003864014 -0.004664271 0.003000126 -0.000010771 -0.008057804 0.000818646 0.003389055 0.001251793 0.000285124 -0.002900931 0.001996517 0.000641070 0.005651874 0.000527300 -0.000684164 0.007612695 -0.004707566 -0.001149998 -0.000970869 -0.004785283 0.000495259 0.005847924 -0.001643010 -0.000195628 -0.002803536 -0.008120408 -0.001437046 -0.004877550 -0.000892263 0.001182433 -0.000854900 0.003198584 0.002207382 -0.001621944 -0.001813101 -0.001723295 -0.002316999 -0.000968981 0.001384477 -0.006472501 -0.001216107 -0.000590693 0.000155065 0.007784085 0.000842193 0.001427061 0.000377650 -0.002656897 -0.001649844 -0.001367550 -0.000244320 -0.002304028 0.000619510 0.003736991 -0.005640470 -0.001907859
mac	0.002046435 0.001350263 0.000736938 0.001318543 -0.000997065 -0.001097754 0.000581999 0.001220037 0.000851529 0.000537214 0.001308753 0.001939710 0.001490794 -0.000833635 0.000082080 -0.000170752 0.001517566 0.001753205 0.000571057 0.001415756 0.000947191 0.002190005 -0.000951362 -0.000087581 0.002764792 -0.001150826 0.002026047 0.002369253 -0.002105845 -0.000329953 -0.000104283 0.001481401 0.000130130 -0.000108309 -0.001381973 0.002206372 0.002727433 0.001177961 -0.002245811 0.001800825 -0.001968892 0.001084318 -0.001935878 0.000372120 -0.002076699 0.000021058 0.001003448 -0.001314714 -0.002386316 0.000426522 -0.002009155 -0.001347164 -0.000407759 0.001735133 -0.003531430 -0.000571079 -0.001032872 0.000721690 -0.001247718 0.000906428 0.000195097 0.000157769 -0.001601036 -0.002057819 0.000330366 0.000869086 0.003236900 -0.001220723 0.002320785 0.002533802 -0.000924743 -0.001816979 -0.002386417 -0.001115153 0.002618856 0.001825012 0.001663940 0.000055113 0.001519290 -0.001115860 0.000810467 0.001467226 -0.000909226 -0.000223768 0.001125528 -0.000432895 0.000907965 0.000104014 0.000354639 0.000159035 0.001507480 0.000022375 0.000443322 0.000490991 0.001205540 -0.003254922 0.002244848 0.000053043 0.000414708 -0.001197898 0.000048742 -0.000852020 0.001485253 -0.001346187 -0.001668317 -0.000572945 0.000058734 -0.001115963 -0.000108310 -0.000980106 -0.000408176 0.000204101 0.002230767 -0.000226578 0.000947059 0.001024171 0.000296926 -0.000071265 0.001897587 -0.000712004 0.000834006 -0.002145798 0.001547858 -0.001936815 0.001040898 0.000255863 -0.002090220 -0.000384967 0.001198642 0.001809136 0.000830232 -0.001792230 0.000094557 0.000434008 0.000165730 -0.001098199 0.000585954 -0.000318867 0.001440393 -0.000434471 -0.002541034 -0.000262639 0.001458028 -0.000507425 0.000114074 -0.001141811 0.000616074 -0.001093375 -0.002271138 0.000042576 0.002231664 -0.000983727 0.001882787 0.001228758 0.000766171 -0.001369746 -0.001640204 0.001244379 -0.001038979 -0.000644313 -0.000829052 -0.000326927 -0.001059314 -0.002199746 -0.000537331 -0.000473242 0.002413713 -0.000743839 -0.001622253 -0.001057337 0.000476128 -0.001041659 -0.000112286 0.002303243 -0.002608869 0.000179952 -0.002909697 -0.000204803 -0.001564411 -0.000364582 -0.000614899 -0.000756206 0.000332696 0.000427194 0.001082042 -0.000104228 -0.000623542 -0.000935437 0.001839264 0.001131296 -0.000327408 0.000216991 -0.001013203 -0.001666136 0.001268295 -0.001096200 0.002468589 0.001379418 -0.000197035 0.001787218 0.001591615 -0.002515397 0.000189456 0.000925890 -0.002615271 0.003349790 0.000143225 0.001227881 0.000753530 -0.002388130 -0.000091975 -0.001927385 0.002213371 0.001404831 0.000520463 -0.001575906 0.000928666 -0.001486092 0.000734767 0.001731849 -0.001628603 0.000202845 -0.001272829 -0.002396843 -0.003453990 -0.000098901 -0.000110922 -0.001757864 -0.000826164 0.000278804 -0.001968072 -0.000960402 -0.000092560 -0.000115035 0.000233304 -0.000712483 0.000836925 0.000498547 0.000336934 0.000663401 0.000447401 -0.000739152 0.001874365 0.001686013 -0.002119272 0.000608295 -0.000021027 -0.000963667 -0.002820393 -0.000901219 -0.000541425 0.001523739 0.000498863 -0.000367865 -0.000729227 -0.000065733 0.001793557 0.001633487 -0.001297280 0.003571513 -0.001041923 -0.000525293 0.000019270 -0.002387744 0.001681927 0.000499842 -0.000685454 0.001370589 0.000557198 -0.003279521 0.000387492 0.000364062 -0.000123195 0.000140638 -0.001118850 -0.000127450 0.000083184 0.000026352 -0.002070625 -0.001490602 0.000029703 0.001157238 -0.000646801 -0.001341950 -0.000229674 0.000583048 0.000619585 0.002501919 -0.001532098 0.000547076 0.000366144 -0.001953940 -0.000532410 -0.001688293 -0.001266861 0.000705219 0.000336937 0.000061463 -0.002481110 0.000360043
answer	0.005694543 0.000002403 -0.000611716 -0.000932158 0.000287445 -0.000421471 0.000158857 -0.000178891 0.000044094 0.001436387 -0.000528803 0.001992603 0.001630248 0.001775626 0.001393197 -0.001446159 0.001200511 0.001936448 -0.000364305 -0.001230208 0.003131364 0.000558840 -0.001248177 0.001985793 0.002874697 0.000534937 0.002229781 0.003228541 0.000211927 0.002782933 0.002608798 0.001878580 -0.001313344 0.001420098 -0.001984394 0.001713559 0.004136010 -0.000287286 -0.002975491 0.003714884 -0.002524816 0.001694844 -0.000580223 0.003016618 -0.003415489 -0.001405477 0.004881731 -0.001327118 -0.004994780 -0.002262104 -0.000489539 -0.003393552 0.000116373 0.001485692 -0.004848216 -0.001022227 0.001257007 0.001924674 -0.001377675 0.002099375 0.000651123 0.002423087 -0.002613229 -0.002697771 -0.000360922 0.000379447 0.001960454 -0.002288376 0.000703641 0.001644358 -0.000954868 -0.001544447 -0.003524264 -0.000799804 0.005600715 0.001655916 0.002523197 0.000500512 0.001189068 0.000150410 0.003701009 0.002024512 -0.003989640 -0.001541637 0.002292215 -0.001478276 0.001583940 -0.000383011 0.001544122 0.002085006 -0.000827516 0.003048938 0.000740605 0.003011653 -0.000710494 -0.002325648 0.003232100 -0.001512958 -0.001260629 -0.001342770 0.003036568 0.000598134 -0.001593181 -0.003991500 -0.000117826 -0.000041335 0.000765570 -0.003654437 -0.003036396 -0.000167634 -0.000171172 -0.001234466 0.002151979 0.002732640 0.001691717 0.001802247 -0.000152396 -0.001778640 0.000960196 -0.002607248 -0.002238205 -0.002896343 0.001638571 -0.002883563 0.002682872 -0.001499102 -0.002703469 -0.002879648 0.002853705 0.001374574 -0.000483237 -0.002385131 -0.000394402 -0.001069363 -0.000194015 -0.000385098 0.002253460 -0.001147438 0.000345502 -0.002629380 -0.000984144 -0.002506937 0.001368229 0.002311553 -0.000591219 0.001147372 0.002260639 0.000219580 -0.002024657 0.002661875 0.001510270 -0.001187768 0.001418029 0.001156893 -0.000447735 -0.000317770 -0.002047269 -0.000989047 -0.000220820 -0.002389294 0.002148184 -0.000303412 -0.003596766 -0.001156916 -0.001185162 0.002018930 0.002529847 -0.005932050 -0.002800323 -0.005549797 -0.003975893 -0.001872380 0.000203090 0.002355294 -0.004128426 -0.002939664 -0.003076744 0.001514208 -0.003624501 -0.000632980 0.001582692 0.000830666 -0.001370089 -0.001046757 0.000240473 -0.001284828 -0.003759117 0.000572124 0.002548931 -0.001854859 -0.002262327 0.002329167 -0.002638830 0.001227481 0.002854528 -0.001411238 0.003616045 0.001703240 0.000732344 0.001980121 -0.001412628 -0.003250788 -0.001540404 -0.000810101 -0.003697302 0.006363658 -0.002125810 -0.000403648 0.000493781 -0.001167964 -0.003387085 -0.001649753 0.003623273 0.000919632 -0.001759463 -0.000435939 0.001435786 -0.000761687 0.001693283 0.002737868 0.000242971 0.000314650 -0.000179274 -0.003592847 -0.004027100 -0.000980139 0.001788788 -0.002714993 0.001228631 -0.001946038 -0.000308168 0.002059752 0.000069091 -0.001353269 0.004557837 -0.002318445 0.002192670 0.001726868 -0.001724770 0.000296320 -0.002220190 -0.001740698 -0.000645149 0.002578625 -0.001572147 -0.001070894 0.001412424 -0.002374936 -0.004411142 0.000112803 0.003242608 0.001407943 -0.000938569 -0.001164978 -0.000049336 0.000530144 0.002787774 -0.000198133 0.001784325 0.004723140 -0.003888969 -0.000713526 0.000012885 -0.003807432 -0.000414981 0.004697920 -0.001170576 0.001761056 -0.000605346 -0.006355706 -0.001451384 -0.003772770 -0.000652652 0.002567332 -0.002603617 0.001058082 0.001183783 0.000035084 -0.000371625 -0.002047173 -0.001590461 -0.001606209 0.002734282 -0.003221910 -0.000738911 -0.000728461 0.001096387 0.003373649 -0.001539849 0.000103762 0.001814835 -0.001321429 -0.003217319 -0.001984519 0.001301858 0.000210626 0.000237708 0.001170166 -0.004243338 -0.001005337
cs	0.007572763 0.001217156 0.000686855 0.000155085 -0.000085919 0.000247238 0.002575784 -0.000479972 -0.000368330 0.003130072 0.000332191 0.003861900 0.000466429 0.002974682 -0.000374985 -0.004153708 -0.000656668 0.001109406 0.000279972 -0.000419975 0.001852450 0.000475874 -0.000884204 0.001395545 0.003721968 0.002847805 0.002012500 0.001925462 -0.003439317 0.001640151 0.001398267 0.001205571 -0.000872767 0.002223719 -0.003847691 0.002521174 0.004719340 0.000399480 -0.002558468 0.002013457 -0.002229554 0.002068924 -0.000813768 0.004673026 -0.004096649 0.000258784 0.004892627 0.000120597 -0.006057909 -0.003837995 -0.001086615 -0.001113928 0.001867589 0.000525589 -0.005268149 -0.002076666 -0.000505268 0.001960991 -0.002840064 0.002514699 0.000454575 0.002517369 -0.004318703 -0.002323347 -0.000253358 -0.000030681 0.004458593 -0.000117150 0.001294580 0.003327650 0.000465768 -0.003210095 -0.005597342 -0.000972542 0.005926333 0.004679803 0.004056632 -0.001962383 0.002631598 0.000264152 0.002285804 -0.000345038 -0.005550506 -0.001004699 0.003398356 -0.000859203 0.002096544 -0.001606778 -0.001322914 -0.000278543 0.001973694 0.002743483 0.000618191 0.006697274 -0.000855241 -0.003116013 0.003034077 -0.000373564 -0.003706826 -0.004360759 0.000291238 0.000092746 0.000111336 -0.006881188 -0.002914602 0.001255246 -0.000807861 -0.003418329 -0.002433655 0.000557291 0.000015346 -0.000923987 0.004750286 0.003714168 0.002527279 0.004103293 0.002261862 -0.002525403 0.000508640 -0.000909111 -0.000922154 -0.003461220 0.002155198 -0.001075419 0.003859804 -0.001595374 -0.003000476 -0.002049700 0.002812607 0.000326476 -0.000200076 -0.001810795 0.000115723 -0.001296580 0.001525687 -0.002168544 0.004900938 0.001652206 -0.000381551 -0.005676118 -0.004944650 -0.004798248 0.001836029 0.003585431 -0.003574537 0.001861732 0.002113038 -0.002035882 -0.002297739 -0.000177426 0.000731598 -0.002792416 -0.000184252 0.001324935 0.000708605 0.001213465 -0.002145480 -0.001005639 0.002324563 -0.003150726 0.002417389 -0.001598512 -0.003924425 -0.001702449 -0.002251347 0.003077253 0.001606988 -0.004869120 -0.003461151 -0.005852127 -0.002457915 -0.003581669 -0.001414243 0.004795306 -0.004157916 -0.002153830 -0.004109249 0.003137416 -0.002544762 0.000198726 0.001263946 0.002882613 -0.001541754 0.001663895 -0.001111493 -0.000065207 -0.004224564 0.001321289 0.002991467 -0.001963310 -0.002278984 0.000887219 -0.001627187 -0.000876899 0.004042408 -0.001517755 0.005659001 -0.001236104 0.003891021 0.002838610 -0.000290204 -0.001304504 0.000079600 -0.001232272 -0.004058283 0.005130502 -0.005329939 0.000132992 0.000673590 -0.002182110 -0.002512136 -0.003334269 0.004723661 0.001729785 -0.001146715 0.000180274 0.003894445 -0.002865514 -0.000330971 0.002424477 -0.002427246 0.001356433 -0.002285733 -0.006534723 -0.005423753 0.000076965 0.000138451 -0.001514764 0.003598921 -0.002271382 -0.002513260 0.000898779 0.000952240 -0.000619850 0.003876140 -0.003118461 0.000949874 0.000242555 -0.004112913 0.001542568 -0.001872106 -0.000651407 0.002575879 0.004551398 -0.003336855 -0.003784249 0.001966794 -0.001490268 -0.004390765 -0.000867264 0.003143322 0.000326067 0.000379742 -0.002499172 0.001998556 -0.001052707 0.003571927 0.001478685 0.002089746 0.005158295 -0.003630815 -0.001360479 -0.002709859 -0.003062146 0.000607090 0.004764475 0.000204412 -0.000643027 -0.004205945 -0.008078518 -0.001574436 -0.002729865 -0.000367764 0.003466314 -0.002809044 0.002481189 0.002330763 -0.003138392 -0.001647438 -0.002416551 0.000342695 -0.001828376 0.002440451 -0.005664052 0.000600451 0.001337473 0.000711204 0.006226885 0.000913372 0.002664912 0.001290137 -0.004142688 -0.002196978 -0.002948505 -0.000049273 0.000228101 0.000578101 0.005191871 -0.005118794 -0.002214283
university	0.006657339 0.002797283 -0.001195425 0.002147612 0.000714781 0.000710147 0.000779099 0.000947632 -0.001233702 0.001750714 0.001085839 0.003100528 -0.000178551 -0.000237523 0.000070724 -0.001276219 0.000974630 0.000250064 -0.000611853 -0.000245429 0.002433133 0.002986480 -0.003574312 -0.000161370 0.001469678 0.000416313 0.001838628 0.001385823 -0.002384106 0.002541413 -0.000192401 0.001106818 -0.002624387 0.001075678 -0.001702570 0.002480399 0.003286579 -0.001504919 -0.003288693 0.001216343 -0.001182331 0.002068403 0.000096793 0.004682849 -0.002287400 0.000712200 0.002724655 -0.001689331 -0.005334593 -0.002751490 -0.000257604 -0.003416826 0.002422060 -0.001062342 -0.005207791 0.000955634 0.001282539 0.002015267 -0.001703015 0.002480955 0.000884306 0.001884309 -0.001936934 -0.002097835 0.000752587 0.001969903 0.004856780 -0.002402086 0.000855040 0.002618000 -0.001445361 -0.001779023 -0.003042306 -0.001567763 0.004288996 0.000967686 0.003052091 -0.001460529 -0.000189696 0.001873437 0.003490220 0.000717303 -0.004311848 -0.001841762 0.002408918 -0.002089725 0.003091502 -0.000528561 0.001639891 -0.000979125 -0.000805257 0.001353038 0.000338778 0.002563906 0.000083095 -0.002243606 0.003119894 0.000435717 -0.003567954 -0.004294578 0.000306130 -0.000318668 -0.000370770 -0.005498604 -0.002956088 0.000387558 0.001304550 -0.002462826 -0.003435097 0.000683494 -0.000752834 -0.002913509 0.004559472 0.001740879 0.000837891 0.002309648 -0.000195259 -0.001766679 -0.000210682 -0.002430434 0.000432541 -0.003130512 0.002824845 -0.001439701 0.000498288 0.000431678 -0.000778674 -0.002748135 0.001797181 0.000512867 0.001106479 -0.000991249 0.001431399 -0.003179942 0.000155903 0.000172047 0.003323954 -0.000744529 0.000335052 -0.004577591 -0.003812502 -0.004606167 0.001947730 0.003354376 -0.000179317 0.001576200 0.001924473 0.000116297 -0.001214935 0.001220520 0.002720024 -0.002305754 0.001011352 0.002249861 0.001027464 0.000077824 0.000122271 -0.000341038 -0.000188290 -0.003736120 0.000619754 -0.001139734 -0.004372269 -0.002075267 -0.003487715 0.001552097 0.001310977 -0.005881631 -0.001536310 -0.002947505 -0.002564027 -0.003313377 -0.002050316 0.004622824 -0.003452879 -0.002753843 -0.003088478 0.001699058 -0.003630749 0.002335529 -0.000465768 0.000815574 -0.003564696 0.000526765 -0.000734672 0.000220530 -0.001286369 0.000557793 0.003070293 -0.000567285 -0.000760944 0.001015292 -0.001979060 0.000107308 0.004392514 -0.000539379 0.002193651 0.000860617 0.003790094 0.002319930 -0.000745365 -0.000608743 -0.002614706 0.001802262 -0.002375534 0.004709291 -0.004079739 0.001104103 -0.000107903 -0.004165969 -0.002507144 -0.004562560 0.003163037 0.002183239 -0.000814223 -0.000751377 0.001245371 0.000523221 0.001446246 0.001423395 -0.001118822 0.002046349 -0.001380990 -0.004625369 -0.004769166 0.000681527 0.001074138 -0.002354504 0.002389473 -0.003687881 -0.000743100 0.002331275 0.000979716 -0.001018787 0.003679443 -0.002972108 0.000391054 0.001509361 -0.000806858 -0.000655311 -0.002698851 -0.001004482 0.001799647 0.004176896 -0.002987960 -0.003795955 0.001862370 -0.000311372 -0.005117806 0.000582568 0.002794342 -0.000266808 -0.000501182 -0.003416461 0.001688012 -0.001687598 0.003838920 0.000082119 -0.000576039 0.005898836 -0.002750001 -0.002501757 -0.002553907 -0.003191304 0.001830551 0.004522686 -0.000182923 -0.000953697 -0.003235315 -0.006747888 -0.003103989 -0.000996566 -0.000445429 0.001965973 -0.000561141 0.003008840 -0.000376388 0.000114109 -0.002433062 -0.000412394 -0.002454752 -0.001156716 0.002598687 -0.005729881 0.000321373 0.000945297 0.001112959 0.004313147 0.000935660 0.001284189 0.001371349 -0.003080179 -0.000773324 -0.003411939 -0.001143531 0.000105342 0.001569062 0.003180367 -0.004496354 -0.000789725
department	0.003362611 0.000693849 -0.001134932 0.002028676 0.001028023 0.001240508 -0.000217381 -0.000816845 -0.001419643 -0.000434870 0.000085337 0.000357334 -0.000111061 -0.000448976 0.001232008 -0.001174831 0.002034775 0.002112570 -0.001741214 -0.000990967 0.002269096 -0.000430460 -0.000157657 -0.000456436 0.002633682 0.000041939 0.002485373 0.001914374 -0.000352349 0.002235653 -0.000391505 0.000993402 -0.000109824 0.001915576 -0.000886447 0.003011911 0.001450279 0.001189403 -0.001114853 0.001366626 0.000863772 0.001473567 -0.001255864 0.000933948 -0.000816827 0.000293316 0.003744875 -0.001348429 -0.004307988 -0.001791217 -0.002720488 -0.001430280 -0.000207459 0.000648720 -0.004142268 -0.001682767 0.001454845 -0.001075691 -0.000753566 0.002336309 0.001739229 0.000165738 -0.001666304 -0.001461153 -0.001141854 -0.000389394 0.001912294 0.000031895 0.002016126 -0.000000410 0.000181379 -0.000614410 -0.002107095 0.000010112 0.002600982 0.001071671 0.003808773 -0.000401051 -0.000683219 0.002077680 0.001559853 0.001455507 -0.001297958 -0.001045913 0.002001452 0.000467869 0.002339090 -0.000572078 0.000618301 0.000073991 0.001124672 0.001749843 0.001804292 0.001351000 -0.000124203 -0.001781103 -0.000039411 0.000651129 -0.001373433 -0.000480619 -0.000222370 0.001680077 0.000443750 -0.001596370 -0.001648144 0.001222443 -0.001446859 -0.003355436 -0.002197370 -0.000416843 0.000822657 -0.000714007 0.001922562 0.002185497 0.000230130 0.000793590 -0.000796731 -0.003084622 -0.000497474 -0.000264070 -0.001178609 -0.001481322 0.001509866 -0.002556476 0.002516162 -0.000989023 -0.000299547 -0.003142717 0.000458731 -0.001025307 -0.001420374 0.000501208 0.001046265 -0.001518007 -0.000085714 -0.000485651 0.000543231 0.001059134 -0.000571709 -0.000720943 -0.001795323 -0.001347640 0.001852668 0.000314900 -0.001174334 0.001718618 0.001737983 -0.001073991 -0.001158156 -0.000529031 0.000504803 0.000038269 0.002019187 0.002214360 -0.001502217 -0.000897674 0.000424527 -0.000392080 0.000601166 -0.001320908 0.000049116 -0.000667787 -0.004077134 -0.002508281 -0.003061647 0.001606172 0.000604214 -0.004067334 -0.001929897 -0.001660044 -0.002851211 0.000092059 -0.002054061 0.002219199 -0.002293732 -0.000815158 -0.001823625 0.002365075 -0.000388371 -0.000551463 -0.000231885 0.001219891 -0.001000641 -0.000899718 0.000032627 -0.001242336 -0.000062797 0.001549625 0.001709370 0.000362580 -0.002249004 0.000104775 -0.000603623 -0.000864185 0.001906602 -0.001790018 0.002378660 0.001314917 0.000330628 0.001388773 0.001175311 -0.000356135 -0.000163519 0.000419388 -0.001923373 0.004539163 -0.003825931 -0.000126700 0.001799052 -0.000023165 -0.003461615 -0.001052488 0.003026299 -0.000466975 -0.002171187 -0.000801388 0.002722193 -0.000047901 0.001405877 0.000502992 -0.000281980 0.001138158 -0.001314571 -0.003983581 -0.001636502 0.000652285 -0.000267385 -0.002873732 0.002562833 -0.001837636 -0.002239915 0.002531872 -0.001229042 -0.000161892 0.003555043 -0.000274199 0.000974767 0.000853043 -0.002504385 -0.000762192 -0.001897366 -0.000390669 0.001726737 0.002538090 -0.000171606 -0.002250391 -0.000290024 -0.000751323 -0.001806763 -0.000990757 0.001104841 0.000271025 0.001425053 -0.002859603 0.000625940 0.001382938 0.002303096 -0.001264376 0.000969264 0.003867148 -0.002374435 -0.000496279 -0.002482925 -0.002752560 0.001893493 0.003465142 -0.001763565 0.000558091 -0.002408078 -0.002194332 -0.001516208 -0.002495867 -0.000730023 -0.000301022 -0.001213578 0.002789435 -0.000820267 -0.002311479 -0.002534209 -0.001057382 -0.001438092 0.001159074 -0.000293774 -0.001711285 -0.000019572 -0.000818786 -0.000147123 0.001861456 0.001079492 0.001508935 0.000326007 -0.001022969 -0.000824905 -0.002171294 0.001100650 0.001125377 -0.000573083 0.001728125 -0.002048785 -0.001686942
computer	0.007382073 0.001480100 0.001476970 0.001061533 0.000522937 0.000205241 0.002946217 -0.001496994 -0.000591023 0.001059926 -0.001742727 0.002691775 0.000890399 0.000717269 0.000412368 -0.002187063 0.001553886 0.000085346 0.000005738 -0.000760816 0.001257522 0.000304777 -0.001255700 -0.000379673 0.004424689 -0.000182626 0.001082910 0.004112345 -0.000264547 0.002518241 0.000648281 0.002099157 -0.000867300 0.002360780 -0.003731829 0.001629781 0.003106761 -0.000662205 -0.002003659 0.002549216 -0.000146368 0.000144233 -0.001022884 0.003120027 -0.001823566 0.000121341 0.004178778 -0.000515342 -0.005507674 -0.003103618 -0.003070426 -0.003276176 0.000222918 -0.000514409 -0.003791321 -0.002005568 -0.000474880 -0.000741216 -0.001974081 0.001129804 -0.001322635 -0.000160375 -0.003152364 -0.001243694 0.001458212 0.001471415 0.003775863 -0.000144425 0.001735943 0.001146290 -0.000825985 -0.001147471 -0.002912364 0.001181274 0.007180380 0.003547271 0.004226585 0.000321897 0.001609939 0.001749310 0.002655485 -0.000344123 -0.002164146 -0.002193235 0.001766207 -0.002172869 0.004166670 -0.000545142 0.000897663 -0.000395155 0.000097316 0.001334688 0.002981227 0.005145911 -0.001541052 -0.004612215 0.000625437 -0.002036675 -0.001982471 -0.003048714 0.002885178 0.001875279 -0.001633236 -0.004858200 -0.003400109 0.000056345 0.000301644 -0.003252676 -0.003152189 0.000015371 -0.001384662 -0.002364896 0.003771884 0.001703045 0.001484308 0.001897487 0.001623687 -0.002981277 0.002683014 -0.000872261 -0.000996051 -0.002893567 0.003359982 -0.001876584 0.000376056 0.000508085 -0.003209717 -0.003396553 0.000891354 0.001680456 -0.000729185 -0.000360560 0.000926804 -0.002738415 -0.000052239 -0.000368227 0.004047169 -0.000324144 -0.000006823 -0.003026101 -0.003416743 -0.003770278 0.001797313 0.003077084 -0.001501466 -0.000946584 0.002801052 -0.001980898 -0.000533160 -0.000399751 0.001057674 -0.000698372 0.001520988 0.000957501 -0.001328251 -0.000185187 -0.001349231 -0.000954720 -0.000363360 -0.001956668 0.002527773 0.000804489 -0.004901539 -0.001470325 -0.002879427 0.002073799 0.004152209 -0.005942213 -0.002863484 -0.005825055 -0.002415380 -0.000916886 0.000039426 0.004190031 -0.004923686 -0.001790773 -0.004928592 0.000994841 -0.002988287 0.001709117 0.001262496 0.001913455 -0.001958808 0.000937338 -0.000199340 0.000596206 -0.002942641 0.000103371 0.004137900 -0.000485391 -0.000659167 0.000259945 -0.002413416 -0.000240707 0.003780282 -0.002521194 0.005467169 -0.000859198 0.003435549 0.001516145 -0.000103020 -0.002355065 0.000534307 -0.001056786 -0.003667377 0.006443282 -0.003051537 -0.000910909 -0.000101105 -0.001915214 -0.003961212 -0.002978214 0.002566891 0.001726954 -0.001528583 -0.001089448 0.003677686 -0.000305664 -0.000199887 0.004168017 -0.001318031 0.000558045 0.000465474 -0.003985434 -0.006049822 -0.001538400 0.001426529 -0.004048256 0.000991954 -0.001729068 -0.000552074 0.002280662 -0.000737163 -0.001364857 0.003204342 -0.001654153 0.000870901 -0.000960530 -0.003968433 0.001257805 -0.001251343 -0.000019508 -0.000723154 0.002899206 -0.002448694 -0.003473696 0.002584720 -0.001759276 -0.004685783 -0.001014436 0.000981489 0.000063147 0.001705379 -0.003041462 0.002500110 0.000344517 0.002248743 0.000305299 0.000627659 0.004711509 -0.004269507 0.000328433 -0.002896848 -0.003397758 -0.000844246 0.003916681 0.000746788 -0.000243941 -0.003612764 -0.006316937 -0.003270980 -0.001956676 0.000732934 0.002607511 -0.001432484 0.002850625 -0.000388092 -0.000014548 -0.002674760 0.000492703 -0.000070173 -0.000696444 0.001595738 -0.006633025 0.001134020 -0.000680683 0.001608226 0.004700595 0.000996447 0.000229876 0.001895308 -0.002528935 -0.001328205 -0.001402353 -0.001490362 -0.000351394 -0.000487248 0.002263570 -0.004537476 -0.002918584
science	0.006090924 0.001339787 -0.000617727 0.001248637 0.000446499 -0.000567234 0.000054122 -0.002305012 0.000799997 0.002627867 -0.000347083 0.001726280 0.001364964 -0.000320945 0.000824856 -0.004591890 0.001910977 0.002076800 0.000109117 -0.001439257 0.002135095 0.000318534 -0.002923968 -0.000215662 0.003805874 0.000012986 0.002919722 0.003698099 -0.001056900 0.003033008 0.002667299 0.001359398 -0.002109709 0.002149453 -0.001662806 0.003780830 0.004424346 0.000405944 -0.001710996 0.003099354 -0.000010048 0.000276186 -0.001951378 0.004994744 -0.003223993 0.000616874 0.003721252 -0.000620360 -0.003587313 -0.001750797 -0.002685380 -0.003626255 0.000262163 -0.000136778 -0.004285170 -0.001429444 0.000123044 0.002098443 -0.003101672 0.002284800 -0.001325805 0.002625931 -0.003133396 -0.001700008 0.001935898 0.000299328 0.005739815 -0.002391124 0.000593178 0.004236160 -0.001530153 -0.003608196 -0.005241107 0.001122930 0.006619295 0.001610807 0.002680388 -0.001490271 0.002851469 0.000246261 0.001052228 -0.000011636 -0.005364294 -0.001781767 0.001226732 0.000149600 0.003242686 0.000445385 -0.000321106 0.001568552 0.000362880 0.002859506 0.000432130 0.004220798 -0.001476042 -0.002301360 0.000981990 -0.001090275 -0.004361793 -0.002649979 0.003277207 0.001572466 -0.001984753 -0.003275216 -0.001866769 -0.000200375 -0.000399713 -0.001468237 -0.003257463 0.001551073 -0.001974536 -0.002682936 0.003324476 0.002615669 0.001464557 0.001632938 0.000116886 -0.002731845 -0.000196454 -0.000163177 -0.001481723 -0.001495132 0.003408531 -0.000976411 0.000440594 -0.001269520 -0.003567867 -0.001400636 0.002915439 0.001783585 0.000674683 -0.002281618 0.001058308 -0.001925043 -0.000371275 0.001032668 0.002852468 -0.000433654 0.000875973 -0.004571783 -0.004175359 -0.003830884 -0.000289551 0.001008227 -0.002573787 -0.000160423 0.001971605 0.000867194 -0.001070125 0.001773806 0.000242133 -0.001288021 0.002151263 0.003042033 0.000519875 0.000241060 -0.002342501 -0.000820620 0.000006381 -0.002293567 0.000777661 0.000365126 -0.002718390 -0.002174014 -0.003459208 0.001349830 0.001966632 -0.004354163 -0.002818135 -0.003957431 -0.002073599 -0.001222860 -0.002641077 0.003140709 -0.002677154 -0.003351054 -0.004048599 0.000419211 -0.003084611 0.000864773 0.001925205 0.002402446 -0.004148414 0.000420974 -0.001758460 -0.000737127 -0.003540265 0.000435108 0.002544434 -0.001394646 -0.002692753 0.000022101 -0.000005398 -0.000071490 0.003189209 -0.003007896 0.002551399 0.000274963 0.001951618 0.002351371 0.000924767 -0.001690113 0.000049545 0.000511863 -0.003611631 0.007283375 -0.005004794 -0.001528805 -0.000169102 -0.003417143 -0.004453162 -0.004430383 0.002337968 0.001902003 -0.002389484 -0.001430340 0.002011957 0.000312372 0.000242371 0.003141799 -0.001217059 -0.000862399 0.000321067 -0.004442312 -0.006165697 -0.000950270 0.002365908 -0.003581842 0.002053979 -0.002713600 -0.001807220 0.002559028 -0.001497298 -0.002481327 0.004448007 -0.003524406 0.001486897 0.000613436 -0.001724647 0.002595513 0.000159362 -0.000093088 0.000912131 0.002597539 -0.003048284 -0.001353115 0.002261563 -0.001175945 -0.006339590 0.000645022 0.001759492 0.000715652 0.000021977 -0.001890704 0.000467706 -0.001987956 0.005075563 -0.000745276 0.001330683 0.005479153 -0.004287110 -0.001039248 0.000210731 -0.004551389 0.001071316 0.005011857 -0.000384411 0.001792412 -0.003751712 -0.004968525 -0.000891354 -0.002312048 0.000804455 0.002173677 -0.002744387 0.003265779 0.002052132 -0.001695290 -0.003253482 -0.001087295 -0.000388643 -0.001109893 0.002083824 -0.005680698 -0.001592740 -0.001152703 0.001359902 0.006313852 0.000548988 0.003085683 0.001463576 -0.003486310 -0.002603377 -0.003353195 -0.001760448 -0.000601950 -0.000517261 0.003366921 -0.003559074 -0.000323662
figure	0.001913932 0.002281910 0.000709930 0.001542572 0.000380983 0.000623644 -0.000460051 -0.001447950 0.000316545 0.001169675 -0.001096421 0.000914966 0.001662192 0.002164808 -0.000889347 -0.002879934 -0.000294710 0.001324039 -0.001456983 0.000204425 0.000425345 0.001249365 0.000483112 0.001408888 0.001621862 0.001189270 -0.000144237 0.000312616 -0.001133211 0.000447475 0.001138941 0.000874050 0.000211978 0.000838374 -0.000790734 0.001319801 0.002453906 0.000978967 0.000552723 0.000055043 -0.001611860 -0.000111316 -0.002227953 0.000152830 0.000208224 -0.000266222 0.003658633 -0.000435918 -0.000547609 -0.000531174 -0.000236699 -0.001520230 0.001088526 0.001071180 -0.001778457 -0.001300258 0.000140312 0.001033435 -0.001474073 0.000159712 0.001371006 -0.000347036 -0.002353954 -0.001018470 0.001315771 -0.000179308 0.001964394 0.000834596 0.001648927 0.001684449 -0.001063306 -0.000194608 -0.003389880 -0.000445814 0.004193078 0.001831872 0.003123838 0.000820003 0.001604186 -0.000433623 0.001889323 -0.001352345 -0.002943031 -0.000972252 0.001566098 -0.000301903 0.001053516 -0.001261448 -0.001528420 0.000501617 -0.000319850 0.000886365 -0.000203189 0.001615186 0.000082825 -0.000420355 0.000852762 -0.001761987 -0.000399332 -0.001652029 0.001947911 0.001232702 0.000472129 -0.002133764 -0.002027878 0.000180195 0.000542682 -0.001219005 -0.001883324 0.000596865 -0.001232694 -0.001675285 0.001830421 0.001923752 -0.001024841 0.000735873 0.000422691 -0.001542846 0.001781344 -0.001836924 -0.000231308 -0.002478241 0.000488744 -0.002239367 0.000845286 0.000787207 -0.001556706 -0.000692411 0.001809693 0.001761859 0.000377098 -0.001300366 -0.000734654 -0.000371394 -0.001074364 -0.000655525 0.002468359 0.000109577 -0.001604243 -0.000193117 0.000014434 -0.000608833 0.000085771 0.000395654 -0.000420317 0.000124994 0.002390025 -0.000029209 -0.000419414 -0.000785440 -0.000240004 0.000040595 -0.001103846 0.001774765 -0.001346192 0.001271018 -0.001244774 -0.001569361 -0.000667291 -0.001688036 0.000512056 -0.001658757 -0.003139751 0.000091135 -0.001477480 0.002167189 0.002164851 -0.002174580 0.000108084 -0.003098360 -0.002670889 -0.000364910 -0.001724243 0.001963534 -0.003219726 -0.002061135 -0.000697519 0.001579291 -0.001682406 -0.000883784 0.000041224 0.001448833 -0.001316618 -0.000025349 -0.002092216 0.000382521 -0.002994610 0.001789556 0.002508988 0.000647322 0.000133295 0.000306908 -0.000265275 0.001473784 0.002484236 -0.002080149 0.001921831 -0.001189221 0.000974707 0.000299806 0.001561044 -0.001962973 -0.001808596 0.001257094 -0.001453008 0.003906041 -0.000416564 -0.000969206 0.001803234 -0.002142319 -0.001780080 -0.000933327 0.002502248 0.000926250 -0.001847786 0.000092848 0.000972529 0.000385747 -0.000406404 0.002290911 -0.000391224 0.000594717 -0.002051529 -0.001362223 -0.003549185 0.000840871 -0.000896783 -0.000882486 0.000707944 -0.002719003 -0.000241585 -0.000668380 0.000935929 -0.000445320 0.000472927 -0.001319679 -0.000139572 0.000752453 -0.000977321 0.001677936 -0.002175220 -0.001195342 0.001902694 0.002509667 -0.001044842 0.000078159 0.000747091 0.000252050 -0.003261206 0.000801888 0.000173628 0.000843603 -0.000100481 -0.001607376 0.001728343 0.001235248 0.001456793 -0.001086925 0.001493091 0.002595008 -0.002268830 -0.000489992 -0.000316470 -0.000846973 -0.000173630 0.002054004 0.001054643 -0.000950446 -0.000270956 -0.001290001 -0.002454408 -0.002254531 0.000250659 -0.000786812 -0.000403828 0.002684735 0.000068479 0.000915500 -0.001901702 0.000557928 -0.000263998 -0.000191308 0.002202798 -0.003757160 -0.000211204 -0.000211686 0.001112872 0.001113618 0.001357496 0.000296796 0.000921428 -0.001286832 -0.002308398 -0.002322260 -0.000903855 -0.000142175 -0.000424837 0.002277133 -0.002178835 -0.001352545
make	0.006708869 0.001479911 -0.000286924 0.001794842 0.000274697 -0.000510910 0.002673715 -0.002372509 -0.002150574 0.002798150 -0.000741267 0.004313903 0.000197180 0.001296464 0.000987743 -0.001586335 -0.000324572 0.000088150 -0.001903524 0.000734666 0.002313688 0.002250876 -0.000659064 -0.000675271 0.003115308 0.002337971 0.000770103 0.002480216 -0.000500962 0.000874040 -0.000354125 0.000145376 -0.000899433 0.001060848 -0.003384975 0.003126094 0.004266642 -0.000192462 -0.002814850 0.003606732 -0.002681409 0.000146882 -0.001926636 0.003672348 -0.001941653 -0.001273213 0.003374951 0.001060294 -0.004331035 -0.001960622 -0.002371329 -0.000896270 0.001542967 0.000899961 -0.006217750 -0.000446822 -0.000917469 -0.000848106 -0.001661808 0.001461986 -0.000764964 0.002062847 -0.004126952 -0.001625151 0.000967333 -0.000498217 0.003365587 -0.001484380 0.001054392 0.001764221 -0.000018715 -0.004246139 -0.004793536 -0.001105175 0.007733610 0.002873709 0.005368604 -0.000428529 0.000231007 0.001181984 0.002558383 0.001742311 -0.003629114 -0.000929789 0.000935729 0.000302214 0.002572041 -0.000573898 0.001127984 0.000989149 0.000996531 0.002120356 0.002950183 0.005595479 -0.000775371 -0.004885506 0.001790312 -0.002247773 -0.002675970 -0.003761844 0.003304159 0.001210047 0.000567149 -0.006183566 -0.001639333 0.001393156 0.000682606 -0.004597330 -0.004224898 0.000431411 -0.002637276 -0.000372865 0.004552681 0.002667832 0.000484893 0.003933853 -0.000608598 -0.004395160 0.002366101 -0.002039873 -0.000060488 -0.001570135 0.001992092 -0.001693286 0.000768622 -0.001427945 -0.001230477 -0.002774733 0.001218376 0.000485848 -0.000797038 -0.000664410 0.000948931 -0.003538151 -0.000143257 0.000142913 0.004742848 -0.000570432 0.001079662 -0.002588719 -0.002285840 -0.004837643 0.000973050 0.002747078 -0.002102013 -0.000444018 0.003143518 -0.002180261 -0.002587844 0.001544131 0.002583346 -0.001413749 0.001312979 0.003380011 0.000688178 -0.000304739 -0.000044956 -0.001603982 0.000759811 -0.003827590 0.001932284 -0.000319878 -0.003630617 -0.002420055 -0.002901467 0.001705147 0.002869366 -0.004054086 -0.001355536 -0.006846644 -0.001150741 -0.001427477 -0.002179978 0.004868022 -0.004536777 -0.000766181 -0.004441987 0.000303759 -0.002738434 -0.000124620 0.001496718 0.003361523 -0.003661199 0.000439941 -0.000770278 0.001673328 -0.003801548 -0.000688623 0.003583144 0.000910248 -0.000533152 0.002521234 0.000093425 -0.000366039 0.002606606 -0.002401140 0.002756557 0.001391977 0.002953275 0.002528610 0.000880433 -0.000644482 -0.002602356 0.000980616 -0.002823775 0.006452448 -0.004348823 -0.000198419 0.000289793 -0.004130502 -0.003911513 -0.004082899 0.003187330 0.000683474 -0.000761768 -0.001647080 0.002925657 -0.001467191 -0.000158853 0.003546329 -0.001460679 -0.000331238 -0.002358308 -0.005365054 -0.004385946 -0.000644643 -0.000507991 -0.001975748 0.001110513 -0.002716452 -0.000472237 0.000598963 0.000347824 -0.002493406 0.002651499 -0.003833106 0.001251960 0.001651703 -0.003849826 0.002356514 -0.002481466 -0.001084620 -0.000485389 0.004373414 -0.001274568 -0.002599559 0.002527883 -0.002705373 -0.004552946 0.002213759 0.002518420 0.000055061 0.001969129 -0.001361456 0.002189865 0.000772974 0.005376518 0.000986918 -0.000011906 0.006194045 -0.003256059 -0.002201914 -0.002257590 -0.002722334 -0.000376425 0.003101005 -0.001228443 -0.000170088 -0.003593010 -0.007029685 -0.000909506 -0.002742931 -0.001475422 0.001615342 -0.002738363 0.001238957 0.001945581 -0.000056498 -0.000445370 -0.001977830 -0.000092187 -0.000576192 0.000933001 -0.006308626 -0.001910015 0.000663422 0.000547136 0.004116075 -0.000502920 0.000477349 -0.000306127 -0.002951421 -0.000860784 -0.003018801 0.000772178 0.000138455 0.000656151 0.002531005 -0.003936652 -0.000775410
