reply	0.001926653 -0.000602634 0.005421460 0.003896204 -0.001788128 0.003072986 0.000629505 -0.003274272 -0.000749013 0.000962266 -0.000498270 0.004489199 -0.000019884 0.000236790 0.001807855 -0.002349678 -0.000788433 0.000970827 0.002050141 0.002237604 -0.002812942 0.002569892 0.001570884 0.003320440 0.003781616 0.001569589 0.000074289 0.002278041 0.001060155 -0.001818375 -0.000654753 -0.003755229 0.002862262 -0.000525912 0.003946074 0.000619294 -0.002784518 -0.001724193 0.000962716 -0.003611504 -0.003143687 -0.000376233 0.001046030 0.000079603 0.001770842 -0.003765352 -0.001656008 -0.000422891 -0.003220664 0.000644317 -0.002909347 0.000980900 -0.005786426 -0.001232656 -0.000579507 -0.000999506 -0.003944636 0.003059989 -0.002237659 0.000090084 0.001743046 -0.001762439 0.003276466 -0.000924233 -0.001677455 0.002768853 0.000358044 0.003246047 -0.002196466 -0.001826678 -0.001085678 -0.002276662 -0.000639908 -0.002047093 0.000117759 0.002232362 -0.002302978 -0.001530497 -0.000247084 0.003724306 -0.001264885 0.000171283 -0.001421809 -0.001309894 -0.001248357 0.003520719 -0.000369427 0.002867529 -0.000609189 -0.000481738 0.003429745 -0.003093037 -0.000641501 -0.001397070 0.001838738 -0.000210498 0.001201171 -0.001220005 -0.000191547 -0.000746059 0.003476727 0.003590051 -0.001026891 0.003661225 0.003921779 -0.002620222 -0.003118610 -0.004783391 0.000887853 0.000016375 -0.001861471 0.000286339 0.005308672 -0.001729933 0.002301299 0.000220127 -0.001293625 -0.002552677 0.000332281 0.000438198 0.001174301 -0.000796971 0.001765453 0.003996139 0.003350644 0.001857264 0.003416823 0.001447609 0.003216480 -0.000369898 0.001610803 0.000174610 0.001446276 0.001549076 0.000363935 0.005113830 0.000733471 -0.003091723 -0.004147926 -0.001629251 -0.000246590 -0.003546295 -0.001833516 0.000841014 -0.001140964 -0.001075050 0.000260811 0.001141214 0.002310723 -0.000626183 0.001518255 0.002357781 -0.002214970 0.000863025 0.001073068 0.001937103 0.000851185 0.001564941 0.001132075 0.002917594 -0.003227323 0.001484779 -0.000517597 -0.000115604 -0.002414542 0.002802442 -0.000306631 0.001631030 0.000832868 -0.001673332 0.005241632 -0.003344551 0.002257844 0.000961059 0.000554732 0.002184634 0.001506628 -0.000391417 -0.001099665 -0.001283003 0.001737316 0.000685499 -0.000669298 0.001913684 -0.000127485 -0.001651734 0.001230777 0.001226896 -0.003603649 -0.000239537 -0.002846827 -0.000379084 -0.000776236 0.002997542 0.000145808 0.001022973 0.004436458 0.008258873 -0.000360688 0.000906980 0.002476380 0.000178418 -0.002569686 0.002361321 0.000308214 -0.000782822 -0.000273420 -0.000872265 0.000666277 -0.003214890 -0.001952867 0.001965116 -0.002316025 0.001382626 0.000426413 0.001520850 0.000903525 0.000619599 -0.002775313 0.000573758 -0.000197784 0.001869258 -0.003710781 0.004418813 0.002797376 0.001819879 0.000301207 0.000983311 -0.001552303 0.000592062 -0.000201560 -0.002310773 -0.001917028 0.000214715 -0.004821922 -0.000985499 -0.000129694 0.003118838 -0.001148105 -0.003071276 -0.001511963 0.000360406 -0.002178471 -0.001928484 -0.000847235 -0.000857314 0.002033683 0.002419481 -0.002126917 0.000962163 0.000266514 -0.002796663 -0.002721621 -0.005707547 0.000716132 0.002695184 0.001289029 0.004873640 0.000232992 0.000833281 0.008495796 0.001619887 -0.001583228 0.000174040 0.000813583 -0.001228208 -0.002677224 0.000264899 0.000175559 0.000131956 0.000166929 0.000182207 -0.001107993 0.000032284 -0.001903076 -0.002041015 0.000418182 0.002152713 0.002104349 -0.002345321 -0.002756491 0.002069952 0.000421282 0.000928729 -0.000001133 -0.004482445 -0.000835004 0.002254917 0.000539149 0.001165684 0.000716656 0.002221329 0.002215285 -0.002195688 0.001865531 -0.002881958 0.000507820 -0.000907475 0.002843283 -0.003100260
college	0.001521516 -0.001527288 0.003888884 0.001027470 -0.000670290 0.002424448 0.001727030 -0.000942153 0.000282062 0.001646728 0.001001650 0.002028131 -0.000543860 0.001325702 -0.000421510 -0.002233474 0.000541988 0.001349216 0.001972439 0.001595456 0.000696658 0.002776120 0.001000541 0.002204695 0.001393490 0.001999027 -0.000789653 -0.000693466 0.002048222 -0.000140314 -0.001698830 -0.000704943 0.003732817 -0.000585297 0.002283551 0.001935737 -0.001307819 -0.000501028 -0.001780972 -0.001684070 -0.002878662 -0.000770198 0.001572461 -0.000568478 0.001792700 -0.001956460 -0.000157801 -0.001849146 -0.001545076 0.002106839 -0.002401047 -0.000522950 -0.004371861 -0.000806389 -0.001286363 -0.001154359 -0.001647443 0.000053173 0.001191091 0.000728541 0.001196347 0.000736061 -0.000027914 -0.000203942 0.000532559 0.001546644 0.001916812 0.001403912 -0.000334906 -0.001459428 0.000422688 -0.000576656 -0.000330364 0.000548267 0.000180204 0.002254898 -0.000519635 0.001454556 0.001187281 0.001239796 -0.001297956 -0.001401986 0.000035699 -0.001711053 -0.001658567 0.004051065 0.000640131 0.001111468 0.000947901 0.001353430 0.002783688 -0.002857884 0.000996469 -0.000729510 0.000570484 0.000206535 -0.000830326 -0.001274540 0.000659492 -0.000952986 0.000330032 0.001631586 0.000951468 0.002653800 0.003008443 -0.000267769 -0.002218802 -0.000640975 -0.000486856 0.001121451 -0.001387034 -0.000074141 0.003512595 -0.001964943 -0.000163923 -0.001784542 0.000388263 -0.000484193 0.000028358 0.001814889 0.000080815 -0.000618657 0.000329273 0.002016455 0.000955665 0.002687025 0.003225265 0.000960195 0.001291761 -0.000338614 0.002435688 -0.000278012 0.000566214 0.000410571 0.000769236 0.002573733 -0.000993658 -0.001775715 -0.003799056 -0.000533911 0.000082696 -0.001144476 0.000864836 0.001560299 -0.001290890 -0.000311686 -0.000740634 -0.001624255 0.000317840 -0.000053454 0.001664416 0.001505579 -0.000657321 0.000307740 0.001153499 0.001356109 0.001681447 -0.000469075 0.001392142 0.001475460 -0.001259626 0.001288934 0.000992087 -0.000384657 -0.002370331 0.000707588 -0.000755233 0.001578812 0.001665151 0.000751624 0.003603978 -0.003392525 0.003185484 -0.001973037 0.000899608 -0.000050303 0.001934334 -0.000396483 -0.001963635 0.001662078 -0.000313630 0.001178821 -0.000907198 0.000079626 0.001555841 -0.001165203 0.002497272 0.000481824 -0.003049103 -0.001934290 -0.000213980 -0.000780149 -0.001515006 0.001052115 0.000917769 0.000934304 0.003264922 0.006001240 -0.000281520 -0.000317470 0.002376723 -0.001100504 -0.001100023 -0.000130353 0.001171420 0.000041491 0.000509213 -0.001446957 0.001239461 -0.002058735 0.000050118 0.000179573 -0.002083599 -0.000080007 0.001224690 -0.001088911 0.000062856 0.001440808 -0.001237765 0.002811491 0.000356725 0.002322366 -0.002530062 0.003687433 -0.000199474 -0.000372434 0.000233515 0.000848881 -0.001624300 0.000784959 0.001491741 -0.001606384 -0.002172124 0.000656162 -0.003121892 0.000893935 -0.000838548 0.001644175 0.001299729 -0.002062974 -0.001408577 0.000277897 -0.000986181 -0.001178371 0.001325907 0.001072530 0.000296507 0.000623703 -0.000536181 -0.000369160 -0.000813417 0.000197724 -0.001145408 -0.001138057 0.000770262 0.000097834 -0.000607603 0.000661426 -0.001402584 0.000529009 0.002688864 0.001107236 -0.001400126 0.001505166 0.000318159 -0.001518772 -0.001921678 0.000320129 0.000977568 -0.001818357 0.001657525 0.001235488 0.000604183 -0.000638848 -0.000641184 0.000654875 -0.000033401 -0.000659110 0.000425609 -0.000874882 -0.002280936 -0.000487845 -0.001695000 0.000262048 -0.000487109 -0.001254465 0.001288226 0.002216306 0.001833736 0.002570914 -0.000165541 0.000894970 0.000343125 0.000947053 0.000847451 -0.000436939 0.000383721 0.001066110 0.001844242 -0.002236960
disclaimer	-0.000090093 -0.001570216 0.001893563 0.001311226 0.000752243 -0.000030737 -0.000063165 -0.002227798 -0.000621433 0.000038750 0.000982609 0.002893202 -0.000828171 -0.000345958 0.001263310 -0.001775899 0.001176548 0.000286314 0.001197806 0.001590323 -0.002113377 0.003103369 0.000809633 0.000246444 0.002232962 0.001028926 -0.001212697 0.001134977 -0.000915410 0.000318893 -0.002053360 -0.001750412 0.002381610 0.001415999 0.001029079 0.000643365 -0.000945384 -0.000222443 0.000098592 -0.001532056 0.000015864 0.000915912 -0.000948968 -0.000980668 0.001069376 -0.002187137 -0.001097547 0.001126106 -0.000120947 -0.000288750 -0.000802007 0.000346853 -0.003770377 -0.000208905 0.000320158 0.000009614 -0.000471289 0.000310581 -0.000176879 -0.000159865 0.001810915 -0.001090509 0.002016659 -0.001269391 -0.000011761 0.001154069 -0.001283237 0.000339588 -0.000838221 -0.000038181 0.001583765 -0.000639098 -0.000867644 -0.001245195 -0.000625155 -0.000896028 -0.000998893 0.000411885 0.000198032 0.001072980 0.001453669 0.000816676 -0.001691750 -0.000166771 0.001323585 0.002076999 0.000758549 -0.000534026 -0.000908497 -0.000920330 0.000118903 -0.000988649 0.001680929 -0.001543311 0.001628799 0.001807972 -0.001583909 -0.001451768 0.001346769 0.000120049 0.000245868 0.002203959 0.000475404 0.002893475 0.002632151 -0.002432660 -0.000819788 -0.001202365 -0.000950143 0.000263021 -0.002402767 -0.000246842 0.002314933 0.000465804 0.000152249 0.000891967 -0.001443184 0.000058883 -0.001492858 0.001826682 0.000597671 0.001881488 0.002521443 0.000022501 0.000836276 0.000318101 -0.000023370 0.001296346 0.002468894 -0.000207989 -0.000415841 0.000337511 -0.000119608 -0.000421732 -0.000267597 0.002926773 0.000621825 -0.001054303 -0.002274804 0.001109074 -0.001708914 -0.001795690 0.000893939 0.001752848 -0.002577328 0.001048717 -0.000056389 -0.001153709 0.001885281 -0.002022460 0.000276568 0.000886239 0.001040608 -0.000185220 -0.000427285 0.001203669 0.000223732 -0.001371075 0.001106568 -0.000377284 -0.002296075 -0.000057539 -0.000696491 -0.000864578 0.000593712 -0.000276194 -0.000239043 0.001395895 0.001378126 0.000988283 0.001219326 -0.000074158 0.001626362 -0.000889973 0.002186033 0.000868680 0.002393922 0.001719677 -0.001253900 0.001709832 0.000329099 -0.000392224 -0.000010082 0.001667331 -0.000608829 -0.000404673 0.001539698 -0.000092606 -0.001356049 -0.000383867 -0.002009211 0.001065680 -0.001497173 0.000894410 -0.000378909 -0.001605344 0.000440551 0.004838195 -0.001860071 0.001217319 0.001847865 0.000899159 0.000193573 -0.000727558 -0.000209184 -0.001100185 -0.001343241 -0.000318178 0.000304505 -0.001415368 -0.001410538 0.001859168 -0.001581274 0.001558508 0.001256781 0.000056472 -0.000262892 -0.000211421 -0.000943677 0.002268699 -0.000876261 0.000028339 -0.001112532 0.000033584 -0.000791726 -0.000282480 0.001087021 0.000785560 -0.001524378 0.000845410 0.000377261 -0.000088509 -0.001646518 0.001462674 -0.002110796 -0.001266109 -0.000485256 0.001027503 0.001439642 -0.002323899 0.000600462 -0.000135661 -0.001191600 0.000226960 -0.001464318 0.000024653 0.001738048 -0.000460601 -0.001882239 0.001067639 0.001320465 -0.000401908 -0.002298584 -0.001698569 -0.001201793 -0.000238382 0.002254605 0.001883904 -0.001746265 0.002192944 0.003264715 -0.000673790 0.001291388 -0.000150300 0.000411746 0.000281791 -0.002416786 0.000230223 0.000911928 -0.001341154 0.000774684 -0.000987128 0.000745241 0.001300137 -0.000455803 -0.001005783 -0.000135410 -0.000356051 0.000456390 -0.002956149 0.000013343 -0.000283049 0.000269604 0.000695923 -0.001812630 -0.003184601 -0.000805121 -0.000595536 -0.000982324 0.001855483 0.000203530 0.001104390 0.000365039 -0.001107769 -0.000735551 0.000519605 -0.002014827 -0.000598177 0.000122062 -0.000690884
care	0.003620480 -0.000277371 0.002117250 0.003064033 -0.001667484 0.003394867 0.001796773 -0.001350358 0.001047525 -0.000374259 -0.000589309 0.002536783 -0.001241527 0.002544940 0.002247170 -0.001928186 0.001691612 0.000417566 -0.000279898 0.002342830 0.000184219 0.003809117 0.001684997 0.001222552 0.001005893 0.001747820 -0.000733381 0.000233493 0.000127371 -0.002001010 -0.002026920 -0.003287521 0.004445578 0.000324337 0.002360738 0.001409140 -0.003265584 -0.001698778 -0.001873070 -0.002737893 -0.002088062 -0.001434735 0.001081651 -0.002204535 0.000570556 -0.003851068 -0.002010850 0.000917725 -0.001488851 0.001588259 -0.001520624 0.002528112 -0.004230487 -0.000364510 -0.001700459 -0.000061555 -0.001720795 -0.000014511 -0.002137460 0.001061791 0.002681459 -0.000266258 0.002485596 -0.002441557 -0.002188399 0.000988412 0.001040869 0.001734146 -0.001474383 -0.001358695 0.001393720 -0.002173515 -0.000356737 0.001184012 0.000975884 0.000436911 -0.003804898 -0.000423688 0.000478524 0.002222483 -0.001293976 -0.001533519 0.001119576 -0.000946604 -0.001619763 0.002497647 0.000868119 0.002411009 0.000405939 -0.000993838 0.000598865 -0.000052762 -0.001205273 -0.000634732 -0.000042333 -0.000667996 0.000987454 0.001149168 0.000070043 -0.001136192 0.002507701 0.002084921 -0.000056796 0.003274433 0.003869522 -0.000500749 -0.001281161 -0.002406475 -0.002123023 0.000339454 -0.002181469 -0.000262230 0.002331661 0.000043576 0.002209825 -0.002184765 0.000341533 -0.000167712 -0.000457403 0.000059602 0.000003604 0.001929716 0.001858691 0.001488470 0.001462875 0.000420391 0.003158333 0.000846175 0.001111883 -0.001191685 0.000443623 0.002057000 0.002739438 -0.000352593 0.001493130 0.004432845 0.000852833 -0.003628669 -0.003245140 -0.001286860 -0.001384343 -0.002057467 -0.000953168 0.000228179 -0.001154029 0.001802726 -0.000480575 -0.001249852 0.001764381 -0.001349401 0.001651654 0.002115170 -0.000973902 -0.000050584 0.002182338 0.001814266 0.002371424 0.000217120 0.002562347 0.003375214 -0.003336065 0.000497895 -0.000589035 0.000989582 -0.002525216 0.000860871 -0.002124251 0.000063513 0.000580750 -0.000334494 0.001825845 -0.002892653 0.003231216 0.000200615 0.001461481 0.000975393 0.001437341 -0.000120633 -0.002253713 -0.000425447 0.000070401 -0.001637923 0.001004566 0.001381876 0.000087402 -0.000629375 0.002057388 -0.000351899 -0.003400848 0.000552083 0.000359098 -0.001483532 -0.000562666 0.002701558 0.000638684 -0.001356138 0.003807929 0.006366270 -0.002599969 0.000100864 0.001311682 -0.000503404 -0.003013029 0.001266149 -0.001551219 0.000348937 0.000700841 0.000281435 -0.000297821 -0.000157217 -0.001033241 0.003461981 -0.001799945 0.001061749 0.001942416 -0.000337827 0.000726145 0.000162488 -0.000643344 0.002343557 0.000404176 0.000733526 -0.002297389 0.003434226 0.002156927 0.001925276 0.001459324 -0.001061595 0.000111383 0.000013213 0.000519505 -0.000423227 -0.003482239 0.000992334 -0.002291193 -0.001444325 -0.001112835 0.001531651 0.000723820 -0.001507946 -0.001004503 0.001344808 0.000364397 -0.002098417 -0.001085909 -0.000695695 0.000698210 0.002911464 -0.000669397 0.000737251 0.000721262 -0.000232444 -0.002347236 -0.003511258 0.000736490 0.003083562 -0.000083521 0.001548026 0.000070483 -0.000109035 0.005570260 0.000992441 -0.000523867 -0.000665129 0.001185769 -0.000234630 -0.001843247 -0.000832110 0.001738064 -0.001479908 -0.000331996 0.000491305 0.001059757 0.001995694 -0.001493946 0.001120455 0.001421279 0.001699756 0.001036950 -0.003575334 -0.002613769 0.000211314 0.000273679 0.000406385 -0.000030165 -0.003187717 -0.000129533 0.002459985 0.000028655 0.002304889 -0.001726371 0.000130572 0.001224658 -0.000085000 0.001038151 -0.003057448 -0.000589964 0.000157833 0.001375256 -0.001686592
info	0.003199552 -0.001110836 0.004544084 0.004136066 -0.000392576 0.001653075 0.001551435 -0.001431372 0.001062985 -0.001197698 -0.001616868 0.004032462 -0.001337821 0.001543147 0.002382998 -0.000944387 0.000461517 -0.000715724 -0.000222169 0.002358696 -0.001325873 0.004786907 0.001547093 0.002025156 0.001710565 0.000064101 0.000508571 0.000794823 -0.000794621 -0.000614665 -0.002475366 -0.004737250 0.003229463 0.001740080 0.000805711 -0.000056110 -0.000777587 -0.001883357 -0.000600696 -0.002955841 -0.003250059 0.000966825 0.001009885 -0.000159995 0.002130579 -0.003050579 -0.003475178 -0.000110990 -0.002064639 0.002562757 -0.002789253 0.002920490 -0.004176653 -0.001775148 -0.001777918 -0.001968794 -0.002397790 0.001490311 -0.001618378 0.002492549 0.002246564 -0.002322239 0.000532189 0.000613411 -0.002109896 0.002933666 0.000905685 0.002876512 -0.000652790 -0.001956690 0.000495852 -0.003330839 -0.000910386 -0.000670707 -0.001202335 -0.000326619 -0.001971710 -0.000659198 -0.001202803 0.002512601 -0.001234797 -0.001846730 0.000630077 -0.001826690 0.001213443 0.004862797 -0.002464524 0.001816026 -0.002534824 -0.001321923 0.001936014 -0.001247914 -0.001093352 -0.001201679 -0.000563284 0.002433397 -0.000682205 0.000374646 -0.000066698 -0.001520203 0.001845531 0.001858670 -0.001520837 0.003956335 0.004894897 -0.000964205 -0.003737794 -0.002156192 0.000003328 -0.001227071 -0.002699234 0.001660887 0.002403690 -0.002697418 0.002311793 -0.001031943 0.000099147 -0.002114131 0.001008878 -0.000751558 -0.000352881 0.000278373 0.003204469 0.001768395 0.001241133 0.001187718 0.003620586 0.002986956 0.000704365 -0.000601697 0.000999447 -0.000581325 0.000485724 -0.000673929 0.000203372 0.006408002 0.000878254 -0.001007452 -0.002649065 0.001165678 -0.001206052 -0.005032716 0.000457868 0.001848935 -0.002843181 -0.000624297 0.000243620 0.000818954 0.001294425 -0.000224096 0.003382190 0.002073391 -0.001335896 0.000092754 0.000055136 0.003322392 0.002606852 -0.000306392 0.002180905 0.002843347 -0.001958866 0.001956363 -0.001373609 -0.000236366 -0.001787581 0.001195530 -0.002806628 -0.000817747 0.000149928 -0.001340761 0.004158519 -0.002130040 0.002569126 -0.001394868 0.002304870 -0.000335802 0.003692131 -0.000161783 -0.001761091 0.001041602 0.002125133 -0.000387141 -0.000023466 0.001294264 0.001135321 0.001094182 0.000913690 0.002357372 -0.002319217 -0.002250260 0.000206034 0.000697086 0.000420518 0.003296060 0.001202613 -0.001269578 0.004795408 0.009088139 0.000021583 -0.001495643 0.002478589 -0.000092972 -0.002163001 0.002065498 -0.001155991 -0.002075046 -0.001366026 -0.002505813 0.002051975 -0.002420997 -0.002684387 0.003246200 -0.002686316 0.001637494 0.001646857 -0.000317258 0.002751432 0.001328273 -0.000790620 0.003016776 0.000584993 0.001545898 -0.000872661 0.003391590 0.001170854 0.002011702 0.001936047 0.001299645 -0.001756783 -0.000683688 -0.001594116 -0.000613329 -0.001916148 -0.001619151 -0.004615533 0.001444164 -0.000469525 0.002370942 -0.000633270 -0.002695305 -0.000312259 -0.000369923 -0.002452839 -0.002191645 0.001670299 0.000113270 0.000563744 0.002808014 -0.002237131 -0.000549023 0.001236971 -0.002528388 -0.000694955 -0.003035709 0.000959172 0.000898832 0.001769146 0.001315301 -0.002483190 0.002269363 0.007679680 0.003044537 0.001010906 -0.000901436 0.000486081 0.000688882 -0.001501070 -0.001097447 -0.000221962 0.000052529 0.002546241 -0.000803698 0.000358965 0.001530775 -0.002346082 -0.000822748 -0.000092906 0.002493768 0.001513364 -0.002195323 -0.002679656 0.001663702 -0.001024274 -0.000646036 -0.001562870 -0.002993526 -0.000553706 0.002161500 -0.000319791 0.003645984 -0.000494260 0.000134420 -0.000235944 -0.001692710 -0.000068938 -0.000628621 -0.001072406 0.001923961 0.004715432 -0.003126872
robert	0.001168219 0.001103980 0.003523107 0.003383422 -0.000286470 0.002421679 0.001053278 -0.001443158 -0.000273022 0.000915153 -0.001056036 0.002945901 -0.001247365 0.000815857 -0.000690560 -0.000973028 0.000915627 0.000229116 -0.000878876 0.002474689 -0.002582696 0.002150517 -0.000162465 0.000993239 0.001282235 0.000293161 -0.000189237 0.000865806 0.001656334 -0.001287759 -0.000567926 -0.002728829 0.003594720 0.000067313 0.002462858 -0.000834463 -0.002407823 -0.003045906 -0.000259538 -0.001362703 -0.003317639 0.000742091 0.001717599 0.000504672 0.001350952 -0.003725285 -0.003010114 0.000258207 -0.000413024 -0.000195126 -0.000650437 -0.000246760 -0.002625493 -0.001276775 0.001097583 -0.003140127 -0.000922289 0.001579812 0.000373896 0.000147484 -0.000230170 -0.000865096 0.001965310 0.000288482 -0.000641393 0.001859541 0.000005771 0.000829590 0.000155356 -0.003231792 -0.001502811 -0.000780481 0.002238083 -0.001355883 0.000345418 -0.000438246 -0.000529790 -0.000425607 -0.000856361 0.003835235 0.001597118 0.000531268 -0.001329988 0.000133598 -0.001013716 0.002645396 -0.001376095 0.000637270 -0.001176065 -0.001715420 0.001657282 -0.000707882 0.001336005 -0.000386574 -0.000294551 0.000179600 -0.001839765 0.001355916 0.002243627 -0.001857930 0.000774628 0.000192163 0.001480088 0.001444923 0.003083696 -0.002144401 -0.003973830 -0.002487135 -0.000078460 0.000592215 -0.001222614 -0.000403465 0.003569283 -0.000517962 0.002426282 -0.001653436 0.000355770 -0.002136163 0.001362346 0.001806068 0.000604089 0.000250496 0.001924961 0.000300165 0.000461928 0.001446457 0.003041624 0.001159877 0.001643049 0.000390296 0.002528048 -0.000212025 0.001125648 -0.000929455 0.000402144 0.004805570 0.000141513 -0.000493007 -0.003509061 -0.001663798 -0.001336544 -0.001532527 -0.000613655 0.000249402 -0.001390204 0.001043628 0.000072836 -0.001235824 -0.000318311 -0.001820950 0.000337017 0.003214544 -0.000475001 0.000015269 0.002125392 0.000572071 0.000793691 0.001401145 0.000973150 0.003072090 -0.001703269 0.002398071 -0.001354150 -0.000877897 -0.000396149 0.001469789 -0.002288225 0.001071282 0.001272503 -0.000003006 0.003091545 -0.003543668 0.001306896 -0.000400710 0.001818583 0.002484906 0.000771924 -0.000361237 -0.000285814 0.001294922 0.001555235 -0.001185801 -0.000650564 0.001795935 -0.000871982 0.000539448 0.000134890 0.001006936 -0.001288425 -0.000778000 -0.002226720 -0.001357439 -0.001173628 0.002305846 0.000065878 0.000042613 0.004426137 0.006579985 -0.001501468 -0.000224578 0.003090761 0.000527216 -0.001720700 0.000665948 -0.000130176 0.000051517 -0.002496577 -0.002298456 0.000209106 -0.001613339 -0.000293943 0.001586503 -0.001152408 0.002545702 0.001442127 0.001447584 0.000560260 0.002012021 -0.002529569 0.002319936 0.001226085 0.002844285 -0.002812346 0.003359342 -0.000250237 0.001449497 -0.000436732 -0.001302307 -0.001418820 0.000555501 -0.001234098 0.000116442 -0.000984755 -0.000510506 -0.004636967 0.000919964 -0.000894698 0.001145147 -0.000472248 -0.000764124 -0.001213604 0.000662872 -0.002401742 -0.002310418 0.000140241 0.001077439 0.001431533 0.000477312 -0.000574502 -0.000912157 -0.000319499 -0.002112804 -0.002334567 -0.003292967 -0.000695776 0.001685046 0.000033722 0.002554000 -0.002453404 -0.000844127 0.004599250 0.002911834 -0.001196316 0.001001485 0.000268189 -0.000126222 0.000239965 -0.000554406 0.001764707 -0.001910875 0.001816789 -0.000982700 0.000009028 0.000218997 -0.002676650 -0.000275834 0.001720846 0.002666346 -0.000651406 -0.004176782 -0.000620288 -0.000499829 -0.001881393 0.001539972 -0.001772922 -0.002022168 0.001829526 0.001715620 -0.000171422 0.001932391 -0.000077404 -0.000309331 0.000623963 -0.001692691 0.000407350 0.000026507 -0.001771029 0.000850055 0.003451636 -0.000663462
writes	0.004935833 -0.001363986 0.007645208 0.007187461 -0.004981073 0.004586064 0.004605757 -0.003541076 0.001045199 0.001306717 -0.002340014 0.007208065 -0.000464876 0.002565278 0.000433838 -0.001111604 0.002168786 -0.000975511 0.002334493 0.003939989 -0.002952716 0.006805724 0.000465441 0.006590560 0.006083475 0.003289707 -0.001679237 0.001242650 0.003027515 -0.001924751 -0.002628842 -0.006612684 0.008298374 0.002471745 0.004464331 0.001451531 -0.003198103 -0.004229794 -0.000879643 -0.006357722 -0.006186255 -0.001444255 0.000763602 -0.003614389 0.005475643 -0.005126103 -0.003675109 -0.002035639 -0.004613060 0.001003026 -0.004790248 0.003384840 -0.009356236 -0.002659797 -0.000952330 -0.003905531 -0.007296794 0.002149818 -0.002683871 0.003681845 0.004590373 -0.002530226 0.004527131 -0.002466504 -0.000469785 0.003389185 0.001376696 0.002888833 -0.000747575 -0.005579253 -0.000829500 -0.006567343 0.001568358 -0.001495488 0.002028104 0.002756690 -0.006502383 -0.001415353 0.000359767 0.006441250 0.001328757 -0.000040477 -0.002022510 -0.003354515 0.000611801 0.008987916 -0.001699037 0.004488307 -0.003079094 0.000467279 0.003269548 -0.005409207 -0.001539638 0.000285006 -0.000534050 0.001631624 0.000125308 0.000708602 0.001229908 -0.002243698 0.003083051 0.005028326 -0.000053553 0.008481977 0.006054640 -0.005852105 -0.006124859 -0.007415025 -0.002047652 0.000838460 -0.003323919 0.000247596 0.006897186 -0.003663290 0.001865395 -0.002410854 -0.001887548 -0.003569098 0.000819562 0.000396378 0.001744822 0.002246345 0.002182217 0.004120496 0.003793214 0.002148363 0.006081437 0.002407107 0.004717832 -0.001437712 0.003410171 0.000340666 0.003171740 0.000122975 0.001726031 0.013200686 -0.001851542 -0.005071469 -0.007830980 -0.001742267 -0.003351752 -0.008375344 -0.002958096 0.001500144 -0.004508757 0.000773055 -0.002957325 -0.000226228 0.001848326 -0.003054802 0.005252900 0.005107051 -0.000754023 0.004113541 0.001105137 0.003923723 0.003405424 0.001664744 0.003885415 0.005373389 -0.006514668 0.004030533 0.000174129 -0.000948043 -0.003087877 0.003154772 -0.003029782 -0.000351736 0.004055561 -0.002095255 0.007667111 -0.006810822 0.003059397 -0.001600219 0.004193134 0.004225638 0.004371791 0.001906543 -0.001039999 0.000641179 0.003141598 -0.001094270 0.001441545 0.003228731 0.001925665 -0.002123640 0.003022705 0.000645742 -0.006568009 -0.002039893 -0.001886026 0.000426753 -0.001354837 0.003870447 0.003479266 -0.000781605 0.007294107 0.017279459 -0.002645022 0.000275515 0.003649855 -0.001327997 -0.006968115 0.001849481 0.000727396 -0.000174258 -0.002904528 -0.001831184 0.000965900 -0.005687578 -0.002574000 0.005567551 -0.005412629 0.002335205 0.000493266 0.001466469 0.003826483 0.001501130 -0.001862918 0.003971653 0.000722557 0.005584242 -0.003476042 0.006945173 0.003606324 0.003548127 0.002927799 -0.000943863 -0.002018469 -0.000252406 -0.000352937 -0.001951065 -0.004155994 0.001362718 -0.009766964 0.001153406 0.001487605 0.005162917 -0.000782890 -0.001501622 -0.002265544 0.002156095 -0.000712523 -0.002954196 -0.000012836 -0.002030612 0.001942547 0.002517689 -0.003664687 -0.000443610 0.001175835 -0.003914527 -0.002338636 -0.006928344 0.001451608 0.005129033 0.002557543 0.007431018 -0.000693552 0.003093684 0.014653306 0.002763824 -0.001316921 0.001654980 0.000554339 0.000096586 -0.004711426 -0.000572992 0.002927869 -0.001564507 0.003054156 -0.002016494 -0.000251596 0.003853552 -0.002265882 -0.002522083 0.000921274 0.002523581 0.002701347 -0.007049456 -0.004210467 0.001777093 -0.001948922 0.001249903 -0.001988914 -0.005582730 0.001946137 0.004698086 0.003310057 0.005923394 -0.000981791 0.000123481 0.001040201 -0.002163803 0.002358594 -0.004677785 -0.001725097 -0.000630667 0.008212679 -0.004552050
understand	0.001857132 0.001214116 0.003189414 0.003380167 -0.001269694 0.003374168 0.000628789 -0.000699489 0.000750839 -0.000857617 -0.000966321 0.003709368 0.000260795 0.001195014 0.001490849 -0.000349261 0.000843563 -0.000009073 0.000628654 0.000094330 -0.000071698 0.001386270 0.001272410 0.002684641 0.001550807 0.000375139 0.000470644 -0.000004763 0.001861330 -0.000992722 -0.001884775 -0.001930951 0.005053350 -0.000181592 0.000552926 -0.000782256 -0.001894013 -0.000547342 -0.001445154 -0.003699721 -0.001068163 -0.001004413 0.000399738 -0.001727122 0.001756738 -0.002785398 -0.001652096 -0.000757212 -0.002328288 0.002174950 -0.002785164 0.000839206 -0.002368886 -0.000842099 0.000814683 -0.000898218 -0.002377464 0.001591720 -0.000591284 0.001401829 0.000144365 -0.000080887 0.001103509 0.000067361 -0.001609104 0.001294383 0.001632017 0.001077889 -0.002234065 -0.002913102 -0.000661667 -0.003602471 -0.000597742 0.001155625 0.001698797 0.001448513 -0.002917734 0.000628167 -0.000348791 0.003851463 0.001240329 -0.001678932 0.001355418 -0.000902477 -0.000787609 0.004735250 -0.001206805 -0.000254095 -0.002058363 -0.001046174 0.002529881 -0.000530767 -0.001655653 -0.000419230 -0.001259303 0.000858486 -0.000034814 0.000593988 0.000669105 0.000619947 -0.000067649 0.001668955 -0.000404536 0.003263843 0.004250815 -0.001296087 -0.002228708 -0.003634810 -0.001173949 -0.001744166 -0.001446949 -0.000546116 0.001322687 -0.002190490 0.000403890 0.000409761 0.000038267 -0.000053883 0.000881318 0.000845603 0.001375853 -0.000377045 0.002843978 0.001306994 0.002288715 0.002831262 0.001295820 0.000171853 0.003034719 -0.001178406 0.002699758 -0.000844917 0.000796451 -0.000241293 0.000953878 0.006052624 0.000618156 -0.002127132 -0.004244332 -0.001486607 0.000574068 -0.003594066 0.000149955 -0.000428030 -0.002218442 0.001181868 0.000042617 -0.001416328 0.001305123 -0.000384718 0.003029088 0.002915153 -0.001215559 0.002557911 0.000407211 0.001600330 0.001843244 -0.000160615 -0.000347867 0.003014365 -0.000769173 0.000528557 -0.000675311 -0.000106308 0.000172470 0.002716843 -0.001346747 0.001297412 -0.000539768 -0.000069312 0.003031010 -0.002472439 0.002254528 -0.001500017 -0.000147642 0.001478520 0.003339380 -0.000225133 0.000216783 0.000813013 0.000324959 -0.001143454 -0.000677290 0.001541715 0.001381707 0.001167313 0.002473287 -0.000529898 -0.001950312 -0.001030904 -0.002494897 0.000228485 -0.000114951 0.002020493 0.001884656 0.001053401 0.002037386 0.005780810 -0.002288843 -0.001016968 0.002284751 -0.000091587 -0.000918801 0.001909715 -0.001030655 0.000787932 -0.000415237 -0.002831918 -0.000822122 -0.001859113 -0.000087599 0.001659700 -0.001804055 0.000804826 0.001643305 -0.000094382 0.002628016 0.000156569 -0.001579741 0.001947039 0.001217358 0.001926862 -0.001017207 0.003411110 0.002824911 0.002148786 -0.000102337 -0.000443741 -0.001667577 -0.001498554 0.000540552 0.001084013 -0.002401020 -0.001599632 -0.004567025 0.000896226 0.001006922 0.002731383 0.000800408 -0.001229118 -0.000117045 0.001679181 -0.000883468 -0.002155895 0.000597107 -0.000476895 0.002088198 -0.000206043 -0.001121033 0.000813334 0.000468056 -0.000382489 -0.000767946 -0.002081053 -0.001080523 0.002083281 0.001706385 0.003231558 -0.001616538 0.001063211 0.004244295 0.002977361 -0.001550837 0.000607114 0.001152559 0.000115187 -0.002077608 0.000340116 0.002075225 -0.000937988 0.001817872 0.000991915 0.000454612 0.002340109 -0.002423053 -0.000297252 0.000773952 0.000570076 0.000469877 -0.003919625 0.000437774 0.001037754 -0.001840522 0.000851554 -0.000755536 -0.004215257 0.002066594 0.002897931 -0.000584836 0.002432981 0.000170827 0.000415011 0.000219295 0.000033672 0.002212344 -0.000903527 -0.000315839 0.001818280 0.001352447 -0.000780858
current	0.002070219 -0.000343128 0.005971961 0.001889624 -0.000805531 0.002411596 0.000494001 -0.002097191 -0.000689257 0.000918018 0.000802867 0.004416001 -0.001491055 0.001960541 0.000001397 -0.001182517 0.000354457 0.000152820 -0.000139650 0.001489848 -0.001414288 0.004198716 0.001738798 0.001675000 0.003663834 0.001183896 -0.000380284 0.002677312 0.000999480 -0.000950631 -0.003220392 -0.002747731 0.003870627 -0.000169765 0.003538637 0.001540282 -0.003658841 -0.002945244 0.000035618 -0.003541321 -0.002924568 -0.001017452 0.000624134 -0.000825864 0.001126053 -0.003603801 -0.002840125 -0.000077623 -0.002272114 0.002753946 -0.003242082 0.002694641 -0.005624048 -0.002174394 -0.000587496 -0.002864118 -0.003222657 0.000965630 -0.002109261 0.001863561 0.000146205 -0.001981548 0.001816304 -0.000285813 -0.001450908 0.003286776 0.000222943 0.003629628 -0.002206087 -0.004259183 -0.000335522 -0.001672941 0.000161612 0.000929657 0.000456634 0.000252452 -0.004410392 0.001241458 0.000265431 0.001707287 -0.001341950 -0.001919923 0.000770896 -0.000107174 0.000570151 0.006117754 -0.001226259 0.002072784 -0.001557785 -0.000769904 0.002144402 -0.002067647 0.000127610 -0.000382370 0.001475201 0.001573896 -0.000026326 -0.001244522 0.001471714 -0.001467831 0.002627439 0.003879176 0.001134969 0.005450082 0.002994006 -0.001422250 -0.004683799 -0.004871292 0.000198087 0.000721032 -0.003429617 -0.000266785 0.003915648 -0.001284741 0.000166884 -0.000441821 -0.000590064 -0.002814136 -0.001157419 0.002710314 0.001533222 -0.001017807 0.001741429 0.003548271 0.001743777 0.003183523 0.002137013 0.001162332 0.003746894 0.000057963 0.003387415 -0.000478978 0.001437634 0.001226996 -0.000756120 0.006212578 -0.001450696 -0.003070433 -0.005300416 0.001242884 -0.000626892 -0.005270062 0.000485432 0.000201809 -0.001477210 -0.001355207 -0.001052621 -0.000241577 -0.000154592 0.000277171 0.001463048 0.001304706 0.000292484 0.003158209 0.000255259 0.001030006 0.000738394 0.001500102 -0.000081230 0.003651731 -0.004064977 0.001280472 -0.000958270 0.000716424 -0.000283997 0.002742720 -0.003243052 0.000071431 0.000482691 0.001048386 0.004313823 -0.002203967 0.002570329 0.000741400 0.000416300 0.002085697 0.001638280 -0.000443803 -0.000498155 0.001280823 0.001670781 0.000909771 0.000540135 0.002128727 -0.000807395 -0.000862589 0.003184169 0.002079695 -0.002728980 -0.001508212 -0.002055440 0.000987002 -0.000917661 0.002341510 0.001994521 0.000694598 0.005364901 0.007447967 -0.000996700 0.000910609 0.002639354 -0.000733211 -0.004440145 0.002643545 0.001443937 -0.002346839 -0.000280212 -0.002469805 0.000206609 -0.001124058 -0.001462987 0.004490398 -0.002668702 0.002198777 0.000403011 0.001601769 0.003384508 0.001074280 -0.002292247 0.000805995 -0.000007065 0.001482204 -0.000654710 0.004945251 0.001423913 0.001433869 0.000886010 -0.000563304 0.000019434 0.000807446 -0.001402459 -0.001767974 -0.003654547 0.001189842 -0.005343565 0.001721277 0.000483105 0.003848216 -0.000293054 -0.002761911 -0.001532723 0.001148723 0.000664448 -0.002224567 0.001259399 -0.002187668 0.001923222 0.002581997 -0.001949578 -0.000778888 0.001483052 -0.000972195 -0.000971866 -0.005007860 0.001118502 0.001769475 0.000230274 0.003309434 -0.002392689 0.000175369 0.008520443 0.001074902 -0.000171397 0.001176635 0.000871340 -0.000629095 -0.000906861 -0.000135190 0.000374134 0.000671151 0.000498289 -0.001330091 -0.000005129 0.000598225 -0.001758733 -0.000575655 0.002159840 0.001035917 0.001430165 -0.004006718 -0.001235942 -0.000622041 -0.001232577 0.000749666 0.000302249 -0.004441490 -0.000718722 0.000722852 -0.000195942 0.002213234 -0.000516897 -0.000278966 0.001019190 -0.001667335 0.000162378 -0.000862772 0.000379998 -0.000252405 0.003964362 -0.002362937
situation	0.002995997 0.000865689 0.003582781 0.001985328 -0.002485949 0.000963198 0.000907636 -0.002431806 -0.000173443 0.001253364 -0.001072585 0.003568986 0.000209485 0.000053421 0.001210001 0.000574453 -0.001264861 -0.000717448 0.000507881 0.000685881 -0.002799399 0.001266026 -0.000627680 0.002689905 0.001404333 0.001610138 -0.001235518 0.001726055 0.001242888 0.000432826 0.000074794 -0.003238380 0.004719350 0.001577433 0.000823353 0.000298941 -0.001405709 -0.003230098 -0.001819950 -0.002806739 -0.000745629 0.000164931 0.000952267 -0.001028239 0.002067376 -0.002524542 -0.000679401 -0.000083840 -0.000949425 0.000492260 0.000278008 0.000939943 -0.004636621 -0.001414493 -0.002051509 -0.001375681 -0.003843671 0.002807461 -0.000715737 0.001337198 0.001295726 -0.002067249 0.001663348 0.000274148 -0.001183159 -0.000046897 0.001961950 0.001676564 0.000505232 -0.001794220 0.001000811 -0.003864059 0.000238391 -0.000501660 0.001500245 -0.000356065 -0.000983091 0.001170468 0.000351937 0.001602478 0.000427977 0.000263387 -0.001419201 -0.000685046 0.001290921 0.004560442 -0.002309435 0.002912455 -0.001363968 -0.000411536 0.001073190 -0.001424338 -0.000121734 0.000883637 0.000962908 0.001239194 -0.001109605 -0.001114507 0.000788339 0.000694899 0.002442966 0.001378600 -0.000436438 0.003943760 0.003606453 -0.002062709 -0.002994057 -0.002589308 0.001021018 -0.001069901 -0.002703139 0.000274288 0.001534354 -0.000588614 0.002246676 -0.001062253 -0.001027905 -0.002676101 -0.000755670 0.000885984 -0.000191393 -0.000551091 0.001689598 0.002025636 0.001004915 0.002317412 0.000936533 0.001196602 0.000978461 -0.000626695 0.002954599 0.000825858 0.002724029 0.000957829 0.000994222 0.004461161 0.001171099 -0.003716690 -0.002599522 -0.000723864 -0.000198819 -0.002530062 -0.002193678 0.001582187 -0.001119621 0.000180312 -0.000478478 -0.000131799 0.000284754 -0.000332128 0.000833488 0.003267077 -0.000171679 0.002163790 0.000169759 0.000139180 0.000792400 -0.000762655 0.001146884 0.000498641 -0.002220445 0.000644519 -0.002086402 0.000815368 -0.002622737 0.001754609 -0.000681391 0.001288638 0.000858633 0.000964616 0.002890069 -0.000429243 0.003403211 -0.000890474 -0.000360904 0.000566736 0.002581559 0.001121398 -0.000230818 0.000780412 0.002009824 0.000994089 0.002284780 0.001715573 0.000794147 -0.000786237 0.000107725 -0.000452015 -0.002573031 -0.002082565 -0.001725024 -0.000524051 -0.000254464 0.001349007 0.001376324 -0.000941949 0.002106224 0.005800460 -0.002632302 0.000602214 0.001095032 0.001003364 -0.001608816 0.001051462 -0.001366790 -0.001046150 -0.002086778 -0.001019514 -0.000256501 -0.001726747 -0.002342072 0.001272097 -0.001495217 0.001609729 -0.000859988 0.000923188 0.002673229 0.000029967 -0.001220970 0.001101472 -0.000772558 0.000705170 -0.000067295 0.002639408 0.001021781 0.000559358 0.001557291 0.000611748 0.001096818 0.000464708 0.001515418 -0.001002008 -0.000677819 -0.001586493 -0.004465802 -0.000145119 0.001161847 0.003331046 0.000654748 0.000069359 -0.000765870 -0.000600955 -0.001962233 -0.001437492 -0.000796772 -0.002085063 0.002635531 0.002755338 -0.001116735 0.000924997 0.002269467 -0.001720433 -0.001295967 -0.002415180 0.000883572 0.001389499 0.002848763 0.002151286 -0.000773970 0.001878109 0.004831012 0.000458926 -0.001019157 0.000113409 -0.001048279 -0.001781195 -0.000897479 0.000882484 0.000080953 -0.001205286 0.001866989 -0.000963046 0.000426817 0.001434843 -0.001273259 -0.000900992 0.001054457 0.002397440 0.001575171 -0.002758032 -0.002766612 -0.000905416 -0.001256064 -0.000932724 -0.000829246 -0.001142994 0.001451841 0.002565724 -0.000023542 0.001652321 -0.001256721 0.001249631 0.002335623 -0.000812925 0.000224742 -0.001133831 -0.000837520 -0.001330771 0.003726101 -0.002251640
give	0.003956620 -0.000038705 0.002858387 0.004796877 -0.002945211 0.001449858 0.002454917 -0.003439662 -0.000804505 0.000137743 0.000197384 0.003080655 -0.001342286 0.001647674 -0.000454914 0.000169499 0.001620617 -0.001803452 0.002172831 0.000399723 -0.002316901 0.004326372 0.001899077 0.003775728 0.003924533 0.001371579 -0.001570514 -0.000117825 -0.000703752 -0.000569037 -0.001199165 -0.003704153 0.005909920 0.000749430 0.002272356 -0.000729151 -0.004089597 -0.003026633 -0.000724740 -0.004010224 -0.002907946 -0.002104528 0.002192721 -0.001334448 0.002218045 -0.004169323 -0.003479819 -0.000777628 -0.001638274 0.001927620 -0.001050416 0.000816882 -0.004704108 -0.002721286 0.000813871 -0.003591373 -0.003497808 0.000718689 0.000594951 -0.000161037 0.002852171 -0.001430585 0.003796635 -0.000667304 0.000033308 0.003010881 -0.000478715 0.003877209 -0.000528070 -0.002903916 -0.000912056 -0.003777931 0.000347972 -0.002048151 0.001915006 0.002246864 -0.001559473 -0.001072212 -0.001192121 0.004133188 -0.001265725 -0.001350943 -0.000328113 -0.002474484 0.000609894 0.003410136 -0.000669719 0.003092230 -0.001864537 -0.000355013 0.001855612 -0.002775539 -0.000567265 -0.001977758 0.001578171 0.001255619 -0.000786923 0.000672219 0.002015408 -0.001078877 0.002676693 0.002268211 0.000631185 0.002378525 0.003268935 -0.001302284 -0.003331658 -0.001506294 -0.000950431 0.000519987 -0.002121950 0.001006009 0.002438911 -0.001035695 0.003317110 -0.000544814 0.000294549 -0.003542404 -0.000138527 0.000002955 0.001129255 -0.000712835 0.003634569 0.003125118 0.003165313 0.001422255 0.001710071 0.002926812 0.002948660 0.000314449 0.003026180 -0.000137712 0.000559148 0.001330093 0.002237883 0.006047655 -0.000987502 -0.001433618 -0.005033519 0.001296842 -0.002028584 -0.005315592 -0.001280544 0.001064466 -0.002226767 0.001672638 0.000050500 -0.001154131 0.001020758 -0.000633221 0.003670336 0.003670557 0.000048723 0.001197433 0.002650840 0.000807196 0.001022467 -0.000797320 0.001440516 0.002997618 -0.002115195 0.000171872 -0.000402258 -0.000871069 -0.003276936 0.002980465 -0.000473885 -0.000698936 0.002613939 -0.000712435 0.005740305 -0.002280878 0.003176989 -0.001727232 0.001050618 0.001760353 0.003517780 -0.000410300 0.000211537 -0.000789521 0.001767416 -0.002103593 0.001589775 0.001198680 0.000306440 -0.000910156 0.003203790 -0.000324003 -0.003785523 -0.002962782 -0.000968283 0.000389598 -0.001939084 0.002373573 0.000046499 0.000267789 0.004738598 0.008615567 -0.002122102 -0.001388102 0.001643429 0.000355247 -0.004421029 0.000250713 0.001328829 -0.002012829 -0.002813333 -0.001170487 -0.000138647 -0.001683780 -0.002297018 0.003479491 -0.001707420 0.001236866 0.001675373 0.001553238 0.002391184 0.002075194 -0.002400718 0.003051832 0.000986756 0.002680407 -0.001355667 0.003371840 0.000803275 0.001972225 0.001177244 0.000948235 0.001071987 0.000075080 0.000151906 -0.000629001 -0.003785510 0.001304198 -0.003873907 -0.000843915 -0.001065019 0.001782534 0.001411499 -0.000550097 0.000908142 -0.000797020 -0.000774207 -0.001317404 -0.001115326 -0.002136713 0.000750857 0.002607984 -0.000553219 -0.001576209 0.002170134 -0.000651556 -0.002964654 -0.005627828 0.001350511 0.002923515 0.000425305 0.004733778 -0.000617525 0.002126827 0.006929173 0.000882916 0.000775627 0.000706492 -0.001145369 0.000673411 -0.002033129 -0.001229070 0.001520950 -0.002276822 0.001176548 -0.000307721 0.000081363 0.000007191 -0.002796015 -0.001725436 0.001569913 0.000925514 0.002148514 -0.003105592 -0.002639384 0.001845198 0.001105576 -0.001700758 -0.000410886 -0.004552211 -0.000159970 0.003353893 0.002399936 0.002141447 -0.000535329 0.001502334 0.000054674 -0.002130834 -0.000304670 -0.001597161 -0.001287739 0.000080218 0.004464251 -0.001623510
years	0.005365452 0.000546653 0.005563954 0.003685217 -0.004154575 0.004937050 0.003397628 -0.002977348 0.000021646 0.000414520 -0.000975048 0.005885762 -0.000422853 0.002552554 0.000205148 -0.001029908 -0.001133991 -0.001000313 -0.000030566 0.001832983 -0.002013061 0.005321524 0.001226826 0.003640560 0.005069654 0.002149716 -0.000446072 0.002113669 0.001239820 -0.000717599 -0.001672497 -0.005176846 0.008066216 0.002831339 0.004250356 0.000077460 -0.004982010 -0.004691009 0.000981241 -0.002739262 -0.003069665 -0.001789964 0.002690634 -0.002859800 0.004306056 -0.004365752 -0.004628545 -0.002907452 -0.001657663 0.002418382 -0.003933242 0.002158876 -0.008323939 -0.002908382 0.000118339 -0.004811856 -0.003997120 0.003193211 -0.002543816 0.002500965 0.002345512 -0.001342177 0.003489327 -0.002334132 -0.001674086 0.001031218 -0.000489303 0.002278953 -0.001717181 -0.004938405 0.000874679 -0.004654722 0.000072002 0.000302281 -0.000861843 0.002764489 -0.003240055 -0.001042296 -0.001695460 0.005434208 0.000190763 -0.000655490 0.000191939 -0.002953202 0.000646968 0.007154135 -0.000304934 0.003635309 -0.001448089 -0.001584458 0.001962595 -0.004515740 0.001532496 -0.001392050 0.001740681 0.000063406 -0.000512000 -0.000605169 0.001586785 -0.002349897 0.002527468 0.003277780 0.001598906 0.006035164 0.006547763 -0.002862860 -0.004315919 -0.003720174 -0.001592652 -0.002012446 -0.002704539 0.002002797 0.006170473 -0.001203999 0.003027123 -0.003682681 0.000251486 -0.003356264 0.000409826 0.002526936 0.001031627 0.002110129 0.003367016 0.002842176 0.002512659 0.003768930 0.005107855 0.004164296 0.002511356 -0.002859853 0.003878278 0.002348161 0.001839613 0.000014407 0.002413002 0.009999913 0.000433827 -0.002764040 -0.006556861 -0.001590020 -0.002339247 -0.007127318 -0.001711927 0.000912953 -0.002808364 0.001403830 0.000116659 -0.001766975 0.000020547 -0.001920602 0.004917961 0.002450434 -0.001777264 0.002414316 0.001948538 0.004598339 0.001186153 0.000409032 0.002333171 0.002327048 -0.005513608 0.001193815 0.000252688 -0.001182473 -0.002217404 0.004534271 -0.002482257 0.000116694 0.002612490 -0.000398642 0.007210075 -0.002779833 0.002860096 0.000192923 0.002927492 0.003193857 0.004519084 0.000375928 0.000195586 0.000842922 0.003312836 -0.001351498 0.002321313 0.000901878 -0.000833704 -0.002067721 0.003737722 0.002314562 -0.004832998 -0.002893133 -0.003184232 -0.002519772 -0.001207706 0.004503965 0.002373337 0.000405096 0.006581557 0.011858175 -0.002124124 0.001219372 0.003350928 -0.000669121 -0.005479819 0.002212723 0.001303360 -0.000273590 -0.000756323 -0.001682279 0.000637259 -0.002318264 -0.000726164 0.004303769 -0.003621798 0.001448860 0.002168681 -0.001113959 0.001955339 0.003025785 -0.003579482 0.003848875 0.001890523 0.003201385 -0.002415597 0.005077258 0.002944342 0.002475654 0.002955909 -0.000477644 0.000470616 0.000959801 0.001210378 -0.002461628 -0.002340692 -0.000297876 -0.007856381 0.001419701 -0.000014244 0.003654184 -0.000117295 -0.000722562 0.000948139 0.000487163 -0.001038336 0.000368483 0.001856622 0.000655923 0.002550439 0.002290699 -0.001443503 0.001603065 0.002698322 -0.002929876 -0.004084928 -0.007265876 0.002502377 0.003315323 0.003330741 0.005662472 -0.000661082 -0.000049466 0.010326045 0.000973779 -0.002283062 0.000173209 -0.001139730 -0.000670690 -0.001827866 -0.000079940 0.001607800 -0.000964107 0.001828616 0.000741297 -0.000233698 0.001562110 -0.004029101 -0.000766581 0.001375656 0.002352425 0.001141881 -0.006600494 -0.003437590 0.001770471 -0.001333450 0.000615097 -0.001824079 -0.006967592 0.002460314 0.003000997 0.001819983 0.003073077 0.001128447 0.001221165 0.002236063 -0.001320979 0.003015100 -0.003187656 -0.001511840 0.000220301 0.003822868 -0.003453488
add	0.003387005 -0.000390507 0.004085331 0.001778974 -0.001656172 0.000897962 0.000636069 -0.001259237 0.001928544 -0.000858988 -0.000822720 0.001071398 0.000776022 0.001630625 -0.000331763 -0.002000229 0.000301111 -0.000853283 -0.000808687 -0.000338099 -0.002833488 0.002673551 0.000480585 0.000721632 0.001546586 0.001205582 -0.001625389 0.001914345 0.000925506 -0.000175741 -0.000310532 -0.003943501 0.004867639 0.002477522 0.002650440 0.001178015 -0.000656928 -0.001916838 0.000220149 -0.002689528 -0.003938539 -0.001466927 -0.000706836 -0.002095369 0.001123951 -0.001051154 -0.000400941 -0.001625759 0.000334065 0.000188463 -0.001179291 0.002169459 -0.002542064 -0.002393208 0.001001918 -0.000212653 -0.002714864 0.002768598 -0.001258000 0.001915251 0.002663764 -0.000599381 0.002301497 -0.000129702 -0.000207017 0.001320253 -0.000225560 0.001320776 -0.000034505 -0.000549538 0.000959487 -0.002204380 0.001612731 -0.000121772 0.001036406 0.001095515 -0.003747324 -0.001446803 -0.000642883 0.003596756 0.000765737 -0.000753215 -0.001285583 -0.001665423 0.000643205 0.003056983 -0.000045174 0.002103830 -0.000278244 -0.001531669 0.000708069 -0.003000920 0.000261814 -0.000331093 -0.001156490 -0.000703415 -0.000701041 -0.001863280 0.001903246 -0.001362848 0.002900934 0.000935840 -0.001397176 0.001587774 0.003007940 -0.003438192 -0.001666572 -0.002337487 -0.001536767 0.000397030 -0.000956405 0.000864294 0.002568484 -0.002841281 0.001663888 -0.002539039 0.001412352 -0.002125450 -0.000323649 0.001838493 0.001109494 0.000134503 0.001977013 0.003197557 0.000049381 0.000706737 0.000811466 0.002995212 0.001837111 -0.000172204 0.002622374 0.002023572 0.000833265 -0.000251296 0.000577483 0.004315198 -0.001227903 -0.002372597 -0.002097835 0.001307014 -0.000227289 -0.004018102 -0.001459460 0.001323459 -0.003077168 0.000837779 -0.001204897 -0.001987847 0.002384901 -0.001101163 0.001086914 0.003104439 -0.001530941 0.001258787 0.001284580 0.001790097 0.001783228 0.000312914 -0.000444653 0.002322281 -0.001086977 -0.000306914 0.000468358 -0.000528481 -0.000768408 0.002974297 -0.000423522 0.000568722 0.000857467 -0.000135657 0.002222261 -0.001246004 0.002366485 -0.000857960 0.000895396 0.001745426 0.000841797 0.001183578 -0.000913237 0.001611625 0.002386453 -0.001554928 -0.000211675 0.000206131 0.001284054 -0.001494796 0.001485360 -0.000572404 -0.001928539 -0.001100707 -0.002484049 -0.001695619 0.001277653 0.001655858 0.000371120 0.000263002 0.003967612 0.007518613 -0.000383469 -0.000664583 0.001350417 0.001157605 -0.002472200 0.001392760 -0.001676352 -0.001373067 -0.001511590 -0.001129376 0.000588110 -0.002390282 0.000338346 0.001571544 -0.002288156 -0.000026171 0.001072678 -0.000542384 0.003071823 0.000700882 0.000269436 0.001842586 0.001024304 0.000012742 -0.003206435 0.003270380 0.002336343 0.001763858 0.002223173 -0.001055544 0.000583719 0.000748617 -0.000268207 0.000464558 -0.002440725 0.000945840 -0.004027040 0.001054532 -0.000105620 0.002937115 0.000469282 -0.001867697 -0.000025094 0.000694449 -0.000727310 0.000770622 0.001310145 -0.001785403 0.001299357 0.001652136 -0.001998704 0.000566161 -0.000176056 -0.000614428 -0.003156248 -0.004438354 0.000548081 0.000288622 0.000871561 0.001086750 -0.001087372 0.001941057 0.006108649 0.000700291 0.000997510 -0.000548807 -0.001264999 -0.001472404 -0.001682956 0.000187132 -0.000232198 -0.002226843 -0.000328792 -0.000220601 -0.001320505 0.002386209 -0.001912404 -0.001506113 0.000010539 0.000971680 0.001086335 -0.002095430 -0.002736423 0.000321217 0.000841108 -0.000337278 0.000496872 -0.002648751 0.000721732 0.002672846 0.000986587 0.003101111 -0.001945095 0.001759413 0.001845080 -0.002115320 0.001940526 -0.001864253 -0.002282347 0.001096071 0.004233358 -0.002930965
memory	0.003635586 0.001335031 0.004004772 0.005164384 -0.000997586 0.005072313 0.000834056 -0.002393955 0.001259193 -0.001672950 -0.002278233 0.002591095 0.001165840 0.002673425 0.000883421 -0.001634042 0.001476535 0.000026625 0.000849420 0.002986315 -0.001683398 0.003147316 0.001121855 0.003112543 0.001860954 0.001638963 0.000938392 0.002234585 0.002588412 -0.002452501 -0.002612989 -0.004547395 0.006543379 0.000552610 0.003235793 0.000868065 -0.003520140 -0.002541785 0.000042044 -0.001626862 -0.004262997 -0.001889492 -0.000288010 -0.000443801 0.002862007 -0.003578621 -0.001083585 0.000371475 -0.001975337 0.002439416 -0.002325697 0.001950823 -0.006780397 -0.001333706 0.000829385 -0.003808905 -0.002574772 0.002420526 0.000821406 0.000422215 0.002295209 -0.001649494 0.004019630 -0.000589538 0.000063963 0.002362181 0.002125403 0.003618454 0.000441849 -0.003807304 0.001977304 -0.002213009 0.000334852 -0.002229347 0.001344622 0.000733320 -0.001871631 -0.001816454 0.000655420 0.005069259 0.000503111 -0.001633051 0.000404423 -0.001681880 -0.000099412 0.006108148 -0.002636135 0.002088572 -0.000815476 0.000707230 0.002126378 -0.003584999 0.001469977 0.000193662 0.000004658 -0.000269524 0.000379425 -0.001030930 0.002278432 0.000256427 0.003159357 0.003564263 0.001858582 0.004179437 0.004837482 -0.002760346 -0.004113424 -0.003579919 -0.002299801 0.000728151 -0.003375289 0.002012155 0.003593012 -0.001328906 0.003669325 -0.000279109 0.000631351 -0.001802673 0.001418563 0.002016651 0.002528068 0.000560041 0.000869072 0.004133475 0.001347911 0.003530815 0.002223625 0.000896978 0.002398557 -0.000413502 0.000747582 -0.000238608 0.003668871 0.000757251 0.001734757 0.008618297 0.000165320 -0.002727539 -0.004207176 -0.001656294 -0.002125178 -0.006188071 -0.001999155 0.000679282 -0.002078181 -0.000517638 -0.000096820 -0.001606478 0.000710788 -0.002193143 0.002953201 0.003165533 -0.001844138 0.003478600 0.001406787 0.002006606 0.002680900 -0.000797789 0.002857614 0.002229725 -0.003023975 0.003007665 -0.000505307 -0.001708187 -0.000739722 0.001273958 -0.001053616 0.001181462 0.000440260 -0.001454019 0.005198320 -0.004560380 0.003644853 0.000944819 0.002316814 0.002561479 0.003293844 0.002964603 -0.001404988 0.001699808 0.002134721 0.000658347 0.001515605 0.003262906 -0.000385142 -0.001890418 0.003420114 0.001882709 -0.004530550 -0.001506929 -0.001030801 -0.000075911 0.000608465 0.002386385 0.001614782 -0.000941945 0.003923760 0.010281697 -0.001346838 0.000684761 0.003568216 -0.000205503 -0.002790242 0.001786542 -0.000700957 -0.001917193 -0.001799734 -0.001770841 0.002079117 -0.002261087 -0.002815034 0.004097311 -0.002674310 0.001976924 0.002117261 0.000457949 0.001726883 0.002719825 -0.002200336 0.001727069 0.002071651 0.002454903 -0.001911251 0.003930633 0.000992628 0.000846828 0.002662066 -0.001678252 0.000732907 0.000897297 0.001240960 -0.002371775 -0.003460342 0.000004765 -0.005684775 0.000269634 -0.001046170 0.001348473 0.001041579 -0.002731875 0.000401825 0.000422705 -0.002710586 -0.001332893 0.001496124 -0.001207897 0.002104816 0.003854538 -0.000263932 0.000915286 0.002288980 -0.001332509 -0.000973199 -0.005002701 0.001676962 0.001817622 0.002451901 0.004366866 -0.001477032 0.000281194 0.009272746 0.002775508 0.000773272 -0.000290316 -0.001808938 0.001270752 -0.001152760 -0.002041733 0.002194776 0.000176884 0.000953444 0.000349933 0.000450561 0.002469028 -0.001905018 -0.000718489 0.002788085 0.000512307 0.000162686 -0.003267671 -0.000178071 0.001222682 -0.001168326 0.000235024 -0.000843851 -0.005337728 -0.000221714 0.000884292 0.002114587 0.002018993 -0.000745644 -0.000003948 -0.000374607 -0.000265119 0.000862652 -0.001827287 -0.002741631 -0.000265748 0.002929730 -0.002928102
faster	0.002001031 0.000980430 0.005266487 0.004213735 -0.001375413 0.003258561 0.000573231 -0.002108730 -0.000639929 -0.000086141 -0.002173967 0.001636537 0.000563587 0.000849020 0.002221275 -0.000896699 0.000262709 0.000407898 0.000226545 -0.000336912 -0.002473210 0.003572463 0.000790050 0.003672682 0.003606086 -0.000219209 0.000032782 -0.000540946 0.001037221 -0.000866420 -0.000566644 -0.001843959 0.004988334 0.001847406 0.003190759 0.001076110 -0.002631066 -0.003425962 -0.002126077 -0.001886195 -0.002334213 -0.000202316 0.000281651 -0.001412461 0.001937599 -0.003209901 -0.002296509 0.000203399 -0.001621891 0.002605905 -0.000114268 0.001617177 -0.005525871 -0.002246777 -0.001394830 -0.002397532 -0.002978745 0.001302197 -0.001652300 0.002189687 0.001504840 -0.000296789 0.000629944 -0.002652203 -0.000433578 0.000833137 0.001360510 0.001675899 -0.000050937 -0.001630836 0.001156488 -0.002151542 0.000296187 0.000722433 -0.000074749 0.000407488 -0.002433909 -0.001715902 -0.001316439 0.001803183 -0.001169922 -0.001226039 -0.000349673 0.000093387 -0.001334663 0.005187104 -0.000023771 0.001449189 -0.002458004 -0.000946077 0.000999714 -0.001759262 -0.001265478 -0.000085287 0.001487594 -0.000238847 0.000466409 -0.000475192 0.002610791 -0.000064702 0.001483547 0.000845754 0.001406513 0.004698687 0.002381330 -0.001680325 -0.004419637 -0.002702522 -0.000191232 -0.001796942 -0.002394728 0.000520587 0.004708804 -0.002861515 0.000648060 -0.000621095 -0.001349856 -0.001981481 0.001153149 -0.000458147 0.001762100 -0.000397690 0.002809747 0.003471364 0.002980335 0.002149566 0.003437905 0.002590465 0.001473571 -0.000589936 0.003301690 0.000600086 0.000462131 0.000553435 -0.000072729 0.005059019 -0.000033870 -0.004067731 -0.004228934 0.001471023 -0.002291007 -0.004857331 -0.002644109 -0.000957738 -0.002527725 0.001211388 -0.000042699 -0.000491743 0.002408673 -0.000251688 0.003908867 0.004177492 -0.000250160 0.000433556 0.000758714 0.000835949 0.000985415 0.002239573 0.002826473 0.001398542 -0.003169971 0.002487809 0.000666055 -0.000710599 -0.000537196 0.001702299 -0.001392379 -0.001042256 0.000097821 -0.001162137 0.003606340 -0.001123279 0.000809400 -0.001143781 0.002354292 -0.000183760 0.001565933 0.002163888 -0.000883650 0.000638458 0.000613980 0.000079282 -0.000755233 0.001256461 0.001347895 -0.000151394 0.002934859 -0.000265121 -0.002525429 -0.001765549 -0.002893446 -0.002054924 -0.000483424 0.002284242 0.001518446 -0.001062305 0.003815192 0.009589843 -0.001197202 0.001363591 0.003313179 -0.000523254 -0.001995249 0.002351094 -0.001654920 0.000103844 -0.002679323 -0.001918127 -0.000754819 -0.002587251 -0.001104601 0.003960076 -0.002125533 0.000861363 0.000703770 0.000628184 0.002523190 0.001632559 -0.002531636 0.000868594 0.001941330 0.000864802 -0.002101807 0.002956046 0.001126251 0.000694098 -0.000025677 -0.000715651 -0.001984335 -0.001146846 -0.001516786 -0.001699639 -0.003102474 0.000635244 -0.004651009 0.001244821 0.000856320 0.002564797 0.001434791 -0.001070397 -0.000998273 0.001279341 -0.001417442 -0.000536798 -0.000327646 -0.001073289 -0.000013408 0.000640108 -0.002108815 -0.001094940 0.002783072 -0.001259390 -0.001640817 -0.005155156 0.000655324 0.001922681 0.001649896 0.003398994 -0.000866281 0.002174540 0.008019921 0.000229739 -0.000555877 -0.000221452 0.000840680 -0.001777245 -0.003071088 0.000552960 0.000662748 -0.001607495 0.001123556 -0.000464605 -0.001134886 0.000728703 -0.001937651 0.000272499 0.001740548 0.002546306 0.001717029 -0.003749377 -0.003129039 0.002142315 -0.000224798 -0.000705007 -0.002322618 -0.003199664 -0.000561069 0.000522461 0.001045402 0.002298179 -0.001816756 0.001054020 0.001657851 -0.001999548 -0.000527332 -0.002645149 0.000283962 0.001668426 0.005015506 -0.000740992
today	0.003084423 0.000265338 0.003699090 0.003523554 -0.002428584 0.001731848 0.000359090 -0.002944137 -0.000581297 -0.001624426 -0.001359360 0.002387165 -0.000286809 0.001955135 0.001422789 -0.001747305 0.000741711 0.000516470 -0.001200930 0.001397867 -0.000354321 0.002821606 0.000458430 0.000362423 0.002686460 0.000695333 -0.001260611 0.000456325 0.000778509 -0.001084588 -0.002085193 -0.003293923 0.004298456 -0.000371734 0.002586278 0.000751394 -0.000339552 -0.000092802 0.001285559 -0.001586686 -0.003076804 0.000498682 0.000841093 -0.000924527 0.000592373 -0.002716103 0.000114978 -0.002192256 -0.001521719 0.000746370 -0.001226009 -0.000233662 -0.003729743 0.000720513 0.000288521 -0.001947178 -0.003125852 0.002550859 0.000849788 0.001058773 0.000015573 0.000210443 0.002273123 -0.000602977 -0.002072286 -0.000388152 0.000964676 0.000011935 -0.000379342 -0.001364604 -0.000671938 -0.002698263 -0.001005153 0.001180540 0.000745131 0.002584092 -0.002727867 0.000489520 -0.001393988 0.000842827 -0.000132770 0.000018127 -0.001926979 -0.000818278 -0.001531164 0.002278438 0.000679242 0.000210741 0.000643817 -0.001664412 0.000281974 -0.001587607 0.000544772 -0.000688745 -0.001198867 0.002113841 -0.001001120 -0.000032412 0.002045357 -0.000647899 0.000778723 0.000316225 0.001573580 0.003833596 0.003853932 -0.003158747 -0.002208163 -0.001799139 -0.001010993 -0.000964721 -0.000381866 -0.001076382 0.001301407 -0.001264424 0.000144464 -0.001531094 -0.001229585 -0.001216202 0.001177880 -0.000655949 0.001809534 -0.001230451 0.002050984 0.001408948 0.002582429 0.001167521 0.000719103 0.001184123 0.000775224 -0.001667002 0.000434636 0.000032067 0.001497092 0.000856139 0.000829878 0.003361028 0.000341147 -0.001713923 -0.003646128 0.000784341 -0.000158446 -0.004265468 -0.001637480 -0.000718926 -0.001445247 -0.000243920 0.001002504 -0.000918253 -0.000225159 -0.002062299 0.001150172 0.002575015 0.000749537 0.002698346 -0.000410475 0.000686755 0.000059190 -0.000446544 0.001683389 0.002213815 -0.003681078 0.002578978 -0.001154380 -0.001762777 0.000262346 0.000498675 -0.000265337 -0.000052985 0.001392387 0.000367152 0.001846998 -0.000606274 0.000846702 -0.000137338 -0.000022456 0.000440904 0.002658936 0.000055728 -0.000295970 -0.001553892 0.002737120 -0.000744848 -0.001083258 0.000472141 0.000848341 0.000092607 0.000458301 0.001780255 -0.000969324 -0.000774041 -0.000760527 0.000058892 -0.000251502 0.001984328 -0.000656312 0.000415866 0.003230897 0.004530036 -0.001102293 0.000162636 0.000996209 0.000258703 -0.001308039 -0.000089191 -0.000568718 -0.000120103 0.000205822 -0.000312708 0.001650302 -0.002695196 -0.000454602 0.000778732 -0.001145192 0.001898351 0.000405327 -0.001660013 -0.000221182 0.001585572 -0.001662495 0.000637292 0.000528169 0.000003894 -0.002932257 0.003462237 0.002438252 0.001037605 0.001728230 0.000603652 -0.001691079 -0.000889945 0.000825829 0.001152307 -0.002937146 0.001227565 -0.003377456 -0.000557290 -0.000472863 0.001675452 0.001280815 -0.002204048 -0.000276183 0.001795707 -0.001972570 -0.000653101 -0.001395499 0.001099930 0.001876860 0.002595027 -0.001974069 0.000372256 -0.000446110 -0.001390730 -0.001573616 -0.001597135 -0.000475379 0.002458353 0.001267525 0.000625414 0.000038058 0.000924329 0.003983180 0.000908460 0.000641711 -0.000661764 -0.001323129 -0.001400893 -0.001885696 -0.000229357 0.000359175 0.000197944 0.000621053 0.000201062 -0.000066248 0.001789704 -0.001058962 -0.000938324 0.001605144 0.002542384 0.001595264 -0.000966535 -0.002172823 -0.000591778 -0.000494971 0.000344498 -0.000704692 -0.003038264 0.001312006 0.002934700 0.000495341 0.000737874 -0.000491021 0.000732185 0.001784959 0.000643294 0.002011654 -0.002449211 -0.002015329 0.001206353 0.002076821 -0.001074321
system	0.002419964 0.001276721 0.006072361 0.006309839 -0.001860876 0.004678258 0.004419552 -0.002131984 0.000042286 -0.001152958 -0.000894602 0.005588190 -0.001150101 0.003777675 0.000733149 -0.002931641 0.000208105 -0.001329582 0.002440229 0.002436326 -0.001603686 0.004472319 0.002906452 0.003763263 0.003739242 0.002015282 -0.001121095 0.001349353 0.000116064 -0.000758217 -0.003521147 -0.005557997 0.007758501 0.000650175 0.002678842 0.000538807 -0.004592163 -0.002544596 -0.000178134 -0.004622688 -0.004434900 -0.000551284 0.002166835 -0.001977497 0.002108649 -0.004621268 -0.002756335 -0.002561587 -0.002160321 0.001977932 -0.002289644 0.001889222 -0.008083588 -0.002649539 -0.002050725 -0.002484008 -0.004365813 0.001270946 -0.000992490 0.002376840 0.001838189 0.000145428 0.003186055 -0.001990146 -0.000136338 0.002438488 0.001374369 0.003266065 -0.000328324 -0.004798624 -0.000032264 -0.003066739 0.002358953 0.000214674 0.002155252 0.002434044 -0.004366657 0.000806464 0.001230325 0.004770274 -0.000350501 -0.002280747 -0.001902979 -0.001535875 0.000875004 0.006701679 0.000115353 0.004006510 -0.000073943 -0.001048225 0.004182377 -0.004674802 0.000315905 -0.001128636 0.001387840 0.002597085 -0.000124095 -0.001298876 0.002063677 -0.002733608 0.004008837 0.004684282 0.001043719 0.006800675 0.007139677 -0.003098572 -0.004579814 -0.005219449 -0.000858291 -0.001331217 -0.004228686 0.002765071 0.007373178 -0.003615034 0.003166764 -0.003257173 0.001069451 -0.003246443 -0.000944882 0.001304429 0.002278747 0.001759217 0.003498124 0.003200615 0.003386971 0.003012582 0.004322681 0.003463956 0.002785283 -0.001891895 0.002671868 0.000194043 0.003594580 -0.000159956 0.001999619 0.010805476 -0.000209974 -0.003164858 -0.006443537 0.001415461 -0.003648868 -0.005327662 -0.000208213 0.001410482 -0.002380885 0.001513212 0.000323757 -0.001678792 0.000820855 -0.001905082 0.002805411 0.003946636 -0.001196164 0.003554890 0.000137131 0.002590928 0.002686193 0.000059711 0.001242906 0.005504800 -0.004194639 0.002581160 -0.002117740 0.000032534 -0.001534568 0.004753649 -0.003249520 0.001442854 0.000785702 0.000415438 0.008755846 -0.005904661 0.004701162 0.000800647 0.003676900 0.001315551 0.004015363 0.002941285 0.000276296 -0.001355181 0.001458006 -0.000882094 0.002223528 0.002762154 0.000060328 -0.000557820 0.003946566 0.000432072 -0.005495798 -0.003319279 -0.001030813 -0.001137740 0.000615032 0.002460028 0.003223408 0.000522416 0.008046689 0.013612537 -0.001505919 -0.001251352 0.004957212 0.001196507 -0.004640776 0.002714775 -0.001015611 0.000023073 -0.003030821 -0.000945676 0.001257217 -0.004990059 -0.001458311 0.003550665 -0.004265040 0.004024312 0.002423214 0.001230525 0.001140909 0.002381254 -0.001017081 0.003051162 0.002570555 0.003091295 -0.003160242 0.006635149 0.002843838 0.002445578 0.001944939 0.001227920 -0.000816496 -0.000689916 -0.000762772 -0.001724447 -0.005181583 0.000937509 -0.008095521 0.000758892 -0.000904747 0.004496196 0.000355513 -0.003328444 -0.001772614 -0.000505016 -0.001764324 -0.000285982 0.000425981 0.000009513 0.000667346 0.003103382 -0.002421402 0.000390018 0.000710102 -0.001358237 -0.004155726 -0.007963532 0.000960500 0.004667190 0.001021543 0.005645557 -0.000589243 0.001522807 0.010616395 0.003871491 -0.001106874 0.002062290 -0.002029292 0.000489343 -0.002093586 -0.000488242 0.001066941 -0.002412050 0.000609585 -0.000357944 0.000913409 0.002204034 -0.003468114 0.000674968 0.003385897 0.002384324 0.001204056 -0.005188461 -0.000929101 0.000143597 -0.000574634 -0.001585297 -0.001251346 -0.004187848 0.000747103 0.004462134 0.000337456 0.003367395 0.000811028 -0.000208470 0.000050592 -0.001432050 0.000202825 -0.003204511 -0.001642133 0.002047132 0.005932457 -0.003494199
mac	-0.000383731 -0.000391851 0.000550723 0.002945377 -0.000294655 0.002588817 0.000939110 0.000455466 -0.001230567 0.001112821 0.000107550 0.002479775 -0.000673041 0.001475034 0.000802776 -0.000621614 0.001165232 -0.000374275 0.000912450 -0.000220888 -0.001398311 0.001273478 0.002011602 0.000076994 0.002127771 0.000758991 -0.000702506 0.000125565 0.001330327 -0.000878439 -0.001171354 -0.001202492 0.002010357 0.000013399 -0.000401867 0.000495253 -0.000966792 -0.002259714 -0.000608737 -0.003011205 -0.002417025 -0.000687274 0.000641836 -0.002006371 0.002437950 -0.002033448 -0.000257824 -0.001070714 -0.002063290 -0.001023329 -0.000729875 0.001441436 -0.003219661 0.000734774 0.001080755 -0.002544026 -0.001996899 -0.000864379 -0.000580527 0.000098773 -0.000131310 0.000280536 0.000558475 -0.001979502 0.000040733 0.001863047 0.000204050 0.000621602 -0.000818660 -0.002570644 0.000991066 -0.002487023 0.000421930 0.000023868 0.000473357 0.001798544 -0.003029296 -0.000868270 0.000473118 0.001758166 -0.001435192 -0.000882251 -0.001221394 -0.000219668 0.000379522 0.001537032 -0.001569989 0.000335616 -0.000191862 -0.000344776 0.001030565 -0.002098302 0.001281342 -0.000939862 -0.000231020 -0.000741481 -0.000281723 -0.001805993 0.001141927 0.000200689 0.002491896 0.000574813 -0.000282842 0.001808216 0.001258423 -0.001580099 -0.000447084 -0.002493213 0.000743571 -0.000671062 -0.002450789 -0.001125135 0.001314478 -0.001700101 0.000752587 -0.000017412 0.000212376 -0.001889647 -0.000142316 0.001093805 -0.000605150 0.000407376 0.002071243 -0.000072527 0.002258945 0.000083880 0.000701701 0.000338765 0.000486135 0.000074004 0.000145936 -0.000673771 -0.000217065 0.000598259 0.000411624 0.003925023 0.001519276 -0.000799730 -0.001079035 -0.000850326 0.000342323 -0.002473078 -0.000655765 0.000153264 0.000329765 0.000254265 0.000917304 -0.000723638 0.001583836 -0.002002572 0.000889332 0.001015670 -0.000262712 0.002378416 0.001444605 0.001233399 0.001171981 -0.000005663 0.001331689 0.001574664 -0.002188074 0.001594142 0.001337880 -0.000187400 0.000028559 0.001650859 -0.002545586 0.001599127 0.002050805 0.000468038 0.003071902 -0.001304772 -0.000222765 0.000923937 0.001363884 0.000689313 0.001981234 -0.000007040 -0.002038621 -0.000553283 0.000398987 -0.001291981 0.001456080 -0.000890874 -0.000457959 -0.001109555 0.001442900 -0.001109186 -0.002043932 -0.001443806 0.000620055 -0.001566128 -0.000534966 0.001320591 -0.000323285 0.001039087 0.002840639 0.005279887 -0.000441901 -0.001729718 0.001107073 -0.001549223 -0.000308224 0.000899118 -0.000798086 -0.000966304 0.000516836 -0.000468781 -0.000596754 -0.001978665 -0.001051903 0.001946572 -0.002116906 0.000598069 -0.001122297 -0.000301598 -0.000499452 0.001712766 -0.000096099 0.002649380 0.000070992 0.002537565 -0.001382821 0.003055256 0.001607542 0.001509125 0.001533350 -0.000585743 -0.000718207 0.000982883 -0.000241508 0.001220536 -0.000916520 0.000196570 -0.000567780 -0.000734848 -0.001341527 0.001548425 0.000345206 -0.000752259 0.000424309 0.000413262 0.000792540 0.000423819 0.000941238 -0.001032120 0.000144768 0.001889051 0.000508299 -0.000990911 0.002098839 -0.001478725 -0.001471492 -0.001596782 0.000244092 0.000092523 -0.000392719 0.002155827 -0.000389412 0.000770964 0.004710956 0.001719013 0.000488104 0.001390441 0.000162293 -0.001091586 -0.001898662 -0.000833456 0.000541527 -0.000887349 0.002134034 -0.000518788 -0.000795932 -0.001005100 0.000147982 0.000398112 0.001210774 -0.000236994 -0.000605357 -0.002985978 0.000145171 0.001370090 -0.000195565 0.000466068 0.000341027 -0.001761900 -0.000445105 0.000560206 -0.000129802 -0.000392483 -0.000836584 -0.001169707 0.001076618 -0.000471276 0.000869795 0.000372137 -0.001905434 0.000699098 0.001229965 0.000639885
answer	0.004135965 -0.000013976 0.005527245 0.003488040 -0.002270053 0.001810299 0.003494979 -0.001109342 0.001056020 0.000904977 -0.000002651 0.001842490 -0.000050057 0.001093813 0.002204765 0.000088901 -0.000775194 0.000676558 -0.000676849 0.001240558 -0.001815523 0.002622060 0.001220957 0.004088659 0.002622209 0.002310405 -0.001763361 -0.000098991 0.002235668 -0.002678757 -0.002367996 -0.003493583 0.005505392 0.000711977 0.003744564 -0.000922884 -0.003018838 -0.003558825 0.000250877 -0.002733311 -0.002907461 0.001070080 -0.000070088 -0.001991198 0.002012378 -0.003946234 -0.000890956 -0.000796760 -0.002526587 0.001244123 -0.002775666 0.002927686 -0.006863084 -0.002459999 -0.000416290 -0.002220312 -0.002017758 0.000165331 -0.000860966 0.001715400 0.002242357 0.000405516 0.003709295 -0.000989210 0.000583152 0.001316325 0.002347127 0.002463316 -0.000778521 -0.001383489 -0.001059363 -0.003535926 0.001755669 -0.001827379 0.001043415 0.002325269 -0.004252247 0.001506472 0.001258228 0.002593267 -0.000515671 0.000685515 -0.000277865 -0.002429553 0.000837020 0.004595293 -0.001721477 0.001573030 -0.000633180 0.001285257 0.002473422 -0.001216650 0.001281775 -0.001066547 -0.000827835 0.000267458 -0.001218515 0.000820396 0.000240791 -0.001046429 0.003484284 0.002843659 -0.001283353 0.005175422 0.004271874 -0.000804765 -0.002038586 -0.002813295 -0.000007886 -0.001803486 -0.000345215 0.002341464 0.005273455 -0.001931297 0.001520412 -0.000500601 0.000370610 -0.003198710 0.001441761 0.000810156 0.001301565 0.001343959 0.002612601 0.001774152 0.002354033 0.003491309 0.004296552 0.003483910 0.002088630 -0.001316573 0.003461150 0.001293399 0.001114918 0.001000129 -0.000459033 0.006840426 -0.000642628 -0.001302789 -0.004916717 -0.001079104 -0.000018630 -0.004025616 0.000338336 0.001874666 -0.002365538 0.000439644 -0.001548956 -0.000296454 -0.000587084 -0.001319679 0.002202441 0.003296294 0.001039383 0.001214033 0.000317411 0.002843149 0.002789963 0.000418178 -0.000204864 0.003863579 -0.004635195 0.002723841 -0.001304433 -0.000959732 -0.001355051 0.002840783 -0.002675088 0.001050528 0.000646196 -0.001523245 0.003439594 -0.003103189 0.002009372 -0.001141488 0.001382932 -0.000138955 0.001924154 0.000759177 0.000597615 -0.001616486 0.002313525 -0.000329344 0.002537753 0.000156151 0.001198434 -0.001750733 0.002632918 0.001965984 -0.003842131 -0.003119173 -0.002635217 -0.001352428 -0.000903522 0.000393367 0.001541312 -0.001299758 0.003724153 0.007966746 -0.001522529 -0.000836190 0.001430584 0.001664897 -0.004256921 0.000534630 -0.001586433 -0.000132257 0.000262742 -0.002848704 0.000962473 -0.002861951 -0.000981657 0.002948887 -0.003507196 0.002110363 0.000511803 0.000416710 0.000963162 0.000546024 -0.002668598 0.002088837 0.002667537 0.003003213 -0.002679734 0.003767474 0.000900241 -0.000006423 0.001927069 0.000001439 -0.000090198 0.000092723 0.000596684 -0.001114970 -0.001579449 -0.000114044 -0.003881222 0.000402058 -0.000809890 0.001973174 -0.001116001 -0.000092149 -0.001817687 -0.000085960 0.000075701 -0.001537281 0.001860413 0.000858757 -0.000088636 0.000364378 0.000296132 0.001212471 -0.000021337 -0.000722519 -0.001396537 -0.005448421 0.001363013 0.002696519 0.002913915 0.004147116 -0.000370372 0.002031211 0.005627188 0.001830930 -0.002077897 0.001776282 0.001264160 -0.001204794 -0.000368023 -0.001491019 0.000975843 -0.001924879 0.001138382 -0.001327708 0.001273173 0.001390542 -0.002635435 -0.000972264 0.002084926 0.001749993 0.001798013 -0.002392978 -0.000598650 0.002069345 0.000772370 -0.000069389 -0.000259578 -0.003548488 -0.001018357 0.001768247 0.001959740 0.003874908 -0.000977865 0.002345481 0.001648917 -0.002078319 -0.000216182 -0.000757827 -0.002426198 -0.001042798 0.003907688 -0.002466836
cs	0.004949999 0.000798268 0.004685726 0.004650938 -0.002674370 0.003747049 0.004450818 -0.002238830 0.000502842 -0.000349903 -0.001607724 0.004962086 0.000522773 0.002581571 0.000560705 -0.002892793 0.001988218 -0.000349603 0.000485503 0.001824464 -0.002080908 0.006152775 -0.000574554 0.004429720 0.004568110 0.002174844 0.000832944 0.000821567 -0.000251181 -0.001757794 -0.004236213 -0.005404951 0.006087070 0.002347547 0.004318220 -0.000572816 -0.002246362 -0.003726999 -0.000180293 -0.002542492 -0.004684994 -0.001247326 0.002326721 -0.001956331 0.004461673 -0.005398537 -0.001290968 -0.000172456 -0.003664737 0.000385455 -0.001917135 0.002614021 -0.007896538 -0.002727779 -0.001574897 -0.001633432 -0.003588139 0.001054312 -0.000875155 0.001611869 0.003185219 -0.001456025 0.002577917 -0.002762656 -0.001244974 0.002002067 0.002162879 0.003177712 -0.000620620 -0.003729641 0.000688238 -0.003383075 0.002018875 -0.000789851 0.000743430 0.003509698 -0.005441512 -0.001875217 -0.000025295 0.003124450 -0.000337024 -0.002358986 0.000101926 -0.002748278 -0.000271869 0.007485664 -0.002494086 0.002997056 -0.000447678 -0.001485744 0.004036529 -0.002137451 -0.000347210 -0.001609858 -0.000921763 -0.000228714 0.000589394 0.000871942 0.002006334 -0.001036494 0.002421515 0.001698348 -0.000285649 0.004524675 0.004916012 -0.004167985 -0.005088561 -0.003557163 -0.001782679 -0.001076475 -0.001553390 -0.000511007 0.005899471 -0.001546434 0.003894219 -0.002132874 -0.001914137 -0.004128553 0.000766678 0.001386093 0.002784048 -0.000093473 0.003740260 0.001824345 0.003238688 0.002577837 0.003662731 0.003904984 0.004755790 -0.002830977 0.001460100 0.001394073 0.002122887 0.000247872 0.000486805 0.008264841 -0.001411145 -0.004451308 -0.005717858 0.000026948 -0.003377893 -0.004425497 -0.002107924 -0.000531089 -0.003088299 0.000838370 0.000534403 0.000179151 0.001358562 -0.003004967 0.001488163 0.003245439 -0.000336119 0.003637996 0.002692930 0.004578513 0.003485425 0.000639833 0.003019824 0.001973352 -0.003044547 0.001427344 0.000302338 0.000542967 -0.001858814 0.001613543 -0.003265798 -0.001313379 0.002401139 -0.000303727 0.006818884 -0.005279995 0.003954191 -0.001928632 0.001112352 0.001537487 0.001757922 0.002278670 -0.002244624 -0.001556773 0.002543803 0.000752838 0.001777096 0.001356964 0.000939636 -0.001995546 0.001250295 0.000477313 -0.003002045 -0.001278471 -0.001305215 -0.001508230 -0.001589232 0.003660048 -0.000219092 0.000623714 0.007384793 0.011810714 -0.002989508 -0.000003869 0.002645255 -0.000634245 -0.005287137 0.003244986 -0.000485046 -0.000002857 -0.000821876 -0.000955767 0.001465614 -0.002147126 -0.001064555 0.004508197 -0.004154726 0.002907695 0.000093123 0.000672462 0.001423540 0.000805960 -0.002387173 0.001266868 0.001298744 0.001528203 -0.001261879 0.005049042 0.001420405 0.000517985 0.001037549 0.000813274 -0.001212318 -0.000041366 -0.000693280 -0.001518435 -0.004995372 -0.000253448 -0.007185291 0.001072209 -0.000780404 0.001635859 0.001489984 -0.000579208 -0.000376759 0.000640612 -0.000522538 -0.002816275 -0.000619349 -0.001411134 0.000360658 0.004014305 -0.002069044 -0.000732721 0.001258998 -0.001757233 -0.003199001 -0.006528432 0.000516055 0.002258355 0.002333739 0.004833082 -0.002676347 0.000547696 0.008090469 0.002066299 -0.000107721 -0.000406415 -0.000902895 -0.001377186 -0.002885920 -0.002052458 0.000819421 -0.000854053 0.001321652 0.001174196 -0.001443279 0.001712143 -0.003501963 0.000710284 0.000481392 0.002208380 -0.000070045 -0.004762106 -0.002388469 0.002388764 -0.000093331 0.001182610 -0.000934806 -0.004233748 0.001272936 0.004345582 0.000204736 0.004765547 -0.001027439 0.001851133 -0.000206191 -0.002177542 0.000318468 -0.001846102 -0.002832300 0.001888069 0.005566124 -0.001209917
university	0.001414164 -0.000623896 0.005649271 0.003162718 -0.001681838 0.004809654 0.001080245 -0.002571145 0.000403969 -0.001542789 0.000229753 0.003941922 0.000587662 0.000194026 0.000440955 -0.002426550 -0.000018517 0.000673575 -0.000000718 0.002251334 -0.000685063 0.004477199 0.002444027 0.003698717 0.004196738 0.000024224 -0.000702259 0.002033496 0.001938843 -0.002513420 -0.001272402 -0.004026815 0.004522542 0.001502380 0.003233689 -0.000064312 -0.000966674 -0.001412520 0.000214006 -0.003981778 -0.003357639 -0.001007814 -0.000636658 -0.001555613 0.003844542 -0.002754349 -0.001377087 -0.000009294 -0.003051818 0.002966109 -0.000222921 0.002425285 -0.006651827 -0.000594265 -0.002056192 -0.000815046 -0.001739261 0.002335338 -0.002026102 0.001306861 0.002127778 0.000056546 0.001650538 -0.002057738 0.000302440 0.001383442 0.000429313 0.001882776 -0.000038435 -0.003387505 0.001912698 -0.004744310 0.002310583 -0.002089724 -0.000878295 0.001605092 -0.001849099 -0.000841997 0.000539028 0.004067698 0.000050728 -0.001536400 0.000404208 0.000461473 0.000860388 0.005876329 -0.000198826 0.002441656 -0.000407438 0.001496157 0.002565305 -0.002671579 0.001058729 -0.000562129 0.000547732 0.002367286 0.000221765 0.001148973 0.002994336 -0.001885952 0.001687251 0.002845922 -0.000530643 0.003095485 0.003702777 -0.003138379 -0.004300058 -0.004053321 -0.000253340 -0.001290960 -0.001352743 0.002222472 0.004218359 -0.002868530 0.001187443 -0.001740885 0.000905172 -0.002622845 0.000473898 0.001984892 -0.000057759 0.001401713 0.001865001 0.000966027 0.002011552 0.000254724 0.004537156 0.002125049 0.001360993 -0.000329750 0.000508596 0.001981302 0.001533281 0.000066578 -0.000076861 0.005593844 -0.001064287 -0.001772108 -0.004393353 0.001026566 -0.000566639 -0.003973477 -0.001874787 -0.001309676 -0.001474320 0.001881595 -0.001672347 -0.000695913 0.001702276 -0.000526967 0.002284568 0.002644475 -0.002075396 0.001664484 0.000756250 0.002562920 0.002744561 0.000135753 0.003291735 0.001512827 -0.004458258 0.002504524 -0.000771930 0.000768254 -0.002070156 0.001890407 -0.002712527 0.001307506 0.000255536 -0.000461291 0.005668743 -0.002404890 0.001216841 -0.000172982 0.000631023 0.002878729 0.001413145 0.001163465 -0.002145442 -0.000155875 0.000405572 -0.001070322 0.000944242 0.000943845 0.001063951 -0.001912016 0.001265715 0.000737466 -0.001693574 -0.000492775 -0.002055888 -0.001679588 -0.001556252 0.001090379 0.002113329 0.000329746 0.003237313 0.008907815 -0.001787963 -0.000105773 0.003554410 -0.001571755 -0.004537143 0.002398451 -0.001273287 -0.001697261 -0.001296991 -0.002874772 0.001434815 -0.002675656 -0.001470885 0.002273133 -0.000875764 0.001179025 0.000550998 -0.001597309 0.002882442 0.001531461 -0.001655437 0.003251076 0.000945941 0.002048919 -0.000569332 0.002768115 0.002299258 0.002514527 -0.000153864 -0.000665655 -0.001784330 -0.000381384 0.001162937 -0.002101584 -0.001853332 -0.000919302 -0.004159941 -0.000939246 -0.000969228 0.003674365 0.001235698 -0.002807538 -0.000013123 -0.000621721 -0.001988600 -0.001236736 0.000100585 -0.001808588 0.001120829 0.002364365 -0.001210831 -0.001026820 0.000478403 -0.002619038 -0.001793370 -0.005835550 0.001010730 0.001973727 0.003014315 0.001528628 -0.002326442 0.001175238 0.008396872 0.002280572 0.000010930 0.001227410 -0.000808423 -0.001805298 -0.000200182 -0.000726985 0.000922213 -0.000638014 0.002249972 -0.001056470 0.000547963 0.001124275 -0.001571043 -0.000032307 0.002869277 0.000790925 0.002404095 -0.002626712 -0.001525227 0.001412543 -0.000585136 0.001608601 -0.000488933 -0.004619065 0.001963033 0.002845617 0.002525151 0.001387832 0.000428314 0.002105805 -0.000567381 -0.001766721 0.001883464 -0.001297049 -0.001112945 0.002050892 0.004980215 -0.002141869
department	0.003009949 0.000917069 0.002354817 0.001008165 -0.001290208 0.003621189 0.000489461 -0.003098869 0.001377062 -0.000028042 -0.000256835 0.002297389 -0.001836859 0.002053193 -0.000152550 -0.000658764 0.001428491 -0.000467198 -0.001020593 0.001280992 -0.002108796 0.003221583 0.000107177 0.003602282 0.002123385 0.002381396 0.000872142 0.000186644 -0.000442599 0.000632467 -0.002019212 -0.003623761 0.003482824 0.000954802 0.001628132 0.001920135 -0.002805516 -0.002587104 0.000979595 -0.002761768 -0.001157534 0.000844464 0.001905251 -0.002063880 0.002624738 -0.001266790 -0.000911380 -0.001971786 -0.002590157 0.000581811 -0.000420258 -0.000470385 -0.002625550 -0.000172832 -0.000316535 -0.000810383 -0.000559615 -0.000308677 0.000421104 0.001117647 -0.000202077 -0.000724209 0.000941629 0.000141576 -0.001320858 0.001544764 0.000421965 0.003066076 -0.000624247 -0.002937730 -0.001274877 -0.000788572 0.001379109 -0.001065826 0.001717139 0.000901682 -0.000446952 -0.001025203 0.000481510 0.002639781 0.001115749 -0.000690203 -0.001501221 -0.002235473 -0.001066860 0.004651427 0.000764536 0.001441712 -0.001005752 0.001458541 0.001750552 -0.002203697 -0.001634536 -0.001072873 0.000304465 -0.000454332 0.001104199 -0.001634752 0.000464208 -0.002008200 0.001862746 -0.000008563 0.000561728 0.003413872 0.002816678 -0.002565883 -0.003078284 -0.003817440 0.001186810 0.001158982 -0.000248542 -0.000407068 0.003370107 -0.002624572 0.001765564 -0.001541253 -0.000828817 -0.000654364 -0.000201968 0.001721172 -0.000437960 -0.001108807 0.001359555 0.002777267 0.002361768 0.001941288 0.001922429 0.001375173 0.002511306 -0.001000223 0.002438662 -0.000720608 0.000563523 0.000102406 0.001721651 0.005885739 -0.000685072 -0.003135106 -0.002989098 -0.001636848 -0.000640683 -0.001773530 -0.002062137 0.001063124 -0.002917832 -0.001224329 0.000842675 -0.000614720 0.001553529 -0.000367843 0.000876667 0.001461252 -0.000142296 0.000963652 -0.000137447 0.000862338 0.001708032 -0.001087945 0.000859155 0.002661955 -0.002798265 0.001526659 0.000367052 -0.002174174 -0.002148422 0.002541753 -0.001212887 0.000736442 0.001272075 -0.000251285 0.002109381 -0.002637567 0.001182205 0.001277020 0.001381334 0.002133725 0.001213576 0.001497267 -0.002311894 0.001673770 0.000817653 -0.001015650 -0.000748223 0.000070268 0.000092483 -0.000303688 0.001214610 0.000333924 -0.003055780 -0.001089398 -0.000233918 -0.001953755 0.000661676 0.001050238 -0.000689319 0.000749717 0.003965931 0.004254604 -0.000291309 0.000171049 0.003351486 0.000627948 -0.003669615 0.000150185 0.000705543 -0.000311591 -0.001367253 -0.002827327 -0.000869938 -0.002223742 -0.001391754 0.002266673 -0.000066826 0.000256887 0.001147285 -0.000552703 0.000771843 0.001864598 -0.000910939 0.000774019 -0.000068119 0.002714372 -0.002118662 0.001803671 0.001476596 0.000346888 -0.000986380 0.000971848 -0.001504167 0.000173078 0.000991887 0.001072528 -0.001159817 0.001249515 -0.003867617 0.000669322 0.000816176 0.000337688 0.000072816 0.000415439 -0.001791018 0.001410848 -0.001804182 0.000796470 0.001478460 -0.002057638 0.001144902 0.002261454 -0.001695827 0.000083618 0.000430384 -0.000180792 -0.000329109 -0.002320758 0.001631095 0.003067151 -0.000412489 0.002723771 -0.001776539 0.000788561 0.005314215 0.002599979 0.000960369 -0.000823557 -0.001542073 -0.000584259 -0.000594834 -0.001860809 -0.000180571 -0.001832356 -0.000386174 0.000203326 -0.001014295 0.002042835 -0.001686777 -0.001403685 0.002308839 0.000075772 0.001583079 -0.002574515 -0.002679300 -0.000450650 -0.000627989 0.001562963 0.000324299 -0.003123171 0.001253332 0.002992810 -0.000682032 0.002963810 -0.000389834 0.001380299 0.001758528 0.000237192 0.001834885 -0.000068916 0.000511233 0.000884135 0.002236025 -0.001658292
computer	0.003962708 -0.000282870 0.005884181 0.003697893 -0.002451279 0.002760027 0.001825748 -0.003169561 0.000334268 -0.000082193 -0.001344036 0.004945341 -0.000203324 0.001310451 -0.000057015 -0.002110569 0.000972194 0.000558232 0.001976436 -0.000088389 -0.003294408 0.003104787 0.000720085 0.004610008 0.002846817 -0.000401450 -0.000048367 0.002274767 0.000480539 -0.002303077 -0.002582118 -0.002994309 0.003917981 0.000515005 0.004093697 -0.000411091 -0.003151232 -0.000974487 -0.001252122 -0.001785570 -0.002876622 -0.000289238 0.001287341 -0.002313571 0.001255562 -0.004028255 -0.002592437 -0.001853613 -0.000741284 0.002556975 -0.001796289 0.000241059 -0.006311753 -0.002010794 -0.000226632 -0.003177329 -0.003857392 0.001332949 -0.000312866 -0.000468504 0.000251159 -0.001482917 0.000729214 -0.001031475 -0.000246484 0.000478367 -0.000802870 0.000973554 -0.000376818 -0.001520036 0.000669816 -0.002011218 0.000746804 -0.000548175 0.000005771 0.003173311 -0.001916022 -0.000334023 0.001064994 0.002046677 0.000960298 -0.000997840 0.000275439 -0.001695701 -0.001278683 0.003990203 -0.000159610 0.001683714 -0.000589139 -0.000150825 0.002202560 -0.002753028 -0.001650162 0.000938071 0.000126937 0.002109582 -0.000707268 -0.000240122 0.000134527 -0.000297137 0.002973103 0.001188277 -0.000161782 0.003497058 0.005538583 -0.001049584 -0.002997184 -0.004517453 -0.000333637 -0.001142374 -0.002692293 0.001573045 0.005774321 -0.002857353 0.002783679 -0.000594146 -0.001413644 -0.002708848 0.000999851 0.002452675 0.000561603 -0.000673918 0.003811945 0.000995190 0.002768540 0.000627100 0.002983229 0.002006775 0.003062035 -0.002320582 0.001781354 -0.000101429 0.001327113 -0.000647972 0.002498773 0.006104297 -0.000053937 -0.002190005 -0.004329090 0.000721723 -0.000243751 -0.005169027 -0.002030964 0.001413099 -0.002130899 0.001162692 0.000212925 -0.000167170 0.000622773 0.000254658 0.003080221 0.003857755 -0.000787437 0.000919821 0.000023947 0.003563107 0.003140488 0.001359012 0.001278491 0.001686633 -0.003766815 0.003201277 -0.000733645 -0.000967512 -0.000745105 0.001783040 -0.001589467 0.000583182 0.000779940 -0.001028546 0.003560629 -0.002927671 0.002273691 -0.000132562 0.000397372 0.001273449 0.003259568 0.002130668 -0.001508688 0.001417964 0.002456020 -0.001935943 0.002189635 0.003265455 0.000293486 -0.001317900 0.000290916 0.002594274 -0.003958891 -0.000182666 -0.003241865 -0.001888714 0.000252467 0.001031825 0.001197539 0.000414858 0.005719588 0.009256593 -0.000852353 -0.001470797 0.001928208 0.000253492 -0.001954435 0.002765072 0.000548239 -0.000946216 -0.000326310 -0.001127393 0.001578968 -0.001594039 -0.000385046 0.004565647 -0.003625712 0.002586505 0.002358646 -0.000056855 0.000454034 0.001693490 -0.000908481 0.002492399 -0.000192048 0.003369822 -0.001411366 0.003912184 0.001637171 0.002492076 0.002248574 -0.000198324 0.001073550 -0.000287326 0.001161171 0.000721305 -0.004504370 0.000095223 -0.006665111 -0.000090295 0.000415295 0.001236931 -0.001488962 -0.002851364 -0.000210463 -0.000171466 -0.000069998 -0.000460824 0.000908866 -0.001626828 0.000817485 0.001381310 -0.000105683 0.000185294 0.001016168 -0.002857953 -0.002688746 -0.004317219 0.000380609 0.001089529 0.002768049 0.002888958 -0.002717054 0.000313976 0.007644192 0.001797309 0.000676233 -0.001022085 0.000874069 -0.000995392 -0.000935790 0.000704440 0.000172690 -0.001654328 0.000660217 -0.001159314 -0.001914664 0.002684399 -0.000932166 -0.001522071 0.000045051 0.001991010 0.000910359 -0.004297831 -0.001522130 0.000851271 -0.001829975 0.000385943 -0.001668460 -0.003474639 0.001186537 0.001639209 -0.000109983 0.003552304 -0.000721935 -0.000146586 -0.000018006 -0.002133827 0.001352496 -0.003612800 -0.002130184 -0.000913998 0.002774215 -0.002794340
science	0.002936200 -0.000884371 0.004252768 0.003013855 -0.002545129 0.002063119 0.001275087 -0.001650196 -0.000608698 -0.001118264 -0.002167341 0.004851721 0.001123588 0.003101432 0.001305835 -0.001652290 -0.000779070 -0.000325341 0.001743198 0.003007892 -0.000869285 0.003219043 0.001433155 0.004194101 0.004448276 0.000567311 -0.001472026 0.000207342 0.001963835 -0.001508865 -0.003175803 -0.003362226 0.006231422 0.002632623 0.004266328 0.000150806 -0.003833359 -0.002899251 -0.000991725 -0.001935039 -0.002280233 -0.001400966 0.000997279 -0.000482128 0.003534697 -0.004351580 -0.003502438 -0.002495728 -0.000626650 0.000844037 -0.000377406 0.001974946 -0.006605305 -0.002126092 -0.001523503 -0.002397639 -0.002923323 0.000124668 -0.001570262 0.002383614 0.003231494 -0.000587304 0.001556272 -0.000782915 -0.000907737 0.001999440 0.001096679 0.002457634 -0.002157195 -0.003846179 0.002012616 -0.003663663 0.001002213 -0.000795311 -0.000816205 0.001743638 -0.003253296 -0.001587131 0.000459619 0.005126427 -0.001125965 0.000005393 -0.000112644 -0.000498074 0.000801171 0.003995828 -0.001000217 0.001747096 0.000293312 -0.001623347 0.002277687 -0.002515657 0.001529532 -0.002115219 -0.000761937 0.001146787 -0.001163043 -0.001513993 0.002293555 -0.002831671 0.001383313 0.001321773 -0.001310651 0.005291000 0.004315342 -0.001687738 -0.004325178 -0.002568420 -0.000611075 0.000536004 -0.000804209 0.002334601 0.004052131 -0.001177899 0.002906048 -0.001509738 0.001390982 -0.000981488 0.000710261 0.002136092 -0.000018486 0.001115293 0.001386043 0.003536726 0.000611265 0.001664390 0.004833878 0.002468036 0.002543642 -0.000235369 0.001370991 0.002021158 0.002665436 -0.000089376 0.000646541 0.008059657 -0.001036193 -0.004000492 -0.004827605 -0.001461783 -0.000625309 -0.005614717 0.000500186 -0.000864898 -0.003544513 0.001884093 -0.001648710 -0.000541547 0.000183435 -0.000603935 0.004013954 0.003625962 -0.001091208 0.001751611 0.000956414 0.003241464 0.002474810 -0.000301254 0.000330448 0.002375356 -0.004288398 0.003193930 -0.001860380 -0.002138761 -0.000387025 0.003813205 -0.003370194 -0.000299952 -0.000056791 0.000754824 0.004874351 -0.004897380 0.003329002 -0.000235866 0.002607771 0.002850531 0.003469458 0.002756130 0.000088651 -0.001407434 0.001918677 0.000273877 0.000425827 0.003332707 -0.000827793 -0.001867577 0.003301176 0.002036057 -0.002372665 -0.002100121 -0.001980447 0.000793964 -0.002194210 0.001433209 0.002635166 -0.001572807 0.005534510 0.009469487 -0.001019937 -0.000073389 0.004385686 -0.001592618 -0.002157790 0.002650419 -0.000101474 -0.001873165 -0.001214644 -0.002241238 -0.000397207 -0.002165152 -0.000634222 0.003359364 -0.003869979 0.000971059 0.000492970 -0.001547889 0.003668760 0.000898154 -0.002861926 0.002587932 0.002620077 0.000978328 -0.003283631 0.005185639 0.003082498 0.001097118 0.001477821 -0.001842370 -0.002045677 -0.000376716 -0.000784677 -0.001001363 -0.004791968 0.001174037 -0.005806170 0.000591568 -0.001577526 0.002756089 -0.000190163 -0.002964013 -0.001440520 0.001712393 -0.002481871 -0.000737500 0.001399080 -0.000728194 0.000044235 0.003090728 -0.000282374 -0.000915258 0.001946821 -0.001412297 -0.001182008 -0.005829602 0.001800772 0.002733446 0.003268830 0.002108504 -0.001262040 0.001958081 0.009170649 0.003152426 -0.000429967 -0.000804610 0.000702533 -0.000878821 -0.000403944 -0.000551154 0.000039787 -0.001295469 0.000507226 -0.001298619 -0.000692740 0.002676644 -0.002583903 -0.000198776 0.002212004 0.003011395 0.000373708 -0.003332208 -0.003311816 0.002129726 0.000002870 0.001404816 -0.000786855 -0.005941850 0.001663797 0.000977633 0.000092217 0.002149675 0.000946669 -0.000660705 0.000294437 -0.000616318 0.000957772 -0.002248426 -0.001718924 -0.000695178 0.003858035 -0.002495460
figure	0.001665566 -0.001313442 0.003091296 0.002614510 0.000143534 0.001626963 -0.000537925 -0.001623648 0.001858065 0.001126306 0.000137281 0.002136757 0.000716459 0.001443641 -0.000409616 -0.001544410 -0.000221274 -0.000796613 -0.001076772 0.000419230 -0.000349725 0.002532989 0.002062083 0.002769593 0.002993672 -0.000133902 -0.000119173 -0.000737374 0.000872517 -0.000407293 -0.000292449 -0.001124056 0.002132449 0.001521399 0.000312853 0.000562646 -0.002383125 -0.001473968 0.001341984 -0.001834389 -0.001110171 -0.000872305 0.000784729 -0.000144913 0.002470876 -0.000803034 -0.002090145 0.000209118 0.000571980 0.001860285 -0.000451684 0.001405474 -0.001414163 -0.002176031 0.000076288 -0.001480274 -0.000815238 0.001756943 0.000863923 -0.000999665 -0.000113942 0.000183580 0.002521761 0.000876554 -0.000690002 -0.000301851 0.001737837 0.002565070 0.000807289 -0.000455080 -0.000410100 -0.000008033 0.001531490 -0.001438015 -0.001402872 -0.000817500 -0.001269346 -0.000030222 0.000910581 0.003106537 0.000509420 0.001088660 -0.001129497 0.000347089 0.000664220 0.004111684 0.000222107 0.001290276 0.001116602 -0.001331060 0.001101899 0.000393494 0.000820909 -0.001540019 -0.001150975 0.001963311 0.000324076 -0.000752139 0.000306476 -0.002036342 0.002649294 0.000537065 -0.000007202 0.003714590 0.001639188 0.000048973 -0.002125442 -0.000195223 -0.000885012 -0.000440413 0.000253283 0.001357219 0.001963527 0.000712496 0.001871946 -0.000178144 0.000109794 0.000061547 0.001323537 0.000152265 0.001230944 -0.000312834 0.000582943 -0.000251061 0.001486675 0.001593719 0.003059775 0.000059816 0.002423783 -0.000442430 0.001083023 -0.000195120 0.001172130 -0.000763761 0.000595699 0.002839769 -0.000167532 -0.002537281 -0.003335536 0.000371025 -0.001127873 -0.003876850 -0.000810716 0.000736289 -0.002677263 -0.001257438 0.000277741 0.001190644 0.000958619 -0.000536807 0.002223621 0.002481599 -0.000074363 -0.000729360 -0.000195896 0.001496817 0.002160865 -0.000176569 -0.000261356 -0.000217720 -0.001546775 0.001998330 -0.001411845 -0.001907544 -0.002330311 -0.000288204 -0.002139680 -0.000971318 -0.000126315 -0.000054656 0.004076887 -0.001422849 0.001724590 0.000513216 0.001822194 -0.000383692 0.002613368 0.002178532 -0.001618990 -0.001299222 0.000131435 -0.001569151 -0.001068698 0.001904695 0.001205317 -0.000976671 0.002328500 -0.000728467 -0.000420353 0.000407845 -0.001455871 -0.000451146 0.000441328 0.002600081 0.001611500 0.000714891 0.001265445 0.004694026 0.000386985 -0.000493303 0.001462484 0.000440760 -0.002665056 0.001878382 0.000339838 -0.000531697 0.000346854 -0.000322988 0.001351855 -0.002551039 0.000784306 0.000970019 -0.001565481 0.000931042 0.001806998 -0.000495410 -0.000499792 0.002498062 -0.000812803 0.002631847 0.001281652 0.000776166 -0.001814977 0.003212704 0.000452447 0.000395819 -0.000607114 0.000016794 0.000695592 -0.001268214 -0.000794652 0.000957604 0.000060542 -0.001026929 -0.001105828 0.000110082 -0.000568955 0.002105376 0.000487803 0.000520520 -0.001831729 0.001192784 0.000616449 0.000878230 0.000690833 0.000010740 0.002154783 0.001998365 -0.000833259 0.000389631 0.000273786 -0.000226782 -0.001715139 -0.002643065 0.000648803 0.001631812 0.002465325 0.003010507 -0.000458851 0.002120883 0.002348304 -0.000638342 0.001118694 -0.001408123 0.000720964 -0.001273323 -0.001506788 -0.000096242 0.000152220 0.000597875 0.000432047 -0.000871615 -0.000608719 0.001374778 -0.001336895 -0.000806214 0.002335700 0.002268016 0.000279828 -0.002554008 0.000412385 0.002227701 -0.001590945 0.001211026 -0.001111754 -0.002478948 -0.000712385 0.002721060 0.000825639 0.000664530 0.001265535 0.000647743 -0.001147819 -0.000524620 0.000073450 -0.002519293 -0.001813152 0.001333068 0.002473206 -0.000115412
make	0.004867692 0.000632107 0.005272769 0.005158856 -0.003582801 0.002229367 0.003688856 -0.003509017 0.001929839 -0.000847958 -0.001631667 0.002662221 0.000489863 0.000417841 0.000380259 0.000103495 0.001241007 0.000178910 -0.000783183 0.000751867 -0.003082407 0.005459554 -0.000216731 0.004080086 0.004744514 0.001644863 0.000751626 0.001320719 0.002094486 -0.000992272 -0.002225351 -0.004033379 0.005731766 0.002076815 0.002208558 -0.000032521 -0.002548101 -0.003438748 -0.000627710 -0.002686401 -0.004222897 -0.002145744 -0.000058793 -0.001507365 0.003949709 -0.003942998 -0.001932357 -0.001431187 -0.000763721 0.000214214 -0.003614334 0.001962875 -0.004730339 -0.002473876 -0.002182376 -0.003889935 -0.005245300 0.002908861 -0.000682858 0.002120538 0.003506262 0.000106875 0.003271282 -0.002499120 -0.001678220 0.003726392 0.000772694 0.003513750 0.000418306 -0.002377463 -0.000080302 -0.003777658 0.000468578 0.000584302 0.001274113 0.000924643 -0.004746347 -0.001851641 -0.001956143 0.004311411 -0.000004735 0.000792223 -0.001525629 -0.001245718 -0.001961396 0.005183006 -0.000624881 0.002929263 -0.000742309 -0.001560494 0.001397333 -0.002562006 0.000597708 -0.001724191 0.001161979 -0.000359824 0.000179171 -0.001983894 0.001269026 -0.001154869 0.003581588 0.001645242 0.000278632 0.005580550 0.005413571 -0.004024973 -0.005304294 -0.005058513 -0.000583883 0.000977337 -0.003906402 0.001515587 0.005384369 -0.002097778 0.001165945 -0.001154175 -0.000952052 -0.001049071 0.000189100 0.001413621 0.002310215 0.000145342 0.001606744 0.002561753 0.001521602 0.001684192 0.004918876 0.001568279 0.003093248 -0.000533041 0.001832590 0.000861924 0.000976925 0.000294177 0.000448508 0.008823842 -0.001415855 -0.004067908 -0.006093734 -0.001171632 -0.002073831 -0.006511818 -0.002148747 -0.000641728 -0.002476749 0.000845047 -0.002179670 -0.000165372 0.002110420 -0.001697924 0.003977981 0.003676684 0.000543241 0.001993281 0.002789130 0.004065095 0.002542152 0.000578766 0.001037201 0.001873254 -0.003760662 0.002697351 -0.001016666 -0.000792713 -0.001486012 0.003102224 -0.001601048 -0.001143558 0.002390980 -0.000595899 0.004703409 -0.002706673 0.004232279 -0.001313406 0.001817477 0.000146245 0.002881176 0.000075396 -0.002747598 -0.000848297 0.000827381 -0.001693433 0.001482278 0.000634372 -0.000933075 0.000539603 0.003570466 0.002833256 -0.002178838 -0.001778775 -0.000146673 -0.002216143 -0.001864800 0.002492771 0.001332844 -0.000035001 0.006615656 0.008666632 -0.003037168 -0.000707365 0.004104898 -0.000379175 -0.003232168 0.002619014 -0.001617500 -0.001546562 -0.002176462 -0.001949840 0.000835157 -0.002547319 -0.003119605 0.004629184 -0.001228645 0.002077841 0.000093748 0.000844779 0.002106093 0.002907696 -0.000975343 0.002752367 0.001888478 0.001288525 -0.004209816 0.003686929 0.002063967 -0.000351757 0.001919349 0.001163503 -0.000271905 -0.000120464 0.001339160 -0.000242794 -0.004861455 -0.000423946 -0.007178200 0.000557935 -0.000106264 0.003967655 -0.001519601 -0.001485125 0.000549146 0.001662160 -0.001719172 -0.002214181 -0.001127678 -0.002140559 0.001849354 0.002885303 -0.002110938 0.000599672 0.001021618 -0.002429976 -0.001936785 -0.003691834 0.002133541 0.002547497 0.003285543 0.003858045 -0.000930022 0.000170716 0.007628350 0.003547383 -0.000989708 0.000530042 -0.000751131 -0.001217659 -0.003467698 0.000584953 0.002156327 -0.002238724 0.002212052 0.000639065 -0.001036024 0.000942977 -0.001112020 -0.001840472 0.001344082 0.003666905 0.001122281 -0.005675388 -0.001300745 0.001101147 -0.000896059 -0.000859174 -0.000855968 -0.004747382 0.000941191 0.002022097 0.000568146 0.001736684 -0.001806434 0.001286738 -0.000264299 -0.001493781 0.000423642 -0.000739673 -0.000281811 0.001442196 0.005011615 -0.001094289
