article	-0.056245431 -0.179749861 0.164997011 -0.241689608 -0.252259880 0.018641137 0.148581460 0.035577454 -0.096346654 0.033954993 0.030086815 -0.015127902 0.023493191 -0.087898143 0.193735525 -0.190709054 -0.012987990 0.187732548 -0.088543475 -0.438843369 -0.147134647 0.157785654 0.075148135 -0.100647420 0.004581475 -0.059037887 -0.033440493 0.033313151 0.196920618 0.011644319 0.082239881 -0.017844534 -0.089406304 -0.038333666 -0.015071171 0.131749377 -0.028110612 0.033428445 -0.050117262 0.028274938 0.099147961 0.067505457 -0.126236185 0.024682710 0.133367047 0.119038202 0.137394741 0.146113828 -0.040679708 0.132676423 -0.000573129 -0.052515350 0.038328495 0.225803375 -0.198019460 0.121487960 -0.116207242 0.079760134 0.175841272 -0.074959457 -0.227171868 -0.169216380 0.055989444 0.069523975 0.168200150 -0.099220775 0.046654224 0.060521223 -0.105098128 0.042398900 0.071315832 0.004604375 0.050650313 0.029077450 0.058954772 0.037809424 -0.343308717 0.215417534 -0.041245896 0.157012522 0.416667640 0.057174154 -0.165548950 0.117498927 -0.141950920 -0.026758295 0.016788661 -0.189922333 -0.238124669 -0.192261249 -0.131495461 0.191903919 -0.168606475 0.012896151 0.197506145 0.346805602 -0.112797678 0.228845835 0.041858099 0.109871231 -0.105259471 -0.108788475 0.028083187 0.030851984 -0.083470605 -0.170554668 0.002031021 -0.161831841 0.065169990 -0.037264764 -0.080589861 -0.175012752 0.135111600 0.030666765 -0.007111605 -0.052187074 0.187029883 0.410808414 0.320949852 -0.039553422 -0.599157512 0.112895943 -0.079788223 -0.082275942 -0.161016256 0.225096092 -0.091919243 0.194828287 -0.184923694 0.056884084 0.041219547 0.158594176 0.059040837 -0.177034929 -0.394694030 0.082134135 -0.227552027 0.416956753 -0.305536985 -0.080691047 -0.012056682 -0.338940024 -0.063754238 -0.021496426 0.007153105 -0.011284959 0.153125405 0.094277881 0.163604587 -0.063832514 -0.426920533 -0.258330464 -0.061506867 -0.077668898 -0.116521925 -0.154649824 -0.239911228 -0.184857473 -0.146635994 -0.002797659 0.263160259 -0.050329499 0.059221938 -0.017108217 -0.054508992 0.177736998 -0.058776043 0.117297053 0.022357428 -0.029217489 -0.054983296 -0.107073069 -0.129802570 0.013481963 -0.050533410 -0.277114779 -0.437429726 -0.005763793 0.058002308 -0.018708838 -0.082430497 0.059502412 0.010024367 -0.097197190 0.156908244 0.339107126 0.062241420 0.191103652 -0.062788665 0.103489526 -0.210702419 -0.235302836 -0.049384031 -0.002428959 0.293802053 -0.238811865 -0.133982241 -0.101084329 -0.171125948 0.162406191 0.130120337 0.100278892 0.119570307 0.228134826 -0.575390399 -0.097574748 -0.073951259 -0.091136806 -0.177954420 -0.195557684 0.249502838 -0.134888247 -0.093571082 -0.027114322 0.204644546 0.089985378 0.002365291 0.093051754 0.209470525 0.026351074 0.027734578 -0.076412335 0.111936964 -0.043651666 -0.157758176 0.269009709 0.166289225 0.338703275 -0.187432230 -0.429021239 -0.056603689 -0.320112973 0.056011405 -0.174904540 -0.277763724 0.009157295 0.194084093 -0.246619388 0.040765680 -0.136948720 -0.050705142 0.122389443 -0.094998300 -0.204554647 -0.030402292 0.061589438 0.007035655 0.083673455 0.233439818 0.102519386 -0.015072778 0.159398630 0.021257954 -0.192137673 0.311544776 -0.270622045 -0.083211668 -0.252757519 -0.086748607 -0.117306814 0.000673976 -0.172602385 -0.000906717 0.300406128 -0.253399342 -0.148683727 -0.015471935 -0.225189626 -0.187871739 0.079689287 -0.115948021 -0.040651567 -0.025385022 0.012036535 0.110193662 -0.123844773 0.121245272 0.111965999 -0.034999222 0.210290372 -0.210329086 -0.000000916 0.268680155 0.250474095 0.095950045 0.192447260 0.138447225 0.013224931 0.104756169 -0.092013679 0.019557148 0.016742220 0.280130684 -0.052897323 -0.055299561 0.063387126 -0.008110393 -0.076663949 -0.082194589 -0.397651464
america	-0.012044917 -0.037433386 0.035010334 -0.052213017 -0.053180214 0.002639072 0.032936085 0.008755133 -0.021289408 0.007982533 0.007332030 -0.002046279 0.005418980 -0.016961386 0.039348632 -0.040860482 -0.004334580 0.039104670 -0.018807596 -0.091696158 -0.031977393 0.033164211 0.017359074 -0.022345748 0.002172148 -0.012653954 -0.007880400 0.006506570 0.041710164 0.002169776 0.016472451 -0.005094274 -0.019445611 -0.007460560 -0.004447180 0.027102150 -0.007285791 0.005328803 -0.011777238 0.005598884 0.022226840 0.015370425 -0.027930772 0.004213626 0.030025827 0.025990793 0.030016631 0.031973150 -0.007414554 0.028453257 0.000597427 -0.010799308 0.008013248 0.048209015 -0.042925604 0.024739075 -0.026131377 0.015892476 0.037522439 -0.017248379 -0.047565188 -0.035657033 0.009826227 0.014420775 0.036704011 -0.019387525 0.008489163 0.011423748 -0.022595985 0.008240899 0.014082524 0.000553052 0.009503993 0.007610977 0.013695116 0.008064597 -0.072348408 0.047570638 -0.010359866 0.035364602 0.086546168 0.012807271 -0.035951085 0.023696760 -0.028824626 -0.004587786 0.003979261 -0.041993268 -0.051660284 -0.039106634 -0.028644020 0.041886199 -0.036795553 0.001283131 0.042739350 0.073191799 -0.025070487 0.049100850 0.008490128 0.023326095 -0.023911729 -0.023088336 0.005427258 0.006375180 -0.016683815 -0.038011275 0.001136847 -0.034440808 0.014272653 -0.006210872 -0.015338095 -0.036155928 0.028923698 0.005145682 -0.000312467 -0.010106663 0.038443763 0.086288959 0.067678392 -0.007731742 -0.126448378 0.023736654 -0.017757624 -0.019182604 -0.032864131 0.049223807 -0.018994585 0.039407227 -0.038655091 0.010266445 0.007815298 0.033994295 0.012372154 -0.037955076 -0.083032884 0.016276127 -0.046237025 0.086844474 -0.065789372 -0.016087193 -0.000920929 -0.069931462 -0.014020229 -0.004551384 0.001620543 -0.001034595 0.031015949 0.020515522 0.034071285 -0.014607434 -0.090496071 -0.053647242 -0.011923474 -0.016773000 -0.023229906 -0.033021130 -0.049688738 -0.040502924 -0.030625891 -0.002026396 0.056972347 -0.008964941 0.013306368 -0.001579677 -0.010386769 0.036110096 -0.010912826 0.023142276 0.005384232 -0.007161493 -0.010348892 -0.021252088 -0.027174398 0.001113175 -0.010208511 -0.057744574 -0.091990538 -0.001120965 0.012009053 -0.003590628 -0.019298652 0.011872818 0.001147955 -0.019841952 0.033132058 0.071565807 0.012494705 0.041860815 -0.013691745 0.022245893 -0.044599414 -0.050514728 -0.011233187 -0.001689138 0.063164778 -0.048386898 -0.030217910 -0.021162817 -0.037426334 0.034342483 0.029137034 0.021196486 0.024994209 0.049646266 -0.121527143 -0.021072412 -0.014820783 -0.017865915 -0.037947692 -0.041418951 0.054524470 -0.029060777 -0.018108582 -0.006410788 0.043448862 0.017582364 0.001974403 0.020259744 0.043999616 0.006302272 0.004759853 -0.016900733 0.023077052 -0.008493333 -0.034092363 0.058188420 0.035107583 0.072778739 -0.039696917 -0.091604307 -0.011138343 -0.066799186 0.012376403 -0.038067359 -0.057639804 0.001835605 0.040979642 -0.051374588 0.008295226 -0.027674546 -0.011029941 0.027245855 -0.018752391 -0.043029640 -0.008462148 0.014317291 0.002873548 0.019178892 0.049052600 0.020698000 -0.004464759 0.034143042 0.003783868 -0.041655883 0.066804320 -0.056451239 -0.016467120 -0.053485390 -0.019029431 -0.025103899 0.002044022 -0.036987852 0.001627292 0.063211583 -0.053990569 -0.031719968 -0.003166205 -0.046941809 -0.041384704 0.015468579 -0.025217453 -0.009880832 -0.007115887 0.002633679 0.023126401 -0.025276864 0.025759881 0.023358190 -0.006859717 0.044493508 -0.044266492 -0.000101532 0.057327747 0.053853106 0.018812863 0.041315693 0.029356947 0.001289733 0.021317940 -0.018271409 0.004803469 0.002572751 0.060248960 -0.011842648 -0.012023562 0.014457454 -0.002244178 -0.017330462 -0.016448261 -0.083324924
free	-0.025894107 -0.080548242 0.075073972 -0.110056527 -0.116572320 0.009412037 0.068108998 0.018087739 -0.045125034 0.015626922 0.012683571 -0.008545625 0.011643988 -0.039393667 0.087605529 -0.088137642 -0.007615676 0.083237335 -0.040607460 -0.202024549 -0.065744005 0.072732940 0.035401735 -0.047148440 0.002222135 -0.026496230 -0.014796957 0.014844079 0.091391191 0.005973675 0.036901593 -0.006882535 -0.040597562 -0.018534398 -0.007261639 0.059745293 -0.013618709 0.014504623 -0.022708969 0.013632446 0.044288121 0.032064933 -0.057793412 0.013418824 0.063270725 0.056476440 0.062425915 0.066409484 -0.018822584 0.061159104 -0.000214006 -0.023565371 0.016487889 0.102088980 -0.089172758 0.056907300 -0.052579727 0.038552593 0.080701046 -0.033553358 -0.103300571 -0.078731738 0.023211043 0.033901118 0.076327480 -0.043090761 0.021664465 0.026893256 -0.047684502 0.018632267 0.031938128 0.000534526 0.024236532 0.013770054 0.027846515 0.016366536 -0.154429615 0.097701207 -0.021211332 0.072243877 0.191122472 0.025631754 -0.074510783 0.053979594 -0.067122594 -0.011157393 0.006989420 -0.087056696 -0.111204527 -0.088342004 -0.059633926 0.085822672 -0.075540975 0.005107150 0.088495284 0.158741757 -0.051972002 0.104809389 0.020187996 0.048019726 -0.047774103 -0.048373491 0.011145067 0.014185305 -0.037443105 -0.077517040 0.002034714 -0.074892692 0.028087253 -0.016184790 -0.036382955 -0.079525232 0.060914285 0.011559948 -0.004347842 -0.023954101 0.084057555 0.186918795 0.145692393 -0.018499646 -0.271022946 0.050532758 -0.035691481 -0.039002929 -0.072790354 0.103752978 -0.040715005 0.087904863 -0.084743507 0.024125857 0.018214077 0.071281731 0.027337400 -0.082321644 -0.179489911 0.038412951 -0.101967588 0.190444514 -0.139364794 -0.037109092 -0.004609700 -0.152404532 -0.028319210 -0.008257109 0.005110570 -0.006374482 0.071310326 0.042838637 0.073000550 -0.028590864 -0.194140106 -0.118771337 -0.026628323 -0.037282348 -0.052538849 -0.068980820 -0.109947160 -0.085393086 -0.067435682 -0.000455182 0.118748009 -0.022910949 0.028448153 -0.007946945 -0.023499778 0.082269773 -0.026549526 0.053645305 0.011751736 -0.010921392 -0.024906635 -0.048911665 -0.058343761 0.005143057 -0.020881876 -0.125766516 -0.200070456 -0.004201887 0.025570497 -0.008118298 -0.038431268 0.025698747 0.003540227 -0.043756422 0.072147809 0.154433742 0.028997146 0.086324051 -0.030063663 0.047672663 -0.095480412 -0.107882060 -0.021722004 -0.001134806 0.134732336 -0.107825205 -0.059902452 -0.046972804 -0.077360794 0.075310759 0.059016809 0.046987176 0.054102007 0.102003925 -0.262952685 -0.044163607 -0.032219812 -0.040210698 -0.081037477 -0.089598671 0.115491748 -0.059697885 -0.043745808 -0.012963213 0.094038755 0.041391704 0.002966144 0.042415738 0.095739603 0.013278939 0.013148652 -0.035039295 0.049942497 -0.019406095 -0.071773522 0.123100206 0.076222107 0.154946640 -0.086270101 -0.194687158 -0.026914237 -0.143459871 0.026146766 -0.079658955 -0.128634185 0.003524248 0.086464040 -0.112494834 0.017267700 -0.061963916 -0.022240166 0.055507299 -0.043709554 -0.093141273 -0.015230799 0.026459537 0.003638536 0.037691865 0.107288599 0.046099320 -0.005571813 0.071883045 0.011610984 -0.088200755 0.144165084 -0.122567356 -0.037863269 -0.117465697 -0.039949838 -0.054169964 0.001667088 -0.079707295 0.000349173 0.137085319 -0.114510663 -0.067860998 -0.006586100 -0.103840150 -0.086871862 0.038033143 -0.052660514 -0.017287888 -0.013555149 0.005228979 0.050832868 -0.055115357 0.055134464 0.052586623 -0.016528102 0.097461484 -0.097062439 0.002229884 0.120660387 0.113777123 0.042546708 0.085502006 0.064496018 0.004910476 0.048037402 -0.041007958 0.008784201 0.008361013 0.127491906 -0.025062207 -0.024581058 0.029835632 -0.002065480 -0.033525568 -0.038848344 -0.180346221
drug	-0.018754512 -0.060724497 0.054731872 -0.083364077 -0.085876517 0.006062584 0.051912557 0.013714616 -0.033543263 0.010314359 0.008692089 -0.006850311 0.007726503 -0.030737981 0.065075427 -0.064328872 -0.003814979 0.063413501 -0.029471705 -0.152383775 -0.051696673 0.052720834 0.027315320 -0.036269009 0.001698430 -0.020306544 -0.011963396 0.010336420 0.066780590 0.003279341 0.029171312 -0.006989556 -0.029784914 -0.014833910 -0.004346605 0.045625020 -0.009515878 0.010804201 -0.018028051 0.010427371 0.034453411 0.025360446 -0.043611038 0.010014687 0.047623564 0.041742261 0.045750212 0.051117506 -0.014011892 0.046119783 -0.001569979 -0.019786378 0.011883686 0.077960856 -0.068616509 0.042242490 -0.041274756 0.027017703 0.058971569 -0.026235320 -0.079590224 -0.059642110 0.019164678 0.025941677 0.058560181 -0.033972654 0.016339501 0.021720355 -0.036311314 0.014076222 0.022691185 0.000202574 0.017179273 0.011550870 0.020232959 0.013056742 -0.116336495 0.073943913 -0.015623398 0.056138124 0.142967850 0.020741599 -0.056905113 0.038512260 -0.049832709 -0.007660070 0.006338154 -0.067166910 -0.081381351 -0.065769151 -0.045644712 0.066478841 -0.056496575 0.005998636 0.068469942 0.118097655 -0.040157307 0.080662750 0.013130664 0.038374409 -0.036284175 -0.037390653 0.008542078 0.008320046 -0.029426552 -0.060708921 0.000726237 -0.056174137 0.022019781 -0.011883335 -0.027205555 -0.058367979 0.047853671 0.009785336 -0.001960194 -0.019502245 0.065563560 0.141714618 0.111022815 -0.013285181 -0.204004169 0.038500082 -0.027800547 -0.028740702 -0.054835938 0.078763232 -0.032808844 0.066446833 -0.061849352 0.020529745 0.016216915 0.052444909 0.019220999 -0.060695730 -0.135548696 0.028235009 -0.078995012 0.143930882 -0.103424691 -0.027220754 -0.004655548 -0.116176188 -0.022249876 -0.008417704 0.001395722 -0.005116885 0.051443487 0.032697786 0.056536820 -0.020875167 -0.147382826 -0.087934621 -0.020016201 -0.027327478 -0.038730562 -0.054599762 -0.081170902 -0.064556375 -0.052098636 -0.000533137 0.090162769 -0.017328626 0.020965667 -0.005464929 -0.019202162 0.062461585 -0.020560266 0.041069064 0.008710243 -0.009473303 -0.017255332 -0.038582925 -0.045769341 0.002406175 -0.018616177 -0.096396446 -0.150259286 -0.001847123 0.022059338 -0.006144071 -0.029364651 0.020618800 0.001564725 -0.032500841 0.053696025 0.117114611 0.021329923 0.065416753 -0.021113236 0.036109097 -0.073019676 -0.080013923 -0.016104020 0.000120077 0.101797223 -0.082651101 -0.047335092 -0.035748392 -0.059845917 0.057270467 0.045757454 0.034632668 0.042628236 0.077794656 -0.198024467 -0.033244316 -0.024332754 -0.028720062 -0.062799282 -0.067133151 0.085599437 -0.046014648 -0.031694189 -0.009494764 0.069465272 0.029825609 0.002944432 0.032825500 0.072972827 0.009751081 0.007748460 -0.026220731 0.039907705 -0.016542215 -0.053053383 0.093643501 0.058105733 0.117166400 -0.065437958 -0.145322978 -0.021203566 -0.108745888 0.020000800 -0.060229279 -0.095138989 0.004362254 0.065776579 -0.085114710 0.014216016 -0.046460144 -0.017160235 0.041070916 -0.033893794 -0.071648583 -0.010242619 0.021202987 0.002087060 0.028825412 0.079340771 0.035680432 -0.003688942 0.055163838 0.006900675 -0.067708842 0.107370041 -0.091270603 -0.027693443 -0.086084902 -0.028751772 -0.041017272 0.001935214 -0.059592113 0.001148057 0.103161961 -0.088016048 -0.050711136 -0.006827934 -0.076675348 -0.064466059 0.026979961 -0.041048821 -0.013015932 -0.010334630 0.004099973 0.039285664 -0.043719724 0.039921436 0.039778441 -0.012269700 0.072600342 -0.071980968 0.002260387 0.092349380 0.086191073 0.032289959 0.064467922 0.047009513 0.004994791 0.036421686 -0.030471701 0.007597157 0.006074177 0.096481360 -0.017634509 -0.019720497 0.020659816 -0.002724780 -0.024513576 -0.030151732 -0.137089908
writes	-0.065475337 -0.217791840 0.198166668 -0.291080654 -0.305061519 0.021707799 0.175973549 0.043363202 -0.113789462 0.041879736 0.035274822 -0.019102618 0.031453997 -0.104496360 0.229967460 -0.227930248 -0.018363569 0.222682804 -0.105131939 -0.527676463 -0.176223919 0.189962670 0.090321906 -0.122332424 0.007369073 -0.069414929 -0.037483916 0.040668070 0.233960018 0.015597336 0.097948700 -0.018630125 -0.104422994 -0.046508867 -0.017934265 0.155653447 -0.037008863 0.039838281 -0.059833393 0.032296866 0.115493044 0.080724582 -0.150783792 0.031137999 0.161760107 0.143851012 0.165179640 0.176112756 -0.050024826 0.158020750 -0.002973630 -0.062381271 0.045535617 0.270079732 -0.234284505 0.146091312 -0.138171375 0.096171677 0.207829207 -0.091393448 -0.272812307 -0.203086719 0.064311936 0.085554324 0.199342921 -0.117166549 0.055562783 0.071425043 -0.123215474 0.051634427 0.084287576 0.006264974 0.059496634 0.036307745 0.072724454 0.042233918 -0.410214484 0.261234820 -0.051851101 0.191244841 0.499118149 0.066763148 -0.196889684 0.138488203 -0.170713782 -0.030332288 0.018383566 -0.229201555 -0.285025388 -0.228439942 -0.158403352 0.228518546 -0.203108609 0.013722871 0.234076038 0.414890498 -0.137554318 0.275852740 0.051999107 0.129237726 -0.123703770 -0.127938658 0.033006649 0.033372976 -0.096926920 -0.206093788 0.002387874 -0.192257509 0.075740211 -0.042162377 -0.095469609 -0.209646121 0.161678642 0.033412263 -0.010235381 -0.063796110 0.222911358 0.489541680 0.384948224 -0.043733198 -0.714881718 0.132056087 -0.098099068 -0.098750718 -0.193490252 0.271001875 -0.109475724 0.231640637 -0.219063357 0.067035466 0.052134544 0.186520413 0.069789097 -0.212390006 -0.472603321 0.097402066 -0.270573467 0.499245197 -0.364441514 -0.099152371 -0.013395982 -0.404999614 -0.076537788 -0.025996134 0.012198378 -0.015624934 0.182583034 0.110671617 0.196957439 -0.078099191 -0.510182261 -0.311770618 -0.072008587 -0.094351463 -0.137356162 -0.186797887 -0.284702033 -0.222009405 -0.176587582 -0.002935059 0.314312816 -0.057986677 0.073725216 -0.017145140 -0.063694805 0.213081896 -0.071035765 0.138982296 0.027017197 -0.031718206 -0.066394731 -0.129828811 -0.154060140 0.012668104 -0.057292003 -0.330345094 -0.521159351 -0.006946918 0.071880326 -0.021993801 -0.099842981 0.071608238 0.012414645 -0.114495747 0.190418884 0.403845251 0.073007278 0.230669171 -0.075666621 0.124483228 -0.252528638 -0.281655312 -0.060600270 -0.002062829 0.349623471 -0.283228844 -0.161153987 -0.120496146 -0.203977928 0.196939334 0.156380057 0.120727330 0.141533881 0.272126138 -0.687795579 -0.117189825 -0.087024823 -0.107126579 -0.213676512 -0.234428629 0.300397396 -0.160360262 -0.110781610 -0.032757740 0.241403177 0.107005104 0.004551867 0.108364217 0.249391496 0.032561529 0.030457342 -0.093622252 0.133324146 -0.054554924 -0.189163417 0.323349178 0.200708792 0.404076576 -0.226759508 -0.512858629 -0.068440564 -0.381719530 0.066507578 -0.210506007 -0.331488431 0.010125825 0.229694858 -0.294811189 0.048860054 -0.163108349 -0.058842354 0.147715151 -0.114997976 -0.243976980 -0.037947815 0.071831129 0.007865637 0.099708185 0.277100414 0.124863803 -0.015769701 0.190707043 0.025626868 -0.230044246 0.374190301 -0.322541624 -0.102311589 -0.303850353 -0.102628559 -0.139071107 0.003771610 -0.206343919 0.001755647 0.360196114 -0.302315533 -0.174538851 -0.017067112 -0.271085978 -0.226559848 0.094898663 -0.138022944 -0.049004931 -0.030849852 0.013644603 0.130213544 -0.147861391 0.141704649 0.134528771 -0.043221075 0.251155436 -0.254701227 0.001056796 0.319187462 0.300090760 0.115750156 0.227420330 0.164945275 0.014244956 0.125253618 -0.110272236 0.022035547 0.018361913 0.337309241 -0.062904656 -0.069143824 0.075752243 -0.009603072 -0.088649347 -0.097805209 -0.475660682
device	-0.010651404 -0.029684806 0.026437042 -0.041576710 -0.043479472 0.002835937 0.024185073 0.006255550 -0.016322326 0.004240754 0.004832176 -0.002386886 0.003681622 -0.015650406 0.030827891 -0.033078354 -0.001933030 0.030961124 -0.016326156 -0.073104687 -0.023973981 0.027176961 0.013915507 -0.017549055 0.001374956 -0.010748768 -0.006863174 0.004502640 0.033093482 0.000783551 0.015112814 -0.003459500 -0.015102316 -0.007568922 -0.001091486 0.021011829 -0.004798876 0.004942286 -0.006886590 0.006133161 0.015078422 0.013163743 -0.020380432 0.004699162 0.021285750 0.019362712 0.022550402 0.026237978 -0.005479061 0.023425365 0.000317070 -0.009234694 0.005009848 0.038778070 -0.033953838 0.021546051 -0.018075021 0.012144644 0.028042324 -0.011738976 -0.036767326 -0.028918453 0.009004101 0.013081842 0.029358633 -0.015011272 0.007246851 0.009711754 -0.017606469 0.008850615 0.013040656 0.000101186 0.008745147 0.004718914 0.008571311 0.007267773 -0.056590326 0.036116436 -0.007036563 0.025381446 0.070799284 0.010279655 -0.027492305 0.019754346 -0.023572123 -0.005885042 0.003013998 -0.031695791 -0.040983822 -0.031362019 -0.021646462 0.032541309 -0.028309591 0.003509830 0.032254636 0.056358948 -0.018261533 0.039540272 0.008280527 0.017756373 -0.018590117 -0.019079909 0.003258636 0.006252798 -0.013928014 -0.029213637 0.001268564 -0.027991967 0.011612445 -0.007327540 -0.012344470 -0.027983882 0.023738917 0.003349059 -0.000577472 -0.009994791 0.030003754 0.069500424 0.052699123 -0.005945684 -0.100481704 0.019921048 -0.012549146 -0.013343914 -0.026941920 0.037780076 -0.014360559 0.031862278 -0.032263104 0.010793041 0.005461569 0.026561692 0.010528057 -0.028986841 -0.065733112 0.013683637 -0.039318401 0.069000021 -0.051701423 -0.014775869 -0.002415266 -0.054998718 -0.010270385 -0.004109455 0.000730995 -0.003670474 0.027488969 0.016506735 0.026622068 -0.011690708 -0.072976291 -0.042364795 -0.009455248 -0.011595536 -0.020335810 -0.025834488 -0.041537177 -0.030153470 -0.025512688 0.000681872 0.043529484 -0.006588074 0.010772837 -0.002110252 -0.010335209 0.028847890 -0.010816010 0.020251106 0.003706213 -0.006164010 -0.010935252 -0.019379571 -0.020809621 0.003263482 -0.007934408 -0.045513045 -0.071498826 -0.001001972 0.010099540 -0.003970200 -0.015228102 0.010424105 0.001170145 -0.014468572 0.026881678 0.057002351 0.008754337 0.033203993 -0.010639990 0.017796354 -0.035395179 -0.038197283 -0.008896015 -0.001299175 0.050298475 -0.039754163 -0.022711532 -0.017118176 -0.029535795 0.026641201 0.021810599 0.016996080 0.020517956 0.039407000 -0.096484549 -0.015273759 -0.012128236 -0.013705166 -0.031034367 -0.034464199 0.042878319 -0.021688914 -0.014225747 -0.004610676 0.035203550 0.014045263 0.001257577 0.014564916 0.035079550 0.004964540 0.003153914 -0.013219411 0.020203531 -0.009001707 -0.026625341 0.044599611 0.026798796 0.057423554 -0.032172646 -0.073278084 -0.009307581 -0.052852333 0.007645616 -0.028000927 -0.046793036 0.002019166 0.032114122 -0.040710516 0.006789081 -0.021501053 -0.007276003 0.021628540 -0.016086433 -0.035536882 -0.004128411 0.009880329 -0.000460379 0.013413175 0.037478443 0.017373053 -0.001844500 0.026118828 0.004528328 -0.032305371 0.052653056 -0.046678353 -0.014503733 -0.042703096 -0.016303964 -0.019980012 -0.000556630 -0.028529428 0.001003153 0.050403476 -0.043824360 -0.026131218 -0.001507810 -0.038284656 -0.032563888 0.012403813 -0.020932406 -0.007991361 -0.003777974 0.001588543 0.019218421 -0.021013260 0.020296223 0.018587742 -0.006612683 0.035794411 -0.036145478 0.001022467 0.044920254 0.040858030 0.016919604 0.033084452 0.024748124 0.003549476 0.018760344 -0.014637664 0.002768837 0.001835344 0.047798268 -0.009572696 -0.010886777 0.011297153 -0.000791317 -0.012054649 -0.014800315 -0.067798711
devices	-0.009437079 -0.033164106 0.028266728 -0.043308847 -0.045696966 0.001724354 0.027108049 0.006487160 -0.016146496 0.006739039 0.003779893 -0.001920627 0.005321422 -0.015819080 0.033118330 -0.032917984 -0.004246249 0.033397924 -0.014543002 -0.079527609 -0.027180586 0.027335284 0.013482307 -0.016893791 0.000111082 -0.010198790 -0.005994169 0.005142715 0.036373477 0.001722497 0.013290353 -0.004559617 -0.016591948 -0.007721604 -0.003195110 0.022490969 -0.006426634 0.005570096 -0.008559346 0.004269661 0.016122257 0.012003424 -0.021799317 0.006167687 0.024105212 0.021267863 0.026352910 0.027842412 -0.005843261 0.023169726 -0.000150466 -0.009980327 0.007467377 0.040729124 -0.034246940 0.022018453 -0.019427955 0.013437028 0.030149357 -0.012465003 -0.042461284 -0.030923402 0.009067916 0.014083752 0.029899180 -0.016368948 0.007730416 0.010929072 -0.020387417 0.007881030 0.013486669 0.000560067 0.008151315 0.004500355 0.011924344 0.006371111 -0.062612288 0.038718749 -0.006339275 0.028458530 0.076425791 0.010462866 -0.028443908 0.019389302 -0.025521459 -0.003647341 0.001312029 -0.034928609 -0.043142896 -0.035429258 -0.024603600 0.034800999 -0.030808570 0.003233649 0.036798522 0.062035080 -0.019530943 0.042462803 0.007353570 0.020257864 -0.019960912 -0.019967357 0.005276495 0.006294194 -0.013491240 -0.031235162 0.000486982 -0.030352995 0.012830961 -0.006091135 -0.013681945 -0.031454518 0.025632331 0.006062550 -0.002751815 -0.010533962 0.035043161 0.072566070 0.059152354 -0.005574284 -0.106120594 0.018415798 -0.014589077 -0.014930602 -0.028577374 0.039840750 -0.016921652 0.036180533 -0.033650890 0.009757708 0.007811979 0.029734707 0.012278331 -0.031548876 -0.072291061 0.015316387 -0.041658618 0.076202683 -0.054829486 -0.014349183 -0.003170387 -0.059781063 -0.011033973 -0.002091479 0.002955140 -0.002612518 0.028737376 0.017642919 0.028681042 -0.011061775 -0.078654259 -0.045262586 -0.012499461 -0.013383411 -0.021779597 -0.028573129 -0.042896029 -0.032090921 -0.025848821 0.000600659 0.047773309 -0.008096230 0.011514302 -0.002355156 -0.011528777 0.033144429 -0.010363652 0.020154122 0.004355513 -0.006374111 -0.009471513 -0.019242203 -0.024262868 0.002906521 -0.010345170 -0.050662365 -0.079574771 -0.001920580 0.010055256 -0.004522130 -0.015655855 0.009496560 0.001687024 -0.016458441 0.027192090 0.062380072 0.010984856 0.033500720 -0.010466015 0.017983554 -0.037841532 -0.042781956 -0.007932208 -0.001983204 0.053098097 -0.043479640 -0.023093507 -0.019725937 -0.031846385 0.029445946 0.022691214 0.019854356 0.021556683 0.040845070 -0.102312714 -0.016428642 -0.014375182 -0.016401462 -0.031582363 -0.034503330 0.044689748 -0.023864785 -0.017347846 -0.004315056 0.037140649 0.016719012 0.001452039 0.017641641 0.037660185 0.004728945 0.004054975 -0.012714877 0.021119121 -0.008263184 -0.029909352 0.049885564 0.029205050 0.059697822 -0.035125170 -0.078538910 -0.008840875 -0.057555739 0.010161699 -0.032289192 -0.049159281 0.001695888 0.036019914 -0.045170303 0.008001597 -0.023424000 -0.008653481 0.022561550 -0.018605852 -0.036313821 -0.006514560 0.010429769 0.002027475 0.013790566 0.041915551 0.019519089 -0.001309488 0.030030381 0.003698919 -0.036498878 0.056115918 -0.047988154 -0.015811846 -0.046145905 -0.015205362 -0.021527050 0.001296884 -0.030116493 0.000357162 0.053280279 -0.046666928 -0.025423205 -0.002386566 -0.039702818 -0.034103081 0.016172361 -0.022577571 -0.005822856 -0.005054624 0.002882544 0.018962236 -0.023046140 0.023109294 0.018937226 -0.006048514 0.036820497 -0.039053835 0.002013632 0.049667906 0.045354862 0.017647645 0.033187449 0.025914397 0.001008925 0.018013824 -0.016753165 0.003560418 0.002197157 0.049676105 -0.008890246 -0.010384473 0.010303248 -0.001882677 -0.014842833 -0.015480369 -0.070881039
high	-0.038041417 -0.120777801 0.110777371 -0.161660761 -0.168656528 0.011377219 0.098105907 0.024084724 -0.063529260 0.023024153 0.018645581 -0.010147613 0.015987610 -0.058303241 0.128499106 -0.127931058 -0.009257790 0.124029346 -0.058534771 -0.296806902 -0.099092610 0.107088752 0.049521096 -0.069423884 0.003854794 -0.041469824 -0.022017177 0.022012724 0.133756176 0.010397236 0.052950226 -0.012362152 -0.058441460 -0.027523827 -0.009199997 0.089058839 -0.020677947 0.021889618 -0.035844352 0.020032935 0.065233715 0.046460684 -0.085194811 0.016806243 0.091739878 0.079659499 0.091926977 0.097616248 -0.027987614 0.089075752 -0.002065779 -0.035374373 0.026290148 0.152096450 -0.133128747 0.082714707 -0.077730976 0.054601617 0.118551388 -0.051533747 -0.152216315 -0.112325288 0.035507094 0.048344750 0.113187321 -0.064660951 0.032533735 0.040392760 -0.071129300 0.028763050 0.045803308 0.002852887 0.034067914 0.021677490 0.039236933 0.025460118 -0.228092223 0.147326201 -0.030282784 0.108166851 0.279140502 0.038271714 -0.112622559 0.076903880 -0.095535763 -0.016228445 0.009747032 -0.128987908 -0.162204891 -0.127488092 -0.089471817 0.127940819 -0.111548163 0.008396874 0.131888404 0.230788916 -0.077863596 0.155602664 0.027716933 0.072276078 -0.069535740 -0.071835995 0.018206859 0.020430483 -0.056374345 -0.117064595 0.001993105 -0.107958794 0.044346362 -0.022987895 -0.054556865 -0.115293831 0.093005821 0.018099397 -0.004593830 -0.037335306 0.126310110 0.275684536 0.215806365 -0.026528295 -0.400076836 0.074765541 -0.054848507 -0.055319354 -0.108930379 0.152614534 -0.059661712 0.129996821 -0.123342998 0.039222080 0.027867043 0.106897235 0.038816389 -0.120888136 -0.265044451 0.054901134 -0.151526943 0.281035364 -0.203999281 -0.054764360 -0.006557568 -0.227097943 -0.044740435 -0.015114120 0.005440621 -0.007539117 0.101687305 0.064237237 0.108115397 -0.044080306 -0.285990596 -0.174928054 -0.041114405 -0.051772617 -0.078330323 -0.103051409 -0.160598248 -0.125925720 -0.098987930 -0.001494965 0.174344420 -0.034358572 0.038592640 -0.008586889 -0.037278283 0.120766535 -0.040521272 0.078619450 0.016693505 -0.018355168 -0.038375262 -0.071228698 -0.088444032 0.006665221 -0.034516048 -0.184985980 -0.292560428 -0.004301129 0.041152626 -0.012562279 -0.054640561 0.039700065 0.005205166 -0.065843612 0.106279425 0.227920577 0.040364869 0.128854305 -0.041520413 0.071592152 -0.140104309 -0.159532949 -0.033803675 -0.001229665 0.197624803 -0.157204524 -0.090309501 -0.067185722 -0.114767447 0.110810474 0.088585466 0.068892531 0.078846037 0.151293486 -0.385329336 -0.063297302 -0.049479879 -0.059787739 -0.121150367 -0.130093157 0.166859329 -0.088324003 -0.063446499 -0.019718679 0.136759177 0.059301246 0.001676342 0.062525697 0.140192702 0.017677158 0.017956050 -0.051770106 0.075492673 -0.028697025 -0.106162898 0.180091396 0.112743281 0.227037385 -0.127736002 -0.287545949 -0.039922986 -0.213821575 0.036583278 -0.116364658 -0.187520370 0.005963793 0.129002690 -0.165182829 0.025966907 -0.093567163 -0.032540362 0.083771236 -0.063941173 -0.135153040 -0.022421952 0.040886421 0.002565735 0.056256492 0.156455010 0.069560811 -0.008829162 0.106765941 0.014170568 -0.130916178 0.211329520 -0.179233834 -0.055628061 -0.170264170 -0.056744978 -0.077826649 0.002070628 -0.117605172 -0.001610307 0.199772879 -0.169102177 -0.100117698 -0.010809800 -0.151500896 -0.127755895 0.052843865 -0.077324741 -0.028981308 -0.016767260 0.007749643 0.072383627 -0.083389804 0.080588579 0.076273315 -0.023768701 0.142360955 -0.141662702 -0.000019052 0.178765088 0.166686058 0.064324386 0.127729908 0.093837626 0.007818881 0.068049341 -0.061164521 0.013576523 0.012018437 0.189548939 -0.034403913 -0.036271095 0.043479186 -0.004300204 -0.050605524 -0.054608904 -0.268714011
speed	-0.028522741 -0.096559539 0.088613644 -0.132322520 -0.136944667 0.010764943 0.079451866 0.018924419 -0.051024303 0.017505264 0.015717654 -0.008766062 0.012970531 -0.047729541 0.105347648 -0.104795575 -0.008376545 0.100747555 -0.048067350 -0.240729302 -0.079181418 0.087205693 0.041119486 -0.055597663 0.004508086 -0.031145135 -0.017435178 0.019133652 0.106423348 0.007832248 0.044250663 -0.009470228 -0.049413230 -0.023694387 -0.010094628 0.070154972 -0.017578389 0.017176887 -0.026207544 0.015650207 0.053026501 0.037257724 -0.070171185 0.015086113 0.073525362 0.067086115 0.075815067 0.080342464 -0.021973293 0.071308360 0.000622334 -0.030219469 0.019384382 0.121789418 -0.107262865 0.067718215 -0.063429698 0.045540310 0.097039998 -0.043440614 -0.125112519 -0.092517540 0.028344324 0.037793092 0.091643840 -0.053839274 0.027129466 0.033930991 -0.055878170 0.024404317 0.037334695 0.001820148 0.029535983 0.017847514 0.033865444 0.020687161 -0.185674191 0.119425371 -0.022512516 0.087097451 0.226549327 0.029080087 -0.091608904 0.063956633 -0.078398056 -0.013769907 0.008972256 -0.103526190 -0.129670918 -0.103289232 -0.071785517 0.104815669 -0.090423651 0.007495492 0.109296359 0.186753258 -0.062536553 0.126667529 0.022953318 0.058964390 -0.058693197 -0.058063488 0.016025010 0.014968841 -0.045774996 -0.092449151 0.001424711 -0.088547371 0.035411648 -0.019803835 -0.042808436 -0.096446805 0.075626433 0.015902350 -0.003107443 -0.030398969 0.100933954 0.222780779 0.176769078 -0.020818461 -0.326422781 0.060816828 -0.043854784 -0.045101084 -0.086466245 0.123525813 -0.051284038 0.105553865 -0.101887137 0.029618302 0.022082854 0.086324587 0.031334110 -0.095979623 -0.215357170 0.045401372 -0.122053877 0.225818858 -0.166559264 -0.044611998 -0.005146293 -0.183136463 -0.037287101 -0.012332886 0.006714385 -0.005562599 0.084031388 0.051547013 0.090002492 -0.033892445 -0.233091459 -0.140482485 -0.031431533 -0.043999527 -0.061808560 -0.085042335 -0.128941104 -0.099755086 -0.080467522 -0.000254786 0.143777475 -0.027068289 0.033383682 -0.007680055 -0.029012997 0.097759165 -0.033681847 0.063448191 0.012774308 -0.015361405 -0.029724734 -0.060123455 -0.071862333 0.005981542 -0.027150288 -0.151164591 -0.236772701 -0.002815273 0.033386298 -0.010228956 -0.044685032 0.032552592 0.003453953 -0.053169712 0.086002827 0.183209151 0.032964535 0.105103001 -0.033972271 0.058584347 -0.113344826 -0.127544835 -0.028270481 -0.001625132 0.159420550 -0.130019605 -0.072405450 -0.055948116 -0.095107168 0.087442897 0.072959580 0.055278536 0.064077929 0.123962238 -0.312637091 -0.051265456 -0.038752932 -0.046959627 -0.096616298 -0.105200164 0.137101769 -0.073710635 -0.050640360 -0.016415659 0.109460048 0.050230395 0.002412647 0.049085360 0.115267836 0.014416017 0.015712159 -0.043791711 0.061883595 -0.025926998 -0.087509871 0.145592615 0.092091449 0.185401410 -0.103601359 -0.231636867 -0.030500613 -0.172167674 0.029945305 -0.096496254 -0.153625563 0.005462372 0.106415987 -0.135119602 0.021714851 -0.075073615 -0.027218660 0.066599511 -0.050063509 -0.110774912 -0.015710972 0.033178400 0.002236295 0.046245839 0.126261443 0.057838343 -0.008357153 0.085426003 0.011945946 -0.103619896 0.169148505 -0.145671472 -0.044290274 -0.137459233 -0.046304952 -0.065949179 0.001061411 -0.094344266 0.000358390 0.163962066 -0.136315614 -0.080466002 -0.009074390 -0.122934341 -0.104456998 0.045495637 -0.064138852 -0.022089234 -0.015450849 0.004829743 0.059785496 -0.067116998 0.063567474 0.061115373 -0.019380862 0.115981057 -0.116170414 0.001722126 0.147265568 0.135767981 0.050722852 0.103803657 0.074281588 0.006793491 0.057528045 -0.048873942 0.009932265 0.008208226 0.152909130 -0.027001698 -0.032167058 0.035611372 -0.003690097 -0.041687056 -0.046967726 -0.217738658
mind	-0.024700547 -0.087135613 0.078094169 -0.116005346 -0.119615063 0.006757204 0.069238722 0.019033732 -0.045856982 0.017387990 0.014728481 -0.006528200 0.012390623 -0.040186308 0.090684667 -0.091017798 -0.007503353 0.087981448 -0.042210627 -0.209770411 -0.069201581 0.076127812 0.034407515 -0.046329252 0.004294773 -0.027450269 -0.014745987 0.016122600 0.092245504 0.006474940 0.037995014 -0.008817337 -0.042038981 -0.020267216 -0.007768135 0.061611343 -0.014838964 0.013857661 -0.024585936 0.013829761 0.047526646 0.033841588 -0.059059229 0.012262930 0.065314010 0.058865909 0.063839316 0.071531065 -0.021153623 0.061366558 -0.000056439 -0.024317231 0.019405005 0.106992893 -0.094864167 0.057640649 -0.053395465 0.039052140 0.083835252 -0.037685670 -0.109126411 -0.081386529 0.025599021 0.034718391 0.079650886 -0.046220005 0.022437258 0.026937377 -0.048590455 0.022081712 0.033833355 0.002030804 0.023400065 0.012796531 0.028650625 0.018523317 -0.162612990 0.102718338 -0.019930622 0.074667551 0.196802884 0.028035352 -0.078683302 0.056078810 -0.068947561 -0.013451529 0.007918266 -0.091565259 -0.114617392 -0.090517111 -0.063176908 0.091239624 -0.080574960 0.005459229 0.092334494 0.163421497 -0.053170741 0.108964033 0.020266000 0.051583324 -0.049168017 -0.050874501 0.014359612 0.014461339 -0.040388152 -0.081239805 0.002045574 -0.074871138 0.029845085 -0.016394658 -0.036327057 -0.081038371 0.065283895 0.013163083 -0.002427165 -0.026580177 0.089870743 0.194467396 0.151373670 -0.018424230 -0.282510221 0.054285835 -0.039955933 -0.037892506 -0.077870555 0.106174283 -0.042050943 0.092573844 -0.086837009 0.027587393 0.018831015 0.075121388 0.026970616 -0.084559880 -0.187284738 0.039453197 -0.107582062 0.195726380 -0.143187180 -0.038807698 -0.005812456 -0.160407186 -0.032168809 -0.009240349 0.002690153 -0.005399027 0.073300123 0.043672424 0.077820048 -0.029103719 -0.201536357 -0.124784969 -0.027901137 -0.037658900 -0.053166844 -0.073098719 -0.114113413 -0.088610977 -0.070878267 -0.002871302 0.125569165 -0.024617853 0.029446991 -0.006110800 -0.026438991 0.085479431 -0.026804605 0.054656561 0.013034303 -0.013053913 -0.026306642 -0.051177099 -0.062242433 0.005880057 -0.023335079 -0.131986529 -0.207910135 -0.001265175 0.028414203 -0.006481523 -0.039856993 0.027138634 0.005972797 -0.046702970 0.074053131 0.159985572 0.027635161 0.089406647 -0.030878941 0.051388334 -0.100171976 -0.113480695 -0.023416296 -0.001993254 0.138305530 -0.110415280 -0.063376777 -0.048249859 -0.083089836 0.076675422 0.062112540 0.049080279 0.058179025 0.108881906 -0.273111343 -0.047304504 -0.035622444 -0.040245276 -0.084358327 -0.091842175 0.118663661 -0.063309006 -0.042639982 -0.014892006 0.098150283 0.042114876 0.000881917 0.044472035 0.100378849 0.011154920 0.013045806 -0.035746250 0.051513020 -0.020320892 -0.076254047 0.128901333 0.079254724 0.161068082 -0.090867318 -0.202579483 -0.027993495 -0.149992451 0.027681766 -0.083592847 -0.131561294 0.004431723 0.091037810 -0.118153214 0.018261665 -0.066497892 -0.024697339 0.059644118 -0.045885339 -0.097067714 -0.013836661 0.030425750 0.001442230 0.039224274 0.111177512 0.050611969 -0.007861497 0.076678745 0.011945129 -0.091060035 0.147323638 -0.129108429 -0.039556980 -0.121035241 -0.041983411 -0.056623068 0.001189446 -0.083918646 0.000036231 0.143651485 -0.121431157 -0.070599809 -0.008391590 -0.107096635 -0.089012399 0.037183192 -0.053325944 -0.020520162 -0.012537826 0.004060829 0.052755404 -0.059556939 0.056944709 0.052525166 -0.016771333 0.101589605 -0.099238075 0.001030424 0.126151338 0.118339188 0.043926276 0.091908813 0.063842483 0.006256968 0.050468907 -0.042707048 0.009579604 0.006116421 0.132604808 -0.025473284 -0.025518486 0.029246667 -0.002602427 -0.035153542 -0.040284973 -0.188491479
hardware	-0.013997234 -0.047905110 0.042929817 -0.063251123 -0.064917952 0.004748642 0.038324501 0.010042433 -0.024683295 0.009056241 0.005947569 -0.003162718 0.005051227 -0.023789104 0.050213501 -0.049696773 -0.002733816 0.048180670 -0.021895010 -0.114691094 -0.039262012 0.040088341 0.020690497 -0.027652953 0.001464590 -0.015904941 -0.009180712 0.006834122 0.049799897 0.003616868 0.020019146 -0.005358431 -0.023818936 -0.008873458 -0.003279334 0.033040904 -0.006876910 0.009111044 -0.011683661 0.007196862 0.026985478 0.017063173 -0.031852182 0.007381847 0.035793450 0.030553469 0.037000030 0.038699292 -0.010571443 0.035301905 -0.001273245 -0.014439573 0.008807188 0.058209457 -0.052003402 0.033007283 -0.029991515 0.019372476 0.044263262 -0.018757526 -0.059910689 -0.044878177 0.014213454 0.017893845 0.043232944 -0.024454623 0.013063302 0.013986895 -0.027499214 0.010414743 0.016754435 0.001843276 0.013647830 0.006713953 0.015770499 0.008610607 -0.087892473 0.056415536 -0.010191193 0.041583579 0.106975690 0.013935624 -0.042086925 0.029874163 -0.037837714 -0.005792893 0.005612188 -0.049806733 -0.062033899 -0.048660010 -0.034450494 0.049924660 -0.042255051 0.003590934 0.051619086 0.090014145 -0.030523121 0.058972005 0.010449473 0.028124815 -0.028666224 -0.029285461 0.005780027 0.008154709 -0.021402255 -0.043639496 0.001089908 -0.042095460 0.015988421 -0.008829425 -0.021813763 -0.046198688 0.035699416 0.005952835 -0.000412081 -0.013267125 0.048604388 0.104563095 0.084864430 -0.009339570 -0.155159354 0.027499275 -0.022413248 -0.020278368 -0.041433562 0.057145689 -0.023391888 0.050434794 -0.048470929 0.015399400 0.011940054 0.039383456 0.016601587 -0.046228427 -0.103461556 0.021630816 -0.058764551 0.107697435 -0.080407083 -0.023202457 -0.004744871 -0.087845653 -0.017567445 -0.005006535 0.002954563 -0.002888167 0.040801484 0.022603577 0.043567490 -0.016393175 -0.111268640 -0.068191111 -0.015859002 -0.019039189 -0.029859165 -0.039781168 -0.061491795 -0.047955815 -0.038600199 0.000752956 0.067386530 -0.011689439 0.014616323 -0.004225432 -0.014645057 0.045868501 -0.014965104 0.029048355 0.005771091 -0.008418565 -0.014171625 -0.027697938 -0.033397317 0.002045835 -0.014078376 -0.070516184 -0.114500865 0.000056077 0.015079997 -0.004498948 -0.023216382 0.015007995 0.001117244 -0.026142169 0.041040376 0.086575665 0.015320042 0.049528886 -0.017163372 0.028080780 -0.053363692 -0.062637232 -0.012672116 -0.000659252 0.074612327 -0.059580281 -0.036581084 -0.026019245 -0.043264758 0.041407228 0.033272546 0.027825627 0.030459603 0.057410896 -0.150079533 -0.024619652 -0.017864387 -0.023772322 -0.045594830 -0.050878409 0.064906590 -0.035968378 -0.024099095 -0.008421952 0.052468341 0.024839105 0.001895940 0.022998519 0.053957582 0.008191573 0.007798514 -0.020806862 0.027967492 -0.013060456 -0.041313589 0.071281023 0.045105245 0.086555868 -0.047999408 -0.111939624 -0.015860517 -0.083310366 0.015859995 -0.045568816 -0.073139928 0.002424320 0.048292141 -0.064281933 0.009726102 -0.034425333 -0.011457263 0.033350464 -0.023976918 -0.054299347 -0.009649539 0.016285796 0.001915561 0.020245856 0.058474731 0.028403305 -0.003491998 0.042053316 0.006438971 -0.049019717 0.082128383 -0.070355453 -0.023375204 -0.067517094 -0.023111416 -0.030414365 0.000257933 -0.045675788 -0.000227871 0.076416910 -0.066662244 -0.037900042 -0.003457474 -0.059092734 -0.047436152 0.021746533 -0.029230338 -0.010012645 -0.006187793 0.001271471 0.029820928 -0.032678209 0.031582594 0.028930381 -0.009496833 0.056031376 -0.055852164 -0.000975326 0.068299122 0.063736558 0.024165563 0.049883943 0.037102178 0.004156168 0.026389448 -0.024248101 0.004234958 0.003937409 0.071688391 -0.012701050 -0.013819749 0.015741425 -0.001903462 -0.020362856 -0.021357480 -0.101627767
needed	-0.014646745 -0.046308648 0.043613315 -0.062913239 -0.064179741 0.005243411 0.039657079 0.008712663 -0.025243916 0.010376408 0.008997513 -0.003089749 0.006187046 -0.023187280 0.050530575 -0.051066179 -0.004805386 0.047756474 -0.022813281 -0.113839127 -0.038187690 0.042049047 0.018378895 -0.024926553 0.002112792 -0.014197739 -0.009146932 0.008239025 0.051841475 0.004631930 0.022355666 -0.003744289 -0.022888638 -0.009938045 -0.004968102 0.035141960 -0.007134520 0.009022088 -0.013621364 0.007578226 0.026464486 0.017210227 -0.033840578 0.006983689 0.035655402 0.030314485 0.036769997 0.037062809 -0.010630151 0.032947190 -0.001113944 -0.014525666 0.009943347 0.059616715 -0.051563784 0.032145835 -0.028527178 0.021706684 0.046821874 -0.019854631 -0.059661120 -0.043425512 0.015013503 0.018909989 0.044485368 -0.026140252 0.012944601 0.015182712 -0.028674526 0.011759000 0.016827181 0.000737972 0.013153025 0.009164505 0.016936170 0.009927275 -0.089373730 0.057691298 -0.010512239 0.042424135 0.106521033 0.014654204 -0.043751545 0.030496191 -0.037135202 -0.006161846 0.005265269 -0.050982937 -0.063301481 -0.049274504 -0.034082040 0.048559703 -0.043648753 0.002172324 0.051996451 0.089715607 -0.030006008 0.059982736 0.012525297 0.029188659 -0.027482998 -0.028060244 0.008205316 0.007562126 -0.020282555 -0.043443531 0.000637699 -0.040397812 0.015360666 -0.007585929 -0.020617617 -0.045844346 0.034329165 0.006415136 -0.000930690 -0.012416529 0.049524970 0.104360990 0.082906514 -0.009681102 -0.155139074 0.028638856 -0.021684341 -0.020955076 -0.041144986 0.058316905 -0.025301820 0.049443714 -0.046830330 0.014552757 0.010034213 0.041520588 0.014967489 -0.045467496 -0.102394156 0.021918530 -0.058839697 0.107040353 -0.078910545 -0.022320921 -0.004219471 -0.088438027 -0.016848052 -0.005570807 0.003928943 -0.003768276 0.040216226 0.025745969 0.040838264 -0.017907923 -0.110513546 -0.066648044 -0.014179165 -0.021346236 -0.031365994 -0.038444698 -0.063252173 -0.048222143 -0.037777364 -0.000888357 0.069103219 -0.011855236 0.016904073 -0.003041223 -0.013146341 0.044550236 -0.014555195 0.028808894 0.005763701 -0.005615864 -0.012703514 -0.026493801 -0.033959888 0.003079019 -0.011512879 -0.072334610 -0.111859605 -0.003151480 0.014753330 -0.002985157 -0.020442991 0.015646892 0.002495826 -0.023544921 0.041527249 0.088350885 0.017130196 0.051248543 -0.015452388 0.026477749 -0.054707784 -0.061328258 -0.011530206 -0.001323737 0.075750902 -0.062241059 -0.033541970 -0.025155051 -0.045941498 0.043304168 0.033836544 0.025325840 0.031491779 0.058997039 -0.149011493 -0.026429139 -0.018729875 -0.022793714 -0.045571249 -0.049690947 0.065274976 -0.033697858 -0.022712829 -0.006505584 0.054384217 0.022401985 0.002356154 0.023742491 0.054171074 0.006725364 0.007644425 -0.020534728 0.029713295 -0.011191651 -0.041139763 0.069139518 0.043071453 0.087900333 -0.048219416 -0.111786351 -0.016232936 -0.082728349 0.014125507 -0.044391315 -0.073175527 0.001118924 0.049236670 -0.062872000 0.010925015 -0.034637678 -0.012415890 0.032833792 -0.025406107 -0.051336415 -0.007901654 0.016464587 0.003005230 0.022781203 0.059008379 0.026173607 -0.004377843 0.042630523 0.005518998 -0.051474862 0.082650244 -0.069623202 -0.020649010 -0.066368714 -0.023827611 -0.030153053 -0.000529701 -0.045919366 0.001209100 0.077694871 -0.065290466 -0.038812276 -0.005300501 -0.058213595 -0.048178997 0.020287482 -0.030971158 -0.012017673 -0.008284514 0.003212930 0.027217882 -0.031686973 0.030493081 0.028048107 -0.009383978 0.054611094 -0.053515863 0.001499441 0.069059573 0.065350831 0.024624482 0.047998670 0.034268104 0.001766844 0.025654474 -0.025278047 0.006166781 0.003236740 0.073763534 -0.013828166 -0.013800165 0.016541202 -0.002659576 -0.019425334 -0.022435263 -0.102014355
run	-0.036733333 -0.122039258 0.110132471 -0.161621898 -0.172105640 0.011851602 0.101355389 0.024679482 -0.063400462 0.022544801 0.020735862 -0.012049419 0.015244486 -0.059142917 0.128145561 -0.127115667 -0.009918827 0.123920552 -0.057708036 -0.296625316 -0.100020230 0.105446331 0.050650869 -0.068527237 0.003214421 -0.040587392 -0.022392767 0.021098981 0.133333191 0.009312056 0.053167652 -0.011527267 -0.060568847 -0.026819564 -0.011769637 0.088637605 -0.019611659 0.021795159 -0.035357445 0.019781191 0.066994697 0.047596879 -0.086775303 0.016791286 0.092526048 0.081025809 0.094103940 0.098674186 -0.026567118 0.090227403 0.000033518 -0.034464233 0.025443478 0.151186541 -0.131529614 0.081310354 -0.078197129 0.054743048 0.118611954 -0.049904633 -0.151603609 -0.116057068 0.034578200 0.047590546 0.112550668 -0.066341892 0.030010032 0.039583866 -0.069232658 0.028858049 0.047886193 0.003561517 0.035621688 0.021154871 0.038750447 0.023269521 -0.230053112 0.148078546 -0.029399874 0.108803056 0.279924154 0.037531245 -0.111291178 0.075839609 -0.097552411 -0.016073892 0.010546625 -0.128130928 -0.162962899 -0.129018486 -0.087246373 0.130311191 -0.113175496 0.007946840 0.134734482 0.234036043 -0.076418757 0.157162681 0.027981061 0.072746582 -0.072461031 -0.072773792 0.016702536 0.017406963 -0.054248292 -0.115359522 0.002708263 -0.110432699 0.042233642 -0.022516204 -0.053506587 -0.115706787 0.092414193 0.018528437 -0.003641901 -0.035845697 0.127063230 0.276941150 0.216369599 -0.025239130 -0.400980920 0.075737908 -0.054019675 -0.056456588 -0.110125929 0.151639566 -0.060753983 0.130921379 -0.124091044 0.038014024 0.027018227 0.107762031 0.038676817 -0.119664848 -0.265613109 0.055735465 -0.151163951 0.279195249 -0.206422210 -0.056691393 -0.006854368 -0.226791665 -0.043779228 -0.015039566 0.007031082 -0.009443772 0.104785569 0.061511271 0.111579098 -0.041786853 -0.287994683 -0.176599100 -0.041753810 -0.052211221 -0.079704702 -0.105581172 -0.159102097 -0.125100732 -0.101049319 -0.003721532 0.177875996 -0.033384085 0.040472757 -0.010342456 -0.037071884 0.120483845 -0.040612452 0.079629607 0.017447200 -0.018792916 -0.037218835 -0.073393397 -0.087824099 0.009161803 -0.032200798 -0.187941194 -0.294978231 -0.003179414 0.040402029 -0.010413787 -0.057842955 0.038977593 0.007529407 -0.064288728 0.106200881 0.227436423 0.042009041 0.129653439 -0.043410685 0.069241047 -0.141661093 -0.159518823 -0.032492988 -0.003321942 0.195631832 -0.157849938 -0.091758877 -0.068175070 -0.117254727 0.108448088 0.087959722 0.069327384 0.081062049 0.152479768 -0.387025058 -0.063776992 -0.050795976 -0.058923587 -0.120660789 -0.133357465 0.167475820 -0.087894104 -0.064674854 -0.018338749 0.138320953 0.062222015 0.002170385 0.061168551 0.141010687 0.017815838 0.018868934 -0.051671665 0.076807350 -0.031668369 -0.106993251 0.180501983 0.113041475 0.229418859 -0.125932753 -0.287736714 -0.039784733 -0.213575527 0.036908545 -0.119430892 -0.188564718 0.005925014 0.130465567 -0.166888371 0.026904210 -0.091632761 -0.032666694 0.083023377 -0.063986212 -0.138837576 -0.019785190 0.043572612 0.003146454 0.054965269 0.156650454 0.070162483 -0.009672578 0.108471878 0.013924267 -0.131399587 0.212148145 -0.180073380 -0.057273939 -0.170976251 -0.058073420 -0.080299795 0.003248122 -0.116264619 -0.001245542 0.201429635 -0.170743674 -0.100110099 -0.009828958 -0.150638863 -0.125817820 0.053064018 -0.077411190 -0.025960734 -0.019121256 0.008979874 0.073544942 -0.084024951 0.082016647 0.074661538 -0.023548519 0.141345441 -0.144605979 -0.000240591 0.178620115 0.169293627 0.064839043 0.128316835 0.091693215 0.007884888 0.070866987 -0.063360959 0.014458113 0.011808380 0.190510109 -0.036380064 -0.039350089 0.041122410 -0.004593465 -0.051980358 -0.057127535 -0.267858624
digital	-0.018954592 -0.058627058 0.055421691 -0.078549616 -0.082905397 0.003997869 0.049743760 0.013532859 -0.031117354 0.011771380 0.009461418 -0.005522276 0.009360597 -0.029024893 0.062937394 -0.062107682 -0.005517388 0.060427219 -0.028239870 -0.146813542 -0.049938586 0.050250601 0.025505085 -0.033199836 0.001366508 -0.019589694 -0.012202744 0.010336122 0.066672772 0.003974753 0.026211057 -0.005323677 -0.030677043 -0.014548876 -0.005202105 0.043469183 -0.008789618 0.011390859 -0.017413557 0.010165680 0.031012330 0.024415322 -0.040727530 0.010140976 0.044139761 0.039393686 0.045308068 0.049183797 -0.014668494 0.042269174 -0.001787618 -0.016378695 0.012107094 0.072782278 -0.064878531 0.039774850 -0.036995791 0.027547574 0.058403954 -0.024722897 -0.075888626 -0.054805074 0.017559757 0.023279669 0.054950554 -0.030854568 0.016465228 0.019640151 -0.034332603 0.013640086 0.024497107 -0.000088851 0.018146386 0.010056600 0.020608664 0.013092784 -0.110826634 0.073157132 -0.013993570 0.054083835 0.137146190 0.018604314 -0.053794462 0.036718447 -0.047773171 -0.009697525 0.004988696 -0.062190447 -0.080083326 -0.063503183 -0.041960843 0.062765829 -0.056205366 0.003146538 0.066510051 0.114061348 -0.037771024 0.075485438 0.014739187 0.034310557 -0.033542134 -0.035943694 0.009315797 0.007705209 -0.026753914 -0.058191095 -0.001114049 -0.052763488 0.022750726 -0.010067798 -0.027152540 -0.056277361 0.044171143 0.007920440 -0.003920955 -0.017587269 0.060656067 0.133943021 0.107447006 -0.012201160 -0.196024910 0.037002157 -0.026754728 -0.028719459 -0.052093249 0.075640693 -0.029430639 0.064485520 -0.059282944 0.016900441 0.014226192 0.052768439 0.020879274 -0.058035027 -0.130411699 0.027397312 -0.075375497 0.136867478 -0.101648599 -0.027033016 -0.004406551 -0.111822180 -0.021947077 -0.007326095 0.003448429 -0.003819413 0.049373627 0.030476855 0.052461646 -0.020813340 -0.142185688 -0.085510321 -0.018962657 -0.025561482 -0.036707044 -0.050867543 -0.077275984 -0.062215555 -0.047239244 0.000588553 0.084724993 -0.016705412 0.018140312 -0.004142219 -0.016353900 0.059710104 -0.020505892 0.036879923 0.007358383 -0.009840284 -0.017367911 -0.035501868 -0.042653378 0.003611324 -0.016729012 -0.091133431 -0.143405035 -0.001493904 0.020659290 -0.005260021 -0.026329879 0.021135110 0.001550214 -0.031388748 0.052461285 0.110026829 0.019975711 0.064645186 -0.020448195 0.032991633 -0.069027930 -0.077235967 -0.015783619 0.000435300 0.097616985 -0.076568216 -0.044179063 -0.033411268 -0.057378218 0.053090408 0.041835397 0.031950071 0.038033869 0.076122023 -0.188508913 -0.032314237 -0.024235491 -0.029261846 -0.059273060 -0.065143473 0.083458059 -0.042576417 -0.029388139 -0.009559730 0.065786734 0.030998589 -0.000137351 0.029303657 0.068028376 0.009499495 0.010012218 -0.025835624 0.038559347 -0.015875535 -0.053524025 0.089586720 0.054552983 0.112610191 -0.061376229 -0.141950995 -0.017349141 -0.103061490 0.017626159 -0.058621608 -0.091867238 0.003208417 0.065006927 -0.081718385 0.014000961 -0.046171781 -0.016757928 0.042287089 -0.031379446 -0.067295045 -0.009166583 0.021503361 0.003648941 0.026149701 0.076350234 0.034627549 -0.005387695 0.051384639 0.005927179 -0.061863724 0.101731196 -0.090288796 -0.028521838 -0.084297679 -0.027250033 -0.038331460 -0.000197023 -0.056369755 -0.000060958 0.099219397 -0.082527094 -0.046977621 -0.005732283 -0.074028991 -0.062378004 0.026146756 -0.038097713 -0.015042486 -0.007664918 0.005071588 0.036272675 -0.039266631 0.038223125 0.036819693 -0.013078599 0.069149710 -0.069536150 0.001462955 0.087839380 0.081741169 0.030136876 0.063666716 0.044888925 0.004412856 0.033979207 -0.028824873 0.007937556 0.005101725 0.093446344 -0.017940180 -0.018400079 0.021894816 -0.002900526 -0.023351246 -0.025938075 -0.129960790
heard	-0.031801030 -0.107143767 0.097170129 -0.143894210 -0.148024574 0.009591874 0.087493815 0.022635506 -0.055682048 0.020771047 0.017611064 -0.008816189 0.014262671 -0.050983164 0.112910233 -0.111911610 -0.008484679 0.109570622 -0.050005369 -0.261190891 -0.088826887 0.093348376 0.044815686 -0.060817204 0.002401776 -0.034507651 -0.019210350 0.019701524 0.117007457 0.009477657 0.049058188 -0.010280114 -0.052148961 -0.023232318 -0.009656243 0.078108542 -0.019070985 0.018290320 -0.030290702 0.015781065 0.057546660 0.039481129 -0.076355286 0.015724991 0.081113696 0.073072717 0.080112241 0.088107124 -0.023276977 0.078302905 -0.001778673 -0.029966133 0.022757581 0.130705073 -0.114586979 0.073123984 -0.067754865 0.046837986 0.101924412 -0.044058863 -0.132463828 -0.100431919 0.030684384 0.042280030 0.098013170 -0.058118589 0.028526463 0.036666650 -0.062921651 0.027363397 0.040324572 0.001310892 0.029558776 0.017883688 0.033751540 0.019694256 -0.201006725 0.129064158 -0.025032943 0.093551122 0.247286901 0.033100665 -0.097671732 0.067348294 -0.085561946 -0.013710041 0.007856323 -0.112754010 -0.142999977 -0.113507971 -0.077687852 0.113727652 -0.099384829 0.008915473 0.117444500 0.204062119 -0.067426585 0.136208862 0.025653588 0.065510996 -0.064057559 -0.063353375 0.015641415 0.016010249 -0.050052974 -0.100599028 0.001325319 -0.096699424 0.037928987 -0.021366678 -0.047928475 -0.102679335 0.080668561 0.018072868 -0.004016544 -0.031851191 0.109130263 0.240492031 0.191923976 -0.023536932 -0.351534069 0.064945512 -0.046996575 -0.049919073 -0.096097454 0.134542927 -0.052513696 0.114030451 -0.109242782 0.033087309 0.025185367 0.091128662 0.036956113 -0.106348373 -0.231650278 0.047483675 -0.134011567 0.245053381 -0.180181578 -0.050240550 -0.007859805 -0.198983952 -0.039200809 -0.011646235 0.004547465 -0.008786750 0.092308588 0.055968028 0.094906904 -0.039262045 -0.252947509 -0.152702659 -0.036555335 -0.046055257 -0.067420512 -0.092013285 -0.139834210 -0.110645518 -0.088461116 -0.000858888 0.156349361 -0.028264951 0.034703646 -0.010524835 -0.033259191 0.104180627 -0.033858616 0.067475721 0.013285876 -0.017156761 -0.032940906 -0.065357625 -0.077251211 0.008391071 -0.028204789 -0.163273767 -0.256898016 -0.003241233 0.036139984 -0.008904982 -0.047665048 0.034311678 0.005075432 -0.056668080 0.095593981 0.199949384 0.035051636 0.112654492 -0.036298279 0.062315129 -0.123027653 -0.139027730 -0.030710191 -0.002373076 0.171340376 -0.141063616 -0.080408841 -0.060616266 -0.102667160 0.096159510 0.077793099 0.058307659 0.070922025 0.133716077 -0.339373350 -0.055402398 -0.042657718 -0.053363800 -0.103926525 -0.115135901 0.147329226 -0.077345438 -0.056407582 -0.017027376 0.119221330 0.052669272 0.002231800 0.054478031 0.124883458 0.015078462 0.015764976 -0.047136679 0.064923726 -0.027363742 -0.092216492 0.158291027 0.099953778 0.200428814 -0.111626595 -0.254109800 -0.034652021 -0.187783554 0.030823160 -0.102332033 -0.165155888 0.004857014 0.112886734 -0.146990001 0.023945371 -0.082714252 -0.029996758 0.071457975 -0.056313504 -0.119465642 -0.020522475 0.034926780 0.004222438 0.049590897 0.135569364 0.062500373 -0.007004219 0.095014676 0.012287985 -0.115290560 0.182988644 -0.158641353 -0.050253220 -0.151749015 -0.051028084 -0.070783839 0.002497180 -0.103321657 0.001358921 0.178377882 -0.150398731 -0.087489791 -0.010633256 -0.132684022 -0.111520477 0.048383795 -0.067726135 -0.022514045 -0.015803384 0.007558445 0.064345926 -0.071343169 0.069570273 0.066775084 -0.021578709 0.124124236 -0.127074718 0.000589024 0.156621382 0.147512242 0.055568412 0.112933539 0.080826625 0.006267248 0.063036069 -0.054240379 0.010931522 0.011296809 0.167336181 -0.031130664 -0.031636305 0.038647104 -0.005467807 -0.044707384 -0.050846804 -0.236242637
lets	-0.007550875 -0.027088467 0.024912465 -0.036900945 -0.040434767 0.004164454 0.023589579 0.006842048 -0.013382507 0.004202352 0.003428907 -0.002134703 0.004231903 -0.011851143 0.030759048 -0.028508501 -0.001767990 0.028408134 -0.012138784 -0.068413757 -0.022647342 0.024744468 0.011192236 -0.015639970 0.001971111 -0.007592320 -0.003603612 0.006481921 0.030609095 0.000762979 0.011289833 -0.003816578 -0.013824552 -0.007065638 -0.001217548 0.021191230 -0.004498457 0.004425076 -0.008926488 0.004154733 0.014377485 0.011352803 -0.021439055 0.003999431 0.019963879 0.019671181 0.020238005 0.021428239 -0.006560740 0.020784579 0.000866167 -0.008319264 0.004547671 0.036247242 -0.029469555 0.019411933 -0.018500173 0.012555619 0.028890381 -0.013409705 -0.035127897 -0.026973778 0.008836217 0.009908957 0.026632328 -0.016434586 0.007467837 0.008346154 -0.016461952 0.007776617 0.010580194 0.001266289 0.007844403 0.003404028 0.008962232 0.007241680 -0.051920634 0.033762336 -0.005347434 0.023759983 0.064086594 0.007503401 -0.026183840 0.016478909 -0.023618653 -0.003704683 0.001099334 -0.031402897 -0.038902011 -0.028179741 -0.020175926 0.029581880 -0.026745362 0.003407780 0.030806594 0.052728403 -0.018988285 0.036911622 0.005746345 0.018472169 -0.015928213 -0.016664546 0.005189402 0.003437874 -0.014147510 -0.027847709 0.000939596 -0.026410945 0.010297346 -0.006902087 -0.013688272 -0.026542081 0.020591587 0.005675164 -0.001067032 -0.008524874 0.029614065 0.064467467 0.048886463 -0.005892630 -0.091368131 0.016793197 -0.011149268 -0.013747632 -0.026752355 0.034520511 -0.014511997 0.029406603 -0.028339854 0.009102774 0.007389999 0.025896009 0.008930027 -0.026208557 -0.061035704 0.014078110 -0.033471700 0.065072127 -0.047554735 -0.014456333 -0.001177603 -0.052753258 -0.009233859 -0.002066938 0.000232738 -0.001547472 0.022435792 0.014833494 0.025442341 -0.010827813 -0.067556165 -0.040366378 -0.008381419 -0.013923522 -0.017900808 -0.024833826 -0.037971269 -0.029218636 -0.024188606 0.000187180 0.041208651 -0.007381854 0.010388420 -0.003962702 -0.009078040 0.026490774 -0.009247109 0.017553074 0.002627508 -0.003661938 -0.009610311 -0.016213289 -0.019864462 0.001241950 -0.008893181 -0.042663425 -0.066647105 -0.002087427 0.010686888 -0.001289294 -0.013319544 0.008221051 0.002922962 -0.013398769 0.026038924 0.051457614 0.008755160 0.029225379 -0.010341446 0.014672443 -0.031875938 -0.038276553 -0.008816105 0.000743565 0.045572709 -0.037819784 -0.021436011 -0.016405532 -0.027877694 0.023796884 0.022100663 0.016680853 0.018089090 0.036550920 -0.089066632 -0.015989458 -0.012902640 -0.012230755 -0.027584977 -0.029353786 0.040332135 -0.021831958 -0.016249558 -0.005611319 0.033172365 0.013876700 -0.000210142 0.013069959 0.033258032 0.003737442 0.004866128 -0.011819456 0.019024577 -0.006272820 -0.024665147 0.040760778 0.024786729 0.051116742 -0.028352585 -0.066154256 -0.010052739 -0.049780436 0.008208377 -0.027633103 -0.042849462 0.002577154 0.029335968 -0.037864655 0.005432077 -0.022488723 -0.006507908 0.019390443 -0.013596611 -0.031652246 -0.003803358 0.008989650 0.001951445 0.012446051 0.036215656 0.016562322 -0.002210871 0.026005384 0.002807059 -0.030586645 0.050196648 -0.042976446 -0.012247267 -0.041213255 -0.012267333 -0.019711284 0.000194787 -0.027814217 -0.000422722 0.047288425 -0.040945921 -0.022889473 -0.003930407 -0.033784747 -0.029864930 0.011270830 -0.018557439 -0.007234010 -0.004688651 0.003296870 0.018449232 -0.018501479 0.017113360 0.015926961 -0.006850154 0.031724568 -0.034290280 -0.000660391 0.040045738 0.039699528 0.015245333 0.030331427 0.020484775 0.003698417 0.016927144 -0.014820001 0.002301994 0.002888754 0.043240000 -0.008227528 -0.010352326 0.010476847 0.000335406 -0.013218709 -0.014621100 -0.060915284
bit	-0.050528452 -0.162939936 0.148584604 -0.221518189 -0.230527654 0.014035966 0.135582611 0.035404965 -0.087212682 0.032981034 0.024564033 -0.013171979 0.022256734 -0.079495296 0.174194455 -0.173550472 -0.014714628 0.168413803 -0.079820640 -0.400398284 -0.134770870 0.143366888 0.070469715 -0.090485848 0.005618592 -0.053876653 -0.028209986 0.030358765 0.179765910 0.011517094 0.075044230 -0.013620849 -0.082287885 -0.038248707 -0.015739882 0.118868656 -0.025980890 0.028842464 -0.046507794 0.025375960 0.089271568 0.061281588 -0.117389426 0.024262412 0.124238856 0.110540956 0.124377452 0.133527935 -0.037289910 0.121122129 -0.002912306 -0.046746284 0.034176402 0.203007445 -0.177347332 0.110863961 -0.105883040 0.073467888 0.159861505 -0.068900891 -0.206880867 -0.152585104 0.050303873 0.064011775 0.153870597 -0.087110445 0.041543655 0.055626228 -0.093981020 0.039952636 0.062532656 0.003738495 0.045206152 0.026219087 0.055451781 0.033354890 -0.308331639 0.196465746 -0.038889259 0.146132246 0.378190339 0.049481280 -0.150264278 0.104177721 -0.130131796 -0.023712624 0.014059168 -0.173198491 -0.218286037 -0.172982529 -0.119166002 0.175504252 -0.151674569 0.010341163 0.179362699 0.314157248 -0.104586489 0.209536314 0.040239394 0.097250059 -0.096458741 -0.097017102 0.024120860 0.026736639 -0.073782936 -0.156684339 0.003092343 -0.145439848 0.056973442 -0.032619085 -0.073691815 -0.159037381 0.125807598 0.025618916 -0.006460971 -0.047761276 0.169366628 0.370646983 0.294213712 -0.033069156 -0.540485144 0.098883636 -0.074639410 -0.074311227 -0.147481903 0.205005646 -0.084507138 0.173898533 -0.168028384 0.049957477 0.037863255 0.142903641 0.054964896 -0.162798107 -0.358426571 0.076613165 -0.203741059 0.378928870 -0.275175095 -0.073828466 -0.012260175 -0.305011660 -0.058597796 -0.017789826 0.009871270 -0.011886181 0.140908450 0.086202972 0.149783432 -0.059429452 -0.388431042 -0.235645339 -0.054264877 -0.071985222 -0.104550257 -0.138978228 -0.217329383 -0.167743191 -0.133915782 -0.003554938 0.239276260 -0.045763664 0.052872337 -0.014114981 -0.049466390 0.162054151 -0.055240385 0.103614800 0.022206359 -0.023167973 -0.051527563 -0.097848080 -0.118716396 0.011999688 -0.045745738 -0.253098637 -0.395315021 -0.006410435 0.054129787 -0.015325134 -0.075373605 0.055300076 0.008796602 -0.085684322 0.143778980 0.304901838 0.055418767 0.175127223 -0.057397779 0.095510200 -0.189651683 -0.214709222 -0.045979265 -0.002190768 0.263978720 -0.216137305 -0.121830843 -0.091956213 -0.155661166 0.147709534 0.120352022 0.090132453 0.109931536 0.206789464 -0.521994352 -0.086507067 -0.067319296 -0.078919627 -0.162478581 -0.176429421 0.229233027 -0.119614713 -0.085981488 -0.026828624 0.185120717 0.080624223 0.003180645 0.082740635 0.190192133 0.022880645 0.023069341 -0.069143340 0.103022002 -0.040217586 -0.142931551 0.244106665 0.154788792 0.306513935 -0.171966165 -0.388495117 -0.053171251 -0.289018691 0.051374577 -0.159586012 -0.252774715 0.008262025 0.173427001 -0.225357294 0.035539471 -0.125330895 -0.045462284 0.113070503 -0.085219964 -0.184745744 -0.029922489 0.054450762 0.004165134 0.074594043 0.210631877 0.092439376 -0.012201112 0.146197364 0.021025529 -0.175380901 0.282463461 -0.245716214 -0.077225924 -0.231559575 -0.080674402 -0.106882289 0.003977669 -0.159150019 -0.000991683 0.271251291 -0.229070395 -0.131716251 -0.012237852 -0.204649732 -0.171768427 0.073220380 -0.104769163 -0.038238171 -0.026559547 0.008526861 0.099297233 -0.111711629 0.108906463 0.101980872 -0.030291332 0.192219719 -0.194086611 0.002084938 0.240825206 0.228465825 0.085548207 0.172422722 0.125922620 0.011514223 0.094695963 -0.084153384 0.016119624 0.014085272 0.257717252 -0.048681732 -0.051972542 0.056629635 -0.005253317 -0.067366734 -0.076260932 -0.359942228
data	-0.041963462 -0.142252415 0.130152211 -0.188346341 -0.197964251 0.014819903 0.116902374 0.028082296 -0.074660592 0.028054997 0.022404235 -0.011538241 0.020397473 -0.067338690 0.149358660 -0.149378210 -0.010430783 0.144770712 -0.067310020 -0.346412003 -0.116232686 0.125081450 0.060935650 -0.078259408 0.006638557 -0.047612421 -0.023269651 0.025488783 0.154666126 0.011322748 0.062984392 -0.013668193 -0.069300249 -0.031626917 -0.012278274 0.103883475 -0.024381338 0.026351983 -0.038270500 0.022077672 0.076586850 0.054623563 -0.100737259 0.018757557 0.106320404 0.095490687 0.108758740 0.116635464 -0.030832514 0.102142923 -0.000980144 -0.042998239 0.028143441 0.174702987 -0.154747620 0.096646398 -0.091897212 0.061876096 0.136741087 -0.058614668 -0.179037318 -0.131105438 0.042152051 0.057331048 0.131120399 -0.074792095 0.038257129 0.045787681 -0.083288662 0.033198982 0.056147106 0.003887501 0.040316738 0.023262504 0.047481939 0.029330539 -0.266930908 0.170960411 -0.035303477 0.126740217 0.326309681 0.044175997 -0.128487349 0.088707894 -0.111316845 -0.020855049 0.010936504 -0.150412709 -0.187833712 -0.150505051 -0.102012046 0.149597347 -0.131804302 0.009375976 0.153481826 0.271583498 -0.090312228 0.181448743 0.032817222 0.083274238 -0.083690368 -0.084972002 0.020106308 0.022362452 -0.062828884 -0.133814961 0.003094324 -0.126445740 0.049142838 -0.026797803 -0.062356662 -0.136378810 0.107508942 0.023104800 -0.004013132 -0.041147560 0.147674903 0.320758134 0.253930211 -0.030370837 -0.468062341 0.086134501 -0.063254997 -0.066234440 -0.125630885 0.175532997 -0.070170425 0.149283692 -0.143688470 0.045550678 0.032612354 0.123936877 0.046210993 -0.138715819 -0.306565613 0.066555098 -0.177775040 0.327921987 -0.239338785 -0.066412449 -0.009299314 -0.263200969 -0.050740574 -0.014430509 0.006347176 -0.009998655 0.121410519 0.073550768 0.129824102 -0.051207092 -0.335147589 -0.203841954 -0.047444049 -0.060725961 -0.090095326 -0.121696204 -0.185974404 -0.145733759 -0.116383284 -0.000646151 0.206255019 -0.039785307 0.047536567 -0.012194891 -0.041486531 0.137886882 -0.046676390 0.090887934 0.020318469 -0.019790273 -0.043293919 -0.083229534 -0.100378506 0.010849874 -0.039608318 -0.217683479 -0.342807889 -0.004826230 0.045437433 -0.014604587 -0.064575665 0.048325706 0.008912032 -0.075905629 0.125783563 0.264117301 0.048914686 0.150019333 -0.050336681 0.080558985 -0.164170399 -0.183880687 -0.039889466 -0.000679648 0.229113981 -0.183687896 -0.105571747 -0.080087535 -0.133778065 0.126548603 0.103617296 0.078916222 0.094863825 0.177591845 -0.450777560 -0.075192884 -0.055697594 -0.068697706 -0.140573099 -0.154071018 0.197887585 -0.102119789 -0.073157996 -0.022669408 0.158178553 0.071471289 0.001331809 0.071896106 0.165792421 0.021811634 0.019621806 -0.061742615 0.088459924 -0.033706248 -0.123403728 0.209649861 0.131814703 0.267103612 -0.147144258 -0.333802551 -0.046512760 -0.249230325 0.041544326 -0.137466177 -0.218529403 0.007414470 0.151290148 -0.195140779 0.032490019 -0.108847447 -0.036664642 0.096646532 -0.075506419 -0.159590214 -0.026717456 0.047464136 0.005364111 0.064146869 0.182893112 0.079896025 -0.013104782 0.125544876 0.018092634 -0.152103096 0.246639937 -0.212788746 -0.066936113 -0.199808329 -0.066692673 -0.091703124 0.002228387 -0.136390403 0.000351789 0.234450549 -0.198031515 -0.114848964 -0.010888474 -0.175313205 -0.148966819 0.061557215 -0.091885768 -0.030367130 -0.022813883 0.009883251 0.085520364 -0.095055312 0.091352932 0.089000806 -0.027485399 0.165728062 -0.165017724 0.001900180 0.209824726 0.194697663 0.074108817 0.148369208 0.107060798 0.011789073 0.081106506 -0.073892370 0.015987102 0.013440629 0.219783723 -0.039199281 -0.043872051 0.049114436 -0.004359849 -0.057915274 -0.066405490 -0.312500983
rate	-0.018029302 -0.056540176 0.048876502 -0.075858377 -0.078548320 0.003878690 0.046618868 0.012853550 -0.028054358 0.011167898 0.010181115 -0.003717247 0.008711299 -0.025246019 0.059086818 -0.059267402 -0.003712230 0.057030350 -0.028165793 -0.135947347 -0.045343772 0.047663916 0.021661647 -0.031530283 0.002482191 -0.017819602 -0.010423231 0.009079615 0.061738543 0.005630490 0.023542173 -0.004825900 -0.027414080 -0.012078587 -0.006274587 0.039248113 -0.007567520 0.008307218 -0.014251889 0.008116731 0.030466307 0.021602582 -0.037596148 0.007526479 0.040861797 0.037171945 0.044007704 0.044932202 -0.013007719 0.039741836 -0.001640203 -0.017940979 0.011803905 0.068792015 -0.061648838 0.036496397 -0.035758812 0.023383657 0.055390459 -0.022744896 -0.069069311 -0.051730249 0.018071728 0.021946369 0.052737381 -0.030411312 0.015062291 0.018060431 -0.030792236 0.013702077 0.020984694 -0.000052929 0.015738027 0.007682801 0.017651016 0.012533844 -0.105114460 0.067860141 -0.012088786 0.047886949 0.127814189 0.015940886 -0.051590163 0.033962365 -0.044959236 -0.008780316 0.003772058 -0.057691086 -0.073308595 -0.058216803 -0.040050402 0.059183005 -0.052552663 0.004823748 0.061365817 0.105179407 -0.035962727 0.069260605 0.012472664 0.033081755 -0.034244500 -0.032941211 0.006823272 0.007214576 -0.026142865 -0.052005164 0.001420216 -0.048147596 0.020601731 -0.009820073 -0.023358177 -0.053088285 0.043439176 0.007290113 -0.000834425 -0.016926367 0.058482382 0.124925390 0.098534189 -0.010588750 -0.182171449 0.035113998 -0.026712624 -0.025324877 -0.048671164 0.069057673 -0.028311003 0.058062218 -0.055251196 0.018393109 0.011931143 0.046756569 0.017140305 -0.053940892 -0.121346585 0.026707279 -0.069703594 0.129947588 -0.092602618 -0.024672411 -0.005130000 -0.104516253 -0.020494353 -0.007101485 0.003861195 -0.003692711 0.046732206 0.029288141 0.048900265 -0.019252976 -0.132648051 -0.080698960 -0.017718339 -0.024942361 -0.034552108 -0.046846636 -0.072317444 -0.056630611 -0.046453901 0.000430309 0.080188088 -0.013898815 0.018040169 -0.003959171 -0.018131906 0.056263033 -0.019597635 0.035279751 0.007951052 -0.006947658 -0.015684593 -0.034770560 -0.041192777 0.002548263 -0.016580271 -0.086882062 -0.135382012 -0.000478840 0.018452933 -0.006632613 -0.025527677 0.018538272 0.002681640 -0.030280389 0.048980825 0.104892135 0.017308170 0.059854474 -0.021059908 0.031758036 -0.064526811 -0.072392963 -0.016281296 0.000241616 0.089686394 -0.073864505 -0.041864742 -0.030027624 -0.052509092 0.049171396 0.039094266 0.030312227 0.036628757 0.071416356 -0.175859898 -0.031230394 -0.021857120 -0.026923956 -0.053921171 -0.061141342 0.077287264 -0.039564095 -0.030445473 -0.008290694 0.063214682 0.027626019 0.002687224 0.030142345 0.064637534 0.009640330 0.006790349 -0.023347313 0.033167191 -0.012628353 -0.049865045 0.081572890 0.051500011 0.102578342 -0.058636535 -0.131821275 -0.016654562 -0.099210799 0.016777506 -0.055066258 -0.084766626 0.003114513 0.058418714 -0.074384548 0.012494822 -0.043011144 -0.015594424 0.036692560 -0.027621124 -0.063838527 -0.009609120 0.017547484 0.002511626 0.024049796 0.072482519 0.032877121 -0.005639908 0.049564201 0.005212673 -0.058962781 0.095823921 -0.084375679 -0.025269788 -0.078492455 -0.027135359 -0.035460714 -0.000280250 -0.054779679 -0.000242809 0.090811856 -0.076092370 -0.045965441 -0.003662504 -0.070864320 -0.058050554 0.024066444 -0.036854766 -0.011606131 -0.008026503 0.002082037 0.034278609 -0.037126090 0.036486443 0.034288086 -0.009141274 0.063288517 -0.064226240 -0.000338157 0.082156561 0.077212125 0.029221511 0.057764314 0.041601840 0.005092531 0.031616099 -0.028925724 0.005254238 0.006501022 0.086785071 -0.015588193 -0.017347824 0.019417528 -0.003555021 -0.024268935 -0.025322653 -0.124316707
turn	-0.017600765 -0.061237216 0.055717293 -0.080299124 -0.086059831 0.004301466 0.051024068 0.012253736 -0.031160653 0.012864199 0.010130211 -0.006432925 0.008021222 -0.028266558 0.064191855 -0.063954063 -0.005159040 0.063273385 -0.028368395 -0.148917481 -0.049836069 0.053272143 0.025794454 -0.035393804 0.002953328 -0.019129099 -0.009337570 0.012103900 0.067143209 0.003790132 0.027413929 -0.006667492 -0.029568329 -0.014251926 -0.006918333 0.043010950 -0.009823860 0.010778152 -0.017778069 0.010014929 0.031603944 0.022259885 -0.041904546 0.009519565 0.047187302 0.042406395 0.045492537 0.050155107 -0.012291442 0.043184064 -0.000419852 -0.017563941 0.012484347 0.076040871 -0.064646088 0.041041259 -0.038354881 0.028643556 0.059532896 -0.024935462 -0.076251626 -0.058414236 0.018185696 0.023448231 0.058297690 -0.033375531 0.014876634 0.021778453 -0.035655245 0.014831698 0.023989312 0.000696248 0.016255056 0.009003537 0.019786080 0.010713129 -0.115676358 0.073315941 -0.016272623 0.052724242 0.140748575 0.018931083 -0.055521391 0.039776389 -0.047875486 -0.007231004 0.005043017 -0.065605603 -0.079877965 -0.065552093 -0.043510620 0.064330034 -0.058315694 0.003437555 0.067930393 0.115701407 -0.038866732 0.077237889 0.013528695 0.035585050 -0.034653146 -0.034813512 0.009794479 0.009412454 -0.028697632 -0.059282031 0.001917890 -0.055840451 0.020489033 -0.011412330 -0.027973684 -0.060119960 0.045799375 0.008863381 -0.003850219 -0.016474225 0.062624417 0.136220425 0.109330639 -0.012627409 -0.201835886 0.036688775 -0.028626248 -0.029311972 -0.054990161 0.075714588 -0.029821055 0.066301413 -0.062766351 0.018739060 0.013801085 0.053805884 0.021199809 -0.058987588 -0.131060526 0.029013783 -0.077262841 0.141231447 -0.103371367 -0.029593889 -0.002952699 -0.113948010 -0.021575484 -0.007981453 0.001889770 -0.002990927 0.053200949 0.030330407 0.056453269 -0.021889530 -0.144399047 -0.086671636 -0.019265240 -0.026534401 -0.039181300 -0.051596947 -0.080557793 -0.062761717 -0.049123064 -0.001573546 0.088472933 -0.017161759 0.019879727 -0.003556454 -0.017831355 0.059498653 -0.018608669 0.037337821 0.006711741 -0.007901886 -0.018911218 -0.037814714 -0.042398777 0.003137325 -0.018397521 -0.092730932 -0.147892579 -0.002733821 0.018648349 -0.006981508 -0.026411997 0.018621739 0.003825101 -0.033535726 0.053100865 0.114693224 0.019770430 0.065875337 -0.021677228 0.034134597 -0.071838416 -0.080590367 -0.015608882 -0.001222078 0.096992254 -0.078527950 -0.044770792 -0.032379713 -0.056748111 0.053563561 0.044337776 0.033886481 0.041799903 0.076729558 -0.194005325 -0.033183105 -0.024051085 -0.030924391 -0.061008751 -0.065949947 0.084852390 -0.044036277 -0.030128840 -0.009019380 0.067563944 0.029495342 0.001123584 0.031679358 0.071738064 0.009955026 0.008367637 -0.024846906 0.038754039 -0.014494755 -0.054734990 0.090455934 0.058119304 0.114694394 -0.064314626 -0.143095031 -0.018783748 -0.108874172 0.018069809 -0.060482178 -0.094814003 0.003329559 0.065306909 -0.083290458 0.012346073 -0.046393849 -0.017364919 0.040980440 -0.033290215 -0.068916209 -0.009901195 0.019651312 0.001708052 0.029414468 0.076887958 0.035127956 -0.006195350 0.054805338 0.006888784 -0.065459378 0.104784273 -0.091811500 -0.027334984 -0.084959589 -0.028303299 -0.040049881 0.001448782 -0.057778053 0.001075150 0.101916470 -0.084289230 -0.047948383 -0.005128163 -0.075662792 -0.062275220 0.026896697 -0.037967280 -0.012727124 -0.008622958 0.003100026 0.035570104 -0.042589512 0.040456600 0.038577687 -0.011454450 0.072584771 -0.072865985 0.000577786 0.089231625 0.082932308 0.033199769 0.063392639 0.048120689 0.004455546 0.034159482 -0.032119583 0.007520849 0.004870529 0.095619008 -0.016638793 -0.017987376 0.019726265 -0.002232042 -0.026367621 -0.029335899 -0.135355264
actual	-0.011180133 -0.040202029 0.034174293 -0.051835619 -0.055606816 0.004895261 0.031410862 0.007632498 -0.021135939 0.007588414 0.006961673 -0.003003061 0.005753695 -0.019329173 0.040349457 -0.041342329 -0.003994381 0.040621676 -0.017308041 -0.095618069 -0.030831417 0.033128370 0.016594691 -0.021022759 0.001797724 -0.012581061 -0.006908862 0.006578517 0.042217486 0.001745748 0.017036138 -0.004461502 -0.018111968 -0.007385120 -0.002306933 0.027436687 -0.007736638 0.005890823 -0.012518424 0.005537791 0.021518089 0.015677828 -0.027232341 0.005166563 0.030309640 0.027375216 0.031206943 0.032611810 -0.010069970 0.029264946 -0.001762753 -0.010934864 0.007671961 0.047163099 -0.041529655 0.026141919 -0.024468906 0.018172288 0.036907263 -0.016032061 -0.049738280 -0.037799381 0.011306244 0.015025073 0.037899517 -0.019767685 0.010771438 0.014734022 -0.023250965 0.011070137 0.013892621 0.001984975 0.010987745 0.005151049 0.013135118 0.008392977 -0.073250681 0.048961375 -0.009508462 0.035966918 0.089069158 0.012766361 -0.036285531 0.023461629 -0.032317512 -0.004689000 0.003948725 -0.040845990 -0.050919984 -0.041331030 -0.027297556 0.041182049 -0.036792975 0.003560038 0.041478168 0.074989110 -0.026338616 0.051636543 0.009252006 0.024244713 -0.023406999 -0.025008718 0.004952921 0.004911382 -0.019367287 -0.038261373 0.000373954 -0.035942603 0.014780389 -0.007598334 -0.018015917 -0.038713761 0.029409021 0.007287211 -0.000027890 -0.011081805 0.041987881 0.087044872 0.070086792 -0.009812519 -0.128168866 0.025329588 -0.018219274 -0.016843513 -0.035515379 0.050912175 -0.019049495 0.041554444 -0.040063754 0.012806354 0.008691641 0.034850314 0.012196335 -0.038416166 -0.084727518 0.018479995 -0.049086604 0.090664960 -0.065160975 -0.017110180 -0.002210708 -0.073028468 -0.015411626 -0.004909089 0.002499257 -0.002022377 0.032773849 0.019893508 0.036006704 -0.015099457 -0.093180031 -0.054945476 -0.013242495 -0.017456423 -0.024427304 -0.034356810 -0.052679956 -0.041846324 -0.033409268 -0.000142876 0.055509612 -0.011405423 0.013582332 -0.003755962 -0.010932618 0.038358547 -0.011626093 0.025737327 0.004703437 -0.006567203 -0.013548020 -0.023831701 -0.027855832 0.001766334 -0.009126038 -0.059420809 -0.094517991 -0.000760025 0.013207598 -0.004857489 -0.017943049 0.011327924 0.002231351 -0.021791641 0.035036542 0.073555782 0.013892874 0.040606711 -0.013141070 0.024433838 -0.044509806 -0.052150764 -0.009382292 0.000054146 0.065048046 -0.052537616 -0.028786788 -0.020648781 -0.035715770 0.036809813 0.027761377 0.023061365 0.026746683 0.050338723 -0.123326831 -0.019441599 -0.015828021 -0.017914752 -0.037489939 -0.043682825 0.053136092 -0.029238516 -0.019978248 -0.004623174 0.045824159 0.020702073 0.002063006 0.019113528 0.046076883 0.006045288 0.007186782 -0.017688464 0.022700772 -0.009328859 -0.032675527 0.057005499 0.037085883 0.072491489 -0.041438669 -0.094051443 -0.011971555 -0.070317663 0.012994345 -0.038424902 -0.058990117 0.002407753 0.041185636 -0.052263912 0.007837757 -0.029338596 -0.011464408 0.027730817 -0.020363042 -0.044504359 -0.007297756 0.013520510 0.002677061 0.019074744 0.050346240 0.021400262 -0.002343073 0.036036711 0.005746316 -0.042124312 0.067591399 -0.060213394 -0.017785585 -0.056591041 -0.020455357 -0.024381196 0.001843288 -0.038724259 -0.000897537 0.063703947 -0.054459155 -0.031153223 -0.002092079 -0.049476236 -0.041466426 0.019033670 -0.026766781 -0.008872482 -0.004321647 0.003610072 0.022408508 -0.027141968 0.025152234 0.023929110 -0.008714885 0.046605181 -0.044604126 0.000512609 0.057875935 0.055190004 0.020676216 0.041277535 0.030615689 0.003025495 0.023656052 -0.018669805 0.003527133 0.002144349 0.061820645 -0.011243913 -0.011476018 0.012671219 -0.000142721 -0.016371693 -0.017764872 -0.087978348
form	-0.025304761 -0.080816478 0.074149847 -0.108756565 -0.114797115 0.006195763 0.066416942 0.016810810 -0.042612355 0.014278168 0.011875934 -0.006311073 0.011342240 -0.037541173 0.088641167 -0.086069532 -0.007830286 0.086246900 -0.040760256 -0.199325800 -0.065678447 0.072691217 0.034243174 -0.047587298 0.001722996 -0.025788236 -0.013212652 0.016240159 0.091164567 0.005597484 0.038525574 -0.007244122 -0.041437801 -0.019575089 -0.007531398 0.058222927 -0.014554237 0.013607085 -0.021650320 0.013591482 0.045165058 0.032608621 -0.056581501 0.013108897 0.060692728 0.053371564 0.063363120 0.067436539 -0.020183297 0.060202710 0.000165254 -0.025301713 0.017279662 0.102145806 -0.089294247 0.056615144 -0.053793509 0.037397161 0.078238003 -0.034766629 -0.103160374 -0.078107603 0.023655837 0.033469625 0.075984567 -0.043061204 0.020944016 0.026329586 -0.046209853 0.021182235 0.030923322 0.001008603 0.022629950 0.012385709 0.027870459 0.015162760 -0.156744584 0.099833578 -0.019505534 0.071829148 0.189436063 0.024512967 -0.074977197 0.053002380 -0.063708797 -0.011690567 0.007436094 -0.088755839 -0.109863117 -0.087954052 -0.058851097 0.086646594 -0.077284127 0.006314018 0.089694805 0.156611711 -0.052052379 0.103846155 0.019050326 0.050522029 -0.048868548 -0.048056439 0.011580203 0.011198356 -0.038648114 -0.077965468 0.001406694 -0.073142409 0.029665787 -0.015779069 -0.037728157 -0.079514250 0.060544189 0.014372737 -0.002957702 -0.022851132 0.086060032 0.185616359 0.147991031 -0.018628400 -0.271786839 0.049567986 -0.037901267 -0.036151528 -0.072268784 0.104021251 -0.041983802 0.086650677 -0.083452120 0.024123086 0.018578524 0.072267577 0.026559561 -0.081073791 -0.180354774 0.038160730 -0.101814605 0.189170092 -0.138466701 -0.036527146 -0.007207557 -0.152143270 -0.031297699 -0.010495460 0.004147294 -0.005864308 0.069723040 0.042343538 0.075450249 -0.029170386 -0.194688022 -0.116901942 -0.027868364 -0.034152310 -0.052012991 -0.069950633 -0.108535767 -0.084438220 -0.065914236 0.000153931 0.119230464 -0.022680840 0.026119716 -0.005487658 -0.026001088 0.081728876 -0.027876262 0.052484028 0.009671403 -0.012213535 -0.023886381 -0.050513811 -0.059798218 0.006137052 -0.024077544 -0.127553761 -0.198105991 -0.003802795 0.027120141 -0.007346753 -0.039271023 0.025371019 0.002551514 -0.044923976 0.073608749 0.154792324 0.025806796 0.086704485 -0.029819524 0.047687639 -0.096782833 -0.108365834 -0.021213528 -0.000157212 0.131591499 -0.108340234 -0.061875582 -0.047245882 -0.079396814 0.073943004 0.058892649 0.044515163 0.056017384 0.103494518 -0.261447251 -0.043222524 -0.034729581 -0.039615288 -0.080696516 -0.089622661 0.115181796 -0.060426325 -0.042605937 -0.011356697 0.093586564 0.040952146 0.000171210 0.042137008 0.095366426 0.013768261 0.010315195 -0.034549255 0.050499000 -0.021498088 -0.070792057 0.124076083 0.078075454 0.155509546 -0.086534418 -0.194123238 -0.027721016 -0.143715352 0.025612306 -0.078129373 -0.124785051 0.004910963 0.088994227 -0.110437170 0.016941709 -0.061306871 -0.023304172 0.056698013 -0.042246751 -0.093487233 -0.013081235 0.026588531 0.003880246 0.039118174 0.105618693 0.046653811 -0.004967115 0.073151127 0.008830056 -0.087168261 0.140480578 -0.123411767 -0.039891034 -0.114565074 -0.039548621 -0.052539550 0.000623642 -0.078064732 0.001567671 0.136572704 -0.115657635 -0.066876426 -0.007243311 -0.101755433 -0.084887929 0.036950171 -0.053469721 -0.017462626 -0.013148853 0.006095894 0.048552908 -0.055044897 0.054231435 0.049997516 -0.015130914 0.095207356 -0.097133577 0.000071970 0.122349568 0.112694316 0.043171018 0.085875653 0.064404786 0.006499899 0.047737740 -0.042564508 0.007855079 0.008810597 0.127430439 -0.022442546 -0.024430379 0.029462054 -0.004042948 -0.035556573 -0.039863527 -0.180289745
effect	-0.020038076 -0.060809169 0.054460991 -0.082597077 -0.085265227 0.007150588 0.050325766 0.011258774 -0.033217177 0.012959305 0.010575424 -0.006293824 0.008177251 -0.028961448 0.064271078 -0.063931651 -0.006116837 0.063928254 -0.029780598 -0.148667410 -0.049805347 0.051986706 0.026885603 -0.032584388 0.002777425 -0.019848661 -0.009348068 0.012409625 0.067779772 0.006267801 0.027380450 -0.006766043 -0.031509161 -0.014463725 -0.006527750 0.044519525 -0.010403877 0.011613896 -0.016078930 0.011011727 0.034179050 0.023796767 -0.044776466 0.009185840 0.045699175 0.042325038 0.046871141 0.049117688 -0.013755433 0.044329915 -0.002128832 -0.019025175 0.013620895 0.074921109 -0.066636361 0.041600171 -0.039195005 0.026983222 0.058501717 -0.027092811 -0.076160870 -0.058349553 0.017467761 0.022698974 0.057243571 -0.034769963 0.015764743 0.021517897 -0.036391128 0.014304918 0.025239239 0.001861344 0.018043762 0.010210127 0.019689091 0.013835338 -0.114332005 0.074434608 -0.014966628 0.054762676 0.141421512 0.020478033 -0.057666332 0.040482104 -0.050247822 -0.009099172 0.003894782 -0.065814786 -0.081691094 -0.064070359 -0.044885796 0.065089323 -0.056984313 0.002716645 0.065366112 0.117187075 -0.039548501 0.077019408 0.015589737 0.038131997 -0.035322811 -0.038017891 0.008883581 0.008078392 -0.026363671 -0.056898076 0.002202302 -0.055912547 0.023422385 -0.011142411 -0.025359476 -0.058259372 0.045670684 0.008312362 -0.003196119 -0.017715937 0.062196668 0.138462216 0.109685861 -0.011204328 -0.202801034 0.037422348 -0.026163768 -0.029691098 -0.053753775 0.078089096 -0.029852061 0.064426459 -0.062779188 0.020442223 0.013714283 0.052217256 0.019426661 -0.061270338 -0.132676452 0.027827187 -0.075334318 0.140599579 -0.104353502 -0.026575563 -0.005499185 -0.115852751 -0.022394311 -0.005578800 0.004584325 -0.003981377 0.053861871 0.030132812 0.055472847 -0.021603810 -0.143501326 -0.088254049 -0.020994723 -0.027352404 -0.040751521 -0.053690653 -0.080479912 -0.062701158 -0.050133839 0.000614513 0.090635702 -0.017390488 0.020226484 -0.005347959 -0.019163808 0.059719570 -0.019216752 0.038507693 0.009826694 -0.010337519 -0.019379161 -0.037529804 -0.044976383 0.004023776 -0.015154458 -0.095625080 -0.148731634 -0.002507540 0.020374414 -0.004360060 -0.027023857 0.019719819 0.004324745 -0.031676318 0.053020425 0.113282144 0.021849535 0.066287868 -0.023086865 0.034075756 -0.072741687 -0.081735067 -0.015336538 -0.001504687 0.097804405 -0.078603096 -0.045617282 -0.033508293 -0.057552371 0.054357711 0.044860449 0.034172460 0.040812321 0.078329556 -0.194528043 -0.033223640 -0.025660241 -0.028430175 -0.059194546 -0.065239929 0.085809350 -0.044625703 -0.031774949 -0.010618173 0.067796215 0.030036019 -0.000467778 0.031421851 0.070160441 0.009407694 0.009944427 -0.025192095 0.038113344 -0.016671136 -0.053102866 0.090933748 0.056483164 0.115218230 -0.065329969 -0.143938169 -0.018938920 -0.107392862 0.017053811 -0.060918327 -0.094618887 0.002076481 0.064850420 -0.085302517 0.011916055 -0.047045406 -0.016065735 0.042097826 -0.030459167 -0.068890244 -0.010372248 0.022378638 0.002872019 0.028220626 0.078554735 0.035918113 -0.003335323 0.055153735 0.005602519 -0.066480003 0.104917184 -0.090021841 -0.027160445 -0.087455317 -0.030391512 -0.039923169 0.001244902 -0.059418764 0.001043065 0.103225611 -0.087364487 -0.048737384 -0.005659036 -0.076884121 -0.063331746 0.027122509 -0.038969621 -0.012622608 -0.010360406 0.002421327 0.036999933 -0.042486150 0.041837446 0.039111845 -0.012191941 0.070149526 -0.070438683 0.000580405 0.091291286 0.083603345 0.030660920 0.064786486 0.047222577 0.005232284 0.034229506 -0.031045094 0.007118866 0.004292582 0.094102308 -0.017665181 -0.020511979 0.021486612 -0.003178938 -0.025314637 -0.029287664 -0.136193156
runs	-0.010741629 -0.034306616 0.030836102 -0.049251683 -0.049656712 0.004547782 0.029786389 0.005851998 -0.018931631 0.007119224 0.004224572 -0.002523598 0.004703730 -0.016515285 0.037496492 -0.039057437 -0.003815417 0.037935562 -0.018541088 -0.088348567 -0.029077128 0.030199720 0.013929132 -0.019618941 0.001418137 -0.010405469 -0.006357870 0.004945111 0.038301270 0.001090548 0.016828144 -0.004079478 -0.017653061 -0.006633394 -0.004084419 0.024207443 -0.006097408 0.005949454 -0.008689776 0.004939560 0.020285485 0.014430075 -0.024140237 0.006472449 0.025412321 0.023257282 0.028811920 0.029096197 -0.008524820 0.026815880 0.000304397 -0.011555484 0.006661919 0.045810245 -0.037286449 0.023816682 -0.024210017 0.015116090 0.035384275 -0.014928238 -0.045717396 -0.032290328 0.009051520 0.014472889 0.032225020 -0.019924589 0.008850725 0.012388109 -0.020741057 0.007931592 0.013367514 0.000479425 0.010933545 0.006574869 0.012966880 0.007952060 -0.066081680 0.044010520 -0.008100823 0.032644428 0.082721628 0.009681065 -0.033282068 0.023311295 -0.027121531 -0.003556374 0.004461969 -0.038979560 -0.047968876 -0.037350681 -0.025415560 0.038282976 -0.033796936 0.003337321 0.037975553 0.068595126 -0.023355560 0.046586134 0.007342169 0.022554088 -0.021257712 -0.021040034 0.006835451 0.004771033 -0.016505426 -0.033917338 0.000154204 -0.033453472 0.013683777 -0.007286756 -0.016467545 -0.034434859 0.026965303 0.004966907 -0.000188676 -0.011479300 0.036041658 0.080128528 0.062833048 -0.007117751 -0.118537888 0.021051625 -0.016949847 -0.015943294 -0.033403464 0.043972835 -0.017472181 0.037698522 -0.036084928 0.010807218 0.006875521 0.031324029 0.012597380 -0.035898246 -0.076542079 0.017149001 -0.042810678 0.082317680 -0.059685130 -0.016788976 -0.003121842 -0.067205817 -0.012465175 -0.005334621 0.002244296 -0.003953044 0.030055868 0.018733000 0.030939441 -0.012148555 -0.082612567 -0.051107001 -0.012375694 -0.016406346 -0.023326803 -0.029093545 -0.047901720 -0.036252555 -0.030342758 -0.002076239 0.051714659 -0.011301194 0.010342664 -0.004387000 -0.010787814 0.033978995 -0.010791025 0.021496184 0.005280436 -0.005970913 -0.012345173 -0.021304781 -0.025063692 0.003306000 -0.011060921 -0.055354830 -0.087135129 -0.001006688 0.010655433 -0.002023258 -0.015507621 0.013395744 0.001415094 -0.017846571 0.031888213 0.066817537 0.010809877 0.038222283 -0.011239386 0.020996302 -0.041063625 -0.046301682 -0.009089618 0.000790888 0.059138142 -0.047864169 -0.028051684 -0.019761020 -0.034905054 0.030533394 0.024698272 0.018696385 0.023318179 0.045206759 -0.113436677 -0.019975662 -0.015796211 -0.017741986 -0.034862902 -0.039833348 0.049598146 -0.027577244 -0.017458105 -0.004376214 0.041828956 0.019226361 0.002316458 0.019766625 0.039758697 0.005859218 0.006687451 -0.016365709 0.022485046 -0.007617625 -0.031368088 0.053648658 0.033081453 0.066393197 -0.036533978 -0.085893191 -0.009992233 -0.062473308 0.010036546 -0.034601890 -0.055178326 0.002653257 0.037603728 -0.048610352 0.008355801 -0.027783196 -0.009771343 0.024652865 -0.018010138 -0.038631730 -0.006665886 0.011295838 0.001649258 0.017177043 0.044096634 0.019024210 -0.003478116 0.031558279 0.005458506 -0.038495839 0.061606143 -0.054006457 -0.015804339 -0.050986703 -0.016862184 -0.023627507 0.000242491 -0.034015771 -0.001434190 0.059994120 -0.049129833 -0.029961314 -0.001925654 -0.044890344 -0.035821054 0.016865186 -0.022058597 -0.006549923 -0.004624449 0.002909042 0.020027895 -0.023462527 0.022371648 0.022129728 -0.006079062 0.042417396 -0.041370068 -0.000576959 0.052868556 0.049905214 0.019732418 0.036701728 0.025843922 0.002828926 0.020873353 -0.018366804 0.004256848 0.003468894 0.054408368 -0.009255857 -0.009996343 0.011989651 -0.000358425 -0.016385635 -0.017303057 -0.077300854
hands	-0.014139216 -0.048911095 0.044898879 -0.063646793 -0.067316070 0.003708525 0.037969545 0.009334364 -0.024954630 0.010794663 0.007394240 -0.005783545 0.007267262 -0.022498891 0.052593298 -0.049663246 -0.003776433 0.050249945 -0.024882451 -0.117287360 -0.039565641 0.043130990 0.019521745 -0.026943745 0.001092282 -0.015887374 -0.009335532 0.009271243 0.053829283 0.004603954 0.023291195 -0.003638720 -0.023595756 -0.009769501 -0.003692454 0.036042638 -0.008595369 0.007479642 -0.013857200 0.008622583 0.024901241 0.019895639 -0.033504423 0.005527099 0.036606673 0.032569513 0.037078138 0.039077260 -0.009673923 0.034060057 -0.000115977 -0.012670354 0.011323349 0.059412472 -0.052362606 0.031722795 -0.029641798 0.020488843 0.047679015 -0.018986583 -0.058834672 -0.046549950 0.013630520 0.019560590 0.043508556 -0.025300568 0.010710466 0.015016430 -0.028062355 0.011707687 0.018610341 0.001856965 0.012219067 0.009664483 0.017128054 0.010256034 -0.089557834 0.057251308 -0.011049695 0.041906517 0.110067815 0.016271384 -0.045710038 0.031989332 -0.036893371 -0.007021089 0.002977329 -0.050306708 -0.065003350 -0.051925201 -0.033482380 0.051731803 -0.045327291 0.004899289 0.053735159 0.092988797 -0.029181814 0.061773751 0.011345139 0.027253954 -0.029431615 -0.027813658 0.006290548 0.008600235 -0.022002270 -0.044346791 -0.000842055 -0.043997061 0.018010585 -0.009153768 -0.022857573 -0.045779809 0.036168870 0.006300163 -0.000607791 -0.013544563 0.049917869 0.110120296 0.085727476 -0.009567915 -0.158656731 0.029804964 -0.022985879 -0.023454407 -0.043592367 0.061647784 -0.023702795 0.049756605 -0.049573686 0.015049196 0.010922507 0.043435276 0.015300704 -0.046968084 -0.104971476 0.020942599 -0.061622921 0.110176839 -0.080870710 -0.022044322 -0.002228823 -0.090763733 -0.018346608 -0.006733919 0.000890250 -0.003475847 0.041350733 0.026242629 0.045257036 -0.017047202 -0.114483654 -0.068340518 -0.015992273 -0.020223020 -0.029773900 -0.041156217 -0.064494401 -0.047912605 -0.038459588 0.000594539 0.068680428 -0.012264084 0.014973004 -0.003598265 -0.015885165 0.047154218 -0.014667681 0.030902227 0.005115790 -0.006705638 -0.013719771 -0.029118206 -0.033663403 0.001586168 -0.012849348 -0.075715408 -0.116367534 -0.001055604 0.015275896 -0.003268826 -0.023318205 0.014606598 0.001112194 -0.024304766 0.043329705 0.091008283 0.017523944 0.050528206 -0.017465709 0.028831810 -0.055419188 -0.062842153 -0.011725985 0.000037676 0.079497933 -0.061553989 -0.035965573 -0.027093049 -0.045434162 0.044835303 0.035133902 0.028328216 0.032598924 0.060098372 -0.151914239 -0.024812773 -0.019125175 -0.023507705 -0.047271211 -0.051236302 0.066229910 -0.036237665 -0.023833446 -0.007454164 0.054710679 0.024716979 0.002475157 0.024324762 0.055568337 0.007585766 0.008408698 -0.019088322 0.030252589 -0.013465070 -0.041856781 0.072370768 0.043907836 0.090377428 -0.049447574 -0.114294425 -0.015717726 -0.083159290 0.015746389 -0.046211161 -0.075185739 0.002067501 0.051722676 -0.067552477 0.011202094 -0.036562786 -0.013058537 0.034033004 -0.023963848 -0.053987864 -0.008423541 0.015324337 0.001056497 0.020822315 0.062476456 0.026795223 -0.002522326 0.041060995 0.005800933 -0.052839506 0.083071969 -0.073008232 -0.022602871 -0.068570256 -0.023139315 -0.032765966 0.001622395 -0.045265649 0.000476206 0.078614041 -0.067057580 -0.038686328 -0.004825858 -0.061606679 -0.051760323 0.021674991 -0.032155652 -0.011024988 -0.006678842 0.001913324 0.028434174 -0.032935925 0.030445684 0.030427830 -0.009140088 0.056609213 -0.056872934 0.000464710 0.069872357 0.066390164 0.025859037 0.050791398 0.038334563 0.002384465 0.028238319 -0.024543971 0.004097832 0.002773032 0.075678423 -0.012322008 -0.016543156 0.017184364 -0.000350327 -0.019298611 -0.020946283 -0.105062313
copy	-0.015902234 -0.051623303 0.045619853 -0.069665119 -0.074143596 0.006264602 0.043554395 0.011822082 -0.028792063 0.011403586 0.009687943 -0.004689351 0.008147803 -0.024746623 0.056041393 -0.055403084 -0.005564335 0.051978532 -0.025124229 -0.125436440 -0.043236490 0.044090372 0.021741720 -0.029679902 0.001027675 -0.017801994 -0.010096317 0.010367511 0.056354679 0.005079902 0.022205146 -0.003213021 -0.025460228 -0.012184407 -0.002959978 0.035977732 -0.008040699 0.008367660 -0.015654158 0.008805076 0.027793517 0.018232744 -0.034925524 0.007370171 0.038128145 0.033420164 0.039158031 0.041639268 -0.010285371 0.037543014 0.000273311 -0.016307062 0.011758605 0.063496567 -0.057466440 0.035830379 -0.033849109 0.024689693 0.048800398 -0.021980841 -0.065468982 -0.049765579 0.015278797 0.019063428 0.049772110 -0.028083848 0.014707641 0.016384808 -0.029506771 0.012350984 0.018884974 0.000015000 0.015242646 0.008009475 0.018264074 0.011261967 -0.097526550 0.063787550 -0.012328194 0.045355517 0.118969694 0.016327837 -0.047798581 0.034373980 -0.041455768 -0.006195120 0.005529263 -0.055339001 -0.067489520 -0.055905014 -0.037971888 0.053312901 -0.049260806 0.003393871 0.057709150 0.100587107 -0.033254866 0.067072235 0.013234701 0.030454746 -0.029587504 -0.030906957 0.006112193 0.008516821 -0.023024129 -0.050580345 0.001234275 -0.046162236 0.019569943 -0.010153197 -0.021190645 -0.049302138 0.038267437 0.007157301 -0.002848699 -0.016194222 0.052553158 0.117157862 0.091252141 -0.009428490 -0.170194179 0.030255582 -0.024888828 -0.023996772 -0.047002330 0.065274924 -0.026558006 0.055576123 -0.051893603 0.017128913 0.013157959 0.045172721 0.016083647 -0.050604258 -0.113750465 0.023301348 -0.063216411 0.118099950 -0.086101711 -0.025274796 -0.004855099 -0.097632989 -0.018517401 -0.005796885 0.000926072 -0.004180436 0.042995077 0.026262544 0.047645479 -0.017415242 -0.121786162 -0.073422246 -0.018492458 -0.021046195 -0.033887867 -0.044045649 -0.067983769 -0.053034008 -0.041980002 -0.000372247 0.073570333 -0.015628798 0.017019318 -0.004833670 -0.013935565 0.051342133 -0.017073357 0.034484036 0.006559299 -0.007937208 -0.015270406 -0.031454366 -0.036340594 0.002689461 -0.015315656 -0.079311609 -0.126250625 -0.001414664 0.018722571 -0.006112643 -0.025350936 0.018753806 0.004099892 -0.028131759 0.045205947 0.098171897 0.017475706 0.054457586 -0.018704711 0.029229790 -0.061530314 -0.068162598 -0.013076467 0.000813015 0.084390454 -0.067635849 -0.039354242 -0.028592043 -0.050255567 0.048366692 0.036568630 0.029851587 0.034873676 0.064314969 -0.162833229 -0.026909921 -0.021810178 -0.024816331 -0.052107789 -0.055734213 0.072472870 -0.039354272 -0.025221065 -0.007502615 0.057093371 0.025604609 -0.000389128 0.025390469 0.060931586 0.007251830 0.007126024 -0.022920765 0.031639654 -0.012062369 -0.046713632 0.078897014 0.048266303 0.097023308 -0.054094627 -0.123366140 -0.017779941 -0.089504957 0.014435990 -0.049082778 -0.080945104 0.004001700 0.054715317 -0.071417518 0.010618829 -0.039202292 -0.013217498 0.036839735 -0.026985608 -0.058099881 -0.009279487 0.018625941 0.000511773 0.024374940 0.065787040 0.030349182 -0.003271994 0.047276873 0.004852195 -0.054184701 0.088960677 -0.078113317 -0.023894818 -0.072000042 -0.024217503 -0.035251979 -0.000209937 -0.048631359 0.001614250 0.084468082 -0.071553119 -0.040964141 -0.003557774 -0.063659802 -0.054316960 0.023625478 -0.033866569 -0.012298506 -0.006608295 0.002100658 0.031865396 -0.033946067 0.035717551 0.032573473 -0.011539904 0.060802337 -0.061990052 0.000362552 0.077858582 0.070017651 0.026848665 0.056167595 0.041190960 0.004776744 0.030574862 -0.026567901 0.004231487 0.005605575 0.082462326 -0.016546477 -0.016543487 0.018253053 -0.002299137 -0.022477373 -0.024975641 -0.112526082
