article	-0.009003076 0.142261371 -0.094381958 0.154468730 -0.112316735 0.168187514 -0.263653785 0.131685719 -0.191632017 0.201411396 0.015947856 0.213461429 -0.256556928 0.065119095 -0.002868291 0.095342770 0.087082900 0.193458542 0.266481340 -0.056414738 -0.112757437 -0.116963454 0.025396245 -0.002888025 0.232440129 -0.267351747 0.085468240 -0.056215625 0.032874193 0.023408458 0.103260942 -0.033616409 -0.146166191 -0.054191727 0.068620630 0.058245774 0.036748093 0.100503571 0.098493122 0.169553161 -0.119939923 -0.139178544 0.203263327 0.518295050 -0.024440365 -0.130013406 -0.101081416 0.161076486 -0.136466160 -0.002742132 -0.148939714 -0.213369280 0.278239667 0.330092490 0.089559652 -0.175547615 -0.180590242 0.143990666 -0.222999364 -0.184502557 -0.154116109 0.160312250 0.157737464 -0.102209032 -0.045482393 -0.105787165 -0.090638779 -0.181327268 -0.123002112 -0.010616856 -0.077792980 -0.018341398 0.136948168 0.085128792 -0.050381992 0.101179056 0.195164606 -0.002713156 -0.023848746 0.199635059 -0.016540883 -0.142166615 -0.053250078 -0.006684192 0.163755149 0.034855157 -0.066976488 0.168966487 -0.025381951 -0.330788493 -0.324847102 0.059988506 -0.071217112 0.122012489 -0.271727681 0.046974353 -0.177437663 -0.041562427 0.027895425 -0.296552151 -0.092072569 -0.109082818 0.139179438 -0.130492657 0.152295023 -0.125454426 -0.117759347 -0.029229743 0.154887408 0.084652863 0.242326513 -0.090854339 0.072698340 0.136391699 -0.101800993 -0.065052941 0.095993638 0.006257838 -0.213068277 0.056141231 -0.087034717 -0.144143462 0.070005558 0.194344252 -0.018597057 -0.163549230 0.076815188 -0.238707095 -0.041677680 -0.132642731 0.236321002 -0.212527379 -0.202137694 -0.350492656 -0.151325017 -0.056904238 -0.077979855 -0.023607412 -0.025029659 0.046044938 -0.160981551 -0.200262427 0.079884715 -0.048788067 0.016885675 -0.039244287 -0.241696224 0.103778519 -0.085034281 0.176173136 -0.238870323 0.133722588 -0.271968246 0.005616004 0.413934261 0.199343994 0.105660394 -0.266758770 0.158809826 0.154601961 -0.052981175 -0.079517975 0.169664741 -0.310114443 0.021624623 0.042635314 0.090667792 0.005508329 -0.006054704 -0.253247082 -0.182505503 -0.109584600 0.090319254 0.041669123 0.113081492 -0.170338854 -0.005464703 -0.063564837 -0.328892857 0.369010240 -0.099860430 -0.039939083 -0.065632470 -0.327445686 -0.016321860 0.015632583 0.211421624 -0.026677618 -0.022064641 0.254203439 -0.014590932 0.008358234 -0.186368912 -0.057072729 0.304856539 -0.175691009 -0.225520507 0.187377349 -0.146877691 0.018649593 0.068294249 -0.052760132 -0.256593823 -0.169975802 -0.395061404 0.156893492 0.026276493 -0.223434806 0.147035062 0.314808279 0.054483846 -0.047073092 -0.016927706 -0.253945500 -0.170327380 -0.155287027 -0.127791613 -0.082057595 0.074282207 0.049147025 0.006423122 -0.088185877 -0.348648220 -0.211895108 0.249408290 -0.004197564 -0.086076692 -0.148486048 -0.223488703 0.219857782 0.171177700 -0.059846334 -0.012091842 -0.035420243 -0.156552762 -0.136541575 0.070628121 -0.101697147 0.278848767 -0.203324452 -0.030052802 -0.278638244 -0.175405741 0.019166511 -0.107237868 -0.105920658 0.256028086 -0.295907915 -0.072550841 0.199161351 -0.286132932 0.030679291 -0.304158956 0.111012310 0.086163588 -0.184301287 0.123848423 -0.116687290 0.045814563 0.291643322 -0.102928996 0.255248964 0.136350542 0.279559672 -0.004894245 -0.138493717 0.115531884 -0.080368802 0.136366889 0.012071376 0.021694502 -0.040664427 -0.017274130 -0.209812537 0.310159475 0.013211617 -0.039489273 -0.299448699 0.021896262 -0.105063833 0.270144224 0.020008445 0.313092589 0.116978608 -0.054643601 -0.054317083 0.163566411 -0.064490385 -0.297784686 0.365986317 -0.089617394 0.100615427 -0.180030689 -0.160217002 0.254946887 0.219514221 -0.073659457 0.321196795 0.016283516 -0.221958667
america	-0.003929353 0.030284429 -0.021504531 0.034503266 -0.025108323 0.035218500 -0.058446452 0.029442681 -0.040927932 0.042464569 0.004689374 0.045545530 -0.056458965 0.014617105 -0.001982321 0.021631686 0.018565396 0.042034652 0.057237294 -0.012086233 -0.024889657 -0.023763789 0.004833824 -0.001994211 0.052224740 -0.057430431 0.017098846 -0.013151774 0.006075595 0.004354430 0.020505849 -0.006425031 -0.031894360 -0.010564700 0.013264850 0.011751240 0.008854451 0.019823080 0.021124005 0.036011014 -0.024291219 -0.029342065 0.044866115 0.109810762 -0.005300679 -0.027376536 -0.023032164 0.035324492 -0.029056018 -0.002144932 -0.031707436 -0.047420941 0.059046779 0.071432233 0.019374259 -0.037444245 -0.038061611 0.032593664 -0.048160896 -0.038251489 -0.032217953 0.033244688 0.034327060 -0.023111122 -0.010682194 -0.022644088 -0.020175666 -0.039013673 -0.026023384 -0.001556581 -0.015328350 -0.004887780 0.028871702 0.018841924 -0.009830075 0.020770855 0.043122478 0.001388261 -0.004219650 0.042327028 -0.001983582 -0.031136889 -0.012118130 -0.001218191 0.033895299 0.009035825 -0.014653746 0.035628065 -0.004181686 -0.071561180 -0.070716277 0.011945452 -0.015906744 0.024726931 -0.057609748 0.011023120 -0.038267706 -0.009557112 0.007351481 -0.063677892 -0.019253477 -0.024329167 0.029738387 -0.028368548 0.033067919 -0.028090630 -0.025262659 -0.005807491 0.033896830 0.018214792 0.053235255 -0.018690279 0.017212020 0.029975759 -0.021742180 -0.012428061 0.021825260 0.002374833 -0.045565456 0.013517502 -0.020371284 -0.031206187 0.015954655 0.043427963 -0.005177291 -0.036324192 0.015230540 -0.050112769 -0.008557337 -0.028433641 0.051162127 -0.044788968 -0.045210484 -0.075629890 -0.031614333 -0.012545603 -0.015540756 -0.003525102 -0.005714417 0.008346595 -0.033590477 -0.042371064 0.016605353 -0.011196356 0.004541392 -0.007236854 -0.053569220 0.023428487 -0.017009355 0.037343793 -0.053284377 0.028107122 -0.058533885 0.000409147 0.088239618 0.044196349 0.022027075 -0.056939017 0.032518685 0.033783827 -0.012088339 -0.018701958 0.037415650 -0.065636002 0.005306180 0.009588711 0.018843722 0.000963443 0.000204165 -0.055643044 -0.039727047 -0.025144551 0.021002760 0.010800812 0.026219422 -0.037233081 -0.002451099 -0.015034759 -0.069332242 0.078766271 -0.020905994 -0.007718616 -0.015307172 -0.071436152 -0.002813883 0.001887768 0.045616463 -0.004283449 -0.003670390 0.055854119 -0.004862184 0.003349357 -0.039697047 -0.010929042 0.066134930 -0.037528619 -0.050314870 0.040790476 -0.033018921 0.003523754 0.015524928 -0.013095529 -0.053864695 -0.035301052 -0.086730264 0.033406276 0.005198962 -0.048074011 0.029837852 0.067428127 0.012883967 -0.010673742 -0.004675488 -0.056035779 -0.038575277 -0.034908794 -0.027679337 -0.017072871 0.015744423 0.010063572 0.002637825 -0.020499287 -0.073825136 -0.047069333 0.053996779 -0.000399502 -0.018120801 -0.032012958 -0.049027555 0.046974968 0.035146795 -0.012451866 -0.002658709 -0.007422797 -0.033348814 -0.029072631 0.013798376 -0.023349496 0.061830226 -0.044625249 -0.008307107 -0.060836699 -0.038704608 0.004701092 -0.021575715 -0.023945672 0.054854859 -0.065043636 -0.016382463 0.044548810 -0.062642835 0.008300553 -0.066175774 0.023040358 0.017019998 -0.039693922 0.027948136 -0.023991276 0.007994515 0.060905270 -0.022241881 0.053459913 0.028369715 0.058790810 0.000859898 -0.028813563 0.026253788 -0.015505992 0.028423533 0.004087323 0.004850707 -0.008982254 -0.003037948 -0.047018100 0.065396525 0.003732933 -0.008533943 -0.063457675 0.004037693 -0.022002902 0.058874346 0.004578871 0.065869711 0.024024345 -0.011262572 -0.011423211 0.033887539 -0.014475943 -0.063376136 0.079237983 -0.017632877 0.022297820 -0.037383985 -0.035439234 0.054640181 0.045637298 -0.016395045 0.068702072 0.004857551 -0.047429442
free	-0.006594243 0.064999625 -0.043129411 0.070007488 -0.050317217 0.078434512 -0.120571434 0.059659719 -0.089001268 0.091821931 0.009031090 0.095969588 -0.116210103 0.029435532 -0.001903113 0.045198005 0.040403396 0.089060888 0.119315885 -0.026203193 -0.052746940 -0.051528394 0.010090925 -0.002599637 0.108353071 -0.121502034 0.039805073 -0.027309777 0.012992266 0.011595155 0.045614459 -0.016323021 -0.068416864 -0.023256853 0.032765321 0.024870809 0.016807003 0.045264352 0.043621074 0.077580586 -0.054993410 -0.061798770 0.091832690 0.234688580 -0.010728127 -0.058988426 -0.046815537 0.074323893 -0.062012058 -0.002289313 -0.068196446 -0.097339325 0.126725599 0.151070103 0.040710043 -0.078258887 -0.082371384 0.067243382 -0.099828400 -0.083838433 -0.068669990 0.072847940 0.073503464 -0.045118317 -0.019493392 -0.048547987 -0.043376479 -0.083177246 -0.055334046 -0.003809968 -0.033513218 -0.006381467 0.062670618 0.037477165 -0.024138799 0.048105862 0.089371473 -0.001801098 -0.011789215 0.092656225 -0.005487617 -0.063977793 -0.023264695 -0.003264329 0.074689418 0.017299725 -0.032757156 0.076063968 -0.010191570 -0.149703220 -0.147117674 0.027715888 -0.033415675 0.054626755 -0.124802485 0.021545835 -0.079621010 -0.020546388 0.011536972 -0.134786159 -0.041429322 -0.050997421 0.062575169 -0.058188003 0.069334447 -0.058098219 -0.054276183 -0.012216954 0.069827281 0.039594807 0.109800607 -0.041379705 0.034927610 0.062151719 -0.045603294 -0.030889310 0.044858884 0.003817447 -0.098285377 0.027727794 -0.040345557 -0.065509215 0.030909266 0.087645844 -0.008794118 -0.075681970 0.034433164 -0.109707236 -0.019342402 -0.059012182 0.106471717 -0.096862659 -0.093987800 -0.159005582 -0.068622440 -0.025466580 -0.035443082 -0.011065339 -0.009945753 0.019374914 -0.074673563 -0.090620585 0.037027743 -0.021308970 0.008210784 -0.017936692 -0.110111043 0.047483016 -0.038514465 0.081229381 -0.109972499 0.061892562 -0.126591310 0.002610590 0.190309301 0.091853902 0.046714056 -0.119685881 0.070263572 0.072411135 -0.022097256 -0.036128297 0.078093000 -0.142288253 0.010029146 0.021512970 0.042148989 0.002470725 -0.001826189 -0.116268001 -0.084139884 -0.049706273 0.042715818 0.018325891 0.053808879 -0.078168243 -0.001893635 -0.030222129 -0.150966495 0.170199633 -0.046097793 -0.016636439 -0.030257128 -0.149387926 -0.007212380 0.007441218 0.096096016 -0.013723627 -0.007788758 0.117415406 -0.007190679 0.005524668 -0.084895648 -0.025549594 0.140532210 -0.079653211 -0.102699466 0.086675167 -0.066205151 0.009136014 0.031323005 -0.025613390 -0.117947891 -0.077399924 -0.180863619 0.073383287 0.011378885 -0.103806265 0.067272857 0.143788010 0.025245523 -0.019515550 -0.007157877 -0.115607306 -0.078424506 -0.069874622 -0.056840234 -0.037343740 0.033018272 0.022508219 0.003674646 -0.041159008 -0.160221159 -0.096386842 0.112929597 -0.001581607 -0.037076984 -0.068558797 -0.102840222 0.100959264 0.077699989 -0.028954865 -0.005070091 -0.018275924 -0.071817584 -0.061125673 0.031297486 -0.047465298 0.127371415 -0.093128003 -0.014843643 -0.125733212 -0.080099560 0.011160574 -0.048726562 -0.049187731 0.116965964 -0.135251045 -0.030885607 0.092987463 -0.132379413 0.013188428 -0.140099674 0.049986172 0.036790077 -0.086313583 0.055413861 -0.053729266 0.017891902 0.130545750 -0.046249494 0.117375605 0.062089313 0.126565680 -0.000593966 -0.063179210 0.051673882 -0.036791116 0.060609687 0.004668341 0.008639006 -0.019561742 -0.008853484 -0.094890080 0.139780939 0.007075636 -0.017709700 -0.134457946 0.011286091 -0.049924515 0.122901648 0.010500359 0.140598759 0.053332090 -0.027267223 -0.025382414 0.076401375 -0.027788475 -0.134268984 0.166613385 -0.040772557 0.043780599 -0.081664048 -0.072348095 0.116716661 0.099981405 -0.032642614 0.145985931 0.006928408 -0.102196202
drug	-0.004714713 0.050041113 -0.032676883 0.052398127 -0.038146015 0.057262789 -0.090826213 0.043493293 -0.068186805 0.068803631 0.006446543 0.075572379 -0.088916682 0.023240861 0.000415771 0.033028495 0.030199569 0.066831701 0.093011700 -0.019220376 -0.040189348 -0.041197129 0.008716773 -0.000277482 0.083197877 -0.093569741 0.028951829 -0.018796844 0.012203296 0.009570180 0.036857791 -0.010991179 -0.050154600 -0.018850898 0.022174114 0.020179700 0.011682982 0.034564283 0.033657316 0.060109425 -0.042697858 -0.048597351 0.069263481 0.179142386 -0.008042798 -0.045534868 -0.037268165 0.056697268 -0.047659460 0.000006696 -0.052774370 -0.075736217 0.096906722 0.113228105 0.032307833 -0.060692515 -0.063406453 0.051283240 -0.075794607 -0.062891737 -0.053399526 0.054200150 0.054074220 -0.034363125 -0.017403331 -0.035003223 -0.030510474 -0.062603891 -0.041540030 -0.003661019 -0.027542310 -0.005373849 0.047731739 0.027955446 -0.017379049 0.036710937 0.068508126 -0.001198475 -0.008562490 0.070633568 -0.005082129 -0.051022042 -0.016696164 -0.002875447 0.057304025 0.012736103 -0.023782475 0.058848247 -0.009893871 -0.114692062 -0.111775927 0.019220708 -0.026259523 0.040487841 -0.094262816 0.017474053 -0.061479051 -0.013858735 0.008790514 -0.103090517 -0.031337120 -0.038917627 0.047745600 -0.043589223 0.051760230 -0.045187443 -0.038793340 -0.010717544 0.053984109 0.028259007 0.084876664 -0.030165032 0.026632464 0.049090598 -0.035122503 -0.020763537 0.033521980 0.002654728 -0.074272163 0.019497452 -0.030404113 -0.050436854 0.024420295 0.067290172 -0.007445677 -0.055702288 0.026586475 -0.082076445 -0.014568173 -0.045414217 0.081756435 -0.073373385 -0.071494639 -0.123112462 -0.050718956 -0.020464854 -0.025858777 -0.008972393 -0.008004726 0.016280605 -0.056546893 -0.068667226 0.026578108 -0.017935541 0.003647828 -0.014166064 -0.083497070 0.034377534 -0.027611719 0.061713934 -0.083015144 0.045615319 -0.094903916 0.000459218 0.144171253 0.070458584 0.034984823 -0.091467656 0.055002999 0.055835180 -0.018632313 -0.026865128 0.057041008 -0.107936293 0.006407994 0.016787503 0.030807436 0.001125111 -0.001237115 -0.087301597 -0.064529255 -0.038155474 0.031719301 0.016413705 0.039484482 -0.057219610 -0.002538332 -0.023199163 -0.113126054 0.128653690 -0.033331215 -0.013384114 -0.022755712 -0.114221446 -0.003950541 0.005116493 0.070998199 -0.008239467 -0.006625909 0.088640310 -0.004387670 0.004106134 -0.062957019 -0.019575931 0.106358521 -0.060497329 -0.077294923 0.066191941 -0.051217761 0.004843630 0.023567749 -0.018849162 -0.088578895 -0.059426792 -0.137788281 0.054424416 0.009410241 -0.079491280 0.050116159 0.107624233 0.016804738 -0.014940355 -0.007603313 -0.089443654 -0.060653966 -0.055258345 -0.042857576 -0.029399544 0.024611169 0.016875509 0.003038778 -0.031855289 -0.119295940 -0.074435025 0.087465994 -0.001997949 -0.030928986 -0.050690770 -0.078744583 0.077635251 0.060499400 -0.021094771 -0.003342021 -0.012062369 -0.054308772 -0.048601050 0.026496356 -0.037110612 0.096803829 -0.069252640 -0.011946499 -0.095427066 -0.059896026 0.006115686 -0.036816198 -0.038231075 0.088358209 -0.103439353 -0.023769815 0.069550656 -0.100123964 0.009578058 -0.104381241 0.036833458 0.029271988 -0.065048307 0.044278167 -0.040778771 0.015900932 0.101845138 -0.035648227 0.088103853 0.048852343 0.096652754 -0.001121753 -0.048286654 0.040427975 -0.027372193 0.045788407 0.004355629 0.007869532 -0.014363863 -0.004978338 -0.072229907 0.107256457 0.004139076 -0.015166566 -0.102221683 0.008402786 -0.037373580 0.094683617 0.005521225 0.106449462 0.041937158 -0.020524301 -0.020586796 0.056202646 -0.020767922 -0.100815184 0.126392052 -0.029384675 0.033471819 -0.062691353 -0.055255909 0.090168700 0.074894443 -0.026015526 0.112574331 0.005096280 -0.076826110
writes	-0.013469375 0.170280695 -0.115655683 0.185275257 -0.131738916 0.202024475 -0.316814750 0.155045345 -0.231278181 0.240623429 0.019727411 0.255468041 -0.306673855 0.076333135 -0.004750805 0.115804322 0.102752589 0.231918216 0.317720830 -0.068633467 -0.135252371 -0.139615774 0.028733173 -0.004210687 0.279837549 -0.321587741 0.101043612 -0.066865236 0.040879540 0.025990354 0.124432743 -0.040696271 -0.177689090 -0.062734120 0.083155967 0.067304902 0.040868662 0.120266005 0.118986018 0.202243611 -0.144496530 -0.163889423 0.240286082 0.616990268 -0.031962659 -0.154614568 -0.123814031 0.190880626 -0.162928373 -0.003263701 -0.178048939 -0.256633788 0.332041234 0.392407119 0.107511170 -0.208596215 -0.217495084 0.173605517 -0.264020175 -0.220675319 -0.182142854 0.190507010 0.190388769 -0.123351105 -0.053839024 -0.127287462 -0.111055255 -0.214745730 -0.143275365 -0.013284780 -0.091206141 -0.020275488 0.165359810 0.100857183 -0.059060521 0.123096369 0.232742578 -0.003006030 -0.031702939 0.240646243 -0.016170725 -0.170191735 -0.060183488 -0.007688123 0.195089757 0.042169198 -0.082447425 0.201264381 -0.029923979 -0.395068526 -0.388083160 0.071941279 -0.086739942 0.143267348 -0.324592739 0.057784792 -0.210800320 -0.051625457 0.031484187 -0.353657693 -0.110293582 -0.128065512 0.166918397 -0.155301914 0.181935251 -0.149842918 -0.138606772 -0.037723117 0.184356049 0.102594316 0.288224250 -0.109527938 0.087510355 0.164086655 -0.124792531 -0.076936379 0.112207554 0.010282357 -0.257075369 0.070407987 -0.106524497 -0.173537105 0.085921794 0.230108351 -0.023307985 -0.196227118 0.093059950 -0.285886556 -0.049864389 -0.156052783 0.280782491 -0.252835602 -0.241209716 -0.420168817 -0.180000171 -0.068234995 -0.089534476 -0.030321859 -0.030295102 0.054715388 -0.192048132 -0.241781905 0.097253211 -0.057284269 0.020123074 -0.044575360 -0.289048374 0.121405579 -0.098961912 0.208728895 -0.287594348 0.160445526 -0.326855332 0.006073886 0.494353652 0.236716598 0.126880720 -0.317683727 0.187048167 0.187128752 -0.061725061 -0.095664158 0.202298597 -0.373749703 0.023048289 0.053446203 0.109485805 0.008203715 -0.008499770 -0.304245263 -0.215611205 -0.131555885 0.109156296 0.051226489 0.134959549 -0.201673597 -0.008064712 -0.076083004 -0.392333418 0.440879136 -0.120124556 -0.046369936 -0.078386217 -0.392150015 -0.018330371 0.017440198 0.250656873 -0.032702304 -0.024194205 0.301763922 -0.016651984 0.008459215 -0.220707327 -0.068977356 0.367134422 -0.211468592 -0.269262403 0.225232571 -0.173447356 0.020915203 0.080222175 -0.065294139 -0.304711133 -0.204980299 -0.474290997 0.189460620 0.030291138 -0.266727775 0.173235059 0.374457449 0.062846556 -0.054903518 -0.022447988 -0.303776920 -0.205418035 -0.187113613 -0.151571169 -0.095516540 0.086539388 0.060091186 0.007903439 -0.106871754 -0.417054623 -0.256237507 0.299021870 -0.004559749 -0.102829129 -0.176244646 -0.264781743 0.262226611 0.203213394 -0.073569596 -0.015997253 -0.042482182 -0.183456987 -0.162469491 0.084881276 -0.123325750 0.334693938 -0.243272930 -0.037662849 -0.332709402 -0.212518066 0.024017315 -0.127596274 -0.128048882 0.305646449 -0.353575557 -0.083506815 0.239938885 -0.344080538 0.038739432 -0.362790406 0.130209222 0.100536503 -0.222494662 0.147520065 -0.140348658 0.052206084 0.346097291 -0.124044411 0.305848598 0.164887697 0.332106829 -0.004180638 -0.166264713 0.134597614 -0.092421085 0.160406977 0.013871690 0.025412316 -0.049432896 -0.022529231 -0.250029325 0.369381279 0.016131628 -0.047930751 -0.355223417 0.027007341 -0.127315179 0.323529750 0.020873165 0.370464563 0.140119091 -0.068595491 -0.068605244 0.194807217 -0.076659791 -0.353187561 0.435885698 -0.103864700 0.119081683 -0.215443119 -0.192679137 0.305284292 0.262777537 -0.084475704 0.383846611 0.020770587 -0.267286658
device	-0.001261196 0.022524701 -0.016759761 0.024836358 -0.020247020 0.027593909 -0.044560954 0.021271175 -0.032448851 0.032091670 0.003241278 0.035077978 -0.043777943 0.012197077 -0.001729438 0.015127792 0.015581728 0.032229226 0.045265730 -0.008162760 -0.017697912 -0.018374167 0.004395364 0.001174363 0.038076293 -0.044948656 0.013247567 -0.009089233 0.006194921 0.002354355 0.016379496 -0.006965993 -0.024884392 -0.008200326 0.012862075 0.010896744 0.006091448 0.016303934 0.017882284 0.027648214 -0.021337193 -0.023058731 0.033025786 0.086159378 -0.003145366 -0.021281669 -0.018012414 0.025482830 -0.023564501 -0.001829833 -0.024108084 -0.034222476 0.047319781 0.055894569 0.015528132 -0.030257856 -0.030654555 0.024806807 -0.037831832 -0.029605882 -0.024839219 0.026660563 0.025860934 -0.015497123 -0.009315372 -0.019018713 -0.015395454 -0.031619545 -0.020588093 -0.000605384 -0.012172091 -0.002968959 0.023099191 0.013061021 -0.009369980 0.017061302 0.031078285 0.001358145 -0.004257777 0.031957038 -0.002438495 -0.024006056 -0.009575902 -0.000553184 0.028766273 0.004509942 -0.012973297 0.029113159 -0.005587067 -0.054474887 -0.053081624 0.009704920 -0.013569537 0.021004546 -0.045839638 0.009456786 -0.030008819 -0.007218431 0.003850487 -0.048628572 -0.015391131 -0.016900091 0.022540996 -0.020472113 0.024785396 -0.020573400 -0.020564945 -0.006093076 0.026946316 0.013847977 0.038962398 -0.014047550 0.014036776 0.021320025 -0.018253522 -0.009438329 0.016757492 0.002860391 -0.036554549 0.008186621 -0.014952000 -0.025689326 0.012837437 0.034056719 -0.003904199 -0.027378621 0.013703177 -0.040372480 -0.007965649 -0.022932623 0.040480845 -0.036058083 -0.035390973 -0.057294030 -0.024301890 -0.010800871 -0.012385598 -0.004121295 -0.005126058 0.009095305 -0.027705342 -0.032347064 0.013861361 -0.007857701 0.003037614 -0.004885148 -0.041959852 0.017893121 -0.013031666 0.030314161 -0.038616557 0.021684119 -0.044360146 0.001522226 0.070838995 0.034305386 0.018546419 -0.045364171 0.027684025 0.026614120 -0.007112399 -0.014284769 0.027821144 -0.050611816 0.004180427 0.008644233 0.014849955 0.001986670 0.000074028 -0.042031400 -0.030733893 -0.018795844 0.014366492 0.006439881 0.017644899 -0.029214097 -0.001016040 -0.011653201 -0.053849518 0.063406035 -0.016596798 -0.006140176 -0.010393703 -0.053613719 -0.001649837 0.003434651 0.036400165 -0.003459215 -0.004398794 0.042334922 -0.002900690 0.002359770 -0.032657627 -0.009491686 0.050006796 -0.028801603 -0.037885152 0.032392707 -0.025939072 0.003131684 0.009675436 -0.010158090 -0.044154208 -0.028412944 -0.065417349 0.027561078 0.002888008 -0.036374871 0.022752814 0.053164724 0.008858438 -0.008274355 -0.004230737 -0.043715723 -0.027972342 -0.027650235 -0.019803705 -0.012827824 0.012756400 0.008428831 -0.000415220 -0.013502459 -0.059248500 -0.034196954 0.043084178 -0.001053157 -0.015401253 -0.024029439 -0.038908008 0.035622042 0.029368443 -0.008919624 -0.000602429 -0.005998540 -0.024653174 -0.022615433 0.012311210 -0.018641753 0.047249738 -0.032448918 -0.006870471 -0.046691332 -0.030002963 0.003905525 -0.018569976 -0.016287697 0.043860991 -0.049117740 -0.012726739 0.033157520 -0.048933197 0.006687912 -0.051874258 0.018233852 0.013310485 -0.031830549 0.019735463 -0.020624403 0.005517439 0.047402106 -0.017295929 0.041801229 0.024376396 0.045706932 -0.000474072 -0.024556261 0.019612752 -0.013167530 0.022002973 0.002495674 0.004334283 -0.006159584 -0.001559655 -0.034760512 0.051232386 0.001942806 -0.006954830 -0.048926249 0.003042369 -0.016466761 0.046522345 0.003648149 0.053048130 0.020668028 -0.008267141 -0.009874059 0.026860794 -0.010408225 -0.049600229 0.061107051 -0.014921307 0.017909979 -0.030545888 -0.026794735 0.041573454 0.038232621 -0.010797297 0.053345952 0.004171478 -0.037770860
devices	-0.001828588 0.026627220 -0.016405994 0.026080202 -0.020057887 0.029396828 -0.048292167 0.021754619 -0.035194296 0.035941958 0.004232890 0.039680261 -0.044863954 0.012921183 -0.000649380 0.017345496 0.016261717 0.034431655 0.046902914 -0.011952357 -0.019602032 -0.019419236 0.003957502 0.001005188 0.041606348 -0.049111798 0.016774477 -0.011536755 0.005067110 0.004004802 0.018357787 -0.007424668 -0.027909581 -0.010548480 0.011409390 0.011051889 0.006892713 0.018874316 0.017334912 0.031481840 -0.020365702 -0.025089070 0.034839965 0.092508994 -0.005496802 -0.023400525 -0.019406749 0.029747022 -0.024116054 0.000372254 -0.026541507 -0.036977805 0.050411284 0.057895795 0.016937565 -0.032222833 -0.030995995 0.026074482 -0.038261469 -0.031722557 -0.026994584 0.030343581 0.030047908 -0.019653548 -0.008774209 -0.019828176 -0.015871366 -0.032911319 -0.021829182 -0.001124858 -0.013015712 -0.002588401 0.024766605 0.015525720 -0.010496880 0.017004933 0.033493888 -0.001513142 -0.005039183 0.037286527 -0.002911014 -0.024085823 -0.007540873 -0.001490150 0.027309289 0.006302273 -0.013240606 0.029243238 -0.005063181 -0.057866167 -0.056722332 0.009993573 -0.013252919 0.021438394 -0.047418777 0.007847545 -0.032658257 -0.009054312 0.004669677 -0.051262110 -0.017547347 -0.019085802 0.025573669 -0.023223493 0.026790896 -0.021314031 -0.020062219 -0.005101955 0.028874509 0.014989664 0.044886846 -0.016464416 0.012250269 0.025693482 -0.019115692 -0.011716635 0.018328397 0.002271244 -0.038703181 0.008889024 -0.015209205 -0.027046299 0.013482359 0.033108693 -0.004094510 -0.027722064 0.013581191 -0.042486820 -0.007625277 -0.023628831 0.042407386 -0.039226178 -0.035701126 -0.061753135 -0.028047694 -0.009957269 -0.013150180 -0.005499077 -0.005651401 0.008705754 -0.029037211 -0.036829658 0.015933743 -0.007676440 0.003390793 -0.005589327 -0.044149198 0.018500753 -0.015001239 0.031057041 -0.044273484 0.024433769 -0.048095703 0.002277527 0.072495982 0.033940889 0.019334799 -0.047455665 0.027066464 0.026979959 -0.009872380 -0.014716452 0.029448323 -0.056565821 0.005338946 0.009260078 0.015064190 0.000980492 -0.002073620 -0.045402303 -0.031477563 -0.018511239 0.014715407 0.008573831 0.020402828 -0.030169398 -0.002681748 -0.011278086 -0.059516076 0.065390125 -0.018283742 -0.007916008 -0.010564078 -0.059203923 -0.002437347 0.000838927 0.036949601 -0.004323963 -0.004542978 0.045978852 -0.003647493 0.002181055 -0.032529853 -0.011552450 0.056334991 -0.032088898 -0.041589063 0.032496311 -0.026385529 0.003857511 0.010506465 -0.008702423 -0.045654818 -0.029343968 -0.071976781 0.026524579 0.003766021 -0.040811714 0.024263388 0.055875804 0.010533430 -0.007382602 -0.004616557 -0.045939472 -0.029589431 -0.027633881 -0.022539372 -0.015432380 0.014059509 0.008622558 0.000943118 -0.016092692 -0.063427500 -0.038859855 0.045898512 0.000536392 -0.014054031 -0.027984224 -0.041330595 0.039927121 0.030765465 -0.012030989 -0.003394086 -0.005065086 -0.026192384 -0.023758415 0.011801089 -0.016925879 0.048322301 -0.037247065 -0.004290390 -0.048601251 -0.030350300 0.004966750 -0.017536988 -0.019834638 0.045856897 -0.053447586 -0.012699915 0.035757106 -0.052059196 0.007154713 -0.053035732 0.018400438 0.014824003 -0.032270920 0.021419341 -0.019066518 0.007408215 0.050972942 -0.017030677 0.045715954 0.024330525 0.048201155 0.000111977 -0.024227802 0.020116040 -0.015422178 0.023787795 0.001775750 0.003873924 -0.006363335 -0.005019650 -0.039016645 0.055424687 0.002809126 -0.006412940 -0.052703448 0.003144106 -0.017581716 0.047864594 0.003420412 0.054330215 0.021685552 -0.009581994 -0.010727447 0.030454544 -0.010824700 -0.053388529 0.065393001 -0.014836037 0.018392628 -0.032888208 -0.030243332 0.044538174 0.037849363 -0.013036714 0.057581130 0.002606977 -0.040339109
high	-0.008147444 0.094795398 -0.066320769 0.104546487 -0.076667354 0.112937026 -0.180278987 0.087678455 -0.129484087 0.134481713 0.010610065 0.146535590 -0.173011005 0.041714408 -0.000714973 0.066464663 0.058484785 0.131292328 0.179881617 -0.037133336 -0.076224998 -0.078546084 0.018431174 -0.000143507 0.159601405 -0.182036281 0.057618223 -0.039070100 0.022303080 0.014447682 0.070800126 -0.024772661 -0.099684604 -0.035795186 0.045550171 0.035931606 0.022296852 0.066216715 0.066004880 0.115018256 -0.082430691 -0.092455529 0.138277411 0.349212050 -0.017366100 -0.086794868 -0.068846546 0.108405523 -0.091834515 -0.001769803 -0.100938730 -0.145470858 0.188358873 0.223444626 0.062035255 -0.117121756 -0.121427126 0.098240867 -0.151332051 -0.124713428 -0.102842554 0.108700171 0.108016185 -0.068332210 -0.032482352 -0.072045982 -0.063538872 -0.121326156 -0.080640599 -0.006552861 -0.053050589 -0.009670316 0.092874117 0.054677796 -0.034477320 0.068666056 0.131093159 0.000584153 -0.015851405 0.134777501 -0.008370498 -0.097457476 -0.034562588 -0.005111832 0.110394210 0.024389768 -0.046172541 0.112660594 -0.015597384 -0.223070294 -0.218841001 0.039538182 -0.049535852 0.080591634 -0.183194131 0.033957057 -0.117619984 -0.028769115 0.017346811 -0.199817061 -0.062064894 -0.072709456 0.094003342 -0.087877274 0.100663967 -0.086608380 -0.077602342 -0.019699177 0.104074568 0.058189064 0.165723354 -0.059421748 0.051819552 0.091265835 -0.069626898 -0.043153629 0.063687764 0.006052256 -0.143274218 0.039700769 -0.059281547 -0.097183846 0.048280422 0.131271169 -0.012218446 -0.111118346 0.051687423 -0.161463499 -0.030160192 -0.088275947 0.158263922 -0.143290073 -0.138973981 -0.237871572 -0.103202134 -0.037456516 -0.051981103 -0.015143040 -0.016686637 0.031492982 -0.108875141 -0.137658313 0.056006402 -0.031581521 0.009477641 -0.024213642 -0.163730294 0.070442423 -0.058022633 0.120649070 -0.162720621 0.090729304 -0.186666921 0.002225786 0.281705022 0.135725036 0.069960944 -0.178708717 0.105291799 0.106205493 -0.032631818 -0.053016204 0.112140201 -0.210456401 0.014261637 0.031571601 0.060298160 0.002909848 -0.005111742 -0.170963094 -0.123879865 -0.076652765 0.063108474 0.028366063 0.078414798 -0.113144927 -0.003306636 -0.043070339 -0.223708987 0.249688447 -0.065855935 -0.028007852 -0.045040499 -0.223089352 -0.011382042 0.007681397 0.141171634 -0.019645311 -0.014986573 0.173500180 -0.010611073 0.006749269 -0.125624329 -0.039420661 0.207927316 -0.120985880 -0.155117512 0.126678452 -0.099870667 0.011509299 0.045210585 -0.036960464 -0.174125895 -0.113975205 -0.269646853 0.108044393 0.017247004 -0.153225750 0.098634943 0.212937593 0.035823252 -0.030684575 -0.011341522 -0.173271284 -0.116422191 -0.103661157 -0.087659195 -0.053907897 0.049096566 0.031501796 0.005433878 -0.058385838 -0.234684542 -0.142868072 0.168948546 -0.003217723 -0.059085879 -0.100752003 -0.152621537 0.148950428 0.115894847 -0.039965179 -0.008460383 -0.025806138 -0.103287846 -0.094054163 0.049630545 -0.071763009 0.190680459 -0.139185950 -0.020648099 -0.188850358 -0.121266469 0.013926060 -0.072438248 -0.070843555 0.171101779 -0.200463563 -0.047283292 0.136943549 -0.195922345 0.022571418 -0.206472158 0.075815640 0.056976005 -0.127303690 0.084231384 -0.079402030 0.028854845 0.195104703 -0.068603881 0.174080685 0.094187625 0.189274058 -0.001463111 -0.095162228 0.076124176 -0.054182995 0.092698127 0.008247370 0.012666647 -0.027446672 -0.013607531 -0.144760951 0.209209904 0.008798300 -0.026695950 -0.202663869 0.015309776 -0.073448569 0.183262110 0.012876692 0.210327312 0.079774581 -0.036415141 -0.036566950 0.109692760 -0.041921973 -0.199613988 0.245362580 -0.061189696 0.066082463 -0.120310694 -0.110396445 0.171087056 0.146749854 -0.049959552 0.216668978 0.010128440 -0.152792200
speed	-0.005640750 0.078549080 -0.053432461 0.082227021 -0.062501259 0.090269312 -0.145539179 0.072092324 -0.104513526 0.110041037 0.008586439 0.115966298 -0.140903175 0.034802254 -0.001292094 0.052277859 0.047279760 0.103786200 0.145028606 -0.030880714 -0.060243938 -0.063732624 0.012472140 -0.002418245 0.127935708 -0.146950215 0.046982266 -0.030262524 0.016780460 0.011196263 0.055005535 -0.018925494 -0.079823919 -0.028055033 0.037317727 0.031834215 0.019886093 0.054678436 0.052227791 0.093812242 -0.065334730 -0.075299665 0.109855406 0.282107174 -0.012520153 -0.070407271 -0.057144802 0.087245926 -0.073608883 -0.000237510 -0.081480779 -0.117321417 0.152070314 0.180266276 0.050398290 -0.094592556 -0.100053050 0.079321362 -0.119783275 -0.099410668 -0.083517589 0.085954510 0.087312132 -0.053996481 -0.026644431 -0.056224462 -0.049586341 -0.096865438 -0.064266749 -0.005932192 -0.040449973 -0.008759394 0.076008096 0.045558807 -0.026633680 0.056987423 0.105864942 -0.001250542 -0.015271046 0.107660629 -0.006315644 -0.079074703 -0.028216794 -0.002796936 0.088555142 0.020334564 -0.035642359 0.090321906 -0.012547635 -0.178680077 -0.176860303 0.032598656 -0.039942127 0.066213310 -0.147874489 0.026481686 -0.094399795 -0.024236569 0.016467739 -0.161447927 -0.049696963 -0.058632772 0.075046808 -0.070330665 0.083102264 -0.070508346 -0.062078968 -0.018102532 0.084275343 0.045079779 0.132084846 -0.049002297 0.040991116 0.074482255 -0.057127535 -0.033810981 0.050824840 0.005662635 -0.115803301 0.029952785 -0.048109841 -0.078984052 0.038274605 0.106951267 -0.010914658 -0.089528874 0.040840119 -0.129255220 -0.022487044 -0.070551798 0.129353508 -0.115660734 -0.110036038 -0.191884145 -0.083581194 -0.032474484 -0.042758994 -0.012483315 -0.013921586 0.023705238 -0.086445227 -0.108651094 0.043292474 -0.026608493 0.009726864 -0.020266570 -0.132227227 0.055058550 -0.047011171 0.097040407 -0.129316464 0.071079507 -0.150494829 0.002754651 0.227440998 0.106870443 0.055754330 -0.145027339 0.084683932 0.084100276 -0.026154621 -0.042324882 0.092377767 -0.168208316 0.012084066 0.022634581 0.049197685 0.003395339 -0.002468624 -0.137729362 -0.100153454 -0.059628472 0.049193233 0.024088915 0.062212743 -0.092605330 -0.002330237 -0.035231672 -0.177610323 0.200189427 -0.052996434 -0.021525782 -0.034538846 -0.177839816 -0.007574158 0.008398244 0.112853751 -0.014689783 -0.010362211 0.138630956 -0.008045699 0.006506703 -0.102780581 -0.030121796 0.165830314 -0.095458709 -0.125239238 0.100789674 -0.078295767 0.010917128 0.037637472 -0.030766832 -0.140291438 -0.094030291 -0.216462627 0.087553643 0.012826357 -0.120841615 0.079225846 0.171970725 0.028451057 -0.026674859 -0.010522302 -0.138743177 -0.092364222 -0.084012501 -0.069223903 -0.043595120 0.039167915 0.027822655 0.004679363 -0.048715722 -0.191264004 -0.115728982 0.134988695 -0.001716447 -0.045953024 -0.080250897 -0.121033095 0.121289529 0.093679175 -0.031927980 -0.007531262 -0.019664271 -0.085731521 -0.073272757 0.038735859 -0.056380875 0.153457209 -0.110508561 -0.016168175 -0.152298599 -0.098261312 0.011595655 -0.058293696 -0.057970013 0.139176235 -0.163310513 -0.040155914 0.108341776 -0.155372396 0.017354734 -0.165905073 0.061476912 0.046931453 -0.101153076 0.067400679 -0.061783742 0.024130216 0.159321636 -0.057020910 0.137934908 0.074989744 0.150709882 -0.002026712 -0.075556800 0.061167914 -0.042308394 0.072162665 0.006723006 0.010369310 -0.021441529 -0.009784154 -0.115807742 0.169603020 0.006808288 -0.021087164 -0.164119244 0.009981294 -0.057559371 0.148616165 0.008751361 0.169518784 0.065283060 -0.029056719 -0.031794343 0.090814978 -0.035682980 -0.160051137 0.198636964 -0.047102794 0.053999424 -0.098522782 -0.088287391 0.139363825 0.119671121 -0.039563864 0.173494264 0.008563106 -0.121751554
mind	-0.004270900 0.066058710 -0.044989757 0.074719138 -0.051339339 0.081276909 -0.126004666 0.062322218 -0.091500103 0.094797917 0.006806300 0.103124611 -0.123447873 0.031963240 -0.001914992 0.046977881 0.042387221 0.093066968 0.126501799 -0.025887700 -0.052698899 -0.055586834 0.011384649 -0.001527572 0.110488251 -0.127108917 0.039917856 -0.025840964 0.014638675 0.010931974 0.047365248 -0.017802734 -0.068941101 -0.026146736 0.034284275 0.027654637 0.016068781 0.048924036 0.045141932 0.079773568 -0.058324195 -0.063945822 0.095518216 0.245259896 -0.013837650 -0.061345313 -0.049901064 0.075725563 -0.066177368 -0.001226386 -0.070073329 -0.101510808 0.131262764 0.155764356 0.041617263 -0.084205173 -0.086951576 0.068235941 -0.107162111 -0.086080782 -0.071974248 0.074541964 0.075323336 -0.047543958 -0.020732429 -0.050988033 -0.044693191 -0.086197287 -0.058078565 -0.005336749 -0.036314357 -0.007596631 0.064148717 0.038899083 -0.022475399 0.049416397 0.093582429 -0.001978257 -0.012924548 0.096666791 -0.008115591 -0.066438608 -0.025139209 -0.003271339 0.077248283 0.017313588 -0.032223687 0.080292001 -0.012299625 -0.155956313 -0.152715325 0.027196236 -0.033068776 0.057619903 -0.128651068 0.022081178 -0.081950888 -0.020031799 0.013249777 -0.140129700 -0.042888522 -0.051862963 0.066565223 -0.063086748 0.071371146 -0.059783012 -0.055965193 -0.015433989 0.072222136 0.040608171 0.115771450 -0.041731343 0.034030955 0.066582024 -0.048901837 -0.030977568 0.044261742 0.005080821 -0.101815745 0.027480053 -0.042585932 -0.068429604 0.034571882 0.093491100 -0.008871756 -0.078494541 0.035568934 -0.114612587 -0.019079216 -0.062928386 0.112384692 -0.101391308 -0.095382757 -0.167660519 -0.071562931 -0.027565813 -0.037010845 -0.011428234 -0.012366867 0.020696705 -0.075740933 -0.094340660 0.038852017 -0.022133114 0.008692686 -0.018045912 -0.113360286 0.049122233 -0.039125483 0.083826087 -0.115407683 0.063231558 -0.131445676 0.002119259 0.196225256 0.095199376 0.048341338 -0.124818809 0.073336631 0.074981406 -0.023983167 -0.039744336 0.080074608 -0.148246557 0.010714148 0.022575311 0.041164774 0.001814876 -0.003015131 -0.119589463 -0.085706510 -0.053511046 0.042169057 0.020720940 0.055961937 -0.079184704 -0.002490151 -0.030902604 -0.155692801 0.176543519 -0.046269365 -0.018691663 -0.030733211 -0.157178298 -0.005801675 0.006703129 0.099154405 -0.013260204 -0.008598587 0.120544776 -0.008027642 0.004933316 -0.088674188 -0.026902732 0.145052195 -0.084899515 -0.108438872 0.089168124 -0.069855034 0.007272418 0.030612497 -0.027312072 -0.123679616 -0.080684535 -0.188671753 0.074469507 0.011347448 -0.107567862 0.069583759 0.149753436 0.025631761 -0.021759370 -0.009494250 -0.120227039 -0.081609197 -0.072798751 -0.060311176 -0.038015820 0.034988049 0.023350267 0.001901718 -0.040596634 -0.164370477 -0.100639999 0.116939932 -0.001135944 -0.041842785 -0.071531191 -0.107358031 0.105024926 0.080095902 -0.027371427 -0.005839971 -0.018348549 -0.071797356 -0.064197823 0.034599569 -0.050348595 0.132971480 -0.097314745 -0.015314903 -0.133416295 -0.083532900 0.009894464 -0.050331585 -0.051509451 0.120395906 -0.141464800 -0.034908131 0.095407568 -0.137004197 0.013871734 -0.144725457 0.051093791 0.038799260 -0.086962499 0.058624633 -0.055221677 0.021989111 0.135860965 -0.048119538 0.122207046 0.065755643 0.133015215 0.000043212 -0.064837113 0.054212321 -0.036313180 0.063209072 0.005588484 0.011499316 -0.020947874 -0.008067482 -0.101527236 0.146249473 0.005414919 -0.018802043 -0.141669273 0.008762239 -0.050537292 0.128284991 0.010274054 0.146704629 0.055364709 -0.026566379 -0.027183667 0.079206966 -0.031238247 -0.140695214 0.174256817 -0.042457864 0.047954310 -0.083214723 -0.077853076 0.122702062 0.103374586 -0.033371862 0.150290266 0.007837931 -0.107813060
hardware	-0.003480128 0.035137441 -0.023592371 0.039799903 -0.028209014 0.044014893 -0.068552397 0.033435680 -0.049970873 0.049975105 0.005575161 0.053146847 -0.066105917 0.016501384 -0.001695658 0.026183857 0.023009459 0.048096348 0.067909263 -0.014611171 -0.030506985 -0.028814120 0.006227672 0.000072459 0.059858229 -0.069468245 0.020391190 -0.016065927 0.008188697 0.005855836 0.024961520 -0.008652512 -0.039262760 -0.014065997 0.017967016 0.015468489 0.009210308 0.025250027 0.023983853 0.043148398 -0.032308143 -0.033652507 0.053439531 0.132941708 -0.008172847 -0.034385607 -0.025417529 0.042155001 -0.033531625 0.000776109 -0.036910601 -0.055666421 0.071606770 0.085234120 0.024015982 -0.044000048 -0.046059538 0.035291817 -0.057314962 -0.046680786 -0.037850417 0.042383417 0.041660842 -0.027199084 -0.012787817 -0.028213885 -0.023340382 -0.046969816 -0.029867575 -0.002502038 -0.018300535 -0.004378805 0.034462865 0.020514945 -0.012666313 0.027393509 0.048802108 -0.000862526 -0.006046333 0.051597062 -0.003658252 -0.035920285 -0.014703284 -0.003092427 0.042043071 0.008370665 -0.017270507 0.044339966 -0.005598599 -0.084334567 -0.084449664 0.014123810 -0.019890107 0.029994242 -0.070336200 0.012902063 -0.046129078 -0.009954396 0.006634445 -0.076198988 -0.022499301 -0.027718099 0.034928966 -0.031806327 0.038349617 -0.031854555 -0.029194932 -0.007993383 0.038592760 0.021480281 0.061110396 -0.022815697 0.019849345 0.034189031 -0.027566945 -0.017469764 0.024181295 0.001096354 -0.055898249 0.014025620 -0.023155494 -0.038495306 0.018389357 0.049333878 -0.004403982 -0.040750563 0.020248588 -0.062507644 -0.009705499 -0.032962773 0.061249446 -0.053117562 -0.052973043 -0.089195922 -0.039558511 -0.014924524 -0.021086233 -0.006783680 -0.006573496 0.012168078 -0.040708005 -0.049833860 0.022244191 -0.011685606 0.002319339 -0.010999628 -0.062610805 0.024949795 -0.021897390 0.043579414 -0.061053909 0.034866098 -0.070466883 0.001595894 0.107701413 0.051879164 0.027500154 -0.066829517 0.039272849 0.038699415 -0.014617132 -0.021946071 0.044100668 -0.080280319 0.005286335 0.012311971 0.023081327 0.002066855 -0.001122008 -0.063412294 -0.047582038 -0.027786436 0.024077712 0.011747361 0.030346436 -0.044850901 -0.000276835 -0.016043117 -0.083128594 0.096086420 -0.023616154 -0.008457550 -0.018041722 -0.082642376 -0.003827947 0.003713067 0.054713462 -0.005840312 -0.004953618 0.063731015 -0.003525223 0.002559085 -0.048539225 -0.014402756 0.078316763 -0.044535786 -0.057399239 0.049566619 -0.036924694 0.005600967 0.015887018 -0.013706679 -0.064859658 -0.044504791 -0.100010484 0.041343298 0.006191816 -0.058813393 0.035996243 0.079271778 0.013196833 -0.013390326 -0.004032507 -0.064238533 -0.044758212 -0.038690194 -0.031000329 -0.020112604 0.019380188 0.011504100 0.000152001 -0.022826273 -0.087740675 -0.054321717 0.065300509 -0.002416255 -0.021985453 -0.037316248 -0.058213521 0.057889875 0.043873236 -0.015647339 -0.003852242 -0.007755158 -0.039342429 -0.034649651 0.017359477 -0.028165096 0.072107680 -0.053543907 -0.008268193 -0.069718607 -0.045109279 0.005738284 -0.027675193 -0.025830086 0.065287590 -0.075695418 -0.017612392 0.051092084 -0.071963742 0.009661008 -0.077150308 0.028386116 0.021043092 -0.046962339 0.031231027 -0.028519802 0.010812880 0.075775355 -0.025384694 0.063922659 0.034441654 0.072506472 0.000024936 -0.034506124 0.029628757 -0.021670325 0.035987355 0.004049433 0.006806233 -0.012159684 -0.004548334 -0.053065650 0.080300748 0.003301426 -0.008561136 -0.075365558 0.004705085 -0.027335083 0.069051772 0.005625713 0.081306674 0.030726597 -0.014721232 -0.014503788 0.043365173 -0.017109847 -0.076880239 0.092147380 -0.022728210 0.026283186 -0.045440566 -0.042341832 0.064688250 0.056780983 -0.017413337 0.080498576 0.004119371 -0.057061419
needed	-0.004034916 0.035757184 -0.024657026 0.039682254 -0.027892513 0.042191494 -0.070127942 0.032114595 -0.048276111 0.052470159 0.004947102 0.055145800 -0.066978380 0.015210005 -0.000177838 0.025029657 0.022690598 0.048681885 0.067433372 -0.014822637 -0.030622929 -0.030804096 0.007768613 -0.000564891 0.060804263 -0.070119873 0.023272527 -0.015512177 0.009987204 0.007108731 0.027148031 -0.010550231 -0.036872558 -0.013886368 0.016444486 0.015184396 0.009774407 0.024158522 0.025459822 0.042666517 -0.031910826 -0.034892995 0.052292332 0.134277791 -0.006133870 -0.032538511 -0.025790589 0.041754074 -0.036002502 -0.000092177 -0.036926471 -0.053935815 0.073250860 0.085622936 0.024378458 -0.043745875 -0.048167069 0.038770415 -0.058133062 -0.048042543 -0.040453743 0.043128341 0.040399063 -0.027512345 -0.011685914 -0.027752055 -0.023916623 -0.046032604 -0.031099835 -0.003779633 -0.019751906 -0.005233909 0.035841778 0.019870928 -0.014707989 0.026500359 0.051700827 -0.000157608 -0.005674270 0.051615823 -0.002600345 -0.035351641 -0.014701403 -0.003074148 0.042514134 0.008640951 -0.016690135 0.042156249 -0.005200568 -0.086446226 -0.085530400 0.015270606 -0.018528538 0.030240098 -0.069303237 0.011599762 -0.046579570 -0.010447009 0.005738414 -0.076921478 -0.022384966 -0.027754182 0.037729394 -0.034013715 0.040276077 -0.033109546 -0.030765519 -0.008413161 0.039379623 0.021298269 0.063825071 -0.024306634 0.018537313 0.035512641 -0.027377669 -0.016593071 0.024300432 0.000809442 -0.056786865 0.015083472 -0.024174469 -0.037837520 0.016784830 0.051101357 -0.003799203 -0.042616293 0.019535612 -0.063396059 -0.011754948 -0.033726174 0.060888622 -0.054107688 -0.052659150 -0.090409555 -0.040305760 -0.013484404 -0.019836329 -0.004495690 -0.004953033 0.013049255 -0.042961422 -0.052709255 0.021043204 -0.013415913 0.002458344 -0.009955116 -0.063416250 0.028037230 -0.022089854 0.044036973 -0.062435146 0.033665612 -0.072494395 0.002072888 0.108816050 0.051425721 0.025420859 -0.069776997 0.039286803 0.039466929 -0.012862097 -0.021424258 0.044257827 -0.079311773 0.004684551 0.011635264 0.024263443 0.002503508 -0.001683132 -0.064798720 -0.046979889 -0.029762840 0.022730097 0.011175903 0.031204034 -0.045433041 -0.000475275 -0.017234558 -0.086071849 0.094780594 -0.025207661 -0.011096038 -0.017357502 -0.085109897 -0.004235209 0.003582438 0.054418862 -0.008743153 -0.003902399 0.067152873 -0.004672905 0.002319521 -0.048256636 -0.014365861 0.079071932 -0.046265274 -0.058927361 0.049546283 -0.037560478 0.004787953 0.018139293 -0.015193007 -0.068128020 -0.043607771 -0.102228671 0.039761763 0.005436878 -0.056722283 0.037335377 0.082825810 0.015235440 -0.013014116 -0.004323863 -0.064649381 -0.042793259 -0.041305441 -0.033853393 -0.020429846 0.019775325 0.013312158 0.002645162 -0.022129430 -0.091579325 -0.056516923 0.065706164 0.000322447 -0.022879913 -0.036981069 -0.058907133 0.055825856 0.044715915 -0.016391445 -0.003443368 -0.008493684 -0.040546726 -0.036994468 0.018838970 -0.025544802 0.073602766 -0.051433269 -0.009071594 -0.072072186 -0.045959800 0.006769820 -0.026259057 -0.028480891 0.065302029 -0.075420640 -0.019778661 0.050235361 -0.075933136 0.007543258 -0.079845749 0.028620278 0.022910412 -0.047053881 0.033294532 -0.031314865 0.010098853 0.076311387 -0.026239073 0.066750124 0.035844605 0.070114814 -0.002344343 -0.034159191 0.030893382 -0.021019179 0.036086410 0.002977151 0.004700327 -0.009399921 -0.003611304 -0.055440426 0.080242470 0.005280133 -0.011753329 -0.076009244 0.007188590 -0.026325470 0.069979034 0.003514799 0.079693280 0.031046754 -0.016225856 -0.015515618 0.042027280 -0.015585025 -0.075330533 0.093396112 -0.024089845 0.024433665 -0.046936277 -0.042488404 0.064584501 0.058079220 -0.018245257 0.083126500 0.005710768 -0.057031572
run	-0.005990365 0.097579889 -0.066785887 0.103695922 -0.076845735 0.116177648 -0.180591896 0.087538220 -0.129528135 0.135978416 0.012740048 0.146420479 -0.175767064 0.044652123 -0.003110867 0.063551702 0.059242040 0.131682649 0.177841470 -0.039381433 -0.076613158 -0.077863567 0.018146645 -0.000155528 0.158618599 -0.183260292 0.058690928 -0.039426472 0.020964775 0.016104301 0.068965212 -0.025573324 -0.098677784 -0.034473646 0.047604557 0.037006125 0.022518234 0.066627756 0.068583064 0.118104652 -0.080080159 -0.094951749 0.138214037 0.352689892 -0.018613392 -0.088159926 -0.070612207 0.108192071 -0.091657855 -0.001555130 -0.099461548 -0.145276800 0.187937766 0.223874941 0.063358195 -0.119474255 -0.122578837 0.099457562 -0.151305154 -0.125153109 -0.105021514 0.108542003 0.109876171 -0.068898439 -0.031230597 -0.070865177 -0.063879885 -0.123625599 -0.081796490 -0.008675231 -0.052360620 -0.010206681 0.092648461 0.056223258 -0.035770133 0.069001272 0.132315695 0.000758408 -0.018949306 0.135756627 -0.009122777 -0.097870290 -0.035932548 -0.005294695 0.111307099 0.022392379 -0.045898322 0.115490004 -0.016131409 -0.224483371 -0.219787046 0.041568108 -0.049973644 0.080285773 -0.182935640 0.034398284 -0.118969664 -0.029579686 0.020105951 -0.201115444 -0.063234039 -0.075720213 0.094617583 -0.087726787 0.103229456 -0.084961109 -0.077550352 -0.022182006 0.105793469 0.056533281 0.163815483 -0.060248706 0.049463198 0.091831014 -0.071117274 -0.044349827 0.063369550 0.004430685 -0.146434337 0.040878471 -0.062127963 -0.099426515 0.049056906 0.131692335 -0.011931984 -0.111957856 0.051190324 -0.162740409 -0.029915774 -0.090270177 0.159039229 -0.144632235 -0.139418244 -0.238542706 -0.102071546 -0.038797669 -0.053435609 -0.016385747 -0.015706023 0.032380357 -0.110869788 -0.135559693 0.054036532 -0.033987917 0.009444953 -0.025298851 -0.164321512 0.071969569 -0.055711273 0.120420940 -0.164712548 0.091253780 -0.185305044 0.003515101 0.282116085 0.134519666 0.072285801 -0.179874927 0.108950913 0.104854994 -0.035226207 -0.056119498 0.114953965 -0.211264282 0.013287694 0.030724080 0.062225178 0.004403385 -0.004760112 -0.173199296 -0.124526672 -0.075424239 0.062968038 0.030202189 0.076509327 -0.113662198 -0.003822298 -0.043481406 -0.223431170 0.252822250 -0.068453394 -0.026024126 -0.042712290 -0.222341210 -0.010145313 0.007266120 0.141152680 -0.018899275 -0.012983516 0.174302980 -0.011712292 0.004395212 -0.125493661 -0.037757121 0.206639633 -0.120715447 -0.153855994 0.128625005 -0.097842664 0.012348237 0.044387445 -0.037930217 -0.175867870 -0.116456568 -0.268757612 0.106627248 0.017016521 -0.153114408 0.097235292 0.213549256 0.037233006 -0.031220505 -0.013523264 -0.173244014 -0.116046786 -0.104082793 -0.086927973 -0.055773452 0.050487246 0.031988684 0.005177971 -0.059452508 -0.238381982 -0.145453468 0.168720961 -0.001160481 -0.057655085 -0.101733692 -0.151838571 0.150426820 0.115987435 -0.039975241 -0.009782331 -0.024490392 -0.106356256 -0.093397081 0.049441274 -0.069359437 0.189306691 -0.137713417 -0.022498216 -0.190040499 -0.122271255 0.013677444 -0.074163601 -0.072158299 0.171787709 -0.200977728 -0.047018550 0.135345727 -0.194576964 0.021986125 -0.205619663 0.073926166 0.057252176 -0.125803843 0.083151609 -0.077557772 0.029690884 0.198510721 -0.068176478 0.173471987 0.093482301 0.190228000 -0.004079055 -0.094642416 0.076864138 -0.054057166 0.092406876 0.007276742 0.012942970 -0.026756585 -0.012922465 -0.142160818 0.209906533 0.010487877 -0.026321907 -0.203949571 0.013238668 -0.071546637 0.182882592 0.011687212 0.213018090 0.081036098 -0.038642403 -0.037453543 0.112094238 -0.043694865 -0.200328857 0.245956093 -0.059453163 0.066553704 -0.121843562 -0.109794371 0.172980979 0.149971724 -0.048647154 0.218715206 0.009070814 -0.151664242
digital	-0.004265559 0.045296505 -0.032805342 0.050844319 -0.036550842 0.053686433 -0.085565306 0.043413486 -0.064122029 0.064171880 0.003892882 0.070435531 -0.085079759 0.021380575 -0.001598311 0.031707164 0.029406246 0.064603284 0.086086556 -0.018685104 -0.037862390 -0.039089754 0.009642404 -0.001817967 0.077593133 -0.087395318 0.029833566 -0.018996511 0.011087829 0.007048866 0.035211869 -0.011449064 -0.047845352 -0.018214468 0.021247106 0.016935444 0.013090818 0.032344185 0.033241432 0.056362938 -0.040926781 -0.046594836 0.068085469 0.170766219 -0.008249776 -0.043504998 -0.033117373 0.054052461 -0.045838453 0.000914043 -0.049564429 -0.070683777 0.092550278 0.106720589 0.030065756 -0.058138128 -0.057913315 0.047073089 -0.071581833 -0.058980368 -0.049410902 0.052765857 0.053297278 -0.033942983 -0.015026249 -0.034153257 -0.029090617 -0.060563713 -0.038486719 -0.002765488 -0.026620749 -0.003962058 0.044983216 0.027876765 -0.016064791 0.033424851 0.064919084 -0.001558606 -0.007813161 0.067495488 -0.005131027 -0.045629360 -0.015537977 -0.003089630 0.055007122 0.011858131 -0.023753393 0.054439027 -0.008374424 -0.108080558 -0.106192529 0.019947683 -0.022786357 0.039486844 -0.089241542 0.014356128 -0.056938026 -0.014438692 0.008423591 -0.098018967 -0.029799948 -0.036927391 0.046695307 -0.041848704 0.048113938 -0.042993844 -0.036980126 -0.010215334 0.049721934 0.027522171 0.080841534 -0.030370157 0.023266554 0.046461690 -0.033802032 -0.022479940 0.030823315 0.001983416 -0.068568230 0.020530988 -0.030442633 -0.045869749 0.023727648 0.063362725 -0.005491577 -0.055153843 0.024412759 -0.078193687 -0.015271087 -0.041642692 0.076817796 -0.069843240 -0.065624915 -0.116581805 -0.049610443 -0.017170118 -0.023675861 -0.008963904 -0.006970154 0.016545806 -0.054198660 -0.066323794 0.025896948 -0.017329164 0.005723145 -0.011151982 -0.079354912 0.035116516 -0.028039973 0.057998542 -0.077718176 0.042601187 -0.090785459 0.002073089 0.137221217 0.064444624 0.035224531 -0.088536449 0.050698556 0.051693778 -0.015475096 -0.026012110 0.054647978 -0.102377549 0.006998139 0.014557519 0.029913256 0.002215349 -0.000479487 -0.084481992 -0.059158053 -0.037418038 0.030158250 0.015597701 0.037493154 -0.057107970 -0.002467178 -0.021812961 -0.108278856 0.121738613 -0.032111052 -0.011639421 -0.022265241 -0.108003773 -0.004483341 0.005538023 0.067183182 -0.007321699 -0.005980197 0.084893852 -0.003546932 0.002290225 -0.060495269 -0.018125201 0.099258803 -0.059278719 -0.074531801 0.061726086 -0.047187779 0.006461868 0.021335592 -0.019025775 -0.084964871 -0.057597395 -0.131241873 0.050223306 0.008335618 -0.073824950 0.049147226 0.101454906 0.018167146 -0.015808914 -0.004558674 -0.084136769 -0.055919617 -0.051735643 -0.040593375 -0.026645184 0.025133291 0.014895200 0.001144081 -0.028245220 -0.115230121 -0.070962824 0.080342919 -0.000097955 -0.029425815 -0.049158137 -0.071899310 0.073968552 0.055297066 -0.018767517 -0.003398041 -0.013335144 -0.051601730 -0.044816107 0.022602828 -0.033906542 0.092943758 -0.066628978 -0.010869231 -0.090575427 -0.057493407 0.007411215 -0.034645017 -0.034697965 0.083652422 -0.095971324 -0.022059409 0.067538455 -0.095486090 0.010571931 -0.100066401 0.035279822 0.028138572 -0.061292201 0.041229628 -0.039009728 0.013283142 0.093769617 -0.032526799 0.084347367 0.046454605 0.092152730 -0.001530153 -0.045196828 0.038329970 -0.024314078 0.045379002 0.005521847 0.005576174 -0.013887396 -0.004665006 -0.070336230 0.102294303 0.003617424 -0.011763874 -0.096859872 0.005706221 -0.033160571 0.089879051 0.006847744 0.102874339 0.037273385 -0.017574286 -0.017330995 0.052542083 -0.021327680 -0.098180689 0.120168775 -0.027604001 0.031859823 -0.057770651 -0.052384634 0.084861994 0.071620040 -0.023154283 0.104687296 0.005466251 -0.072511502
heard	-0.006098676 0.084473215 -0.056264371 0.091213420 -0.064820357 0.099192761 -0.156115159 0.076457083 -0.113895811 0.118711121 0.009813252 0.127961904 -0.152759030 0.037363075 -0.002676765 0.056607801 0.049348507 0.112565137 0.154760614 -0.033906609 -0.067548677 -0.068529554 0.015967581 -0.001846749 0.138763040 -0.158345774 0.052063987 -0.033729888 0.019321416 0.012237382 0.061528247 -0.019959649 -0.088005610 -0.031448498 0.038829900 0.034303706 0.019662697 0.057526853 0.059314206 0.102026805 -0.071368165 -0.080981754 0.118879266 0.306025565 -0.016599042 -0.077546418 -0.059517786 0.094220020 -0.082576767 -0.000206722 -0.087658435 -0.125730202 0.162408799 0.192706585 0.052678153 -0.105099611 -0.106810771 0.085060991 -0.130814090 -0.109973393 -0.089415677 0.094134845 0.095119037 -0.058551747 -0.027414443 -0.063671462 -0.055971839 -0.106484443 -0.072059631 -0.004832882 -0.043198861 -0.007600367 0.080052167 0.047318481 -0.028133085 0.060059935 0.115874849 0.001268110 -0.015214627 0.117709018 -0.007995943 -0.084274165 -0.031025100 -0.004947666 0.095579080 0.020805515 -0.041226380 0.097720452 -0.013954077 -0.195351616 -0.192318335 0.035872761 -0.041090243 0.072369315 -0.159848496 0.028405501 -0.101791054 -0.023615958 0.016631609 -0.175170705 -0.053489003 -0.063881032 0.083937109 -0.076330565 0.088541962 -0.073163375 -0.067425109 -0.017741453 0.091663323 0.050718524 0.141971216 -0.053718008 0.044445522 0.081266560 -0.059739072 -0.036687750 0.054627702 0.005226781 -0.127583697 0.032913040 -0.051595096 -0.084228270 0.041519608 0.115127906 -0.010444469 -0.096773826 0.046659954 -0.140664250 -0.024791064 -0.078547634 0.140379667 -0.124793790 -0.119727716 -0.205716223 -0.089689516 -0.032502338 -0.043940455 -0.015104143 -0.014488947 0.026561202 -0.093422771 -0.119318381 0.047394440 -0.029540878 0.009626368 -0.023899755 -0.140706703 0.061838437 -0.050872616 0.105477035 -0.140052989 0.077297091 -0.162985295 0.003560109 0.245051175 0.117163382 0.063096769 -0.155922368 0.093675621 0.091500767 -0.028843593 -0.047527540 0.097827382 -0.185168549 0.012757397 0.024715878 0.051900733 0.002906537 -0.001781489 -0.148922116 -0.106790870 -0.067107819 0.055647086 0.026954783 0.068562530 -0.098991781 -0.004482415 -0.038850382 -0.195450500 0.218948901 -0.057650417 -0.022065487 -0.039479122 -0.192293212 -0.008222430 0.009137146 0.122271985 -0.017245196 -0.012713733 0.150063708 -0.009300768 0.004571559 -0.110394366 -0.032974403 0.181488857 -0.104764089 -0.135425940 0.109053023 -0.084580399 0.012303106 0.040736303 -0.033009402 -0.153339386 -0.100183301 -0.235323042 0.093740970 0.014534171 -0.132239938 0.085110836 0.183882087 0.030238127 -0.027198877 -0.011284389 -0.149454474 -0.100988612 -0.091654211 -0.073302150 -0.048628818 0.042091444 0.028316986 0.004036206 -0.050736040 -0.207034737 -0.127368510 0.148564532 -0.003154081 -0.048690125 -0.087671824 -0.130460262 0.130121008 0.101842165 -0.037064921 -0.009418464 -0.020113494 -0.091197535 -0.079347938 0.042694345 -0.059939492 0.164444655 -0.119620800 -0.018525973 -0.165479511 -0.103533357 0.012027478 -0.062731810 -0.062827736 0.151569799 -0.176796794 -0.040182892 0.117884070 -0.169295564 0.018519582 -0.179522470 0.066520117 0.050245460 -0.108964846 0.072455034 -0.067340858 0.026276503 0.171791673 -0.060842786 0.150184378 0.081866257 0.162269473 -0.002362975 -0.080307350 0.067520022 -0.045791790 0.081456997 0.006527674 0.011479833 -0.023676364 -0.009789496 -0.124889828 0.184011877 0.007715621 -0.024054281 -0.177488998 0.011275193 -0.062843904 0.159161702 0.012672415 0.183487773 0.069247961 -0.033366345 -0.032406881 0.096712686 -0.038169380 -0.173892468 0.215614229 -0.051103335 0.059123196 -0.105836771 -0.093782336 0.152254149 0.129314870 -0.040859707 0.190528065 0.009074123 -0.132400587
lets	-0.001840736 0.022462701 -0.015014934 0.024708332 -0.016165312 0.026273564 -0.041156780 0.022075785 -0.030885413 0.033159696 0.002612631 0.034605447 -0.040972881 0.011800667 0.000506621 0.016649734 0.013272475 0.030188747 0.041509725 -0.009669038 -0.019542078 -0.017222155 0.003996383 -0.000035580 0.036907922 -0.042102672 0.013571500 -0.009041835 0.004945968 0.004346783 0.015536331 -0.006381743 -0.021905899 -0.008095089 0.010203701 0.008177808 0.005212166 0.017182136 0.016611781 0.028191013 -0.019537149 -0.020560851 0.032731146 0.083226994 -0.005258980 -0.020500286 -0.016199930 0.026401870 -0.022180632 0.000383977 -0.024920061 -0.035713747 0.045701303 0.053720336 0.014402606 -0.029244320 -0.029330555 0.022257563 -0.035014302 -0.030225644 -0.023939934 0.024055583 0.026777575 -0.017165501 -0.008757588 -0.016529592 -0.016432300 -0.027781839 -0.017868543 -0.003182008 -0.012566917 -0.001124976 0.022507669 0.013118316 -0.007157268 0.014977404 0.032373022 0.000344330 -0.003225981 0.032420430 -0.000897697 -0.023972543 -0.009567310 0.000646519 0.024967751 0.005151836 -0.010498916 0.025307946 -0.002618464 -0.053188477 -0.052227132 0.008363162 -0.011693140 0.018652398 -0.043493841 0.008355395 -0.027527871 -0.007893446 0.003202877 -0.047263581 -0.015270224 -0.016224910 0.023906913 -0.021628464 0.022406144 -0.021051088 -0.018458329 -0.004205836 0.023466811 0.014794303 0.039376851 -0.014962660 0.012953887 0.023415674 -0.017270125 -0.008718785 0.014515691 -0.000262043 -0.034830000 0.008915568 -0.012778345 -0.022056855 0.010838007 0.031780712 -0.001372358 -0.025580432 0.012911474 -0.036800172 -0.006753835 -0.019789319 0.038937181 -0.034537967 -0.031184923 -0.056914706 -0.025510779 -0.010422702 -0.011448286 -0.003676695 -0.005353990 0.006965385 -0.024582600 -0.031735525 0.013832719 -0.007940929 0.002678488 -0.006803360 -0.037406743 0.017818701 -0.012372189 0.027373988 -0.039615005 0.020360617 -0.043339442 0.000058758 0.065399662 0.030629208 0.015104654 -0.043283690 0.025464602 0.024178177 -0.007359443 -0.014512882 0.025193980 -0.049157966 0.002975947 0.005500796 0.015630037 -0.000168921 -0.000973100 -0.041775391 -0.029222174 -0.018197203 0.015772682 0.008310613 0.016881755 -0.026713636 0.000141980 -0.008678862 -0.052410375 0.058188602 -0.016265308 -0.006016580 -0.010622401 -0.051235363 -0.001948362 0.003436375 0.034665003 -0.005731164 -0.003219245 0.041150074 -0.002761072 0.002107147 -0.028656239 -0.010559450 0.049121354 -0.028091017 -0.035692558 0.029571829 -0.024267908 0.004206500 0.011082589 -0.008620450 -0.040687904 -0.027142957 -0.064679161 0.025438035 0.005330821 -0.034312982 0.024530124 0.051663075 0.008535146 -0.006335836 -0.003833518 -0.040265668 -0.026573960 -0.024836678 -0.021225320 -0.012245435 0.010277265 0.006284933 0.000092532 -0.015326485 -0.054164540 -0.033602931 0.038911089 0.000065704 -0.013665279 -0.023694955 -0.036983818 0.034300908 0.027137492 -0.009557575 -0.003655532 -0.004973764 -0.026319070 -0.023411481 0.011048945 -0.015707580 0.043492205 -0.033933647 -0.006365992 -0.044639446 -0.026709249 0.003906053 -0.018572902 -0.018008608 0.039565545 -0.048680153 -0.010104131 0.033578523 -0.046128701 0.006537171 -0.047517650 0.019184686 0.013894031 -0.029080180 0.020848909 -0.017262436 0.008425955 0.046947867 -0.014850558 0.039094094 0.023630613 0.043018587 -0.001288244 -0.021487730 0.018585410 -0.010848779 0.021424374 0.001239984 0.004486155 -0.006493011 -0.001497364 -0.033875357 0.049600765 0.001031752 -0.005351097 -0.048620224 0.003293108 -0.017008677 0.044460144 0.001656552 0.049840219 0.019522242 -0.007713731 -0.008526031 0.027901188 -0.010912683 -0.046775766 0.059452601 -0.014187046 0.015208452 -0.028489327 -0.025546942 0.041850228 0.034446489 -0.010288669 0.051911701 0.000900429 -0.037355918
bit	-0.008483890 0.125837758 -0.086525567 0.137442499 -0.100577042 0.152884722 -0.238790125 0.116329141 -0.172834873 0.179003969 0.013521875 0.193213731 -0.231543168 0.058792271 -0.003423609 0.087540157 0.075799942 0.173380971 0.235383078 -0.051050868 -0.100511424 -0.104497924 0.021655500 -0.003328586 0.211885303 -0.242232546 0.078934461 -0.049064945 0.029553177 0.019618969 0.093988858 -0.033694781 -0.132657140 -0.046361953 0.061896615 0.051313527 0.030979678 0.089291848 0.089423329 0.153378814 -0.108510062 -0.123931892 0.183314845 0.462676108 -0.024690107 -0.118150026 -0.092164785 0.142705083 -0.124542981 -0.000416400 -0.133480221 -0.190562606 0.248535350 0.295811415 0.082463801 -0.156972677 -0.161555931 0.129789308 -0.199320689 -0.166891992 -0.139041483 0.144908130 0.144562423 -0.090463310 -0.043084841 -0.093044415 -0.082659349 -0.161865264 -0.107342891 -0.011250187 -0.067916386 -0.013980985 0.123684339 0.075675920 -0.044087607 0.090751186 0.173604459 -0.001687652 -0.024114687 0.181571364 -0.012208837 -0.127494544 -0.044298917 -0.003300089 0.147191525 0.029669754 -0.060004979 0.150423899 -0.023812277 -0.296044439 -0.292866021 0.051843021 -0.065758109 0.107696846 -0.243833840 0.043884456 -0.156218216 -0.038038027 0.023236576 -0.266900092 -0.080663711 -0.098062113 0.125509083 -0.115502812 0.133897960 -0.113861740 -0.102596216 -0.026291648 0.139270023 0.077129103 0.217191502 -0.080387719 0.066444121 0.123211920 -0.091005214 -0.058830213 0.084524393 0.009007683 -0.192493543 0.050546899 -0.081148282 -0.130517811 0.065014943 0.175033778 -0.014822650 -0.146903276 0.069746211 -0.215538993 -0.038355231 -0.117284976 0.210102305 -0.188918829 -0.182829022 -0.314059049 -0.136006072 -0.050509762 -0.069828026 -0.021428067 -0.021522220 0.042274985 -0.144183710 -0.180543035 0.071407080 -0.043338090 0.012797194 -0.033312939 -0.215515971 0.094559215 -0.075387537 0.156448752 -0.214497596 0.119223818 -0.245584637 0.005494114 0.372132033 0.178086519 0.093339115 -0.236069918 0.142949551 0.141045615 -0.045058921 -0.071713068 0.149621829 -0.280185074 0.019697396 0.040565606 0.081042796 0.005741440 -0.004570358 -0.227696583 -0.163042203 -0.098923914 0.081247211 0.038531899 0.101398207 -0.151384979 -0.007582460 -0.057050236 -0.296710432 0.333132118 -0.089361534 -0.036965020 -0.057854977 -0.296829492 -0.012690349 0.012979252 0.187511310 -0.023854960 -0.017984858 0.229113877 -0.015830847 0.007257738 -0.167666584 -0.052331466 0.274141967 -0.157776996 -0.203000516 0.167422146 -0.131757796 0.018056368 0.058851831 -0.047917124 -0.230339155 -0.154212967 -0.357381046 0.140593037 0.024261927 -0.202187493 0.129811049 0.283088773 0.048976183 -0.042315099 -0.017470103 -0.228473067 -0.152305990 -0.141000852 -0.115407817 -0.074127860 0.063933596 0.045120131 0.006461861 -0.079495922 -0.312688321 -0.190335765 0.221992254 -0.003896434 -0.075062029 -0.132806376 -0.200514957 0.197115213 0.153271899 -0.053869992 -0.012585375 -0.033951793 -0.137320951 -0.124156408 0.064997293 -0.091901168 0.251444519 -0.181931466 -0.029508485 -0.248799190 -0.160126239 0.017809663 -0.095063709 -0.093488224 0.228101656 -0.267791659 -0.062833019 0.179436490 -0.258085340 0.029582463 -0.271512181 0.099040203 0.077368386 -0.168097183 0.109478787 -0.102544941 0.038457368 0.259738237 -0.092356786 0.229562759 0.122978114 0.248836175 -0.004259850 -0.123725079 0.102861904 -0.071765304 0.122328848 0.010058179 0.019172322 -0.038136397 -0.016542878 -0.189471975 0.276894569 0.012837744 -0.037121564 -0.269910127 0.019871591 -0.095347047 0.243878886 0.016001176 0.279108971 0.104321621 -0.052228704 -0.049318783 0.148426279 -0.057601988 -0.265242875 0.325582922 -0.080297120 0.087479830 -0.160589218 -0.143426597 0.228245869 0.197676256 -0.065061890 0.287575841 0.014820477 -0.201851234
data	-0.008293329 0.109071262 -0.072953202 0.119781122 -0.087651752 0.131143153 -0.207547396 0.099388823 -0.151272416 0.154490128 0.013284550 0.166632220 -0.201566383 0.049475260 -0.004542187 0.075664356 0.068685368 0.149922058 0.206340820 -0.044742189 -0.089314461 -0.088859506 0.018710298 -0.003806012 0.183008403 -0.210048944 0.068211026 -0.042978290 0.026465945 0.019367598 0.079794146 -0.029616714 -0.115254037 -0.041919526 0.053037897 0.043698423 0.027777288 0.077059709 0.075298011 0.134261623 -0.091875553 -0.108706668 0.159356177 0.402975678 -0.021739669 -0.100536793 -0.078056887 0.124769136 -0.106364705 -0.003091475 -0.114721805 -0.168050319 0.217247009 0.255686820 0.068964891 -0.135524318 -0.141870409 0.111773849 -0.174492121 -0.144884020 -0.121042073 0.127003044 0.125796482 -0.079307146 -0.037839957 -0.082991682 -0.073884182 -0.140532643 -0.095185339 -0.008940736 -0.057633646 -0.011712378 0.108453557 0.063552104 -0.038046472 0.080719277 0.152286768 -0.001636766 -0.020849446 0.157198176 -0.009850080 -0.110597551 -0.039489921 -0.005960872 0.126618832 0.028105615 -0.054562174 0.131190598 -0.019543493 -0.256836593 -0.253109843 0.045481212 -0.055908781 0.093820021 -0.210245579 0.037170488 -0.136655957 -0.033412110 0.020192860 -0.230031908 -0.071129858 -0.085492194 0.109471187 -0.101081200 0.117957160 -0.098946944 -0.090968534 -0.024581967 0.120719001 0.065365218 0.189354315 -0.070269503 0.057606142 0.107128084 -0.080612026 -0.051700693 0.074159004 0.007275462 -0.165945828 0.044526983 -0.067732863 -0.111293241 0.056591246 0.149452776 -0.012940274 -0.126594141 0.061448425 -0.186839551 -0.033778090 -0.103682026 0.184457660 -0.166678354 -0.157659456 -0.271517813 -0.118238129 -0.044080239 -0.060192741 -0.018371079 -0.018584911 0.034945332 -0.124539196 -0.156866476 0.063345082 -0.037908502 0.013336744 -0.028282531 -0.189623892 0.079794966 -0.066593081 0.137130067 -0.188377008 0.103227884 -0.212945148 0.006251946 0.323973387 0.152540177 0.082461149 -0.205892518 0.124376543 0.123455256 -0.038235731 -0.060825888 0.131645665 -0.243508145 0.016476758 0.035533134 0.071101189 0.005956467 -0.005996585 -0.199615702 -0.142957255 -0.087201156 0.070758857 0.035689026 0.091282383 -0.130505264 -0.006554225 -0.049369294 -0.257903993 0.288533926 -0.077004291 -0.029615078 -0.050733447 -0.257395029 -0.012838180 0.011536325 0.164143294 -0.019674411 -0.015548285 0.196587458 -0.010624582 0.005040783 -0.143610597 -0.046677239 0.237834275 -0.138394043 -0.176306695 0.144549772 -0.113459200 0.015019347 0.053568054 -0.041137654 -0.199939162 -0.132564887 -0.310151041 0.123071417 0.021725509 -0.175124496 0.113113113 0.246194303 0.041398779 -0.037274119 -0.014908451 -0.199627146 -0.134639308 -0.119896024 -0.097598493 -0.061955061 0.058471363 0.037183125 0.005221670 -0.069504045 -0.272203267 -0.165577292 0.195704982 -0.001765587 -0.067153201 -0.116813838 -0.173971131 0.172842503 0.133772269 -0.048643570 -0.009649952 -0.028055107 -0.119481847 -0.108417012 0.054777935 -0.082441851 0.215953127 -0.157910198 -0.024101291 -0.217361256 -0.137664303 0.017276039 -0.081967525 -0.082424365 0.197551757 -0.232616574 -0.054722760 0.156730071 -0.223120660 0.026694644 -0.238576576 0.087202691 0.066554964 -0.145441547 0.095870450 -0.088579752 0.034534160 0.226285800 -0.080249980 0.199312553 0.107753277 0.217440099 -0.004060342 -0.108662151 0.089817010 -0.061083827 0.106747717 0.008707979 0.017978527 -0.031621493 -0.016650278 -0.164593786 0.242784426 0.011665258 -0.029501548 -0.232858554 0.016811829 -0.083126076 0.211418480 0.016210373 0.242002234 0.090548687 -0.044908214 -0.044509463 0.128398508 -0.050290573 -0.229835972 0.283049732 -0.067306608 0.076255970 -0.139779806 -0.126455218 0.200161278 0.171465293 -0.056589268 0.250802249 0.013049607 -0.175503910
rate	-0.005057190 0.044983130 -0.031947501 0.050727881 -0.035256214 0.053872444 -0.083914109 0.043063454 -0.060300671 0.063565023 0.005542112 0.067333646 -0.082875803 0.021018164 0.000572659 0.032001011 0.027988400 0.063069262 0.085577480 -0.019550156 -0.035513554 -0.037074167 0.007258303 -0.001835655 0.074604750 -0.085127190 0.027412940 -0.017283747 0.008670949 0.009046302 0.034014355 -0.013072285 -0.046516892 -0.017172625 0.022384314 0.019440264 0.010670762 0.030651471 0.029913617 0.056825940 -0.037889320 -0.042868994 0.066143706 0.165283844 -0.010131893 -0.042065535 -0.034061465 0.051881060 -0.042768732 0.000008489 -0.047346886 -0.068993084 0.089247033 0.104518726 0.029609371 -0.054974992 -0.056859516 0.046878718 -0.071907356 -0.059836194 -0.050940186 0.053210821 0.050777283 -0.034096245 -0.013914469 -0.033451453 -0.031180209 -0.057859086 -0.038304538 -0.003959445 -0.025274549 -0.004887452 0.042959269 0.025297310 -0.017476499 0.034072272 0.062619805 0.001073640 -0.007239897 0.064900033 -0.004357104 -0.047238696 -0.017374102 -0.003145623 0.053085439 0.012612618 -0.021810379 0.052582599 -0.006550913 -0.104894213 -0.104553632 0.018997464 -0.022064850 0.037659515 -0.087747566 0.015926724 -0.056439478 -0.015094181 0.007479166 -0.096651345 -0.029899087 -0.035440218 0.044562392 -0.042300850 0.050266072 -0.042061530 -0.038594905 -0.011410610 0.049850948 0.028709756 0.077541925 -0.029074589 0.022810230 0.045575056 -0.032182541 -0.022442902 0.029915866 0.002334322 -0.069066726 0.019726485 -0.030157743 -0.045904715 0.021646202 0.061649740 -0.006536763 -0.052632961 0.023841051 -0.076137707 -0.012240301 -0.041264199 0.075573564 -0.068017155 -0.066875845 -0.113677628 -0.048159603 -0.017103104 -0.025452202 -0.006752776 -0.006634213 0.015996546 -0.053008743 -0.064754523 0.024690289 -0.015223376 0.003835364 -0.011748768 -0.076694489 0.031645898 -0.026548248 0.057002127 -0.076401003 0.043626647 -0.090110622 0.002854478 0.133949175 0.063036263 0.034410968 -0.086935326 0.051867891 0.050160479 -0.017831635 -0.025985997 0.055144385 -0.099208407 0.006491940 0.013870406 0.027838709 0.001669905 -0.001677205 -0.083682142 -0.058965255 -0.034296528 0.029985074 0.015531393 0.037632771 -0.055441421 -0.002892244 -0.021086220 -0.105257362 0.119884722 -0.030784484 -0.013091714 -0.019963752 -0.106411718 -0.004896188 0.003280362 0.067101032 -0.008328750 -0.007769193 0.081818774 -0.006387919 0.003167608 -0.058882598 -0.017208496 0.098508976 -0.057392918 -0.072809279 0.059164762 -0.046620283 0.006823840 0.021322275 -0.016968638 -0.082836583 -0.053352356 -0.128118247 0.051511087 0.009062044 -0.071231931 0.047642082 0.101495571 0.015532183 -0.016467877 -0.006541245 -0.080814287 -0.056668434 -0.050972302 -0.039567243 -0.025169047 0.025077168 0.014293453 0.002296290 -0.029037308 -0.113992535 -0.069826908 0.080118708 -0.001999691 -0.028796440 -0.048983797 -0.070561305 0.069845475 0.053306065 -0.020053724 -0.005545176 -0.012311109 -0.048690669 -0.042795580 0.023354908 -0.033017430 0.090882234 -0.064821467 -0.010622424 -0.088994630 -0.056377608 0.006268282 -0.035141423 -0.032566469 0.082246542 -0.096180879 -0.022639455 0.064489625 -0.092415832 0.009708732 -0.099135056 0.035492145 0.028842427 -0.058329247 0.039363906 -0.037531480 0.014459738 0.094815589 -0.032653250 0.083871000 0.043103412 0.088127404 -0.000167358 -0.043468639 0.036938220 -0.026674025 0.044840217 0.004875267 0.006698951 -0.011689357 -0.005569553 -0.068811610 0.099420868 0.004426430 -0.011354318 -0.096089534 0.005479523 -0.034496848 0.086859509 0.005696043 0.099414967 0.036077753 -0.017765174 -0.017184140 0.053652789 -0.021251762 -0.093352012 0.118297823 -0.027456306 0.032660022 -0.058010116 -0.050832074 0.081673935 0.069932461 -0.023485700 0.104404010 0.004432510 -0.073393524
turn	-0.003329672 0.047157358 -0.033354636 0.053912792 -0.037091225 0.058231346 -0.091830865 0.045611378 -0.064512379 0.067811161 0.004940770 0.072265632 -0.089891322 0.022959569 -0.000003588 0.033419590 0.029062496 0.066624634 0.091129705 -0.018609550 -0.038097110 -0.040241141 0.008471355 -0.001919421 0.081303708 -0.090891041 0.030045601 -0.019079834 0.011096266 0.008957712 0.037044063 -0.013408603 -0.052228510 -0.016518844 0.024710262 0.020610604 0.012459575 0.033575691 0.034312513 0.060320906 -0.041699201 -0.047021858 0.069341257 0.176196992 -0.008301396 -0.043430816 -0.036541473 0.056215871 -0.047423899 -0.001427746 -0.051894907 -0.073751003 0.094998218 0.113036752 0.032650903 -0.059189871 -0.063876927 0.049163483 -0.078067310 -0.063647211 -0.052400317 0.056199979 0.054490011 -0.034591224 -0.016210947 -0.034570675 -0.030752458 -0.061560623 -0.041012846 -0.003306329 -0.025985004 -0.004232112 0.047297824 0.026856070 -0.015792273 0.035890892 0.067096300 0.001211052 -0.007521315 0.069515668 -0.006332549 -0.048443120 -0.017594421 -0.001116142 0.057373755 0.010544018 -0.023028139 0.057387643 -0.008249118 -0.113814294 -0.112965159 0.021456521 -0.025818745 0.039693467 -0.093007132 0.015556416 -0.059422586 -0.014774594 0.009468187 -0.100576118 -0.031775799 -0.035902157 0.048260588 -0.043313347 0.053124178 -0.044753838 -0.039960757 -0.010961081 0.053941812 0.028111078 0.083250888 -0.030737834 0.024658386 0.048462030 -0.035181269 -0.023348318 0.031474296 0.001762482 -0.075168587 0.020239899 -0.029792810 -0.048208859 0.022981454 0.065549180 -0.006987650 -0.056110132 0.028119650 -0.081152014 -0.013762190 -0.046973690 0.082205608 -0.074157111 -0.070875257 -0.119000353 -0.052688770 -0.020453248 -0.025657179 -0.009539434 -0.006652583 0.014434710 -0.054677203 -0.069418885 0.027238132 -0.016589602 0.005703571 -0.011261222 -0.084426768 0.034979563 -0.027932927 0.059025619 -0.082620010 0.045364432 -0.093271896 0.002188020 0.143010333 0.067065820 0.037312105 -0.090563141 0.052618343 0.052373208 -0.015770731 -0.028001437 0.056552585 -0.107275493 0.005631981 0.015422239 0.032662839 0.000742259 -0.001143308 -0.087826289 -0.061345443 -0.036953107 0.031122310 0.014708718 0.037869487 -0.059575852 -0.001515079 -0.020776395 -0.112561740 0.127287239 -0.034403592 -0.013447915 -0.022084275 -0.113850363 -0.005399292 0.005586259 0.072133966 -0.008651612 -0.008058662 0.085772902 -0.005134963 0.003750870 -0.064548343 -0.018477704 0.106501289 -0.062097482 -0.079421118 0.066155039 -0.049711339 0.007742995 0.024020106 -0.018734060 -0.089638911 -0.059852909 -0.137818918 0.052866884 0.008214943 -0.075863972 0.049168468 0.108682722 0.018806765 -0.016476844 -0.007060758 -0.088838711 -0.059593394 -0.054382842 -0.043122381 -0.028489150 0.023915144 0.016180079 0.002498076 -0.030115550 -0.118234448 -0.072009206 0.086812690 -0.002540379 -0.030363297 -0.051535152 -0.077618062 0.076127499 0.057183824 -0.021779584 -0.003994094 -0.012871628 -0.053387459 -0.046668202 0.023261167 -0.035918463 0.094581611 -0.071218722 -0.010887076 -0.095836759 -0.059474979 0.006145794 -0.036664419 -0.035800185 0.088979937 -0.100969501 -0.024520265 0.068637051 -0.096889354 0.010620756 -0.104627527 0.036465019 0.029827053 -0.065098248 0.043224387 -0.038552430 0.013900346 0.099270932 -0.033570386 0.086305529 0.048241265 0.093760625 -0.001762477 -0.047806259 0.040240075 -0.028051080 0.048218247 0.005107970 0.006948302 -0.014223854 -0.007745759 -0.071530133 0.106752180 0.005683029 -0.012796940 -0.103471033 0.006011315 -0.037166089 0.094523363 0.007688372 0.108637787 0.041806467 -0.019610392 -0.019893523 0.054826748 -0.020163581 -0.100811452 0.126348376 -0.030300591 0.034103192 -0.062996641 -0.054112114 0.087160319 0.073674932 -0.024963249 0.111182109 0.005224373 -0.077658936
actual	-0.003610239 0.031802267 -0.019997990 0.032534264 -0.022722282 0.036671575 -0.057897687 0.027311631 -0.042499702 0.042198882 0.004723445 0.045887832 -0.055371702 0.013943791 -0.002179866 0.021878494 0.017831052 0.041589011 0.055977620 -0.013827769 -0.024511846 -0.025136674 0.006959233 -0.001864953 0.051187761 -0.057858445 0.017886085 -0.012214788 0.007057810 0.006452799 0.023053758 -0.007916495 -0.031415120 -0.013002492 0.016099524 0.012926040 0.005933540 0.020258486 0.020556599 0.036612723 -0.025908077 -0.029071987 0.044688780 0.111474447 -0.005052974 -0.029414725 -0.023001211 0.035464782 -0.029891688 0.000152755 -0.032953925 -0.044936318 0.058765270 0.071279235 0.018038552 -0.039246865 -0.039399162 0.032733191 -0.048330359 -0.038957547 -0.033977233 0.036009427 0.034635566 -0.021106929 -0.009400945 -0.021320200 -0.020080782 -0.037651449 -0.025944041 -0.003610613 -0.016682703 -0.001970016 0.030614069 0.016786534 -0.010018722 0.020893835 0.040578138 0.000573270 -0.005628203 0.044601023 -0.001895216 -0.030688770 -0.009807372 -0.002059509 0.036597814 0.005856275 -0.014285582 0.035368979 -0.003811466 -0.071574777 -0.070854574 0.014136063 -0.016936783 0.026088167 -0.058750585 0.011658445 -0.038909893 -0.009312405 0.006914295 -0.063735291 -0.018343966 -0.024880828 0.029507775 -0.027887125 0.033156224 -0.026100677 -0.026130272 -0.005683567 0.031944335 0.018794339 0.050700419 -0.018649647 0.014562297 0.028940041 -0.023837667 -0.014134057 0.021151934 0.002082922 -0.046406616 0.011859898 -0.019250520 -0.030859673 0.014122625 0.040904380 -0.003297981 -0.035666935 0.017012289 -0.051769584 -0.008842788 -0.027931917 0.050080243 -0.044267654 -0.043948010 -0.076504551 -0.031749006 -0.011065681 -0.017608445 -0.004472142 -0.003952608 0.008380985 -0.034558121 -0.044519622 0.018832160 -0.010864668 0.004681417 -0.008507033 -0.051449392 0.023966566 -0.017581224 0.038097519 -0.052612238 0.027533531 -0.058614574 -0.000282877 0.090911731 0.042206064 0.021575119 -0.057336800 0.032497529 0.033729214 -0.011234506 -0.017289415 0.035144676 -0.066293061 0.003447756 0.010199017 0.017937921 0.001968500 0.000143783 -0.054438733 -0.039170597 -0.024845250 0.019615695 0.008334317 0.026368210 -0.036414705 -0.000170038 -0.012645561 -0.070263237 0.081035815 -0.022209045 -0.007791099 -0.012689914 -0.071584113 -0.001954351 0.003397197 0.043925267 -0.007155602 -0.005041059 0.055340938 -0.001844022 0.001699769 -0.040412541 -0.013497188 0.066400081 -0.038141437 -0.049450286 0.041908149 -0.029739842 0.003888862 0.015624873 -0.011027749 -0.056165572 -0.037061743 -0.086987011 0.032411147 0.006944153 -0.047577832 0.031169968 0.067228556 0.010147952 -0.010000178 -0.004645131 -0.056432307 -0.036865409 -0.034893911 -0.028374171 -0.015825700 0.014766016 0.010370575 0.002824685 -0.018478381 -0.074747749 -0.046475872 0.054841023 -0.002178976 -0.017709015 -0.030811956 -0.046508119 0.047401581 0.037794180 -0.013318181 -0.003141119 -0.008377089 -0.033857364 -0.028752286 0.016903300 -0.023864809 0.060872585 -0.045399424 -0.007859098 -0.060422055 -0.039197918 0.004320293 -0.023371773 -0.021837872 0.053542204 -0.064621970 -0.014531892 0.042113077 -0.063490838 0.006283991 -0.066966169 0.024495529 0.018972209 -0.040511131 0.026001442 -0.024968775 0.010544209 0.062530302 -0.022996718 0.056315705 0.029308407 0.060804911 0.000585494 -0.028870599 0.026022505 -0.016543325 0.030300006 0.003406293 0.006166143 -0.008032018 -0.004961137 -0.045291014 0.067472301 0.002908331 -0.010245914 -0.065131247 0.004848087 -0.022065945 0.059319839 0.005691422 0.066708244 0.025843846 -0.011740458 -0.012800562 0.035435993 -0.013602108 -0.063288324 0.078755111 -0.019470349 0.022365382 -0.037539519 -0.034740627 0.054476470 0.046438530 -0.016597750 0.068972103 0.002617853 -0.048244108
form	-0.003605021 0.065320909 -0.045981497 0.070562825 -0.052052844 0.080608398 -0.124941908 0.059924755 -0.090594448 0.092807263 0.006565300 0.099490762 -0.121991031 0.029907102 -0.002282354 0.045326635 0.040794708 0.092260800 0.125092462 -0.027905686 -0.051786005 -0.053118501 0.012403705 0.000491707 0.112009279 -0.124366097 0.041557819 -0.027926596 0.016702458 0.008901622 0.049690463 -0.018185144 -0.068324298 -0.023847071 0.031968970 0.027249414 0.014871703 0.045849271 0.046462048 0.080272906 -0.055179320 -0.063762434 0.093579762 0.242751032 -0.011534932 -0.062745631 -0.048803035 0.075424641 -0.063856006 -0.002160246 -0.070410423 -0.102061823 0.129531145 0.155065000 0.042492993 -0.083645619 -0.083915316 0.068046682 -0.102853358 -0.085201465 -0.072412714 0.075128920 0.074818119 -0.048413821 -0.021707498 -0.049718626 -0.042313945 -0.085288212 -0.057212878 -0.004563987 -0.034504581 -0.008760390 0.065409869 0.037149224 -0.023452858 0.046659332 0.091220096 -0.001372758 -0.012239984 0.093695879 -0.008101760 -0.068318002 -0.023091218 -0.002533043 0.074711084 0.017803825 -0.033780839 0.080420621 -0.010640568 -0.155195564 -0.151511818 0.028509302 -0.035618048 0.055629991 -0.127545461 0.023968279 -0.080360979 -0.021265853 0.013140921 -0.138352066 -0.044668421 -0.052625045 0.065771036 -0.060114160 0.070245601 -0.060709842 -0.054000862 -0.012925835 0.073283337 0.038488355 0.114513204 -0.040671546 0.035953682 0.064911515 -0.048588131 -0.031351376 0.044183169 0.005257528 -0.100797817 0.026111510 -0.042160321 -0.069106780 0.034011964 0.091903076 -0.007095710 -0.077412143 0.035966005 -0.111076333 -0.020677328 -0.061047476 0.109559841 -0.100668594 -0.096048802 -0.165160924 -0.069029607 -0.026519071 -0.036695749 -0.011646459 -0.010713768 0.021492681 -0.074445985 -0.093559586 0.036238320 -0.022869172 0.007089941 -0.019094530 -0.114278838 0.049598932 -0.039386295 0.082043901 -0.111733370 0.062756851 -0.129960254 0.004126979 0.193953767 0.092750169 0.050911084 -0.125784025 0.073711909 0.072555557 -0.021825697 -0.038446080 0.077263549 -0.145933479 0.011130925 0.022371404 0.041200731 0.001024306 -0.002206425 -0.119962975 -0.085373759 -0.051620200 0.043221634 0.020810837 0.053260930 -0.079086974 -0.003526160 -0.030788802 -0.153846160 0.174938574 -0.047919188 -0.019919517 -0.029787797 -0.153894767 -0.006690764 0.007435536 0.098602645 -0.013608561 -0.008665414 0.118558504 -0.006469789 0.005752597 -0.087958284 -0.028721383 0.143468261 -0.083975658 -0.106954470 0.088789448 -0.069346040 0.008104688 0.030813983 -0.025103606 -0.119939782 -0.079249084 -0.185435876 0.073049545 0.011747628 -0.106645696 0.066135600 0.147452876 0.025962379 -0.021521874 -0.008194462 -0.119240664 -0.080973864 -0.073296979 -0.061370190 -0.039259795 0.033562381 0.021688459 0.002399313 -0.041880969 -0.161866516 -0.101606146 0.117768511 0.000144557 -0.038411789 -0.069227152 -0.104232438 0.102852248 0.078641415 -0.029845530 -0.007573222 -0.018857757 -0.072622359 -0.063706905 0.033468347 -0.047981866 0.130190670 -0.094571501 -0.013428017 -0.131793931 -0.083879620 0.008592449 -0.049115445 -0.050217051 0.117672570 -0.137996599 -0.033158422 0.094514571 -0.133059129 0.014490359 -0.142496660 0.053385291 0.039694197 -0.088296421 0.058320988 -0.054055884 0.019424751 0.134837076 -0.048139039 0.119516023 0.065094970 0.128624201 -0.002136848 -0.063569181 0.053898331 -0.035210386 0.063978821 0.005004118 0.009433004 -0.018504100 -0.007895256 -0.099067919 0.143416539 0.007924267 -0.019750606 -0.140717804 0.010325075 -0.050371945 0.125545293 0.008783396 0.145266652 0.053743605 -0.024992019 -0.026007298 0.078284487 -0.030668773 -0.139424920 0.170230299 -0.039985999 0.047612634 -0.083304547 -0.077098586 0.118466966 0.102298863 -0.035068769 0.151558429 0.008696802 -0.106610335
effect	-0.004827280 0.048071474 -0.032875825 0.051179957 -0.039474878 0.056068797 -0.089286342 0.043479998 -0.065256514 0.069204636 0.003921414 0.073038414 -0.087313198 0.022908712 -0.002700315 0.030889718 0.027637126 0.066029809 0.089940950 -0.019280193 -0.037099313 -0.038658369 0.008121219 0.000529563 0.078454740 -0.090735964 0.028682595 -0.017984362 0.012062131 0.009244292 0.035493806 -0.013160500 -0.051286727 -0.018112922 0.023108365 0.017078497 0.010990327 0.034351099 0.031843849 0.058432501 -0.040963590 -0.047673658 0.068888783 0.174273476 -0.010522977 -0.045299422 -0.036295082 0.054117545 -0.045186229 0.000528078 -0.049784217 -0.073324978 0.094393857 0.110739112 0.030336790 -0.058173519 -0.061800133 0.047584008 -0.073992372 -0.061992098 -0.053325288 0.054416932 0.053974599 -0.035394333 -0.016536394 -0.036688656 -0.031261638 -0.060975023 -0.042402834 -0.002204781 -0.024251653 -0.004496759 0.048620503 0.028553415 -0.015568779 0.035928588 0.064778037 -0.001233464 -0.009488411 0.069152087 -0.005077145 -0.049275801 -0.017396163 -0.002366273 0.053867176 0.011427520 -0.023898901 0.058450032 -0.007728163 -0.111761436 -0.110923879 0.020455100 -0.024346747 0.041656159 -0.091873258 0.015225874 -0.060695391 -0.013070475 0.008455050 -0.102091633 -0.032807626 -0.038104400 0.045837265 -0.043527905 0.051115394 -0.043912947 -0.039988697 -0.008769884 0.051286224 0.030388717 0.083890639 -0.029742368 0.026568115 0.044841856 -0.035641219 -0.023284828 0.031438511 0.001281762 -0.071964309 0.020214021 -0.030338543 -0.047394637 0.022908192 0.066806987 -0.007037972 -0.055701334 0.025417140 -0.081387937 -0.016004086 -0.045317400 0.081485674 -0.072104409 -0.069232620 -0.119625598 -0.049799167 -0.018553497 -0.025619401 -0.006439940 -0.007150352 0.015707621 -0.056355074 -0.069529191 0.028565591 -0.016231172 0.006777776 -0.012931342 -0.080514468 0.033489522 -0.028115574 0.059662778 -0.082296774 0.044721425 -0.092663951 0.001734474 0.141636595 0.067387506 0.036649164 -0.091365196 0.053708598 0.054610871 -0.017912567 -0.025971506 0.056694306 -0.106876880 0.007528321 0.015967831 0.030437855 0.001989974 -0.003124531 -0.085207373 -0.061673000 -0.037556637 0.030871313 0.013168076 0.039999530 -0.058253918 -0.001131963 -0.020738441 -0.111714691 0.124658935 -0.033904590 -0.013115221 -0.022947503 -0.112465531 -0.006645420 0.004328805 0.072636209 -0.010925210 -0.008565907 0.086505428 -0.004639002 0.004505364 -0.064240612 -0.020375106 0.104593679 -0.060292777 -0.076446824 0.064140409 -0.050902031 0.004905624 0.022716023 -0.016815498 -0.088857822 -0.058599912 -0.136097819 0.053370994 0.008227466 -0.075617708 0.050283939 0.105147988 0.017085187 -0.014254954 -0.005013303 -0.086250111 -0.059437808 -0.053930316 -0.041594747 -0.027279558 0.023406675 0.015820846 0.002080767 -0.029118555 -0.119617030 -0.073025033 0.084146351 0.000279767 -0.027748572 -0.049749002 -0.075595103 0.076102681 0.057486348 -0.019195557 -0.005347527 -0.013002806 -0.052448150 -0.046691667 0.024568863 -0.036114097 0.094240926 -0.067690969 -0.011177201 -0.094569176 -0.060035799 0.008748635 -0.034672849 -0.037181482 0.086226702 -0.102464117 -0.022735791 0.067774720 -0.098494723 0.010196501 -0.104553059 0.037101090 0.030028218 -0.063573159 0.043718066 -0.039535191 0.013514370 0.098952398 -0.036158632 0.086393498 0.046932142 0.095331036 0.000442844 -0.045286387 0.037843756 -0.026961861 0.044960167 0.002956264 0.006879456 -0.013525795 -0.005736626 -0.073041543 0.104755446 0.003954443 -0.014738931 -0.101984575 0.007028161 -0.037380680 0.091368191 0.007734301 0.106922843 0.039978858 -0.019112349 -0.019687500 0.056581710 -0.020069364 -0.100832485 0.122410744 -0.028591655 0.033868048 -0.062077768 -0.055236768 0.086589962 0.073896989 -0.023977634 0.107670896 0.003791886 -0.076355278
runs	-0.000922645 0.029131256 -0.017819142 0.031182600 -0.023716342 0.033362929 -0.053060096 0.027352953 -0.039206490 0.040510446 0.003864262 0.042648580 -0.050233271 0.014266166 0.000061921 0.020437181 0.018711386 0.039101072 0.053613652 -0.011310907 -0.021239754 -0.024160728 0.003441591 -0.001058361 0.046720427 -0.053996857 0.018334730 -0.010822115 0.005587388 0.004402794 0.020743856 -0.007313843 -0.030000735 -0.010809915 0.014438111 0.010336149 0.006084552 0.020418096 0.020856837 0.033769019 -0.024955057 -0.027648332 0.039227765 0.102993391 -0.004725479 -0.025264487 -0.021245243 0.032776613 -0.028366111 -0.000857131 -0.029020788 -0.040922411 0.053518657 0.066007204 0.018780122 -0.034500189 -0.037350506 0.028767357 -0.045335837 -0.034936301 -0.030452201 0.030663835 0.030968828 -0.019528894 -0.010827517 -0.021833304 -0.017576968 -0.037471324 -0.023393674 -0.001294315 -0.013963589 -0.002686694 0.026349317 0.016782967 -0.010966560 0.021207882 0.039353233 -0.001234781 -0.004315590 0.039546639 -0.003993076 -0.027604075 -0.011371790 -0.002374658 0.031731505 0.005913150 -0.015177274 0.033522025 -0.006227107 -0.064623401 -0.065583423 0.011824794 -0.013283798 0.023044558 -0.052416239 0.009147462 -0.034962498 -0.007859029 0.004699423 -0.057418998 -0.018494649 -0.020443490 0.027412739 -0.025931519 0.028427869 -0.024304029 -0.023280630 -0.004975824 0.028924458 0.016091684 0.049435284 -0.017817572 0.015312970 0.026150238 -0.021836253 -0.012526129 0.020255813 0.002766794 -0.041840062 0.011933488 -0.018647369 -0.027162017 0.015019701 0.037100319 -0.003267473 -0.031642001 0.017020941 -0.048117083 -0.008425893 -0.027544983 0.046478245 -0.042477589 -0.040681135 -0.068649054 -0.030260241 -0.011101324 -0.015128853 -0.004577254 -0.003637566 0.009062264 -0.032273330 -0.040048033 0.016689368 -0.009910394 0.004538414 -0.006120298 -0.047073536 0.019507429 -0.017323969 0.034829635 -0.047982324 0.026174115 -0.054682884 0.002672618 0.081026644 0.039343763 0.022261806 -0.052279543 0.031925134 0.030668825 -0.010182002 -0.016498804 0.034121383 -0.061816912 0.002561540 0.009287556 0.017266648 0.002598596 -0.002512835 -0.049380705 -0.036849730 -0.021176809 0.019495012 0.009217702 0.022948895 -0.034346137 -0.000331590 -0.012675134 -0.064120054 0.074935243 -0.020322584 -0.006934148 -0.013672455 -0.063561052 -0.002568966 0.003112381 0.040560499 -0.006653212 -0.003573570 0.049084995 -0.002941359 0.002446462 -0.037031706 -0.012090691 0.060144141 -0.035139870 -0.044624440 0.037575569 -0.030380191 0.002471677 0.013752670 -0.011836762 -0.051141944 -0.032341309 -0.078435823 0.032965623 0.003855078 -0.044144806 0.029038351 0.063670740 0.009861313 -0.009247662 -0.003546236 -0.051084753 -0.032299183 -0.029936286 -0.025229895 -0.017292885 0.013205804 0.010300688 0.000857953 -0.016208548 -0.067962416 -0.041653108 0.050209016 0.000463953 -0.015471888 -0.028988523 -0.044090461 0.044649459 0.034394827 -0.012486493 -0.003159980 -0.007369518 -0.032034222 -0.027903780 0.013282948 -0.019974582 0.055911880 -0.039154127 -0.007409550 -0.055354185 -0.035631094 0.005520979 -0.021629546 -0.019526556 0.050154876 -0.057915043 -0.015418259 0.039251454 -0.056818180 0.007497427 -0.059152823 0.023476899 0.015792046 -0.038081780 0.023056041 -0.022526925 0.010051794 0.058450691 -0.018813264 0.051938549 0.029041730 0.054184716 0.000409551 -0.027751451 0.021948293 -0.015157300 0.025225697 0.001355247 0.005380931 -0.009584714 -0.004877547 -0.042447075 0.062975876 0.004299241 -0.008127848 -0.058183536 0.005860580 -0.020638920 0.054064352 0.003718872 0.062273372 0.023484794 -0.012564834 -0.011661928 0.033528637 -0.012272072 -0.059173759 0.071621686 -0.016163450 0.018396573 -0.035737336 -0.031251382 0.052255414 0.044837456 -0.013608370 0.061934538 0.004005427 -0.042902321
hands	-0.002876053 0.038940627 -0.027036805 0.042105537 -0.031252310 0.046654642 -0.070624724 0.033996254 -0.051403455 0.052845463 0.004937693 0.056683138 -0.069317684 0.017039476 -0.000279630 0.024295332 0.023987854 0.051799610 0.070572995 -0.016394842 -0.030910118 -0.030662309 0.006539527 0.000598798 0.064071976 -0.073248468 0.023700040 -0.016503580 0.007613952 0.006537633 0.028674070 -0.008173719 -0.040161815 -0.012729934 0.016914120 0.014104065 0.007971993 0.025471924 0.027463876 0.044624109 -0.032672070 -0.035723146 0.054492261 0.140346795 -0.007917437 -0.033728775 -0.028617287 0.044155199 -0.036507495 -0.001421730 -0.038219113 -0.058020931 0.075803764 0.087333053 0.025579467 -0.047175564 -0.047142699 0.039732821 -0.059219465 -0.048628315 -0.042809214 0.043352794 0.041585017 -0.026261890 -0.013679289 -0.028713888 -0.025542011 -0.049393184 -0.033045083 -0.002618232 -0.021314127 -0.002590612 0.035670694 0.022921421 -0.012274681 0.027585832 0.050979730 0.000440052 -0.006566577 0.053075068 -0.004834606 -0.036882613 -0.012123558 -0.002301526 0.042726833 0.010451915 -0.016948380 0.044827681 -0.007274247 -0.090206042 -0.086801007 0.016500538 -0.019010790 0.033226997 -0.074330196 0.013774409 -0.048103821 -0.012680752 0.007778208 -0.078525171 -0.025073016 -0.029279159 0.037147250 -0.034503084 0.039828505 -0.033354271 -0.031388119 -0.007630306 0.041340325 0.023472721 0.064951085 -0.023154959 0.021707872 0.035252161 -0.028207870 -0.016468270 0.026685255 0.002280593 -0.056048434 0.016658084 -0.024564955 -0.039611876 0.019939115 0.051708344 -0.006260231 -0.043007728 0.020305835 -0.065163895 -0.012043690 -0.036894388 0.063495398 -0.056032043 -0.055979043 -0.094033666 -0.039050013 -0.013760280 -0.020948566 -0.004917603 -0.006850360 0.012663643 -0.042405173 -0.055067569 0.019980326 -0.013068422 0.004753538 -0.011738379 -0.064789094 0.028497661 -0.023211649 0.048033863 -0.065596603 0.035678044 -0.073214084 0.001117899 0.111282706 0.053374503 0.029823672 -0.069927953 0.041908771 0.043529570 -0.012051914 -0.020138748 0.043496870 -0.083469436 0.003826676 0.013236132 0.023195244 0.000190661 -0.000463653 -0.069592208 -0.048364419 -0.030949453 0.023753103 0.010033994 0.032062568 -0.044212911 -0.002025143 -0.017925736 -0.087988883 0.098389886 -0.027070604 -0.009058587 -0.017756818 -0.088504419 -0.005300820 0.002066189 0.055329088 -0.007584634 -0.004429868 0.069421336 -0.004362015 0.003339237 -0.048929852 -0.015058652 0.080882937 -0.048519336 -0.061307408 0.051108535 -0.040324692 0.004723237 0.018807907 -0.013604841 -0.067791559 -0.045585144 -0.105615869 0.043151271 0.007804313 -0.059167374 0.038873523 0.083170764 0.012685469 -0.012413564 -0.004070318 -0.069132119 -0.045413863 -0.041020244 -0.032799132 -0.021603774 0.019418627 0.014510402 0.000480410 -0.023984727 -0.094754957 -0.058396257 0.065354556 -0.000954608 -0.023896035 -0.039455701 -0.061493374 0.060554404 0.045052368 -0.016033622 -0.002632832 -0.008417228 -0.042629670 -0.035468109 0.020579623 -0.027114067 0.074883796 -0.053487282 -0.007868997 -0.073733255 -0.048745777 0.004180756 -0.027990131 -0.029900594 0.069043517 -0.078551188 -0.020500191 0.052931610 -0.075600736 0.007070912 -0.080950707 0.031377710 0.021737119 -0.050138000 0.034159530 -0.029724211 0.011993059 0.078395762 -0.026395751 0.067379579 0.035441712 0.075549416 0.000279815 -0.037830040 0.031230548 -0.021792337 0.037981898 0.004584420 0.005771638 -0.012723661 -0.004224861 -0.055346671 0.084508032 0.003662840 -0.009755940 -0.081929892 0.005711749 -0.030247271 0.071550928 0.005907550 0.084897012 0.029918037 -0.016510190 -0.014736657 0.044789571 -0.016928850 -0.078439869 0.098378092 -0.024802979 0.027548788 -0.046519086 -0.045071874 0.067212157 0.057853252 -0.020122962 0.086416796 0.003741175 -0.059435681
copy	-0.001504409 0.039368901 -0.028529273 0.043515287 -0.033098649 0.047110815 -0.074386202 0.038010035 -0.056511328 0.058161460 0.003890027 0.062428139 -0.073970377 0.017905708 0.000436008 0.028503224 0.025519803 0.056314994 0.077152982 -0.017297376 -0.033224504 -0.034508061 0.008200024 0.000606257 0.066332407 -0.077842325 0.025238099 -0.014933218 0.009076271 0.005902562 0.028415892 -0.009422569 -0.042014312 -0.016343096 0.020907357 0.015831044 0.010690940 0.027112816 0.027942497 0.049749430 -0.033689469 -0.038375415 0.059666965 0.146877572 -0.008858014 -0.037918482 -0.029794032 0.045714818 -0.040789947 -0.000250851 -0.041317850 -0.061791897 0.078770705 0.092718303 0.026286216 -0.050785389 -0.053055845 0.039824076 -0.063734852 -0.052887786 -0.043679599 0.045811128 0.045482982 -0.028608507 -0.013367096 -0.030459581 -0.026929297 -0.052928161 -0.035987940 -0.002787840 -0.022090068 -0.003029190 0.040592834 0.022775093 -0.014743892 0.030010013 0.056757666 -0.000021886 -0.008808069 0.056507386 -0.003310991 -0.039405756 -0.016035454 -0.003288275 0.047518499 0.008737155 -0.018156394 0.046950445 -0.007155940 -0.093754590 -0.093000449 0.015619067 -0.019925298 0.035443317 -0.077155918 0.014027617 -0.049943812 -0.012486544 0.009270114 -0.083520420 -0.026777659 -0.029794428 0.039732181 -0.036777601 0.042974614 -0.037102513 -0.034749664 -0.007593241 0.043022845 0.025899321 0.070189610 -0.026998395 0.022170760 0.038150124 -0.028142437 -0.016834073 0.025974851 0.002439140 -0.062568866 0.015892237 -0.026428100 -0.041489977 0.019386960 0.054857556 -0.003573470 -0.048464708 0.023045927 -0.067492098 -0.011991331 -0.037696131 0.067780428 -0.059356306 -0.058625404 -0.099018581 -0.042784836 -0.017356951 -0.021594251 -0.007224971 -0.008561048 0.013168793 -0.046387102 -0.058103517 0.023887092 -0.013331734 0.004150283 -0.010208771 -0.069631800 0.030334150 -0.022668071 0.051189095 -0.069847301 0.036606278 -0.079523496 0.002858141 0.120257735 0.058146004 0.030878525 -0.075930476 0.044796932 0.045587063 -0.015321279 -0.021483701 0.048710052 -0.088816851 0.006802024 0.014224850 0.026198706 0.000031045 -0.001341581 -0.073518895 -0.051713169 -0.030955056 0.026267724 0.013830096 0.031582367 -0.047695495 -0.003043331 -0.019330857 -0.094466120 0.105450906 -0.027879978 -0.011341487 -0.018730838 -0.094220631 -0.004872100 0.004843520 0.060963407 -0.007678986 -0.004066027 0.071935371 -0.003347192 0.002387213 -0.054297145 -0.017715050 0.088003643 -0.052184876 -0.063555181 0.055366211 -0.041783068 0.006161164 0.019377138 -0.016938349 -0.072279960 -0.049431838 -0.114306457 0.044349793 0.006481593 -0.063008144 0.040319283 0.089104518 0.016558763 -0.015031158 -0.006566220 -0.072638772 -0.049972009 -0.046035103 -0.038175065 -0.023007749 0.022779001 0.014477446 0.000637789 -0.025707567 -0.101092808 -0.062887743 0.073163733 -0.001415325 -0.024288187 -0.041148882 -0.063393451 0.062596321 0.048995540 -0.018039450 -0.005401617 -0.009033210 -0.044987231 -0.037766539 0.021668483 -0.030433465 0.080215871 -0.057810772 -0.008637242 -0.081417300 -0.051495515 0.007849520 -0.029272432 -0.030270718 0.071907781 -0.084210798 -0.019039690 0.058879539 -0.081217282 0.010173515 -0.086193718 0.032297846 0.024273822 -0.052785888 0.035720643 -0.032077763 0.013440603 0.084565677 -0.028944727 0.071813583 0.040485732 0.078693144 -0.002513394 -0.041015498 0.033894736 -0.022487532 0.038880199 0.002869240 0.005092293 -0.010663739 -0.004020957 -0.062061578 0.087958552 0.004518563 -0.010513707 -0.086657085 0.005685788 -0.030867191 0.076163322 0.005464723 0.088343889 0.034664787 -0.015634125 -0.017295321 0.047977027 -0.017510541 -0.085933164 0.103524692 -0.025617074 0.028470282 -0.049827378 -0.047483481 0.072082341 0.062766500 -0.019939112 0.093201078 0.005412140 -0.064180836
