article	0.054146841 0.039449889 -0.100148521 0.100862436 0.126951367 -0.227441177 -0.106420435 -0.177533522 0.052162297 -0.144125834 -0.138301849 0.067796119 -0.123599425 -0.010823278 0.284050763 0.124377266 0.030416502 0.107841179 -0.143520877 0.057173345 0.090908520 -0.163421944 0.231455579 -0.106807433 -0.093094766 0.050931908 -0.010198270 -0.061941426 0.262984216 -0.094227441 0.153592423 0.102531269 0.066563651 0.103623204 0.037370760 -0.084891498 0.007868616 0.219676197 -0.091450527 -0.079575107 -0.018079020 -0.166386634 -0.136706173 0.146915615 -0.032451447 -0.274202973 -0.338504076 0.191143766 0.018783659 0.230375573 -0.217038110 0.097738788 -0.069542415 -0.494183362 -0.171340629 0.188145116 0.077005200 -0.013537374 0.126660988 -0.016635573 -0.136347637 0.083058164 -0.214570940 -0.060678959 0.097085781 0.086116299 0.202473328 0.008260283 0.142267406 -0.062155027 -0.057466913 -0.012091937 -0.047709532 0.002135272 0.339696854 -0.043692209 -0.092057474 -0.310237765 0.048502460 0.167033762 -0.310211420 0.244413063 0.021849988 0.103248902 0.063042946 -0.066327415 -0.035063192 0.259632528 0.119247705 0.172663510 -0.004878904 0.140287504 -0.249217004 -0.250348985 -0.093158662 -0.263023943 -0.307884723 0.008283030 -0.245330349 0.041515943 0.076646402 -0.107075289 -0.210626647 -0.093423732 -0.236724779 -0.092760004 0.095375635 -0.042674314 -0.029876046 0.040635861 0.314204693 0.012768863 -0.123535126 0.322043478 0.022463826 0.197966859 0.076331317 0.000652845 0.161311790 -0.026785204 0.108676746 -0.232221171 -0.039850362 -0.254145324 -0.057805918 -0.106265843 -0.182290614 0.141609401 -0.212436303 -0.109358281 -0.022545991 0.000951082 -0.160763934 0.069470070 0.090880781 0.353476405 0.279133976 0.349604726 -0.083710790 0.072805420 -0.088334359 -0.206963539 0.211941376 0.200983182 0.159470826 -0.091356806 0.106215559 -0.304541081 0.065279752 0.115352429 0.017279407 -0.195485488 -0.119377084 0.165553167 -0.040268198 -0.079646483 -0.222864106 -0.075448655 0.048362087 0.231935561 0.024810510 -0.292636842 0.066019356 0.099257730 -0.027965609 -0.145373985 0.149482518 -0.044283498 0.206281304 0.144841298 0.254535824 0.123772882 -0.041430235 -0.071792975 0.166790262 0.128927603 -0.050217018 -0.154434040 0.175478429 -0.177599713 0.099557571 0.124079548 -0.347801447 0.295884132 -0.240156487 -0.161213472 0.117023937 -0.107246906 0.156490371 -0.081094407 -0.192258626 -0.055711459 0.023131372 0.338802397 0.128389999 -0.209035546 -0.120288864 -0.071788929 0.284008116 0.150974870 -0.298959702 -0.210457787 -0.176379770 -0.296828955 -0.194247767 0.081854813 -0.142404392 -0.180532634 0.163293421 -0.037012670 0.065191828 0.400224358 -0.017972814 0.187950507 0.185777366 0.193469808 0.094956763 0.087710239 0.162335247 0.054844677 0.133171439 0.100350045 0.079261184 -0.229068950 0.087585896 0.032574531 -0.179601416 0.089192152 0.044651385 -0.155102685 0.067657240 -0.042730488 0.009327616 0.128237531 0.107054308 -0.163231879 0.065283164 -0.109315783 0.168807954 -0.260859430 -0.322840095 -0.137599021 0.097290672 -0.248780563 -0.149256766 -0.003700024 -0.338312626 -0.117957316 -0.065578081 -0.201206774 0.066519894 0.150896013 -0.307609171 0.042951494 -0.096118718 -0.068801127 0.182472453 -0.037378706 -0.300604820 -0.051601712 -0.140447602 -0.286404282 -0.221558392 -0.288876891 0.189779252 0.028112732 0.164296478 -0.163655132 0.215262845 0.189883232 0.139311314 0.022376170 -0.104525067 0.280589104 0.343740165 0.000484258 0.134490326 -0.101963617 -0.202639744 0.025699694 -0.258090466 -0.108289078 -0.041153304 -0.179285288 -0.126818135 -0.152240247 0.274399698 -0.055352502 -0.182214394 0.100632221 -0.016877560 -0.361067951 -0.049734976 0.106149748 -0.047233339 0.028798640 0.203497395 0.105884425 -0.293429792 0.136692584
america	0.010194141 0.007297631 -0.021218065 0.022688521 0.026863210 -0.047207426 -0.023476051 -0.039162334 0.012278333 -0.029495820 -0.029571651 0.014599698 -0.026767448 -0.001494449 0.058978744 0.026209619 0.004629989 0.023554942 -0.031228239 0.012805314 0.020551093 -0.036228348 0.048636310 -0.022558087 -0.020906512 0.011365825 -0.001970611 -0.011742118 0.056712620 -0.021067683 0.032798897 0.020309074 0.013094949 0.021403966 0.007711276 -0.018929627 0.001823417 0.047969878 -0.020688264 -0.017168913 -0.003673425 -0.034265500 -0.030604754 0.032040715 -0.008336436 -0.058349039 -0.072716862 0.041511707 0.004928853 0.048789524 -0.046512485 0.021603508 -0.013826873 -0.104948424 -0.036402162 0.039945062 0.016412534 -0.003375703 0.025570471 -0.002683976 -0.029926406 0.017645970 -0.044319954 -0.013186076 0.020586051 0.018863479 0.043090515 0.003270901 0.031611845 -0.013314161 -0.011496752 -0.002200851 -0.010899300 0.001315463 0.074191168 -0.008048991 -0.019059721 -0.067885064 0.009088562 0.036860306 -0.064890929 0.052653354 0.005768086 0.023826782 0.011968247 -0.016193187 -0.007596233 0.055647597 0.025047010 0.036132831 -0.000017465 0.030831607 -0.052776881 -0.054463394 -0.020261779 -0.055322934 -0.065754578 0.000630550 -0.053501308 0.009480782 0.016760414 -0.023197206 -0.045928970 -0.020809012 -0.052402243 -0.020661209 0.019931344 -0.008694034 -0.006050635 0.007382565 0.067611374 0.002439971 -0.025518972 0.068824522 0.003057475 0.043162432 0.014908045 0.001274185 0.033432491 -0.006920147 0.022886151 -0.050276183 -0.009032911 -0.054896683 -0.011205487 -0.021821797 -0.038262628 0.029624732 -0.046546120 -0.024975989 -0.006083648 0.000081462 -0.034241471 0.013619414 0.018892463 0.076023251 0.060166776 0.073231526 -0.018250320 0.013601590 -0.018037643 -0.044762067 0.045415282 0.042570077 0.032770652 -0.020971717 0.023853626 -0.063434854 0.014752365 0.025784455 0.003715848 -0.039931495 -0.025808485 0.035236996 -0.009677035 -0.016270425 -0.048555974 -0.016886294 0.011660166 0.051009629 0.003191025 -0.061864182 0.015151286 0.019506764 -0.006074807 -0.031791892 0.031889968 -0.009810864 0.044191532 0.031440575 0.052680083 0.024859287 -0.008527620 -0.014155680 0.036966797 0.025792206 -0.009652132 -0.032772958 0.038773902 -0.036819402 0.021891067 0.028137242 -0.073189095 0.062781490 -0.050687514 -0.033610802 0.025611499 -0.022033466 0.032999989 -0.019350315 -0.041566815 -0.013345648 0.004607627 0.073447578 0.028191743 -0.046012718 -0.027081881 -0.015617839 0.061324067 0.030828495 -0.065323748 -0.043321650 -0.038507063 -0.062866308 -0.040696796 0.018535871 -0.031191552 -0.038471561 0.035230648 -0.008920775 0.015496288 0.084945537 -0.004126613 0.039096557 0.038766641 0.040553663 0.019227186 0.017874990 0.035041943 0.013327598 0.027516002 0.021082472 0.017084412 -0.047431484 0.016906705 0.007993972 -0.038418755 0.020187479 0.009468958 -0.031840850 0.013800905 -0.008479204 0.002011713 0.026141642 0.023231957 -0.033136684 0.012706865 -0.023396662 0.036436565 -0.057590328 -0.067613564 -0.030218981 0.020821989 -0.052001812 -0.031947240 -0.000038688 -0.072245106 -0.024551477 -0.014845146 -0.041354567 0.013133236 0.033242453 -0.067085735 0.010544338 -0.020655662 -0.014055187 0.039146278 -0.006999064 -0.063113242 -0.010694668 -0.028924119 -0.059645217 -0.047568936 -0.060727246 0.042238992 0.003919486 0.034570824 -0.036478888 0.046021920 0.042401429 0.028663507 0.004343589 -0.023269063 0.061008781 0.073356532 -0.000702123 0.030237403 -0.022354756 -0.042854536 0.004275498 -0.055276457 -0.022142585 -0.006830230 -0.037729032 -0.027983045 -0.032974474 0.059511811 -0.010255028 -0.040347949 0.021511603 -0.003010198 -0.077837422 -0.009764482 0.021673914 -0.010553217 0.006195423 0.043069474 0.021306682 -0.062544852 0.029961182
free	0.023540465 0.016723471 -0.044750698 0.046021961 0.056092829 -0.103847586 -0.048359379 -0.080406927 0.023611492 -0.066268913 -0.063569285 0.029211268 -0.057259656 -0.003384101 0.128466249 0.056892026 0.011823193 0.050265580 -0.064618632 0.027983719 0.041624427 -0.072468266 0.106444605 -0.047816727 -0.042830803 0.023697812 -0.004112255 -0.026828103 0.121212780 -0.044478718 0.068984397 0.046606276 0.029684369 0.045899283 0.015780725 -0.040682770 0.003487724 0.101351865 -0.041648634 -0.037681755 -0.008890286 -0.074940510 -0.063640118 0.068440668 -0.015609946 -0.124530740 -0.154097408 0.088815659 0.009022851 0.105556779 -0.098920979 0.044238470 -0.031839546 -0.223233089 -0.078429155 0.085532054 0.037357647 -0.004761769 0.057406250 -0.008137160 -0.062992699 0.037280053 -0.098705232 -0.027920259 0.044519912 0.038172547 0.092224017 0.002498462 0.064681970 -0.028331636 -0.026285546 -0.006834250 -0.021077635 0.002508402 0.153975144 -0.019521117 -0.043148339 -0.142512560 0.022087416 0.076480009 -0.140908554 0.110924713 0.009363118 0.048868567 0.028948013 -0.031834390 -0.014985661 0.117885649 0.054629177 0.076789580 -0.003928593 0.062324896 -0.111794546 -0.114738062 -0.041176371 -0.120219991 -0.139852226 0.004122192 -0.109958977 0.020200795 0.035048317 -0.047608241 -0.094324239 -0.041057285 -0.108055420 -0.043099936 0.041773386 -0.020077096 -0.013855895 0.020198748 0.144252628 0.003810193 -0.057311915 0.147108823 0.007863224 0.091572642 0.034001283 -0.000437312 0.074031040 -0.012017283 0.048063792 -0.106253542 -0.018840875 -0.117616326 -0.025346598 -0.047812730 -0.082926631 0.064037472 -0.097298548 -0.050266184 -0.010112721 -0.001554871 -0.073482446 0.030792421 0.040467523 0.159182400 0.127309129 0.158332825 -0.036733013 0.033618588 -0.039964728 -0.093953125 0.095632903 0.090947866 0.072636522 -0.041806769 0.049008597 -0.137654707 0.029041480 0.051095523 0.006346362 -0.088531084 -0.053850755 0.076801695 -0.018145122 -0.036717698 -0.100823492 -0.032455634 0.024667105 0.107032105 0.010652406 -0.134717956 0.027856525 0.043186255 -0.011557404 -0.066660605 0.068995744 -0.020872638 0.093236655 0.064563796 0.116316549 0.056348108 -0.019385278 -0.030882401 0.077497281 0.058961786 -0.022130283 -0.070829839 0.080879763 -0.079048693 0.045714520 0.056957733 -0.158951446 0.135231271 -0.106997140 -0.071884826 0.052612096 -0.048905104 0.070166118 -0.038940575 -0.087989651 -0.024140790 0.010639767 0.153205067 0.058425095 -0.094895825 -0.054638859 -0.034254517 0.130021513 0.068864614 -0.135534495 -0.094816685 -0.080297343 -0.134429917 -0.088768236 0.036993697 -0.064040430 -0.083580367 0.075860284 -0.016347913 0.028448576 0.182550058 -0.008375606 0.085640050 0.084369704 0.090233728 0.041622993 0.040607039 0.072884694 0.023513749 0.061286926 0.045529302 0.036954079 -0.105391420 0.040322486 0.014758950 -0.081583284 0.041685522 0.021728398 -0.069018461 0.029901888 -0.017691845 0.002141287 0.057635732 0.050507922 -0.073372670 0.027874552 -0.048530556 0.077736840 -0.120177433 -0.146956727 -0.063393444 0.043421261 -0.113323152 -0.070210531 -0.000208767 -0.152190045 -0.054079793 -0.029917600 -0.092560604 0.030581936 0.069374956 -0.140990257 0.018559529 -0.044158734 -0.033159051 0.083915733 -0.019252412 -0.137500092 -0.023832165 -0.062834591 -0.129632637 -0.100718431 -0.130406082 0.088545784 0.013571228 0.073833920 -0.074463151 0.096813992 0.086722039 0.061853420 0.008359121 -0.047726851 0.126150861 0.155021578 -0.001917614 0.062413346 -0.045795828 -0.092224397 0.011264357 -0.118701875 -0.047569972 -0.017847998 -0.079916365 -0.056803070 -0.068279207 0.124212585 -0.024773324 -0.082697511 0.045982648 -0.008404087 -0.164138794 -0.022609456 0.048973933 -0.022930942 0.013227247 0.094265655 0.047744766 -0.133863643 0.061479904
drug	0.018735738 0.013818898 -0.035589475 0.036176253 0.042550780 -0.077912055 -0.036675263 -0.060544543 0.018820381 -0.048581708 -0.046632376 0.023798274 -0.043637086 -0.002319744 0.099956013 0.042103108 0.010721848 0.039672326 -0.048382711 0.021517701 0.030890565 -0.057342514 0.079551846 -0.036113035 -0.031675108 0.016643316 -0.003823849 -0.023197481 0.093298346 -0.031089721 0.054280311 0.034907658 0.024301559 0.036053445 0.011361570 -0.030576317 0.001688276 0.076163851 -0.032609034 -0.027694503 -0.006593233 -0.056028150 -0.048782486 0.051114835 -0.011542347 -0.094151393 -0.118604086 0.065165609 0.006834917 0.080017529 -0.075119898 0.032131143 -0.022246489 -0.172661886 -0.059198856 0.064238235 0.028083604 -0.003957706 0.043049559 -0.004923476 -0.046724934 0.029999489 -0.075034946 -0.021248532 0.033766992 0.029063581 0.070200443 0.002065193 0.050223339 -0.022342691 -0.021598816 -0.002784895 -0.017628679 0.000278697 0.119252823 -0.014702881 -0.030927539 -0.107249096 0.016382108 0.057413768 -0.106229171 0.083945073 0.006841595 0.035605215 0.021607980 -0.024194755 -0.014105722 0.088981688 0.042265102 0.060517959 -0.002860580 0.049391501 -0.086883239 -0.085182533 -0.031755723 -0.091474950 -0.106350787 0.001498524 -0.083167344 0.015365282 0.026614456 -0.037403423 -0.071589284 -0.032818321 -0.081284307 -0.032633696 0.034159966 -0.014412233 -0.010689300 0.013491336 0.107828192 0.003054543 -0.042926155 0.110146612 0.006731875 0.068526633 0.024568416 -0.000402538 0.054946333 -0.010767137 0.037092317 -0.080315493 -0.014006710 -0.089203209 -0.020964181 -0.036649957 -0.063831754 0.049559876 -0.072364762 -0.038777113 -0.008214990 0.000852122 -0.057235029 0.024998432 0.032383882 0.120922998 0.097713865 0.120595917 -0.029858466 0.025806334 -0.028794808 -0.072059348 0.074217707 0.068094723 0.054652754 -0.032429598 0.036813255 -0.104843676 0.021792810 0.039013304 0.005265672 -0.065934554 -0.041209493 0.059212040 -0.014900983 -0.026787804 -0.078842938 -0.025297221 0.017837552 0.081831031 0.009280277 -0.102458321 0.020499779 0.034192357 -0.008822333 -0.050649069 0.053642273 -0.017510150 0.070737354 0.050093681 0.089400508 0.040911995 -0.013672831 -0.023656351 0.057941601 0.045884717 -0.018853841 -0.051993199 0.061258323 -0.059787508 0.033923816 0.045208789 -0.118762463 0.102527089 -0.083088383 -0.054965157 0.042800743 -0.037489641 0.054422166 -0.028524719 -0.067202114 -0.018142615 0.009128879 0.117269546 0.043716658 -0.073814929 -0.041878436 -0.024759464 0.096797898 0.053359609 -0.103820130 -0.074657023 -0.062602997 -0.102564909 -0.066749759 0.027174423 -0.049423818 -0.061670020 0.058543861 -0.013068249 0.021686988 0.139937118 -0.004691980 0.065267622 0.064782582 0.067936525 0.031722821 0.030516619 0.055275790 0.019008793 0.046206173 0.033157185 0.027301976 -0.079230331 0.031476948 0.011089377 -0.060816046 0.031477012 0.015805697 -0.052832596 0.024694514 -0.016006486 0.003732614 0.043621857 0.037638944 -0.055002429 0.020711377 -0.036973007 0.057910189 -0.090680987 -0.110602677 -0.047042307 0.033404186 -0.086571924 -0.052719932 -0.002714406 -0.118287303 -0.042627756 -0.020813029 -0.070333600 0.021504065 0.051559471 -0.106620535 0.014400835 -0.033578400 -0.022947261 0.063908011 -0.013562701 -0.104398154 -0.016196819 -0.047112621 -0.099708721 -0.076802090 -0.099695034 0.066980086 0.010401691 0.057043578 -0.058483846 0.075536340 0.066717438 0.048455771 0.006923843 -0.037684783 0.097605564 0.118378147 0.000456710 0.044873744 -0.034017216 -0.070425048 0.007799482 -0.089997858 -0.038463905 -0.014282215 -0.061578769 -0.042223737 -0.052289806 0.093891986 -0.018756522 -0.064265355 0.035154093 -0.006962007 -0.127086028 -0.015902339 0.035045233 -0.017208166 0.008233382 0.069652520 0.037380822 -0.100623943 0.046998441
writes	0.061831392 0.044423118 -0.119896054 0.119545206 0.150375947 -0.267332613 -0.125092417 -0.210097238 0.062464923 -0.168731868 -0.165698901 0.081368379 -0.149185702 -0.011659847 0.339787662 0.147486195 0.032403115 0.128439218 -0.170071363 0.070089199 0.108047314 -0.194128886 0.275734931 -0.126514986 -0.109440707 0.061212949 -0.011363336 -0.073936425 0.316096842 -0.110785700 0.182542324 0.121032380 0.079128228 0.121379517 0.041903954 -0.103145048 0.009811117 0.261838078 -0.111913055 -0.095177464 -0.021223210 -0.197090030 -0.161570638 0.173746839 -0.039740238 -0.326649129 -0.400012106 0.228281438 0.024870252 0.274642259 -0.259061098 0.116194911 -0.079446509 -0.589081526 -0.205617547 0.221981138 0.091889858 -0.016549949 0.150386155 -0.019445164 -0.158676088 0.099320449 -0.255101591 -0.073213078 0.115809157 0.100545108 0.243753746 0.010669383 0.168599010 -0.072370932 -0.067874394 -0.013824053 -0.057330169 0.001904711 0.406073183 -0.050448269 -0.108271971 -0.369299829 0.056892961 0.199758455 -0.368938208 0.290717006 0.025761103 0.123096257 0.072345592 -0.080099389 -0.042350780 0.308685690 0.141556069 0.206536144 -0.008055054 0.164838478 -0.294907928 -0.296920836 -0.111936562 -0.316650063 -0.365087390 0.008266916 -0.289617270 0.050172556 0.092863627 -0.128159955 -0.252903402 -0.111799695 -0.281916380 -0.110638633 0.112433851 -0.050311718 -0.037382688 0.048329875 0.372998893 0.012843652 -0.149739459 0.380886108 0.026451295 0.234891713 0.087427139 0.001094203 0.189861387 -0.031472098 0.127909899 -0.273976415 -0.047431506 -0.302878231 -0.069960162 -0.127133429 -0.220896840 0.169606358 -0.253706276 -0.130485132 -0.023346903 -0.000152491 -0.192633629 0.081178531 0.109109804 0.418673664 0.330955178 0.416145980 -0.099135011 0.084749490 -0.104979150 -0.247866437 0.250326544 0.237856522 0.189275324 -0.108149007 0.125235185 -0.362307459 0.078759424 0.138374165 0.021387175 -0.231129572 -0.140030161 0.197436124 -0.048777692 -0.093621664 -0.266408086 -0.086465091 0.061268389 0.278091550 0.026376389 -0.347817242 0.078150243 0.117059901 -0.035428599 -0.172059312 0.179053903 -0.055655845 0.243446186 0.171341926 0.304413080 0.146433741 -0.049509399 -0.083360724 0.197497576 0.151378199 -0.062384501 -0.183227107 0.209313393 -0.210914537 0.116891868 0.148821920 -0.412525654 0.354055703 -0.284045786 -0.192826360 0.142815322 -0.128288567 0.184716821 -0.097201452 -0.228510931 -0.065999493 0.027198892 0.403493345 0.153861403 -0.249968946 -0.144645870 -0.087579362 0.338224679 0.180066332 -0.355773747 -0.250439376 -0.212046444 -0.353587300 -0.228660047 0.099640734 -0.170929253 -0.217350677 0.193997204 -0.044235375 0.076091938 0.477340817 -0.020487264 0.225161165 0.219816148 0.232790411 0.110286117 0.105825342 0.192950189 0.066810235 0.160110593 0.117116459 0.091788501 -0.270555377 0.101417616 0.036574468 -0.210830018 0.107939631 0.056159351 -0.183163479 0.079807647 -0.049926396 0.009602557 0.154031038 0.129190743 -0.193421617 0.077145703 -0.129797682 0.200528502 -0.313818127 -0.384397686 -0.162373722 0.114201523 -0.296066016 -0.178646281 -0.002020808 -0.401157767 -0.142170712 -0.075923204 -0.240384310 0.077951036 0.179195449 -0.368172556 0.049345192 -0.111751579 -0.083891585 0.214813933 -0.045053620 -0.358267307 -0.060318686 -0.166909024 -0.338994712 -0.265633911 -0.343566447 0.227722272 0.029739039 0.195569679 -0.195978671 0.253862739 0.227301434 0.165263861 0.025322078 -0.125199154 0.332857221 0.409418404 0.001641021 0.160290003 -0.121113107 -0.240683019 0.030356247 -0.310208738 -0.127520338 -0.046696808 -0.212775722 -0.147390455 -0.181336775 0.326302886 -0.064613439 -0.217227429 0.119953007 -0.020948768 -0.431989938 -0.056634616 0.125276610 -0.057865486 0.033598926 0.245500311 0.124008544 -0.351852417 0.162219867
device	0.009301914 0.007486469 -0.016002113 0.016025122 0.020424617 -0.036216304 -0.018845767 -0.029435387 0.009883300 -0.022895161 -0.024636744 0.010297955 -0.020290287 -0.001455923 0.048471965 0.020383166 0.006502652 0.017629152 -0.024744801 0.008206525 0.014528341 -0.028202612 0.040414460 -0.017116969 -0.016103575 0.008809007 -0.003196379 -0.009754245 0.045810435 -0.014907213 0.026043819 0.017230880 0.011877094 0.016621776 0.006257765 -0.013933916 0.000527021 0.036028843 -0.016632622 -0.014504410 -0.001895871 -0.026818769 -0.023954842 0.024142733 -0.004611188 -0.047034509 -0.057690226 0.031198390 0.003409090 0.037219163 -0.035734151 0.014935221 -0.010078211 -0.081412844 -0.028057195 0.030930677 0.011725780 -0.002432273 0.022410940 -0.003905844 -0.023758492 0.014170572 -0.034646414 -0.010563808 0.015980000 0.015292304 0.033227060 0.002341383 0.025105800 -0.010959708 -0.009099484 -0.003241423 -0.009799929 0.001953339 0.056638751 -0.008257302 -0.013966041 -0.053051181 0.006946078 0.027059769 -0.053057626 0.040245701 0.002593203 0.018778991 0.008895314 -0.009817340 -0.005742163 0.043036196 0.018426508 0.028305985 -0.002564202 0.022434492 -0.040877342 -0.043259673 -0.014135771 -0.042780641 -0.052796710 0.000800643 -0.041756134 0.007787548 0.012063491 -0.017548472 -0.033826560 -0.014177945 -0.039311938 -0.014450062 0.015245169 -0.006765241 -0.005915735 0.005813137 0.052263305 0.000769155 -0.020082200 0.053353436 0.004038070 0.031768233 0.012741895 -0.001152881 0.025829468 -0.005069829 0.017054625 -0.037638359 -0.006287966 -0.041748542 -0.008401734 -0.016072465 -0.031133629 0.024134247 -0.036284998 -0.017096901 -0.003184881 0.001098289 -0.027690705 0.012119674 0.014329962 0.059467129 0.047013991 0.058282368 -0.013740220 0.013220231 -0.014264960 -0.035442825 0.036657084 0.033437259 0.025860414 -0.015325821 0.018435726 -0.049396202 0.009919193 0.020123158 0.002001284 -0.032270253 -0.021184707 0.029241104 -0.005327034 -0.014018750 -0.036889803 -0.011318634 0.009973509 0.040273063 0.003415808 -0.049120732 0.009541018 0.017835721 -0.005529779 -0.024030948 0.026602682 -0.007944535 0.035310868 0.025350478 0.042605918 0.020830648 -0.007076714 -0.010155450 0.026822176 0.021805292 -0.007386643 -0.026476532 0.029211460 -0.030817624 0.015994096 0.020784996 -0.057839733 0.048425790 -0.038361911 -0.026023777 0.018855333 -0.016445944 0.027348852 -0.015074436 -0.031318892 -0.009220754 0.002183470 0.055575978 0.021662034 -0.034479424 -0.020301301 -0.012357551 0.045942094 0.026123378 -0.049052648 -0.034000870 -0.028228354 -0.051387176 -0.033346713 0.013542781 -0.023597779 -0.031370483 0.026657373 -0.007263034 0.010360541 0.066060223 -0.002793259 0.031517334 0.031858917 0.031840086 0.014495647 0.014255266 0.027031651 0.009781804 0.023734590 0.016048361 0.014048781 -0.036576610 0.014100698 0.006915779 -0.030912749 0.014172410 0.007631386 -0.026675507 0.011686459 -0.005847654 -0.000098077 0.021728344 0.017261883 -0.026894586 0.011328598 -0.018883742 0.028430486 -0.044928640 -0.055354919 -0.023688307 0.015251379 -0.041921999 -0.026704643 -0.000744334 -0.056580838 -0.021249915 -0.010288579 -0.032816578 0.009789068 0.025506364 -0.050252780 0.007584016 -0.014814034 -0.012803347 0.031412121 -0.007678945 -0.051361743 -0.009108364 -0.024068160 -0.048190765 -0.036042608 -0.047963414 0.031078137 0.005121197 0.027172375 -0.026462665 0.036885213 0.033336036 0.023817796 0.001954926 -0.016490681 0.046603255 0.055725195 -0.001741805 0.020835595 -0.015408677 -0.032308150 0.004192907 -0.042295855 -0.018203465 -0.005509361 -0.030556541 -0.019272471 -0.023522250 0.046503764 -0.010170926 -0.032064185 0.016905678 -0.003803253 -0.061755829 -0.009657617 0.018634288 -0.008755263 0.002900311 0.035760790 0.018225340 -0.047901366 0.023269137
devices	0.009217174 0.005830402 -0.018155945 0.019594142 0.024090726 -0.040565375 -0.017587688 -0.029883942 0.010536852 -0.024223797 -0.024423961 0.010572363 -0.021092210 -0.000504455 0.051292907 0.020867491 0.005677793 0.020085070 -0.024469657 0.009766872 0.016129285 -0.029245032 0.040494662 -0.018604156 -0.017071065 0.009596536 -0.001112739 -0.011099395 0.048989419 -0.018543597 0.028572544 0.017951146 0.010364769 0.017772706 0.007647072 -0.014017176 0.002465635 0.040680017 -0.016686857 -0.013793391 -0.001395422 -0.030552305 -0.025573183 0.026271604 -0.006944818 -0.050480213 -0.059548054 0.034640882 0.004388640 0.041800469 -0.038554620 0.017711587 -0.011943556 -0.089308426 -0.031757466 0.032385640 0.014429173 -0.002292683 0.021044044 -0.003291803 -0.024148708 0.014575544 -0.037554149 -0.012214582 0.016998155 0.014139349 0.036763765 0.002575444 0.027241336 -0.010918754 -0.009181320 -0.001378147 -0.009240243 0.001088748 0.062054474 -0.008676033 -0.016240627 -0.057071432 0.008756273 0.029947530 -0.056366093 0.045234807 0.003370053 0.017651496 0.012542306 -0.012262811 -0.005222255 0.047666449 0.022377264 0.030833349 -0.002467853 0.024916979 -0.043063052 -0.045826029 -0.015386689 -0.047772348 -0.056025650 0.001067912 -0.043176044 0.006586101 0.014545911 -0.017820029 -0.038550068 -0.016289182 -0.042041894 -0.015512249 0.016210392 -0.008474237 -0.005315504 0.007371077 0.056943722 0.002955343 -0.021523952 0.058613025 0.003220391 0.035106946 0.014591724 0.001979910 0.027036788 -0.005780154 0.019633360 -0.040411111 -0.007105985 -0.044289272 -0.010893364 -0.017904589 -0.034448307 0.024453795 -0.039428160 -0.019944053 -0.004891912 0.001032203 -0.029976526 0.011189804 0.017413894 0.063222744 0.048773773 0.062978521 -0.014529063 0.011572126 -0.015384861 -0.036023568 0.036322612 0.034079630 0.028615482 -0.015315603 0.017814344 -0.055033110 0.011262235 0.020250484 0.004187108 -0.034884583 -0.019830780 0.031718157 -0.006219583 -0.012522001 -0.038854584 -0.014039047 0.009226941 0.043073125 0.005709134 -0.053620253 0.010051994 0.018463083 -0.006291207 -0.024218708 0.025980987 -0.007882258 0.038223948 0.024604525 0.044903193 0.020360202 -0.008882299 -0.013981240 0.030508615 0.022082940 -0.010404214 -0.028825939 0.032347295 -0.030739240 0.018832596 0.022450572 -0.062203366 0.051840603 -0.043271158 -0.030502854 0.021702699 -0.019431850 0.026783811 -0.013625054 -0.034786105 -0.008975249 0.002723139 0.061209708 0.022707082 -0.037051734 -0.022427801 -0.011328519 0.050999317 0.026740320 -0.053361554 -0.038559113 -0.031519722 -0.054625604 -0.035501163 0.015854167 -0.027207326 -0.031403802 0.031154340 -0.007389865 0.011956094 0.071165115 -0.004183346 0.034735084 0.032566939 0.035926003 0.016143080 0.015310370 0.029710714 0.010681471 0.022690959 0.018091166 0.015692981 -0.040895671 0.014762699 0.007188411 -0.030625621 0.015719477 0.007248368 -0.027209230 0.012572115 -0.008950979 0.002498011 0.022941351 0.018585309 -0.030072464 0.011785522 -0.018493634 0.029114224 -0.046730995 -0.058016960 -0.023358544 0.017839978 -0.043765400 -0.027840475 -0.000647322 -0.061872758 -0.021002254 -0.012023827 -0.036829874 0.011454588 0.026592232 -0.055994596 0.008227148 -0.015913289 -0.012355700 0.033587568 -0.007405368 -0.053759087 -0.008083614 -0.025115440 -0.052765705 -0.039601654 -0.050906379 0.033190515 0.004545257 0.028136039 -0.030018076 0.038517170 0.032905187 0.023075026 0.004401667 -0.018011218 0.051236283 0.061148494 -0.000851310 0.024644371 -0.017166669 -0.037051477 0.003339929 -0.045265414 -0.018434810 -0.007471139 -0.031406254 -0.023064123 -0.027970815 0.049324721 -0.009815017 -0.033452675 0.016531611 -0.001309039 -0.066155575 -0.009124238 0.018975664 -0.007332282 0.005229275 0.035486955 0.020070126 -0.051780060 0.025885930
high	0.035468630 0.026068401 -0.068754554 0.066330776 0.084306426 -0.150875404 -0.072176300 -0.118128791 0.035536185 -0.093739778 -0.092662297 0.045247521 -0.084047161 -0.006209744 0.191212937 0.080538452 0.019931993 0.072743535 -0.096075974 0.036981635 0.060185906 -0.110309243 0.156917214 -0.070141442 -0.062740445 0.033882402 -0.007025010 -0.043622419 0.176261097 -0.064147741 0.103662722 0.067277156 0.046068542 0.067966990 0.024230616 -0.058947545 0.007120264 0.148041561 -0.064404845 -0.054991152 -0.012256685 -0.110352017 -0.092059895 0.098338425 -0.021615123 -0.184558690 -0.226215124 0.127652332 0.013003987 0.155487880 -0.146306947 0.063490562 -0.044816162 -0.331224650 -0.116962075 0.123749390 0.051432200 -0.008055601 0.084828213 -0.012743576 -0.090081863 0.056798361 -0.144236639 -0.040333327 0.065023512 0.055716455 0.137615412 0.004738505 0.094975062 -0.042293433 -0.037923276 -0.009288343 -0.031440172 0.001895280 0.229249805 -0.028628271 -0.062947765 -0.207135364 0.032698784 0.113010384 -0.205425635 0.161768496 0.013486385 0.071506195 0.041873682 -0.046288457 -0.023830440 0.172526687 0.081172399 0.116901003 -0.004197571 0.091578871 -0.166365191 -0.166333407 -0.062582888 -0.178814858 -0.205355749 0.002655515 -0.162217051 0.028411528 0.050792776 -0.072665326 -0.139601007 -0.061826024 -0.160753757 -0.061585348 0.064167835 -0.025636049 -0.020653430 0.026890567 0.212220728 0.009564172 -0.084294379 0.213655204 0.014845788 0.131695971 0.049317874 -0.000125151 0.107124873 -0.017123837 0.073245130 -0.155444816 -0.027124826 -0.170330361 -0.037976366 -0.071744032 -0.123139411 0.095723152 -0.143095702 -0.072892524 -0.012378776 -0.001388648 -0.107637599 0.044943221 0.061958883 0.236919463 0.185827464 0.233568758 -0.055648010 0.048463758 -0.059200112 -0.138531387 0.141063973 0.132896468 0.107229173 -0.060997546 0.071146369 -0.204481483 0.044315513 0.078738831 0.010404633 -0.128973648 -0.078706913 0.113238484 -0.027956521 -0.053377740 -0.149950653 -0.049561311 0.034882657 0.156995744 0.013991013 -0.196374923 0.040633179 0.065344855 -0.018238461 -0.097913891 0.101767674 -0.029148990 0.138447687 0.096949212 0.169112146 0.083693586 -0.026851147 -0.046099808 0.112676688 0.084926568 -0.036303721 -0.101552472 0.117448412 -0.119789854 0.066073425 0.083275035 -0.231524065 0.200942844 -0.159448758 -0.106795959 0.078130893 -0.071047530 0.102473088 -0.055300184 -0.131216973 -0.037176322 0.013122956 0.226850033 0.084913395 -0.141454145 -0.081352487 -0.049841411 0.189513966 0.099310465 -0.201506466 -0.142159134 -0.119698562 -0.199518040 -0.129661813 0.055716090 -0.097216703 -0.120758899 0.111861922 -0.023728685 0.045308437 0.267707586 -0.012877889 0.127524868 0.124896064 0.131539613 0.062178802 0.060807928 0.109294720 0.035996597 0.089461915 0.067396872 0.053511422 -0.152399018 0.058018312 0.021929417 -0.120439537 0.059617594 0.030170642 -0.105004579 0.046666503 -0.026726814 0.005316987 0.084558859 0.072682291 -0.108464465 0.043066259 -0.072352700 0.110736907 -0.175828993 -0.218599871 -0.091840290 0.065185063 -0.165700749 -0.100448273 -0.002387859 -0.225056395 -0.081428565 -0.041143876 -0.134962633 0.043723967 0.100098275 -0.208211124 0.026879473 -0.063738763 -0.047375318 0.121177316 -0.026153458 -0.201331675 -0.034538493 -0.094190076 -0.191029072 -0.150221169 -0.194754601 0.128042474 0.018116161 0.111315064 -0.111089185 0.144045964 0.129672855 0.092236385 0.015246858 -0.070634060 0.185171753 0.230794504 -0.000900887 0.089875676 -0.068124682 -0.134536415 0.016674476 -0.173212126 -0.072172366 -0.025712000 -0.118663594 -0.082696408 -0.099740267 0.181958526 -0.038209341 -0.121388264 0.067234024 -0.010501476 -0.243889615 -0.031312428 0.070996143 -0.031055793 0.019818230 0.137491584 0.071655251 -0.198858365 0.090806641
speed	0.027826766 0.020948151 -0.053280529 0.053835910 0.068637811 -0.121887669 -0.057510540 -0.096655622 0.028461579 -0.076953180 -0.076355107 0.037998568 -0.069821417 -0.006128308 0.153077990 0.068041570 0.017213577 0.060272157 -0.077635773 0.031684767 0.048333395 -0.089025930 0.126543880 -0.056198046 -0.050776172 0.029058881 -0.005463854 -0.032606799 0.143376648 -0.053037804 0.082721666 0.054186076 0.037054170 0.054548059 0.020321801 -0.048104711 0.006571595 0.119451553 -0.049760859 -0.041982513 -0.010778680 -0.091195866 -0.073954158 0.081637807 -0.017865770 -0.150509372 -0.184567362 0.105778322 0.010407059 0.124840327 -0.118120886 0.053337228 -0.037015710 -0.269465506 -0.092368610 0.100227386 0.042791184 -0.005292770 0.067883328 -0.010246230 -0.072945349 0.043336533 -0.116245121 -0.032466415 0.051187750 0.047194123 0.112206392 0.003729910 0.076833494 -0.034838751 -0.032161988 -0.006859807 -0.025004327 0.002536107 0.184937358 -0.024562977 -0.049253754 -0.169122607 0.024900412 0.090470172 -0.168956444 0.132273629 0.010583978 0.055736486 0.033642188 -0.038498498 -0.018609256 0.141674995 0.063691169 0.093143247 -0.001879817 0.075034313 -0.133369997 -0.137597799 -0.052516121 -0.143787578 -0.166990206 0.004289427 -0.133396804 0.021963013 0.042636387 -0.057313249 -0.114416264 -0.049833626 -0.131508350 -0.049798343 0.050835069 -0.022390235 -0.016213100 0.021902351 0.172073558 0.005772798 -0.066825710 0.175508857 0.009855442 0.107871085 0.041533414 0.002280559 0.086919881 -0.014134547 0.059067007 -0.127044335 -0.021289390 -0.138700336 -0.032103922 -0.058801092 -0.100136183 0.078078061 -0.114813671 -0.061506324 -0.011511595 0.000207949 -0.087321006 0.035380214 0.048831891 0.193257272 0.150600791 0.187847972 -0.043449342 0.038428959 -0.045882236 -0.113362849 0.115426444 0.107357889 0.086006097 -0.049148086 0.056099378 -0.165336236 0.038047981 0.063098311 0.009672124 -0.106873155 -0.064207159 0.093052953 -0.022725048 -0.042095490 -0.122790582 -0.040258534 0.028788527 0.127103060 0.013468009 -0.158225521 0.034601506 0.051995110 -0.014989079 -0.078389265 0.081624135 -0.025909204 0.110280752 0.080816068 0.139806867 0.067661591 -0.023498265 -0.040202297 0.092585243 0.068502754 -0.028499940 -0.082041577 0.096067488 -0.096344732 0.052275069 0.069568098 -0.189124405 0.160995796 -0.130992517 -0.087778680 0.065510944 -0.059183136 0.083939537 -0.044110853 -0.106974185 -0.030494707 0.012355575 0.185076728 0.070015751 -0.115602814 -0.065357275 -0.038991924 0.155337453 0.080855474 -0.163615614 -0.114443041 -0.096853316 -0.161193043 -0.105014868 0.046007484 -0.076458395 -0.099528149 0.088553935 -0.020932339 0.034030527 0.219518408 -0.008665596 0.102256536 0.102441601 0.104772471 0.050530199 0.049539860 0.087122962 0.029810537 0.073801190 0.053095579 0.042635016 -0.124226153 0.047956161 0.018529223 -0.096199512 0.049343485 0.025227699 -0.085790440 0.034918644 -0.023750773 0.002950324 0.070448443 0.060400531 -0.089820422 0.035469625 -0.059145667 0.092723757 -0.142671898 -0.175807387 -0.076106757 0.051215056 -0.135715440 -0.081774704 -0.000329568 -0.184651509 -0.065824457 -0.035982292 -0.109950349 0.037231762 0.082102723 -0.169417560 0.024673890 -0.051619109 -0.036653508 0.097552106 -0.022292631 -0.162859038 -0.029095005 -0.075077511 -0.154182985 -0.122609630 -0.158771202 0.106176510 0.013356964 0.089695640 -0.089016616 0.117387779 0.103515923 0.076388486 0.010544107 -0.056642283 0.152820989 0.187665850 -0.001200972 0.073748365 -0.054417562 -0.110163331 0.011883558 -0.142384037 -0.056878004 -0.022815589 -0.097865276 -0.068292260 -0.082762823 0.151125461 -0.029113742 -0.099357441 0.055530258 -0.009852087 -0.195713282 -0.026959868 0.058261171 -0.027542016 0.014825406 0.111441009 0.056286145 -0.160393804 0.072904274
mind	0.025319953 0.019687936 -0.048280407 0.049444426 0.059739936 -0.106751457 -0.051572781 -0.082465231 0.023293877 -0.066373728 -0.067101628 0.031152505 -0.058584787 -0.005141731 0.133499175 0.056967732 0.013768076 0.052406497 -0.069106787 0.026284704 0.044698574 -0.077962160 0.109830990 -0.050118107 -0.042809997 0.025440097 -0.003542425 -0.030131212 0.126957089 -0.044021681 0.071882963 0.048625611 0.032120354 0.047751144 0.017637467 -0.041016344 0.004930947 0.103717387 -0.044358868 -0.036906231 -0.008876113 -0.079562828 -0.064201437 0.070312098 -0.015342833 -0.130328164 -0.159126133 0.091255933 0.008311503 0.107356139 -0.103551514 0.045775514 -0.032456987 -0.234761328 -0.082753219 0.088832438 0.036528371 -0.005907431 0.059580706 -0.009161712 -0.065437205 0.039686281 -0.103231490 -0.030897722 0.046490815 0.040429365 0.096579492 0.004972739 0.069376253 -0.030111156 -0.027771765 -0.006206630 -0.023825595 0.000368928 0.162151188 -0.021308623 -0.045393433 -0.146896020 0.023060294 0.080724858 -0.146105528 0.114629678 0.011162794 0.051194016 0.027940130 -0.033204056 -0.016111102 0.123399213 0.056868825 0.082810685 -0.002175744 0.066047288 -0.116026580 -0.118122175 -0.043912642 -0.125945181 -0.147197664 0.004023975 -0.117132723 0.019650089 0.036631644 -0.050312210 -0.098410644 -0.044122864 -0.112418495 -0.044742789 0.044778742 -0.018989040 -0.013731519 0.021166328 0.148209736 0.005802437 -0.058166828 0.151287317 0.011276383 0.095065437 0.035707880 0.000060585 0.075195312 -0.011598873 0.051572707 -0.109181121 -0.018523475 -0.122276805 -0.029484974 -0.049920559 -0.088665277 0.066818766 -0.101114213 -0.054051396 -0.011506615 0.000688468 -0.077306278 0.033769354 0.041624583 0.165955290 0.133926690 0.164655074 -0.039762139 0.032742195 -0.040754262 -0.099483438 0.101476751 0.093316972 0.074707709 -0.042695783 0.049883954 -0.145573542 0.031188833 0.054253377 0.010082637 -0.091509953 -0.054551493 0.078359142 -0.020730451 -0.037456077 -0.104551360 -0.035457224 0.024536815 0.111748271 0.009915843 -0.137564927 0.028839894 0.044551175 -0.015336667 -0.069053330 0.071668960 -0.022073518 0.096955776 0.067551926 0.121545464 0.056746148 -0.019599793 -0.034489378 0.078576855 0.060624387 -0.025717456 -0.073829606 0.083947524 -0.083563186 0.046165012 0.059803203 -0.164607882 0.143301606 -0.113953575 -0.077039607 0.057646841 -0.052210748 0.074492179 -0.039876137 -0.090738602 -0.025483450 0.011255212 0.161609426 0.061109349 -0.100340553 -0.056472242 -0.033888951 0.135760576 0.071631536 -0.143663764 -0.100536063 -0.084994592 -0.141696066 -0.093321726 0.039887641 -0.066746056 -0.086151578 0.078120597 -0.017448403 0.030123295 0.190811500 -0.007424202 0.088066883 0.086635940 0.092471510 0.043481015 0.043557204 0.078375153 0.027935937 0.065407880 0.048019264 0.035935026 -0.107733607 0.042507026 0.014561296 -0.084175400 0.042070426 0.022742562 -0.073303178 0.033445690 -0.019930163 0.005273102 0.062596269 0.051696338 -0.078917809 0.030432828 -0.050339974 0.080978304 -0.123769872 -0.154418543 -0.066925578 0.045638897 -0.117053114 -0.071697533 0.000118896 -0.159533024 -0.055333737 -0.030921925 -0.095770046 0.032866634 0.073534764 -0.147020862 0.020213004 -0.045483310 -0.034308191 0.087331958 -0.018377615 -0.143559590 -0.023196520 -0.067674324 -0.137055889 -0.105999522 -0.138215140 0.091160133 0.011199414 0.079375215 -0.079191193 0.101756148 0.092545271 0.064627938 0.010388224 -0.049338449 0.131426960 0.164538920 0.001118340 0.064930879 -0.047440913 -0.095477492 0.010229919 -0.123641863 -0.049435262 -0.019128079 -0.084419772 -0.059830073 -0.072489977 0.130564943 -0.024949891 -0.086616121 0.046807565 -0.008711922 -0.173492029 -0.023655972 0.051524650 -0.021510424 0.013170694 0.096722208 0.048711661 -0.139274985 0.062679216
hardware	0.013485529 0.008278625 -0.025563495 0.025278602 0.033400953 -0.056458876 -0.028267860 -0.045259021 0.013549350 -0.035190847 -0.036124207 0.018013423 -0.032036696 -0.004300302 0.073840752 0.032661710 0.006244108 0.026771937 -0.036871776 0.014778403 0.022820175 -0.041063894 0.059263062 -0.025959028 -0.022737660 0.012123707 -0.001394934 -0.015988763 0.067885086 -0.025098881 0.039604697 0.025890850 0.017482465 0.026377264 0.008911728 -0.023412542 0.001650391 0.055403396 -0.023433711 -0.019556390 -0.004121949 -0.040506218 -0.033852529 0.037837416 -0.008217639 -0.071323872 -0.085093744 0.050148048 0.005787924 0.057842150 -0.054625373 0.023890354 -0.017253550 -0.126204848 -0.043312412 0.048825927 0.020426963 -0.004465604 0.030382374 -0.005780337 -0.034471907 0.020828880 -0.055551194 -0.015960252 0.023859248 0.021744013 0.051635668 0.002421649 0.037627466 -0.015593503 -0.014842087 -0.003316728 -0.012436820 0.001086715 0.087729208 -0.012777509 -0.024012189 -0.077578083 0.011597847 0.043089483 -0.079309694 0.063396342 0.006576627 0.026584666 0.017217616 -0.018551493 -0.010584380 0.064146087 0.029083889 0.042395033 -0.001421826 0.035422292 -0.062780648 -0.063475594 -0.023752997 -0.065963387 -0.078753315 0.000053825 -0.061839435 0.010713122 0.019419240 -0.028683117 -0.054785516 -0.023435695 -0.061615940 -0.023655998 0.025204549 -0.011633098 -0.008526762 0.010050464 0.079404138 0.002101738 -0.031789094 0.081908405 0.005680942 0.052107174 0.020092227 0.000623110 0.042372257 -0.006993689 0.027057610 -0.059269272 -0.011251984 -0.065730587 -0.015254486 -0.026508296 -0.046164770 0.037084054 -0.055574331 -0.028793946 -0.005541123 -0.000945565 -0.041600116 0.017955555 0.021304598 0.090073794 0.070330463 0.088650987 -0.021325061 0.019113099 -0.021077059 -0.053455267 0.052897654 0.050297488 0.040452741 -0.023329349 0.027394716 -0.078994006 0.018303713 0.028165616 0.004920034 -0.050682493 -0.029141594 0.041166257 -0.011613054 -0.020181192 -0.056355052 -0.018275812 0.012708865 0.059476469 0.005143718 -0.073866405 0.017448271 0.024015473 -0.007351428 -0.036260657 0.036898687 -0.010536896 0.053585544 0.035942402 0.065978937 0.031161157 -0.011598367 -0.018433927 0.041357078 0.031971361 -0.012259647 -0.040028676 0.044284642 -0.044867076 0.023699632 0.030979579 -0.088542327 0.076906376 -0.061957926 -0.042279381 0.031357780 -0.028478300 0.040926263 -0.022614388 -0.049270879 -0.013233290 0.006614882 0.086622775 0.033909556 -0.051697124 -0.030719675 -0.017609991 0.072429664 0.039305724 -0.076793827 -0.053248838 -0.044521462 -0.075283468 -0.049190469 0.020749526 -0.035443231 -0.045707963 0.040245309 -0.009435143 0.016114596 0.101863764 -0.006141753 0.047278874 0.047690470 0.051134430 0.022563891 0.022997918 0.041473020 0.013309015 0.035925057 0.025733046 0.019193824 -0.057958715 0.020681433 0.008119117 -0.044466425 0.023599075 0.010554137 -0.040475171 0.018111546 -0.009162051 0.000286569 0.033885393 0.026215268 -0.039844025 0.017023420 -0.028492607 0.041895010 -0.066532001 -0.083889484 -0.033430800 0.024988985 -0.061685074 -0.039575294 -0.001241691 -0.085974418 -0.028851349 -0.015773218 -0.052655678 0.017238596 0.038665377 -0.080011278 0.012220697 -0.024721520 -0.017793195 0.046849366 -0.008396131 -0.076984040 -0.013289696 -0.036298513 -0.071553849 -0.058004111 -0.072107114 0.049616646 0.005770327 0.041344106 -0.043485850 0.053156946 0.048136167 0.035956696 0.006042039 -0.024934137 0.071346618 0.087629654 0.000791204 0.034315534 -0.024408562 -0.051805194 0.004437000 -0.064433634 -0.028545087 -0.009082737 -0.045271598 -0.032997891 -0.039176509 0.069474682 -0.014186254 -0.047578286 0.025506383 -0.003989638 -0.092151836 -0.011736574 0.028279776 -0.011432692 0.008201492 0.050901234 0.025481444 -0.074616753 0.033435214
needed	0.014520648 0.009136885 -0.025208350 0.024582190 0.033921558 -0.058980685 -0.028650584 -0.046124969 0.014700652 -0.038152564 -0.034362737 0.015950277 -0.030957188 -0.004258645 0.072721891 0.032700472 0.005940999 0.028807297 -0.035923321 0.014189837 0.024983762 -0.040550541 0.061398905 -0.026836598 -0.023846671 0.013676054 -0.002758369 -0.015678219 0.069454774 -0.025773514 0.041197177 0.024848120 0.016399395 0.026655624 0.009655221 -0.021766338 0.003444256 0.056988224 -0.022717202 -0.020695860 -0.002928123 -0.041285980 -0.036449831 0.038551603 -0.010177890 -0.071886688 -0.085645884 0.050121214 0.005030420 0.058254104 -0.054469723 0.025087677 -0.018808821 -0.127538174 -0.045347422 0.047621846 0.018925941 -0.002013706 0.031794813 -0.003068587 -0.034797277 0.019992625 -0.054213066 -0.014396295 0.024767993 0.023566481 0.052580144 0.003122537 0.035660628 -0.016458154 -0.016320067 -0.002578795 -0.012515211 0.001520839 0.089440346 -0.011584013 -0.024627384 -0.078866176 0.011800012 0.044406272 -0.078308500 0.062922195 0.005321379 0.025528129 0.014649197 -0.016335914 -0.009492125 0.067010976 0.030730447 0.044543739 -0.002824394 0.036017507 -0.062607609 -0.065006018 -0.023752945 -0.067620218 -0.077789739 0.001875577 -0.063463569 0.012623323 0.018744363 -0.025775304 -0.052901976 -0.024856249 -0.061241832 -0.023998143 0.022662502 -0.009138882 -0.008804884 0.010120921 0.080463961 0.004588846 -0.032219719 0.083248891 0.004135361 0.050242301 0.019316338 -0.001245318 0.042401049 -0.005719580 0.027138611 -0.058853030 -0.009418143 -0.065439388 -0.016736692 -0.025776146 -0.047864538 0.034949642 -0.055688079 -0.029047595 -0.004128752 -0.000979243 -0.041798063 0.018312458 0.024249848 0.091479130 0.070507489 0.090447329 -0.019852536 0.018921364 -0.023079455 -0.052578524 0.055090524 0.051846582 0.039597981 -0.024926858 0.027039263 -0.077702582 0.017546965 0.029898349 0.003201129 -0.050916530 -0.030596565 0.042935353 -0.010589116 -0.019192632 -0.056733180 -0.019895026 0.012486606 0.058266636 0.006462429 -0.076978929 0.015849963 0.026728414 -0.008351623 -0.035598956 0.037997324 -0.012424571 0.052728795 0.038635764 0.066880085 0.031054385 -0.010254723 -0.016949696 0.043994609 0.034103513 -0.014241460 -0.037782211 0.044567976 -0.046219993 0.025784764 0.032169063 -0.089764416 0.075860687 -0.062166516 -0.040340472 0.029719951 -0.026065547 0.041201644 -0.023031935 -0.048585363 -0.015876509 0.005027285 0.086558387 0.034597799 -0.052733421 -0.031919040 -0.017175430 0.072382390 0.040287033 -0.077646784 -0.052962046 -0.046162285 -0.077700682 -0.048354715 0.022474190 -0.036937200 -0.045294955 0.043001655 -0.008131891 0.015431302 0.104523845 -0.005655257 0.049608883 0.047657393 0.049334273 0.025367618 0.024333099 0.042517617 0.015103262 0.033830430 0.027014058 0.021491740 -0.059133463 0.023119926 0.008997142 -0.044137269 0.021965994 0.011934463 -0.038789861 0.015807906 -0.009870629 0.001744452 0.033940919 0.029513214 -0.043404765 0.018058138 -0.028583979 0.044407275 -0.069028303 -0.083358534 -0.035403147 0.025635136 -0.062462136 -0.039884444 -0.001337766 -0.087587081 -0.029314129 -0.014952905 -0.051599607 0.018010072 0.038023487 -0.079334751 0.009725315 -0.024857957 -0.019672045 0.048191343 -0.009349513 -0.075635828 -0.013779985 -0.036052022 -0.074896753 -0.058977973 -0.074314527 0.048453931 0.006569634 0.042529065 -0.043574143 0.055011217 0.051145256 0.035799555 0.005538000 -0.027204452 0.072632894 0.089433774 0.000911098 0.033647854 -0.026146648 -0.052494098 0.004675931 -0.066947602 -0.026158532 -0.009886975 -0.046223056 -0.031438150 -0.037280697 0.071000472 -0.013135866 -0.047783133 0.025135428 -0.005865138 -0.093211435 -0.012017591 0.028088072 -0.010834209 0.007297530 0.052503452 0.028767247 -0.077423692 0.035394829
run	0.036547389 0.024584962 -0.069132678 0.066539362 0.083993018 -0.153001398 -0.072489262 -0.119359910 0.036397386 -0.096207999 -0.093639478 0.046092663 -0.085210063 -0.007460994 0.191791639 0.083992951 0.018064355 0.072113074 -0.094330974 0.039466102 0.063295744 -0.108385704 0.158194795 -0.070252255 -0.064088739 0.036155257 -0.005081553 -0.043697018 0.179234087 -0.064965002 0.104357265 0.069607608 0.044406660 0.068127021 0.025064772 -0.057433449 0.005194846 0.148264259 -0.064979531 -0.053811621 -0.012749722 -0.111225843 -0.092800908 0.097918071 -0.024151171 -0.185510486 -0.228368744 0.128740072 0.014099194 0.152555913 -0.147355825 0.064396493 -0.044170447 -0.333173573 -0.115994163 0.125437394 0.054429181 -0.010137876 0.084673040 -0.012340208 -0.090877317 0.054119729 -0.145646513 -0.041987211 0.065185860 0.055745292 0.138870880 0.004329989 0.095850900 -0.042609856 -0.038498528 -0.008457123 -0.031609517 0.001785732 0.227841392 -0.028934132 -0.063735366 -0.210904986 0.033203144 0.112690300 -0.208886117 0.163791865 0.013885918 0.071333081 0.040720105 -0.045258004 -0.023738237 0.173813775 0.079654172 0.117127381 -0.003888582 0.094400011 -0.165737897 -0.169997007 -0.062785551 -0.177779004 -0.207555503 0.003037568 -0.162418157 0.029986273 0.051711302 -0.072800860 -0.141876906 -0.060995359 -0.162143156 -0.060963497 0.062161773 -0.026021451 -0.021588642 0.027691247 0.211049020 0.007206399 -0.085197724 0.215571091 0.014086293 0.134524971 0.048743542 0.001018634 0.107323907 -0.019854713 0.073889315 -0.155161515 -0.028532999 -0.171402812 -0.040560298 -0.071441948 -0.124013267 0.095446259 -0.143294826 -0.074673645 -0.014392427 -0.000749770 -0.107751124 0.043679334 0.061825447 0.237391874 0.188928574 0.235548452 -0.057464544 0.049093589 -0.057571542 -0.139827162 0.142969370 0.132701963 0.106232636 -0.061378568 0.069583781 -0.203927785 0.043745555 0.077495702 0.012234284 -0.130240634 -0.079631537 0.112208843 -0.028412374 -0.051088404 -0.151997924 -0.048432879 0.032897450 0.155265868 0.016311221 -0.197402582 0.044144232 0.064739108 -0.020703478 -0.097462751 0.100326031 -0.030903153 0.136829093 0.098074116 0.172676355 0.084120400 -0.027913913 -0.047991622 0.111014113 0.085841052 -0.036261909 -0.102712154 0.117696129 -0.117277861 0.065110601 0.085757054 -0.232783437 0.199705005 -0.159489170 -0.109510824 0.079153307 -0.070732944 0.104584157 -0.056273647 -0.129978284 -0.038540833 0.015599156 0.228527457 0.084997647 -0.142709747 -0.080938615 -0.047441430 0.191278905 0.100409158 -0.200760946 -0.141372636 -0.121612735 -0.199420258 -0.129335538 0.054794755 -0.095049910 -0.121592723 0.111039765 -0.023645738 0.043901451 0.269816220 -0.010305103 0.128336102 0.124414220 0.130520523 0.064267159 0.060612947 0.110860988 0.036944177 0.090125881 0.066660032 0.052552577 -0.153949156 0.057881285 0.021738272 -0.118421182 0.059752472 0.031835668 -0.104941264 0.044176627 -0.027782772 0.006122715 0.086525820 0.072586633 -0.111220539 0.044315696 -0.074541651 0.112311758 -0.176275194 -0.219441473 -0.092867009 0.065984413 -0.167721570 -0.101343833 -0.001777418 -0.227851018 -0.080364980 -0.041378252 -0.136780128 0.043871615 0.102445841 -0.207409829 0.030012321 -0.065214977 -0.046523478 0.122834787 -0.025504574 -0.202094749 -0.035691481 -0.095201857 -0.191770613 -0.149769738 -0.193185210 0.128827274 0.017185209 0.111154854 -0.111308657 0.142448798 0.127721429 0.094004057 0.014147402 -0.071613461 0.187183797 0.230301246 -0.000129505 0.091920108 -0.069229446 -0.134438485 0.014536317 -0.176349983 -0.073187612 -0.024961645 -0.120437592 -0.084571026 -0.101707317 0.185723484 -0.038708277 -0.121620215 0.067015037 -0.011420206 -0.245476633 -0.033431254 0.071948908 -0.033016145 0.018196577 0.137207121 0.072329760 -0.198893994 0.089890517
digital	0.016290218 0.011739925 -0.033695698 0.031751230 0.041869666 -0.073995456 -0.035317693 -0.057763036 0.018603984 -0.047179054 -0.046158727 0.023259955 -0.041760694 -0.004541400 0.093648314 0.039914742 0.009084885 0.035165105 -0.047095597 0.020108286 0.031334937 -0.052727077 0.076951630 -0.032888830 -0.031024726 0.018100115 -0.003093933 -0.020337084 0.087597847 -0.031173907 0.049719095 0.033280410 0.021397840 0.034815162 0.010234004 -0.029841168 0.004134562 0.070858285 -0.029864091 -0.026129903 -0.005142859 -0.054819137 -0.043370359 0.047209885 -0.011051884 -0.089524880 -0.111765012 0.062999450 0.007686164 0.076271214 -0.071942016 0.032246143 -0.023718337 -0.161347017 -0.057253111 0.059879657 0.026812768 -0.003599130 0.041208409 -0.004073159 -0.043934274 0.025793949 -0.068946116 -0.021553224 0.031250473 0.028854204 0.067593157 0.003518980 0.047470078 -0.020813314 -0.018969925 -0.005754209 -0.016358102 0.001547235 0.112184800 -0.015923718 -0.029654898 -0.102911182 0.016025171 0.055253126 -0.101051629 0.078947857 0.007098162 0.033808175 0.021538328 -0.022676390 -0.013056235 0.085810505 0.040258862 0.057071749 -0.002397689 0.044668566 -0.079597317 -0.081397168 -0.029341437 -0.087708324 -0.101464763 0.002700924 -0.079330742 0.012644250 0.026758056 -0.035177235 -0.067717068 -0.031049967 -0.078074053 -0.029800052 0.029843794 -0.013548886 -0.008566130 0.012760011 0.104152977 0.003912641 -0.040189084 0.104208827 0.007729402 0.066114478 0.023913724 -0.000510620 0.052599736 -0.008231848 0.035475604 -0.074850529 -0.012490802 -0.084315568 -0.018212227 -0.033478610 -0.060262322 0.046038914 -0.068941593 -0.035517830 -0.006624752 -0.001473887 -0.051122814 0.023704715 0.028911961 0.116530478 0.092192695 0.112414509 -0.025712699 0.021695212 -0.028060051 -0.068982035 0.069074243 0.064369075 0.050633892 -0.028925927 0.035096180 -0.101116866 0.020800553 0.037208870 0.005653524 -0.064509563 -0.039954048 0.055151839 -0.012687473 -0.024690015 -0.072798282 -0.024850747 0.016919641 0.077020191 0.007401918 -0.095731184 0.019018244 0.032053787 -0.009057844 -0.046276461 0.049983930 -0.015248289 0.067042358 0.048523527 0.082614489 0.039650947 -0.011816466 -0.023633793 0.054364156 0.041773558 -0.015343176 -0.048666056 0.058250897 -0.058596194 0.031538904 0.042731576 -0.114342734 0.096191846 -0.078619994 -0.053043831 0.037635732 -0.035147112 0.050322738 -0.028655654 -0.062804841 -0.019097252 0.005450901 0.112095632 0.041987907 -0.069932722 -0.038921438 -0.022600189 0.091532551 0.049129073 -0.097255945 -0.067400873 -0.059930488 -0.099295072 -0.063087553 0.025964592 -0.045929555 -0.057780102 0.052572403 -0.012949662 0.021174576 0.131378561 -0.004870913 0.061412770 0.060125332 0.063538179 0.029334076 0.029637223 0.054651383 0.019067105 0.044271350 0.032760780 0.026601220 -0.074934490 0.029093351 0.011806178 -0.057061452 0.030330239 0.013526394 -0.050572306 0.022914868 -0.012735806 0.003346430 0.042991612 0.036575753 -0.051728852 0.021395948 -0.036957409 0.055947866 -0.085897624 -0.106885128 -0.046529014 0.031030169 -0.079425529 -0.050210360 0.000045945 -0.110200472 -0.039939374 -0.019351827 -0.065699726 0.022397490 0.049568143 -0.103000157 0.015503074 -0.032563869 -0.024268948 0.057989582 -0.011903469 -0.097355701 -0.015191022 -0.046770655 -0.092911832 -0.073135301 -0.093971372 0.062717386 0.008654452 0.053101644 -0.053977519 0.068451881 0.062028952 0.046297610 0.006013501 -0.033811327 0.091272041 0.112349145 0.001548726 0.044535335 -0.032630347 -0.066356301 0.007156677 -0.085737579 -0.035787869 -0.013174242 -0.058341820 -0.041231014 -0.049005367 0.088060118 -0.019967970 -0.061275788 0.032616138 -0.005907295 -0.117394850 -0.017265730 0.034782819 -0.014903429 0.010311389 0.066087335 0.035237830 -0.096704952 0.045823120
heard	0.031337399 0.021182846 -0.060300272 0.058969699 0.073430531 -0.131767884 -0.062786706 -0.104626134 0.030507987 -0.083762318 -0.080956951 0.040715896 -0.073171169 -0.006996760 0.168033987 0.071181826 0.015545909 0.064407788 -0.085072421 0.035298243 0.055316169 -0.096405774 0.135235041 -0.062097449 -0.053642664 0.032477181 -0.007310101 -0.037830979 0.155791327 -0.054360632 0.088976912 0.059112873 0.037482504 0.059761368 0.020613372 -0.051617600 0.004030230 0.129567131 -0.056912918 -0.048093811 -0.010487212 -0.098449476 -0.079705574 0.086399198 -0.019621156 -0.160562024 -0.199303567 0.114007488 0.012910887 0.134944856 -0.128606915 0.056697898 -0.041127928 -0.289678991 -0.099972539 0.109001338 0.047986694 -0.008026686 0.072918504 -0.010025131 -0.079724617 0.048326250 -0.126409352 -0.036850020 0.057049926 0.049614441 0.121018618 0.006470124 0.085632831 -0.036935069 -0.033505358 -0.006498769 -0.027480919 -0.000085015 0.198794290 -0.025374714 -0.055863839 -0.182913274 0.028021215 0.096714385 -0.182512492 0.142173231 0.011428584 0.062274422 0.036700185 -0.039475672 -0.021003600 0.151456937 0.069426335 0.101139016 -0.004111476 0.082942039 -0.147106946 -0.145419985 -0.055022422 -0.154328033 -0.178545341 0.003628071 -0.143463612 0.024110135 0.045698062 -0.060847778 -0.124532826 -0.054928128 -0.139183015 -0.052395113 0.056417748 -0.025387611 -0.016034959 0.025749395 0.186021358 0.005466739 -0.072201863 0.189035490 0.012651407 0.118126288 0.045132600 0.000777551 0.094060019 -0.016231956 0.064706899 -0.136927828 -0.024168923 -0.148706809 -0.033484783 -0.063559771 -0.110272869 0.083042488 -0.123741023 -0.065443374 -0.011503756 -0.000151123 -0.093023323 0.040551979 0.052943811 0.208803073 0.162435621 0.204507038 -0.049698450 0.040216070 -0.051972140 -0.122741751 0.126186237 0.117492743 0.092363253 -0.052736990 0.060668819 -0.180058971 0.040744323 0.067806304 0.011580605 -0.115063190 -0.068635106 0.097903259 -0.025346769 -0.045606844 -0.130404666 -0.044761021 0.028169435 0.135764241 0.013151499 -0.173734874 0.038705681 0.055799987 -0.017064927 -0.083462708 0.088076465 -0.027830526 0.120773390 0.086639091 0.148419380 0.071783252 -0.023697305 -0.041747451 0.097624928 0.074364237 -0.030197814 -0.088182710 0.104775228 -0.105012767 0.059234496 0.074654385 -0.202039301 0.175405622 -0.140520543 -0.094998434 0.069753282 -0.064085476 0.089683384 -0.049127687 -0.113295242 -0.032254171 0.012154322 0.198903307 0.074903108 -0.123996906 -0.070289426 -0.042960476 0.165281951 0.089817032 -0.177525416 -0.125234291 -0.103555061 -0.175952777 -0.113967352 0.048601318 -0.084187016 -0.105370425 0.096823402 -0.023535170 0.039606344 0.235506877 -0.011053572 0.112231344 0.108016945 0.115192100 0.056938466 0.050545998 0.096781604 0.031482808 0.080614388 0.059466448 0.047131576 -0.135592580 0.050092343 0.017661851 -0.103479572 0.052290466 0.025452120 -0.091521114 0.038852476 -0.022966307 0.005409811 0.075904243 0.064477317 -0.096457802 0.037680835 -0.062453210 0.097895727 -0.155517116 -0.190029129 -0.080643319 0.057589099 -0.145404309 -0.089291513 -0.003019597 -0.196710184 -0.071055666 -0.037135579 -0.118116871 0.037614953 0.088360198 -0.180655807 0.026296156 -0.055623371 -0.039813094 0.105408177 -0.022593156 -0.175577521 -0.028604332 -0.083688386 -0.168423310 -0.132397637 -0.170820460 0.112450607 0.014209586 0.094777934 -0.097628608 0.126079559 0.113473818 0.081997231 0.010826110 -0.062219582 0.164413184 0.200109974 0.000997609 0.077443928 -0.060559485 -0.117620058 0.015612260 -0.153456748 -0.064006642 -0.023775822 -0.104225628 -0.073442280 -0.089709565 0.162196338 -0.034322619 -0.107924059 0.058554154 -0.010956615 -0.213493884 -0.028079838 0.061160155 -0.027301468 0.017652987 0.121328078 0.061968844 -0.174923837 0.080639228
lets	0.008188305 0.006323144 -0.015195119 0.015639281 0.019861404 -0.037027635 -0.016210506 -0.027485922 0.009335441 -0.021715404 -0.022044163 0.010783964 -0.020616587 -0.001361753 0.044334568 0.020300575 0.005765051 0.015821379 -0.021513734 0.009526514 0.012996485 -0.024954557 0.035756357 -0.016306901 -0.015637828 0.006876395 -0.002384284 -0.011539939 0.042207204 -0.013730216 0.023352528 0.016927376 0.012082754 0.016747372 0.005895087 -0.015237648 0.001232120 0.033815086 -0.013665057 -0.012484040 -0.001846508 -0.024745148 -0.022356583 0.023845226 -0.003879594 -0.043242633 -0.054741893 0.030693864 0.002184543 0.036106601 -0.035926163 0.014897885 -0.012358271 -0.078821756 -0.027091838 0.029024895 0.013737419 -0.001353855 0.019270785 -0.002722928 -0.021540591 0.011523915 -0.032874767 -0.009199068 0.015158969 0.012695557 0.032797713 -0.000098944 0.023233313 -0.010508294 -0.010355983 -0.002404531 -0.006390858 0.000227927 0.053419471 -0.005935236 -0.013550198 -0.050844487 0.007300272 0.026053026 -0.049159382 0.039018426 0.002425984 0.017249653 0.009984355 -0.009464957 -0.007150786 0.041724868 0.018649202 0.026027262 0.000059833 0.021592487 -0.039386421 -0.039042197 -0.016310366 -0.041414693 -0.050191294 -0.000536162 -0.038252331 0.006820847 0.011853735 -0.016181218 -0.032693762 -0.014927523 -0.039074361 -0.016025631 0.015552036 -0.007770676 -0.003604053 0.006634520 0.048502676 0.003264908 -0.021155329 0.050915908 0.004085728 0.032243658 0.011508401 0.000845803 0.024961673 -0.005107245 0.017613957 -0.035544947 -0.005611278 -0.039331682 -0.008668790 -0.016794546 -0.030735360 0.023960883 -0.035189994 -0.019071380 -0.004839555 -0.001833774 -0.024953518 0.012165282 0.013337492 0.055295557 0.043007553 0.056382999 -0.014803626 0.010602555 -0.013183975 -0.032417562 0.033104934 0.032800190 0.025342993 -0.013823865 0.018161114 -0.049912933 0.009780169 0.019029487 0.002801599 -0.030925455 -0.018906415 0.027218957 -0.005247375 -0.012972551 -0.036171861 -0.010184317 0.009511687 0.035609841 0.003033661 -0.046777826 0.010606982 0.016127467 -0.003328699 -0.024221016 0.025289185 -0.008399156 0.031944007 0.023698602 0.038921133 0.019206902 -0.005436900 -0.011457838 0.027555419 0.019192087 -0.008915033 -0.025439549 0.028643217 -0.028741347 0.014732136 0.019204412 -0.055900674 0.048608851 -0.036679573 -0.025132688 0.018888852 -0.017842643 0.025060743 -0.012609283 -0.029896235 -0.008040614 0.003685423 0.054451078 0.019622542 -0.032869708 -0.017969787 -0.010936928 0.043947000 0.025428442 -0.046829350 -0.033113703 -0.027474878 -0.047870480 -0.030026374 0.013943627 -0.023625888 -0.027366305 0.026955646 -0.006780128 0.008707171 0.063231297 -0.004256530 0.031274538 0.028095502 0.032225121 0.014787260 0.015549102 0.025934737 0.007161789 0.021242369 0.016971672 0.010967906 -0.035685007 0.012338160 0.006427833 -0.028956654 0.015628237 0.006385949 -0.024767876 0.011768630 -0.005179215 0.001179587 0.020090291 0.016680090 -0.024244262 0.009124165 -0.018371033 0.025048211 -0.041459136 -0.053023905 -0.023315331 0.015769057 -0.038832184 -0.023657946 0.000172005 -0.053958945 -0.019302495 -0.008786040 -0.033490628 0.010484573 0.022944069 -0.050221957 0.008415907 -0.015586282 -0.009779810 0.030424654 -0.004891711 -0.049385358 -0.007663018 -0.021462174 -0.045406252 -0.034823645 -0.045784816 0.031051034 0.005483766 0.025593501 -0.025261041 0.034391183 0.031940233 0.023170996 0.002419131 -0.015098084 0.043701507 0.054852821 0.000283141 0.021901494 -0.016217386 -0.033498019 0.004324184 -0.040769730 -0.018167483 -0.006253884 -0.029584348 -0.020279227 -0.022634050 0.042380065 -0.010253387 -0.028331183 0.014555714 -0.001669616 -0.056620974 -0.008312064 0.017161392 -0.009074218 0.004824390 0.031750314 0.017409015 -0.048118908 0.021773320
bit	0.049327973 0.034190148 -0.090410158 0.091083080 0.113538183 -0.205368519 -0.095693484 -0.159629807 0.047996756 -0.126892492 -0.124385998 0.060641173 -0.114611417 -0.009712084 0.256362975 0.109650061 0.026170108 0.099065289 -0.127549157 0.050841313 0.081496954 -0.147408202 0.208929524 -0.094362415 -0.082228214 0.048366047 -0.009575986 -0.057680529 0.240831539 -0.084246099 0.140357718 0.092516117 0.058852762 0.092296652 0.031416092 -0.078211501 0.009857184 0.198218644 -0.085756302 -0.072051302 -0.016523758 -0.149819404 -0.123599686 0.133144274 -0.030435147 -0.248202831 -0.303480983 0.171266422 0.016970998 0.207004428 -0.194948569 0.086346708 -0.060312659 -0.445921242 -0.154784024 0.168182984 0.072844684 -0.011395153 0.113921523 -0.015879404 -0.120607637 0.073256530 -0.194104269 -0.056552894 0.088653594 0.077182353 0.185463890 0.007673708 0.129459590 -0.056016166 -0.050979361 -0.011139426 -0.045896277 0.001319711 0.307182074 -0.040701479 -0.082210049 -0.281547755 0.043731011 0.151363760 -0.280297041 0.219000295 0.019360920 0.094563149 0.055476878 -0.061403710 -0.034185003 0.233684152 0.108818874 0.156484723 -0.005565251 0.124976747 -0.222677305 -0.226155162 -0.084015869 -0.238401219 -0.277724922 0.004503854 -0.220412701 0.039140183 0.070940204 -0.095173843 -0.189540774 -0.084875040 -0.215721086 -0.082271598 0.086117186 -0.038417362 -0.028489765 0.038883779 0.283719927 0.010295005 -0.111973479 0.291018814 0.019101210 0.177755550 0.067564279 0.002516748 0.145457059 -0.023180192 0.098924071 -0.207836926 -0.035528224 -0.231843889 -0.051627122 -0.094512917 -0.166779831 0.127001986 -0.192887112 -0.100404561 -0.019034332 -0.001130703 -0.144603238 0.060931254 0.081346065 0.319732964 0.252208322 0.315092623 -0.075676121 0.064744256 -0.078690149 -0.187373519 0.191772789 0.178089023 0.143257096 -0.080840245 0.093686663 -0.274113834 0.059693273 0.105548449 0.014451269 -0.176073790 -0.104966640 0.151837692 -0.036624845 -0.070365533 -0.202766359 -0.068268038 0.046327531 0.211069480 0.020591490 -0.266191602 0.057760097 0.086556301 -0.025595706 -0.129398823 0.137991726 -0.041626327 0.186326370 0.131230682 0.231147721 0.110505536 -0.037183158 -0.064099126 0.150003612 0.114561930 -0.046377949 -0.139059052 0.160709128 -0.158993959 0.088615261 0.115536094 -0.311758101 0.270027608 -0.215255246 -0.143758014 0.106094532 -0.097862683 0.139782816 -0.075697459 -0.176809505 -0.048899606 0.020318486 0.305591434 0.116509505 -0.189323530 -0.108709224 -0.065927885 0.255116373 0.135326311 -0.271077663 -0.189785734 -0.160558000 -0.269173414 -0.174260154 0.073644571 -0.129952505 -0.162009791 0.150102362 -0.033480603 0.060246654 0.363310516 -0.015663119 0.168613762 0.166957334 0.175612450 0.086212888 0.078630120 0.148407504 0.050392132 0.122415990 0.089251831 0.070244707 -0.204145655 0.078668617 0.030532891 -0.160312876 0.082988493 0.041922893 -0.140319929 0.062588595 -0.038304351 0.007151272 0.114346303 0.098450512 -0.146007910 0.056174066 -0.098436497 0.151617959 -0.236133054 -0.290629625 -0.125657484 0.088421188 -0.222541153 -0.137926102 -0.001749409 -0.302361995 -0.109249577 -0.056074522 -0.182918906 0.058729082 0.136184901 -0.280815661 0.039083056 -0.084747732 -0.062594481 0.163791135 -0.036108278 -0.272780478 -0.045686476 -0.127706930 -0.257848352 -0.201864272 -0.262578905 0.172681808 0.024723947 0.147097543 -0.150282875 0.192109630 0.174274907 0.122343212 0.020010179 -0.094245464 0.251128584 0.310684472 -0.000101879 0.121901527 -0.090429321 -0.184167355 0.021496901 -0.233769462 -0.097070508 -0.036691241 -0.159370348 -0.112803817 -0.134737700 0.248102173 -0.050602291 -0.164928213 0.089682691 -0.016211720 -0.327704668 -0.045015235 0.094981179 -0.043252412 0.026080731 0.183458790 0.094616994 -0.266639918 0.122276194
data	0.042330761 0.030978685 -0.078454390 0.077243224 0.100196183 -0.176054329 -0.081522785 -0.137446836 0.042113438 -0.110414773 -0.109468840 0.052453939 -0.096214794 -0.009449753 0.222797185 0.097256280 0.023912201 0.087058142 -0.110086463 0.045664992 0.070996732 -0.127080619 0.181027114 -0.082350627 -0.070981249 0.041999150 -0.005833662 -0.047319073 0.208253488 -0.074541107 0.120601788 0.080309287 0.052688733 0.080742314 0.026794139 -0.066197537 0.007636742 0.171833187 -0.072233364 -0.060927324 -0.013042890 -0.128253669 -0.106947705 0.116283864 -0.027853705 -0.216058135 -0.262766510 0.149272844 0.016975513 0.179121315 -0.170605764 0.073727570 -0.054249816 -0.384286016 -0.133691847 0.144545913 0.062361084 -0.011334118 0.096678525 -0.012905645 -0.106570654 0.065449119 -0.165666223 -0.049006175 0.075232975 0.066658735 0.158097044 0.005169305 0.113019951 -0.048872311 -0.046554744 -0.008241992 -0.037989449 0.000002199 0.264197916 -0.035631880 -0.072949708 -0.243552193 0.038605247 0.131300867 -0.240458637 0.188935190 0.017532242 0.080587223 0.049753685 -0.054584440 -0.029700976 0.202341333 0.093026631 0.135631964 -0.005941954 0.106557421 -0.193054140 -0.195616588 -0.072779998 -0.206362069 -0.238619015 0.005790378 -0.191152513 0.034342445 0.058795538 -0.081750669 -0.165537968 -0.070481330 -0.186238840 -0.069926962 0.073491029 -0.031496156 -0.024749439 0.032832239 0.245426625 0.010354381 -0.097350404 0.248787016 0.014029613 0.156711072 0.058465939 0.002581006 0.125536978 -0.022018889 0.083189525 -0.179384723 -0.030873088 -0.199806869 -0.047488291 -0.082491323 -0.144857675 0.109098658 -0.164745063 -0.084787987 -0.015991177 0.000964556 -0.125284150 0.053438000 0.069828153 0.276519448 0.218581602 0.271037757 -0.063210919 0.055909127 -0.068215236 -0.162155628 0.166367635 0.153893441 0.123750702 -0.072144873 0.079620257 -0.237121716 0.053562276 0.091750257 0.013966375 -0.150364324 -0.090639800 0.131638616 -0.033416502 -0.061452765 -0.175338775 -0.059576310 0.040795349 0.182813868 0.017531596 -0.227578372 0.050504602 0.074384265 -0.024277965 -0.112542622 0.119491391 -0.033735733 0.161380842 0.115102157 0.197568357 0.094209492 -0.031138917 -0.055103745 0.131172225 0.099228166 -0.039172780 -0.118769184 0.138911456 -0.139106289 0.075798593 0.099781051 -0.269409627 0.233083472 -0.188071325 -0.126141191 0.092591234 -0.083908923 0.122145340 -0.064577371 -0.152261913 -0.042711202 0.017496789 0.262926310 0.098336875 -0.162549496 -0.094587386 -0.057516146 0.219674051 0.117954604 -0.234745741 -0.163694665 -0.140401587 -0.231943041 -0.151369587 0.065772086 -0.111880891 -0.142332166 0.129190758 -0.029488994 0.050738335 0.313108951 -0.012727531 0.146014452 0.143067792 0.151664838 0.072441712 0.068099260 0.125815257 0.043087829 0.104660608 0.077891521 0.060196623 -0.179089248 0.068126611 0.026513942 -0.139660761 0.071175143 0.036274403 -0.118866272 0.054129701 -0.031648152 0.006012040 0.099993847 0.083460152 -0.128184021 0.050211348 -0.084244549 0.132172823 -0.205680713 -0.253198266 -0.107665844 0.075859040 -0.191983491 -0.117412865 -0.003253387 -0.262432992 -0.092506111 -0.050729979 -0.155319348 0.052469026 0.117701091 -0.242852718 0.033861164 -0.075179905 -0.053411037 0.140693545 -0.029299803 -0.234552518 -0.041320018 -0.108596697 -0.223796234 -0.173738852 -0.224606976 0.149794087 0.022090590 0.126295149 -0.128679559 0.165032908 0.148366109 0.105678648 0.014856773 -0.081211589 0.218815997 0.268991709 -0.001878279 0.105398372 -0.078733906 -0.157052755 0.019557575 -0.202474535 -0.082688928 -0.029011687 -0.137830615 -0.098332003 -0.116792478 0.212095499 -0.044959255 -0.142901957 0.076702960 -0.012755927 -0.282103360 -0.038028635 0.081795745 -0.035872478 0.020511089 0.159471706 0.083522625 -0.229667157 0.105050810
rate	0.015180475 0.011782723 -0.030123964 0.032464065 0.038659606 -0.071748309 -0.033025153 -0.054954372 0.016210338 -0.043490428 -0.043408897 0.022277683 -0.039360095 -0.004586761 0.087342784 0.037863750 0.009602946 0.033445787 -0.043256432 0.016768271 0.028535614 -0.051911455 0.070751220 -0.032844599 -0.030338699 0.017495209 -0.001554305 -0.019260569 0.082117535 -0.027738702 0.046571866 0.033050403 0.020638771 0.033100493 0.011757330 -0.027643209 0.003022580 0.068400554 -0.030414142 -0.024407065 -0.006918835 -0.052517697 -0.041736320 0.044876233 -0.010105381 -0.086382307 -0.104306728 0.059102055 0.007396709 0.072727129 -0.068778053 0.031186966 -0.020638121 -0.152515307 -0.054259673 0.059003141 0.026146147 -0.002960746 0.040454186 -0.005462321 -0.040337116 0.026485210 -0.066822000 -0.018038033 0.029590916 0.025002982 0.065091267 0.001680870 0.043949727 -0.019054901 -0.018588943 -0.005482354 -0.014784812 0.001076911 0.107337631 -0.012798432 -0.027136561 -0.096857280 0.014478685 0.050623227 -0.097650968 0.074743703 0.005230601 0.033489831 0.019151958 -0.022379482 -0.009812273 0.080009513 0.035836663 0.053788304 -0.001182185 0.042254593 -0.077781238 -0.077923775 -0.030247526 -0.083436199 -0.094199605 0.001034665 -0.074287765 0.013517621 0.024205506 -0.032062285 -0.064943641 -0.027699983 -0.074865535 -0.030149776 0.028381804 -0.014125968 -0.009306131 0.013727827 0.096945815 0.004815118 -0.040301979 0.101588510 0.005438698 0.062101051 0.024232663 -0.000025086 0.048953146 -0.009361054 0.033053797 -0.072664112 -0.012748942 -0.080291666 -0.018737845 -0.032314319 -0.056899972 0.045120079 -0.064991400 -0.033536766 -0.005831524 -0.000325838 -0.048922755 0.022268958 0.029154954 0.110357001 0.086133420 0.106516555 -0.025833059 0.022772554 -0.028563173 -0.066162944 0.066384837 0.061898619 0.049224496 -0.029738795 0.033609759 -0.093102306 0.022587636 0.036300596 0.004306877 -0.061164077 -0.036509551 0.051965535 -0.013648201 -0.025853178 -0.069168098 -0.024168760 0.014781219 0.071940333 0.006192112 -0.090983622 0.020113191 0.031353153 -0.009151913 -0.046067785 0.046669487 -0.015546284 0.064075358 0.045350075 0.079246186 0.037203886 -0.012199251 -0.021836070 0.051561736 0.039278824 -0.014780506 -0.046879426 0.055278074 -0.056635071 0.030607603 0.038915269 -0.106490873 0.092547745 -0.075299002 -0.051838566 0.036723714 -0.034522656 0.047232777 -0.025963902 -0.061676893 -0.017858153 0.006347139 0.105963476 0.038387362 -0.066333041 -0.037982881 -0.021668090 0.087105118 0.045477998 -0.091981150 -0.064353459 -0.054704070 -0.091936648 -0.058338538 0.025105815 -0.045070399 -0.056959003 0.051856354 -0.012312043 0.020516114 0.123002954 -0.006877682 0.059901711 0.057740457 0.060646441 0.030409418 0.028767658 0.051378921 0.017336516 0.042667039 0.031387292 0.024244227 -0.069828354 0.027338199 0.008502587 -0.056550954 0.029104941 0.014752751 -0.047742426 0.020455930 -0.013330952 0.003795334 0.039394341 0.034176864 -0.049723532 0.019693913 -0.035174698 0.051743928 -0.083061107 -0.102296591 -0.043059137 0.031205110 -0.075474568 -0.048164949 0.000522763 -0.104552433 -0.036682773 -0.021342488 -0.061939694 0.021200396 0.048381716 -0.095855698 0.012155766 -0.031005492 -0.023390952 0.055467848 -0.013693989 -0.092641883 -0.014101004 -0.044074785 -0.088256478 -0.070561670 -0.089154884 0.059255660 0.007941773 0.051955473 -0.050035205 0.066935480 0.061372735 0.042484012 0.006154182 -0.033306103 0.088315554 0.105371319 -0.001242054 0.042870235 -0.030898934 -0.062364198 0.008461184 -0.081946880 -0.034717333 -0.011741446 -0.054501902 -0.039321695 -0.047007468 0.085417181 -0.018856551 -0.055966955 0.032789119 -0.006001459 -0.112546943 -0.016077390 0.032196861 -0.016291980 0.007879540 0.063686810 0.032280911 -0.092795014 0.041227281
turn	0.016811945 0.013303698 -0.035218030 0.033085357 0.043702025 -0.077184699 -0.037037242 -0.059190456 0.019108593 -0.047765870 -0.047170412 0.023807252 -0.041673832 -0.004448568 0.094753735 0.043013755 0.010477251 0.037397347 -0.049864773 0.020427637 0.032155424 -0.055193458 0.079250865 -0.035640556 -0.031786814 0.017754026 -0.003817027 -0.020937152 0.088034518 -0.030678915 0.052731942 0.033805393 0.021901146 0.033664599 0.010411755 -0.030615747 0.002799160 0.073351167 -0.032830592 -0.026255267 -0.004603202 -0.056592457 -0.047195539 0.051026590 -0.010585827 -0.093477763 -0.113250002 0.065267541 0.007167412 0.077916674 -0.073111102 0.032741211 -0.022895958 -0.168022037 -0.058833312 0.063954324 0.025472736 -0.003527520 0.042301107 -0.006057132 -0.044952214 0.029139724 -0.071809173 -0.020576341 0.031410761 0.028094726 0.069264799 0.002463555 0.049103405 -0.020529758 -0.019724278 -0.005572018 -0.016170576 -0.000375258 0.113956280 -0.015721910 -0.031623963 -0.105849616 0.017962843 0.057062510 -0.105047554 0.081666574 0.006386785 0.036563165 0.021332379 -0.022484208 -0.010842302 0.088114083 0.040531859 0.057450496 -0.001656548 0.047327057 -0.082101658 -0.084951878 -0.033433415 -0.088264339 -0.104437172 0.003548152 -0.081396036 0.014274129 0.026660733 -0.036674697 -0.070312455 -0.032298263 -0.082044542 -0.030812936 0.031273328 -0.012653541 -0.009479400 0.012436171 0.106727123 0.004812248 -0.043807980 0.109894685 0.006284642 0.066866823 0.027138779 0.000294156 0.055689596 -0.009435189 0.038501814 -0.079469584 -0.013014428 -0.087444440 -0.018842084 -0.034235895 -0.060947958 0.047565777 -0.072925970 -0.037927873 -0.006170093 0.000543294 -0.055811655 0.021436371 0.028912311 0.120515957 0.093584687 0.116848432 -0.027686397 0.024602346 -0.028616704 -0.070860311 0.073368117 0.066162720 0.055021130 -0.031230079 0.036086261 -0.104587533 0.022781046 0.039996788 0.006984767 -0.064468347 -0.040980183 0.057166252 -0.014275456 -0.026006311 -0.076419584 -0.025479818 0.018072369 0.079093702 0.006002197 -0.098887496 0.020778066 0.031784236 -0.009109013 -0.049707413 0.051902980 -0.016156673 0.071047284 0.049928233 0.085157663 0.039875448 -0.014399451 -0.022497002 0.055581354 0.042279840 -0.018040719 -0.052294642 0.060331888 -0.059084803 0.033211414 0.043675616 -0.116677947 0.102398172 -0.081125736 -0.054275941 0.041174803 -0.035635069 0.051550169 -0.028309666 -0.065540060 -0.019673349 0.008228518 0.115317956 0.043777559 -0.069779165 -0.040356804 -0.026143277 0.094666451 0.049706426 -0.102543019 -0.071519569 -0.060536407 -0.101751953 -0.065158829 0.028587462 -0.047054630 -0.060708258 0.056711599 -0.013068342 0.020471102 0.135403290 -0.006118769 0.062665589 0.063951463 0.064438507 0.030934663 0.030593419 0.053975180 0.019194784 0.045295808 0.033414777 0.027165979 -0.076409556 0.029599713 0.010557916 -0.061516453 0.031312641 0.014928347 -0.052864335 0.024491256 -0.013727531 0.003978591 0.045195993 0.037469123 -0.056490470 0.021996040 -0.037646662 0.055745613 -0.090326920 -0.109467059 -0.047299515 0.031676259 -0.084798224 -0.051070731 -0.002065525 -0.112904437 -0.041578282 -0.021166500 -0.066554844 0.023788668 0.050625421 -0.104815923 0.014824269 -0.033684183 -0.022969287 0.060305525 -0.014104696 -0.102858655 -0.017191060 -0.046167243 -0.095782109 -0.076959565 -0.098550372 0.066301413 0.009931907 0.055857684 -0.055920720 0.072577417 0.064406499 0.047295421 0.005695354 -0.034490746 0.095716022 0.116506733 -0.001384632 0.044686802 -0.034757834 -0.067881897 0.008155131 -0.086976379 -0.035097383 -0.011603652 -0.058639251 -0.043423194 -0.051473796 0.094082400 -0.017912440 -0.062363487 0.032758389 -0.005354624 -0.121939532 -0.016325511 0.035951696 -0.017384263 0.010294944 0.070545942 0.035962358 -0.099197924 0.046000857
actual	0.009995145 0.006840589 -0.021746622 0.023301808 0.028527711 -0.049075320 -0.023578778 -0.037918687 0.012680941 -0.030257141 -0.028540753 0.013293940 -0.026757497 -0.001737685 0.061162561 0.027365247 0.006431086 0.023486927 -0.032209840 0.013044957 0.019643296 -0.033496805 0.049693987 -0.022386314 -0.021595862 0.011395508 -0.001800744 -0.014828380 0.057753343 -0.020521702 0.034271456 0.022502815 0.013737608 0.023200134 0.007530278 -0.020194571 0.000793998 0.048733816 -0.019340726 -0.016193990 -0.002366942 -0.035162881 -0.029420817 0.032228936 -0.007094366 -0.060983226 -0.073368430 0.040162135 0.002682351 0.048168741 -0.045562372 0.021661015 -0.015296149 -0.105264097 -0.036932219 0.039613079 0.016841032 -0.003069441 0.028052663 -0.004884251 -0.030758750 0.016448321 -0.045026116 -0.014868373 0.021333486 0.016947027 0.045222927 0.003342910 0.031790983 -0.013645673 -0.011317328 -0.003963158 -0.011893965 0.001781941 0.073119581 -0.008222517 -0.019128898 -0.068616748 0.009871930 0.036622677 -0.066888586 0.051774964 0.004103269 0.022480000 0.012497647 -0.015675465 -0.007442757 0.057345510 0.025403669 0.036343370 -0.001004175 0.031669527 -0.053690199 -0.054018073 -0.019770756 -0.058894552 -0.066938452 -0.000052897 -0.053352986 0.009252606 0.016988073 -0.023795240 -0.046132043 -0.019635968 -0.052781932 -0.019241607 0.020695010 -0.009819094 -0.005141917 0.009479932 0.068371281 0.002327456 -0.028099647 0.070153750 0.005821757 0.044566873 0.014672294 0.000884133 0.033974603 -0.007162096 0.022066815 -0.049792297 -0.010139593 -0.056344297 -0.014304669 -0.023834204 -0.039068680 0.031069022 -0.044902306 -0.022398055 -0.005711664 -0.000634678 -0.035410680 0.015328296 0.019781874 0.076120056 0.061458569 0.074578106 -0.017829597 0.016852861 -0.018834772 -0.046174701 0.045145951 0.044370241 0.032650243 -0.019126510 0.022050077 -0.064793289 0.014072047 0.026235549 0.003937148 -0.041841570 -0.024446834 0.036793020 -0.009596586 -0.017448183 -0.048916914 -0.014993693 0.011742933 0.049215782 0.006140641 -0.062615260 0.014510712 0.021724977 -0.005444619 -0.029662004 0.031706359 -0.009591457 0.043731943 0.032604214 0.054731596 0.027505038 -0.007573283 -0.014899227 0.035747774 0.028284840 -0.010467190 -0.033517368 0.038628519 -0.037843339 0.020394171 0.026298644 -0.075416468 0.065027140 -0.051014952 -0.035449568 0.027473381 -0.022050805 0.034094047 -0.016851410 -0.041539613 -0.011633049 0.003646173 0.072978750 0.026168762 -0.046637159 -0.025899811 -0.015277121 0.060646471 0.031558849 -0.065015778 -0.045642704 -0.037964594 -0.065971449 -0.041696496 0.017419798 -0.031271309 -0.039112184 0.036055949 -0.008291373 0.014382841 0.086329155 -0.004680462 0.039418716 0.040350568 0.041359771 0.021828767 0.020810418 0.034668963 0.011607924 0.029715359 0.020010954 0.017065104 -0.049283490 0.018043624 0.007301684 -0.038894363 0.018106969 0.011225778 -0.032526102 0.014828601 -0.007396698 0.001851038 0.027159581 0.022127632 -0.036121897 0.012915727 -0.022803878 0.035022873 -0.058427531 -0.071094476 -0.029403666 0.019690406 -0.053759057 -0.031178311 -0.001200177 -0.074320056 -0.026198646 -0.015358957 -0.042007551 0.014361418 0.032829020 -0.065626822 0.009412864 -0.019942051 -0.015380997 0.039555039 -0.009443351 -0.066409349 -0.010951921 -0.030935250 -0.063354194 -0.047526922 -0.063110627 0.040798035 0.005930051 0.035113025 -0.036794804 0.046547610 0.043117039 0.030454064 0.003877062 -0.024092462 0.062049709 0.075161144 -0.001081440 0.027926939 -0.022237808 -0.042819981 0.006213037 -0.056218613 -0.024005359 -0.008605228 -0.039886698 -0.026798612 -0.031984210 0.060678367 -0.011311452 -0.038049500 0.022487907 -0.002760033 -0.077103570 -0.011439365 0.023803657 -0.009779592 0.007090366 0.043449707 0.024389727 -0.065415382 0.029939666
form	0.025001328 0.016770331 -0.046884809 0.047273520 0.058524285 -0.105027705 -0.049556240 -0.081383623 0.022545490 -0.064400010 -0.064731710 0.030314332 -0.057097767 -0.005528808 0.128748894 0.055665910 0.013245541 0.049615819 -0.066665851 0.027331838 0.043519896 -0.074199744 0.107938491 -0.046595577 -0.041639715 0.023872497 -0.004839080 -0.028464029 0.121059999 -0.043716490 0.071399309 0.047596265 0.030405417 0.049190681 0.014753590 -0.037798509 0.006305938 0.101587445 -0.042665504 -0.037715945 -0.009433481 -0.076608993 -0.061733186 0.068206742 -0.017161284 -0.125220329 -0.154665470 0.086462155 0.009081804 0.105301432 -0.098890208 0.042890660 -0.030417761 -0.226129800 -0.078116231 0.086846523 0.036967799 -0.006796209 0.056751870 -0.007266314 -0.061264500 0.036568955 -0.097142123 -0.029842239 0.043814927 0.038512614 0.095373191 0.005668374 0.064165562 -0.028808502 -0.026284682 -0.004556449 -0.022378016 0.002324631 0.156323195 -0.019463209 -0.041328721 -0.141954780 0.023498639 0.077931218 -0.141657993 0.112783827 0.009892427 0.048202477 0.029458532 -0.031928845 -0.016098885 0.117182992 0.054650810 0.080909885 -0.002247523 0.064183764 -0.112574875 -0.114164732 -0.043124981 -0.122769676 -0.140365049 0.003266286 -0.110202357 0.020504542 0.036641959 -0.048352815 -0.097866729 -0.041599758 -0.110686451 -0.042666797 0.042424973 -0.017474396 -0.013032452 0.017550403 0.143956453 0.006006808 -0.056694020 0.149181142 0.009685152 0.092238851 0.035268366 -0.000094216 0.072384335 -0.011164199 0.049759325 -0.107093327 -0.018360008 -0.116181456 -0.028773157 -0.048496809 -0.083555616 0.066007964 -0.097743794 -0.049622912 -0.009277712 -0.000644761 -0.072098732 0.030938366 0.042914718 0.163414374 0.126396015 0.161222190 -0.038818408 0.030891566 -0.041679122 -0.094090305 0.098001689 0.092996396 0.071549915 -0.042604528 0.046504799 -0.138956904 0.031236012 0.054488368 0.008156079 -0.090352677 -0.055441782 0.077502333 -0.020033810 -0.035578817 -0.101320632 -0.032274853 0.022965316 0.106041588 0.008669437 -0.133531302 0.028641714 0.044677321 -0.013223141 -0.064676426 0.069208890 -0.022360921 0.095503323 0.066253752 0.117722690 0.057757627 -0.017552381 -0.032183044 0.076993488 0.058024421 -0.022313787 -0.068342239 0.082198128 -0.080828898 0.044880196 0.057188135 -0.160162464 0.137670025 -0.109727837 -0.073253602 0.055993918 -0.050156593 0.071653068 -0.037979234 -0.088260241 -0.027112015 0.011006414 0.153914481 0.057680812 -0.095074162 -0.053382467 -0.034311939 0.131785691 0.069217175 -0.137250870 -0.097794637 -0.080510825 -0.135339499 -0.087506391 0.039152764 -0.065932952 -0.083272718 0.074813090 -0.018389376 0.029778242 0.184921250 -0.008590160 0.085253075 0.084159754 0.090422362 0.042875677 0.039575607 0.075280033 0.024321668 0.062142860 0.045101412 0.034576006 -0.104881503 0.038687557 0.014032007 -0.083292313 0.043235544 0.019631028 -0.069067135 0.030519636 -0.019901568 0.003157522 0.060059559 0.050943494 -0.075939395 0.028690236 -0.049435969 0.077477828 -0.122083984 -0.147832960 -0.064701483 0.044753302 -0.112337090 -0.069310114 0.000098603 -0.154042691 -0.055265836 -0.030661922 -0.091560155 0.031535059 0.070856906 -0.140932098 0.018723587 -0.045005444 -0.031177441 0.082236379 -0.018507989 -0.137332141 -0.021696955 -0.063770197 -0.132198915 -0.104076535 -0.131553710 0.087436259 0.013466046 0.076161131 -0.075168297 0.097543605 0.087205522 0.063049071 0.008028257 -0.048960559 0.128384247 0.158145994 0.001276092 0.059982456 -0.047082398 -0.094260529 0.012190003 -0.119436637 -0.047441058 -0.017474866 -0.082304329 -0.057637744 -0.067808606 0.125942379 -0.024463937 -0.082579605 0.047447752 -0.007963251 -0.165260330 -0.023620026 0.047855295 -0.020650355 0.011678202 0.094623044 0.047197644 -0.134149462 0.061492823
effect	0.016728431 0.013760015 -0.034055669 0.033440091 0.042081874 -0.078025296 -0.036345642 -0.058655512 0.016362298 -0.049670141 -0.045851450 0.024422180 -0.043725461 -0.003777376 0.096872337 0.042222951 0.008565653 0.037318408 -0.047918115 0.021079732 0.030198077 -0.055194918 0.078055143 -0.034597222 -0.030701390 0.018062541 -0.002616080 -0.019702302 0.088695399 -0.032950141 0.051999088 0.033934932 0.023324041 0.034394547 0.013214792 -0.028666843 0.002875333 0.073274262 -0.031566255 -0.028432420 -0.004818686 -0.055533361 -0.047855124 0.051254697 -0.013133298 -0.091962032 -0.115644030 0.064207911 0.007908059 0.079214096 -0.074056715 0.033867307 -0.021366419 -0.166258067 -0.057066232 0.064809166 0.026660040 -0.002622354 0.042604592 -0.005239177 -0.046754576 0.027750421 -0.071882479 -0.019660424 0.031757262 0.028087104 0.069521636 0.003572651 0.048369799 -0.021125887 -0.020969968 -0.004414816 -0.015279545 -0.000671844 0.115654387 -0.016235365 -0.032138523 -0.103982046 0.016416866 0.057668582 -0.104593433 0.082948618 0.007048118 0.035304129 0.019677294 -0.022767531 -0.013756940 0.087361999 0.040909726 0.058990780 -0.002535335 0.047223888 -0.082899250 -0.084752113 -0.030251084 -0.089892864 -0.102825843 0.001691590 -0.083971597 0.014049360 0.025296034 -0.034734711 -0.070193022 -0.032180261 -0.082189605 -0.029603790 0.031222424 -0.012299352 -0.010440668 0.015066535 0.107989632 0.003413085 -0.041244369 0.110430278 0.005379161 0.066787206 0.025510296 0.000158128 0.055628140 -0.009182867 0.036315508 -0.076786973 -0.014930230 -0.086226568 -0.021388257 -0.036257666 -0.061583482 0.049377598 -0.071690738 -0.038390715 -0.006898957 0.001224664 -0.054233082 0.022181366 0.029305208 0.119488314 0.095599324 0.119837448 -0.026779355 0.022226688 -0.027851218 -0.071734250 0.072723903 0.068008862 0.055402946 -0.031122891 0.033788871 -0.103403769 0.022713600 0.040213950 0.006643786 -0.065091953 -0.041299753 0.057847921 -0.013380057 -0.027772466 -0.075419888 -0.023598287 0.018147975 0.080218568 0.007030426 -0.100383647 0.023046298 0.034083135 -0.010531806 -0.047391448 0.052692853 -0.014631273 0.068565324 0.048385348 0.084830426 0.040273570 -0.013444652 -0.023127720 0.055548649 0.041632798 -0.016982734 -0.051546536 0.061577562 -0.058659915 0.033133082 0.044488706 -0.117705636 0.101025701 -0.080561489 -0.053877577 0.040188059 -0.034440301 0.051223438 -0.029826283 -0.066260889 -0.019110708 0.007092240 0.115619190 0.044230908 -0.071839012 -0.039689049 -0.023392184 0.097716361 0.049764011 -0.102462500 -0.071222760 -0.061329477 -0.101811461 -0.066855408 0.027930917 -0.048850704 -0.061417203 0.055190358 -0.014295289 0.022930413 0.135640979 -0.005723018 0.062609695 0.064551614 0.067946419 0.031411797 0.030879486 0.054683499 0.017375156 0.045757402 0.033496011 0.027730204 -0.076713718 0.028841680 0.012046625 -0.058903348 0.031892620 0.015404746 -0.052269492 0.021632172 -0.014348400 0.002057782 0.044165071 0.035372108 -0.056349795 0.022348078 -0.036764726 0.056854233 -0.089210831 -0.109276727 -0.045806821 0.033097878 -0.083898820 -0.052936506 0.000320634 -0.113778517 -0.040891390 -0.021194369 -0.067084476 0.023150153 0.050076339 -0.105092935 0.014983293 -0.030801618 -0.024098478 0.062719464 -0.011993268 -0.102619372 -0.018023461 -0.046980139 -0.097375184 -0.077217303 -0.097505689 0.065208510 0.010311484 0.055221409 -0.055907182 0.073708035 0.066380024 0.046394769 0.005985753 -0.034783863 0.093068771 0.117543302 0.000276782 0.045401450 -0.033348750 -0.068021394 0.008595572 -0.088748187 -0.036605943 -0.014513369 -0.061524715 -0.043906778 -0.049784757 0.092792124 -0.018199043 -0.063789874 0.032790117 -0.006679231 -0.124365360 -0.016794393 0.036184832 -0.014826171 0.009347412 0.067897379 0.035880744 -0.100209638 0.044638995
runs	0.010550426 0.009119310 -0.019117583 0.018943826 0.024816642 -0.044762693 -0.020806001 -0.036057010 0.009082115 -0.029773589 -0.029368624 0.012012000 -0.024121452 -0.002609881 0.057750825 0.024133246 0.005758441 0.022835780 -0.028972365 0.013146602 0.018925929 -0.031285159 0.044816855 -0.021608040 -0.017410019 0.009491197 -0.001100164 -0.012378064 0.054238711 -0.017254520 0.029235039 0.019315151 0.013157837 0.021657543 0.008095433 -0.018621113 0.000878545 0.043257799 -0.017614944 -0.015226980 -0.002616539 -0.031774208 -0.025860332 0.028271120 -0.006190803 -0.054511003 -0.068618678 0.036486719 0.003354392 0.045709051 -0.042339649 0.020673711 -0.012893614 -0.098912157 -0.035345159 0.035889745 0.016919132 -0.003844689 0.023476033 -0.004955788 -0.027296571 0.014858769 -0.043554019 -0.012735314 0.018533964 0.016116314 0.041296262 0.001123853 0.029068718 -0.012120022 -0.010261788 -0.003114752 -0.008412090 -0.000681838 0.066579886 -0.009318816 -0.018451428 -0.062003724 0.010613862 0.031709168 -0.060281694 0.048734758 0.003287780 0.022435766 0.012331018 -0.013076065 -0.007895744 0.051206220 0.022912338 0.034947321 -0.002216744 0.027865259 -0.050536245 -0.049453378 -0.019730534 -0.054092854 -0.059995454 0.001604869 -0.048348777 0.009981764 0.016076736 -0.022805072 -0.042914383 -0.017780608 -0.048385810 -0.019229326 0.019826071 -0.008697001 -0.006431377 0.008195467 0.062799104 0.001142599 -0.024587505 0.062859394 0.002462622 0.040521603 0.014271862 -0.000030101 0.032280065 -0.006524093 0.022162989 -0.047166087 -0.008476886 -0.050189056 -0.011182663 -0.022505082 -0.036192957 0.027769085 -0.041346256 -0.022159690 -0.005761319 0.001121833 -0.033300046 0.014124390 0.016381240 0.070224896 0.056342278 0.069106355 -0.015712097 0.012975456 -0.018519586 -0.042734619 0.043007955 0.038578499 0.032772526 -0.017237665 0.019479070 -0.061865497 0.011885867 0.023110991 0.003916136 -0.038060252 -0.023472078 0.033936527 -0.008429758 -0.015296982 -0.043785833 -0.014689010 0.010847235 0.045214657 0.005819723 -0.057117272 0.012713947 0.019485313 -0.004482339 -0.027772447 0.029402198 -0.008069739 0.042552505 0.028998829 0.049449988 0.023612661 -0.007586447 -0.012652961 0.032155521 0.024845062 -0.009517651 -0.029364731 0.036745828 -0.036764681 0.020450108 0.025314411 -0.069980167 0.060317818 -0.048863780 -0.032163877 0.023545286 -0.021666944 0.029299688 -0.017758086 -0.038560685 -0.011106063 0.004139644 0.066888429 0.024252709 -0.041831337 -0.024554653 -0.013994340 0.057031479 0.030216107 -0.061383627 -0.043508351 -0.036525182 -0.060947970 -0.039942250 0.017546646 -0.027742546 -0.035109241 0.031126047 -0.007584513 0.014469886 0.080856569 -0.003511843 0.039087024 0.037865136 0.039177611 0.018133134 0.017917223 0.032275904 0.010832617 0.027840503 0.020410942 0.013972547 -0.044826016 0.017964218 0.006526203 -0.034701046 0.018742671 0.008068385 -0.031586271 0.014371993 -0.008354136 0.000444162 0.025079275 0.021133462 -0.032637388 0.014267483 -0.023006001 0.032705754 -0.050751381 -0.065922409 -0.028107053 0.017679598 -0.049135767 -0.030570010 -0.000886381 -0.066380963 -0.022485226 -0.012208872 -0.039741263 0.012489929 0.031651292 -0.061495490 0.007526916 -0.019017881 -0.014277325 0.037018485 -0.007501532 -0.061225597 -0.009669442 -0.027195686 -0.055732597 -0.043610945 -0.056288630 0.039905351 0.003635235 0.032417525 -0.032596786 0.043056954 0.038341235 0.025785107 0.004124232 -0.022017447 0.054439869 0.068163790 -0.000922243 0.025419306 -0.019600714 -0.038821980 0.006314116 -0.051325213 -0.019631229 -0.008985021 -0.036678638 -0.023486204 -0.029762294 0.052922491 -0.011254312 -0.037538040 0.019336430 -0.004221881 -0.072466277 -0.007999300 0.020440187 -0.009671710 0.006756167 0.040609784 0.020993700 -0.057140060 0.028426349
hands	0.015811125 0.012004497 -0.026164161 0.027079346 0.033811308 -0.060499147 -0.028035631 -0.046093151 0.013988274 -0.038021531 -0.037512194 0.018817037 -0.034232222 -0.003667067 0.075920954 0.031338200 0.008613829 0.028731862 -0.038570669 0.013828151 0.023281639 -0.044617787 0.061741687 -0.028713768 -0.024883261 0.014101308 -0.003791863 -0.016491659 0.071464062 -0.025533635 0.042483091 0.027135912 0.017100861 0.027444378 0.008899096 -0.021583019 0.002271091 0.057694804 -0.026556581 -0.022040416 -0.003817687 -0.042984638 -0.035068955 0.040505592 -0.009958878 -0.074766621 -0.090502188 0.050682537 0.006880248 0.060212102 -0.058358692 0.025202198 -0.019131355 -0.132316068 -0.044421617 0.048448496 0.020147648 -0.005043231 0.033318918 -0.004532987 -0.037451275 0.021600671 -0.057281759 -0.016593568 0.026630014 0.023021465 0.054608572 0.001411737 0.037471190 -0.017692218 -0.016942358 -0.002451038 -0.011631110 0.000664757 0.091091380 -0.011757635 -0.025091304 -0.082404546 0.011564864 0.045476891 -0.082661740 0.064672880 0.007553735 0.029010369 0.016465174 -0.018448032 -0.008796643 0.068523742 0.032374654 0.047553606 -0.002243775 0.035778686 -0.067240804 -0.066870682 -0.026179681 -0.069361120 -0.082868911 0.001650708 -0.065940253 0.011304383 0.020004746 -0.027935090 -0.054848906 -0.024580032 -0.064802356 -0.023851031 0.023442268 -0.010212478 -0.006522521 0.011436546 0.082137071 0.003793584 -0.033542786 0.084842376 0.005709160 0.051983923 0.021356747 0.001036729 0.043253403 -0.008962659 0.027730275 -0.061444227 -0.010105594 -0.067737460 -0.017074196 -0.027267188 -0.049815308 0.036413729 -0.056039751 -0.028648982 -0.005808961 -0.001188437 -0.043052182 0.017660923 0.024665533 0.093466587 0.074704073 0.092169486 -0.022249093 0.020067872 -0.024672590 -0.055075862 0.056102026 0.054398198 0.041607190 -0.023193868 0.026382616 -0.081758052 0.018363724 0.030391801 0.005573109 -0.050021417 -0.032451916 0.045246612 -0.010121429 -0.021096135 -0.058595769 -0.018810855 0.014898534 0.062219094 0.005132386 -0.076842912 0.015805792 0.024307108 -0.006502099 -0.037383161 0.038479894 -0.011095929 0.053503372 0.038862761 0.069345601 0.032662533 -0.009323827 -0.018351065 0.043823473 0.034379601 -0.014202665 -0.040176962 0.045362152 -0.047131576 0.024671050 0.033704717 -0.092617907 0.079753026 -0.063491315 -0.041417867 0.032369159 -0.029552693 0.040458053 -0.021463193 -0.049912397 -0.013438037 0.004192329 0.090865739 0.034201957 -0.056089714 -0.030831229 -0.019298755 0.074647084 0.039876264 -0.079295859 -0.055009145 -0.046215478 -0.081156440 -0.050287127 0.021303410 -0.039570373 -0.048180930 0.045246158 -0.008258156 0.017624894 0.107560523 -0.005455585 0.049690329 0.050577637 0.051215533 0.024320424 0.023389630 0.042653836 0.015726104 0.037631810 0.027613733 0.022461805 -0.062115334 0.022095300 0.008380788 -0.047875687 0.022864649 0.013500958 -0.039481405 0.018465186 -0.011083960 0.001633323 0.032722246 0.028974524 -0.044178210 0.016258497 -0.027180638 0.045347836 -0.069923662 -0.085828289 -0.036539819 0.025737213 -0.067281060 -0.041789144 -0.001002563 -0.091071762 -0.032450654 -0.015823109 -0.053429108 0.018218288 0.038656410 -0.080959402 0.010744289 -0.026762698 -0.019152464 0.048546679 -0.011741955 -0.081179850 -0.012065884 -0.038844217 -0.077608652 -0.058017518 -0.076165944 0.050551612 0.007333487 0.043471787 -0.043844145 0.058270734 0.052184910 0.036324967 0.004822810 -0.028342417 0.073779397 0.089932553 -0.000905079 0.034548897 -0.026117222 -0.053635534 0.006602726 -0.069468841 -0.026888750 -0.010104565 -0.045808606 -0.033383090 -0.040781479 0.071578160 -0.015231820 -0.047715247 0.027590128 -0.003823791 -0.097218260 -0.012172584 0.027094528 -0.013393315 0.006952297 0.053467978 0.029342990 -0.077514648 0.037769150
copy	0.013855222 0.012395848 -0.028913539 0.027165882 0.037561830 -0.063903555 -0.031559292 -0.051123302 0.014325521 -0.041565280 -0.040556751 0.018465232 -0.035371356 -0.002564436 0.080444880 0.034724385 0.006932978 0.031848457 -0.041124813 0.015005297 0.024887875 -0.047300346 0.065252468 -0.030499784 -0.027054483 0.015816066 -0.002529289 -0.017982746 0.076492600 -0.025423048 0.045042671 0.029393550 0.019126181 0.030178744 0.011008487 -0.026003812 0.001987516 0.063665763 -0.027709264 -0.021970401 -0.006135480 -0.045925524 -0.037762668 0.041474100 -0.010287338 -0.078268535 -0.097275376 0.055012807 0.005017165 0.065690592 -0.062573455 0.028560162 -0.020686757 -0.139623791 -0.050659865 0.055180762 0.022339620 -0.004566778 0.034793172 -0.004589022 -0.039339535 0.023064587 -0.061153755 -0.018264117 0.028319631 0.024575777 0.057816856 0.002413429 0.042183246 -0.016523583 -0.015085962 -0.002696069 -0.012885407 -0.000209772 0.095952235 -0.012270408 -0.026917063 -0.088085905 0.014737310 0.048970237 -0.087735519 0.070461154 0.005049628 0.030355932 0.017755475 -0.019461172 -0.012064865 0.072664462 0.032347608 0.049635094 -0.003113662 0.040990505 -0.070834115 -0.072442390 -0.026969455 -0.075167194 -0.088997193 0.002363935 -0.069278367 0.012144410 0.023012005 -0.028840305 -0.061789177 -0.026998211 -0.069131695 -0.024490241 0.025603907 -0.010528541 -0.009695259 0.012205960 0.088713348 0.004373290 -0.037090745 0.090871289 0.005957457 0.057042565 0.022338100 -0.001033439 0.045379814 -0.007578931 0.029981308 -0.065815426 -0.010255009 -0.074084572 -0.015360133 -0.028819738 -0.052992661 0.039017491 -0.059174500 -0.031708449 -0.006812648 -0.001842385 -0.047057733 0.019944962 0.024854690 0.099301308 0.080978371 0.099835493 -0.025114050 0.018734263 -0.024370819 -0.059994146 0.059920650 0.056808587 0.046870116 -0.024976507 0.028090660 -0.088356242 0.020639708 0.034245428 0.005902207 -0.056515958 -0.034481883 0.049004190 -0.011626270 -0.022853952 -0.064203866 -0.021601737 0.015538105 0.067623034 0.007390936 -0.084173679 0.019046482 0.026691176 -0.009812769 -0.042828791 0.044086091 -0.014068935 0.058771331 0.040388141 0.072868057 0.035700541 -0.011033094 -0.018635970 0.047095999 0.036190122 -0.014799168 -0.045210239 0.050923597 -0.050740771 0.029772507 0.034612555 -0.099543840 0.086571187 -0.066533469 -0.046473131 0.033061270 -0.030777935 0.042665754 -0.025085868 -0.056992151 -0.014801176 0.004801072 0.095068172 0.038193543 -0.059753612 -0.032573014 -0.021801841 0.082389601 0.043896880 -0.086028971 -0.061195124 -0.051720314 -0.086024992 -0.055716127 0.024406768 -0.040483147 -0.052672241 0.045745775 -0.010267596 0.018461270 0.115823351 -0.004390634 0.053360019 0.052989490 0.054212570 0.027099576 0.023827573 0.045859061 0.014183764 0.039995711 0.029758643 0.022389207 -0.065541826 0.024402311 0.008054119 -0.051377628 0.024947494 0.012526611 -0.043858606 0.019703319 -0.012879440 0.000877283 0.036913112 0.031838343 -0.047363531 0.016642621 -0.031405691 0.046422493 -0.076210760 -0.093928158 -0.040935274 0.028105401 -0.069207303 -0.044296764 -0.001589740 -0.097037733 -0.035513684 -0.016610639 -0.058559697 0.017903028 0.041843042 -0.088760674 0.011884890 -0.028255995 -0.021335045 0.051257279 -0.009956893 -0.086070068 -0.015568905 -0.040289950 -0.081364132 -0.063672632 -0.082863256 0.053653657 0.006408223 0.045725126 -0.046629306 0.062189814 0.054955676 0.039831787 0.005207129 -0.029412644 0.080130309 0.099158742 -0.001526766 0.039658427 -0.030556355 -0.058562547 0.008296631 -0.074659690 -0.030731300 -0.011333840 -0.052359015 -0.034462132 -0.043000493 0.078123935 -0.016519060 -0.053757370 0.027166909 -0.005683317 -0.102945022 -0.013220412 0.030725138 -0.013670800 0.006582752 0.057120025 0.030677844 -0.085159354 0.038110163
