john	0.080555014 0.118902408 -0.107239909 -0.007226198 0.073693216 -0.046239603 0.076255679 0.034804776 -0.041250374 0.062116984
problem	0.071804889 0.175755143 -0.104997590 -0.005420625 0.053673360 -0.078859352 0.118303746 0.033224240 -0.025551708 0.044218156
university	0.082363129 0.136073545 -0.183668628 -0.017502917 0.120212071 -0.031213978 0.119790256 -0.039789617 0.053111419 0.101544671
write	0.055353515 0.064317115 -0.047501136 -0.041920811 0.011058822 -0.016081609 -0.002300066 0.028295144 0.051829379 0.040809479
image	0.042499818 0.138136342 -0.091565408 -0.022478428 0.081875801 -0.032980360 0.040809575 -0.019013017 0.005499929 0.095000565
display	0.040879536 0.100112960 -0.074930109 0.034187287 0.032570925 -0.008696137 0.074833810 -0.037183214 0.053197972 0.049569055
program	0.031756390 0.141040549 -0.103560448 0.021006394 0.075027697 -0.051550660 0.031274110 0.046374865 -0.040557828 -0.004805531
memory	0.081343509 0.093881540 -0.159403235 -0.047542214 0.068165861 -0.020697128 0.049574848 0.012554986 0.016131837 0.037983432
call	-0.000017707 0.074414134 -0.118731439 -0.049486965 0.054755304 -0.034369342 0.056510057 -0.018875338 0.049060356 0.020314187
message	0.019550459 0.105200104 -0.118011646 0.021367311 0.040396918 -0.047013797 0.055031821 -0.013424902 -0.015461080 0.000033387
error	0.003135993 0.023612674 -0.064022407 -0.030110059 0.000142434 0.017567374 0.010255571 -0.024993427 0.035591453 0.017590992
major	0.009948723 0.046839748 -0.134138599 0.008320294 0.099400692 -0.064554915 0.082297087 -0.016519750 -0.006569117 0.065182254
number	0.049755454 0.156208947 -0.163795099 -0.008683679 0.057292420 -0.010462519 0.064629637 -0.009901018 0.040972322 0.045648403
current	-0.014772126 0.115464807 -0.128305823 -0.051141791 0.075289272 -0.008920801 0.077998102 0.014738458 -0.003158655 0.007319455
calls	0.058237765 -0.012807170 -0.059532978 -0.006163490 0.031878699 0.034727156 0.056014556 0.012584168 -0.035476055 0.022167604
problems	0.042571072 0.061910335 -0.152243540 -0.050450049 0.087006137 -0.062209427 0.088073373 -0.039084449 0.053630169 0.089845493
sun	0.041983180 0.086169414 -0.162163094 -0.034655143 0.059034843 -0.024496565 0.098931320 -0.049176302 -0.008278945 0.029231763
advance	-0.005983877 0.055686105 -0.034679819 0.005707632 -0.021706544 0.006757248 0.012336692 0.007100285 0.041364357 0.026987946
windows	0.006756706 0.148151293 -0.125698164 -0.030133337 0.116760857 0.012903301 0.113526024 0.044479720 0.043450695 0.102120608
nntp	0.036391906 0.128828183 -0.104782343 -0.048137702 0.108638614 -0.030181447 0.061246283 0.018083090 -0.011114519 0.010212718
posting	0.004604595 0.111395709 -0.119024038 0.010599234 0.139560297 -0.031089975 0.067448184 -0.045972586 0.055785384 0.029174726
host	0.006394363 0.095895961 -0.187847257 0.002456805 0.122810379 -0.039190896 0.029748717 0.029961701 -0.001844705 0.030005338
reply	-0.002025661 0.110061415 -0.153986260 0.025040649 0.113627754 0.002015472 0.022383271 -0.047958855 0.043536447 0.055026032
ca	0.016831441 0.122015193 -0.111745931 -0.035160471 0.087562375 -0.004491990 0.067196883 0.013945255 -0.020462755 0.049619872
distribution	0.059673563 0.143003777 -0.089419626 -0.055898294 0.102604590 -0.043726463 0.047470920 0.025638904 0.033716843 0.007913955
disclaimer	0.064892143 0.092362180 -0.109544404 -0.047286138 0.040218774 -0.036557876 0.025337685 0.001306465 0.032618765 0.028427878
written	0.041536715 0.097936876 -0.118906043 0.015381184 0.059086781 -0.026126487 0.027820092 0.016772591 -0.045241036 0.013663827
corporation	0.026941137 0.095946237 -0.035350110 0.043952469 0.015156627 -0.013720609 0.050465420 -0.039326668 0.036512241 0.047784101
opinions	0.016336428 0.054281879 -0.102922790 0.023976671 0.021696622 0.016861761 0.031988300 0.010130199 -0.000508282 0.035617638
expressed	0.011037330 0.044725038 -0.056064326 0.000806001 0.050054342 -0.019466061 0.056464724 0.020355523 -0.037020281 0.000478718
article	0.075772583 0.116597079 -0.158232957 -0.056527805 0.127538547 -0.085102305 0.041376419 0.043883760 0.009992770 0.092374265
writes	0.023188710 0.213022426 -0.202568665 -0.039540101 0.097426981 -0.070830643 0.136054486 -0.054190431 0.016888987 0.037922375
back	0.067453615 0.084985286 -0.151718259 -0.052378982 0.081336170 -0.067218177 0.063310325 -0.014433182 0.002127592 0.072285846
change	0.022950990 0.008256290 -0.075128876 -0.030048374 0.034838255 0.020495310 -0.010867832 -0.015820665 -0.041356307 0.038420916
couple	-0.013587596 0.102997832 -0.067076623 -0.026951447 0.122266270 0.023272237 0.014834817 0.004873462 -0.013075053 0.051772889
system	0.068803065 0.130957738 -0.092784211 0.027055839 0.069777109 0.007556788 0.093746163 -0.034528784 0.054981824 0.021690000
address	-0.001717747 0.130050123 -0.080355026 -0.003996071 0.026919538 -0.016208889 0.034628138 0.011120786 -0.032015618 0.061995842
called	0.074929617 0.090228520 -0.166673869 -0.019520218 0.092801645 -0.044964049 0.022348711 0.041863732 0.047270380 0.074823871
remember	0.010728701 0.054969940 -0.127486378 -0.040647589 0.102740481 -0.037446864 0.061660044 -0.024810446 0.055171404 0.077813409
easy	0.037639927 0.118115105 -0.038653165 -0.030159455 0.097054049 -0.070188828 0.020270960 0.011078030 0.015790664 -0.008487444
job	0.054138511 0.043991063 -0.066180363 0.047349062 0.048954058 -0.018788494 0.062658809 0.040098388 -0.015276198 0.048151568
state	-0.016344694 0.150634184 -0.084350549 -0.013483280 0.092180789 -0.009216066 0.028524365 -0.052957807 -0.037257414 0.094190687
keywords	-0.012446351 0.081781268 -0.097719409 -0.016344637 0.099382445 0.021483034 0.023951979 -0.017466718 -0.010659900 -0.000754996
place	0.019828225 0.110744916 -0.156280175 -0.004905936 0.050981514 0.018078560 0.087261841 0.034406412 0.043279082 0.079771191
steve	-0.019375151 0.120535150 -0.063717417 -0.027671283 0.025670141 -0.067916296 0.002213408 -0.023698153 -0.008044180 0.012669518
gun	0.012854955 0.123783216 -0.149759144 0.019967072 0.106057972 -0.055373788 0.007455685 -0.042278886 -0.041213881 0.064382620
control	0.043344371 0.121357605 -0.139349282 -0.058596097 0.102263905 -0.082245894 0.040021945 -0.014665077 -0.028926715 0.069214098
hell	0.022295775 0.005059761 -0.050310757 0.032162532 0.042138956 -0.001123325 0.008274407 0.023661060 -0.003980921 -0.024988286
news	0.073129244 0.135600105 -0.112919182 0.038420346 0.082392469 -0.004509729 0.084883876 -0.041166134 0.000300685 0.044861652
newsreader	0.008419174 0.112969942 -0.112071924 0.025608888 0.035965730 -0.033048987 0.016854012 0.028201409 -0.024110602 0.044944122
tin	0.033452939 0.063394353 -0.021904491 -0.032115668 -0.008037512 0.012254764 0.002046099 0.036640693 0.000151441 -0.020379340
version	0.041330278 0.055679709 -0.099855371 0.015608186 0.108254276 -0.010142925 0.060944539 0.048452102 0.024690641 0.015004230
hp	0.062651180 0.053177517 -0.112609856 0.037146445 0.054256797 0.019815607 -0.009668867 -0.021983588 -0.004178018 0.042490024
wrote	0.065919921 0.093037583 -0.139440119 0.033279222 0.128074214 -0.070318319 0.023028467 -0.052218150 -0.004231111 0.036250956
posted	0.052048817 0.072209410 -0.037423935 0.014236054 0.014821688 0.003716468 0.049180292 -0.048790984 -0.000773070 -0.007277942
rate	-0.023552703 0.087360635 -0.061672714 -0.032309663 0.016304726 -0.000810396 0.038050029 -0.042107768 0.037236329 0.028773831
buy	0.078697242 0.132330731 -0.114086308 0.019582151 0.049445536 -0.045109719 0.055230126 -0.016618919 -0.001342055 0.004810291
effect	0.007079226 0.045614358 -0.092494749 -0.026586527 0.082117349 0.015139064 0.032709815 0.009195037 0.054595634 0.032411631
uk	0.060639404 0.097261384 -0.088747837 -0.046421848 0.070483550 0.008823166 0.050042652 -0.023473151 -0.038002431 0.032623764
book	0.058316145 0.091880046 -0.062226728 0.044378452 0.016534906 -0.054443408 0.004192324 0.017433601 -0.013028249 0.042943604
life	0.065447353 0.103622548 -0.172606334 0.010603905 0.077344723 -0.031081306 0.092458703 0.000636823 0.015822802 0.073065192
children	0.016882662 0.105100237 -0.115764424 -0.047344867 0.128779411 -0.013355886 0.016512346 0.022356091 -0.033016264 0.101196341
year	0.017745620 0.122924693 -0.161951870 -0.004713910 0.102802105 -0.009685524 0.072936408 -0.008897684 0.009033949 0.009365693
great	-0.001008451 0.070864141 -0.104722746 -0.013673244 0.128822803 -0.006876891 0.068472937 -0.035167404 0.025461012 0.082552001
source	0.067681171 0.088508613 -0.112088308 -0.008609255 0.035578888 -0.055807490 0.028621392 -0.050295077 -0.040572181 0.067631751
national	0.007900836 0.125773862 -0.155606762 -0.040303886 0.123517066 0.021805238 0.083018348 -0.028899422 -0.024091342 0.017858526
total	0.001288789 0.024540000 -0.101519823 0.004994845 0.052498672 0.024561949 0.027624456 0.034180470 -0.036315683 -0.016064446
numbers	0.023518009 0.039078243 -0.093642101 -0.001917599 0.058462646 -0.014939150 -0.003338461 -0.049384527 -0.044716850 0.072154634
make	0.000156853 0.133882403 -0.204644367 0.038842075 0.111026168 -0.058417298 0.095179699 -0.047163669 0.010646326 0.035191078
friend	0.025319757 0.014375133 -0.033109739 -0.024560263 0.069813393 0.011801748 0.017929025 -0.011572388 -0.023777043 -0.023594143
pretty	0.012568957 0.023382101 -0.059291951 0.003336066 0.044157945 0.033354033 0.082138419 -0.028781585 0.023272296 0.004049902
nice	0.064081617 0.044128347 -0.103711851 0.029551854 0.005948115 0.019917740 0.034611505 -0.048581917 0.040570550 0.046719130
usa	0.072227046 0.122042723 -0.129364386 0.012530564 0.103913590 -0.067060433 0.028505055 0.007374019 -0.026538178 0.047512040
cs	0.055985596 0.139413178 -0.169070363 0.013030289 0.092778474 -0.002162179 0.041927677 0.003056207 -0.036469012 0.021503579
space	0.010833261 0.091791697 -0.137687698 0.034453034 0.077614456 -0.052521884 0.043471117 0.033390321 0.047202833 0.023699200
world	0.076521240 0.081086539 -0.174773291 -0.029958529 0.133222416 -0.077079311 0.085467383 0.001356578 0.028269550 0.078949571
asked	0.052053973 0.033232607 -0.022709670 -0.018341355 0.072592646 -0.022447882 -0.000993664 0.016380075 0.038821511 0.040881794
questions	-0.026704427 0.077199779 -0.039174099 -0.021607811 0.041424323 -0.010221520 0.000526693 -0.023468081 -0.000060618 0.000034198
date	0.070848025 0.062160634 -0.038038943 0.016057327 0.061847199 -0.045103777 0.048638415 -0.014353467 0.001756512 0.016512739
group	0.047395561 0.088531792 -0.131449163 0.018499026 0.028856086 0.009419476 0.069077320 -0.036727544 0.032813862 0.022156712
sci	0.033050220 0.106161900 -0.055422146 -0.031097261 0.008629073 -0.045010407 0.042919215 -0.005462645 -0.008486392 -0.001153011
information	0.017374003 0.160532057 -0.099054828 0.000228692 0.130793750 -0.074335448 0.056640841 0.040535398 -0.029881340 0.029410806
copy	0.039551750 0.088885538 -0.016094798 0.012306795 0.029668413 -0.056868479 0.049397785 0.031461198 0.025354547 0.060299691
info	0.050575424 0.127571315 -0.106152512 -0.026017930 0.034301624 -0.000958310 0.040142685 -0.033266507 0.011213234 0.062889911
center	0.030900208 0.081659332 -0.093298443 0.017684923 0.075398311 -0.046525255 0.085087836 0.000398282 0.015760446 0.066439010
nasa	-0.011729801 0.098029219 -0.167496353 0.032054696 0.119898468 0.022033725 0.092783138 -0.002525513 -0.036230177 0.028667575
answer	-0.005944056 0.049605533 -0.101232655 -0.011040835 0.085626006 0.007718022 0.040881235 0.049371675 -0.026232308 0.028108498
gov	0.059281580 0.051355708 -0.126838967 -0.021078104 0.054743476 0.010543897 0.054738034 0.013797477 0.016566118 0.058289140
required	0.012281461 0.024334788 -0.059688583 0.023589129 0.004780385 -0.012540965 -0.018233454 -0.024394481 0.037751723 0.056700908
turn	0.020212390 0.048246745 -0.038581725 0.015699076 0.079041190 0.010114408 0.001137594 0.032570928 -0.020841498 0.033704471
view	0.062363956 0.126234367 -0.046097372 0.007270373 0.048086587 -0.069628291 0.069998257 0.007997836 -0.011565668 -0.003699919
start	-0.030972065 0.086191759 -0.032235753 0.039017096 0.028673707 0.036543097 0.041095208 0.002642045 -0.003952437 -0.005030620
good	-0.005599855 0.158345744 -0.123828419 0.019287191 0.072364762 -0.058618769 0.110147789 0.034671322 -0.014194876 0.095966026
line	0.080795377 0.078647532 -0.115832284 -0.051497735 0.061318152 -0.035586409 0.048533499 0.035602476 0.030320266 0.010034658
bit	0.000582514 0.070478283 -0.123929143 0.014440894 0.078308724 -0.022076439 0.096562177 -0.031216577 -0.017436096 0.098746210
part	0.049221601 0.132098407 -0.090696052 0.028093008 0.050128296 -0.043220177 0.080835253 0.043849461 -0.038320124 0.026361182
higher	0.049278852 -0.024474245 -0.029877551 -0.037871722 0.039573204 0.027744500 0.030222859 -0.011129595 0.014052728 -0.006529074
case	0.038778987 0.160552412 -0.154031590 0.032027602 0.089960597 -0.033072524 0.068496972 0.015868910 0.027368963 0.033109650
based	0.022512142 0.124866724 -0.117181212 -0.022434287 0.082899876 0.013497771 0.083743572 0.046317644 0.049233921 0.049480740
radio	0.002118917 0.074013956 -0.051570527 0.039947134 0.050096635 0.029390519 0.022042245 0.046569351 -0.017794967 -0.013261163
machine	-0.018415447 0.110847324 -0.138101310 0.031659111 0.072663233 -0.019762598 0.065267846 -0.029592091 0.039719440 0.061037324
east	0.058153585 0.095613718 -0.069100849 -0.026684757 0.020046320 -0.050637737 0.051246293 -0.043280240 0.035861675 0.020829709
add	0.067289583 0.070174985 -0.082265146 -0.027873445 0.081234738 0.008552612 0.092166789 0.005552411 -0.012554547 0.011185260
made	0.059708174 0.118971571 -0.165675759 -0.021492010 0.042900559 -0.037770044 0.063307509 -0.031954389 0.046490956 0.039623812
speed	0.021657586 0.052863080 -0.053427685 -0.034371898 0.010533652 -0.053386692 0.085168481 -0.041945133 0.023843314 0.059257783
large	0.067400947 0.091171354 -0.079520851 -0.000206411 0.021617156 -0.030059211 0.055295929 0.002171920 0.047333978 0.039344620
small	0.010515787 0.085681483 -0.123908289 0.005057201 0.037032269 0.024828859 0.027168477 -0.029586714 0.039825391 0.075750090
question	-0.004105065 0.158555105 -0.201320544 -0.051561568 0.095071569 -0.039917924 0.071527414 0.040619530 0.045889195 0.098781668
give	-0.001975269 0.126071289 -0.089900777 0.015498335 0.058420468 -0.058915649 0.054822747 -0.024295965 0.011112471 0.080519646
days	0.010955526 0.068486474 -0.024998844 0.039316878 0.033307031 0.021233855 0.063673176 -0.045074936 0.045228016 0.062934883
white	0.050615095 0.070369281 -0.000130424 0.042518329 0.054784205 0.011052091 -0.023723530 0.038280781 0.008493707 -0.012001728
top	0.056187339 0.074777275 -0.037956379 -0.031365875 0.062922284 -0.034348805 -0.004971362 -0.029691417 -0.027459990 -0.022438912
side	0.004066833 0.054544695 -0.081688277 -0.006065408 0.058950953 -0.032255255 0.006009849 0.042038243 -0.023453692 0.036736347
access	0.066417523 0.125334755 -0.089384630 -0.046954900 0.052773058 -0.052029226 0.108051740 0.006744876 -0.036664795 0.089243762
support	0.016326277 0.053042378 -0.059883218 -0.023964854 0.053176455 -0.048855510 -0.016602471 -0.024784086 0.033398047 0.008167056
service	-0.031487472 0.075584143 -0.110799640 -0.038660031 0.043128181 -0.052852213 0.040952135 0.022864617 -0.016640475 0.024497725
note	-0.007518538 0.047928143 -0.094523698 -0.020808503 0.071202591 0.008433041 0.052503206 -0.047166839 -0.003491213 0.039552860
guy	0.037003342 0.132006511 -0.094221830 0.031809926 0.090051442 -0.044911806 0.000253906 0.019655650 -0.022903651 0.045354974
receive	0.067358337 0.034178790 -0.106598862 -0.020134276 0.089821056 -0.004875612 0.044033773 0.041111749 -0.025884854 0.012996705
find	0.037666652 0.084550381 -0.115949564 -0.044626188 0.087935597 0.003904387 0.103311203 -0.012703842 0.023393331 0.073231556
california	0.056952808 0.067336597 -0.051341474 0.021742348 0.042529784 0.036077995 0.026499558 -0.008124670 0.035118118 -0.008076116
interest	-0.001086783 0.123861827 -0.119719565 -0.020255860 0.026582832 0.029604275 0.058953539 -0.039916445 0.043508086 0.032327753
worth	0.026451780 0.029174235 -0.104488723 -0.050472766 0.059089921 -0.055074058 -0.008575202 -0.006497504 -0.006095485 0.034979269
found	0.000393877 0.062353116 -0.095844634 -0.056124520 0.074330129 -0.009445124 0.073111527 -0.036926951 -0.000159311 0.012630459
live	0.028252311 0.027613640 -0.118140563 0.043215331 0.053609684 -0.030249309 0.022079814 -0.011622746 0.018363331 0.043617163
research	-0.022420056 0.127430007 -0.046112891 0.034619004 0.018855115 -0.009764446 0.007935606 0.048773855 0.012897968 0.076297976
texas	-0.005608312 0.039298046 -0.043678090 -0.012794636 -0.008339039 -0.037516493 0.005041527 -0.031261656 0.036543719 0.022507219
laboratory	0.006515172 0.091873005 -0.071989298 0.017914398 0.013046958 -0.019520365 0.059573144 0.017632781 -0.005024817 0.053241905
systems	-0.004610581 0.083861768 -0.127537787 -0.021814635 0.108146720 -0.072707690 0.007628262 -0.022886410 0.027841700 0.086240016
end	0.018916223 0.090450197 -0.131648973 0.005312558 0.029597299 -0.020655727 0.047303490 -0.052882954 0.016965764 0.045623042
dept	0.050940327 0.027208431 -0.001153009 -0.006341924 0.075992368 0.006091067 0.018592721 -0.007054973 -0.000675900 -0.021777637
summary	-0.026400199 0.096279107 -0.059821803 -0.036546405 0.044808868 -0.039163731 0.025503490 0.018767474 0.009718630 -0.017945811
common	0.001393229 0.085284114 -0.040683731 0.002791768 0.069010496 -0.032067087 -0.026959078 -0.019472059 0.001885330 0.038529485
real	0.015063060 0.094762795 -0.162263662 -0.012389184 0.070462257 -0.068295322 0.067475960 0.008871950 0.040029570 0.082554586
kind	0.013056542 0.152165189 -0.162907168 0.001732877 0.073111571 0.014768761 0.034018606 -0.044271093 0.023611957 0.048714537
results	0.054940864 0.094406284 -0.052721746 -0.016604749 0.070607752 -0.034240272 -0.012832227 0.007640160 -0.029847519 -0.004836041
point	0.005249699 0.123243503 -0.149685428 -0.041572101 0.084093697 -0.026427384 0.009453674 -0.025918920 -0.020777859 0.062843211
data	0.065361753 0.079429500 -0.088034086 -0.056828756 0.073729567 0.015694333 0.103679247 0.014823490 0.031631324 0.089291640
public	0.021060718 0.109680399 -0.088957906 -0.037692927 0.081094101 -0.066702738 0.065876350 0.014466452 -0.011660669 -0.000830768
considered	-0.021138623 0.055859115 -0.089998335 -0.019472189 0.006867377 -0.061543521 0.056517441 0.020325202 -0.021338735 0.001362292
important	0.069035202 0.056583848 -0.059333462 -0.036447074 0.099637061 -0.049331170 0.001067037 0.006966650 0.041440986 0.073843665
mark	0.063898750 0.111561134 -0.107886128 -0.006122245 0.123578899 -0.083012126 0.061245341 -0.038648244 -0.017540382 0.044528667
wrong	-0.013489975 0.062395178 -0.067042641 -0.028890900 0.115251563 -0.057976712 0.067496143 -0.009350379 0.028754095 0.087665223
simply	0.018923458 0.067885868 -0.119782269 -0.029012036 0.060170576 -0.028167557 0.062364690 0.002515990 0.047727074 0.048920207
means	0.045685988 0.122605056 -0.144883230 0.010848128 0.069919966 -0.015755953 0.031824831 -0.046650615 0.008605331 0.014874501
religion	0.024198817 0.080824845 -0.029875889 0.009124248 0.078324199 -0.051216409 0.075392872 0.028768523 -0.011237682 -0.002750142
western	0.012586918 0.033040918 -0.014048675 0.012889955 0.025739428 -0.047398746 -0.002637088 -0.007514059 -0.010264179 0.044933226
thing	0.062716268 0.124482401 -0.117376782 0.026674286 0.026155872 -0.031869993 0.053696264 0.038224235 -0.011551563 0.047845528
true	0.058327496 0.143916100 -0.179193929 -0.015848618 0.055131171 0.000987452 0.063240260 -0.000630518 -0.005026265 0.093966968
science	-0.001344248 0.118702464 -0.142888695 -0.030467728 0.094657518 -0.018037470 0.062306091 0.024073761 0.052840285 0.083993331
strong	-0.000515550 0.028743289 -0.101188004 -0.041529447 0.073293939 -0.048432361 -0.004267300 0.045668289 0.013329052 0.050084364
word	0.027966481 0.042264469 -0.079929084 0.030843936 0.018816832 -0.020277407 0.090459019 0.036397822 0.050054662 -0.000449629
sense	-0.008468425 0.080100790 -0.144128561 -0.048801553 0.106513046 -0.042191915 0.052587748 -0.034022205 -0.043987319 0.061619598
tom	0.031617548 0.056954756 -0.102136768 0.021117492 0.010112707 -0.058226027 0.030309251 -0.005969646 0.027684795 0.070369728
thought	-0.005259403 0.075279124 -0.015311617 0.004913155 0.010902394 -0.019232221 -0.018026384 -0.001034095 -0.001575481 -0.009077142
fact	0.031484541 0.075106554 -0.094845384 0.036680218 0.110463224 -0.006303707 0.107648045 -0.049922571 0.023415284 0.023680259
christian	0.033097550 0.100326575 -0.057079919 0.019895950 0.011913848 -0.007134482 0.080092445 -0.013053605 -0.013148322 0.073121779
hold	-0.016658504 0.066653974 -0.056738704 0.005842406 0.014426319 -0.053951614 0.023661256 -0.037779223 -0.032665245 -0.021508388
matter	-0.005687168 0.076282233 -0.079101659 0.035912585 0.096626736 -0.002800874 0.010623048 -0.028939702 -0.037385773 0.057957076
takes	0.004719670 0.019947240 -0.027562825 -0.016758975 0.028541157 -0.004793514 0.012971120 -0.023695206 -0.016259950 0.040653635
claim	0.017567107 0.113267846 -0.113649100 -0.031686481 0.072540708 -0.004585868 0.077937514 -0.020191556 -0.026381291 0.031606413
god	0.085125394 0.072321683 -0.158597797 0.038858902 0.106919535 -0.039709657 0.030469270 0.012318317 -0.008379018 0.073610201
told	-0.020791134 0.028828833 -0.062924266 0.038723521 0.011844007 0.000578977 0.052671600 -0.032129154 -0.045332447 -0.016209567
bible	0.059299443 0.124535322 -0.095456704 -0.036345031 0.084176801 -0.023694022 0.073649630 -0.039512008 -0.031017628 -0.005217087
people	0.006505493 0.138194799 -0.221873134 -0.049053825 0.106291585 -0.093060076 0.056419611 -0.011339471 0.046930786 0.071503960
truth	0.055143867 0.082093202 -0.083385520 0.022654552 0.089354157 -0.033140346 0.030374760 -0.005139820 -0.039288495 0.003069772
single	0.006898958 0.087795749 -0.021674953 0.039649349 0.071250603 -0.002892165 0.057271812 -0.043831531 -0.041183420 -0.015876032
short	0.016084904 0.054084487 -0.132711962 -0.010083048 0.019431101 -0.064623348 -0.002230225 -0.005446667 -0.007868429 0.068588890
full	0.034474365 0.029045735 -0.073715650 -0.019259525 0.093376771 -0.007702570 0.057142273 0.044012465 -0.031624109 0.031991530
understand	0.049401209 0.085241668 -0.037171040 0.045771427 0.039138768 -0.044841912 0.067902401 0.008664329 0.014804404 -0.022864085
miles	-0.022146938 0.084556811 -0.088730171 0.044202417 0.031600840 0.007808476 0.055915054 0.021669229 -0.021267932 0.060439151
work	0.017784502 0.145816848 -0.167037278 -0.025104484 0.057072245 -0.055013746 0.078504398 -0.030091206 0.050078027 0.096672453
long	0.061188519 0.081907541 -0.087415084 0.012839193 0.062387742 0.022295954 0.027357589 -0.039634779 0.048574444 0.070077926
computer	0.061377756 0.109735616 -0.130568549 -0.019110754 0.117836684 0.015663812 0.096659653 -0.022403810 0.036611840 0.093157321
apr	-0.023872221 0.053061575 -0.059341427 -0.014887402 0.104852028 -0.064895153 0.025306886 0.042923473 0.006539877 0.035408270
bike	0.027022656 0.049293689 -0.121972643 -0.034174785 0.044960044 -0.012851435 0.006770292 0.035935204 -0.030226626 0.068822004
heard	0.018176703 0.076226808 -0.104388222 -0.046361610 0.087437116 -0.053605534 0.050215036 0.045851704 0.029656725 0.054706302
things	0.023809908 0.180175051 -0.184947491 -0.005122760 0.097626291 0.002063344 0.044442605 -0.007035715 0.039528158 0.085241131
similar	0.003446998 0.100141548 -0.136058405 -0.025219608 0.104573265 -0.027230563 0.007289190 0.029777650 0.038734023 0.025380163
parts	-0.020448240 0.083324179 -0.102466404 0.036365606 0.099607997 -0.050479218 0.033931036 0.033597745 -0.028282288 -0.006736720
internet	0.008493532 0.049727313 -0.119656295 -0.040497608 0.038246706 -0.053157832 0.049131416 -0.020465719 -0.003456944 0.074583545
fax	0.052492850 0.072687313 -0.123138115 0.028034979 0.068187609 -0.063875906 -0.001737915 0.033833683 0.012690578 0.032898463
cc	0.022927523 0.126785576 -0.059562206 0.031155864 0.022863908 -0.030546207 0.023241283 -0.033486631 0.013489249 0.041162588
man	0.056566630 0.084290184 -0.015361321 -0.011497098 -0.012585833 0.015929740 -0.024204092 -0.011987966 0.022834422 0.000417559
ac	0.024682947 0.102392390 -0.117149487 0.002741439 0.079559967 -0.027928781 0.073857717 0.045767933 -0.019259069 0.045472972
reading	0.065484330 0.009251095 -0.046153285 -0.014123548 0.064366095 0.017314801 0.003436826 -0.003126401 -0.046808362 0.025839157
minutes	-0.015866430 0.068742990 -0.076490305 0.009821138 0.067068748 -0.006636593 0.023948748 0.034049802 0.046890341 0.021413861
making	0.036223214 0.047662854 -0.029946810 0.039365143 0.024059644 -0.016344409 0.061265714 0.047159098 -0.012036688 0.048379835
general	0.058399424 0.085023560 -0.142517343 0.032213151 0.117481507 -0.021926243 0.052908577 -0.018333040 -0.031257536 0.082259089
big	0.053137258 0.135276765 -0.132071823 -0.020494698 0.114866383 -0.060869548 0.076510124 0.040143415 0.047516897 0.021837557
years	0.002879830 0.163442269 -0.179457054 -0.056366906 0.139702246 -0.040865246 0.073428616 -0.042403668 0.018895786 0.104992419
mine	0.045240790 0.113910682 -0.127171353 0.000097865 0.018948825 -0.051844686 0.039671402 -0.017233040 -0.037852146 0.023629045
sort	0.006080868 0.048070673 -0.074340500 -0.026806602 0.005126212 0.029213522 0.082001798 -0.037303548 -0.003728454 -0.005530379
application	-0.015676396 0.035554904 -0.115427099 -0.037316047 0.094897941 -0.009650170 0.045225594 0.022191485 -0.014984527 0.078607030
worse	-0.024319608 0.005935655 -0.060339201 -0.053027499 0.013087589 -0.011252079 -0.024890035 -0.026554892 0.017229104 0.001733346
read	0.043506466 0.132378906 -0.102110304 -0.020937854 0.112382896 -0.069378942 0.034707431 0.034260646 0.035575069 0.059099957
software	0.071955487 0.139878303 -0.142150357 0.037062101 0.064180695 0.008446991 0.036790889 -0.029515130 -0.028970875 0.062312204
james	0.043906927 0.083740063 -0.068039335 -0.026114967 0.088293307 0.021808689 0.013934953 0.007351267 0.006288404 0.053050082
low	0.001847439 0.141947269 -0.092889540 0.004983084 0.115765691 0.024162775 0.018784888 0.028081393 0.032728959 0.070234932
power	0.006342709 0.108931124 -0.190388501 0.032105546 0.044980668 -0.069418371 0.030407630 -0.022916127 -0.020759562 0.026730955
technical	0.020424420 0.036624596 -0.018875621 -0.003382384 -0.004639655 0.021048516 0.009862569 0.020660156 -0.003336417 0.044534095
org	-0.005797584 0.100883663 -0.059691675 0.025104940 0.089005925 -0.050737008 0.062987864 0.027148344 -0.017911121 0.074405812
city	0.036538351 0.072057933 -0.055312015 0.038072612 0.081791192 0.028171781 0.063582189 -0.001279165 -0.013874298 0.054862183
open	0.022395913 0.103536524 -0.071749657 -0.021708982 0.077879816 -0.007430320 0.047142137 0.036712300 -0.034850180 -0.010217651
interesting	0.026463708 0.117522836 -0.066834182 -0.046953719 0.038488477 -0.055190157 0.091071092 0.009092967 -0.011264344 0.019053306
experience	0.021272773 0.032467917 -0.081454992 -0.044162072 0.102710612 -0.057174306 0.034365553 -0.025193371 0.040764503 0.010810754
put	0.036831848 0.076602928 -0.104016170 0.037215419 0.120403729 -0.006362545 0.039619368 -0.030480659 0.023270151 0.069594674
light	-0.009076119 -0.008617953 -0.046994392 -0.046660274 0.051634751 -0.019023746 -0.037774723 -0.032961294 0.003083488 0.027518289
lot	0.007273588 0.089053728 -0.122034438 -0.043621540 0.064958520 -0.039702121 0.054461345 0.040303197 -0.026103670 -0.004522289
department	0.021346143 0.086932734 -0.063551508 -0.050811227 0.012548406 -0.042095795 0.005194383 -0.001726028 -0.041369751 0.006741234
email	-0.000617701 0.114876807 -0.069534540 -0.050521266 0.058175299 -0.007582547 0.020438233 -0.005529212 -0.000457789 0.038460054
run	0.024287341 0.147191271 -0.170060590 -0.028824776 0.058334630 -0.033962999 0.023626622 0.012720813 0.049834810 0.053826373
time	0.074130006 0.142572731 -0.139472470 -0.040664207 0.098094411 -0.056636579 0.091220841 -0.052215040 -0.029220469 0.035172742
response	-0.016111448 0.094850592 -0.064607404 0.033002298 0.088375203 -0.051370937 0.015832528 0.030244993 -0.003293064 0.053239897
stop	0.025018729 0.032982800 -0.079355143 -0.036584936 0.065980516 0.013463397 0.065246746 -0.001882838 0.032587584 0.010361732
ago	0.052327022 0.057309814 -0.162535325 0.038422208 0.036421005 -0.007853108 0.032594949 -0.000997200 -0.036734227 0.087327681
months	0.033736173 0.091993064 -0.078958727 0.035715908 0.011507773 -0.057533745 0.000836039 -0.028680097 -0.033800848 0.071899556
wanted	0.049562030 0.035341419 -0.029653637 0.029430402 -0.000032502 -0.038034067 0.040757380 0.048385240 0.039965566 0.011128044
references	0.024208469 0.086297050 -0.100193806 0.030639850 0.075813651 -0.005272309 0.031204108 -0.017441597 0.035735704 -0.016268525
rest	-0.018510012 0.101363033 -0.049231052 0.041447118 0.068217419 -0.065720409 -0.010277927 0.031245222 0.051719405 0.073696680
feel	0.018052641 0.026272729 -0.076869480 0.013442742 0.072321586 -0.048233129 0.021008089 0.046556585 -0.007688619 0.065884717
free	-0.003435486 0.059383072 -0.083924569 -0.025229815 0.072820388 -0.030027894 0.004140777 -0.004075703 0.023846390 0.010034728
stuff	-0.020599037 0.122365668 -0.067370757 -0.045387704 0.040831175 0.005486134 -0.008347958 0.036449961 -0.010198973 -0.000483692
result	0.030194037 -0.003349078 -0.078618854 -0.008421396 0.065806873 -0.045511078 -0.023337504 0.029771592 0.005780197 0.030796925
wondering	0.006639772 0.084818855 -0.045672759 -0.017932378 0.028684180 0.025301302 0.034691405 -0.019416781 0.034531299 0.008577108
hope	0.046011925 0.121865124 -0.099443592 -0.031591319 0.028409824 0.024869893 0.034152579 -0.019322850 -0.021311963 0.009232203
agree	-0.021277672 0.016318250 -0.124194123 0.024010871 0.084890611 0.003046970 -0.005481611 0.012673115 0.034271263 0.035115279
religious	-0.014075357 0.050000198 -0.017896179 -0.015858104 -0.040356845 -0.006390709 -0.015222417 0.018575191 0.010679005 -0.025781404
file	0.076975062 0.108690463 -0.120045729 0.043673892 0.079679780 -0.010388945 0.037982564 -0.045403179 0.032041717 0.028409064
box	0.000014944 0.121718951 -0.134604856 -0.005014069 0.014375533 0.015873311 0.015962929 -0.049753863 -0.032972436 0.053520840
robert	0.071117245 0.082872607 -0.154232949 0.043496471 0.070321403 -0.007957989 0.015286155 0.019094141 -0.026479578 0.015652156
net	-0.017826904 0.122869596 -0.124568306 0.017592842 0.129385293 -0.032440688 0.047418378 -0.012969061 -0.033721253 0.093529604
hard	-0.009269469 0.052786376 -0.142695919 -0.039936855 0.095593914 0.004339464 0.079009190 -0.007342678 0.037714332 -0.000493907
washington	0.059397053 0.125390679 -0.076253198 0.022618363 0.100840941 -0.027989965 0.000139875 -0.004159233 -0.043572586 0.020930728
clear	0.007729767 0.120451026 -0.110375501 -0.013013093 0.012538630 -0.014868008 0.051153600 -0.034629162 -0.028989442 0.045970645
today	-0.000124319 0.064782724 -0.129474312 -0.014519448 0.021515667 -0.015072609 0.077794559 0.001213298 0.051229861 0.009735245
mail	0.056667943 0.067143820 -0.136388466 0.028693555 0.029269625 -0.065790392 0.089979172 -0.028931543 0.015527357 0.005208992
mentioned	0.017414445 0.093650423 -0.076360211 0.015889836 0.021545507 -0.054056223 -0.002940284 -0.030131763 -0.039557088 0.033159781
design	-0.039625980 0.059650265 0.021407535 -0.042532209 0.045990363 -0.031594578 0.001343885 0.013945653 0.045340303 -0.008507821
gas	0.053775024 0.084803089 -0.063504264 0.031980250 0.068195768 0.001054043 0.036572840 0.044537824 0.015235608 0.037121218
project	-0.036575072 0.087313242 -0.057895008 -0.005697878 0.031204892 0.022479581 0.059544917 0.040925283 0.004494562 0.029053044
close	-0.020639729 0.099677347 -0.133982435 0.013186561 0.025020640 0.001350686 0.023518031 0.037169695 -0.006943915 0.065677382
form	0.040679540 0.103765182 -0.022981759 0.027833603 0.077722631 -0.036842983 0.077297293 0.027411805 -0.036525641 0.023317302
division	0.031287424 0.065807648 -0.115107872 0.010051321 0.106933482 -0.070608914 0.077610940 0.039786484 0.044304788 0.080032781
key	0.028817192 0.123505160 -0.089669831 0.007094164 0.091401123 -0.008792923 0.058651354 -0.024103183 0.051106066 0.069526881
high	0.069646738 0.153395876 -0.105225295 0.009614726 0.042737406 -0.000039422 0.089080192 0.031361010 -0.026810925 0.079325363
original	-0.020054381 0.051002245 -0.103434108 -0.010783075 0.098754175 0.007338407 0.008206926 -0.048549864 -0.012280697 0.022022968
including	0.001710312 0.110038698 -0.103996128 -0.003220804 0.102962010 0.022392858 0.053024046 -0.015088168 0.016378190 0.081869952
understanding	0.035572492 0.039811589 -0.039559118 0.016656689 0.060335752 -0.033452027 0.019553224 0.033946902 0.044971589 0.048176385
late	0.043210700 0.043462671 -0.116627909 0.021073958 0.039840542 0.021785971 0.073575437 -0.021947334 -0.011037546 0.054008774
send	-0.013065005 0.084475614 -0.101650245 -0.000341270 0.007227683 -0.004656299 0.071356915 0.017203128 0.004888670 0.075304635
au	0.027398882 0.069973230 -0.117525347 0.038468342 0.048113152 -0.022845779 0.083675064 -0.049035329 -0.001524080 0.007821802
issue	-0.010860319 0.108970150 -0.089639917 -0.008728012 0.013709948 -0.029764049 0.020540224 0.002309289 -0.008334627 0.013564435
technology	0.099442244 0.138184741 -0.227322817 0.028387548 0.148511887 -0.034666087 0.083572894 -0.053390931 0.020896824 0.066634126
contact	0.030145988 0.142654613 -0.147099048 0.040546369 0.068348765 -0.050054345 0.081432119 0.006322108 0.047447756 0.037929483
engineering	-0.003025410 0.025601801 -0.054516125 -0.006508940 -0.008600427 -0.013301237 0.041365683 -0.005182630 -0.043895625 0.057927787
international	-0.033686157 0.102510504 -0.077256858 0.006195078 0.072343841 -0.005442703 -0.017372172 0.045356728 0.015947159 0.030430734
final	0.043666732 0.072190195 -0.024948748 0.040772408 0.060447115 -0.010635173 0.000700847 -0.032957301 0.004350469 0.010251288
taking	0.036789056 0.060283203 -0.080900036 0.043180384 0.043704733 -0.019616168 0.070725814 0.042474568 0.003924686 -0.007425587
computing	0.048076130 0.090820514 -0.046221804 0.031922333 0.040569797 -0.054669105 0.035998020 0.018476022 0.018439911 -0.012996059
government	0.002130064 0.131252676 -0.134663790 -0.051356442 0.089136064 -0.072717920 0.012287874 -0.005774522 -0.023246516 0.017544383
network	0.033499081 0.092987895 -0.071916044 0.024068981 0.010704853 -0.026276069 -0.007524190 -0.001121714 0.024964711 0.029716671
folks	-0.028184457 -0.003373995 -0.078257464 0.028982624 -0.029083321 0.027075037 0.056562517 -0.023880178 0.006250057 -0.031502511
mac	0.008679016 0.060464054 -0.017101381 0.002375890 0.071125910 -0.052038275 0.072549067 0.035542786 0.012114369 0.035008609
price	0.006567985 0.061817098 -0.011439827 -0.019503940 -0.021031363 0.027090384 0.011041719 -0.026831081 0.047956873 0.032581761
disk	0.052949920 0.070429184 -0.097495757 -0.007675277 0.068612188 0.007486323 -0.010848904 -0.050068371 0.006303237 0.051805135
day	0.055669587 0.052742865 -0.095829710 0.029509583 0.115024284 0.002066461 0.094033025 -0.014119858 0.049809497 0.027032273
money	-0.008028149 0.073387347 -0.158544585 0.002649976 0.039005097 -0.061178058 0.102794819 -0.031682942 0.047653101 0.101654835
post	0.064568736 0.155765399 -0.218675658 -0.060041264 0.118224531 -0.037936315 0.063197486 0.006401091 -0.032358617 0.056506794
makes	0.068135731 0.127685174 -0.156207412 -0.034918070 0.120225117 0.002760247 0.008791127 0.036920287 -0.008805992 0.089084923
cost	0.002689820 0.034282111 -0.130081460 0.035402942 0.092799224 0.016487561 0.084220596 0.012769727 0.051974289 0.014942501
coming	-0.020821463 0.041315146 -0.089776605 -0.029695127 -0.002219660 -0.012079027 -0.011533271 -0.020145902 0.014392091 -0.012743543
company	0.010167209 0.143562868 -0.076781131 0.005737463 0.025836218 -0.038794957 0.042117629 -0.046335973 0.021161349 0.081403196
ibm	-0.035206273 0.063046709 -0.040257476 0.042255145 0.032816976 0.031530365 0.054430872 -0.011825223 0.015189432 0.066675708
assuming	-0.008963106 0.073075406 -0.010667521 -0.003956818 -0.018390153 -0.024691371 0.057957932 -0.028971853 0.022975128 0.064723231
interested	0.022173433 0.046398252 -0.060495183 -0.011371826 -0.014448624 0.012015938 0.049160071 0.033105996 0.000014729 0.011813214
hear	0.011048937 0.046479046 -0.058604550 -0.038341500 -0.007704045 -0.027985981 0.001361194 0.001639644 -0.015566262 0.016579965
talking	0.003336404 0.040409692 -0.113503672 0.015905533 0.077379346 -0.022304339 -0.004937179 -0.025551902 0.043818645 0.076506279
college	0.010327226 0.035646819 -0.064962424 0.042055249 0.079914637 -0.050597362 0.016811287 0.038642488 0.047322951 0.065980934
care	0.002613676 0.085598059 -0.066068627 0.036733583 0.017781498 -0.055689331 -0.008733273 0.016553441 -0.032717321 0.029597688
situation	-0.017470298 0.083410732 -0.112738542 -0.008564105 0.102667376 0.011565997 0.060702745 -0.014873281 -0.004829944 0.034883276
faster	-0.002185637 0.122806266 -0.068961747 0.035530228 0.025563866 -0.013628537 0.089842826 0.017591119 0.000990445 0.061028790
card	-0.001886876 0.093596213 -0.141116455 0.025434928 0.042121664 -0.068981983 0.043044519 -0.042054083 0.006579094 0.076950133
ram	0.080357783 0.116985358 -0.135164991 0.037819676 0.091926396 -0.019613229 0.065622129 -0.033836178 -0.005526651 0.052627146
opinion	0.049160760 0.073613137 0.001904202 -0.047348894 0.066866510 -0.015763359 -0.004417078 0.013617010 -0.020903954 0.015033392
pay	0.062864326 0.017400462 -0.026268357 0.035927650 0.019469570 -0.049930047 0.025743030 -0.003235818 0.028823651 -0.000075195
early	0.018314729 0.096564285 -0.042761706 -0.051815294 0.079697192 -0.007408278 0.069688037 -0.020742221 0.011843054 0.042869065
dos	0.054428127 0.081351809 -0.057899699 0.045814086 0.057277121 -0.060302049 0.075312242 -0.019576998 0.015104269 0.022605438
institute	-0.010706509 0.042303283 0.002700703 0.019551992 0.037154719 -0.021327483 0.012895211 -0.050129525 -0.035263024 0.027714474
ms	0.018773783 0.024577988 -0.062837824 0.020147156 0.033417348 -0.032441467 0.017236151 0.036808364 -0.008041877 -0.007081645
sound	0.004755728 0.063688323 -0.024634955 -0.014201929 0.052701712 0.012455985 0.037469171 0.004927364 -0.002267761 0.057781473
fine	0.019775804 0.066571422 -0.159189686 -0.009620842 0.036561023 -0.029686652 0.026300235 0.006238358 0.022772459 0.079091139
left	0.079003736 0.080922894 -0.130295306 0.021180293 0.117462657 0.003188735 0.011207943 -0.029029159 0.030372374 0.054250076
jim	0.053306572 0.009525500 -0.041393861 -0.032214154 0.029624946 0.018735021 0.041091993 0.013119020 0.048146397 0.056311619
deleted	0.017366907 0.035075683 -0.142981455 -0.055467349 0.049128033 -0.025089217 0.062656164 -0.031404104 0.020134855 0.016866323
game	0.016238330 0.105722994 -0.110563204 0.004792696 0.073415279 -0.008660817 0.064888962 -0.004150253 -0.026848720 0.024276890
mind	0.025007412 0.079136692 -0.088308454 -0.016099948 0.085192911 0.023106093 0.071961209 -0.041614182 0.033622105 0.071298249
rights	0.039867278 0.030087970 -0.091939919 0.040930949 -0.006451149 -0.036020767 0.037878312 -0.033341758 -0.037046723 0.006008233
due	-0.020165056 0.090062097 -0.089072697 -0.003532635 0.053463981 -0.036428988 0.018547950 0.008006277 0.028157150 0.038585465
guess	0.047128100 0.086564638 -0.121954143 -0.009054266 0.030955819 0.026818875 0.078974806 0.014497206 -0.042351536 0.036371667
type	-0.003611884 0.055298921 -0.087449878 -0.041572016 -0.002496042 0.021555696 -0.014967221 0.019358607 -0.025865417 0.014441508
david	-0.016564732 0.112145267 -0.075048380 0.014175490 0.106354080 -0.051654469 0.021105533 -0.030489409 -0.001802339 0.038034193
bad	0.004418578 0.077211216 -0.130435124 -0.018717175 0.036738273 -0.012801333 0.093169205 -0.050063256 -0.008417394 0.020376952
home	0.029063994 0.085343577 -0.024773587 -0.035106186 0.014087190 -0.038114052 -0.011955044 0.024909344 -0.031751823 0.027761834
dod	0.031988740 0.051223308 -0.078860760 -0.045502920 0.007721630 0.021298796 0.033460498 0.040980261 0.020041054 0.012654581
sale	0.056910545 0.013505364 -0.086506136 -0.038861945 0.049191959 -0.055919774 0.031059971 -0.016572600 0.049078032 -0.001834195
reason	0.019064439 0.094635002 -0.060775105 -0.014128469 0.027191067 0.024010703 0.064209439 -0.051556062 0.020627977 -0.003847702
bill	-0.024549205 -0.011419878 -0.043736197 0.011548611 0.018174686 -0.048699163 0.017136725 0.029380415 0.018072851 0.003101402
de	-0.017552277 0.048609842 -0.054826062 0.008749831 0.040706929 0.021826716 0.010734894 0.009271784 -0.009472238 0.036826279
chip	0.033244561 0.110479794 -0.158959806 -0.005696410 0.127354518 -0.058376376 0.055093389 0.020331154 -0.027864676 0.082854949
phone	-0.013048604 0.155045062 -0.169725865 -0.051562183 0.097379550 -0.073911674 0.099378638 0.023200750 -0.034205664 0.030319849
population	0.071687460 0.126784891 -0.205924869 -0.045230035 0.073703036 -0.016145509 0.097068138 -0.038077764 0.018185003 0.110823922
show	-0.016403146 0.033364657 -0.091938779 0.006679606 0.048203733 -0.047467593 0.020314230 -0.004642530 -0.036202405 -0.002631450
possibly	0.005628413 0.010335272 -0.078764968 -0.045159120 0.027854949 -0.033998989 0.070940331 -0.044475093 0.036953725 0.049616627
set	0.040823322 0.098319508 -0.049552925 0.006601624 0.057030275 -0.064683422 -0.009189293 -0.043955483 -0.044867896 0.011218181
times	0.059608892 0.110452749 -0.165218860 -0.039210469 0.076401219 -0.036312766 0.058479205 0.026557457 -0.029513083 0.079245828
idea	0.011890164 0.102624387 -0.032754324 0.044374373 0.039390251 0.000920609 0.036728647 -0.049911857 -0.011858463 0.059411868
school	-0.011030798 0.042138208 -0.062339634 -0.016695878 0.005759350 0.026417693 0.051165201 0.021020371 0.020734940 0.021522872
simple	0.023000877 0.106137924 -0.049075317 0.011821882 -0.003712882 0.005304416 0.037591211 0.021642406 0.037968345 0.065708637
front	0.051065728 0.087826617 -0.135466725 0.003648508 0.084541500 -0.048892353 0.058449011 0.012908505 0.004055524 0.083143488
originator	-0.034289677 -0.016963918 -0.063019782 -0.012065226 0.057002842 -0.013519140 -0.006319701 0.045819920 0.025125897 0.041862987
hand	0.044315152 0.149186015 -0.074130505 -0.053890787 0.046927877 0.005622125 0.006235473 0.038396031 -0.001856647 0.095312864
canada	0.016484380 0.057334125 -0.003945809 0.016463429 -0.025610503 -0.043308198 -0.030332917 -0.005961059 -0.011869563 0.003609795
related	-0.015276494 -0.013556820 -0.031911373 -0.035422012 0.056156177 -0.013173755 0.056572434 0.004910239 -0.016141405 -0.004443371
class	-0.035689332 0.048945297 -0.072041199 0.029829144 0.001775241 -0.024715729 0.001211465 0.000433261 -0.044645250 0.025064105
figure	0.036611326 0.009802927 -0.042175315 -0.000477141 0.076409474 -0.019011050 0.024790542 0.011362655 0.052821048 0.005931668
pc	0.057133608 0.108151697 -0.085035689 0.039696496 0.027445521 -0.001592008 0.089840755 0.037253145 -0.044276413 0.077891797
car	0.042569932 0.121602930 -0.171691805 -0.006178221 0.098489314 -0.049860738 0.033046417 0.008182866 0.035412323 0.041402828
toronto	0.052529510 0.119950555 -0.085796699 -0.011863510 0.019779831 -0.057136804 0.019724188 -0.042297456 -0.034142919 -0.007328387
board	0.001896181 0.026604466 -0.046959970 0.039850872 0.027705915 0.024666097 0.045028444 0.021209843 0.026771752 0.065272786
appreciated	-0.027891248 0.026502337 -0.061228856 -0.001653917 0.009876057 -0.025426660 0.069190986 0.044750456 0.019152112 0.062070496
history	-0.019226929 0.090169065 -0.072379902 -0.023724072 0.030021619 0.022427693 0.042938650 0.005907558 -0.012264438 0.049455766
exists	-0.001862325 0.013736947 -0.018603375 0.045999166 0.008528868 0.010124825 0.058398917 -0.007073358 0.049236443 -0.009351787
love	0.054358989 0.099609323 -0.128561452 -0.045073628 0.088307068 -0.049176004 0.026206097 0.017449109 -0.019004120 0.037898853
law	0.043694399 0.080060177 -0.071913652 -0.028462045 0.067849867 0.016293265 -0.001753415 0.024601582 -0.041030806 0.050931718
order	0.010831343 0.093400963 -0.084674552 0.029942021 0.027829671 0.031123808 0.021716136 -0.038650461 0.016846651 -0.018863901
week	0.029108763 0.041566901 0.007683007 0.005656654 -0.003401280 -0.012777440 0.009088237 -0.030883703 0.048486717 -0.022178531
hardware	0.069457889 0.045202259 -0.095149860 0.043188766 0.111125730 -0.020881966 0.021573229 -0.020560520 0.003387795 -0.004986246
drive	0.071277924 0.100566365 -0.131617174 -0.017734624 0.036554076 -0.067302383 0.074521437 -0.009161130 -0.002661674 0.046604786
jews	0.033740658 0.082137875 -0.110605292 0.003522034 0.091736957 -0.052405261 0.111954458 0.007286330 0.021106858 0.028798284
code	0.027832601 -0.011080562 0.009675717 -0.023229145 -0.021743018 0.042857107 0.003556483 -0.021577844 0.012122140 0.027593285
mike	-0.024506237 0.036423605 -0.029104926 -0.044179142 -0.030814333 -0.016641101 -0.025340943 -0.029443648 0.048096485 0.007541699
lost	-0.010633955 0.059148785 -0.049145058 -0.027582457 0.024507249 0.021826103 0.033515643 -0.027617522 -0.029919894 0.048599832
continue	0.061027609 0.075055480 -0.033515092 0.025653923 0.031428020 0.030476905 0.006184453 -0.023139255 0.027284641 0.024103846
list	0.053189192 0.152626023 -0.205058724 0.007568118 0.080338888 -0.056129627 0.043027196 -0.001345873 0.011987572 0.089037903
person	-0.009858112 0.000322625 0.008280114 -0.032058172 -0.025791803 -0.049657539 0.028089428 0.004687310 -0.003490161 -0.012421924
sell	0.053673413 0.040814802 -0.118909262 -0.018146995 0.074470408 0.027516602 0.081512876 0.040207893 0.018433781 -0.001674605
thinking	-0.023925655 0.032975484 -0.014252884 0.021616556 -0.011434232 -0.027719790 0.055550385 0.030006824 0.018157894 -0.027735094
