control	-0.141291723 0.008095823 0.092259690 0.106456555 -0.056521196 -0.026653506 0.095224358 -0.067451283 0.054539468 0.093285754
ca	-0.110796042 -0.010460755 0.105109654 0.072075002 -0.039851192 -0.044597674 0.074879169 -0.110150009 0.120301671 0.110268764
university	-0.084283665 0.001176099 0.057291951 0.085616902 -0.069272146 0.010450696 0.146959126 -0.149961874 0.088384517 0.038372312
toronto	-0.115728959 -0.042685796 0.023962716 0.065909259 -0.030569792 -0.060618464 0.076261997 -0.047586776 0.064275153 0.085201837
systems	-0.057830878 -0.047456492 0.001375572 0.052658834 0.008255502 -0.032898463 0.087152146 -0.049658138 0.076661773 0.035133563
group	-0.137550801 -0.046070009 0.042046223 0.093898103 -0.059083350 0.006084795 0.119349234 -0.144918039 0.066646956 0.068548702
article	-0.133661121 -0.053008754 0.142840743 0.153501034 0.003672780 -0.058637455 0.196226805 -0.144199565 0.153238446 0.066509329
writes	-0.161183372 -0.035941083 0.137703151 0.139965519 -0.001508455 -0.066632934 0.248013183 -0.147793502 0.115197800 0.102593206
mike	-0.092387222 -0.045008197 -0.001823109 0.101983033 0.001655347 -0.030455986 0.090221636 -0.050490804 0.061212067 0.051965170
time	-0.169139251 -0.082384765 0.153390512 0.151003003 -0.061161395 -0.002238683 0.121074200 -0.160241917 0.134633139 0.050536964
real	-0.045736145 0.010625583 0.105162680 0.096938148 -0.003922724 -0.025878135 0.151585534 -0.060078587 0.029509753 0.092887029
steve	-0.073564544 -0.024487905 0.121873818 0.104343861 -0.019597759 0.008601271 0.127999678 -0.042280324 0.108427197 0.102411352
cs	-0.077695467 -0.003254114 0.091192208 0.131290063 -0.043146361 -0.057764418 0.099184819 -0.122948535 0.053290665 0.113830701
reply	-0.101391122 -0.065873347 0.051033717 0.145554960 -0.001004385 0.017811980 0.133220896 -0.132510558 0.063185610 0.053224307
world	-0.123768337 -0.047755715 0.098013751 0.170760095 -0.027741875 0.012202183 0.156599924 -0.132922798 0.042358909 0.081017569
message	-0.046954215 -0.064694442 0.096976064 0.117619306 0.028914161 -0.021155054 0.121257640 -0.070278503 0.049144518 0.094244674
apr	-0.074484162 -0.058437634 0.112517282 0.116291344 -0.017067295 -0.003906189 0.115316592 -0.111516632 0.074235007 0.070511356
originator	-0.005332520 -0.042880788 -0.014196863 0.049437914 -0.020144524 -0.033148099 -0.016511928 0.024236163 0.058540687 0.012542996
nntp	-0.129373729 -0.075281493 0.115391098 0.148996100 -0.061243434 0.013638465 0.151442990 -0.160948649 0.056487892 0.059799910
posting	-0.193162367 -0.075665690 0.142714694 0.138822809 -0.004752283 -0.075921156 0.169465616 -0.215975732 0.113099791 0.074437842
host	-0.203838617 -0.074088849 0.171824202 0.142091081 -0.052523881 -0.074303731 0.209214509 -0.206641123 0.121862739 0.148265675
school	-0.078390464 0.006693827 0.048760302 0.076886162 0.032102827 -0.029258540 0.052618928 -0.032043565 0.080401227 0.000467351
computer	-0.179316208 -0.019945487 0.130681708 0.105527110 -0.015719090 -0.006968092 0.191269234 -0.161207840 0.102625281 0.142324463
science	-0.094859146 -0.014336562 0.029475071 0.118014872 -0.022473011 -0.005912555 0.080524139 -0.067291103 0.058135882 0.018695131
great	-0.113218226 0.008683980 0.132636264 0.112102941 -0.049404413 0.029178157 0.143123493 -0.160893232 0.114474811 0.082271405
live	-0.119690597 -0.052887913 0.112063788 0.099111959 -0.002663880 -0.019020915 0.139519572 -0.115380593 0.035204269 0.059855293
guy	-0.051762238 -0.031034190 0.055041134 0.109566249 0.027601428 0.009256542 0.085335039 -0.054162033 0.053907488 0.065237239
talking	-0.137307495 -0.068497732 0.090519831 0.125990734 -0.069192119 0.003038717 0.134431437 -0.143838122 0.114215411 0.056430362
agree	-0.012658885 -0.061972614 0.012304734 0.022039309 -0.036081389 -0.009720282 0.071613528 -0.048272274 0.050819714 0.068299152
internet	-0.075549029 -0.049036875 0.070465229 0.069235265 -0.012195903 -0.050878502 0.104883537 -0.057199847 0.043930564 0.065508306
phone	-0.068031393 0.020862048 0.032227375 0.101354614 -0.036495350 0.020843305 0.104503036 -0.112918653 0.100361057 0.013072146
fax	-0.062471908 -0.041300535 0.059057493 0.018390793 -0.002704283 0.014644568 0.082185864 -0.035802256 0.066161498 0.024252394
usa	-0.050995883 -0.011249683 0.074424095 0.110660948 -0.057082489 0.023343354 0.117577516 -0.097455502 0.027064331 0.084557608
nasa	-0.081176527 -0.073724717 0.080180824 0.186527193 -0.064464293 0.029120343 0.131869406 -0.172716603 0.093000479 0.039327119
gov	-0.071251944 -0.024768673 0.058092512 0.122790888 -0.004129410 -0.000721697 0.099634275 -0.047343783 0.091920137 0.072539166
related	-0.089563258 -0.022693858 0.085677773 0.073801346 -0.051848058 -0.036987085 0.076443359 -0.105845056 0.042407170 0.065051496
research	-0.101332307 -0.071214944 0.067529254 0.128929347 0.026766663 -0.014205423 0.101424575 -0.104860090 0.067673355 0.008558689
center	-0.124857627 -0.075264804 0.040950757 0.135456935 0.020728953 -0.039764106 0.124075808 -0.104285717 0.051701359 0.024543671
sci	-0.052537583 -0.061984893 0.010502059 0.106483690 -0.026014837 -0.051269252 0.081960797 -0.078679524 0.064635783 0.076219387
news	-0.060630836 0.005769451 0.115847386 0.141378939 -0.045422971 -0.052695531 0.067808345 -0.154804677 0.086266860 0.058269747
state	-0.095881142 -0.050639480 0.114922486 0.116179213 -0.030035587 -0.052870426 0.141397968 -0.197604597 0.055757932 0.141121149
references	-0.050367232 0.001190560 0.092180155 0.066399738 -0.019849176 0.017023891 0.045288574 -0.058626324 0.078537241 0.052364830
date	-0.069887616 -0.012610244 0.093175709 0.043485291 -0.023430752 -0.016502395 0.111161456 -0.114106491 0.047222260 0.089846216
mark	-0.068531878 -0.041397292 0.034730084 0.074226275 0.000035151 0.004186978 0.121541381 -0.069515638 0.115659982 0.009285870
robert	-0.030056057 0.022266425 0.069838189 0.091370955 -0.044717237 -0.018413296 0.082601078 -0.084617168 0.038544852 0.010784290
remember	-0.092459820 -0.064383082 0.065694399 0.140496641 -0.059419654 -0.012348839 0.128182545 -0.092426136 0.107879646 0.118383490
years	-0.179101363 -0.010060541 0.102020957 0.153424710 0.004173381 0.005279645 0.161248833 -0.186720893 0.130036235 0.135176361
back	-0.129881710 -0.070014797 0.119626433 0.149054781 -0.048788667 0.003421374 0.096731700 -0.112386107 0.097008713 0.092846304
interesting	-0.063545145 0.019363137 0.022256106 0.094113104 0.005618193 -0.024870763 0.063490339 -0.091150425 0.083333217 0.075817153
results	-0.084223576 -0.001461662 0.092191152 0.095525935 -0.054505587 0.008090569 0.108645521 -0.072338447 0.033075456 0.039502952
people	-0.158859417 -0.073656127 0.193639234 0.219187453 -0.066946469 0.010306205 0.220138371 -0.195386261 0.147947177 0.183860481
made	-0.086536661 -0.002775786 0.122967146 0.076094694 -0.036656979 0.014605864 0.105596930 -0.141667753 0.076813050 0.084910430
children	-0.087831967 -0.031773716 0.080868565 0.067810856 0.020801932 -0.035140090 0.097764120 -0.026374910 0.051956441 0.007725039
add	-0.016480032 -0.067179322 0.054442838 0.097616002 -0.003186209 -0.011324230 0.106235690 -0.034875475 0.029449210 0.066434793
show	-0.026590638 -0.054777212 0.060811441 0.058517609 -0.046694648 0.043090470 0.102121711 -0.036298797 0.030074740 0.035164859
fact	-0.113811202 -0.021557078 0.068433732 0.084993772 -0.065093145 -0.001881969 0.091003202 -0.144642457 0.129118025 0.036332164
continue	-0.076305009 -0.018556003 0.038590737 0.030609442 0.005536708 -0.006396431 0.040556587 -0.060949247 0.036299299 0.052072871
major	-0.043980971 0.033186492 0.031469684 0.069133990 0.017615430 0.031166263 0.059474025 -0.082022458 0.044913538 0.003324212
interest	-0.037206512 0.037490003 0.040086120 0.040233128 0.001314255 0.021980517 0.046324927 -0.032965951 0.004396227 0.007787845
problem	-0.182008654 -0.070733480 0.164744750 0.140675679 -0.026050832 -0.055212129 0.118842326 -0.177946672 0.118508458 0.097933896
mine	-0.076369643 0.022264605 0.100721829 0.114690676 -0.007786778 -0.028543785 0.090116806 -0.057958033 0.012170944 0.069018587
response	-0.013826772 0.017099818 0.069971353 0.090977468 -0.055111468 -0.032918442 0.088826321 -0.052191526 0.064754449 0.046528682
makes	-0.073607400 0.024559591 0.048424736 0.077252977 -0.039576698 0.021175019 0.048151504 -0.065306261 0.046690274 0.082658261
lot	-0.100239374 -0.053714968 0.120759837 0.147630036 -0.004729682 0.008322452 0.158117384 -0.088637881 0.069711827 0.111252658
history	-0.075351067 -0.038233537 0.021750225 0.053380650 -0.016119808 -0.039374515 0.018878929 0.004975484 0.029719409 0.040053803
including	-0.099176474 0.000189802 0.073135376 0.066952445 -0.032427832 0.031729873 0.050607324 -0.100137264 0.079902582 0.057622127
day	-0.087793007 0.009543153 0.055257343 0.084840611 -0.024277074 -0.037944000 0.104947530 -0.079173826 0.039253771 0.052181609
work	-0.108502954 0.027533667 0.108851127 0.130379722 0.016754802 0.020862509 0.063312568 -0.123168476 0.025507269 0.065656222
home	0.007646532 -0.039839294 -0.018218204 0.032952152 -0.051130231 0.038479839 0.014505132 -0.000696289 0.013342858 0.020974740
cc	-0.066512235 -0.001368832 0.088731848 0.119118698 -0.068228990 -0.025072044 0.151395082 -0.120094486 0.074019372 0.018183459
technology	-0.060071338 -0.029903211 0.094509006 0.084595390 -0.068436846 0.032125574 0.122388326 -0.085102983 0.127520502 0.100654006
computing	-0.087380104 -0.020887371 -0.006286507 0.079514079 -0.053780518 0.011320747 0.068630822 -0.063829094 0.004145757 0.004319310
distribution	-0.123583123 -0.000993630 0.103864312 0.160374835 -0.008371027 0.030172434 0.101604484 -0.126653835 0.097273223 0.039732110
things	-0.133552894 -0.048875172 0.139442950 0.101076476 -0.049657747 -0.030158488 0.191589713 -0.125366971 0.060184728 0.080646068
memory	-0.027076207 0.012944237 0.053045388 0.029166870 -0.056525882 0.038671073 0.052022427 -0.047422525 0.037874661 0.059940506
based	-0.130422071 -0.063156724 0.031845674 0.060547762 -0.012871679 -0.014418425 0.130770013 -0.141303211 0.059236795 0.053444810
small	-0.096482597 -0.064805217 0.125540733 0.140476778 -0.028321369 -0.052933242 0.135072276 -0.077486858 0.036365777 0.072414450
call	-0.126321852 -0.014399943 0.097094640 0.169496179 -0.044161372 0.012877173 0.156558782 -0.167443186 0.066544704 0.123330548
numbers	-0.098849900 -0.033633053 0.044645935 0.044554353 -0.061277419 -0.049657397 0.110741861 -0.065595418 0.034293652 0.097873956
pretty	-0.049510937 -0.028263373 0.003104275 0.010513660 -0.028889604 -0.056444645 0.101916030 -0.034206901 0.068828098 0.028007213
good	-0.060730238 -0.043908261 0.105762713 0.077850617 -0.025066178 -0.049602713 0.144625053 -0.098055474 0.082179137 0.091531157
idea	-0.079080649 -0.036588892 0.059605449 0.124621682 0.021039525 -0.049873389 0.120569088 -0.093390390 0.086144865 0.068661578
man	-0.015673760 -0.007928433 -0.018778576 0.046363842 0.042167705 -0.011537978 0.024176305 -0.000139790 0.049348284 -0.002776623
understanding	-0.062986962 0.034851789 0.007296956 0.087464891 -0.021996630 -0.001085789 0.037041169 -0.073163927 0.029751847 0.036817867
space	-0.119885758 -0.070729308 0.173969299 0.124281861 -0.003508141 0.004572740 0.152157292 -0.203014791 0.094692916 0.113090135
disclaimer	-0.089832015 0.001581781 0.066648394 0.109503061 -0.009658793 -0.025895571 0.100463666 -0.120171495 0.104342416 0.067125008
large	-0.017391153 -0.003100482 0.043889683 0.025814526 0.031219739 -0.027010601 0.034536552 -0.070869125 0.028148171 -0.017020643
dept	-0.050658755 -0.048603386 0.062707633 0.002514060 0.029831741 0.037999991 0.085589126 -0.085023500 0.073440403 0.077471495
engineering	-0.117885232 0.022880925 0.037644599 0.121168040 0.026878040 0.034423761 0.069261514 -0.054205853 0.080432884 0.016290395
key	-0.124699086 -0.039229307 0.104256392 0.117640086 -0.012177607 -0.056474000 0.168773428 -0.107488841 0.099995449 0.112704195
bit	-0.102351502 -0.020302780 0.069567010 0.119641744 0.017587997 -0.011932976 0.146952331 -0.154656082 0.137809411 0.078177236
heard	-0.070327081 0.012161144 0.067524336 0.103953391 0.022030059 -0.055485230 0.107249916 -0.096868873 0.074164301 0.060515188
place	-0.125545487 0.006766394 0.044946544 0.134544343 -0.004447135 -0.000083721 0.105060197 -0.149869591 0.055022050 0.110768981
david	-0.076911733 -0.064733177 0.034931831 0.113893241 0.020372806 -0.044278134 0.136745691 -0.098907202 0.060928144 0.039867487
college	-0.082901649 0.011057520 0.061655480 0.065660223 0.013075633 -0.051263526 0.066705063 -0.047042564 0.065397143 0.037055023
current	-0.117926121 -0.030384082 0.047880050 0.094298691 -0.045221288 0.019195685 0.069926746 -0.123966627 0.090469234 0.041928742
service	-0.086008839 -0.061678801 0.030694816 0.028370041 -0.000486234 0.031807337 0.051450983 -0.061423212 0.082638472 -0.011076459
mind	-0.069083132 -0.047394592 -0.007075328 -0.003001801 0.009012578 0.024265293 0.000734878 -0.039627984 0.037726425 0.061415359
read	-0.138728619 -0.006218594 0.039597049 0.107987002 0.026144572 -0.012764644 0.159815162 -0.139569774 0.028793905 0.110304698
post	-0.173854783 -0.065233380 0.144044116 0.163719207 -0.077215888 -0.061931986 0.171459943 -0.204776466 0.163174883 0.171260804
truth	-0.121204942 0.012301082 0.072315902 0.073808715 -0.026683277 -0.049283639 0.089662164 -0.130367056 0.077896558 0.053824965
light	0.005729511 0.034131330 0.049474061 0.075050741 0.009559069 -0.016880199 0.020758381 -0.062899970 0.017564962 0.042758860
error	-0.055471133 0.009162142 0.023013730 0.075318053 -0.047040105 0.016194791 0.022230770 -0.085889697 0.033323430 0.067824066
god	-0.127801642 -0.054818090 0.077628322 0.169378370 -0.055223960 0.011529818 0.096886612 -0.163577989 0.147108212 0.121766657
love	-0.067690544 0.027097754 0.094247356 0.005355907 -0.039444596 -0.014417900 0.091180302 -0.075993553 0.084026471 0.085337631
care	-0.083261147 0.014970016 0.070141219 0.051388700 -0.044226356 0.007785904 0.019220339 -0.055841673 0.068184793 0.032120798
called	-0.114472598 -0.011171516 0.083594359 0.135006741 -0.066198595 -0.049475420 0.088951401 -0.110580765 0.108644389 0.018887915
means	-0.128408238 0.025112512 0.046113249 0.131558686 0.013391325 -0.048799437 0.131212100 -0.054941572 0.057392646 0.081808507
important	-0.059727043 -0.002949334 0.056636278 0.032027341 0.025423380 -0.052749433 0.047434557 -0.060294341 0.026960408 0.028073739
give	-0.101561219 -0.015661562 0.047099311 0.134275377 -0.041505817 0.014553873 0.103759609 -0.085927613 0.036106694 0.116610169
system	-0.129508689 -0.028963333 0.132242024 0.101898365 -0.009576585 -0.053719565 0.108060509 -0.124007568 0.075131349 0.056713488
institute	-0.058168571 -0.051954869 0.067950323 0.058466580 0.035632040 -0.039660476 0.121740595 -0.025312597 0.017488170 0.050607711
wrote	-0.046011787 -0.051508427 0.108934797 0.073298752 -0.028071372 -0.029473595 0.086589351 -0.081281900 0.121782012 0.109534748
application	-0.120058507 -0.036652904 0.091830552 0.038652647 0.024899019 0.028349565 0.061607860 -0.115259610 0.046551820 0.084927596
thought	-0.065635927 -0.010218080 0.063986242 0.037523597 -0.009153265 -0.002572187 0.050136596 -0.008634154 0.013676126 -0.001733248
net	-0.079277769 -0.040727638 0.086562261 0.089902282 -0.054510269 -0.056184422 0.064407557 -0.103993736 0.102658607 0.096987583
mail	-0.109394930 0.007513586 0.085790187 0.058106381 -0.067107774 -0.041752808 0.082637660 -0.104987592 0.117702127 0.090059467
close	-0.085449472 -0.001341767 0.050147846 0.113338120 -0.018635835 -0.047554709 0.120975375 -0.042538755 0.078563496 0.103153914
machine	-0.064271793 -0.055831548 0.096462213 0.058296539 -0.065144762 -0.008629121 0.122683465 -0.093614399 0.046842881 0.098455161
file	-0.066541605 -0.026374785 0.091627747 0.052700642 -0.057211485 0.011083164 0.138025612 -0.104861185 0.026192561 0.060158286
long	-0.112615302 -0.077188410 0.107794926 0.085417181 -0.036808167 -0.006021148 0.125222161 -0.144679010 0.126160100 0.115400434
receive	-0.094555847 0.024558937 0.018358896 0.030554524 0.026927106 0.034398001 0.066996969 -0.029831603 0.054749668 0.034920994
stuff	-0.018211870 -0.055746004 0.027526379 0.011784113 -0.038269848 -0.009823605 0.075838685 -0.112208486 0.013988405 0.084418401
drive	-0.138425916 -0.055316258 0.089255810 0.081641972 -0.045166485 -0.034617946 0.136253774 -0.082731351 0.056776233 0.073518269
set	-0.044236466 -0.027073691 0.099502571 0.112078816 -0.023024024 0.009895150 0.065382726 -0.049250193 0.007373814 0.069746979
radio	-0.033586290 -0.055035390 0.047885291 0.123230629 0.019637290 0.028799752 0.048883829 -0.101628587 0.049792938 0.070751786
hand	-0.124972478 -0.003115777 0.046924394 0.033761732 0.003770158 -0.029273871 0.123156093 -0.096090570 0.076099083 0.075206414
big	-0.081663974 0.014066704 0.034758795 0.078052096 0.015235683 0.008194929 0.094547160 -0.090932056 0.070595831 0.104997143
high	-0.082258336 -0.051375337 0.088875696 0.181611583 -0.042736318 -0.064331792 0.100138396 -0.089619383 0.079603642 0.118078612
government	-0.130092040 -0.018823450 0.103421256 0.083942950 -0.037498217 -0.034319613 0.104685284 -0.088006593 0.083866142 0.034995385
stop	-0.018659206 -0.002264936 0.059260286 0.025081355 0.009903362 -0.004914567 0.093072727 -0.011356920 0.040873911 0.076462887
strong	-0.075101718 -0.048557829 0.062417328 0.120525017 0.021453237 0.000535132 0.048705120 -0.046927668 0.043827567 0.019198770
company	-0.058916882 0.012793609 0.093718663 0.117027849 0.024822224 -0.010645592 0.048616488 -0.044206500 0.084729642 0.065361738
book	-0.092261113 -0.025556827 0.059245817 0.031778213 -0.008885407 -0.010235910 0.012356468 -0.016121909 0.004187893 0.057861328
uk	-0.133949965 -0.069653116 0.117981054 0.119739197 -0.061415415 -0.040782072 0.138618171 -0.094077170 0.042738326 0.021584455
network	-0.053342324 -0.011929072 0.070750408 0.106356092 0.014178064 -0.034141723 0.093491092 -0.056810550 0.045734882 0.095611155
reason	-0.034478325 -0.032990616 0.080625027 0.124992982 0.024939200 -0.019695757 0.129089564 -0.082911819 0.065565027 0.020019693
wondering	-0.052758630 0.035099365 0.005144341 0.029120199 0.003245959 -0.000559746 0.061021071 -0.094473049 0.050033152 0.071759135
ago	-0.080017351 -0.037399717 0.094974190 0.145477846 -0.051238876 -0.010854945 0.101450309 -0.133522019 0.108209625 0.050926540
white	-0.105342664 -0.013089000 0.106745258 0.053726658 -0.012110396 0.017689006 0.102263689 -0.036131162 0.095394872 0.037422854
expressed	-0.098012790 -0.014444944 0.096298471 0.100457706 -0.032248467 -0.003932023 0.133916855 -0.129692554 0.103989460 0.071518354
opinions	-0.073080540 0.018801620 0.103338957 0.097317740 0.011538348 0.033076979 0.141023025 -0.120168589 0.074166872 0.095633194
hardware	-0.124339692 -0.030865394 0.119207859 0.087653846 0.026685668 -0.021692764 0.137115389 -0.102421813 0.021098077 0.022443417
run	-0.059020832 0.014847433 0.110792473 0.056930013 0.003014405 -0.039264355 0.070967823 -0.131223664 0.055263139 0.067858584
data	-0.121894300 -0.070311695 0.052762650 0.104460269 -0.045927178 -0.035156466 0.099715285 -0.071235090 0.076717943 0.071837619
rate	-0.051553912 -0.042895388 0.110489912 0.136669010 -0.013816346 -0.018621715 0.158271536 -0.097525902 0.055745527 0.094254702
easy	-0.029343626 -0.019545553 0.041801043 0.032045517 -0.000410276 0.015400361 0.027056487 -0.052223817 0.071789511 0.051511806
pc	-0.048539031 0.011039843 0.031102305 0.044818215 -0.024691312 -0.011415984 0.070769899 -0.050062645 0.047213294 0.078933671
folks	-0.066686280 0.031132264 0.075402290 0.056695070 -0.055646427 0.016585151 0.060116071 -0.099710882 0.078141779 0.058006737
job	-0.020241763 -0.035189174 0.058226027 0.057489865 0.010210014 0.039063446 0.038783230 -0.088631153 0.013012772 0.029271092
sound	-0.017889271 0.013719744 0.035091411 0.054335617 0.035917651 -0.029983642 0.098843366 -0.091850057 0.081635647 0.018830989
code	-0.106259443 -0.053524535 0.102796994 0.027321978 -0.020176515 0.007245678 0.100620776 -0.112680838 0.027083283 0.011245744
software	-0.160259575 0.015182257 0.154160410 0.142171845 -0.074942015 -0.027693270 0.136091515 -0.166897908 0.088009089 0.135007232
question	-0.123587810 -0.042596854 0.058487136 0.173327923 -0.059030049 -0.007041884 0.129090920 -0.166672230 0.050950419 0.074531369
wanted	-0.031675041 0.023530081 0.020435592 0.060981873 -0.054647706 0.039765023 0.038507406 -0.058263239 0.027948728 0.017274264
box	-0.030751226 0.035026342 -0.012116150 0.013597237 0.006661076 -0.004800291 0.070800163 -0.078718692 0.013266151 0.008818934
line	-0.128355294 -0.069432460 0.129621834 0.133344531 0.006303878 -0.042995896 0.142769367 -0.122448258 0.029277081 0.049773376
program	-0.148210436 -0.039295539 0.112554215 0.056485664 0.007983338 0.013454914 0.073693119 -0.109016575 0.060113791 0.101536117
windows	-0.151728109 -0.035102408 0.166556984 0.176399484 -0.053145960 -0.051410098 0.165261477 -0.104462214 0.153350145 0.092454761
international	-0.011227611 -0.038744863 0.058181532 0.032298654 0.025626011 -0.013879995 0.055087067 -0.035363611 -0.000033480 -0.008716836
hear	-0.045565993 0.039871950 0.058295231 0.082267202 0.003263883 -0.032316633 0.069958717 0.011364758 -0.008281682 0.012878132
keywords	-0.120889053 -0.072362691 0.103885852 0.126807898 0.019927334 0.033973772 0.123849481 -0.048075803 0.096712716 0.110188179
nice	-0.065019399 -0.058489285 0.095478706 0.087101959 0.012319100 -0.045197394 0.066709884 -0.025247078 0.097341858 0.008990491
address	-0.046918213 -0.002367205 0.037717443 0.039306626 -0.021535099 -0.010316879 0.032621671 -0.084747478 0.051094208 0.058852218
due	-0.065561496 -0.042942595 0.003951789 0.052321486 -0.044923186 -0.038401537 0.081082910 -0.090027682 0.067028269 0.060000382
law	-0.120845281 -0.016412186 0.099939838 0.106508061 0.003411717 -0.060662903 0.110076211 -0.031062359 0.057549477 0.044280201
hope	-0.106472179 -0.023807619 0.104251176 0.080446675 -0.016540097 -0.005626433 0.136623681 -0.127620369 0.083583005 0.083712935
chip	-0.062119614 -0.047501471 0.117866889 0.109016702 -0.053813353 0.003928573 0.080510587 -0.105404906 0.026809283 0.015162393
james	-0.033513866 -0.043497283 0.094017312 0.101863116 0.020641895 -0.017932525 0.057974424 -0.106671698 0.092721522 0.028631942
hard	-0.077763744 -0.025357150 0.129708126 0.108188443 0.005614957 0.020228583 0.132565737 -0.081911214 0.099202320 0.114404917
washington	-0.068835728 -0.067792647 0.032855913 0.058481876 0.009623972 -0.045901556 0.101652339 -0.091016561 0.007685406 0.057656039
clear	-0.050837960 -0.059353795 0.052611973 0.048438266 0.014325737 -0.030328691 0.118609481 -0.069763891 0.050853565 0.093232296
view	-0.099815354 -0.006219394 0.074251220 0.082902618 -0.042055763 -0.041714720 0.084784962 -0.131168619 0.038359504 0.050027274
today	-0.126390666 0.006509898 0.052250531 0.071634918 0.029257687 -0.035067387 0.122146390 -0.113880366 0.094729424 0.041768659
version	-0.110799700 -0.003214538 0.100859486 0.136936620 0.013011863 -0.012668164 0.122760117 -0.110313147 0.070572793 0.091021784
reading	-0.033172343 -0.045578916 0.013711404 0.037740361 -0.058124997 -0.032705635 0.025096945 -0.096987598 -0.006566592 0.074146561
bible	-0.115660153 -0.043923423 0.106773332 0.121445835 -0.010117774 -0.049128983 0.104912892 -0.104129307 0.090176679 0.062302664
issue	-0.070613265 0.018094007 0.012101651 0.042959239 0.033211313 0.006321640 0.070471868 -0.033968188 0.083481133 0.081490509
case	-0.073058464 -0.025192166 0.084150411 0.170507103 -0.015499264 0.016980164 0.094182275 -0.140294895 0.114304394 0.127655983
true	-0.067548610 -0.079030380 0.119010687 0.095185317 0.009692129 0.013626914 0.109281175 -0.099220850 0.102594502 0.127197504
city	-0.053362940 -0.013770225 0.041318756 0.071126945 0.025434230 -0.018459598 0.074242264 -0.100707591 0.008322248 -0.011223179
make	-0.144947618 -0.023114651 0.147679552 0.104378767 0.012828705 -0.051415067 0.173316747 -0.126332730 0.149592310 0.064765237
ac	-0.055209585 -0.062905893 0.047226299 0.047789715 0.033600036 -0.061877873 0.130695269 -0.114127658 0.090217195 0.059405264
mac	-0.085933000 -0.003779566 0.065801874 0.087152526 -0.014201432 0.031769834 0.129844353 -0.139733776 0.057051197 0.065486088
buy	-0.049898129 -0.048637606 0.083541609 0.073561646 -0.070027478 -0.045821343 0.146767855 -0.095173828 0.021685515 0.037011221
board	-0.061686154 0.009653344 0.116595171 0.120957389 0.005778714 -0.046800446 0.162190035 -0.098881692 0.057001680 0.107183330
national	-0.115822978 -0.055722777 0.112196505 0.125189140 -0.011714955 0.018215291 0.139204919 -0.052205507 0.046832953 0.049568452
possibly	-0.081745818 0.016899532 0.008977790 0.098481633 -0.051957905 0.037073255 0.057254355 -0.066451617 0.064431131 -0.002273098
original	-0.008246825 0.028513772 0.043707978 0.012207940 -0.053306378 -0.017396264 0.091389753 -0.070968196 0.012870328 0.019443192
cost	-0.105712570 -0.034360722 0.057583526 0.141716331 -0.046166770 0.033556290 0.115994580 -0.070950836 0.115900390 0.077723473
find	-0.123695254 -0.035584968 0.122880161 0.089257233 -0.045781299 -0.003942469 0.105675615 -0.149396464 0.031503625 0.034434274
information	-0.086971469 -0.005895538 0.092184253 0.170404732 -0.004391185 0.010576036 0.135139003 -0.089448698 0.094160810 0.052874304
email	-0.067310296 -0.071220517 0.049605206 0.096155308 -0.045255311 0.022294877 0.147071823 -0.058382556 0.117288388 0.029064173
de	-0.071171522 0.025449680 0.090929002 0.083476074 0.028485328 -0.016700061 0.048048753 -0.015538259 0.018968586 0.034916878
wrong	-0.096983500 0.025320193 0.048536155 0.037197433 -0.038949549 -0.024216974 0.096547447 -0.051818915 0.087350070 0.056529008
sort	-0.052409045 -0.050980732 0.063926443 0.099799328 0.022281766 0.028146787 0.098402537 -0.006771878 0.042859621 0.045342512
thing	-0.120916121 0.015109894 0.053883623 0.153306425 -0.015238941 -0.033585217 0.087353319 -0.075154729 0.030027721 0.034532212
problems	-0.068721540 0.005331323 0.095823303 0.156736076 -0.059506211 -0.058338683 0.131790787 -0.127503082 0.047249760 0.056879427
couple	-0.128086075 -0.029816877 0.080881797 0.152571470 -0.044668213 -0.003243847 0.077718370 -0.157643929 0.091109097 0.108640321
ms	-0.077625453 -0.044852842 0.094748788 0.060842030 0.011960648 -0.044901405 0.101833694 -0.039371405 0.098518021 0.080199599
bad	-0.104068235 -0.045963705 0.032769516 0.048469793 -0.017133703 0.032415953 0.063290536 -0.044004772 0.090634882 0.069173969
order	-0.082526043 0.016630324 0.070891291 0.043892294 0.028450983 0.001113250 0.010041898 0.008599211 0.064413197 0.029898321
fine	-0.121673740 -0.056676358 0.055715263 0.091926247 -0.048601888 -0.016257171 0.099203840 -0.099588342 0.045386199 0.069693111
found	-0.106924720 -0.043043870 0.093054965 0.066898808 -0.012160869 0.024883788 0.081178807 -0.092329212 0.124217555 0.060515985
open	-0.070488483 0.030625360 0.060525924 0.026754173 -0.029587448 -0.038572665 0.106133461 -0.051126093 0.025174778 0.047976889
hp	-0.122979291 -0.013801231 0.101097204 0.139308408 -0.024196871 -0.057215605 0.081793457 -0.051735267 0.014204985 0.013953705
access	-0.059548199 -0.050740745 0.099367507 0.054069594 0.012611561 0.032114606 0.125022218 -0.070681304 0.093985796 0.015270891
bike	-0.064324126 0.008772841 0.063992068 0.067482494 -0.042538788 -0.033436496 0.072056189 -0.120683558 0.084742226 0.103399016
free	-0.117536418 -0.062966645 0.101233169 0.089843415 0.028265160 -0.038311169 0.047466047 -0.117522359 0.089883842 0.058875881
department	-0.042704877 -0.026493696 0.064674988 0.056190368 0.028923428 0.023952663 0.058627672 -0.048022419 0.031016897 0.072596148
days	-0.041324537 -0.031573471 0.067008801 0.083385736 -0.059048291 -0.045369953 0.120865732 -0.073648803 0.021831414 0.061424021
mentioned	-0.103255607 -0.007517466 0.033109464 0.017948503 -0.051125050 0.038759116 0.100806102 -0.037376087 0.011265150 0.064752825
early	-0.082987629 -0.017786959 0.030683581 0.086119346 -0.006315082 -0.050091825 0.069221020 -0.045781240 0.058380637 0.064296305
answer	-0.070484318 -0.021036072 0.067454837 0.162194416 -0.073125988 -0.021713983 0.127310336 -0.146034271 0.127859429 0.052018814
appreciated	0.015223834 0.003624098 0.003879701 0.060199726 -0.035364863 0.013219754 0.023047764 -0.015749570 -0.005930027 0.072770976
john	-0.148232564 -0.064482383 0.049540963 0.072388120 -0.064442940 -0.037036467 0.094864130 -0.148575753 0.127395973 0.082353570
sale	-0.006851219 0.023005275 -0.021024324 -0.000562290 -0.046271402 -0.054498062 0.075345322 -0.049256772 -0.018609870 0.044252943
year	-0.179548353 -0.027214736 0.111453645 0.164333642 -0.078706831 -0.017530402 0.195649132 -0.201198131 0.077603891 0.091107406
kind	-0.058068227 -0.050202087 0.126631349 0.104306199 -0.032267924 0.025118247 0.077439919 -0.119314544 0.086405754 0.108018726
sell	0.005288696 -0.027831076 0.042597845 0.072577380 0.009625849 0.026171915 0.004675773 0.013587399 -0.018492932 -0.018454848
game	-0.081464902 -0.076216571 0.095007494 0.099779770 0.010219973 0.020961674 0.132610962 -0.164967865 0.110009305 0.102425180
tom	-0.075751051 -0.034438673 0.104238577 0.071437202 0.006026638 -0.038532939 0.128632113 -0.074602015 0.057108153 0.017539605
project	-0.022277612 -0.050157808 0.028413394 0.062846966 -0.039351594 0.015344374 0.091517381 -0.016077781 0.016890924 0.068665229
car	-0.121747382 -0.069125906 0.123949662 0.183238462 -0.018302077 -0.018703030 0.191526011 -0.139264733 0.131086588 0.057630416
simple	-0.071433231 0.004986167 0.049410988 0.004466510 0.016951315 0.013579778 0.023612587 -0.024371756 0.024204550 0.014531373
summary	-0.116847947 0.017376848 0.049901970 0.109963059 -0.055426084 -0.047584623 0.128011540 -0.052260932 0.031716265 0.051891547
info	-0.044946477 -0.001379729 0.129291281 0.074210480 0.019467395 -0.032781214 0.140286699 -0.105369374 0.121863484 0.058902439
bill	-0.090957247 0.029984796 0.069700092 0.113515295 -0.045215767 0.007164478 0.104288913 -0.100451939 0.066642769 0.002701171
support	-0.097543493 0.024262186 0.072329372 0.092689067 -0.040281039 -0.040420473 0.044044018 -0.119925268 0.053223871 0.086889505
jim	-0.099489242 -0.023343457 0.071213268 0.037241500 0.019989954 -0.048019573 0.041362058 -0.114947714 0.088271216 0.065449163
friend	-0.067068666 -0.042604402 0.039332677 0.033499908 -0.036956839 0.038350038 0.083343782 -0.020151746 0.038525525 0.080434062
months	-0.082297117 -0.030573655 0.011678228 0.033496846 -0.061793938 -0.053726420 0.129595071 -0.106114045 0.014749496 0.082546733
sun	-0.075257480 -0.071903273 0.077716038 0.144854888 0.003246548 -0.028052477 0.169756308 -0.093626641 0.116936475 0.119623832
simply	-0.049252320 0.021179441 0.040149238 0.056227215 0.002700995 -0.054107599 0.003299006 -0.038609963 0.062736355 0.037060872
religion	0.008000282 0.005266835 -0.024239615 -0.002607576 -0.002097475 -0.037038088 0.049424823 -0.073277973 0.016345635 0.020328723
western	-0.018900188 -0.048545651 0.069626994 0.058902908 -0.009705816 -0.059426207 0.071511880 -0.058369450 0.042394202 0.050554015
word	-0.085756913 0.004040929 0.083750613 0.112483308 0.032021385 -0.030576706 0.026349805 -0.048018463 0.092898667 0.056107897
sense	-0.064469077 -0.031761087 0.087793432 0.123525992 0.008212222 -0.049492713 0.054508958 -0.086042546 0.025435360 0.072127089
christian	-0.057785343 0.020062326 0.037449710 0.084051989 0.016621217 -0.007455700 0.070152886 -0.056374460 0.030609950 0.015834302
hold	-0.041954726 -0.063949391 0.014706978 0.047369909 0.035447039 -0.003294559 0.103068948 -0.028095577 0.083782673 0.039979182
number	-0.062609427 -0.067520373 0.043849755 0.108511537 -0.005547730 -0.053783871 0.095727928 -0.135883138 0.076952681 0.106877595
note	-0.119348615 -0.021219302 0.095761642 0.097509101 -0.034824021 0.028670583 0.118720308 -0.035147931 0.046493642 0.067504890
matter	-0.066411085 -0.023246991 0.060742699 0.058651444 -0.045356415 -0.021428552 0.074155457 -0.125155464 0.069720730 0.068777315
takes	-0.046196498 -0.018083537 0.035158459 0.033983450 0.026735002 0.024121353 0.078845493 -0.059318170 0.032029994 -0.006920786
claim	-0.088996097 0.010449468 0.070375070 0.036668830 -0.057218429 0.013805428 0.045832202 -0.027856145 -0.001412339 -0.010448434
told	-0.062105324 -0.052354697 0.026773989 0.041863289 -0.047378238 0.044394664 0.074432798 -0.060385540 -0.017958894 0.024746053
written	-0.090110779 0.033309087 0.052559562 0.100974143 0.007510302 -0.029130155 0.037592188 -0.013839145 0.028545590 0.035889152
single	-0.056254514 -0.012001035 0.052878913 0.114285514 -0.001612962 -0.032848425 0.132234141 -0.146366999 0.093691766 0.104191586
short	-0.066802077 -0.042192459 0.058107976 0.064458080 0.030650081 -0.044952534 0.136548668 -0.088784337 0.059417259 0.064930432
point	-0.109815501 0.016777284 0.095630459 0.102275439 -0.026396962 -0.053145986 0.086725049 -0.150263727 0.112763815 0.041382473
full	-0.053350881 0.005127937 0.082201481 0.099468261 -0.053615462 -0.007905545 0.017285526 -0.085069329 0.050799947 -0.008849420
understand	-0.094126962 -0.018765923 0.051048841 0.101098470 0.029065184 -0.013933198 0.096352234 -0.098359831 0.010000017 0.067273550
miles	-0.131617114 -0.058912635 0.068968929 0.132976100 -0.060084604 -0.062751867 0.119615801 -0.086782925 0.047185816 0.098813690
considered	-0.029768458 -0.027909387 0.084575742 0.071301311 0.011481048 0.007035761 0.064528503 -0.087519526 0.062264249 -0.015241655
technical	-0.089451104 0.017547568 0.043087233 0.059414346 0.004899404 -0.017055592 0.098403603 -0.042906433 0.036377955 0.056699682
form	-0.060746543 -0.041675173 0.053345911 0.011213753 0.032912079 -0.003043026 0.058730282 -0.072723351 0.030162372 0.075793244
similar	-0.053265806 0.021851631 0.034551959 0.095303699 0.016036294 0.037490368 0.085205019 -0.057360251 0.064214215 -0.003182293
source	-0.121233746 -0.021093396 0.046658348 0.101480037 0.003706967 -0.038948379 0.078498349 -0.106317975 0.129212275 0.030784514
assuming	-0.080125667 -0.006973365 0.025602607 0.066084877 0.042423740 -0.014835444 0.009626240 -0.062569484 0.042006120 0.021958044
put	-0.011872840 0.001744323 0.047501381 0.072285280 0.006190001 0.035507996 0.065110534 -0.039308030 0.021664616 0.075668886
figure	-0.070378527 0.024420774 0.059740718 0.085351706 -0.017785933 -0.029641591 0.088873528 -0.095434852 -0.011310079 0.027814535
late	-0.034519225 -0.032272875 0.075782120 0.066117361 -0.020138096 -0.042468622 0.116728984 -0.119922176 0.073389314 0.085471004
rest	-0.094378926 -0.002253939 0.084953666 0.047110170 0.006672954 -0.029125910 0.079431891 -0.042528104 0.068870313 0.028207643
card	-0.148763016 -0.004061806 0.091975838 0.157373711 0.025675626 -0.006075327 0.126051977 -0.086030766 0.119540095 0.046630576
times	-0.128628597 -0.001734934 0.092259482 0.102771401 -0.030232972 -0.009086329 0.053833071 -0.122105129 0.069380105 0.013811475
part	-0.097035535 -0.051915564 0.029044520 0.049373560 0.026498009 0.017879294 0.155797705 -0.071317211 0.100363687 0.057287805
lost	-0.034856159 0.024272287 0.053751610 0.034386359 -0.035659354 -0.025288314 0.060883451 -0.079697818 -0.006158126 -0.014728147
end	-0.056886632 -0.020252835 0.101325288 0.092553183 -0.024311222 0.007437894 0.154595643 -0.078857243 0.069670483 0.054502387
low	-0.083788000 0.001280719 0.107191138 0.104530297 0.013292762 -0.035965636 0.105365537 -0.090265952 0.082949027 0.031836815
speed	-0.134366721 0.022225248 0.117377393 0.108852372 0.019284762 -0.054758776 0.094193764 -0.067653626 0.050522223 0.031278566
turn	-0.132403314 0.004215544 0.122285306 0.181548342 -0.010924873 -0.030954748 0.107728608 -0.179800421 0.050776016 0.098273031
gas	-0.088327885 -0.030345012 -0.005546473 0.021099439 -0.045596316 0.010208548 0.098757103 -0.090641908 0.082387827 0.058912944
situation	-0.104332656 -0.030532621 0.078888670 0.090237394 0.020092040 0.003491478 0.088105008 -0.024588907 0.017008735 0.041803226
copy	-0.009574172 -0.026322989 -0.007018622 0.086420350 -0.042143557 -0.040608697 0.034461584 -0.092351466 -0.012298510 0.064213857
posted	-0.052194957 0.022719372 0.053991362 0.140372396 -0.047525000 -0.012488369 0.056484934 -0.148235857 0.059624702 0.023338422
write	-0.092240609 0.008163083 0.055379119 0.096135259 -0.028851040 0.008762405 0.099283449 -0.054072767 0.068203129 0.046848118
send	-0.080198482 -0.039746981 0.045541774 0.050258011 -0.006312355 -0.020150440 0.029498417 -0.007518637 0.035826903 0.077896096
money	-0.097361535 -0.054750018 0.086792931 0.147781998 -0.053567328 -0.009492979 0.112213247 -0.150631040 0.051188260 0.103495121
price	-0.100230232 -0.022328896 0.083802231 0.141758054 -0.006509125 -0.027324658 0.142245173 -0.134597182 0.121171571 0.016484406
division	-0.067846850 0.023424432 0.017191041 0.099178605 -0.007729921 -0.009816330 0.099102534 -0.109103546 0.008421689 0.079564139
start	-0.029723678 0.023186795 0.052691899 0.081618808 0.013850163 0.039470132 0.076433159 -0.067715049 0.005633337 0.023559246
left	-0.099167883 -0.054015543 0.067287959 0.154108137 -0.029135073 0.004793033 0.092661485 -0.085383929 0.083186872 0.068674505
life	-0.081920050 -0.009173165 0.128261030 0.059242643 -0.027900744 -0.050049681 0.155284330 -0.117567927 0.063607834 0.067368656
side	-0.078331776 0.017307410 0.062769055 0.149419069 -0.051576138 0.016504383 0.123170711 -0.146097258 0.080417700 0.065335475
interested	-0.031813983 -0.027376199 0.069631904 0.102802508 -0.052514728 -0.000404412 0.041752417 -0.083494045 0.046570383 0.033119269
faster	-0.050706144 -0.041157603 0.071188398 0.132719964 0.030744847 -0.041663319 0.056825604 -0.102899797 0.023347203 0.075984448
list	-0.123081714 0.004743746 0.117550157 0.053654354 -0.057926267 -0.011206798 0.140220672 -0.067923166 0.112321794 0.103210323
ibm	-0.040565770 -0.042272855 0.005895331 0.080225959 -0.035915237 -0.003175150 0.042061385 -0.075040899 -0.003720105 0.036482107
texas	-0.041326419 -0.021372953 -0.015931513 0.084655233 -0.013085126 -0.030125182 0.030420227 -0.055086195 0.057433929 0.023200495
power	-0.135928065 -0.044708919 0.112899862 0.137885362 -0.043965578 -0.022849580 0.102519661 -0.071363762 0.099250287 0.035372857
required	-0.057548802 -0.057617199 0.062724493 0.054914366 -0.001101819 0.011743092 0.123321995 -0.109084561 0.089481965 0.086132184
design	-0.021371383 0.030256448 0.053432982 0.011627737 0.028443718 -0.031593598 0.085491076 -0.059703108 0.071476944 -0.006840406
class	0.001657940 0.039148536 0.021216394 -0.007994070 -0.019549210 -0.044017453 0.041630670 -0.066817559 0.048987560 -0.009085274
au	-0.054746680 -0.022689423 0.039495844 0.157883078 -0.053001929 -0.065582126 0.169029683 -0.111308314 0.059814874 0.046728984
jews	-0.130108327 -0.017441718 0.083303198 0.162133545 -0.038603675 0.007368217 0.183108926 -0.100421205 0.138818413 0.126130760
population	-0.077850319 0.010011069 0.090903439 0.098995879 0.022182828 0.020534186 0.141135812 -0.136540204 0.109678544 0.085528255
week	0.013988921 0.002127551 0.035443898 -0.008353561 -0.044570636 0.038406026 0.015447395 -0.025085423 0.012141316 0.022434143
parts	-0.087993667 0.005089382 0.083585396 0.057701752 -0.025668846 0.029687358 0.116882630 -0.099269070 0.018958390 0.062307704
ram	-0.081639111 0.029855231 0.062368318 0.104151338 -0.061487872 -0.047131319 0.130552888 -0.079709090 0.033280361 0.017243275
dod	-0.053968817 0.001492027 0.014288303 0.074680217 0.034542501 -0.019610601 0.076405555 -0.016778007 0.054825589 0.000807481
opinion	-0.038699664 -0.012594076 0.080220282 0.064970806 -0.043026913 0.035105180 0.049132288 -0.082992382 0.076715782 -0.010116987
making	-0.040175576 -0.027537890 0.097135521 0.041041650 -0.015600285 -0.021620072 0.111989744 -0.098743185 0.086389758 0.102002174
minutes	-0.025160378 0.038414143 0.026892392 0.004033850 -0.025819970 0.019417798 0.029053103 -0.053270213 -0.013260573 0.057830267
higher	-0.065935940 -0.041065995 0.134499997 0.073894784 -0.009741762 0.009741273 0.102138273 -0.066055395 0.063051842 0.120656557
hell	-0.018635666 -0.012366583 0.053286422 0.023317592 -0.008970524 0.010426295 0.080638744 -0.007342228 0.059570417 0.012740746
asked	-0.056094732 0.015528517 0.028273456 0.061430980 -0.046497043 0.026848406 0.089273833 -0.053344034 0.049885865 0.010640176
final	-0.087331139 -0.014385423 0.038498651 0.064020917 -0.057906676 0.004259954 0.078592218 -0.065698572 -0.008488441 0.056467179
dos	-0.033560313 -0.025945934 0.105034009 0.069111496 -0.026401306 0.034184795 0.137212858 -0.061709184 0.069292225 0.037910927
disk	-0.068745926 -0.052072421 0.060397118 0.057214484 -0.050171804 0.010753698 0.128465489 -0.122560650 0.074871853 0.019207818
public	-0.111670516 -0.062199105 0.076245442 0.102163740 0.013884267 -0.052316099 0.119278967 -0.081384443 0.068727829 0.043798592
feel	-0.101703927 0.022118634 0.011933691 0.035014383 0.008279819 0.036660884 0.035158433 -0.094485641 0.044065893 0.010327533
east	-0.068217769 -0.022856690 0.069479674 0.144697145 0.015678091 -0.042001676 0.094683751 -0.160967797 0.112522379 0.062373564
guess	-0.106760815 0.017731421 0.099100240 0.093938679 -0.016799163 -0.029579949 0.042937327 -0.089431554 0.043794967 0.013143255
experience	-0.033309482 0.028280586 0.016810989 0.080774657 -0.002767781 0.018323420 0.080138236 -0.038258668 0.087026082 0.077386372
contact	-0.009976177 0.033120703 0.026756333 0.059767909 0.028357683 0.017377337 0.017699365 -0.092928588 -0.008164819 0.016812786
image	-0.038235828 0.026621802 0.048190888 0.033433862 0.034109246 0.005364016 0.012163052 -0.011650341 0.022048943 -0.025166187
canada	-0.005881661 0.006256694 -0.011225750 0.027578710 0.045995336 0.041966654 -0.040410616 -0.011906400 0.030957891 -0.011722444
laboratory	-0.017867692 -0.010512658 0.077935062 0.037902020 0.011523627 0.037934907 0.026115466 -0.087324321 0.052965142 0.016531616
total	-0.058474984 0.018706918 0.049798250 0.112452962 -0.008309478 0.020459004 0.104107305 -0.055960700 0.006233481 0.088076621
pay	-0.058958218 -0.008613218 0.081726097 0.071226083 -0.049744785 -0.028633073 0.139971092 -0.073040143 0.045956645 0.030452656
top	-0.071199395 -0.005067819 0.040351477 0.110416882 -0.004997693 -0.029741246 0.067340046 -0.055912536 0.021669572 0.044868272
change	-0.017338615 -0.011177653 0.016704673 0.019463265 -0.039869428 0.009886929 0.059860729 -0.075502917 0.000707571 0.067224242
gun	-0.070025392 -0.066815920 0.121331036 0.069579691 -0.025795657 -0.038290843 0.084138572 -0.169764966 0.108131424 0.067839347
person	-0.039658587 -0.035868432 0.006628943 0.004043791 0.028999470 -0.022291588 0.040508620 -0.016087051 0.010176482 0.036721550
calls	-0.101743273 0.016983690 0.016392983 0.045228906 0.027124885 -0.016106257 0.020033773 -0.035752531 0.047610562 0.027212752
worse	-0.083098568 0.018096287 -0.009987337 0.060973510 0.028176917 0.039688580 0.099360727 -0.055415343 0.068163589 0.078341253
corporation	-0.078156605 0.024064776 0.053683788 0.079756714 -0.004412433 -0.010939919 0.094063170 -0.003998154 0.017836066 -0.002927682
deleted	-0.093997993 -0.029628659 0.098022178 0.040222012 0.010091105 -0.021221897 0.078607686 -0.126074776 0.018426044 0.084260665
display	-0.079797737 -0.033574201 -0.002919928 0.098110467 0.032748565 0.013120648 0.019332672 -0.070472226 0.055922650 0.014354938
common	-0.010174799 -0.034597311 0.029073352 0.060693048 -0.030759925 -0.024336239 0.004719786 0.004252665 0.062082801 0.022551538
front	-0.062563024 0.007736402 0.063302554 0.114353500 -0.065507919 -0.030734444 0.145023718 -0.062415496 0.063837357 0.058957428
general	-0.111526862 -0.030133208 0.129384771 0.072547175 -0.039311372 -0.015540653 0.170011207 -0.097478211 0.033108104 0.034000415
type	-0.013120024 0.003018894 0.018757595 0.006060006 0.010584955 0.038860179 0.034501862 0.016180631 -0.003545231 0.049839403
newsreader	-0.056023095 0.016443115 0.047836658 0.083042748 -0.039177522 -0.035639599 0.055315729 -0.035319664 0.002285384 0.061926577
tin	-0.040551439 0.015742417 0.030137205 0.058567517 -0.034688450 -0.043440308 0.093220562 -0.091326177 0.032019641 0.011247142
effect	-0.072591364 0.010008869 0.072468512 0.001176123 -0.003849850 -0.000119189 0.072024167 -0.036190834 0.069128707 0.054778077
result	-0.026230676 -0.018387722 0.044973623 0.018536203 -0.028164953 0.035692323 0.085522272 -0.027610483 0.035199866 0.045819353
rights	0.004799940 -0.016085709 0.046918608 0.017955655 0.015175137 0.000031045 0.011346811 -0.026061103 -0.024596415 0.060034037
taking	-0.025749441 0.009636235 0.080906063 0.023944821 0.030676814 0.012073269 0.099356584 -0.090331443 0.085004829 0.090526126
coming	-0.063215315 -0.015917609 0.062880591 0.066567630 0.035174213 0.017978741 0.035721000 -0.005485636 0.032079082 0.003750021
california	-0.098716073 0.017057249 0.098623723 0.088217743 -0.018894471 -0.061130919 0.142105892 -0.081766307 0.089863352 0.096248120
religious	-0.075872548 -0.032644767 0.027626596 0.016197879 -0.003393303 0.040199570 0.066397347 -0.006686257 0.042732660 -0.015508329
org	-0.078668818 0.007249722 0.075484551 0.082297042 -0.017073493 0.010673338 0.017220745 -0.063658737 0.067193277 -0.002483575
thinking	-0.024517387 -0.004213098 0.066120163 0.060898282 0.011101752 0.035940774 0.019712923 -0.105353579 0.043284196 0.075681828
advance	0.023099488 0.039393518 -0.020747118 0.009284283 -0.037566952 -0.011570681 0.027397301 -0.019465197 -0.031883840 0.064297602
worth	-0.067919441 0.028122794 0.019947683 0.080228381 0.042142719 -0.020894941 0.030980876 -0.035109151 0.010374466 -0.019477198
questions	-0.108355582 -0.063902102 0.075031206 0.096960440 -0.041333307 0.001487174 0.080206551 -0.105568171 0.010412020 0.070203565
