sale	0.050424501 -0.002285060 0.017194273 -0.045198049 0.013793646 -0.069744423 0.002144682 -0.045723036 0.043324810 0.092048302
corporation	0.008381684 0.008463735 0.045540456 -0.046550080 -0.029320568 -0.052175056 0.024255879 0.038471457 0.065924175 0.018882230
distribution	0.052315239 -0.000092137 0.020063069 -0.016456876 -0.013221703 -0.135502875 0.079443820 -0.017341387 0.153093621 0.143294141
nntp	0.125705987 0.039747465 0.031328414 0.001749527 0.038793627 -0.148342550 0.056833528 0.008627356 0.154911473 0.144810304
posting	0.057492919 -0.018833248 0.015830358 -0.042904213 -0.033190619 -0.108100832 0.096722990 -0.024776736 0.145662725 0.240433604
host	0.124111123 0.054726757 -0.004078954 -0.039106943 0.006388045 -0.154941380 0.043513857 0.007108614 0.131359160 0.227965191
box	0.063949950 0.024732139 -0.029411007 -0.028400348 -0.022187479 -0.045055136 0.093017079 0.015495150 0.045162577 0.129322752
type	0.025216874 0.011651221 0.020086553 -0.053833663 0.035743047 -0.063693553 0.070434079 0.030884363 0.017185694 0.068424635
stuff	-0.000338208 0.054084864 -0.026988233 -0.001839687 -0.015450072 -0.048129827 -0.004345844 -0.002659862 0.027506970 0.095447965
contact	0.062039755 -0.010949294 -0.041140564 -0.003005761 -0.014272498 -0.101121388 0.027196173 0.001469894 0.080206364 0.094879329
mail	0.080634989 0.025800714 0.046954866 0.006058292 0.036726382 -0.074628383 0.065803476 -0.018246815 0.054651309 0.177700579
windows	0.101579070 0.066343106 0.002670175 -0.021329861 -0.042837758 -0.060982652 0.056934718 0.031868752 0.150567606 0.209894210
line	0.038183898 -0.021976847 0.039716501 -0.018933922 -0.006025840 -0.104853213 0.109134346 -0.026813336 0.111393936 0.173512444
reply	0.113111734 0.041636650 -0.017177144 -0.020895494 -0.021312764 -0.070386790 0.117190406 0.030736128 0.137260139 0.139446050
pc	0.106984459 0.031008568 0.020907000 -0.059848998 0.011782548 -0.077802539 0.087822862 -0.043745417 0.061584048 0.171821833
division	0.010763442 0.032819822 0.047321085 0.013562102 -0.006462621 -0.076775424 0.056495212 0.004675423 0.101803735 0.096632570
cs	0.101748295 0.007355803 -0.028079854 0.004085511 0.004146095 -0.122838594 0.121072158 -0.021539865 0.157633275 0.189998612
world	0.055503435 0.057126638 0.030586321 -0.061502248 -0.039847326 -0.063959472 0.118048854 0.044348720 0.135236666 0.245753869
message	0.101400718 0.025616221 0.041222725 -0.041214973 0.054247126 -0.036794744 0.037708260 0.012999902 0.051011816 0.099706501
apr	0.011855627 0.015939616 -0.038775779 -0.026923768 0.000761654 0.000306647 0.043835230 0.047786407 0.101630978 0.121026143
originator	0.077479325 0.015858475 -0.023209652 -0.017125139 -0.038212668 -0.010884451 0.037499148 0.029852796 0.032802761 0.107490622
school	0.011868167 0.034223992 -0.042353686 0.026563769 0.003592598 -0.053390350 -0.000263812 0.014657349 0.014875519 0.013076081
computer	0.124612436 -0.009050310 0.030120250 -0.062746421 -0.027873745 -0.155895710 0.045529827 -0.018262608 0.096410193 0.203537881
science	0.045171455 0.016914181 -0.009060601 0.001525694 -0.002091556 -0.062637404 0.065618962 0.018614210 0.076705880 0.189714387
university	0.073223263 0.069907621 0.040456962 -0.056229845 -0.030027412 -0.152016073 0.153319791 0.037424680 0.199461564 0.268796861
article	0.093439646 0.022633657 -0.027192440 -0.013378953 0.044321425 -0.144659400 0.118928075 0.054986060 0.209146902 0.246211454
writes	0.182385802 0.023837935 0.034268931 -0.099264041 -0.000750222 -0.192885131 0.177947789 0.016079037 0.176788449 0.344976664
great	0.038661074 0.054279115 0.036162417 -0.040555678 -0.023410885 -0.107122712 0.090764664 0.031561743 0.090144955 0.198917195
live	-0.009539750 0.011391828 -0.027500447 -0.009128455 0.010293121 -0.055663865 0.038201932 0.045423396 0.096076652 0.102621891
guy	0.104995131 0.044859584 -0.048221357 -0.021454873 0.035610206 -0.118288949 0.054746810 -0.023384986 0.159911752 0.138171285
talking	0.072254814 -0.003767140 0.008657604 -0.012594260 -0.038461778 -0.107270204 0.070271879 0.003080425 0.149935544 0.165275946
real	0.120912723 0.047156580 -0.023032451 -0.067573830 -0.000214497 -0.170536906 0.152118087 -0.037066642 0.123043381 0.210382417
agree	0.040763769 0.048228111 -0.005784760 -0.030604826 0.012745522 -0.022513224 0.031137750 -0.017293457 0.013126914 0.040952973
internet	0.050522234 -0.034305397 -0.025895540 0.016603654 0.003973435 -0.089133725 0.049636152 0.028972249 0.078112669 0.125456154
phone	0.097606778 0.058377650 0.004461260 -0.030627012 -0.000108405 -0.037958894 0.045643661 0.050418645 0.109254427 0.160971195
fax	0.081845187 0.024504909 0.015606784 -0.030011216 -0.026746059 -0.055857625 0.053700000 0.022379279 0.065809026 0.117874935
usa	0.023558978 0.039049536 -0.043941543 -0.074868947 0.048423454 -0.081869796 0.050485183 0.021015294 0.152879164 0.206559032
systems	0.011488451 0.012587389 -0.023863807 -0.043922592 0.032843914 -0.046316903 0.036999818 -0.009941743 0.141970828 0.188523829
newsreader	0.006138216 0.010799128 -0.051184732 -0.002816795 -0.044141483 -0.092555955 0.020243045 -0.039960247 0.066726863 0.131603003
tin	0.100572258 -0.025864599 0.037310991 -0.008116987 0.043286208 -0.067932673 0.003481490 -0.045475792 0.057329010 0.108481079
version	0.066042662 0.012639186 -0.039667986 -0.073387422 0.039177176 -0.073159628 0.082054392 -0.003488604 0.143762529 0.213804364
robert	0.074457988 -0.026905054 -0.008722506 0.021585740 -0.038496129 -0.049848855 0.060731836 0.025535235 0.110570222 0.138025582
wrote	0.110167913 0.058455709 -0.017457753 0.016749373 0.015067324 -0.100845464 0.042075809 0.037901264 0.107662946 0.230436414
chip	0.053788632 0.016144218 0.020704886 0.017109893 0.042457331 -0.062492564 0.109753422 0.043877628 0.071022861 0.141085982
low	0.081013657 0.055534624 -0.005421919 0.020322276 0.056361917 -0.091922663 0.075543061 -0.033761587 0.116085067 0.203995377
pretty	0.023733281 0.015955873 0.002345153 -0.002033369 -0.029392375 -0.100938514 0.081099354 0.026165977 0.127373949 0.185680822
nice	-0.004364982 -0.019855019 -0.004331860 -0.040820766 0.012060865 -0.105423525 0.062574998 -0.002050429 0.079298377 0.152586341
address	0.059070416 -0.032844260 0.011472803 0.027041588 -0.036574215 -0.103379838 0.009996430 -0.029644588 0.082758375 0.123366281
number	0.090556197 0.023962103 -0.022194762 -0.050441150 0.021796711 -0.131869689 0.087395027 0.022432383 0.151532546 0.203442171
information	0.025600394 -0.018334061 -0.022262940 -0.004857761 0.038887937 -0.095355593 0.035335977 -0.029453609 0.079515554 0.212597623
thing	0.113688156 -0.011826295 0.002261163 -0.056181986 -0.020496335 -0.065422945 0.046487723 -0.002321861 0.068589829 0.224532887
person	0.052530143 -0.019684406 0.001220770 0.014623731 0.039205857 -0.084604271 0.076197580 -0.008304511 0.110223405 0.172940940
sense	0.005560467 0.037799884 0.014010792 -0.049148437 -0.009153266 -0.041734099 0.051454276 0.000987413 0.059605129 0.113540649
required	-0.001011940 0.042595737 0.006175240 0.009470018 -0.011000739 0.001578275 0.076335177 0.024004150 0.052569777 0.061570700
laboratory	0.062450521 -0.014848699 -0.047698297 0.029527450 0.000528289 -0.100708462 0.033679046 -0.014790125 0.024244294 0.068646535
tom	0.003063418 0.010863863 0.046849880 -0.066618159 -0.024262341 -0.118012615 0.073831163 -0.030918324 0.059702251 0.090853013
lot	-0.010074940 0.024442090 -0.031279892 -0.034547929 -0.023425277 -0.091523968 0.050170742 0.018834254 0.077217646 0.124410518
guess	0.078397468 -0.014163828 -0.024233067 -0.034547955 0.018589588 -0.059384894 0.067354202 0.014234663 0.079441682 0.170063853
give	0.074404910 0.057895787 0.023946155 -0.051460531 0.005064502 -0.134177029 0.105694339 -0.037688896 0.136785090 0.196853861
total	0.015066269 -0.001111242 -0.010044156 0.037669357 0.016596729 -0.039866842 0.075795427 0.035244450 0.096730828 0.098423801
cost	0.023186913 0.043259349 0.006725580 0.029371927 -0.012271785 -0.015060153 0.051545035 -0.013255257 0.022295708 0.096307270
company	0.065205961 -0.024864141 0.026674047 0.029484201 0.032435600 -0.065902129 0.047392856 -0.028975252 0.068291955 0.077944882
word	0.065909259 0.051992994 -0.018682132 -0.064657271 -0.032604598 -0.077561036 0.105440393 -0.017728508 0.130139053 0.217894927
takes	0.080172785 0.014163241 0.028426260 -0.026448699 -0.005624279 -0.014974520 0.040930416 0.044689830 0.064546868 0.130798593
state	0.040237293 -0.007080297 -0.051510405 -0.004458683 0.002497877 -0.091000378 0.080698431 0.004693233 0.100351594 0.250904948
today	0.090507060 0.009516187 -0.002780934 -0.012500128 0.029686265 -0.068691261 0.080847502 -0.035692222 0.161011472 0.159308389
money	0.064356729 -0.028977590 -0.005825852 -0.021812569 0.004766299 -0.111803263 0.009659553 0.002196423 0.091447584 0.123919792
pay	0.050434232 -0.012950769 0.017701374 0.013775471 0.016867548 0.015345558 0.001615060 0.014550695 0.052090455 0.051074427
large	0.069203645 -0.028008793 0.048171103 -0.060502283 -0.035720851 -0.033484124 0.072974011 0.046396594 0.052315947 0.182258710
true	0.106779411 0.003404879 -0.019165913 -0.040995326 -0.004749814 -0.136015669 0.090405181 0.016117491 0.134171739 0.208274931
call	0.047027212 -0.027457533 0.000432158 -0.078832053 0.002174805 -0.100883290 0.030089911 -0.014538989 0.074973434 0.201348886
job	0.008301322 -0.017466545 -0.003952098 -0.015221735 0.042075876 -0.059825305 -0.031639490 -0.008459368 0.077039883 0.040311143
dod	0.050742831 0.004793262 -0.007129597 -0.007556902 0.047574129 0.018684803 -0.014332259 -0.009546106 0.084258340 0.017452234
bike	0.058675047 0.016700735 -0.034512911 0.013000171 -0.027964767 -0.060303830 0.112033926 -0.008695628 0.132869229 0.237594515
disclaimer	0.091534764 0.033950984 -0.026821420 0.027627133 0.034683436 -0.027321612 0.113962926 -0.044114288 0.137931153 0.178669646
board	0.010553320 0.015919369 -0.015555078 -0.001174382 -0.001704261 -0.088431165 0.091726020 0.006828169 0.090613030 0.109190322
copy	0.072496407 -0.029456802 0.018507538 0.035346042 0.001610137 -0.069529600 0.016577616 0.016887393 0.082357153 0.089510828
network	0.026621822 0.011090764 -0.024304235 -0.016881714 -0.000681919 -0.092025012 0.066585183 0.029375939 0.058802377 0.128318503
posted	-0.026975213 0.023052128 -0.022194166 -0.003772776 0.050177082 -0.010361424 0.002183070 -0.035345484 0.066933744 0.072432645
opinions	0.025695302 0.020790869 -0.004934862 -0.005218394 0.031483617 -0.102622941 0.064810432 -0.000781821 0.131154537 0.124655388
expressed	0.002538435 0.023992531 -0.007752342 0.035455957 0.015697258 -0.052650258 0.069228165 0.021312131 0.027366119 0.050867196
bill	0.060327172 -0.032380626 0.000612480 0.020299580 0.037216507 -0.052285638 0.083499722 -0.041686118 0.001239777 0.045125533
date	0.042202536 -0.022754407 0.006372316 0.008379387 -0.032826550 0.001085199 0.077780984 0.006762855 0.050964121 0.133859247
write	0.071030051 0.005600365 -0.038572233 -0.038694866 -0.014062404 -0.079431064 0.021534756 -0.003682543 0.093451932 0.044964179
good	0.094728895 -0.009207780 -0.003769633 -0.028186848 0.060120564 -0.093609631 0.162265733 0.020084916 0.162007511 0.273533165
software	0.102889836 -0.020475432 0.002377321 -0.047094908 -0.033381332 -0.063569635 0.076530151 0.027042357 0.097898513 0.150816366
couple	0.051441595 0.012247919 -0.019833993 -0.034445517 0.020507926 -0.063998736 0.013070690 0.042581551 0.048614547 0.112338744
program	0.102448858 0.008548602 0.042516343 -0.019556822 0.004081362 -0.094238855 0.092318997 0.029992200 0.048294269 0.196784526
similar	0.096660353 0.059228621 -0.038415682 -0.009846429 -0.043463722 -0.109679945 0.019997735 -0.031748302 0.077005118 0.148787081
send	0.109469250 0.063046113 0.045263797 -0.050679028 0.049750574 -0.053135589 0.040511969 0.019155266 0.055351205 0.109733425
free	-0.009607336 0.048230004 0.045523647 0.023455532 0.039346341 -0.029173756 0.062486328 -0.030220551 0.086581260 0.065460138
support	-0.020588402 0.001202624 0.048935968 0.008603688 -0.026979994 0.004135539 0.021631544 -0.013197911 0.079554170 0.092247933
small	0.052495304 0.055815097 -0.003720306 0.001821584 0.017267171 -0.048253231 0.029548418 0.054082464 0.057934117 0.138229191
figure	0.024526790 0.045531791 0.018067228 -0.037391484 0.023715165 -0.049283933 0.005713470 -0.019869333 0.094177954 0.054662649
price	0.038715668 0.026756633 -0.026508469 -0.032461576 -0.022167031 -0.043648958 0.077864826 0.026518248 0.042166431 0.098670669
bad	0.113070279 0.056115907 -0.020951329 -0.013828496 -0.012011251 -0.133312762 0.053420037 -0.027391572 0.169693142 0.165813625
ca	0.065480024 0.038535614 -0.016601702 -0.047512490 -0.007360888 -0.056900647 0.095659763 -0.002443540 0.142621368 0.239958182
john	0.077750005 -0.027468041 -0.037484258 -0.050047040 0.007617270 -0.077135541 0.108043030 0.054527711 0.124663651 0.151819348
city	-0.008602429 0.002053253 -0.010330261 -0.058427263 0.045344848 -0.057533368 0.067970760 0.016480049 0.073312275 0.049299985
time	0.097827077 -0.022116400 -0.021360081 -0.069252983 -0.006153942 -0.183374912 0.113513418 -0.029602123 0.197042271 0.272731066
effect	0.004006293 -0.015712287 0.026592737 -0.010118245 0.022360578 -0.053214125 0.028912308 0.004113858 0.083429359 0.100263827
year	0.076889008 -0.026108092 0.030903993 0.007722525 0.029480610 -0.076986983 0.078075826 0.042718530 0.094300367 0.152490452
stop	0.038553033 0.032519180 -0.037969954 -0.011055853 -0.010470603 -0.032545824 0.067743011 -0.005800250 0.097413272 0.082671873
heard	0.103302911 0.006394613 -0.024258515 0.002672397 0.056446180 -0.111815475 0.064686097 -0.002462639 0.093476430 0.158226728
current	0.063492671 -0.028341563 0.028975146 -0.057500355 -0.036763888 -0.136263967 0.082743637 0.012237493 0.069536462 0.125228539
top	-0.023520291 0.022904739 0.049340431 -0.032553956 0.028774302 0.019586178 0.054363348 0.018532762 -0.002678991 0.096380539
interest	0.031002231 0.022539958 0.044835374 0.020844622 -0.002463619 -0.008226762 -0.011016979 0.010829108 0.072980382 0.058203485
understanding	0.025828047 0.059866600 -0.040344864 -0.070916288 -0.005056587 -0.128355056 0.085681312 0.005656930 0.103723697 0.118788198
major	0.115001969 0.037691362 -0.000601235 0.005378024 0.036660522 -0.066454746 0.044882610 -0.041385062 0.163931757 0.137648225
years	0.119983830 0.017097522 0.040048230 -0.028347692 0.020965151 -0.167795941 0.156539470 -0.007577584 0.183123618 0.252086371
ms	0.067905843 0.032056496 -0.004697931 -0.018069450 -0.030219907 -0.020387258 0.071835816 0.016690051 0.032897703 0.134197220
dos	0.063116372 0.041067991 -0.006250270 -0.055593718 0.033928938 -0.123535000 0.022344217 -0.014040532 0.085924931 0.131179050
found	0.038623359 0.017097069 -0.034365050 0.011542616 0.016516136 -0.045582581 0.057406902 -0.016368544 0.104172587 0.149886072
cc	0.048552010 -0.006932078 0.046000898 -0.055592451 0.054031670 -0.136577219 0.034420092 0.053434253 0.075617433 0.146987677
sun	0.126101777 -0.009821852 -0.008355736 -0.078001015 0.021704812 -0.109285764 0.120822333 0.021731678 0.147623762 0.175218821
problems	0.049814459 0.021495653 -0.025503410 0.020619139 0.014802562 -0.111785725 0.054225307 0.018746356 0.132663712 0.197712734
start	0.106316708 0.044690471 0.016490465 -0.038334522 0.022592155 -0.069724418 0.015479733 0.033644576 0.094690293 0.117437594
display	0.084001958 -0.019093705 -0.033604521 -0.061406910 -0.040569007 -0.007189902 0.056656417 -0.044706870 0.088448413 0.121084578
file	0.119044967 0.066897660 0.010942913 -0.020072654 -0.035505619 -0.122672796 0.082785122 0.058625955 0.185085595 0.220752016
hard	0.103459388 -0.018792851 -0.038935341 -0.046931092 0.055299565 -0.044027612 0.105727188 -0.001261401 0.154232442 0.191154405
disk	0.019085813 -0.031963125 -0.015251246 0.006503694 -0.005732872 -0.090768702 0.010463022 0.001519213 0.074363917 0.155730337
back	0.077535056 0.031227022 -0.047047719 -0.025614526 0.018912176 -0.120517723 0.071608953 0.010246794 0.111124009 0.234787449
run	0.080254592 0.020154702 0.044445209 0.017011333 -0.002173260 -0.108205535 0.116240472 0.050060414 0.095428623 0.155703619
advance	0.070510112 0.013927181 -0.018495215 -0.055814877 -0.038795367 -0.024931787 0.041123960 0.004449146 0.042745706 0.030380327
keywords	0.035259809 -0.014837801 0.018157342 -0.001513407 -0.027259946 -0.126010090 0.061261147 0.045413680 0.060062990 0.138175711
de	0.055400766 -0.021476101 -0.022510156 -0.051934306 -0.045614466 -0.085367709 0.094498508 -0.011766167 0.086147398 0.093474925
interested	0.014900929 0.031656928 0.034773786 -0.047252312 -0.043905117 -0.050767727 -0.025139818 0.047331471 0.037912220 0.034408122
au	0.051990815 0.000152557 0.032455411 0.019786201 0.005037120 -0.122959323 0.027332177 -0.025928654 0.125229210 0.164239883
friend	0.014121962 0.018884370 -0.040717453 -0.056412768 -0.047554430 -0.019901942 0.033698510 0.017365504 0.008878069 0.081057809
computing	0.027948845 -0.025610702 -0.049486484 -0.043558747 -0.026166514 -0.028761182 -0.007468943 0.045019157 0.079474501 0.022609891
national	0.079761356 0.049837749 -0.012584585 -0.003822199 0.015635662 -0.113176934 0.032955948 -0.008232580 0.128764182 0.152738199
image	0.071250968 0.029090982 0.032678474 -0.068200849 0.002073186 -0.069809020 0.047018543 0.031016750 0.043544181 0.086228073
work	0.112492636 -0.009493316 -0.034825262 -0.018889535 -0.008600961 -0.106460378 0.113728285 0.017106973 0.069170997 0.204399556
technology	0.114611961 0.046218697 -0.001067469 0.020826211 -0.010238726 -0.045898650 0.066105731 -0.002946368 0.099258326 0.159795046
machine	0.084014624 -0.039154921 -0.005088101 -0.061907806 -0.030880859 -0.073752671 0.008218615 0.049614578 0.066545494 0.112876959
hardware	-0.003894210 0.031052062 0.030320456 -0.005210602 -0.020034194 -0.021058090 0.063207000 0.008099912 0.041222785 0.083594963
technical	0.022754967 -0.003300849 0.003730951 -0.019276358 0.039853219 -0.030395832 0.019026959 -0.031510312 0.057598758 0.075662866
results	0.030863905 -0.034974106 0.005310729 0.011201098 -0.032416727 -0.072440378 -0.001042676 0.023620835 0.069721043 0.153231934
final	0.061884746 0.001692902 -0.025905814 -0.041135523 0.028559197 -0.067513674 0.057719357 0.047471326 0.042925224 0.101464838
form	0.004683781 0.050760571 0.023731347 -0.028742395 0.048501045 -0.045500886 0.069419488 0.049363483 0.033248432 0.113948502
important	0.017934363 -0.026365981 -0.009095586 0.001619426 0.004980661 -0.062280156 0.039899308 -0.008337976 0.073918238 0.115258925
due	0.008270178 0.004659130 0.029003270 -0.047937769 0.021763097 -0.071618341 0.062735587 -0.035432458 0.022869727 0.068397693
college	0.075065069 0.033596579 -0.051510449 -0.040127791 -0.017668134 -0.073551491 0.007994605 -0.029846085 0.003438392 0.109571114
email	0.099416949 0.011601359 0.020061830 -0.005047501 0.015664848 -0.116704501 0.082761712 0.049864233 0.109166354 0.129877627
made	0.022303043 0.038699992 0.000905076 -0.041893099 0.006209175 -0.088308573 0.051991645 -0.014514448 0.100904495 0.186795786
international	0.063857310 0.052513439 0.013570587 -0.016348412 0.049599707 -0.048420604 -0.013429288 -0.000563824 0.055946313 0.034042630
card	0.109442018 0.039851606 0.043384977 -0.016470509 0.026401157 -0.042984653 0.029202575 0.056159895 0.100856386 0.177379414
questions	-0.017604040 0.035971183 -0.036141947 -0.033510018 0.020462537 -0.063392915 0.052952863 -0.048373837 0.047740467 0.077502698
bit	0.112731859 0.065814607 0.021864366 -0.012149217 0.010476731 -0.148628071 0.050618760 0.057298452 0.087029457 0.206768319
ram	0.106734969 0.012272699 -0.002593689 0.016509343 -0.008274702 -0.085577346 0.074006416 0.029235663 0.068921641 0.154293358
general	0.005793649 0.033322603 -0.004387644 -0.011082202 -0.018196393 -0.102937706 0.006883498 -0.031137943 0.125778034 0.160038933
faster	0.057817671 0.015678681 0.022731876 -0.028038498 0.008426926 -0.060946077 0.019754414 0.005947324 0.081994012 0.070776388
problem	0.091787167 0.026643587 -0.007904584 -0.044426870 0.032834399 -0.080391698 0.087549739 0.008349314 0.070782639 0.227103770
read	0.099498786 -0.014276097 -0.048129894 0.023770941 0.026352936 -0.112435177 0.050703317 0.046125788 0.149267867 0.153029859
system	0.047384318 0.032541230 -0.036890820 -0.074915305 -0.035331674 -0.106765926 0.128381431 -0.006652625 0.156917572 0.199008211
strong	0.060422357 0.003147877 -0.047611844 0.003758882 -0.011776221 -0.117702708 0.095146500 0.036773041 0.093734205 0.147413224
opinion	0.093225621 0.037952706 0.009302854 -0.005244119 -0.037980154 -0.074707359 0.106421418 0.023149446 0.127941430 0.179974571
early	0.045607258 0.038119186 0.036775324 -0.064506635 0.034153715 -0.006291699 0.057933021 -0.020019878 0.037247393 0.097157434
mac	0.080960892 0.003556789 -0.019911682 0.028053205 -0.002243262 -0.009927658 0.062374394 -0.016721791 0.070383705 0.111981310
department	0.043286528 0.048656143 0.015948912 0.017905243 -0.011695874 -0.041355513 0.079538219 0.028518558 0.042418778 0.075237073
christian	0.013879765 0.034085099 0.047989290 0.023503996 0.045133952 -0.074530527 0.042019352 -0.047185551 0.039311625 0.089472771
nasa	0.026941430 -0.019954346 0.020480135 -0.067200445 0.020962210 -0.102035910 0.048167855 0.015172000 0.064349391 0.196081311
love	-0.020703977 0.017131457 0.046159837 0.015430399 0.048616722 -0.007689455 0.060937695 -0.001118825 0.003361178 0.097107761
god	0.071610227 0.046327796 -0.044796024 -0.067803331 0.055299416 -0.118494555 0.037721995 0.007232621 0.124415614 0.187208742
simple	0.050297439 0.027788855 -0.029412458 -0.017904172 0.011872401 -0.031860285 0.080042891 -0.007129255 0.065417685 0.058065213
bible	0.011553875 -0.034444060 0.003474702 -0.028219616 -0.026436264 -0.000795064 0.071983963 0.049434274 0.081961684 0.080070220
reason	0.058144793 -0.018296564 0.032657985 0.022852017 -0.026927901 -0.082577780 0.043135803 0.042515598 0.143727750 0.139937028
simply	0.017107269 0.021361602 0.036528122 -0.005817116 -0.024359494 -0.116676465 0.119401164 0.027186105 0.067608051 0.190914363
truth	0.070112579 0.066918418 0.017668679 0.026465097 -0.021120856 -0.043962993 0.066909425 -0.016749186 0.113789737 0.141105384
religion	0.086014748 -0.010335208 0.047842890 -0.063697785 0.029706120 -0.080994383 0.030654207 -0.021224296 0.095829219 0.103685886
show	0.014645837 0.035432257 -0.044865742 -0.025975456 0.034199387 0.024163622 0.009991528 -0.032858104 0.059218660 0.062278558
life	0.122124821 0.053507786 -0.033664960 0.016884562 -0.002935241 -0.108321726 0.112550028 0.033239760 0.129848450 0.179044917
book	0.110217951 0.015972905 -0.017315537 -0.065543130 -0.002710026 -0.089491263 0.129272953 -0.019515730 0.099254191 0.206626207
fact	0.092370197 0.054810632 0.028718174 0.011224599 -0.027404003 -0.137715325 0.093461059 0.004111534 0.178599015 0.279349893
question	0.106899738 0.043934751 0.023311786 -0.032592017 0.037841674 -0.149983242 0.112077788 -0.002883038 0.148635238 0.195368141
history	0.022770409 0.013796998 -0.034617901 -0.030025447 0.037957825 -0.023137802 0.059529789 0.010249132 0.104986444 0.112205222
class	-0.000703884 0.018776329 -0.041750491 0.031229500 -0.027459072 -0.083408684 0.061037827 0.031470418 0.041550152 0.029150741
matter	0.092531137 0.013050608 -0.038686130 -0.024416015 0.044166166 -0.044285432 0.045202997 0.030373521 0.092403047 0.165026844
people	0.123559989 0.053390294 -0.005429815 -0.003740543 0.049102549 -0.143614724 0.200882480 0.056842856 0.233482793 0.305979997
told	-0.005959027 0.012731130 -0.011770358 0.028597161 0.029905966 -0.033912282 0.006947916 -0.006469572 0.090399437 0.081324331
ago	0.006260961 0.029329583 -0.014044878 0.022058921 0.051022168 -0.074456245 0.051979832 0.018809192 0.094289243 0.164775953
means	0.036377866 0.016397754 -0.042713031 -0.013606882 -0.007388755 -0.046840228 0.044683479 -0.007503774 0.095484070 0.132432714
big	-0.006911763 0.018810196 -0.037092172 -0.041883703 -0.028007731 -0.071129657 -0.000602568 0.000786153 0.090012304 0.064330913
washington	0.003707577 -0.012265294 -0.020250386 -0.053943239 -0.031978354 -0.093053393 0.089186177 -0.034638036 0.101175658 0.113754414
coming	0.044381171 0.050863013 -0.052083015 0.015945554 0.000460877 -0.076756880 0.033134326 0.034029800 0.092838496 0.116766237
day	0.090787135 -0.018574696 -0.006248622 0.006069795 0.055077609 -0.076080114 0.065342851 0.027011422 0.133288920 0.158922687
thinking	0.026807079 -0.020611370 -0.006838354 0.010626744 -0.033039451 -0.060785297 0.030418033 0.041015152 0.058661666 0.135039687
feel	0.045769081 0.032825302 0.038456354 -0.056143414 -0.023711296 -0.069392122 0.056150354 0.014029454 0.090387635 0.152841553
case	0.097085074 -0.026558081 0.025851455 -0.003702342 -0.036643554 -0.123656273 0.053760204 -0.009296913 0.193133369 0.223404288
thought	0.032459699 -0.019611407 0.022299178 -0.012608563 0.037915766 -0.092671476 0.034701020 -0.006931225 0.080142610 0.108005226
understand	0.086966306 -0.003487949 0.027233288 -0.067314863 0.013818260 -0.116351932 0.061468158 -0.003464488 0.101893447 0.188084677
mark	0.115620181 0.016893607 0.000019652 -0.065865196 -0.010649324 -0.126913354 0.080402024 0.051115610 0.083918810 0.148209542
dept	-0.011996184 0.029655809 -0.037562300 0.038151424 -0.042087264 -0.001962749 0.014545510 -0.040160008 0.042100918 0.053961899
reading	0.061835237 0.008501687 0.017305246 -0.026508108 -0.007463952 -0.054238021 0.026643379 -0.023070643 0.098240033 0.088849880
project	0.088161416 0.054997750 -0.016462198 0.018828314 -0.012572738 -0.076113530 0.070920445 0.034881648 0.117884137 0.172744021
government	0.082427502 0.065212667 0.012438627 0.020960363 -0.036198135 -0.139480650 0.042441927 0.036912050 0.147938639 0.180893615
hold	0.031932738 0.047091726 -0.006451759 -0.064152420 0.053169113 -0.128241345 0.110339947 -0.038855389 0.136765435 0.161471263
code	0.058181673 0.014933351 -0.036462735 0.010044036 0.016247828 -0.097876154 0.076553129 0.039064560 0.095866695 0.115853339
things	0.092464119 0.048792865 0.041068599 -0.036684886 0.048518293 -0.062298320 0.067922235 -0.013350587 0.168815032 0.198298752
claim	0.032971486 0.003664395 0.008332451 -0.016261775 -0.037671469 0.000935969 0.003208464 0.037273515 0.081135698 0.085403919
sci	0.002158134 -0.040940203 0.049074657 -0.016081134 0.047208570 -0.082615986 0.080479406 -0.006070109 0.061046381 0.105412953
net	0.040674262 0.023094416 0.047615401 -0.049356066 -0.010274632 -0.102205366 0.041237175 -0.034675851 0.086933970 0.120810330
hell	0.037758391 -0.014081709 -0.007869413 -0.003524644 -0.036141753 -0.000956541 0.046004672 -0.024605233 0.024874350 0.060838278
view	0.029207790 0.043508779 0.035488933 -0.010819193 0.014245876 -0.111450031 0.043161064 -0.025780465 0.032115046 0.157909989
easy	-0.029665174 -0.009748622 0.036645751 0.030095039 -0.035663832 -0.042732723 0.027417028 -0.015980242 0.055331390 0.077122763
jim	0.037108362 0.003562602 -0.021915495 -0.031108491 0.010097134 0.031220559 -0.008179587 -0.039943863 0.045851324 0.047438771
mine	0.071199745 -0.030889852 0.026897488 0.003579443 -0.019104304 -0.057741996 0.013049607 0.044957746 0.009721921 0.059712097
folks	0.009165408 -0.019910406 -0.006911883 -0.060466271 -0.036964331 -0.093652092 -0.005033039 -0.016366810 0.030393349 0.092104509
months	0.055943646 0.044325054 0.025486173 -0.048323952 -0.037225213 -0.112266034 0.087419294 0.050044734 0.122901656 0.121428117
make	0.095763400 0.032472886 0.023023156 -0.024580836 -0.040838271 -0.080193236 0.085458100 -0.009916388 0.114287280 0.265610635
center	0.070286892 0.056746840 -0.043340139 0.021470116 -0.041233759 -0.088138953 0.092191517 -0.040625330 0.096496560 0.157509178
research	0.042997230 0.025970321 -0.020560876 -0.013848400 0.007977664 -0.049293566 0.100841194 -0.016180361 0.081284702 0.117462710
makes	0.062561862 -0.038354762 0.009939497 -0.028217414 -0.006901905 -0.060708757 0.058125127 -0.032117728 0.031468321 0.021896917
week	0.007934117 0.016189592 -0.044765405 0.028931808 0.003211360 -0.002487587 -0.006452922 -0.045638036 0.098157972 0.049758952
answer	0.075771667 0.016927263 -0.047144733 -0.027980573 -0.043387655 -0.002897238 0.048691321 -0.041431710 0.096465759 0.077474363
place	0.044493072 -0.003835617 -0.028504182 -0.017025493 0.047430251 -0.094254352 0.056645930 0.018257610 0.090688989 0.208212793
steve	0.053135451 0.001185592 0.030753938 0.032657430 -0.044635657 -0.080441758 0.084871218 0.017162398 0.094165020 0.097675309
david	0.070331603 0.052113291 0.016189571 -0.058631878 -0.005117950 -0.093093090 0.069098264 0.033146620 0.054780614 0.125295684
considered	0.020679029 0.021703444 0.017508993 0.010534920 0.033661470 -0.063279137 0.071369395 -0.023520717 0.086501092 0.058703821
texas	0.029030966 0.038904589 -0.015790243 -0.042935211 -0.027483925 0.000791942 0.019618325 -0.044958808 0.086185016 0.022370065
called	0.057630993 0.019274892 -0.036154054 -0.032312453 -0.001621070 -0.069100015 0.068947956 0.039527144 0.079874747 0.213498309
service	0.005840961 0.026829291 0.015418635 0.022026818 0.052155331 -0.096874744 0.051027469 0.051399302 0.038408000 0.073834442
calls	0.029095490 0.035590671 -0.025200952 -0.066123031 -0.036860250 -0.006821251 0.044261612 -0.014020334 0.023284281 0.152328417
man	-0.002572959 0.060103707 -0.034237307 0.017766451 -0.001406777 -0.021978570 0.096131660 -0.027742857 0.092063800 0.132525340
post	0.079832084 0.000606798 0.014702303 -0.052893128 0.039122477 -0.149082825 0.073600307 -0.016847879 0.118930742 0.180601105
wondering	0.000402215 -0.012864545 0.002167343 -0.039393343 -0.018568356 -0.094126672 0.035675481 -0.039620493 0.105142936 0.139197677
hear	-0.028332680 0.048380993 -0.027088713 -0.006901874 -0.019144079 0.023915173 -0.039278872 0.048709717 -0.005882814 0.017235357
left	0.102785066 0.013504166 -0.039357584 -0.054297194 0.009227076 -0.081417754 0.049079511 -0.015145100 0.080058940 0.201220751
power	0.068780869 -0.027205963 0.001813988 -0.060705252 -0.007247971 -0.133446127 0.057987839 -0.017220041 0.148016781 0.234274849
end	0.122366905 0.055972692 -0.045714457 -0.007545396 -0.004876482 -0.108591355 0.065585569 0.038551927 0.148639292 0.209293276
gas	-0.003151992 0.049666401 -0.003683539 0.020668563 0.016581409 -0.058580797 0.000445463 -0.010334104 0.024143714 0.108859092
asked	0.092538603 0.042015381 0.000005028 -0.060804356 0.049251553 -0.058966957 0.080009058 -0.034214918 0.043458410 0.104259528
clear	0.052579384 0.018093573 0.036081217 -0.019939560 -0.007016258 -0.041921321 0.023418035 -0.023603391 0.054482665 0.123286806
memory	0.114259899 0.021835305 -0.020516636 -0.035906829 -0.011193294 -0.069367230 0.058032848 0.049129441 0.172172040 0.187720537
error	0.069859564 0.054137722 0.000386488 0.000751564 -0.018049590 -0.019521579 0.023706833 0.033402767 0.075312465 0.124031350
set	-0.013467846 0.017055381 0.018211180 -0.035543598 0.008429801 -0.049557969 0.012477811 -0.044716533 0.076887198 0.084100135
possibly	0.049388744 0.005762770 0.038911950 -0.004547698 0.026870312 -0.007615266 0.085524000 0.042745143 0.083405048 0.076724872
institute	0.010843769 0.000081027 0.020491494 0.041807149 -0.014992770 -0.064269468 -0.003557001 0.016492428 0.062320340 0.013134094
issue	0.060571492 0.026559163 0.032930020 -0.018899698 -0.002335418 -0.067234188 0.099468835 0.057533212 0.124147631 0.227091566
receive	0.025499713 -0.037349865 0.045123186 -0.017513428 0.022032738 -0.067015365 0.066363581 -0.001363108 0.103310496 0.152727231
part	0.061597098 0.054054130 0.026890406 0.001508368 0.009629540 -0.055807021 0.041139733 -0.019496975 0.076092578 0.145464882
news	0.112195462 0.018693175 -0.006759978 -0.021542128 -0.024773519 -0.061630379 0.112059243 -0.025194131 0.120298147 0.210886538
mentioned	0.032033328 -0.038467992 -0.044486549 -0.043504547 -0.045114804 -0.076347694 0.034474432 -0.030612551 0.053738270 0.117644742
interesting	0.004742050 0.010370564 -0.027385473 0.006757365 0.042020395 -0.024662562 -0.012980103 0.026934583 0.013204196 0.073503695
mind	0.016593911 -0.030125247 0.045419078 -0.049048081 -0.008521782 -0.042253856 0.043394636 -0.009147133 -0.003131109 0.085511915
side	0.060765885 0.028173601 -0.049865399 -0.042084634 0.025695726 -0.074201301 0.041163474 -0.007910249 0.128946543 0.152527481
kind	0.019033587 0.036866903 -0.025231574 -0.006438938 0.034813110 -0.050746888 0.021138571 -0.000442330 0.087908693 0.129127771
situation	0.078081615 -0.002545995 -0.003897446 -0.004024822 -0.019497134 -0.018164800 0.021112848 -0.019843943 0.039430406 0.099424452
appreciated	0.040162351 -0.034412276 -0.019796241 -0.035797499 -0.026284156 -0.062427249 0.037058447 0.043956306 0.118239075 0.091086738
hand	0.062124085 0.022050671 0.034116268 -0.063584886 0.054608755 -0.140879676 0.120478444 0.041332912 0.121802293 0.175381139
rest	0.077912331 0.003907722 0.013870418 0.002736241 0.053604729 -0.102209471 0.069928758 -0.016314059 0.048064478 0.128167823
written	0.045090385 0.007343447 0.003816373 -0.047615595 -0.020375205 -0.057451174 0.010692807 0.044884060 0.000164146 0.058735222
common	-0.007799350 0.019848056 -0.045382999 -0.034314625 0.024354806 -0.044010162 0.052347731 0.014941225 0.056814499 0.127416566
open	0.026212104 -0.040173125 -0.024864590 0.004719533 -0.044867255 -0.066284314 -0.009612448 0.052516002 0.098896489 0.121324293
sort	0.066663153 -0.018878888 -0.019692721 -0.008696910 0.011258137 -0.082801439 0.041954100 0.049032737 0.117994092 0.144849747
law	0.088435024 0.048546679 -0.006511347 -0.040375076 0.034556217 -0.080563813 0.103018507 0.026975358 0.123966821 0.136674523
care	0.027509820 0.026988154 0.002811392 -0.059697971 0.015341325 -0.073334105 0.096057497 -0.037968215 0.042730108 0.080643311
design	0.053662516 -0.024594815 -0.037128288 0.005034092 0.003483497 -0.032884885 0.032620519 -0.020161066 0.026032222 0.134977177
point	0.072100505 -0.005543115 0.032505784 -0.003993722 -0.030367266 -0.155976400 0.149692193 -0.013542134 0.154406354 0.259492040
taking	-0.001658532 0.004041567 -0.045842256 -0.035729896 -0.017110180 -0.061226919 0.037802439 -0.013004036 0.073412418 0.080310442
numbers	0.011665071 -0.018145559 -0.002295681 -0.036011066 0.054116968 -0.007768468 0.031929947 -0.032550965 0.105178982 0.060114931
making	0.071076468 0.055511046 -0.020257842 -0.047004368 -0.042932708 -0.085575879 0.058191285 0.016262243 0.087635249 0.107270136
put	0.036634170 0.034916405 0.030926919 0.015365889 0.041993044 -0.100279652 0.108566537 0.006717031 0.147390753 0.165539220
group	0.116866454 0.045882534 -0.030678015 -0.021494649 0.044522077 -0.077106714 0.107505143 0.046879310 0.131960422 0.228189588
info	0.077012092 0.005077786 0.004550383 -0.076199844 0.055178225 -0.070742399 0.057050835 -0.015484434 0.127616450 0.152165949
car	0.047407333 -0.002844030 -0.051686350 -0.029222583 0.012888193 -0.088968083 0.056811038 -0.023040289 0.149468511 0.188811362
higher	0.084902316 -0.028333046 -0.035464767 -0.049541086 -0.022539599 -0.013247659 0.050947770 -0.030010127 0.089044310 0.126137018
speed	-0.000133558 0.056097239 0.026636668 0.004779363 0.035358042 -0.034271009 0.061336078 0.048262615 0.063385345 0.166858450
application	-0.024708105 -0.014604990 0.047415402 0.000541236 -0.029089427 0.003111009 0.045722108 -0.002541024 0.084154606 0.076332435
california	0.023244875 -0.044920061 0.025519321 -0.024889750 -0.033109352 -0.066635549 -0.017383778 -0.006013250 0.014572608 0.044228058
org	0.077350900 0.050501708 -0.048310023 0.014053523 0.026407329 -0.040992487 0.043543775 0.054980747 0.050900880 0.089336134
continue	0.041654397 -0.040460326 -0.038219459 -0.033463210 -0.047017887 -0.063570648 0.070523314 -0.002323130 0.090439267 0.071554787
jews	0.038650144 -0.018950969 0.047498301 -0.060397781 0.002413835 -0.089353092 0.052859943 0.011345131 0.116884507 0.188899100
change	0.079629846 0.018567977 -0.002430587 -0.019970819 -0.042241935 -0.057994083 0.048037808 0.006329378 0.091774806 0.053743228
worth	0.013162218 0.048507892 0.008261488 -0.025946271 -0.039597448 -0.042821616 0.045694198 0.041260656 0.028040024 0.049879424
home	0.006134924 0.024922948 0.000313673 0.034855597 -0.030445656 0.010634534 -0.004279186 0.001350250 0.055401154 0.030170524
access	0.047617521 0.047230192 0.008734334 -0.036238652 -0.006545484 -0.071886793 0.121048428 -0.020866003 0.158003762 0.171461463
hope	0.001732960 -0.029502992 -0.022158917 0.001596848 0.028174134 0.003937454 0.044904109 0.002519383 0.073416077 0.052893497
long	0.073171809 -0.010628489 0.009921682 -0.057671279 0.038125604 -0.087656982 0.063888155 0.035577703 0.114647008 0.193994746
space	0.060710214 0.008059870 -0.034156416 -0.073348679 0.024155160 -0.108036913 0.122103430 -0.014095121 0.162870780 0.223415017
data	0.069456205 -0.020683225 -0.012487966 0.012123000 0.045044545 -0.157073975 0.126500890 0.042795151 0.139795631 0.276345015
close	0.025648348 -0.025368975 0.028879128 -0.007478497 0.038657337 -0.073895007 0.072705381 -0.002763440 0.040514424 0.149857476
result	0.034722678 0.023505395 -0.034492392 -0.049636461 0.025089150 -0.020408960 0.011687617 0.047895260 -0.009155297 0.045613371
key	0.022349037 -0.017515462 0.031483784 -0.013148055 0.037544880 -0.112719364 0.047036871 0.001802095 0.119065531 0.124889374
high	0.043437876 -0.008687996 -0.003351114 -0.009921634 0.009958165 -0.043952815 0.072213508 0.022817533 0.118803598 0.129234120
original	0.081223942 0.022292336 0.010148082 -0.006282772 -0.028368223 -0.089747839 0.045236398 -0.037012767 0.090400711 0.079977781
including	0.050449092 -0.021268113 -0.045566525 -0.034003582 0.040016863 0.007841333 0.064169250 0.052421458 0.062429201 0.023506330
days	0.055960257 0.042972900 0.022784207 -0.074002430 0.000289545 -0.047894940 0.032068841 0.014189187 0.081629843 0.143962055
late	0.086991288 0.006104382 -0.047503438 0.003660924 0.047580685 -0.048787039 0.020943569 0.030305557 0.085354038 0.128234670
radio	0.002491091 -0.006228206 0.021078525 0.001216653 -0.022042273 0.011781683 0.042863220 -0.018082879 -0.002440204 0.065359533
short	0.083137520 0.024225520 -0.035716359 -0.061048303 0.003148217 0.003948701 0.069644548 -0.003744934 0.094968691 0.037866808
summary	0.084006555 0.004728461 -0.037278701 -0.066188067 0.039453730 -0.058045428 0.069908515 0.028875204 0.091377147 0.127209395
note	0.000887580 0.049947772 -0.011487308 -0.005242354 0.038866125 -0.013038246 0.062711060 0.001341665 0.011491142 0.072518714
based	0.085266523 -0.005316124 -0.009466482 -0.072387032 0.003386628 -0.128573462 0.126408666 0.008446094 0.123148233 0.204928145
white	0.066127285 0.039473440 0.017775958 0.014700584 0.021721171 -0.051076066 0.007692446 0.004688941 0.096035488 0.079266228
gov	0.019299129 -0.001177130 0.038898923 -0.071636170 -0.042845648 -0.038771905 0.084802985 0.047411464 0.084917493 0.193812251
engineering	0.015467560 0.004864431 -0.011010253 -0.004277819 -0.014115721 -0.021205680 0.005451682 0.029059403 0.015012784 0.063777179
miles	0.031949252 0.036299929 0.015467606 -0.046486814 0.042791680 -0.025186535 0.069479324 0.037629288 0.062859736 0.035717465
population	0.113595963 0.063437030 -0.021780983 0.022064393 0.048178751 -0.144688338 0.089752331 0.037515976 0.106140532 0.210447103
worse	0.076989740 0.052591480 0.027858596 -0.006509559 -0.002617017 -0.020312097 0.000187612 0.054279584 0.059320867 0.114268661
find	0.054193977 0.014220133 -0.042445231 -0.019766787 0.016995912 -0.125651762 0.041713487 -0.036335982 0.150387198 0.130539417
times	0.028005367 -0.027331436 -0.016300827 -0.033779472 0.038009401 -0.148034841 0.062749892 0.043651678 0.078489773 0.225191176
assuming	-0.022343138 -0.016945982 -0.021992570 -0.034361843 -0.005850971 -0.028977033 -0.008765385 0.005571483 0.017145826 0.040251456
sell	0.025426136 -0.010987430 -0.046098944 0.010682171 0.015485451 -0.061384737 0.043607898 0.036470789 0.041561443 0.062980570
drive	0.048790891 -0.026647380 0.003390341 -0.000913584 0.037808701 -0.056149404 0.128500521 0.004451888 0.090704136 0.174338207
idea	0.023226438 0.023557516 -0.023112057 -0.041175399 0.052217156 -0.023236215 0.043182906 0.037336733 0.107805803 0.111052863
rate	0.032984041 -0.014015562 -0.005956473 0.004391746 0.003092901 -0.071230099 0.096632481 -0.043863893 0.052799243 0.084168337
ibm	0.085397944 -0.022870868 -0.049905580 -0.027113739 -0.014454369 -0.084908433 0.058175117 -0.040130686 0.153390020 0.215776384
remember	0.078957945 0.064829074 -0.018519675 0.017331989 0.019682346 -0.032737460 0.027571393 0.010416951 0.098674282 0.171147794
uk	0.102553338 0.028840415 -0.022974078 -0.046061531 0.033815023 -0.103404522 0.124201819 0.028868478 0.116611592 0.206154436
control	0.085978396 0.066056021 -0.013513844 -0.027288122 -0.016463930 -0.069171630 0.054533411 -0.001929750 0.149709344 0.180406600
public	0.067621723 0.043631334 0.008977382 -0.073033027 0.022760166 -0.076872408 0.099476404 -0.013876250 0.147217095 0.183156893
add	0.088753387 0.052001446 -0.022531113 -0.007125812 0.016467996 -0.024196643 0.057650778 -0.010324599 0.074035659 0.108400956
list	0.104625329 -0.001909681 -0.029749462 -0.071654111 0.029666362 -0.055324756 0.082815856 -0.038409311 0.109666355 0.159914166
wrong	0.096424185 -0.023493992 0.039497670 -0.033458300 0.014636616 -0.060913645 0.066630930 0.024506187 0.138580009 0.131040245
light	0.042763278 -0.005913185 -0.026280677 0.031373069 -0.028807536 -0.022317214 0.068501413 -0.028273890 0.069340065 0.100824215
ac	0.061535630 -0.024968389 -0.027064148 -0.045638986 -0.007247825 -0.084586062 0.121365726 -0.036484968 0.080044024 0.225484863
order	0.055487692 -0.021059977 -0.027371746 -0.047576521 0.029278880 -0.095253415 0.049826950 -0.026373042 0.115672268 0.109499052
fine	0.083214723 0.012902616 0.028957656 -0.019151341 -0.025778051 -0.031469978 0.057668559 0.013811843 0.080175050 0.111093305
references	-0.010569859 -0.002012762 -0.037579291 -0.050856441 0.015039294 0.010497995 0.063799709 -0.009504975 -0.000138128 0.079393044
mike	0.041294515 0.016110599 0.033191103 0.019133525 -0.045245379 -0.021645937 0.079205491 0.039572816 0.071614102 0.113543980
experience	-0.018113339 0.018153889 -0.021240307 0.027412241 0.034715258 -0.046031151 -0.002786164 0.047688413 -0.014559553 0.015032312
deleted	0.029895257 0.006773031 0.033301290 -0.013688256 0.051231559 -0.080616847 0.017089020 0.036000885 0.113508567 0.121439144
turn	0.075821385 0.062162757 -0.029029651 -0.074284375 -0.021236887 -0.107740678 0.122162431 0.012226167 0.182230979 0.203633055
buy	0.010239418 0.055327289 -0.037404608 -0.056982975 0.006681296 -0.050509963 -0.004666276 0.003316708 0.047045968 0.069149233
response	0.025199218 0.036988448 0.041729368 0.017351799 0.027967259 -0.049339421 0.017174538 0.045334660 0.072428197 0.092885323
gun	0.079920828 -0.009154247 0.013985982 -0.040354818 0.048517093 -0.052872039 0.130937368 0.026654901 0.118304200 0.190375373
related	0.043654095 -0.022286007 0.045001432 0.040896047 -0.032325886 0.017770668 -0.014121749 -0.033073794 0.067175433 0.064308122
children	0.073954895 -0.024914363 0.022955749 0.006033854 0.003041984 -0.053378977 0.036407292 0.023208823 0.149755344 0.215759620
hp	0.004582401 -0.029684359 0.017727284 -0.004336799 0.016659213 -0.108135916 0.003105171 0.011499758 0.046165589 0.100337565
full	0.028375614 -0.004523746 -0.045458350 0.010128418 0.008753833 -0.081439801 0.091357030 0.006175910 0.080856286 0.056777883
east	0.023348872 0.030400567 0.005706209 -0.012791827 0.022792371 -0.115863353 0.096231833 -0.044405717 0.086809568 0.137170315
western	0.046623912 -0.007316776 0.001724563 0.015780633 0.002549786 0.016562900 0.007452105 0.023467818 -0.001996674 0.083127804
single	0.042562075 0.046647385 0.036113169 -0.012442428 -0.003268751 -0.062545903 0.015598777 -0.023207104 0.075831890 0.100178704
toronto	0.095687233 -0.000442115 -0.018499503 -0.035795290 0.054128192 -0.062808439 0.097231820 0.046694539 0.085807152 0.108410850
james	0.062076669 0.050438270 -0.013500705 0.034504239 -0.030255044 -0.061491478 0.023424231 -0.046903461 0.051537141 0.138136163
front	0.076608971 0.035363797 0.000395801 -0.051552892 0.010780998 -0.137220308 0.093806505 -0.031716790 0.111383237 0.215012953
religious	-0.007463457 -0.016355239 -0.011363502 0.006976419 0.028340971 -0.034511682 0.090483211 -0.009910904 0.112909026 0.134002775
parts	-0.007225886 -0.008741629 -0.007599679 0.009581820 0.006562875 -0.011857868 0.070966057 0.050132949 0.011476969 0.027882611
game	0.033832166 0.068856746 -0.040777002 0.000741645 -0.008153497 -0.092873372 0.078746691 0.029253494 0.133818775 0.187131032
sound	0.023881814 0.019514408 -0.002473020 -0.040165398 -0.029798955 -0.000593343 0.014263393 -0.003097433 0.018175831 0.051841006
source	0.026524492 -0.017349776 -0.023081196 -0.060779791 0.030297071 -0.153742105 0.084245153 -0.037301488 0.096454218 0.185190365
exists	-0.001611786 0.014808731 -0.001972871 -0.055828895 0.021845976 -0.073984265 0.008293694 -0.029757811 0.036191270 0.018229220
wanted	0.005248469 -0.015228992 -0.022505302 0.027270870 0.015012411 -0.041378587 0.035398852 0.046410747 0.046844259 0.050403696
canada	-0.023885975 -0.024162658 -0.020758603 0.022827448 0.033652294 -0.050105713 -0.013744108 0.049366206 -0.000658656 0.041881390
lost	-0.014637098 0.014997211 -0.033388156 -0.035009172 0.018054672 -0.023956222 -0.001029933 0.022939166 0.071956761 0.042729482
rights	0.097729713 0.050995115 -0.006119239 0.011725709 -0.040553469 -0.092164718 0.076251663 0.050357386 0.129635289 0.166529924
minutes	-0.004424312 0.044844382 -0.048486281 0.016481085 0.006052154 -0.013200920 0.018783456 -0.035852671 0.092853352 0.134956867
