sale	0.041154422 0.053641997 -0.061124712 0.010809470 -0.004435054 0.005629930 0.033988789 -0.005422819 -0.049745947 -0.015026979
corporation	0.004987774 0.026222356 -0.078679748 -0.008925209 -0.009782609 -0.038453002 -0.034697246 -0.014076558 -0.008260218 -0.055141851
distribution	0.070923731 0.172550127 -0.096289858 0.004509434 0.077570960 -0.005593130 -0.050080881 0.086650215 -0.062369451 -0.057613552
nntp	0.076609023 0.205475003 -0.093020864 -0.013326805 0.166174427 -0.013163731 -0.069080867 0.090943195 -0.005212693 -0.065694809
posting	0.067772500 0.195197538 -0.192214549 0.034551766 0.139471561 -0.063615903 -0.017102798 0.083383039 -0.035500590 -0.122835509
host	0.084318988 0.170152977 -0.164078712 -0.004920693 0.166484699 -0.015385776 -0.014784153 0.154521257 -0.009916470 -0.150019452
box	0.002605383 0.176441833 -0.058644697 0.044228636 0.078147970 -0.045958102 0.020917850 0.055002522 -0.011179782 -0.078715980
type	0.042392429 0.004100558 -0.007552446 -0.029155517 0.049969327 -0.049182072 0.024753796 -0.002532664 0.040753487 0.016368877
stuff	0.021807514 0.078110307 -0.068289019 -0.014181488 0.080743134 -0.056958511 0.022871211 0.049663518 0.018069344 -0.063885339
contact	0.051596276 0.125540018 -0.091504008 0.001996697 0.059856270 -0.024053404 -0.066130631 0.030468056 -0.053286966 -0.052159175
mail	-0.008431293 0.129316837 -0.102119334 -0.041261226 0.102625303 0.011845002 -0.058734223 0.020162413 0.008526888 -0.066463418
windows	0.051039223 0.215779781 -0.085643470 -0.039001349 0.148081347 0.025230212 -0.001729879 0.109709419 -0.038366787 -0.136240155
line	0.067672759 0.158134982 -0.138662711 0.023575403 0.126824841 0.009483624 -0.067218192 0.038197305 -0.019907806 -0.060403414
reply	0.005028810 0.164114967 -0.117787898 -0.013055626 0.076270163 0.019658167 -0.051244505 0.102360718 -0.049058195 -0.133986428
pc	0.053502824 0.203738436 -0.092826515 0.012438566 0.112160698 -0.004287287 -0.072915882 0.066619597 -0.019929234 -0.097545058
division	0.043916538 0.082289793 -0.060179766 0.043345593 0.037660196 -0.035448145 -0.023806542 0.086867139 -0.004069249 -0.097522095
cs	0.067138672 0.192213044 -0.141075477 -0.038800985 0.146247491 -0.047791813 -0.045807481 0.087450452 -0.050730456 -0.050217669
world	0.006566133 0.158585474 -0.148182109 0.044594489 0.129206643 -0.002826070 -0.060481556 0.120363779 -0.011294377 -0.116654523
message	0.021493081 0.156974077 -0.089208983 0.021720508 0.069360390 -0.053542547 0.002144748 0.109133467 -0.034384508 -0.083651625
apr	-0.003221430 0.069425225 -0.057541501 -0.027065368 0.024551231 -0.004985787 0.008584229 0.063688867 -0.034971453 -0.076503552
originator	0.000189599 0.046012156 -0.060451295 -0.029668920 0.057717610 -0.021807807 -0.011416299 0.002420777 0.039462462 -0.013338026
school	0.017265536 0.038162570 -0.017327953 -0.003425752 0.055901643 -0.028930420 -0.043281544 0.019835766 0.025279261 0.007381379
computer	0.000315640 0.241998866 -0.138007060 0.054235533 0.151378125 -0.010962504 -0.022045331 0.158896253 -0.035168719 -0.094536200
science	-0.014398065 0.193655536 -0.060076468 -0.036823075 0.122197837 -0.001884592 -0.038999178 0.097791851 0.023450578 -0.096926540
university	0.013923742 0.206553623 -0.136374697 -0.009550888 0.173300728 -0.047257751 -0.030389376 0.164783612 -0.004497278 -0.091590777
article	0.060998816 0.326316237 -0.157330856 -0.028357489 0.217204556 -0.087543026 -0.092442214 0.109067656 -0.010990792 -0.104103215
writes	0.019347167 0.366444141 -0.277054876 0.061051477 0.232341975 0.001938506 -0.062086560 0.220356092 -0.023383042 -0.132830396
great	-0.011543667 0.204379424 -0.117652550 0.002450021 0.086183473 -0.077488735 0.004720071 0.098354064 0.027299779 -0.139984027
live	0.065417767 0.128449395 -0.068008214 0.013049080 0.044372011 0.028889861 -0.063864753 0.094048433 0.004383408 -0.089508086
guy	0.003193299 0.201093152 -0.111812241 -0.002196756 0.074090518 -0.054462600 -0.032657482 0.078141928 0.034919832 -0.095181510
talking	-0.005987535 0.199445754 -0.091962025 -0.018799746 0.119655445 -0.028440665 -0.037500426 0.120528042 -0.030270858 -0.088227630
real	0.069546200 0.208806068 -0.113119960 -0.020450238 0.109143324 -0.073345445 -0.043195568 0.123710193 -0.031570677 -0.156669110
agree	-0.015209816 0.018370589 -0.089009531 0.042883087 0.009112037 -0.024892846 0.023830015 0.061403897 -0.039761633 -0.070907444
internet	-0.003407787 0.136653781 -0.042096503 0.056103371 0.043038286 -0.002669010 -0.007999927 0.088809527 0.026972707 -0.016107170
phone	0.028090343 0.175419778 -0.127884462 0.040985100 0.077970289 0.026406739 -0.028836619 0.105435163 0.034634214 -0.089132793
fax	0.033157356 0.124417819 -0.092624538 0.043448817 0.084957428 -0.003159306 -0.020181011 0.014457057 -0.035737615 -0.096552543
usa	0.032588642 0.143474489 -0.157262310 -0.000708387 0.096834622 -0.043676004 -0.005914092 0.073702380 0.000534031 -0.140207127
systems	-0.002721193 0.123775505 -0.053418577 0.043201875 0.143311977 -0.042308029 -0.032728214 0.065303087 -0.000597480 -0.112341180
newsreader	0.065825492 0.092670001 -0.089019865 -0.004755836 0.091280408 0.018170867 -0.007904255 0.073476717 -0.023754893 -0.043199662
tin	-0.006183427 0.096613720 -0.088998862 0.051646858 0.042771421 -0.049816735 -0.045201611 0.050412428 0.039438181 -0.024913583
version	0.010795401 0.211591721 -0.080991656 0.040480476 0.151597589 -0.001895704 0.008219118 0.118834414 -0.043159775 -0.128633708
robert	-0.002795100 0.160065994 -0.121167310 0.017019404 0.107002579 -0.030035242 -0.002802240 0.112166032 -0.000983779 -0.037763793
wrote	0.020070123 0.204446852 -0.113680802 0.032963142 0.174018547 -0.071573496 0.009447820 0.072087869 -0.000675660 -0.139357656
chip	0.058043852 0.194568798 -0.082632743 0.003794026 0.096883595 -0.069481187 -0.065646760 0.127603725 -0.030599242 -0.066959336
low	0.063553132 0.232638791 -0.111159667 0.000105782 0.155552551 -0.059462991 -0.043608133 0.057406638 -0.030314721 -0.142494127
pretty	0.041461837 0.182722524 -0.073164649 0.009736133 0.079762943 0.021242116 -0.056908432 0.023232361 -0.031902436 -0.118869253
nice	0.031781923 0.098012649 -0.075667165 0.047678668 0.091701925 0.033122033 -0.050281141 0.015661385 -0.050033379 -0.077557340
address	-0.006429381 0.068900615 -0.113275446 0.034958433 0.095565580 -0.021283180 0.018064091 0.062885702 -0.006653569 -0.040573359
number	0.036926769 0.208542541 -0.091359243 0.062461942 0.187778860 -0.015375492 -0.068689696 0.109417371 -0.041464120 -0.085732654
information	0.006461745 0.187565014 -0.103913784 0.013311686 0.149416238 -0.047543105 -0.013109420 0.123546898 -0.040912475 -0.086456753
thing	0.002000825 0.204204232 -0.127511203 0.061445516 0.169238985 -0.020879650 -0.027255317 0.061664559 -0.057910580 -0.136667266
person	0.013149284 0.108652189 -0.094184093 -0.024512488 0.133970916 -0.068304874 -0.048173249 0.045702178 -0.042194903 -0.121446148
sense	-0.002075581 0.148349583 -0.107829727 0.019974429 0.092307039 -0.002365266 -0.035096351 0.074479058 0.035922892 -0.049785923
required	0.057960633 0.053653616 -0.033816114 -0.023813836 0.065195993 0.021588052 -0.013699296 0.020982128 0.021519467 -0.092109233
laboratory	-0.021036666 0.070803471 -0.061500911 -0.034082253 0.101372287 -0.018998086 -0.022761241 0.052648850 -0.055628508 -0.103047930
tom	0.065821484 0.089947306 -0.097684734 0.043111872 0.134422347 0.021446137 -0.021174610 0.087366357 -0.030781230 -0.092706785
lot	0.034786254 0.132517889 -0.056127921 0.003045176 0.050255273 0.034614205 -0.006569682 0.051736623 -0.002799449 -0.030385196
guess	0.037646789 0.187105492 -0.148429006 0.042675994 0.120739736 -0.008200617 -0.023986969 0.061280873 -0.016842514 -0.076413304
give	0.055737015 0.141834483 -0.101363160 -0.016525680 0.153124213 0.017791888 -0.069891065 0.054602627 -0.030056389 -0.080296844
total	0.062028062 0.055492315 -0.065785147 -0.042588767 0.081238747 -0.058513772 0.018751234 0.076940499 -0.055937741 0.001346784
cost	0.048073437 0.112944894 -0.122318424 -0.032628719 0.050333470 0.019028287 0.005375885 0.030465936 0.022875298 -0.038791526
company	-0.037376333 0.007203653 -0.002938447 0.052895680 -0.014998602 -0.047643688 -0.028813936 0.044232432 -0.016683890 -0.025354413
word	-0.006988276 0.143137768 -0.175603405 0.009869744 0.074923664 -0.010279291 -0.048053004 0.141386107 0.002054727 -0.096082628
takes	-0.024392717 0.114964239 -0.060476769 0.017201012 0.116324767 -0.019206384 -0.053303529 0.008096691 0.003204481 -0.103280909
state	0.027886085 0.198057532 -0.188360676 0.060906906 0.157997727 -0.068366878 -0.019345535 0.063074648 0.017216515 -0.082200624
today	0.079441987 0.206406921 -0.069847263 0.034907773 0.112277478 -0.033789191 0.018477146 0.108784862 -0.050774831 -0.121250160
money	0.071198627 0.116395414 -0.088292941 -0.009731749 0.083719216 0.014643976 -0.038002327 0.032031123 -0.044769123 -0.029585999
pay	-0.019189216 0.094572850 -0.074996881 0.016454736 0.017844865 -0.006469844 -0.008231988 0.004836231 0.022485621 -0.026532086
large	0.061423671 0.167073101 -0.146586597 -0.023450218 0.077093549 0.029323678 0.003379531 0.064599477 0.006120286 -0.099834047
true	0.067317121 0.170177206 -0.104177438 -0.001648339 0.128291860 0.008066770 -0.008179646 0.113959640 0.026784172 -0.105770305
call	-0.017259987 0.231490180 -0.142526135 0.034974582 0.165498629 0.022802146 -0.056042597 0.051972635 -0.037819788 -0.132051870
job	0.031707678 0.007438362 0.017821612 0.036362212 0.011609959 -0.032500375 -0.002373337 0.066585481 0.020295642 -0.069729947
dod	0.051950425 0.058548771 -0.064775139 -0.008025012 0.060469106 0.002736928 0.012240672 0.036082618 0.022280132 -0.071990333
bike	-0.003430303 0.148035631 -0.108730145 0.023878075 0.164898813 -0.065617204 -0.061659485 0.146105155 0.001215589 -0.066872545
disclaimer	0.065737993 0.120933674 -0.056237005 0.048919033 0.084951855 -0.033968497 -0.040592074 0.119365878 -0.044096723 -0.044710599
board	0.016604774 0.103458636 -0.076102309 0.007039680 0.072175063 -0.020671440 -0.042872854 0.096313022 0.012694386 -0.038338523
copy	0.013972761 0.044456802 -0.081895784 -0.001139896 0.079937167 0.023117721 -0.059778254 -0.005732568 0.009276135 -0.036098484
network	0.051209308 0.170017585 -0.114195079 0.052002776 0.048950262 -0.055545501 -0.040988747 0.098258689 -0.025545560 -0.062972091
posted	-0.013454664 0.046391044 0.006190459 0.007384151 0.058689408 0.015313963 -0.012624469 -0.014061320 0.034927297 -0.055182740
opinions	-0.011257722 0.160146967 -0.130803928 -0.029320659 0.110321805 0.020908086 -0.002760900 0.083164267 -0.034726262 -0.076627947
expressed	-0.006418364 0.051094271 -0.060188010 0.013428378 0.040316857 0.002131128 -0.048628841 -0.001098724 0.036675986 -0.029848874
bill	-0.027503485 0.089275673 -0.091109544 -0.019228052 0.014570407 0.035525054 0.011785553 0.052148066 -0.050701287 -0.048467398
date	0.033237252 0.121637583 -0.055828881 -0.010126185 0.093095466 0.024894124 -0.030150842 0.077055298 0.010468778 -0.072838485
write	0.033895515 0.104952902 -0.044471789 -0.001236931 0.034834433 -0.018443026 -0.025033683 0.085183546 -0.054588679 -0.063157178
good	0.010646149 0.236933172 -0.189524010 0.003709807 0.166883379 -0.074824162 -0.014334133 0.092147231 -0.046019040 -0.111752458
software	0.074581318 0.177828014 -0.140218377 0.053065080 0.083528437 -0.023069879 0.009276588 0.087506332 -0.056529708 -0.064056873
couple	0.014901736 0.100204334 -0.109353378 -0.019781739 0.119940251 -0.026354641 0.024376838 0.090511218 -0.054726806 -0.014824505
program	-0.015074467 0.161986351 -0.105924711 0.005270539 0.138541549 -0.022583619 -0.057584744 0.041141529 0.025589146 -0.099562705
similar	0.037759632 0.157080382 -0.085749760 0.057791695 0.089315578 -0.042142604 -0.001410331 0.103610933 0.009930925 -0.092700571
send	0.042324632 0.182564497 -0.063791499 -0.036692504 0.136194572 0.016322739 -0.069740854 0.106735788 0.022501675 -0.100808956
free	0.052881435 0.081713386 -0.101694770 -0.018306548 0.020703813 -0.053316284 -0.045336615 0.069505587 0.000539267 0.002062400
support	0.005566736 0.011575527 -0.051583707 0.026307290 0.062060375 -0.025713179 0.024208920 -0.016760059 0.037133660 -0.032059703
small	0.022415208 0.159426600 -0.061573356 -0.031157447 0.063292272 -0.056982666 0.016438333 0.026315469 -0.056779884 -0.035140671
figure	0.061063398 0.049774814 -0.107735477 -0.027158555 0.086162522 -0.050400913 0.024847109 0.080894761 -0.037129790 -0.044714101
price	0.057077773 0.105466165 -0.003407770 -0.030510051 0.095842153 -0.017961580 -0.005903783 0.000568260 -0.043622028 -0.001580709
bad	0.024681725 0.199886620 -0.122056983 0.037549652 0.154272527 -0.062926553 -0.075604446 0.144543305 -0.057400133 -0.078624614
ca	0.081198260 0.153172329 -0.085200943 0.027460255 0.100747667 -0.056330405 -0.056873936 0.078796528 -0.037151847 -0.149360359
john	-0.006603295 0.224399909 -0.135045364 0.016092198 0.149434835 -0.060786229 -0.003473916 0.126467884 -0.056108885 -0.084992960
city	0.061202317 0.069307022 -0.088702597 0.002869986 0.041954745 -0.027415212 -0.006989411 0.010317544 0.026037645 -0.058483496
time	0.082252629 0.245703727 -0.188764021 0.046699382 0.206271634 -0.006855275 -0.053704195 0.113654435 -0.020677976 -0.167836726
effect	-0.010626130 0.102758497 -0.123241007 -0.040975805 0.130381688 -0.060711298 0.014422789 0.084283739 -0.017770698 -0.033392280
year	0.005017634 0.197636262 -0.128520891 -0.002339210 0.149655119 -0.028086444 0.019539488 0.084665127 -0.025790194 -0.055107649
stop	0.009272555 0.116648108 -0.072640575 -0.039858464 0.063308716 -0.033565674 -0.029129896 0.081900291 -0.039053086 -0.041413892
heard	0.017895544 0.144541204 -0.121468678 -0.001825317 0.108211763 0.022595052 0.002459947 0.140767545 0.020572975 -0.111127086
current	0.076347202 0.211021677 -0.080325864 -0.031749770 0.146272629 -0.070051767 0.006010322 0.139122158 -0.000564683 -0.067850351
top	-0.030727519 0.073387712 -0.031698018 -0.029643597 -0.003352768 -0.035413250 -0.036739897 0.071959749 0.025441889 -0.049210168
interest	-0.017866602 0.019516412 -0.058595322 0.015923589 0.010550638 0.039459527 0.014686527 0.052609395 -0.032815251 -0.076057322
understanding	0.058991712 0.190561667 -0.086969480 0.049495436 0.116032735 -0.061174009 0.002662525 0.069926687 -0.002297554 -0.061205864
major	0.056200009 0.154296368 -0.125673860 -0.008598144 0.147732690 -0.032920759 -0.000713122 0.095006816 -0.031766981 -0.127239004
years	0.059752915 0.293167174 -0.210785925 0.046076313 0.141313806 0.004739314 -0.072714001 0.081563927 0.011526022 -0.115285344
ms	-0.006423808 0.112059221 -0.018859951 0.049803205 0.061277188 -0.046063468 -0.029397741 0.001170947 0.023539137 -0.072280765
dos	-0.003386643 0.196032196 -0.152908027 -0.032276370 0.123241037 0.028594133 -0.067972869 0.058433514 -0.056457557 -0.092050046
found	0.034528486 0.175162926 -0.062248688 0.004995862 0.125573888 -0.067918748 -0.072103895 0.029021934 0.025076019 -0.120768562
cc	0.067212753 0.141219974 -0.160032555 0.044779357 0.151434630 0.012975818 -0.004816106 0.053377021 0.025965746 -0.088895954
sun	0.005073701 0.226782814 -0.102954008 0.004355191 0.124878101 -0.015428285 -0.009594491 0.097432502 -0.052104011 -0.087823696
problems	0.045689933 0.170423746 -0.131688938 -0.021426611 0.130803302 -0.067565016 0.014951411 0.035246998 0.003255002 -0.129855096
start	0.002974005 0.115109399 -0.137566999 0.023981901 0.135992885 -0.012745481 0.002129617 0.090583287 0.021318708 -0.045503367
display	-0.017441330 0.147621781 -0.074216731 0.040844068 0.082016394 -0.028166143 -0.066760518 0.079121657 0.029502213 -0.100910783
file	0.027275596 0.255791992 -0.188821733 -0.007369972 0.101424143 -0.059400767 0.000393795 0.113982163 0.023748657 -0.137877077
hard	-0.013652831 0.217311397 -0.072300956 0.039615739 0.130831063 0.024851168 0.003047919 0.112773605 -0.059489496 -0.127259865
disk	0.023472935 0.121343553 -0.086449847 -0.003333559 0.044898599 -0.044441588 -0.027955778 0.107086107 -0.039027698 -0.072273031
back	0.060864490 0.288621962 -0.152893081 -0.023925990 0.203147903 -0.008971283 -0.036417920 0.172726780 -0.029675851 -0.115507804
run	0.060040519 0.161586270 -0.164552882 0.009386373 0.114426568 -0.060592309 -0.071597598 0.073913112 -0.025387114 -0.064916112
advance	-0.003648271 0.099284455 -0.075408511 -0.009237004 0.061363023 -0.054179419 -0.043950342 0.012634564 -0.046458006 -0.070123047
keywords	-0.005432612 0.167071790 -0.113748401 0.045372013 0.141808584 -0.042859863 -0.028316341 0.057495117 -0.015640156 -0.066206187
de	-0.024408057 0.088468358 -0.030963171 0.055821240 0.044068884 -0.041641064 -0.059988584 0.093162164 -0.000763968 -0.046457190
interested	0.004227826 0.066861182 -0.040566754 0.022032382 0.012276216 -0.054400716 -0.042375453 0.023317920 0.035185248 -0.052444175
au	-0.015802253 0.198418096 -0.111251466 0.009662434 0.074249305 -0.026006471 -0.066426024 0.082161836 -0.055276841 -0.134230450
friend	0.040507656 0.076260947 -0.020593172 -0.040625241 0.073612913 -0.002528148 -0.034476280 0.032587390 -0.021148069 -0.015463671
computing	0.045563869 0.059054207 -0.010565013 0.024441453 0.043316472 -0.003383816 0.031967126 0.068885751 0.030337527 0.001288243
national	0.033659719 0.140587792 -0.095144756 0.057627544 0.079598628 -0.030098604 -0.075930826 0.082493082 0.008922216 -0.106442399
image	-0.009170839 0.164944217 -0.079833694 0.023443071 0.107088715 0.023969293 -0.072183318 0.087897472 0.030771064 -0.115019634
work	0.078024946 0.145535871 -0.068984531 0.049956556 0.125021026 -0.037648533 0.008420607 0.108790882 0.026173234 -0.100478157
technology	0.026438659 0.123696156 -0.105786994 -0.009344293 0.117525734 -0.056118395 0.011721913 0.135006294 -0.060742345 -0.051906399
machine	-0.005454103 0.073937654 -0.108573914 0.035820786 0.037319008 -0.050695676 -0.013673472 0.079353102 0.010389145 -0.070565343
hardware	0.001307531 0.069712959 -0.064725682 -0.041900832 0.043692097 -0.017447101 -0.004448309 0.065093897 -0.047764383 -0.018114770
technical	0.042844206 0.092751443 -0.017750312 -0.038107298 0.025772603 0.035782516 0.010538120 0.060136881 -0.028213119 -0.036417849
results	-0.021183079 0.152306408 -0.111708581 0.022753064 0.039851662 0.023915958 0.011736262 0.107092194 -0.018249298 -0.109069146
final	0.007850592 0.145668343 -0.096481577 -0.019721920 0.047807381 -0.042135637 -0.037678216 0.071900949 -0.015822476 -0.084970564
form	0.009507068 0.119473957 -0.062444467 0.037920233 0.098119669 -0.023844002 -0.020406419 0.074535035 -0.010472615 -0.035732362
important	-0.002758639 0.171100855 -0.133219942 0.054935161 0.082763121 -0.035589818 -0.019646157 0.028933469 -0.037501819 -0.106880456
due	0.040005878 0.085274592 -0.066905007 0.030858301 0.027491599 -0.016329641 0.003708669 0.024086589 0.008423854 -0.076391838
college	0.053894691 0.068738177 -0.019453436 -0.010846697 0.078135692 0.013221222 0.013127042 0.048300963 -0.017676579 -0.061349709
email	0.018261164 0.185594305 -0.106151350 0.018347476 0.092158288 -0.032830376 -0.072483726 0.047666270 0.025004106 -0.098275408
made	-0.013137730 0.143455580 -0.155240700 0.011053804 0.069356076 0.004663423 -0.057431750 0.126378074 -0.029401310 -0.057606224
international	0.046520423 0.057756737 -0.029344659 -0.032897722 0.087010950 0.017384091 -0.053271323 0.061116319 -0.049140688 0.005971529
card	0.043145828 0.141302586 -0.071663745 0.047026578 0.145548001 -0.063676178 -0.018320384 0.098041900 -0.007889692 -0.116918102
questions	-0.017521771 0.035978440 -0.057676695 0.031268518 0.040174078 0.038528398 -0.057319522 0.050296083 -0.002530806 -0.000030097
bit	0.018081797 0.193482593 -0.164048880 -0.016450811 0.114180915 -0.076411456 -0.009371964 0.131370693 0.017323041 -0.115682743
ram	0.027000800 0.113644540 -0.104869179 -0.021162389 0.106594175 -0.069923110 0.020162510 0.123193592 0.012349587 -0.089268662
general	0.031971198 0.099429339 -0.097922683 0.031133976 0.063895293 -0.059508782 -0.040288754 0.061052207 -0.039103821 -0.091714703
faster	-0.016787402 0.145917013 -0.089451678 -0.008600693 0.055141419 0.012451102 -0.021926364 0.071178831 0.040278461 -0.082776338
problem	0.001992405 0.180087015 -0.076619849 -0.010587799 0.081699893 0.012550965 -0.007648151 0.058389153 0.011274847 -0.101327747
read	0.061195716 0.127230808 -0.136656120 0.056994352 0.141357958 0.020694347 -0.045877967 0.075012460 -0.010442030 -0.051449083
system	0.077491537 0.225592628 -0.196580961 -0.019827599 0.185964853 -0.048337087 0.004026667 0.116987027 -0.001166564 -0.169929475
strong	0.029294774 0.191083506 -0.059146479 -0.034364119 0.131348193 -0.055721439 -0.022429673 0.124857701 -0.006578549 -0.131875888
opinion	-0.003496250 0.144851282 -0.053133622 0.049937915 0.111122996 -0.059534248 -0.026625324 0.056794718 -0.004748997 -0.080164403
early	0.037878502 0.131847128 -0.044675410 0.018386351 0.107832387 -0.038537364 0.030281914 0.101059072 0.009903998 -0.028791294
mac	0.065481447 0.052882649 -0.102432199 -0.028422797 0.080480225 -0.035383213 0.023343885 0.022263106 -0.027435025 -0.080708839
department	0.002149166 0.072627954 -0.095339350 -0.038277566 0.063447200 -0.064052261 0.019419264 0.020451199 -0.011710620 -0.062006336
christian	-0.002323152 0.028318865 -0.054419857 -0.031671189 -0.002891982 -0.035334334 0.003544233 -0.001916009 0.035178218 -0.033132482
nasa	0.072280176 0.197049096 -0.119946137 -0.030721579 0.104463816 -0.043661159 -0.002398811 0.117619976 0.005102883 -0.072369523
love	-0.039252087 0.072166324 -0.075396739 -0.010913407 0.014084797 -0.051739994 -0.020520048 0.062321559 -0.024206329 -0.012155973
god	0.074232914 0.179394811 -0.081773289 0.020851297 0.115033388 -0.018882127 -0.077478118 0.125868022 -0.009870158 -0.087157108
simple	0.026170606 0.123703785 -0.088426419 -0.039950795 0.062507041 0.001918816 -0.006084472 0.060488883 -0.041613832 -0.014536429
bible	0.061627381 0.094126865 -0.048181921 -0.037268348 0.028208567 -0.013650986 -0.009052288 0.035987601 -0.034964781 -0.053667463
reason	0.005037243 0.155972123 -0.099482514 -0.017908869 0.072093867 -0.016886977 -0.004477005 0.086556882 -0.042572822 -0.090126179
simply	0.023188770 0.114774995 -0.061380882 0.033871412 0.088774137 -0.069080241 -0.048222050 0.117140114 0.030874517 -0.091601811
truth	0.026143333 0.193563148 -0.052227668 0.027948717 0.067729831 -0.007275636 -0.028297536 0.031297244 0.038286656 -0.031720623
religion	0.017662704 0.122047737 -0.096636899 0.049767993 0.062896326 -0.046726234 0.019436568 0.085686170 -0.039065853 -0.076166056
show	0.025495294 0.081683367 -0.035399646 -0.039221406 -0.000042697 0.042582653 -0.045923512 0.008416130 0.024736661 -0.060509223
life	0.023101164 0.191340655 -0.124628060 0.052877076 0.086254857 -0.061317857 -0.064392351 0.097844705 0.007929070 -0.081145465
book	-0.012486512 0.189843774 -0.096458137 -0.025881467 0.114422143 -0.015816774 -0.051367611 0.058915261 -0.033112142 -0.131133035
fact	0.073541477 0.263787240 -0.198092520 0.034244277 0.146439761 0.002817089 -0.073382214 0.101475649 0.002756793 -0.151512355
question	0.069700092 0.243395716 -0.174595520 -0.006554181 0.142770171 -0.035331596 -0.069425605 0.127931938 -0.050352119 -0.082548156
history	0.027093748 0.147146359 -0.091637462 0.056581173 0.086980790 -0.009287372 -0.071355663 0.107456565 0.005376390 -0.059504032
class	0.043392040 0.038919106 -0.035402477 0.010640014 0.057186313 0.001922223 -0.036227029 0.067289822 -0.038822886 -0.041825719
matter	0.040918674 0.166404307 -0.088172793 0.041751064 0.150345311 -0.020932047 -0.057981253 0.102346048 -0.035110749 -0.051522378
people	0.062931001 0.331799626 -0.227269053 0.027959878 0.179160625 -0.081666216 -0.103632659 0.161550954 -0.010575454 -0.174379021
told	0.063279174 0.101209812 -0.049925998 0.022845348 0.095069513 0.030091442 -0.028625414 0.034115266 -0.034680497 -0.092843920
ago	0.062014539 0.156952739 -0.130804181 -0.038792141 0.040239591 0.002051595 -0.035737667 0.068864562 0.018968998 -0.098352112
means	-0.007704041 0.146823242 -0.044557575 0.029235631 0.083389021 -0.050537851 0.006930052 0.062701896 -0.017015243 -0.064913653
big	0.018591005 0.143473133 -0.058584820 0.003947394 0.057549007 -0.031195598 0.007036101 0.100300476 0.015625332 -0.025459608
washington	0.001927639 0.151948616 -0.133362621 0.032435488 0.116978802 -0.039334729 -0.024758976 0.043798055 -0.046394922 -0.034518510
coming	0.042883713 0.107276700 -0.012685861 -0.035193745 0.025050817 0.008164260 -0.061370078 0.025097797 -0.013445241 -0.067358546
day	0.021107677 0.174424306 -0.089814737 -0.016581384 0.122827061 -0.051293217 -0.050609756 0.103716776 -0.035761457 -0.049249969
thinking	0.010666629 0.131364927 -0.099649712 0.038847663 0.061704926 -0.057877257 -0.003354378 0.030763606 0.009229641 -0.006088224
feel	-0.021359075 0.195353463 -0.126604661 0.007055949 0.054573450 -0.018755725 0.014463897 0.091942839 0.009694687 -0.112217210
case	0.048473548 0.178927258 -0.122254111 0.024103176 0.172058180 -0.069002524 -0.072987519 0.085694261 -0.010654924 -0.131935790
thought	-0.022386132 0.106439568 -0.126736447 0.003850345 0.137742519 -0.038518064 0.017534755 0.092533313 -0.023951273 -0.114475727
understand	0.065050200 0.148753420 -0.144217685 0.024635686 0.074956499 0.010926605 0.011918929 0.093514733 0.013333156 -0.114115044
mark	0.074347056 0.162989408 -0.126602471 -0.014880093 0.153803766 0.014615349 -0.005183234 0.037869681 0.014563867 -0.048152022
dept	0.033919431 0.085177392 -0.083358675 -0.015271415 0.020448640 -0.003721170 -0.007298530 0.089028999 -0.004411658 -0.064778604
reading	0.050414704 0.126806602 -0.107100956 0.022343555 0.097385995 -0.049426772 0.023930233 0.012990045 -0.054510858 -0.102099851
project	0.047402877 0.155012786 -0.135680750 -0.024170468 0.055327162 -0.019271763 0.009104015 0.106320269 -0.009306625 -0.025988229
government	0.011297798 0.150763288 -0.171082765 0.050680496 0.122087285 -0.024889618 -0.024644684 0.127806202 -0.029841151 -0.104758136
hold	0.001037765 0.184132561 -0.070222117 -0.028647810 0.116354287 -0.007527031 -0.041513383 0.072231524 0.025589056 -0.129956335
code	0.073470250 0.174376115 -0.082281031 -0.026621701 0.119724780 -0.025539538 -0.068301514 0.078117438 0.036636066 -0.067559764
things	0.027734086 0.186372653 -0.172719344 0.031652316 0.096279338 -0.061607860 -0.009974363 0.055247322 0.034568243 -0.076821357
claim	-0.015862359 0.059567913 -0.067390293 0.028864233 0.025817879 -0.018226793 0.025101392 0.036388818 0.010248506 -0.016964233
sci	0.052942686 0.129443154 -0.090046838 -0.033840522 0.019812388 0.016169192 0.011139581 0.094688311 -0.004880999 -0.046267986
net	-0.009326423 0.060218707 -0.084201977 -0.034485105 0.029099051 0.002165189 -0.035215024 0.107167110 -0.027014466 -0.063840091
hell	-0.016742846 0.054472465 -0.008398854 0.005822464 0.099981502 0.007840404 0.014558396 0.010813743 -0.018547542 -0.012476870
view	-0.028444463 0.137475923 -0.108552136 -0.009237846 0.051531106 -0.048640307 -0.059933335 0.106785521 -0.047141213 -0.024882752
easy	0.043130513 0.061901178 -0.034694653 -0.033643473 0.040436819 0.014563965 0.030033804 -0.020315286 0.030481558 0.022492355
jim	-0.024779459 0.046958406 -0.045320738 -0.047234993 -0.028326696 -0.017026776 -0.032038324 0.019076223 0.024366749 -0.044513628
mine	-0.035323579 0.103123762 -0.054556377 -0.036123767 0.076156020 0.003750200 -0.003891688 0.036244337 -0.040711448 -0.024131253
folks	-0.010631479 0.145806387 -0.087969765 -0.002431156 0.103843138 0.024917381 -0.032842342 0.038798772 0.027121119 -0.022098674
months	-0.004489232 0.180522889 -0.085548110 -0.035973221 0.079556324 -0.046214096 0.016925292 0.100630686 -0.002943872 -0.102773860
make	0.031433225 0.244366586 -0.167695552 0.005691766 0.138564587 -0.080074787 -0.067672208 0.120975003 0.024420837 -0.092813447
center	0.007501527 0.166592196 -0.129831016 0.005711535 0.047380213 0.014488720 0.004319218 0.037849512 -0.014281151 -0.079430670
research	0.040129952 0.089254536 -0.094128326 -0.028576050 0.111658514 0.014307960 0.006801457 0.049315706 -0.055803262 -0.062173847
makes	-0.010320140 0.076455042 -0.027806800 0.044435170 -0.004168706 -0.011188970 -0.010779705 0.002377310 -0.039049260 -0.029321838
week	0.029639754 0.082086958 -0.086989366 -0.020641908 0.070807047 0.020815643 -0.044182498 0.030823817 -0.008730522 -0.023179643
answer	-0.019724894 0.119635105 -0.081102408 0.024819149 0.028038077 -0.035630751 -0.040760715 0.009604525 0.018783219 -0.062319584
place	-0.005907504 0.125519663 -0.160192892 -0.002978330 0.152076617 0.003210293 -0.018402778 0.069697052 0.005261950 -0.074923441
steve	0.018780515 0.057015643 -0.071915470 0.038470797 0.082389086 0.009432551 -0.042364240 0.005488617 0.009803175 -0.023139821
david	0.041572541 0.151543468 -0.041424859 0.004960733 0.090357855 -0.002187835 -0.032836571 0.061870608 -0.040585902 -0.043898143
considered	0.017260944 0.064624593 -0.070135526 -0.039715275 0.028637296 -0.014754592 0.026545431 0.052778158 -0.014235356 -0.022807453
texas	-0.012606188 0.053835053 0.002608821 0.037027020 0.071341880 -0.041844353 -0.044000968 0.082572408 -0.018362556 0.005500024
called	0.010545466 0.164668187 -0.092941321 -0.019440712 0.147678882 -0.017835893 -0.059078790 0.051791903 -0.060828540 -0.126447335
service	0.026357098 0.077012710 -0.069246762 0.025785344 0.018771352 0.001855947 -0.049078796 0.038036760 0.038004667 -0.079288185
calls	-0.015104970 0.065121472 -0.034541328 0.016055014 0.045150228 0.023572711 -0.005368618 0.019654974 -0.027995264 -0.011927530
man	-0.010762002 0.069519572 -0.035985086 0.032182306 0.109124705 0.015216967 -0.030407351 0.102815196 -0.011535252 -0.018313095
post	-0.002910280 0.246420875 -0.160805196 -0.011657218 0.086109333 0.018496977 -0.058318280 0.085671008 -0.027197177 -0.126302466
wondering	0.056466762 0.055683341 -0.069479555 -0.031672817 0.117800429 0.020758061 -0.030208476 0.033573594 -0.017629741 -0.037954997
hear	0.037444938 -0.011402901 -0.055469885 0.050965842 0.002766282 0.035900515 -0.025930995 0.047741059 0.026507109 -0.046514250
left	-0.009456712 0.188748121 -0.147890612 0.029202316 0.118388832 -0.016183002 -0.029513264 0.047465421 0.009351834 -0.093240514
power	0.083185174 0.187296137 -0.117163919 0.030708902 0.169652984 -0.059458341 0.008058837 0.157075569 -0.024671592 -0.153252646
end	0.071609877 0.164704129 -0.170109615 0.050270498 0.129422724 0.019889105 0.016078416 0.113110818 0.029712461 -0.147834122
gas	0.057994109 0.087660886 -0.013345343 -0.043331973 0.069648534 0.017996153 0.026371384 0.084836282 -0.026660988 -0.033333313
asked	-0.006436666 0.154824451 -0.029113337 0.052642591 0.060088564 -0.003959015 -0.016758956 0.023203358 -0.004161657 -0.102452025
clear	-0.004399938 0.104790106 -0.041610587 0.017287303 0.077590451 -0.038455844 -0.033718120 0.007105210 -0.015115851 -0.050340135
memory	0.041974708 0.176556781 -0.190877751 0.013337730 0.180148169 -0.066655234 -0.003202096 0.093551755 0.034879263 -0.113041610
error	-0.032311052 0.102593713 -0.095679887 -0.006972662 0.023877259 0.005572735 -0.031800032 0.032055967 0.016317336 -0.086810999
set	0.033474177 0.107587866 -0.043020349 0.000835894 0.029320527 0.001194801 -0.019793138 0.033908959 0.015614792 -0.065779671
possibly	0.026833374 0.136076152 -0.036003828 -0.013551899 0.103064694 -0.031464614 -0.045005582 0.024139583 -0.040371109 -0.014194448
institute	-0.024075473 0.030090712 -0.052002229 -0.041926775 -0.028464846 -0.024405861 0.041889686 0.035341792 -0.036366858 0.019160537
issue	-0.015335865 0.165372208 -0.105516978 -0.003299977 0.095996797 -0.064402588 -0.064132713 0.112951301 0.009670184 -0.055454157
receive	0.015958786 0.157263666 -0.120737642 0.047188651 0.059709162 -0.020590410 0.023822349 0.020112228 0.020481003 -0.080663569
part	0.019171415 0.094875343 -0.102399856 0.020763900 0.057819970 0.009415151 -0.026420843 0.037921835 -0.023834720 -0.040671002
news	-0.010382327 0.177999973 -0.148228541 0.060209651 0.175728485 0.005072495 -0.056329355 0.053790551 -0.021900648 -0.111203231
mentioned	-0.005348347 0.100924186 -0.102857962 -0.028861033 0.056587480 -0.049321435 -0.058137625 0.082457967 -0.047102846 -0.020830972
interesting	-0.012293771 0.085958727 -0.077043474 0.033751432 0.046220288 -0.018731344 0.026850156 0.033339947 0.026901966 -0.007553572
mind	-0.009680969 0.054282818 -0.011105903 0.015273989 0.023660179 -0.025914775 -0.046474319 0.057889115 -0.035064735 -0.032209683
side	0.028099688 0.138771981 -0.069029205 0.036570974 0.077873118 -0.000238103 -0.060436886 0.045959592 -0.044308197 -0.090742014
kind	0.011959513 0.197310746 -0.138213426 0.014893734 0.136598453 -0.047846738 -0.009856834 0.043074068 0.019866411 -0.050457466
situation	0.015911127 0.162895516 -0.115215138 -0.014441869 0.124314681 -0.036041353 -0.042004216 0.104336262 0.013856634 -0.094481386
appreciated	0.058994349 0.136863217 -0.043790989 0.029968569 0.061136991 -0.001049250 -0.000866346 0.068048395 0.009086486 -0.112451792
hand	0.025719656 0.168053120 -0.154807866 0.058008354 0.149698049 -0.011896636 -0.058698487 0.062531076 0.006296080 -0.094904445
rest	0.030412346 0.151415557 -0.041534543 -0.021682072 0.097886607 0.003180117 -0.008584736 0.098727897 -0.031169837 -0.082072318
written	0.060281206 0.118142441 -0.062484059 -0.042478718 0.005988902 0.010228809 0.014619229 0.014008269 -0.050178114 -0.046468627
common	0.030425051 0.079628408 -0.030745978 -0.027291650 0.024755111 -0.003258005 -0.059066363 0.007498044 0.029372279 -0.092425741
open	-0.009073622 0.098357096 -0.029504247 0.006659135 0.090138532 -0.043871760 0.022071308 0.045115806 -0.024570821 -0.055746920
sort	0.026426073 0.090471104 -0.100540161 -0.017875681 0.031785019 -0.058694802 -0.068910204 0.027224761 -0.046689026 -0.020201921
law	0.021330314 0.142692640 -0.079158433 0.040273685 0.078261271 -0.026642263 -0.045780316 0.113699615 -0.029359190 -0.121299513
care	-0.000030329 0.162242308 -0.096404158 0.013807507 0.059449546 -0.044973921 0.002120893 0.106027842 -0.009694828 -0.092933908
design	0.066909701 0.122966655 -0.091829397 0.013436195 0.051705290 0.000323670 -0.061302502 0.078519434 0.007122352 -0.047819961
point	-0.000957509 0.292586029 -0.202111438 0.042296924 0.151952520 -0.027592646 -0.061995201 0.151928589 0.016085221 -0.135489032
taking	0.009449091 0.051000614 -0.052454248 0.008514169 0.082511164 0.037738048 -0.048952088 0.012503427 0.021663927 -0.042307913
numbers	0.002548220 0.070391782 -0.061855163 0.056664821 0.099194504 -0.001191122 -0.034716044 0.036372874 -0.036893625 -0.095109805
making	0.059130207 0.130596846 -0.104758427 0.031119071 0.039499301 -0.008095131 -0.020382987 0.018566821 0.013088243 -0.067283057
put	0.056138936 0.152417079 -0.061830334 -0.022786006 0.121047854 -0.002492195 -0.074196547 0.105258092 -0.040392064 -0.100480638
group	0.016207786 0.147911951 -0.122859724 0.010670451 0.159481481 -0.013973891 -0.074762627 0.059416510 0.032486062 -0.151627198
info	0.002430719 0.190560341 -0.088346548 0.043854594 0.138189256 -0.025166091 -0.024197504 0.118102625 0.001158678 -0.113939151
car	0.059955657 0.161216170 -0.071542345 0.051616296 0.129552945 -0.016391154 -0.034536667 0.122559495 -0.025804134 -0.053426761
higher	0.066755407 0.104459032 -0.032243770 -0.008539014 0.074615419 -0.025200836 -0.008457717 0.099319056 0.023238711 -0.046012949
speed	-0.000717613 0.130918249 -0.125923455 -0.015889779 0.115132488 -0.039870810 0.026368862 0.103926644 0.013114938 -0.097827546
application	0.053434119 0.104266189 -0.053313870 -0.026953934 0.026570385 -0.016783224 -0.056372941 0.010903214 0.002857830 -0.074371234
california	0.004940246 0.052193526 -0.016592121 0.032853998 0.008189456 0.025548827 0.008471309 -0.019854289 0.044116329 -0.075549483
org	0.073865257 0.154519424 -0.081388734 0.032351680 0.101284981 0.011398653 -0.030955207 0.050172340 0.023681464 -0.085104257
continue	0.058537651 0.026261831 -0.057123467 0.022266183 0.024000604 0.004083324 -0.042363402 0.025647024 -0.016448360 -0.031640742
jews	0.022507237 0.186988845 -0.062780738 0.018259406 0.106778972 0.023323992 -0.058618758 0.035702217 -0.023087936 -0.085500203
change	0.011454182 0.095636353 -0.022050867 0.011367857 0.058058430 0.004814068 -0.060880896 0.010048316 -0.018821098 -0.078530386
worth	-0.006850549 0.115873769 -0.030135764 0.048225392 0.087294295 -0.055795830 0.008738756 0.091038451 0.037676018 -0.062418435
home	-0.025149232 0.027747534 0.001818650 -0.017015884 0.062215399 -0.049275160 0.021553960 0.000998465 -0.024206217 -0.013303751
access	0.055231310 0.223674715 -0.086138628 -0.026440423 0.164746732 -0.021968231 -0.046165023 0.141458273 0.028992007 -0.062909149
hope	0.010127335 0.067691103 -0.016014852 -0.026034007 0.064922579 -0.004548511 -0.061392047 0.082606889 -0.049462762 -0.084746666
long	-0.021291360 0.155390263 -0.144787580 -0.032732833 0.098157391 0.003454285 -0.074999973 0.071366727 -0.007144072 -0.047924839
space	-0.011402132 0.200333431 -0.146001518 0.059554812 0.081581235 -0.057911016 0.003278438 0.138688296 -0.045124862 -0.111582838
data	0.032918509 0.231916398 -0.185942903 -0.011897509 0.193630010 -0.000622891 -0.008154304 0.153061435 0.029411543 -0.164353952
close	0.011494755 0.139619052 -0.087798737 -0.018941190 0.053359859 0.007561536 -0.026596231 0.074588291 -0.047385752 -0.053540658
result	0.033008318 0.041158374 -0.010439124 -0.004424387 0.030194661 0.033804663 0.023239339 -0.014244799 0.007543636 -0.007016335
key	-0.015806196 0.167728797 -0.065908685 -0.012783947 0.104001097 0.013471822 0.019874483 0.059776545 -0.018353811 -0.057905141
high	0.056959651 0.126527891 -0.101959437 0.049147267 0.132157430 -0.015041433 -0.031742223 0.105525553 0.007395575 -0.021024950
original	0.042230282 0.118125685 -0.063846268 0.046109181 0.091493249 -0.026824865 0.019134458 0.063210867 0.030692654 -0.089323439
including	0.044669975 0.039890684 -0.061215550 -0.028877348 0.063019857 -0.007536869 -0.007780597 0.076215610 -0.029337844 -0.084132276
days	0.041328598 0.214954272 -0.137324169 0.030067077 0.085093491 -0.033222735 0.004897182 0.136875287 0.035729185 -0.083390869
late	0.032720208 0.080499128 -0.087240510 -0.021835318 0.053719148 0.005970523 -0.043334473 0.073017590 -0.020005427 -0.025591159
radio	0.043577842 0.063503839 -0.080868870 0.049463905 0.031331997 -0.032301322 -0.032764327 0.025267148 0.014532081 -0.000241402
short	0.029715072 0.111688800 -0.013314812 -0.032402392 0.023605626 -0.023957616 -0.056043305 0.047812760 0.033373568 -0.084462285
summary	0.062942147 0.172470495 -0.115933955 0.010781577 0.054706387 0.013709049 0.026222555 0.060810901 0.014343600 -0.049220622
note	0.057642918 0.071753293 -0.063368939 0.051002681 0.013808144 -0.027029652 -0.016304580 0.061603565 0.028853316 -0.083232805
based	0.016865285 0.214299724 -0.083184302 -0.030054711 0.135645524 -0.023922686 -0.003946739 0.057300765 0.023834663 -0.066734351
white	0.044046167 0.149308145 -0.031133130 0.055197749 0.096834615 -0.002042830 -0.040089089 0.060610738 -0.009835342 -0.089424402
gov	0.075648494 0.187052697 -0.139046624 0.044655167 0.133779660 -0.017245082 -0.056477491 0.084058717 -0.008722020 -0.073472023
engineering	0.020060353 0.071742058 -0.035507172 -0.013202727 0.041809920 0.002457562 -0.014165204 0.010102980 0.032822851 -0.054279715
miles	-0.006040860 0.089164004 -0.043390308 0.026131924 0.046564210 0.002881582 0.005627357 0.017504940 0.010713786 -0.011584599
population	0.013653667 0.179453120 -0.125018924 -0.032202035 0.099880584 -0.073876090 -0.021850742 0.137728348 -0.049374342 -0.125858933
worse	0.050553512 0.094295748 -0.077369839 0.056683496 0.021201650 0.025473278 -0.025709458 0.034899130 -0.036319721 -0.011880904
find	0.038496025 0.132760033 -0.113147564 0.046887442 0.129386172 0.004174345 -0.003262202 0.132695913 0.019839788 -0.054277197
times	0.056221202 0.236580804 -0.169219986 0.033616520 0.123547375 0.023164622 -0.005534635 0.112980284 0.031472113 -0.139141381
assuming	0.004182518 0.075663239 -0.019074548 0.003751944 0.037084363 0.035821054 -0.029936809 0.022614984 -0.006925056 -0.043480933
sell	0.054629061 0.060199525 -0.025681179 0.005033426 0.054407168 -0.000902744 -0.028815685 -0.009898178 -0.046155613 -0.017283289
drive	0.067332260 0.244407743 -0.120921299 -0.032308910 0.124107219 -0.003716449 -0.058692630 0.127275795 0.020010887 -0.145811126
idea	0.068201981 0.135258213 -0.131056890 0.028088178 0.047688860 -0.022800634 -0.057152197 0.103102095 -0.015742179 -0.029864525
rate	-0.023851708 0.134533644 -0.113131411 -0.039832000 0.084799640 0.019377586 0.004908522 0.020903036 0.043298561 -0.062439725
ibm	0.035489485 0.156221285 -0.106119089 0.016560366 0.082228929 -0.060965590 -0.006749333 0.122693375 0.010590001 -0.050532594
remember	-0.011733604 0.175762534 -0.108655423 0.030761490 0.125287116 -0.068113022 -0.007254185 0.089557871 -0.044124164 -0.125692099
uk	-0.011457957 0.175623223 -0.143193707 0.006052101 0.117702134 -0.043170497 0.018877113 0.132227257 0.002860624 -0.116787873
control	-0.015006000 0.143287390 -0.167364940 0.008106814 0.156570747 -0.063630171 0.004411211 0.101090379 0.021959687 -0.119249485
public	0.042819537 0.162879527 -0.152326077 0.008418632 0.112538055 -0.068730667 -0.066994362 0.128369465 0.024545358 -0.100162543
add	0.059674539 0.068386808 -0.112630591 -0.011703310 0.111763880 0.005510560 -0.024444453 0.075350255 0.011057502 -0.045034397
list	0.059399724 0.186572284 -0.075716563 0.059438162 0.107281812 -0.049325135 -0.034870841 0.112061545 -0.017697031 -0.116158985
wrong	0.012121625 0.141033813 -0.088078558 -0.041345235 0.075868815 -0.005978495 0.007169281 0.059738752 -0.052205388 -0.048665538
light	-0.001262920 0.055664591 -0.061957706 0.004870098 0.036333799 0.025836874 -0.007781263 0.020101193 0.041648608 -0.023732733
ac	0.025142098 0.234168380 -0.139329061 0.019813299 0.161316082 -0.030787736 -0.016168840 0.112921298 0.006390508 -0.073730052
order	-0.009902906 0.130507216 -0.083607756 -0.024302412 0.090736851 -0.034650125 -0.034773696 0.112824507 0.034303628 -0.039141398
fine	-0.023621954 0.118212678 -0.085345365 -0.016880080 0.054824978 -0.048005972 -0.062248886 0.087385923 -0.036378846 -0.090149477
references	0.021514164 0.065356456 -0.035146907 0.005820383 0.042198312 -0.043527365 -0.040989131 -0.001918597 -0.040130630 -0.049969703
mike	-0.018163618 0.072501302 -0.062593699 0.017737165 0.057683181 0.011977108 -0.020945469 0.080109708 0.034963183 -0.049399544
experience	-0.023687873 0.057054687 0.009679710 0.028472453 -0.038415279 -0.009028550 -0.015966855 0.025189834 -0.017044272 0.015725601
deleted	-0.011995533 0.128171906 -0.103084177 0.033202380 0.056129310 -0.050143801 -0.069257736 0.092976511 -0.051217217 -0.054105543
turn	0.083044790 0.188111901 -0.147845238 0.018630153 0.189143151 -0.016556777 -0.071664602 0.142059073 0.018262975 -0.119861774
buy	0.016570251 0.062863797 -0.080138184 -0.020887958 0.047088072 0.022270674 -0.007227203 0.041294504 -0.010613421 -0.056787148
response	0.033025116 0.146300912 -0.040511299 0.013774600 0.045731679 -0.001516572 0.019575724 0.087133914 0.038460329 -0.038753890
gun	0.022594623 0.154667109 -0.129141971 0.056288440 0.130683213 -0.038337570 -0.026343971 0.133170113 -0.050393306 -0.067061342
related	-0.005568623 0.071678214 -0.059530947 0.021943416 0.002221415 0.013534358 0.040453900 0.040742867 0.005913081 -0.045689732
children	0.050277721 0.142589867 -0.159487173 -0.000761650 0.172137484 -0.026324222 0.006763429 0.084457994 -0.029431812 -0.094291635
hp	-0.009811990 0.121501714 -0.048451502 -0.031869654 0.062954284 -0.044065263 -0.005480011 0.013363431 -0.052316286 -0.021294793
full	-0.005592871 0.153085560 -0.094501317 0.025820358 0.029459080 -0.061536193 -0.002858089 0.043249164 0.006958699 -0.075731121
east	0.011965777 0.113151282 -0.109939598 -0.021636724 0.114367940 -0.051168665 0.019670313 0.064679973 -0.054374125 -0.053531621
western	-0.034359008 0.017884675 -0.058633596 0.043940883 0.009569999 0.022599349 -0.019557782 0.026131572 0.015100289 -0.043140374
single	0.024083596 0.103889577 -0.095278136 0.034033127 0.050682794 -0.050534353 0.011909579 0.086358085 0.023712600 -0.025948673
toronto	0.066485621 0.155572772 -0.124933474 0.057918932 0.109427117 -0.059053972 -0.066852480 0.124244072 -0.004887796 -0.087010413
james	0.023994563 0.062164981 -0.070338763 0.003558218 0.073957682 0.025145859 0.022430962 0.029991966 0.005702870 -0.034509901
front	0.014008503 0.166751832 -0.100130334 0.058354601 0.099852592 0.012410143 -0.058702614 0.040405363 0.002927946 -0.070137873
religious	-0.013304831 0.062523447 -0.057417028 0.026709482 0.030622749 0.007209280 0.006576138 0.003610445 -0.002951238 -0.045275353
parts	0.009911669 0.057484105 -0.011483545 -0.010066544 0.056930311 0.021766191 -0.007193705 -0.015054094 -0.008856168 -0.074408859
game	0.011382410 0.225190401 -0.113970034 0.040117249 0.087344013 -0.057097580 -0.045064993 0.138797447 -0.032548245 -0.139502570
sound	-0.002768407 0.000258488 -0.050644204 0.012668602 0.069331825 0.011927670 -0.019112557 -0.026354086 0.041963782 -0.044066150
source	0.000502446 0.193352416 -0.086866565 0.017200701 0.148160025 -0.043212991 -0.019403033 0.080047831 0.020632021 -0.101314954
exists	-0.031752538 0.039898071 -0.005727359 0.012380981 0.005629592 -0.016245037 0.000678249 0.001479863 -0.045199297 -0.007562055
wanted	-0.012412471 0.037052680 -0.021077849 0.028174981 0.084535442 0.020335332 0.028365046 0.076459214 -0.025512520 -0.063416280
canada	-0.042696312 0.070348874 -0.052097026 0.030098245 0.006266859 0.043206938 -0.053428493 -0.024711289 0.031889472 -0.058295175
lost	-0.023990259 0.067603022 -0.068794414 0.024574844 -0.014677453 -0.029673625 -0.013444393 0.035760686 -0.048729371 -0.052073486
rights	0.025172742 0.169466048 -0.077985875 -0.039035819 0.137440667 0.024796097 0.022544743 0.052479099 -0.011268834 -0.063183352
minutes	-0.034708578 0.107364923 -0.026693251 -0.022018148 0.014159270 -0.007556903 -0.020783782 0.069828093 -0.019178668 -0.066213183
