home	-0.008649577 -0.001637067 0.051015016 -0.038718272 0.036778763 0.026242319 0.029239373 -0.009380465 0.015907044 -0.008566367
institute	0.078499578 -0.031993095 -0.008659225 -0.085751079 0.097675987 -0.025421828 0.030185360 0.055849660 0.027806198 -0.029962620
technology	0.236918256 0.009147243 0.096035577 -0.211522281 0.245759547 -0.038589165 0.092550263 0.022220403 0.048268870 0.007211571
distribution	0.096775658 -0.032204933 0.103954107 -0.167685494 0.241246492 -0.030311998 0.048332274 0.016295208 0.018141342 -0.011802335
usa	0.112516925 -0.022395799 0.033714052 -0.088738985 0.184804559 0.039734092 0.080821112 0.020453608 -0.050000079 0.074587785
nntp	0.266652286 0.043549009 0.178733870 -0.213872239 0.317433983 -0.031024035 0.125412792 0.012934914 -0.015291845 0.032890081
posting	0.274349928 0.002763820 0.136781678 -0.209791020 0.378461778 0.016089892 0.177561447 0.002092758 0.019096144 0.059730519
host	0.201611280 0.051824979 0.103817195 -0.227445915 0.317295551 -0.049492370 0.160255879 0.007921368 0.025701076 0.046464916
article	0.323820621 0.007026009 0.192253768 -0.307384104 0.481757104 -0.020886948 0.190873280 0.109267190 0.046150815 0.101405479
cc	0.155659735 0.027337136 0.134024650 -0.188387588 0.287824631 0.023876576 0.098052800 0.005371811 0.005687349 0.005212300
writes	0.336026967 -0.006132904 0.165887192 -0.282626271 0.512664258 -0.039934441 0.139262810 0.085677542 0.035289083 0.070593990
org	0.058493350 0.016122842 0.087722659 -0.096728668 0.069884844 -0.028493211 0.023799203 -0.027571980 -0.008781277 0.062653087
call	0.153844848 0.027625151 0.101539478 -0.108866833 0.190383181 -0.015561048 0.128751799 0.021803021 0.019603070 -0.012607377
case	0.211311892 0.003658542 0.090501457 -0.198848784 0.293027669 0.005795213 0.071612850 0.080501325 -0.039731745 0.059806649
single	0.156989843 -0.044123858 0.127855405 -0.117707282 0.222391114 -0.038750280 0.103875376 0.023407549 -0.039860085 0.016278764
system	0.135372877 0.020111984 0.060685810 -0.118188478 0.171021372 -0.042225182 0.080415353 0.040641028 0.026379580 -0.001061194
university	0.258866340 -0.049558837 0.123896927 -0.166307881 0.275851518 0.027998200 0.105451636 -0.001026328 0.023086781 0.038157504
windows	0.190600917 0.013366087 0.084996305 -0.193897679 0.241218269 -0.041457973 0.059018821 0.053765044 0.008006245 0.005447384
program	0.200664535 0.022469509 0.121659592 -0.185771719 0.319128335 0.005209794 0.106876694 0.003843043 -0.029214429 0.028050207
run	0.174045071 0.039468534 0.092631072 -0.118977539 0.244167596 -0.029438972 0.038154546 0.003664077 0.025683269 0.020343794
dos	0.032813530 -0.001538673 0.019292854 0.016885215 0.019831328 0.016384656 -0.004082577 -0.008058551 -0.006709388 -0.018065408
pc	0.077364326 -0.035160445 0.025907386 -0.054145541 0.141269609 -0.050272211 0.013653289 0.061965685 -0.033329792 0.041733567
find	0.138035476 -0.044370767 0.059934344 -0.155501202 0.296896040 0.015238723 0.061090298 0.036762368 -0.027758790 -0.000561454
gov	0.122586995 -0.036042325 0.033407051 -0.136565715 0.187274382 0.023091944 0.038488314 0.017939480 0.004170089 0.006643406
john	0.151140317 -0.015630735 0.131765604 -0.141084731 0.264019221 -0.020257493 0.143893570 0.069900155 0.018632378 0.066384614
end	0.179651648 0.000222205 0.090167195 -0.167262077 0.242928922 0.017294092 0.142407209 0.061580174 -0.027114788 0.051397815
apr	0.139800549 0.050225914 0.026760606 -0.090867683 0.195324153 -0.029962160 0.029347636 0.014573856 -0.016213872 0.003606915
post	0.181215703 0.029054556 0.134152234 -0.173442781 0.221920460 0.022083364 0.068933576 0.043221131 -0.011692137 0.054495472
god	0.233016253 -0.018285604 0.089713871 -0.204716384 0.283025324 0.035792302 0.113051780 0.058345653 -0.023213185 0.072685778
world	0.233668000 -0.005058830 0.119984761 -0.161958531 0.351622701 0.039908145 0.089473076 0.086307988 -0.013101634 0.053012937
place	0.204492509 -0.045998421 0.125700876 -0.127328038 0.290848851 -0.046109095 0.068025298 -0.007601481 -0.043761000 0.041987218
life	0.199332640 0.039548833 0.128138095 -0.191200033 0.219132513 0.032751977 0.131365865 0.048790436 0.035322335 -0.008798109
found	0.169987530 0.006297135 0.063654944 -0.114002697 0.187506020 0.001683275 0.046960261 0.016923454 -0.041530181 0.024031959
original	0.103045113 0.027207542 0.072299048 -0.081825994 0.169635877 0.000527699 0.106765240 0.021688933 -0.033176601 -0.003004312
interested	0.114711441 0.014932406 0.099806130 -0.128229052 0.152905419 -0.002785703 0.044376489 0.051935200 0.013514939 0.034130771
matter	0.101505674 -0.021292759 0.092346296 -0.122145653 0.160205156 -0.037597109 0.036248308 0.008610614 -0.051409759 0.042522881
send	0.109410278 0.037042934 0.077642888 -0.107447781 0.221767858 -0.009863451 0.073529072 0.006310292 -0.027266487 0.045062006
question	0.121970475 -0.001574388 0.084359914 -0.132162794 0.291294873 -0.045087725 0.076268345 0.022341574 -0.008660470 0.053461373
message	0.096988536 -0.030825181 0.048416629 -0.092324384 0.156247735 -0.024654677 0.034499962 0.075995244 0.000525914 0.036729928
james	0.133238345 0.018691745 0.069644287 -0.172612518 0.264346570 0.038211264 0.100854591 0.078885712 -0.007672050 0.018778408
worth	0.113017291 -0.024773372 0.071984626 -0.028116593 0.162704721 -0.005947787 0.042521823 0.019914966 -0.042956375 0.005777372
put	0.195515543 -0.009787763 0.087261021 -0.143500343 0.295311034 -0.025752261 0.091643497 0.085629240 0.015983874 0.052530147
form	0.151429385 0.002677546 0.014995300 -0.095185958 0.177660599 -0.052730292 0.074689083 0.063873097 -0.032503553 0.045096777
book	0.082892723 0.020515271 0.054213937 -0.030528165 0.103644751 0.013816206 0.097012438 0.012775394 -0.013730430 -0.015262519
washington	0.146789283 0.030706633 0.061365124 -0.072528496 0.177387267 0.027488057 0.114497960 0.040919133 0.041304387 0.074382976
times	0.168916106 0.033701267 0.152481183 -0.202198297 0.309977919 -0.019356342 0.112506181 0.079522707 0.039030116 0.060756754
nice	0.135607019 0.001588115 0.055266395 -0.073651753 0.178924322 0.008273565 0.073466048 0.035973568 -0.016316975 -0.003006522
assuming	0.110904396 -0.019292671 0.032444853 -0.083004504 0.048448365 0.001880516 0.076051712 -0.031647846 0.020111321 0.004636516
large	0.199605539 -0.043992024 0.116445959 -0.111116029 0.213298306 -0.031219624 0.050077159 0.039700195 0.018414941 0.055071536
guess	0.134367689 0.014835233 0.124115936 -0.116202690 0.216584846 0.038960196 0.044870306 0.057581138 -0.016014505 0.029626623
care	0.163641378 -0.011914177 0.056733932 -0.102457203 0.160121500 -0.043691047 0.058207680 0.034163296 -0.007573803 0.065829419
car	0.280748695 -0.050276171 0.141317129 -0.208128855 0.377309620 0.027406935 0.149354041 0.084110849 0.026913982 0.085393995
good	0.202739179 0.015363765 0.132661581 -0.177911282 0.322839111 0.026687359 0.116499349 0.058366239 -0.031096220 0.042865384
mind	0.085314699 0.029963581 0.029422233 -0.035876095 0.156036809 0.000298941 0.080493316 0.038983971 0.048608787 0.038869709
sell	0.104704544 -0.046882167 0.013991814 -0.100434944 0.093484424 0.034896102 0.065690696 -0.024299653 0.018147817 0.056292046
opinions	0.120449640 0.006331230 0.105908059 -0.180420190 0.242400080 -0.028904995 0.047740560 -0.005560898 -0.025053257 -0.007501634
hand	0.114220127 -0.015447259 0.058553491 -0.166031569 0.199307665 0.025312616 0.059184965 0.079449877 0.000514318 0.047559503
friend	0.151019216 -0.028776761 0.103339255 -0.082569383 0.160977244 -0.044188503 0.021224827 -0.015913758 -0.036637738 -0.008866882
reading	0.067683913 -0.000540983 0.105942018 -0.103301801 0.118946806 -0.025780799 0.072195314 0.017691987 0.001915190 -0.013666804
mail	0.113820739 0.049809180 0.078928068 -0.121508121 0.225703508 0.040731933 0.051045768 0.011388040 -0.031249180 0.071280055
day	0.219523400 -0.046241675 0.068484582 -0.195297956 0.243703112 -0.043446884 0.116759323 0.066720106 0.046271000 0.034639277
thought	0.070619173 -0.023817940 0.093321666 -0.109606966 0.136467829 -0.026971271 0.029955158 0.051302984 -0.038529653 0.015986420
week	0.069575898 0.010059454 0.066477597 -0.134860069 0.153033629 -0.012348142 0.053253721 -0.024090817 0.020002890 0.007167567
read	0.237561643 0.026198186 0.159366593 -0.129465595 0.309556335 -0.055353124 0.106876493 0.023131629 0.018909087 0.076373801
change	0.103853896 0.024078742 0.089766823 -0.105502278 0.112221718 -0.011426749 0.029730851 -0.029999999 -0.046470307 0.001891589
mine	0.196169838 -0.020137472 0.134043053 -0.126638949 0.254708081 -0.031690501 0.100793689 0.025026202 -0.048766606 0.003085319
point	0.230240047 0.031870265 0.158999726 -0.159669131 0.336005360 0.026113307 0.164269924 0.087094247 0.023118075 0.082768112
coming	0.120249063 -0.008043551 0.049473528 -0.116462901 0.177386776 -0.000947215 0.045753647 0.026734594 0.016785802 0.043157030
reason	0.099455878 -0.049545996 0.119966581 -0.123718970 0.233522937 0.032782353 0.048820004 0.054425254 0.040413182 0.023111496
fact	0.200151309 0.001846110 0.131553575 -0.141566724 0.232220933 -0.028177604 0.121272072 0.079471275 0.012431231 -0.008528451
religion	0.107551716 -0.000640059 0.104898937 -0.053831752 0.168677121 0.036538202 0.037013739 0.028430259 -0.038669623 0.070102118
people	0.344068110 -0.033246715 0.182477906 -0.274746120 0.414222926 -0.051751092 0.143655062 0.089769222 -0.053000871 0.089931279
true	0.145984754 -0.002245703 0.101847447 -0.144169480 0.237921283 0.007623990 0.067558333 0.029116424 -0.037707828 0.013651246
history	0.092150100 0.020526186 0.017760433 -0.115079582 0.167800441 -0.035258677 0.064840391 0.064834557 -0.034856278 -0.013533005
days	0.115834020 0.035824690 0.055289239 -0.140653759 0.152813703 -0.032740761 0.024650730 0.018980732 0.000817867 0.029584005
class	0.076857403 -0.043180663 0.009896681 -0.117489122 0.171595097 0.026774982 0.040064029 -0.004010017 -0.032335207 0.051778127
exists	0.030377051 0.025492063 0.077814229 -0.034710195 0.072476864 -0.046013225 0.026135767 -0.024416756 -0.039930578 -0.017812319
today	0.170581311 -0.003813854 0.036579531 -0.160930201 0.172618300 -0.021391697 0.084321745 -0.004167926 -0.045126613 0.018699156
white	0.056296185 -0.042893689 0.006501657 -0.027741151 0.115791216 -0.008107170 0.082115889 -0.020355197 0.017372612 0.021439426
hell	0.043048792 0.006098246 0.028495044 -0.029068589 0.092983067 0.024845989 -0.005668676 0.036804982 0.048396364 0.001836465
feel	0.170180663 -0.006825088 0.028431175 -0.070000157 0.164063305 -0.037650704 0.090988591 0.010027578 0.042566821 0.028473217
data	0.237755522 0.018999964 0.110745229 -0.238382250 0.336960077 -0.034006398 0.187204510 0.014516228 0.026926706 0.069447607
computer	0.235670313 0.036632258 0.106696978 -0.143553361 0.331787020 0.038426857 0.113167532 0.029095691 -0.017173495 0.035935190
reply	0.165989563 0.031362064 0.146353766 -0.122250699 0.266064256 0.030012667 0.124958999 0.025785998 -0.040684365 0.043503437
info	0.129404545 -0.039283752 0.108865894 -0.096729055 0.265593588 -0.035150304 0.136467800 0.060224786 0.047074229 0.050589994
file	0.173931807 0.013960588 0.096874535 -0.123294584 0.242769778 -0.053567510 0.082471944 0.022133347 0.049357679 -0.016834216
box	0.120846897 -0.031873975 0.075475648 -0.131475791 0.129461467 -0.047904547 0.101185329 -0.000304540 0.038953859 0.046723355
address	0.101074912 -0.024438459 0.050544959 -0.175258726 0.226530388 -0.039217159 0.087026037 0.063143007 -0.046206385 0.076201171
wanted	0.053865504 0.031708121 0.103499338 -0.115162931 0.182778269 0.014904061 0.047402143 -0.021293314 -0.013695454 0.019759713
robert	0.088133521 -0.036303770 0.085135534 -0.126429066 0.237068340 -0.020804996 0.036442973 0.039936595 -0.046000883 0.029022172
science	0.106441237 0.025621191 0.127336070 -0.099497952 0.234233856 0.017358599 0.111446731 -0.012906239 0.006859394 0.000791817
major	0.118286446 0.043652620 0.032493476 -0.082625769 0.174437717 -0.039469689 0.016163900 0.034246914 0.010432833 0.050948031
internet	0.078851901 0.012534717 0.049953684 -0.077564433 0.154599801 -0.041639823 0.096580423 0.000145828 -0.019435244 0.060521021
de	0.133795038 0.024324995 0.015273548 -0.032862756 0.155095473 0.024491739 0.024148962 0.023699824 0.032142360 0.055049125
view	0.100716688 0.019693773 0.046477698 -0.060069673 0.220854729 -0.011878590 0.041963905 0.057357583 0.023035077 0.029130971
center	0.178653702 0.006526927 0.126507878 -0.138492554 0.216604754 -0.038652014 0.080372326 -0.011906108 -0.038112614 0.008890295
david	0.163175583 0.010849120 0.118196592 -0.099884540 0.184971288 -0.041936662 0.103547327 0.062339157 0.002951004 -0.008055373
interesting	0.142443672 0.029768435 0.013574469 -0.131859124 0.184345961 -0.000925156 0.067776643 0.052901462 0.037109334 -0.013825971
chip	0.212579399 0.017728634 0.047528885 -0.136827976 0.211068779 -0.029001979 0.081969656 0.072326928 -0.020182941 0.003195431
state	0.185423508 0.048102319 0.145039946 -0.184166089 0.317583472 0.033062078 0.153144151 0.079398558 -0.031782363 -0.001793945
thing	0.102512367 -0.019392153 0.086608127 -0.147616833 0.160049155 -0.031697549 0.127586469 0.037693501 0.017694192 -0.008793108
bit	0.214027762 0.045232344 0.161324695 -0.167312443 0.351025403 -0.018680044 0.149149269 0.101059504 -0.021829536 0.038097441
phone	0.200989082 -0.047405683 0.088638417 -0.169671312 0.236192137 0.007014175 0.112187482 0.044194199 -0.007044607 0.071150176
access	0.147742316 0.039824106 0.094823956 -0.149085358 0.292110682 -0.007004668 0.134652629 0.066941127 0.037615873 -0.000225059
copy	0.064892113 -0.014132347 0.091440648 -0.066560596 0.109593749 -0.016662870 0.069514632 0.048251916 0.031399909 0.039107207
fax	0.129250437 -0.000971035 0.069533162 -0.075979002 0.192468479 0.009258366 0.113370791 0.002185999 0.010117155 0.044258069
public	0.142425060 -0.029522922 0.082911804 -0.156255558 0.185982659 -0.010756058 0.125267252 0.005578372 -0.033015639 0.046142884
key	0.087667704 0.006133795 0.057845797 -0.119393066 0.190035999 -0.020544609 0.072024688 0.063006781 -0.024597311 -0.019507974
city	0.174806625 0.003403656 0.139145702 -0.092100166 0.254169315 0.001398701 0.080025412 0.056460842 0.029539818 0.016801441
note	0.112397112 -0.012234108 0.032339241 -0.070622697 0.159317732 0.031031637 0.093501911 0.038878947 0.028699439 0.013403473
christian	0.112221159 -0.013230099 0.059442524 -0.123702727 0.168245807 -0.021100147 0.112941042 -0.001300749 0.000156563 0.072655298
wrote	0.188673183 -0.008113890 0.099593371 -0.146267101 0.239501491 -0.042155527 0.065291315 0.072863720 -0.010007308 -0.014095437
open	0.137200668 0.018119242 0.087021872 -0.085596934 0.099491686 -0.004830487 0.048427347 0.053572658 -0.016269779 0.012152767
bible	0.155334234 0.018048149 0.065965392 -0.092989601 0.152598456 -0.013963511 0.073001802 0.079450779 -0.046297949 -0.001759542
told	0.113655001 0.049729340 0.019482139 -0.063607857 0.167165816 0.041053876 0.058892749 -0.017044120 0.014146780 -0.024978442
called	0.205339104 0.030048702 0.071937822 -0.197130427 0.286459744 0.028197434 0.148839608 0.052426711 -0.017359938 0.077671051
important	0.164237916 0.016530784 0.122233272 -0.095946282 0.210868150 0.007218724 0.081747137 0.032293517 0.034433950 0.060390905
experience	0.091403954 -0.021797618 0.045597281 -0.034217905 0.103444897 -0.040148497 0.020347366 -0.026189219 -0.020432241 -0.029974343
light	0.034065016 -0.025461903 0.029101601 -0.093594588 0.062310718 -0.047466308 0.059453174 0.052449547 0.018632367 -0.008050533
lot	0.193559587 -0.039352030 0.155281797 -0.154572710 0.278620362 -0.040972106 0.099958755 0.050522089 -0.020404940 0.056870896
ac	0.076836258 -0.045241311 0.062302664 -0.020499818 0.083050266 0.000021263 0.012316776 -0.037765164 -0.001254644 -0.036440410
ca	0.180973589 -0.020066788 0.123877220 -0.113839447 0.264510900 0.014776031 0.090969309 0.007458934 0.011639858 0.071827464
newsreader	0.148214340 -0.000147987 0.082483448 -0.125423461 0.163948700 -0.032924693 0.006514210 0.056473214 0.042351227 0.013564336
tin	0.106277511 0.039067950 0.044797070 -0.116945490 0.099568859 -0.037283998 0.024216643 -0.018998440 0.011924754 0.007324553
version	0.149274439 0.018794784 0.106117278 -0.174245492 0.315263659 0.022186527 0.096485496 0.011715999 -0.011484619 0.051360849
things	0.184804708 -0.045160726 0.101913519 -0.172451451 0.200591922 0.016448986 0.127491832 0.058612309 0.018627664 0.025170697
couple	0.180092439 0.043695804 0.035894845 -0.109836146 0.191971093 -0.035147741 0.105201811 0.019548984 0.021675266 0.053880770
issue	0.082863614 -0.017816059 0.061607499 -0.031156924 0.066578858 -0.032373637 0.042660575 0.044244513 0.022744291 0.054170389
image	0.085284837 0.044880249 0.091511354 -0.044020601 0.125869215 0.009973215 0.053324364 0.027204383 0.021470567 -0.007338181
including	0.114652969 0.000136549 0.065728754 -0.133772567 0.111752011 -0.004476759 0.095921367 -0.018239295 -0.049946077 0.000907601
mark	0.166107297 0.007728477 0.072666109 -0.139387339 0.229848966 -0.043152209 0.135201782 0.079914421 0.044767398 -0.014094741
national	0.173254788 0.011214622 0.100921653 -0.216757268 0.297392756 0.023442533 0.116967775 0.014579787 -0.026393473 0.023118613
sun	0.216089696 -0.000614516 0.135471374 -0.149765134 0.247230873 -0.029020661 0.059991051 0.026747527 0.030418415 0.040807068
wrong	0.190635905 -0.036056347 0.119350530 -0.134309605 0.169723496 0.027162600 0.047604136 0.012671516 0.026769210 0.056804262
simply	0.103063680 0.035350543 0.104667626 -0.034454968 0.161581546 0.032703832 0.009894646 0.037108239 0.018552726 -0.007077524
means	0.198713094 0.009314115 0.067102492 -0.133323535 0.234616339 0.040342432 0.082611084 0.003432667 -0.002591054 0.034214187
western	0.107034795 -0.025314657 0.099865094 -0.044290982 0.166197449 0.024855018 0.043796524 0.002832364 -0.042060908 -0.017009154
strong	0.147013828 -0.028104601 0.065852575 -0.162755668 0.228073746 -0.049533915 0.133447900 0.027036369 0.020472912 0.041925579
word	0.100195006 0.051150613 0.060626179 -0.143707663 0.166383788 -0.036826588 0.100982293 0.042416044 0.048564792 0.004294368
sense	0.114736877 -0.035771005 0.070639648 -0.108727217 0.156905353 0.020957895 0.090912141 0.076215349 -0.036184650 0.016558200
tom	0.161987960 -0.046419300 0.124440596 -0.131819963 0.250823915 -0.014633656 0.132835835 -0.004032006 -0.018111996 0.020972725
kind	0.186037078 -0.021119699 0.063639998 -0.153851360 0.226462647 0.017810017 0.134314761 0.014817273 -0.042511493 0.002115985
hold	0.162677109 -0.018529939 0.117383428 -0.060207978 0.182793751 0.029495571 0.110240757 0.037196834 0.008491169 0.044127900
number	0.244508505 0.047517598 0.112954035 -0.239196301 0.335836500 0.031105440 0.118947603 0.008797538 0.020902734 0.047851738
takes	0.002124690 0.033872858 0.010105695 -0.039920580 0.045711659 -0.005701488 0.042771425 0.044811361 0.027629945 0.043477658
claim	0.177634239 -0.022189427 0.060128435 -0.135576338 0.208861277 0.025870597 0.058360726 0.004328189 -0.034161929 0.064026698
based	0.154058874 -0.049181119 0.128787652 -0.118958019 0.217900515 -0.041727159 0.054085948 0.065035544 -0.026934654 0.073568828
written	0.121231265 0.034417111 0.021652097 -0.081221469 0.146522731 0.021788821 0.063448526 0.031581376 0.009566128 0.006953936
truth	0.208980605 -0.012281035 0.089505978 -0.145715252 0.301417798 -0.027599821 0.102126978 0.013646496 -0.016006788 0.055837043
short	0.036998291 0.008590557 0.053332202 -0.031445753 0.134204999 0.047580376 0.065669589 0.030591836 -0.005487355 -0.026464023
full	0.108938023 -0.029904483 0.050177652 -0.115209833 0.155426562 0.024559040 0.098892331 0.063280664 0.041473653 -0.001598315
real	0.218003109 0.044971574 0.116409354 -0.239586949 0.322113991 -0.031732097 0.154288933 0.015481169 -0.048617464 0.003498253
expressed	0.055379488 -0.000213897 0.092988402 -0.117144041 0.172710776 -0.044510156 0.039002955 0.020987211 0.008530553 0.001560905
understand	0.121295653 0.036746260 0.111478984 -0.054399189 0.166235521 0.024925346 0.069035716 0.074205950 -0.024108242 0.039301071
miles	0.155388117 -0.018744992 0.052466955 -0.153290883 0.255924881 -0.024809612 0.088621408 0.042044919 -0.047162741 0.018118864
great	0.132552475 -0.006169983 0.083187036 -0.116092212 0.267564476 0.039485592 0.068703882 0.069275767 -0.037855219 0.063191004
work	0.160613224 -0.024817470 0.058339577 -0.132258475 0.276815474 -0.046642195 0.118344150 0.046936586 -0.000409402 0.058632426
long	0.192293465 0.020225812 0.146268174 -0.128155753 0.218208998 0.033440191 0.143887863 0.012206865 -0.036692519 0.027680956
error	0.150298968 -0.017950097 0.076497816 -0.078353256 0.158174738 -0.043299988 0.092644818 0.070521809 -0.046782173 -0.021146253
college	0.111746065 0.028774571 0.090853006 -0.134396240 0.137752652 -0.025214521 0.103164256 0.011076502 0.021602923 0.006506253
news	0.210358471 -0.035024017 0.069959819 -0.104353927 0.204192281 0.000557079 0.082663886 -0.011591214 -0.044264060 0.002718525
remember	0.128465444 -0.049478818 0.042621646 -0.052086309 0.135073036 0.023321699 0.020046853 -0.021894902 -0.049258407 0.052958585
agree	0.139763102 -0.032370094 0.094436914 -0.063300990 0.106632799 -0.049406543 0.049585413 0.069702454 -0.026460607 0.048072189
give	0.214416131 -0.041606180 0.133489579 -0.205393851 0.240255579 -0.050060961 0.113961309 0.073398486 -0.019006025 0.009554274
government	0.231740832 0.028654955 0.174191907 -0.191351354 0.364713579 0.036249511 0.128890157 0.072523765 0.031882245 0.088916235
gun	0.132370844 -0.039889626 0.080897734 -0.168957993 0.240354285 0.002269432 0.147782147 0.004913567 -0.045613337 0.070261970
control	0.238992229 -0.047523353 0.163616687 -0.216054916 0.339487314 0.026533034 0.115088075 0.087298363 -0.043913674 0.098851785
sort	0.078471497 0.008756744 0.019024877 -0.049983267 0.115684643 -0.021619935 0.089016594 -0.011421707 0.033014338 0.043402657
law	0.145887822 -0.017651441 0.059460927 -0.125789061 0.213382021 0.045590524 0.106740430 0.050224803 0.021663036 0.006857606
opinion	0.149828076 -0.034397166 0.069046177 -0.116126366 0.133204877 0.026387177 0.109621443 0.066808730 -0.049392786 -0.024906974
continue	0.076950222 0.010582709 0.049388040 -0.039103646 0.141172484 -0.007955424 0.048328560 -0.024044005 0.032589246 -0.025304798
required	0.104946814 0.004995355 0.039664093 -0.129403546 0.146365240 -0.033438396 0.021010695 -0.009011988 0.029577311 -0.017531661
write	0.080801181 0.045920059 0.027700808 -0.089998156 0.156698912 -0.021168882 0.072538659 0.041379157 0.008099981 -0.011242989
application	0.069608167 0.020118598 0.103545487 -0.134569302 0.125806496 -0.019615600 0.089157633 -0.002315004 0.028313305 0.068777069
idea	0.114992574 -0.047815565 0.026019692 -0.070117503 0.123215176 -0.034902960 0.057071403 0.050757796 0.041884750 0.040753797
top	0.125029936 -0.042908594 0.094267711 -0.134374037 0.153139621 -0.046841446 0.061201271 -0.024978962 -0.038138878 -0.005084157
bill	0.094951525 0.017086416 0.080481932 -0.132903054 0.215794206 -0.042226557 0.050422408 -0.002066230 0.017900197 0.029899165
thinking	0.105587430 -0.018277736 0.094905585 -0.120522857 0.166926712 -0.037826017 0.070196964 0.022763703 -0.037341338 0.066031739
time	0.253228664 0.011587834 0.120391347 -0.225372404 0.401198745 0.021023549 0.154180288 0.030297648 -0.048491467 0.053256221
project	0.133535609 -0.004448715 0.031645034 -0.129232898 0.199443802 0.009886825 0.052012425 0.050606176 -0.002222348 0.068649314
software	0.155827522 0.009473399 0.129095107 -0.162087768 0.227797180 0.021626543 0.090540804 0.039132629 0.006512767 0.072082460
easy	0.082799591 -0.044632912 0.038131732 -0.055656739 0.176402748 0.020662138 0.052634772 0.024339974 0.034318812 0.069157034
appreciated	0.066733368 0.025873002 0.047492422 -0.006888340 0.104943834 -0.031146383 0.058754720 0.000066310 0.031029301 -0.004466593
email	0.167728856 -0.037468389 0.128469735 -0.120577365 0.261270642 0.017051173 0.111555927 0.008582055 0.040508371 0.002051515
radio	0.218234524 -0.047369957 0.070407175 -0.199505210 0.279918313 0.024878116 0.063559383 -0.005348458 -0.016102592 0.065020867
high	0.226818457 -0.044131413 0.055852763 -0.207142502 0.282285422 0.007918252 0.088004902 0.042477455 0.044885792 -0.002493163
computing	0.037796948 0.019891679 0.038194105 -0.088946424 0.143107742 -0.047909353 0.063217103 0.001522853 -0.014966493 -0.000210534
making	0.148715273 0.027413597 0.132838890 -0.120526358 0.182015345 -0.047365554 0.039284728 0.072116032 -0.044809751 0.024195785
division	0.176761597 0.010307573 0.077358298 -0.139575243 0.269962490 -0.021896424 0.108335644 0.037271868 -0.031128170 0.054181851
originator	0.023112444 -0.016494865 -0.004890845 -0.047878210 0.018506490 0.041310851 0.040636398 0.043115493 0.047373340 -0.021011272
game	0.120686553 0.047622845 0.062005278 -0.128638282 0.142763048 -0.020977957 0.090255708 -0.009241801 0.005661986 -0.000992211
california	0.059177831 0.025196789 0.071686544 -0.067379072 0.190862373 0.044550404 0.066205315 0.045276042 -0.037240148 -0.020703200
late	0.135411263 -0.021602226 0.098529279 -0.084268168 0.191109583 0.046558913 0.105213270 0.028111659 -0.002218724 0.051146746
part	0.214396566 -0.028958971 0.137873650 -0.180962443 0.225922137 -0.039550789 0.104450330 0.012635495 -0.019925766 0.029203832
numbers	0.135484919 -0.009515340 0.070564516 -0.055591777 0.159706488 -0.003776618 0.063680701 0.004790880 0.014743024 0.006496774
hard	0.164840594 -0.042936757 0.144343764 -0.165161967 0.257125229 0.036075417 0.148020327 0.019708319 0.027897464 0.044716530
sound	0.117893547 0.032409180 0.125238508 -0.155852675 0.178853139 -0.020756550 0.065826491 0.006517755 -0.014723624 0.012636711
bad	0.169807523 -0.038328413 0.099091873 -0.138510033 0.358356297 0.008669397 0.082700863 0.030009583 0.032065276 0.031587131
early	0.094162866 0.016855456 0.024057360 -0.076605000 0.071657099 -0.015510036 0.021857129 -0.007623155 0.037400734 0.056738894
year	0.174998686 0.034687966 0.175575316 -0.238791704 0.352791429 -0.034678143 0.114289030 0.073932782 0.022860793 0.072445221
small	0.178272098 0.040211581 0.108872250 -0.113048859 0.152133539 -0.036030822 0.074517235 -0.016973848 0.016504765 0.054794807
big	0.180146903 -0.041521467 0.060732201 -0.163938254 0.272830665 0.026263446 0.079918332 0.061024413 -0.034654573 0.010377228
memory	0.202064037 -0.038614571 0.135485202 -0.197143361 0.350601941 0.040156540 0.121423610 0.028578861 -0.003354658 0.020672468
pretty	0.173168063 0.015388492 0.110329404 -0.124718234 0.227904454 -0.014979609 0.122551762 0.018151870 0.044021610 0.074324973
man	0.120141417 0.021423824 0.050203092 -0.110516183 0.132972658 -0.053336885 0.065748349 0.065301113 0.041844890 -0.014374586
made	0.266669720 0.048172150 0.177686229 -0.181156516 0.361508548 0.016951004 0.122668788 0.057313792 0.011204770 0.093951546
understanding	0.067960083 -0.010884714 0.088929236 -0.041113622 0.136902437 0.026644520 0.021360297 -0.017762203 0.029698739 0.010839252
space	0.217694357 0.004039159 0.189645663 -0.252435774 0.384417593 -0.017737754 0.176282093 0.039509587 -0.011035595 0.073085465
disclaimer	0.158152819 0.034324139 0.063884869 -0.191053227 0.247701332 -0.036259502 0.051188394 0.049930759 -0.034685262 0.014667080
cs	0.175183877 -0.032979090 0.135719180 -0.172660455 0.257017255 0.044199601 0.049468413 0.056467623 0.037680998 0.020275876
dept	0.100226320 0.016353589 0.019996429 -0.108741827 0.141070023 -0.003857980 0.089251377 0.001278381 -0.025109898 0.012101873
current	0.200316340 -0.040377144 0.079837762 -0.160733476 0.186669573 -0.004405060 0.041482341 0.060530085 0.028805595 0.037522793
drive	0.210110694 -0.017983353 0.171352923 -0.200792328 0.319453359 0.023283685 0.179824859 0.015591203 -0.041449372 0.044205304
posted	0.181012511 -0.021882428 0.126508996 -0.134080976 0.146239355 0.011417861 0.113196395 0.035512228 0.005425388 0.063868970
talking	0.081363559 -0.031070244 0.107469112 -0.084564924 0.212879509 0.027893759 0.023189142 0.017976409 -0.021336596 0.045788638
toronto	0.158098981 0.048678417 0.131916672 -0.125123769 0.176301762 -0.000641706 0.122490473 0.068296291 0.009429923 -0.008227390
department	0.047890052 0.031353615 0.071984001 -0.050999459 0.112640150 -0.003770832 0.048275393 0.016081961 0.025030522 -0.031481009
line	0.099733241 0.018127749 0.131134957 -0.171973184 0.197366983 -0.028369017 0.087254621 0.055688545 -0.041661628 0.053714927
possibly	0.105370604 -0.013946505 0.053473238 -0.087044522 0.121009365 0.040393654 0.012890352 0.007681403 0.032357816 0.065381877
simple	0.027243532 0.031294756 0.085367389 -0.105139218 0.070125677 -0.034124997 0.026209703 -0.019526372 -0.041854218 -0.013854871
close	0.149976313 -0.007534222 0.059303146 -0.134499446 0.182116181 0.039288476 0.099542156 0.070957445 0.046316698 -0.014687669
contact	0.086409405 -0.030775120 0.061332531 -0.112678811 0.235204414 -0.035533138 0.051169619 0.034173593 0.040360831 0.069975890
list	0.197700620 0.032945186 0.153427914 -0.126767859 0.329369873 -0.030606866 0.133853137 0.054299112 0.009354027 0.082824796
population	0.147099823 0.037831534 0.136945158 -0.166575655 0.228604183 0.033478547 0.065400027 0.051582079 -0.000335702 0.031666961
service	0.097980835 0.000362160 -0.011550130 -0.049649980 0.094058603 -0.036624193 0.025272580 0.008446224 0.015430654 0.041318253
low	0.122745045 -0.024947600 0.080959834 -0.188740641 0.213315129 -0.036588952 0.137839064 0.039512996 0.038997520 0.050822534
total	0.156864315 -0.042068638 0.097868308 -0.153011739 0.181291088 0.039559025 0.070719935 0.051861588 -0.037033696 0.038711756
asked	0.136941582 0.007268575 0.087928645 -0.137566060 0.135504067 0.040304698 0.080008127 -0.017004816 -0.020011468 0.051388435
texas	0.058553293 0.015354624 0.020109352 -0.041185591 0.138184518 0.023017749 0.070711873 0.014814379 -0.006514630 0.009397959
canada	0.018853979 0.006163550 -0.016650477 -0.037000049 0.094282486 0.033708792 0.047004078 0.052505232 0.016030215 0.055497747
interest	0.111110643 -0.014808842 0.051687624 -0.094931677 0.169558540 -0.038104452 0.028036727 0.001268119 -0.017633371 0.034531873
response	0.057848845 0.040572934 0.006827942 -0.081804849 0.123006679 0.004288030 0.035552006 0.032428518 0.030830067 -0.020036170
answer	0.170241326 0.043887738 0.043739688 -0.121574871 0.212979466 -0.028388066 0.044530746 0.038332362 0.049212646 0.039053787
parts	0.142082423 -0.010935190 0.076891765 -0.096013553 0.132737160 0.046960611 0.067386456 0.059131220 -0.041991927 -0.006642641
references	0.099299125 -0.034028243 0.050423224 -0.033385370 0.086459495 -0.036234472 0.062807806 0.043681622 -0.041713826 -0.004003553
jews	0.254756182 -0.015303531 0.123657510 -0.270723104 0.388130844 -0.026279461 0.162200332 0.103126235 0.033676159 0.039021805
make	0.268766314 0.006005419 0.195193768 -0.204987690 0.381874114 -0.037639104 0.123870105 0.029432012 0.026393943 0.035166480
clear	0.170728445 0.038720842 0.084938519 -0.145302907 0.268197060 -0.042851746 0.041382059 0.047236241 0.010542240 -0.013971298
support	0.144359216 -0.016538443 0.085008189 -0.154711574 0.188443601 0.045494039 0.110905476 0.024141585 0.035444509 0.044830691
steve	0.101695783 -0.019351115 0.049729452 -0.125142783 0.188701794 -0.014051354 0.028990149 0.063062750 -0.022049891 0.061611775
person	0.073857725 -0.007431530 0.024827676 -0.088841215 0.194594920 0.022099955 0.059854679 0.046540704 0.011951321 0.018776761
result	0.100024931 -0.047877118 0.107088476 -0.063586377 0.214624792 -0.005473010 0.057490729 -0.007982461 0.001534272 0.048759364
cost	0.193864763 -0.005360972 0.134224340 -0.190454438 0.217397988 0.021000914 0.110792421 0.040982500 0.041904818 0.057982706
jim	0.097631991 0.027601436 0.099057451 -0.114443205 0.088763930 -0.031961389 0.043936431 -0.010945439 0.038181804 -0.019727768
fine	0.117358990 0.009221625 0.056929655 -0.088462010 0.130160213 0.009423835 0.087041810 0.072581097 -0.030863892 0.048063725
job	0.110070437 0.036101375 0.042788047 -0.057301138 0.148525402 0.004039648 0.002993494 -0.000637229 0.010367949 -0.021398358
problem	0.220344171 0.016299689 0.160063162 -0.160652131 0.292882204 0.029185116 0.075897023 0.009712999 -0.015011525 -0.007172134
years	0.194302738 0.046079323 0.113573961 -0.239278883 0.360313118 0.013844159 0.097269110 0.037003059 0.004766204 0.043158934
corporation	0.048852298 0.010858072 0.022751870 -0.080025822 0.174325690 -0.045105066 0.008899689 0.013753745 -0.031368162 0.016268304
general	0.144676074 0.013690279 0.085402921 -0.171132311 0.208976179 -0.009781042 0.105704062 0.023485109 0.019854287 0.064226247
show	0.081232756 0.036809966 0.041064944 -0.038917452 0.124921761 -0.010718527 0.083796158 -0.023210248 0.031100908 -0.032429166
rest	0.190979376 -0.019716298 0.045598339 -0.128118828 0.179041132 -0.012073313 0.034947831 0.051728960 -0.026960390 -0.003957121
stop	0.160005942 -0.008526365 0.050951749 -0.116859630 0.175572619 0.044535413 0.081799798 -0.019193271 0.030719360 0.031157786
company	0.155745670 0.042509794 0.056315299 -0.139217824 0.226927534 -0.041949779 0.110764436 0.077709399 0.001048705 0.031570576
information	0.212905750 -0.040523253 0.126653731 -0.174200296 0.361228704 0.033967663 0.154993907 0.085702829 0.012893016 0.055339191
group	0.146094486 0.013256018 0.088631339 -0.127281740 0.324110866 -0.047173966 0.150247946 0.018139640 -0.025525732 0.076992802
buy	0.247852460 -0.049302086 0.130137593 -0.135165855 0.265047193 0.004304202 0.165115491 0.067165568 0.006563460 0.059668701
questions	0.055391274 -0.041067533 0.063821949 -0.030862072 0.068322219 -0.011913603 0.054563619 0.017606830 -0.001366228 -0.010853185
engineering	0.131924912 -0.032078221 0.101793930 -0.127174228 0.207291976 0.002066664 0.036997143 -0.018999714 0.009442520 -0.016024176
network	0.072621748 -0.016018964 0.083504036 -0.070467971 0.194822490 -0.028092850 0.021587923 0.029665971 0.017068271 0.004130821
folks	0.101039760 0.046081558 0.012956386 -0.082744412 0.156755731 0.032448731 0.062335011 0.031050511 -0.027444445 0.036755625
mac	0.067280881 0.023767846 0.083739854 -0.038261820 0.126315415 0.017430583 0.061906621 0.003328518 -0.015060807 0.028155129
back	0.292135864 -0.016560294 0.164533630 -0.195509210 0.313706607 0.007822712 0.170436189 0.023563841 0.000913171 0.023185596
machine	0.193438172 0.019502625 0.064224996 -0.105469920 0.233390972 -0.004321927 0.104631245 0.013356167 0.046038616 0.052151047
heard	0.196860969 0.000741298 0.114754073 -0.105134375 0.219820559 0.003864369 0.113059804 0.055326547 0.001768619 0.023492804
wondering	0.042002734 0.024544589 0.034787629 -0.079930842 0.176196992 -0.049780954 0.096436314 -0.027351543 0.035861056 -0.012843332
price	0.158877403 0.011734491 0.108034506 -0.173377842 0.206189558 0.039147548 0.131924301 0.009568877 0.025518766 0.011320955
display	0.069527306 0.036675435 0.001512602 -0.027912736 0.066321559 -0.007645207 0.053532138 0.002379538 -0.049888328 -0.019687222
disk	0.066732369 -0.031655077 0.032095786 -0.025385937 0.126608983 -0.047679603 0.011934279 0.060677554 -0.040492363 -0.024630861
taking	0.143889815 0.034987327 0.086309642 -0.092354909 0.181789786 0.025649434 0.061982453 -0.008688631 -0.025931165 -0.008559535
money	0.119094625 -0.026703874 0.119537845 -0.190340608 0.202911556 0.033203088 0.099165201 0.081462197 0.033437926 0.065372117
advance	-0.010128222 0.019264450 0.004391305 -0.038666952 0.104350239 -0.000823592 0.068761259 0.044812128 -0.026514843 -0.022784475
summary	0.142679080 -0.007771509 0.122798331 -0.159197628 0.176370665 -0.025770113 0.053941924 0.033792771 0.021556631 0.055011634
start	0.017713783 -0.007484404 -0.015887577 -0.094936229 0.067411587 -0.010860357 0.041442692 -0.034892511 -0.013282997 0.010853796
set	0.161852047 0.008686939 0.069053158 -0.109624654 0.200989217 -0.041386262 0.081179291 -0.000736038 0.049734347 0.046820976
systems	0.118965060 -0.039760251 0.082604758 -0.103694923 0.234531045 0.004464445 0.106404535 0.030490471 -0.001867753 0.013611594
uk	0.165203914 0.025936527 0.064715408 -0.127611175 0.211258024 0.019269418 0.105648957 0.050363153 -0.049074482 -0.026156634
ago	0.116891272 0.014195614 0.041273411 -0.038355514 0.111844160 0.043387964 0.043584473 0.026985917 0.031081714 -0.011241200
similar	0.186445564 0.019728446 0.051120449 -0.112020917 0.213295028 -0.047064479 0.097836062 0.027190283 0.046276733 0.069291182
worse	0.101398177 -0.016435031 0.012209114 -0.019718211 0.108402297 0.045478575 0.056259133 -0.016895924 -0.033257701 0.021792268
stuff	0.105361387 0.020456117 0.047125239 -0.115733743 0.136268571 0.003629673 0.088990629 -0.021781757 0.016187554 0.011795872
situation	0.153257310 0.026850019 0.087606445 -0.153340369 0.294708103 -0.016648695 0.084452234 0.081029795 0.027306067 -0.013353866
turn	0.165491357 0.044788893 0.110919654 -0.185962632 0.183558106 0.040612351 0.115444437 0.068255112 -0.016250953 0.015293017
calls	0.051201601 -0.002549654 -0.017205605 0.011135846 0.091109917 -0.008042432 -0.023426484 0.025161423 -0.041179691 -0.007813387
sale	0.070897482 -0.022717390 0.037855383 -0.052167814 0.140938789 0.016787056 0.050549764 0.072583467 0.049852815 0.072694309
keywords	0.112392500 -0.035594538 0.075815283 -0.083797380 0.140178680 -0.030109551 0.048576452 0.035048243 0.030497372 -0.003803172
research	0.135549679 -0.008624793 0.064633928 -0.072943300 0.217031017 -0.027085619 0.035263818 0.048046924 0.048495296 0.027389403
nasa	0.227634594 -0.028472858 0.092855766 -0.147852078 0.262952805 -0.029743697 0.128094301 0.071249142 -0.025328135 -0.013497123
deleted	0.155447826 0.043972056 0.129345566 -0.091662951 0.229139194 0.032218732 0.065693341 -0.016098892 0.029155083 -0.012088262
design	0.080133311 0.000953342 0.019623069 -0.090475582 0.191605240 -0.030828215 0.038288560 0.001105638 -0.041227859 0.030734112
hear	0.170848429 0.034133080 0.071434297 -0.132865638 0.200971842 0.012096542 0.097309388 0.022091882 -0.050791234 0.070996121
considered	0.107048035 0.000749170 0.043040581 -0.104366615 0.116249889 -0.017818825 0.025984017 0.061739124 -0.030899437 -0.012862907
power	0.251247913 0.033681016 0.136537343 -0.266639888 0.428692013 -0.013719388 0.136963934 0.057545386 -0.051221289 0.030352969
source	0.203104734 -0.036290813 0.122809134 -0.164473772 0.245149970 0.026451869 0.126189783 0.072335050 -0.028486565 0.076228067
common	0.071506843 -0.022169737 0.029974813 -0.129144803 0.184919745 0.024792330 0.094661385 0.066967301 0.028654628 0.048517752
international	0.062121760 -0.025579834 0.066476032 -0.054959048 0.118637487 -0.007151143 0.112999104 0.008904563 -0.033073224 -0.023708120
add	0.173279062 0.010692201 0.126946926 -0.180898577 0.273447394 0.027561523 0.109910697 0.052355800 -0.020815097 0.081938304
mike	0.061165933 -0.002243785 0.001391784 -0.057643190 0.086729094 0.033681519 -0.018271048 0.039243117 -0.005172832 0.055070780
love	0.137709677 -0.008419768 0.027303116 -0.127515316 0.182520390 -0.012422414 0.035937872 0.021997815 0.015240116 0.010399193
board	0.098866187 0.049734276 0.090123035 -0.088418879 0.209610030 -0.008890204 0.016413951 0.052148368 -0.014161754 0.072708048
ram	0.077170573 -0.027087349 0.058447041 -0.076911144 0.165932849 0.028828835 0.078325503 0.059079155 -0.008458485 0.050802078
ibm	0.085278742 0.012062633 0.022682015 -0.113541231 0.127425864 -0.025942868 0.057826933 0.025751889 0.015202670 -0.030231759
higher	0.161605909 -0.046052221 0.097386375 -0.178944305 0.235925406 0.010891243 0.078444093 0.042230379 -0.022535989 0.061118484
related	0.026817752 -0.028212238 0.031820975 -0.055983994 0.054490335 -0.009088819 0.075362802 0.058575593 -0.002831813 0.026164515
children	0.200760126 0.040151708 0.162218526 -0.203531861 0.236049742 0.042860143 0.069867112 0.059498534 -0.046775196 0.043781437
rate	0.171138525 0.020171711 0.116046563 -0.182357222 0.211770058 -0.032190643 0.137582541 0.067399047 0.003278439 0.070043847
effect	0.188819677 0.018279865 0.125199288 -0.092401460 0.200311080 -0.039648507 0.073485628 0.006088205 0.023762958 0.066548429
rights	0.098853841 0.039249461 0.072416738 -0.008268355 0.055921268 0.035594847 0.016131824 -0.033693198 0.010005457 -0.002608104
results	0.136609361 -0.014538381 0.028132314 -0.057728935 0.192808360 -0.051789951 0.100429341 0.048765603 -0.026137108 -0.024570186
months	0.138173088 0.045360923 0.038513251 -0.088367954 0.121270865 0.034234088 0.084542230 -0.010187224 0.033876400 0.048690785
order	0.150502145 0.044511676 0.098428063 -0.105567247 0.232699946 0.008410246 0.122654893 0.029012635 0.006418769 0.039499063
sci	0.102787971 0.022369903 0.110093266 -0.121596821 0.217210993 -0.016932001 0.056226477 0.077606924 -0.017688137 -0.000549337
date	0.085731044 -0.033879928 0.066045418 -0.127519384 0.150995478 -0.004669200 0.118891954 0.001466271 -0.039589267 -0.001451200
east	0.164117917 0.010112205 0.089857824 -0.074987076 0.181185007 0.026537681 0.051879719 0.015527388 0.049521681 0.001866344
speed	0.176473483 -0.022020159 0.119069487 -0.131632656 0.197586313 0.031192338 0.105471604 0.071851380 0.011493503 0.012353160
side	0.088863932 -0.026417740 0.036082670 -0.147821143 0.183671847 0.012084675 0.094387136 0.044836819 -0.031412143 0.009699950
guy	0.154571593 -0.003880020 0.022820299 -0.088924788 0.175411925 -0.018607982 0.055270869 0.068271205 -0.032184336 -0.009979554
receive	0.109392546 0.032672372 0.024702737 -0.126172304 0.146249205 -0.033026230 0.071462221 0.056883741 0.033164870 0.062592015
live	0.164598584 0.012726319 0.066721871 -0.156859145 0.269937694 0.007365760 0.119045757 0.046000909 -0.000697135 0.035539974
laboratory	0.106550634 0.014692138 0.025261804 -0.010955985 0.055835184 0.011192879 0.062552385 0.013178030 0.005081158 0.021446120
lost	0.032490436 -0.003962875 -0.008548540 0.002250338 0.050068751 0.044448659 -0.020066831 -0.029561000 0.024086364 0.013648181
au	0.112750165 -0.017337309 0.124824010 -0.094393969 0.194222853 -0.022528587 0.081057481 0.037007786 0.021124886 0.006095391
net	0.105798200 0.001270367 0.033452757 -0.148220628 0.190167546 -0.047183469 0.101718150 -0.016151052 0.003140625 -0.008368323
due	0.057225011 -0.048156653 0.044026181 -0.134365648 0.112743393 0.033155959 0.047897570 0.028689971 -0.014284198 -0.005535814
free	0.119247064 0.040600199 0.117307447 -0.168758795 0.260615289 -0.022081740 0.108395569 0.015974881 0.015314654 0.019477677
bike	0.166963324 -0.045717850 0.122343093 -0.150320962 0.138295978 0.021922315 0.098687790 -0.021038756 0.009027405 0.016419696
dod	0.082708962 -0.012170103 0.039528307 -0.031561568 0.069260538 0.047379378 -0.008916981 0.003439903 0.016330630 0.049619466
card	0.123042449 0.043125011 0.110622451 -0.145220757 0.282680780 0.032943338 0.102773070 0.034342155 -0.012478453 0.034814265
hope	0.119659841 -0.011200323 0.123316042 -0.122641370 0.148902938 0.015525628 0.129517525 0.019891690 0.023028644 0.053757325
pay	0.082028732 0.007013022 0.055369806 -0.146717444 0.166571215 -0.007270331 0.024854604 0.058923066 0.012506281 0.000822891
front	0.118571728 -0.009204291 0.097597741 -0.141169056 0.229454219 0.042618997 0.115231685 0.000069116 0.039151214 -0.018397896
faster	0.086111136 0.030347835 -0.015286875 -0.076202467 0.090641573 0.007335565 0.057275712 0.044243298 -0.040869683 0.044300605
makes	0.093635768 0.014380710 0.050169945 -0.107172318 0.188912898 -0.002402161 0.012957430 0.001288050 -0.000309793 0.006079716
school	0.108462468 0.049245294 0.021476757 -0.034414377 0.134633809 -0.037856881 0.055539258 -0.014400840 0.032451823 -0.022644594
hardware	0.064320780 -0.028499546 0.093336828 -0.103135400 0.177551433 -0.047619648 0.032867450 0.047919910 -0.023115717 0.053977434
code	0.046955686 -0.014242597 0.024045005 -0.028423226 0.113460608 -0.030414248 0.037010923 0.053379513 -0.041586861 0.054192066
problems	0.103899449 -0.011238620 0.072193563 -0.028313253 0.088622130 -0.047951173 0.037921689 0.052473299 0.007634889 0.045598891
hp	0.126956925 0.045548372 0.085505933 -0.169225678 0.186440557 -0.031146124 0.115441397 -0.001648510 -0.038369246 -0.020494811
figure	0.111575358 0.025863707 0.064533286 -0.098681949 0.136219859 0.043969724 0.011980874 0.035473011 -0.002547439 0.015555930
gas	0.026179058 0.045758568 0.075865336 -0.112207294 0.083804667 -0.032960918 0.076324560 0.030206487 0.036680046 0.001507602
left	0.139257565 0.024827091 0.127313614 -0.176730081 0.262994766 -0.000896663 0.130849659 0.031118231 -0.011510123 0.032764979
religious	0.091331780 0.006678141 0.023309169 -0.004279626 0.107426748 -0.036971316 0.027815837 -0.016300272 -0.036704667 0.023634363
technical	0.070955433 0.021064090 0.005274969 -0.079668164 0.144386798 -0.049908549 0.082357951 0.059948247 -0.005012569 0.017204417
final	0.038677357 0.030125381 0.049673665 -0.047215518 0.124707960 0.033105433 0.053360846 0.017271275 -0.034548689 0.033269566
mentioned	-0.001683767 0.042360649 0.052494977 -0.006329718 0.067297101 0.030649640 0.045170940 0.015065733 -0.024914382 -0.006291876
type	-0.017005401 -0.024754869 0.013453526 0.006570381 0.019827964 -0.015702419 -0.030489076 -0.031726260 -0.036716107 -0.014656289
ms	0.085905902 0.001853392 0.015231186 -0.111300744 0.113999248 0.030367335 0.074803896 0.007751035 -0.039501607 0.039495707
minutes	0.060998160 0.042119190 0.010903159 -0.062478177 0.002362320 0.016727637 0.036403421 0.031313799 0.017872371 -0.038352940
