toronto	-0.067900829 -0.012818624 -0.084352531 -0.101821028 0.016078241 -0.131031767 0.000170528 0.001808672 -0.053069577 -0.048490208
gov	-0.039412808 0.014145319 -0.007149965 -0.145760968 0.064674325 -0.118201800 -0.034558076 -0.067767553 -0.091268197 0.030386157
writes	-0.101830617 -0.005185034 -0.149632663 -0.255654395 0.093869843 -0.199460581 0.048527986 -0.033830956 -0.125072181 -0.020182278
problem	-0.008583763 -0.012340792 -0.076074943 -0.191877618 0.072897658 -0.177582815 0.038321663 -0.059099302 -0.105393812 0.044426005
good	-0.083578184 -0.008129234 -0.026250880 -0.156646669 0.069928922 -0.163004547 0.036111824 -0.026207117 -0.090845034 -0.007014060
day	0.004719483 -0.052086979 -0.024403308 -0.134524316 0.017916678 -0.152898028 -0.005132694 -0.051874518 -0.056507979 -0.047867328
high	-0.027663538 0.024631098 -0.093630575 -0.163328439 0.064693704 -0.090742320 -0.015825696 -0.033941735 -0.014721170 -0.003760317
simple	0.005043111 -0.028682586 -0.076836936 -0.132155702 0.030898046 -0.044530638 0.051465139 -0.040098492 -0.034234498 -0.037183281
access	-0.069977395 0.041433681 0.007758351 -0.116837576 0.008459120 -0.096122138 0.049249869 0.000213607 -0.051905200 0.028324844
key	-0.036248591 -0.003419783 -0.028472850 -0.069342799 0.036212701 -0.128426895 0.010325994 -0.012000145 -0.036018506 -0.007730208
idea	-0.056686647 -0.038588710 -0.034774739 -0.088048108 0.017643325 -0.057760835 -0.027865233 0.024918709 -0.067810729 0.010485986
usa	0.001781998 -0.013325503 -0.010320190 -0.053742658 0.056323096 -0.135500878 -0.002630566 -0.021644896 -0.067752711 -0.002437750
nntp	0.001754959 -0.023768177 -0.086659364 -0.159944549 0.036207620 -0.123055637 0.064568162 0.005122868 -0.011777647 -0.004857958
posting	-0.088924833 -0.020257438 -0.053523116 -0.227681920 0.018871542 -0.229843155 0.014842574 -0.018983649 -0.082351483 -0.024386279
host	-0.049094915 0.021440033 -0.098902896 -0.133047655 0.015755093 -0.132134542 0.008922167 -0.051649641 -0.079046316 0.011181149
net	0.001188124 0.036320474 -0.058842033 -0.130048811 0.030746216 -0.154846296 0.047595005 -0.032206897 -0.079178400 0.045456897
system	-0.036826551 -0.038889192 -0.075228401 -0.147736326 0.030525396 -0.161903128 0.018573923 -0.043126389 -0.089871794 -0.046845853
buy	-0.026214965 -0.061786395 -0.062242474 -0.154859900 0.007896615 -0.075904898 0.025665808 -0.040664181 -0.013979609 0.043979961
radio	-0.038509820 0.008832971 -0.079870328 -0.088276714 0.072649464 -0.066295780 0.012654039 -0.069415934 -0.083616577 -0.023193149
phone	-0.089811251 -0.044284958 -0.019961488 -0.145281449 0.049867146 -0.091003604 -0.021056522 -0.004278090 -0.099698924 -0.005489317
chip	-0.079886615 0.022233225 -0.086205781 -0.069509223 0.043608025 -0.110457376 0.041271657 -0.057695724 -0.011251761 0.027564874
government	-0.006669457 0.019409575 -0.010939161 -0.099213228 -0.010265161 -0.123142786 0.018317049 0.004503971 -0.038495641 0.039778661
call	-0.037345815 -0.053193033 -0.026996214 -0.183018357 0.021969186 -0.108744040 0.046126578 -0.067856558 -0.116035812 0.024119124
friend	0.007409125 -0.029949402 -0.018716101 -0.020560389 0.025427466 -0.031128300 -0.010636695 -0.060623184 0.014876694 0.036998607
sale	-0.072604783 -0.041048586 -0.072461873 -0.070737518 0.023642592 -0.059949808 0.009397455 -0.029745752 -0.088284023 0.018447286
receive	-0.062029563 -0.023585152 -0.048922494 -0.045876101 0.000668751 -0.066579565 0.057744671 -0.060572930 -0.008532058 -0.035117008
work	-0.003622978 -0.014416020 -0.093237564 -0.167673424 0.010418697 -0.164683729 0.005357198 -0.016647216 -0.078190550 -0.047850650
part	-0.034325462 0.001757490 -0.089907736 -0.114966042 0.058687299 -0.094751194 -0.031634018 0.004517375 -0.012682974 0.032590162
figure	0.010316752 0.016498426 -0.061138924 -0.034939513 0.011337771 -0.036785670 0.034722120 0.028736632 -0.050930358 -0.008855021
case	-0.077218063 -0.028997632 -0.027090175 -0.106974177 0.082163781 -0.150362253 0.020731818 -0.072000220 -0.077469490 0.012123477
bit	-0.021440620 -0.040221363 -0.005990400 -0.144127771 0.005335230 -0.076820053 -0.020401936 0.005398107 -0.035317346 0.007883918
david	-0.069342099 -0.011823121 -0.089073293 -0.147308037 0.014905583 -0.134789750 0.010322016 -0.000187110 -0.013459768 -0.037803750
distribution	-0.013868693 0.025184164 -0.074910417 -0.139613554 0.075549841 -0.092816427 0.008868586 -0.069011852 -0.053513173 -0.036266703
reply	-0.079200365 0.039425757 -0.061131123 -0.071702428 0.048809662 -0.117483944 0.017277772 -0.074966431 -0.085300051 -0.010219091
message	-0.007294165 0.005305226 -0.017934173 -0.099433616 -0.003304537 -0.117838755 0.043034036 -0.061360527 -0.020832388 0.027252793
apr	-0.032572266 -0.049960297 -0.014439033 -0.108813845 0.027739419 -0.130074114 0.000544959 -0.064862721 -0.076977998 -0.006669991
people	-0.042646881 -0.020841770 -0.071646497 -0.194762439 0.077720985 -0.173732787 -0.019336376 -0.067008592 -0.074808158 0.016115690
back	-0.020005262 -0.056327321 -0.059870154 -0.125873148 0.079307087 -0.163161770 0.036036752 0.011018947 -0.107619300 -0.045174696
long	-0.053994577 -0.034004081 -0.028818946 -0.147513643 0.054419644 -0.171255842 0.058324926 -0.000099997 -0.016940553 -0.008029071
james	-0.059093051 -0.033317141 -0.059064958 -0.143516764 0.058503851 -0.062793836 -0.031565063 -0.014063867 -0.067946553 -0.043027889
article	-0.051227782 0.023588412 -0.056058645 -0.232546628 0.046304468 -0.267674953 0.060282920 0.000143748 -0.091040552 -0.010620605
hard	-0.068416968 -0.019433824 -0.019817846 -0.139448911 0.107585371 -0.198227540 0.021844519 -0.079545319 -0.109070517 0.005243820
washington	-0.046576053 0.015888751 -0.055586591 -0.079969779 0.052816432 -0.145718902 -0.013208764 0.008068470 -0.005291383 -0.045272764
clear	-0.000610189 -0.039532728 -0.061902359 -0.083808817 0.046884019 -0.074330159 0.056810543 -0.029678898 -0.056341089 -0.041777313
view	-0.005697002 0.010252518 -0.024814494 -0.072381325 0.069295302 -0.043616116 -0.003444426 0.027469501 -0.064435273 0.044382144
easy	-0.069394305 -0.033658803 -0.075787343 -0.030302532 -0.017133916 -0.032262068 0.004251297 -0.058861766 -0.041159410 0.012238541
today	-0.005436462 -0.044790283 -0.036812752 -0.111083135 0.039731864 -0.049759276 0.007006845 -0.014537278 0.001144124 -0.043965053
version	0.001470013 -0.051440015 -0.012179331 -0.188827619 0.088904791 -0.189177796 -0.013097728 -0.064946063 -0.093516566 -0.005402013
world	-0.023702906 0.031175002 -0.036923971 -0.212800577 0.027007079 -0.169218585 0.044207864 -0.051962934 -0.037114959 -0.036316849
group	-0.051097468 -0.020844284 -0.013149693 -0.114090651 0.005409265 -0.163578048 0.038667623 -0.033335701 -0.061263606 0.015179745
reading	-0.005343365 0.006302495 -0.018891739 -0.136722192 0.089892976 -0.111700617 0.051334020 0.022722049 -0.053631842 0.042720545
mail	-0.032101423 0.033526000 -0.039090708 -0.142328426 0.017466551 -0.122768946 0.016714778 -0.061547492 -0.112160958 0.005891124
opinions	-0.078456156 -0.034048725 -0.075666972 -0.098468430 0.029443288 -0.108157806 0.039873131 0.022803769 -0.102549314 -0.002908943
corporation	0.022797273 -0.014395705 -0.064229622 -0.031635426 -0.003970299 -0.072356746 0.019944608 0.001285980 -0.045005534 0.001679258
found	0.016068270 -0.028374318 -0.094510771 -0.132328153 0.056803323 -0.148498043 0.037377488 -0.038682919 -0.033673022 -0.037206128
deleted	0.012401951 -0.049954712 -0.004365437 -0.153799519 0.070355475 -0.128668919 0.033574529 0.000562837 -0.053830378 -0.050807968
school	-0.062854871 -0.020757910 -0.005779224 -0.047512811 0.044830047 -0.035499457 -0.039520260 -0.011553264 -0.033919510 -0.002208103
hp	-0.021406434 0.015887197 -0.011354457 -0.140617579 0.087194316 -0.135970235 -0.020281538 -0.004455135 -0.065434709 -0.014442404
including	-0.051112525 0.035898581 -0.038014837 -0.097374268 0.015190717 -0.000931590 -0.028417634 0.004756648 0.009145338 -0.039090112
software	-0.010015763 0.001617179 -0.062908083 -0.184035778 0.049992904 -0.121895768 0.029373264 -0.020385597 -0.049275346 0.003379182
computer	-0.047156390 -0.052906487 -0.070909210 -0.193895042 0.093662672 -0.121822335 0.059795279 -0.069477133 -0.119998723 0.012096636
make	-0.085457437 -0.008935972 -0.015169797 -0.111819394 0.100493826 -0.099357031 0.050024070 0.011493286 -0.096008360 -0.029477784
lot	0.010814405 0.009024353 -0.073810615 -0.089393437 -0.009516987 -0.149334401 0.037593830 -0.010827288 -0.062950976 -0.038172625
opinion	-0.034491301 -0.049237743 0.001882565 -0.050974924 0.021545045 -0.105223656 0.045772880 -0.033495922 -0.068375021 0.013324397
made	-0.006795696 0.002889083 -0.093213551 -0.170707375 0.033051997 -0.160867080 0.052261420 -0.016030153 -0.054798052 0.036831390
fine	-0.013069845 -0.026345380 0.011997502 -0.058524609 0.076515868 -0.089451835 0.055905856 0.032278679 -0.075875737 -0.024427466
give	-0.066295899 -0.057819318 -0.010516909 -0.049028017 0.074389547 -0.114561722 0.047824446 -0.007457320 -0.077389941 0.043181129
results	-0.001740122 -0.058077235 -0.044238526 -0.112309739 0.061025321 -0.064865157 0.021624230 -0.043200247 -0.050576508 -0.026700426
understand	0.012924000 -0.016723905 -0.055269778 -0.099658981 -0.006251566 -0.064903639 0.052198049 0.030232243 -0.009510539 -0.007571416
time	-0.077826157 -0.040253300 -0.038033593 -0.227893457 0.115726031 -0.147046521 0.051217172 -0.078750581 -0.067067362 -0.042733323
real	-0.047077805 -0.025901543 -0.016076190 -0.164283693 0.053840231 -0.162388146 -0.006814704 0.017102953 -0.099279903 0.026006928
rate	-0.021537865 -0.013379755 -0.017076781 -0.004924500 -0.029983981 0.012397155 -0.008106142 -0.026240680 -0.006929598 -0.040735420
data	-0.009260967 -0.033874884 -0.078727394 -0.167959750 0.026888572 -0.086704388 0.020675067 -0.075141303 -0.026049936 -0.033730105
display	-0.007509334 0.000884568 0.025225002 -0.019616492 -0.031993721 0.005621536 -0.039529867 -0.003079841 0.035810627 -0.022325110
common	-0.005288005 0.036966119 -0.055358555 -0.105127923 -0.012887298 -0.038912486 -0.001412625 -0.033204567 -0.039794516 -0.030585332
speed	0.007924596 0.032663800 -0.026381208 -0.092578866 0.046175938 -0.109694622 0.018781917 -0.049429242 -0.042013891 0.039437357
single	-0.044531878 -0.009558075 -0.048759609 -0.086805172 0.018468203 -0.118989870 -0.034219608 -0.048114762 -0.094960839 0.028384233
front	0.001112939 -0.040677536 -0.075350761 -0.092212416 0.077884726 -0.126819819 0.042019565 -0.033254564 -0.088341340 -0.018407049
end	-0.016768657 0.029730288 -0.006532871 -0.077838756 -0.009126519 -0.067475654 0.016062928 -0.029831342 -0.072406240 0.035649039
support	0.013525035 0.029841701 -0.011750591 0.000084397 -0.022478268 -0.066839345 -0.029069068 0.021678736 0.026770394 0.024392636
important	-0.069664203 -0.055349305 -0.083549462 -0.075189993 0.051129945 -0.122722268 -0.013775533 0.000790571 0.003128379 0.028206274
understanding	-0.020492299 -0.017658323 -0.045178965 -0.011444521 0.000559112 -0.039242659 0.030930135 0.021517383 0.020695323 -0.024969554
information	-0.086371906 0.004662387 -0.037999421 -0.162808940 0.100564361 -0.188026071 0.062513828 -0.078007050 -0.069295354 0.025284601
general	0.008654776 0.023687523 -0.050367761 -0.119534217 0.030408416 -0.106124125 0.062183693 -0.019449089 -0.079250894 -0.043714944
price	-0.067532405 -0.045911931 0.013563171 -0.076764151 0.041030925 -0.121625558 -0.026800966 0.004079497 -0.072603606 0.016334958
true	-0.011472584 0.025005540 -0.020873791 -0.167301416 0.074344426 -0.175749972 -0.014254399 -0.004641768 -0.084504530 -0.025734823
internet	0.010107154 -0.040082559 -0.052699149 -0.096954659 0.042083066 -0.038900718 -0.020565286 0.025471164 -0.040410303 0.019052664
expressed	-0.043114025 -0.052967679 0.013074281 -0.100995339 0.066866606 -0.091306768 -0.030310294 0.003631653 -0.058222894 -0.017818458
mine	-0.007474977 -0.035110198 -0.061249349 -0.033914089 -0.016399935 -0.068768598 0.014403109 -0.000957104 -0.024917854 0.009056179
machine	-0.069378577 -0.042506516 -0.013950732 -0.118625931 0.056001965 -0.068701409 0.022484075 -0.067045741 -0.024906162 0.044777494
mark	0.006347554 -0.005173234 -0.082487188 -0.118630134 0.066235214 -0.061297536 -0.019475371 -0.030035578 -0.038901284 0.033695981
western	-0.013341733 0.005809806 0.007954755 -0.017551042 -0.006809697 -0.015977127 -0.025673771 -0.004724890 -0.073944792 0.017114881
university	-0.092564434 0.002031907 -0.103381105 -0.218114197 0.089861594 -0.193406716 0.034254950 -0.084144883 -0.109574758 0.010770496
total	0.027222577 -0.019073052 -0.065332524 -0.046892669 0.055146374 -0.067414135 0.002685966 0.007018130 0.011398968 -0.049202528
truth	-0.026395354 -0.044857524 -0.044396397 -0.123661160 0.037071884 -0.102363780 -0.009481011 0.026995052 -0.014033618 -0.030739883
posted	-0.022487966 0.030773213 -0.036301944 -0.083447196 0.017945996 -0.008535747 -0.032878540 -0.015846621 -0.032163579 -0.010877133
children	-0.079646066 -0.001575844 -0.087661587 -0.135871038 -0.003471636 -0.151330352 0.027373090 -0.004440337 -0.093925431 0.014656893
care	-0.064602219 -0.018234855 -0.076236568 -0.116454750 0.063351959 -0.077208266 0.014396777 -0.033906721 0.011794197 0.039980315
claim	0.017428307 -0.003049467 -0.005609440 -0.088920549 -0.002061939 -0.016808547 -0.005954801 0.037363358 0.008279802 0.026116012
show	0.018402003 0.008905037 0.023966221 -0.048623361 0.032864287 -0.091156930 0.012874371 -0.010687228 -0.064533263 -0.014510777
pay	-0.059830148 -0.056005392 -0.063973591 -0.073647127 -0.010221616 -0.104318097 -0.001164070 -0.003733281 0.014926064 0.020436056
ca	-0.073018670 0.000228095 -0.037396882 -0.099931598 0.058079634 -0.085870117 0.032257650 -0.036566608 -0.071372867 -0.028157374
remember	-0.033919688 0.026040986 -0.077817298 -0.132285312 0.055490278 -0.051910553 -0.032703161 -0.062936097 -0.023632992 0.004428291
calls	0.001183416 0.029630842 -0.025757262 0.005862294 0.035296120 -0.030952182 0.044231337 -0.047266465 -0.030985871 -0.021770988
note	-0.002414374 0.034150966 -0.027637705 -0.087767370 -0.001523858 -0.090933174 -0.029914435 0.033950444 -0.074486665 -0.002331181
technical	-0.061393119 0.012804184 0.022711661 -0.039267320 0.042971130 -0.017739397 -0.001011676 0.028127450 0.022032849 -0.038455192
point	-0.057929222 -0.043314550 -0.078003407 -0.169911802 0.071043469 -0.133091405 -0.005927083 -0.072690926 -0.049720109 -0.021256182
file	0.018598171 -0.001277996 -0.017360959 -0.060126565 0.015809665 -0.141859815 0.016488206 -0.049808159 -0.000557182 -0.043420229
engineering	0.004923180 -0.025286973 -0.006900960 -0.089029998 -0.018153682 -0.093381636 -0.043209851 -0.039442692 -0.023972400 0.000030813
network	0.003520911 -0.027016308 -0.070859961 -0.041640125 0.010957375 -0.022475235 -0.008888909 -0.034741458 -0.009850493 0.019921223
cc	-0.059398726 0.022086320 -0.037227750 -0.089762069 0.001164015 -0.145614892 0.024882944 -0.015046624 -0.009913842 -0.010090176
program	-0.054015405 -0.025593080 -0.082807571 -0.101953328 0.055205479 -0.119399734 0.021063404 -0.073203549 -0.071324766 -0.008922751
windows	-0.059111498 0.002367076 -0.053416900 -0.236988202 0.088637978 -0.179637864 -0.006816023 -0.061836943 -0.134727791 0.013302036
address	-0.051752836 -0.056754448 -0.083068408 -0.121112399 0.031675588 -0.115025602 -0.018008770 -0.033013951 -0.032382049 -0.037686348
national	-0.033407543 -0.049130004 -0.017781351 -0.100289911 0.063445434 -0.061778039 -0.018657858 0.008964398 -0.071251176 0.043751016
research	-0.042863507 -0.037345834 -0.043494154 -0.093350030 0.036996670 -0.105775148 -0.008275943 -0.030649638 -0.079892986 -0.037682850
division	-0.079702690 0.010084772 -0.067149483 -0.155827969 0.067131490 -0.121222809 0.061299969 -0.019543741 -0.096829638 -0.034102090
feel	-0.011349854 -0.054958377 -0.061883688 -0.109479249 0.032779198 -0.105598986 0.036899619 -0.001132875 -0.028480772 -0.042926420
east	0.020673966 -0.003061746 -0.042171199 -0.003606033 0.049058378 -0.088424794 0.028605262 -0.016210582 0.003293551 0.027918298
sun	-0.052498616 -0.056372941 -0.020503832 -0.117290795 0.022973578 -0.186184853 0.011688652 -0.032537375 -0.040214319 0.043037903
mentioned	0.007890668 -0.041271996 -0.006477188 -0.079279289 0.033396151 -0.088521458 -0.006239765 -0.017267665 -0.001687775 0.035628747
talking	-0.032105397 0.020882996 -0.010020334 -0.023181345 0.033206202 -0.020942131 0.013833524 -0.000636545 -0.022688463 0.048585337
free	-0.020707481 -0.037118629 -0.008314067 -0.080206104 0.007046181 -0.090890996 -0.039951265 -0.016330762 -0.037564021 -0.004661018
guess	-0.041773167 0.013648875 -0.015312111 -0.069858633 0.026550042 -0.085390151 -0.013917337 0.019127388 -0.027726000 0.007244878
big	-0.075747214 -0.014302207 -0.101422817 -0.172880590 0.019840952 -0.101923689 -0.019266047 0.021066854 -0.045361288 0.009064562
written	-0.045294493 0.021204596 -0.044885248 -0.101775639 0.048000094 -0.121035010 -0.014533766 0.008783715 -0.058564495 -0.037261266
times	-0.004098190 -0.024774279 -0.039292485 -0.143615037 0.025664495 -0.103842586 -0.016376019 0.011374066 -0.024730409 -0.026738329
put	-0.019597437 0.038095541 -0.079618394 -0.121386990 0.090154774 -0.088676892 0.049426716 -0.023318700 -0.065420374 0.030467361
similar	0.029610710 -0.016736941 -0.070119999 -0.045075681 0.022015983 -0.054447856 0.043471735 -0.060346965 -0.002131042 -0.033410888
matter	-0.034628909 -0.023996091 -0.070049532 -0.133359835 0.026170740 -0.088633351 -0.002659404 -0.067543812 -0.029675404 0.014842940
drive	-0.043543946 -0.011292536 -0.108981282 -0.195947275 0.100420885 -0.122382388 0.045447942 0.015918557 -0.052233927 -0.026645122
interest	-0.058377337 -0.027408756 -0.059549548 -0.069168523 0.017305767 -0.103266701 -0.007014445 0.021555608 -0.023970168 0.031352416
parts	0.009482270 0.036511056 -0.033833347 -0.053929430 0.043500606 -0.020475032 0.019756494 0.023043800 -0.053159449 0.004166422
full	-0.017915044 -0.017827865 -0.053112146 -0.010994654 -0.003028886 -0.057588737 -0.018304132 -0.013004092 -0.001429701 -0.008710971
open	-0.063251078 -0.014927522 -0.092296481 -0.057093065 0.053312782 -0.146748260 0.028106665 0.016718078 -0.098363481 -0.038857523
experience	0.005858816 0.013323396 -0.060268581 -0.066966198 0.042882968 -0.113212161 0.023204129 0.021524446 -0.031919226 -0.014436667
contact	-0.012586868 -0.050531786 -0.046357155 -0.167316496 0.018511366 -0.130797133 0.003351927 -0.001714623 -0.006565681 0.033301264
question	-0.062564977 -0.028141115 -0.062387396 -0.124983169 0.104568973 -0.183488145 0.053722396 0.014909874 -0.065424941 0.009426868
stop	-0.060079839 -0.009641333 -0.027303662 -0.073948003 0.074955150 -0.111714154 0.012500867 0.001703560 -0.074031778 0.024106316
image	0.008052339 -0.056505654 -0.046582598 -0.144895062 0.045173965 -0.147230029 -0.018317627 -0.028930685 -0.033003539 -0.026887046
bike	-0.018349923 -0.023717040 -0.082393572 -0.118774325 0.025689749 -0.136916682 0.041032180 -0.069864117 -0.004313920 0.007278975
dod	-0.012694781 0.001317248 0.020032493 -0.037954867 -0.002031502 -0.053149659 -0.035857487 0.027565315 -0.035325054 0.041403182
canada	0.024991026 -0.024095884 0.036003478 -0.017056309 0.029994978 -0.061128158 -0.045225281 0.012822255 -0.050369442 -0.016351070
robert	-0.065927781 0.011199419 -0.044041593 -0.015305203 -0.010617732 -0.064760484 -0.031659387 -0.029314900 0.021102266 0.039451502
heard	-0.028736655 -0.024808070 -0.067314364 -0.098100543 0.030153919 -0.152471408 0.007216619 -0.073972009 -0.082644589 -0.017774969
problems	-0.049706724 -0.007007392 -0.009977301 -0.135134384 0.071329817 -0.078938521 -0.007819754 -0.011381650 -0.050246239 0.005701446
memory	-0.063897632 -0.027937157 -0.105998553 -0.156811297 0.056219477 -0.119253986 -0.002960118 -0.052171521 -0.110269099 0.015693672
faster	-0.054352634 -0.035399701 -0.028914968 -0.075392023 0.059647027 -0.045124754 0.019005876 -0.022934722 -0.057619568 0.032392208
side	0.016883643 -0.001162528 -0.038001854 -0.125272006 0.078698166 -0.111457683 -0.014841932 -0.042772673 -0.004768149 -0.004251175
org	-0.032928109 0.007295592 -0.022214176 -0.085676327 0.066041306 -0.026004303 0.020501053 -0.059066609 -0.038367447 -0.033334319
copy	0.002371736 0.003145435 -0.051546935 -0.101151548 0.061234117 -0.005680186 -0.024557630 0.022422368 -0.057064284 0.038069461
disk	-0.040893249 0.028421648 -0.068231896 -0.014427401 -0.025507310 -0.077083379 -0.003039445 -0.013299741 -0.067987755 -0.015295689
summary	-0.063686617 0.011360321 -0.011103982 -0.054428328 0.017764961 -0.069580615 0.021267068 -0.012549262 -0.054512903 0.037835866
design	-0.066023707 -0.021767026 -0.032420736 -0.018462751 0.041426145 -0.012849623 0.022491442 -0.049451500 -0.009800950 0.001542567
center	-0.039683077 -0.045216080 -0.029525878 -0.115787275 0.060554735 -0.064780891 0.058302730 -0.025120331 -0.072375044 0.002730934
folks	0.000436746 -0.012476943 -0.039951794 -0.088315755 -0.014826700 -0.061349820 0.051560264 0.003817616 -0.014764722 0.011742722
space	-0.046711903 0.005908299 -0.108281918 -0.184302628 0.091430567 -0.196972892 -0.001442795 -0.076607235 -0.059969671 -0.029787758
worth	0.000080090 0.031139528 0.024090450 -0.073864140 0.021629905 -0.089386486 0.000087501 -0.053200293 -0.025638880 -0.028665263
keywords	-0.081392676 -0.007489739 -0.051872537 -0.148313671 0.001929758 -0.109546028 0.003797778 -0.042158280 -0.082785726 -0.029729361
line	-0.078284748 -0.050563898 -0.051165130 -0.079917215 0.024708392 -0.142243162 0.002484611 -0.025298778 -0.097092658 -0.026711537
thinking	-0.035550661 -0.043360654 -0.007417578 -0.065668769 -0.014480750 -0.089701794 -0.005700300 -0.042277418 -0.038560800 -0.031150572
email	0.017893298 -0.059739310 -0.077860929 -0.096526384 0.026138999 -0.117959663 0.006134574 -0.043298706 -0.087407306 0.035509784
nice	-0.057430606 -0.019763149 -0.067218773 -0.093736283 0.071370281 -0.054814748 0.013581169 -0.061895225 -0.085718863 0.044288311
tom	-0.015965912 -0.007450368 -0.021185853 -0.010173298 -0.024085086 -0.059962284 -0.005951071 0.040316045 0.027074592 -0.023375591
college	0.033290006 0.003949848 0.024518849 -0.081991285 0.047404304 -0.056416880 0.025448803 0.026831293 -0.012402647 -0.043841727
ms	-0.001175532 -0.030166032 -0.011067615 -0.058483932 -0.010800314 -0.047066029 0.034496296 -0.000024794 0.017515926 -0.022931686
project	-0.013263187 0.032102700 -0.056161899 -0.042831108 0.015549473 -0.053306937 0.038542882 -0.010621509 -0.045374468 0.001573928
pretty	-0.054713212 0.014578463 0.008060690 -0.064200334 -0.017927401 -0.087575838 -0.021591982 -0.035818946 -0.063238688 -0.037893731
bad	-0.019484067 -0.052133221 -0.013419804 -0.077575780 0.083557516 -0.166255236 -0.008931147 -0.072950557 -0.084241547 -0.004575743
thing	-0.085414924 -0.026117185 -0.004421751 -0.172110006 0.087144151 -0.090679929 0.002259092 -0.071740597 -0.108749464 0.023880851
things	-0.005368400 0.025437796 -0.119366787 -0.204093143 0.023416767 -0.157987714 0.067849845 -0.033150554 -0.063358657 -0.020109456
kind	-0.073903918 -0.054565325 -0.065719463 -0.105181746 0.082529649 -0.061576992 0.029080130 -0.055242512 -0.052549716 -0.048542656
references	0.013361208 0.004494155 -0.015221717 -0.118615970 0.056407038 -0.025345767 0.039480694 0.026520092 0.007250714 -0.018254410
numbers	-0.022901969 -0.016752169 -0.045444191 -0.091790326 0.075451896 -0.067996062 -0.014991285 0.005289469 -0.022352505 -0.025818575
company	-0.010688610 -0.016102044 -0.057212315 -0.041359439 0.057940751 -0.082213789 0.057198428 -0.047537331 0.008407076 0.033777609
low	-0.068445131 -0.031669538 -0.089863144 -0.126687780 0.050360151 -0.130665332 -0.007796005 0.015563952 -0.073951177 -0.025426151
answer	-0.017831896 -0.052638147 -0.053405765 -0.135537356 0.057274122 -0.152581021 -0.024180278 0.002313935 -0.024521478 0.027446857
hear	-0.059195373 0.035180107 -0.092306733 -0.151136428 0.059155267 -0.068856783 -0.007143199 0.009910865 -0.089105614 0.034286771
due	-0.065881744 -0.051616091 0.004409100 -0.028693277 0.009091568 -0.097541884 -0.028293904 -0.030204326 -0.052987523 0.045700494
close	0.020580782 0.009108157 0.011680500 -0.086169057 0.025025334 -0.094266720 0.054136094 -0.061153837 -0.016922388 -0.028594019
short	-0.073849648 0.019255279 -0.003907652 -0.072285265 0.023255387 -0.068078920 -0.037122164 -0.009406523 -0.094185516 0.026724020
years	-0.047658212 0.027004210 -0.106501929 -0.162832648 0.083692841 -0.123687647 0.032436769 0.021652151 -0.045578904 0.032533456
turn	-0.063119866 -0.046587791 -0.059331916 -0.139290154 0.022480819 -0.171075344 0.047874004 -0.026665334 -0.051627815 -0.010463120
control	-0.078081526 -0.014165351 -0.049493223 -0.200760037 0.036511730 -0.190888464 0.017452080 -0.050696462 -0.115810946 -0.034883272
fax	-0.021501821 -0.005802705 -0.004436717 -0.128045723 0.075253434 -0.083927624 -0.021083973 -0.008711773 -0.059515685 0.016298218
laboratory	0.005814046 -0.045845218 -0.022209823 -0.054376800 0.030986652 -0.031680077 0.050661050 0.021464556 -0.017574467 -0.026108097
science	-0.049441855 0.009238723 -0.049383435 -0.121538877 0.017348960 -0.143878311 0.019595055 -0.025400124 -0.040651068 -0.042179480
fact	-0.056859076 0.013618357 -0.037032295 -0.154649213 0.044147458 -0.188178018 0.050418593 -0.005251531 -0.079543255 -0.021976532
means	-0.044302464 0.014487742 -0.028931811 -0.070654236 -0.008525954 -0.096468039 -0.038831759 0.016444538 -0.090910047 0.033783700
bill	0.005140990 0.017687015 -0.055372573 -0.080596209 -0.009316613 -0.107394375 -0.003479139 -0.023653558 -0.012945386 -0.040698335
response	-0.027407341 -0.036185127 -0.011217861 -0.059292212 0.063925035 -0.062829562 0.033074304 -0.042901739 -0.001665486 0.039598368
sci	0.000544949 -0.032294050 -0.044227757 -0.033918831 -0.003012524 -0.040838517 -0.019467488 -0.007384491 -0.072954707 0.017866932
reason	-0.044355333 0.035885666 -0.084493734 -0.085575290 0.060860939 -0.151053146 -0.023936668 0.020767802 -0.070520148 -0.052511223
wanted	0.015931938 -0.025803719 0.023920054 -0.028300574 -0.001545044 -0.029856686 -0.035780508 -0.046212524 -0.013279474 -0.012556922
start	0.009278606 0.036501780 -0.052162338 -0.051637914 -0.024052994 -0.041157287 -0.009828147 -0.002468686 0.002833562 0.017242732
place	-0.076733626 -0.061598517 -0.022943169 -0.177807838 0.019022562 -0.098830335 0.043344110 -0.030984323 -0.084022850 -0.046377804
left	-0.045304038 0.010811065 -0.104590312 -0.142395213 0.013690011 -0.123165578 0.007750642 -0.028184019 -0.075113796 0.040936738
find	-0.027024623 0.029902712 -0.054841787 -0.105729446 0.051434290 -0.105213419 0.006081998 0.011382777 -0.062565386 -0.020651139
life	-0.008345713 -0.052755464 -0.089520104 -0.089038640 0.077337772 -0.155380577 0.016965944 -0.054205868 -0.040066585 0.023029268
interested	0.009059756 -0.010383775 -0.053411469 -0.126340076 -0.013848866 -0.053624209 -0.006027173 -0.022598457 0.003503859 0.018598156
ac	-0.015537568 0.043479323 -0.034950711 -0.112757862 -0.020485802 -0.085114770 0.025098888 0.019712526 -0.037969589 0.022051569
newsreader	-0.016628802 -0.038729277 -0.058771983 -0.047709949 0.076297976 -0.090603188 -0.010363107 -0.016655380 -0.015316800 -0.041464146
tin	0.011003305 0.005817861 -0.008316912 -0.076205693 0.023987114 -0.080987170 0.057208072 -0.048071206 -0.058981761 0.008253449
wrote	-0.079263106 -0.008949088 -0.064593382 -0.128302038 0.018557353 -0.138830245 0.025650680 -0.037345249 -0.083773829 -0.048142370
called	-0.031031244 0.029226547 -0.095310859 -0.084472314 0.068740256 -0.119333290 0.030527709 -0.034998365 -0.110297032 0.044694409
couple	0.005023086 -0.045079857 -0.019908918 -0.121199131 0.066022277 -0.127597436 -0.009881057 -0.004850678 -0.066179395 0.042231362
issue	0.010287182 -0.001941232 -0.009519619 -0.038260810 0.061105646 -0.115316674 0.037881367 -0.031313732 -0.032672349 0.005373892
pc	-0.030726809 -0.001540187 -0.013072170 -0.125981927 0.041629210 -0.046999853 -0.030891819 -0.000337396 -0.056055300 -0.022117699
info	0.007877423 0.017467296 -0.055432942 -0.088949814 0.054170646 -0.077977620 0.020645166 -0.041569967 -0.078979976 0.005706287
cs	-0.074661784 -0.034412630 -0.046947092 -0.075772516 0.074737489 -0.132553533 -0.012942468 -0.003024766 -0.003529978 0.037779924
asked	-0.017597234 -0.053241409 -0.080766186 -0.140128046 0.055987552 -0.129021391 0.036851052 -0.063733950 -0.067565039 0.047467478
questions	-0.012508194 0.031562794 -0.060612049 -0.111806609 0.019864880 -0.097102508 -0.005459867 -0.017611561 -0.016157117 -0.036996402
date	-0.056947492 -0.025580240 -0.016257582 -0.086372264 0.054009475 -0.076969899 -0.041445229 0.011977149 0.016237447 0.019099940
nasa	0.008045268 -0.051914975 -0.039125193 -0.173163563 0.006499126 -0.184641451 0.060218021 -0.048592359 -0.021056971 0.045921087
large	-0.051423330 0.026002279 -0.052082371 -0.144743621 0.027870825 -0.159798935 -0.019532323 0.014488176 -0.042853475 0.036105324
gas	-0.033597227 0.018214913 -0.066776596 -0.054103710 0.006474360 -0.109111033 -0.022853252 -0.022650810 0.017015355 0.032669723
result	-0.035681609 -0.047353391 -0.043974325 -0.015940759 0.049230557 0.003583608 0.026239939 0.025436731 -0.018326636 0.011006996
form	-0.041698162 -0.045521021 -0.042408597 -0.040836900 0.066685371 -0.031136902 -0.031542510 -0.002430034 -0.017747380 -0.048739955
major	-0.012983889 -0.003150105 -0.071519069 -0.106601514 0.056137010 -0.093513869 -0.036689606 0.014637434 -0.087974489 0.034486599
original	-0.040854674 0.032161821 -0.033710670 -0.056229386 0.043700412 0.002967427 -0.034479231 -0.033009537 -0.034416907 0.035575736
year	-0.031007379 -0.047007088 -0.030429592 -0.121717468 0.044027742 -0.156840295 -0.023190267 -0.066560887 -0.080197498 -0.033090308
days	-0.065696716 -0.056272779 -0.043972444 -0.076511905 0.007080255 -0.112515315 -0.034215622 0.009119067 -0.010447267 -0.021659371
late	-0.031181658 -0.053318650 -0.084261850 -0.100055128 -0.003016132 -0.064773120 0.003423254 -0.004000019 -0.005044547 0.012116652
send	-0.013347355 -0.004305741 -0.032660469 -0.062083490 0.033407856 -0.076908834 0.024997681 -0.000811672 -0.041571718 0.031656519
au	0.009165400 -0.058602005 -0.067470558 -0.147854954 -0.009849919 -0.128363773 -0.036799140 -0.006971555 -0.000211824 0.000907010
based	-0.031080263 0.001057892 -0.086112767 -0.145350769 0.054026015 -0.078748800 0.047576040 -0.011591455 -0.056721017 -0.009462164
months	-0.023167318 -0.048559923 -0.012121221 -0.081454121 0.048058696 -0.047015302 -0.022764679 -0.041515529 -0.020143164 -0.011022525
white	-0.029410994 0.031375561 -0.016575366 -0.007985228 -0.032153532 -0.095812678 -0.034952793 -0.032988563 -0.071205504 -0.007447071
technology	0.002173228 -0.040634003 -0.058592882 -0.169815361 0.029153666 -0.134383410 0.062609233 -0.056396201 -0.111747302 -0.052467812
international	0.001409358 -0.025368996 -0.077280596 -0.145230621 0.014156071 -0.147328570 0.016940529 -0.027027661 -0.007398127 0.046400845
systems	0.002649100 -0.055798415 -0.099654227 -0.123976856 0.047172468 -0.185830027 -0.030646447 -0.059252996 -0.073281161 -0.009877309
miles	-0.069223642 0.019625500 -0.024839271 -0.106047474 0.050302669 -0.050078195 0.024667777 -0.029676879 -0.006820766 -0.000013243
great	-0.028962787 0.034961700 -0.057324383 -0.127852499 0.004736512 -0.162523046 0.057915617 0.013406286 -0.038869090 -0.013864285
final	0.014375536 -0.002716793 0.003281112 -0.075758770 0.041073252 -0.076404072 0.055199910 -0.000206944 -0.044769127 0.001910691
taking	-0.015816338 -0.057067819 -0.053324815 -0.041829489 0.063484825 -0.088310055 0.001170111 0.024400745 -0.087738663 -0.040133499
state	-0.008514917 0.029350830 -0.083851866 -0.104637310 0.002094666 -0.143830493 0.008756239 -0.048419934 -0.072108991 -0.046888359
steve	-0.067084663 -0.009913621 -0.030775605 -0.076832466 -0.004651402 -0.104720466 -0.012570423 -0.028914932 -0.027499391 0.025733849
sense	0.016888540 0.033326346 -0.042690132 -0.027035778 -0.006978704 -0.065076821 -0.035482779 0.032561693 -0.012640293 0.047973052
effect	-0.064811319 -0.009500095 -0.066452175 -0.123713642 -0.010924637 -0.078958936 -0.031441864 -0.011454561 -0.080871575 -0.050633706
california	-0.049332973 0.026988426 -0.039814174 -0.006199477 0.037599552 -0.072976783 0.024527546 -0.032608345 0.026556892 -0.049360361
institute	-0.038693249 -0.046537556 -0.056878939 -0.004432586 -0.004866163 0.006796626 -0.012972364 0.030131258 -0.002198119 -0.045083947
law	-0.086299993 0.033451147 -0.088240743 -0.145921856 0.078978032 -0.112486385 0.041743655 -0.059462685 -0.079069391 0.032618113
religious	-0.016270539 -0.017912529 -0.024209181 -0.042125661 0.018624408 -0.068912156 -0.038284179 -0.037052251 -0.055198915 0.017359369
news	-0.014111730 -0.008861778 -0.083446316 -0.062076692 -0.009685540 -0.057868332 0.037184305 -0.044606194 -0.089347534 0.031282160
religion	-0.018005788 -0.055546038 0.011442068 -0.014006808 0.020288678 -0.092386842 0.015586152 -0.061907511 -0.063075356 0.021480637
public	0.022638852 -0.050025471 0.009063423 -0.051830087 0.075632058 -0.118229657 0.056696102 -0.034527354 0.001775829 -0.008073729
class	-0.043921165 0.011958592 -0.055942222 -0.120471001 0.075195469 -0.102660634 -0.000021999 -0.031467166 -0.041920409 0.007372791
god	-0.044473253 -0.018206796 -0.035261676 -0.190972373 0.086668104 -0.183987483 0.001906525 0.019765073 -0.045033138 -0.001225214
post	-0.048950039 0.021035848 -0.092145592 -0.122664221 0.091935642 -0.096564300 0.004534876 -0.044431660 -0.017211571 0.029173052
wrong	0.030980347 -0.022231210 -0.050687436 -0.072063453 0.022970483 -0.099070862 0.030736193 0.023895063 0.017833279 -0.034225270
stuff	0.009119249 0.021870269 -0.054686975 -0.083697520 0.071260333 -0.111851931 0.045824714 0.019741973 -0.085830323 0.023296516
history	0.018314576 0.031117806 -0.070349067 -0.087544464 -0.003643212 -0.041318640 0.006070750 0.016766036 0.016672485 -0.017660107
exists	0.029574934 -0.012977514 -0.006944795 -0.077332072 -0.000712711 -0.088845402 0.047268748 -0.031689119 -0.075171702 0.026169699
coming	-0.045062892 -0.050257765 -0.071797729 -0.017804932 0.064181097 -0.059513319 0.008282058 -0.061408978 -0.062319029 -0.026993854
small	-0.044239037 -0.038402215 -0.062182084 -0.086229809 0.031543292 -0.137591660 -0.025175767 0.025215603 -0.063866355 0.026607396
money	-0.018317839 -0.048789114 -0.100639336 -0.107694499 0.021113373 -0.070536971 -0.017892586 -0.012351661 -0.039825827 -0.024250023
power	-0.031550106 -0.039350718 -0.108770050 -0.226879776 0.108907551 -0.220375910 0.003079850 -0.057581220 -0.121022150 0.037279870
change	-0.038202010 0.027141407 0.011304539 -0.026074531 0.051031467 -0.097108200 0.017639436 0.016366374 -0.035835527 0.042047068
thought	-0.027339738 0.033410642 0.009669344 -0.038189702 0.061314803 -0.073381230 -0.011461265 -0.047803160 -0.052063510 0.026792221
hell	-0.012646285 0.000573184 0.003072636 -0.099150904 0.028219918 -0.006638558 0.002037916 0.005770466 -0.024398541 -0.039412748
takes	0.016663652 0.033554148 0.003080311 -0.091400690 0.017716248 -0.067954086 0.017539853 -0.057224259 -0.011391073 -0.013027624
set	-0.030982576 0.000977637 0.011114923 -0.062763087 0.041815020 -0.038959038 0.049858507 0.004931978 -0.057115667 -0.024136884
type	0.031193990 -0.047456343 0.009051213 -0.051007800 -0.007564980 -0.065553606 -0.026725156 -0.002873265 -0.002248397 0.021347940
guy	-0.051901560 -0.013590617 -0.078211159 -0.057054799 0.068648353 -0.133010820 -0.004453895 -0.029890226 -0.062618963 0.025930969
love	-0.077582181 -0.039453726 -0.018444350 -0.102991477 0.087481923 -0.142903820 -0.025035921 -0.060319476 -0.012081612 0.041603144
word	-0.031523634 0.008899126 -0.045315463 -0.095158361 0.040883578 -0.076389864 0.053464521 0.020305641 -0.037482433 0.021832801
car	-0.081723258 -0.049830426 -0.018027147 -0.113256983 0.025852256 -0.158080786 0.043585926 -0.026018498 -0.050141208 0.011518863
source	-0.040307526 -0.026645912 -0.015250701 -0.123922475 0.006382989 -0.075647719 -0.012639167 -0.055904847 -0.092843615 0.015077827
number	-0.084566951 -0.055861738 -0.051374201 -0.173356593 0.036564652 -0.180316791 -0.007097447 -0.013820023 -0.065670721 -0.032331154
card	-0.021497780 -0.001109422 -0.002178070 -0.092036135 0.071881413 -0.096556902 -0.019472100 -0.034413416 -0.054963738 0.036112413
cost	-0.024018642 -0.021482047 -0.079859547 -0.125039488 0.070442699 -0.112663656 -0.016765831 0.016210124 -0.066098854 0.031887446
sell	-0.055351887 -0.015546070 -0.004921866 -0.113316447 0.024501728 -0.085737847 -0.040757030 0.030371502 -0.006463131 -0.003233160
population	-0.033470824 -0.027030373 -0.079981610 -0.080652192 0.054371197 -0.110521488 0.012195732 0.004404584 -0.081207797 -0.040354215
order	0.006911167 0.007902504 0.011472777 -0.056301903 -0.010414634 -0.053868175 0.020498995 -0.056569114 -0.056094054 -0.014634869
hand	-0.027404999 0.004352186 -0.070801526 -0.126026064 0.074244082 -0.046300285 -0.040015489 -0.011574493 -0.078522526 -0.021855617
week	-0.027067898 -0.009521225 -0.047585778 -0.060918510 -0.009239806 0.019945687 0.052816574 0.039114125 -0.023004519 -0.022848791
read	-0.028680859 0.016472131 -0.060764521 -0.101560108 0.056654219 -0.095828451 0.049801379 -0.040495887 -0.102112040 -0.035688132
mind	-0.068507098 -0.022277122 -0.070311591 -0.103945814 0.039193742 -0.097374462 0.000692080 0.002124864 -0.031641237 -0.020799376
home	-0.029301843 0.003177246 -0.007028850 -0.024426553 0.022715826 -0.057901029 -0.006689781 -0.010069490 -0.003999867 0.035247486
man	-0.080378018 0.012568943 -0.054234106 -0.156338021 0.091465019 -0.148793548 0.010008533 -0.004215856 -0.024238681 -0.042661991
minutes	-0.026146043 0.011363068 -0.021265149 -0.086893499 0.053356025 -0.046393920 0.052864455 0.016394174 -0.078645252 -0.036557227
dept	0.023635905 0.036237419 0.019542251 0.007723510 0.039683901 -0.042730846 0.049456123 -0.046677530 -0.056492019 0.039686024
jews	-0.018637521 0.028253039 -0.034011770 -0.110847272 0.082633942 -0.108696088 0.061379615 -0.003284699 -0.095679104 -0.034262311
de	0.017179413 -0.004676894 -0.058785032 -0.040696420 -0.020625707 -0.037022330 0.000176226 -0.062197439 0.002637495 -0.002066197
list	-0.048281964 -0.006866483 -0.083909944 -0.041815456 0.009035007 -0.124075919 0.006341881 -0.031755116 -0.065138802 -0.034229744
rest	0.035698891 0.026835496 -0.060017072 0.009151636 0.001228652 -0.048063576 -0.029022548 0.013443872 0.030951602 -0.006272109
interesting	-0.035401676 0.005113500 -0.049825005 -0.008767551 0.044156797 -0.060826752 0.054705042 -0.031079298 -0.059399411 0.009481580
write	-0.048581909 0.040209010 -0.080045380 -0.066535845 0.043988414 -0.068942301 -0.041920770 -0.064448059 -0.039762653 0.030467400
making	-0.045561604 0.010592554 -0.013543163 -0.120553583 0.077286355 -0.122043110 -0.034327317 -0.049390558 -0.077417873 0.025350479
add	0.024148125 -0.013411704 -0.075589828 -0.020804150 -0.019810226 -0.093473144 0.021800919 -0.053187940 0.017172135 0.015398824
john	-0.066049904 -0.008293316 -0.031610459 -0.064247131 0.084286869 -0.101487644 -0.013800327 0.010347868 -0.028908616 -0.011794678
christian	-0.045575682 0.034355991 0.003725535 -0.073077515 -0.016783979 -0.039225455 -0.005334551 0.000115889 -0.003883153 -0.038018845
city	-0.008239777 -0.032387663 0.000044926 -0.136918306 0.029189238 -0.122834377 -0.036304031 0.027388871 -0.093030348 0.025420491
hope	-0.041873612 0.043105170 0.007310387 -0.034436565 0.023926707 -0.088484913 -0.026347384 -0.049802363 0.016118003 -0.023864172
run	-0.087292485 -0.001763373 -0.088587552 -0.118344292 0.086399555 -0.147177055 0.063505366 -0.065137401 -0.025265723 -0.003725099
strong	-0.071342498 0.025223842 0.003841050 -0.075419754 0.029804524 -0.100390337 -0.020766800 0.010541478 -0.025246887 -0.045729268
continue	-0.052586928 0.042994205 0.018679371 -0.095479123 0.021408156 -0.073462099 0.007348122 0.019428622 -0.068623722 0.001532799
situation	-0.005032412 -0.059321936 -0.015417335 -0.129326418 0.016255569 -0.075134955 0.063328750 0.006118541 -0.010333492 -0.036440954
worse	-0.061719622 -0.026629962 -0.044226985 -0.047526758 -0.011119691 -0.062281098 -0.018033441 -0.019395610 -0.024567975 -0.036796045
assuming	-0.057361901 -0.037960075 -0.033091240 -0.033477187 -0.019266572 -0.068902858 0.030019570 -0.023894405 -0.060995821 0.004342274
ibm	-0.043684360 0.001391069 -0.038695309 -0.067205608 0.010667902 -0.078405589 0.052192420 -0.025374329 -0.061898217 -0.000760149
originator	0.028440852 0.026443241 -0.059588660 -0.056808591 -0.027133629 -0.009435497 0.025005726 -0.042239834 -0.016219806 -0.048278082
bible	-0.027109699 -0.005085673 -0.032455154 -0.068682618 -0.002081034 -0.118038259 0.016192442 -0.064352959 -0.025472486 0.020178897
dos	-0.076624990 -0.035240397 -0.089279391 -0.115692563 0.073526762 -0.098807916 -0.038679659 -0.042523503 -0.058799960 0.029909277
service	-0.046301126 -0.017859468 -0.043858707 -0.051514037 0.045819487 -0.055729054 0.022986336 -0.002446658 -0.021457417 -0.022156179
jim	-0.039246876 -0.030807691 -0.011661375 -0.047149245 -0.014727697 -0.039041273 -0.028732624 0.041704655 -0.056423433 -0.009903881
told	-0.032030728 0.037322205 -0.060431853 -0.075966746 0.004203754 -0.055971261 -0.035510495 -0.039039478 0.003272619 0.028431773
game	-0.067765728 0.013936002 -0.049956571 -0.084290430 0.026857335 -0.103880353 -0.034162764 -0.004625641 -0.023034826 -0.017861001
appreciated	-0.006655883 -0.010336365 -0.026883047 -0.008725956 0.056917999 -0.098059073 0.035974730 -0.005709711 -0.018658981 0.024734156
job	-0.056661580 0.022697920 -0.007128473 -0.038443990 0.076124489 -0.030222777 0.035121813 0.028990006 -0.007035599 0.024381023
current	-0.074801058 0.005504361 -0.058584321 -0.115872368 -0.000056484 -0.144693822 0.060775455 0.020215513 -0.088240035 0.006741990
computing	-0.006658990 0.005550619 0.024302777 -0.045625124 -0.012183655 -0.005141564 0.049965579 -0.055088192 0.006601435 -0.033889890
sound	-0.052180033 0.009577150 -0.061672602 -0.123288065 0.039382383 -0.087245494 0.057836812 -0.031034863 -0.012212626 0.043719780
early	0.005751312 -0.040118784 -0.041891132 -0.067742422 -0.003291478 -0.039501071 -0.007298787 -0.010088972 0.007430334 0.024362765
disclaimer	-0.015539926 -0.021343570 -0.038161073 -0.055532351 -0.005992498 -0.145790741 0.012161960 0.001580648 -0.053772829 0.003494217
agree	0.025028205 0.035560731 -0.001923453 -0.070087530 0.056957163 -0.048971038 0.037089977 -0.034000333 -0.020412412 -0.044717252
gun	-0.039790515 -0.009294320 -0.038135935 -0.119994543 0.092120923 -0.113941513 0.044743396 -0.073094636 -0.070092186 0.035433572
sort	-0.016194036 0.038920086 -0.014535125 -0.061202962 0.024166340 -0.053767316 -0.004642988 -0.005760095 -0.018177668 0.012913472
required	-0.017150944 0.002081861 0.025942408 -0.054029260 0.010208843 0.005164507 0.014474972 0.043377377 0.033911273 0.026920922
uk	-0.042802177 -0.007862068 -0.000417700 -0.083660133 0.056140825 -0.091135420 -0.001045426 -0.016684143 -0.086543687 0.009902751
mike	0.021098999 0.028090071 -0.058188599 -0.110392325 -0.000963332 -0.118395410 0.048223428 -0.026564216 -0.051813260 -0.010119933
hold	0.001690533 0.007910645 -0.026140705 -0.038601849 0.018161399 0.014078191 0.040286396 -0.017983180 0.005515150 -0.024042001
possibly	-0.030088587 0.015067955 -0.021295883 -0.090820551 -0.021687808 -0.057513569 -0.036851570 -0.008726925 -0.036937285 0.033947103
ago	-0.037156280 -0.033066031 -0.048218016 -0.132809520 0.070343129 -0.101724625 0.030005675 0.013746291 -0.089106664 -0.011406310
advance	-0.049990110 0.039098352 -0.007878791 -0.001349704 0.032840829 0.018801957 0.028454838 0.021100709 0.026158199 -0.016894354
related	-0.057441819 0.043447204 0.004623110 -0.011067301 0.032056343 -0.083664730 0.027798774 -0.058223691 -0.075787269 0.008397103
box	0.001952480 0.038429469 -0.076879829 -0.070214473 0.058960449 -0.076937422 -0.011376791 -0.000056954 -0.033333406 -0.029063752
book	0.017516928 -0.030267557 -0.001699215 -0.000742395 -0.012356310 -0.024902213 -0.010537148 -0.011432537 -0.058184855 -0.027288154
wondering	0.025108300 -0.002407086 -0.018137285 -0.059939500 -0.025643937 -0.096582815 0.049600139 0.021347879 0.005613620 0.016697772
person	-0.060126647 -0.039661080 -0.036460649 -0.078633025 0.004779174 -0.056635823 -0.034701705 -0.023095096 -0.002872125 -0.039731029
simply	-0.026921026 -0.012959477 0.016937807 -0.045947250 -0.014420727 -0.076928206 -0.040222891 0.028729564 -0.010610875 -0.038941849
department	0.004224361 0.041075841 -0.010020337 -0.005392229 0.057799142 -0.080225103 0.023139389 0.012160278 0.000751142 0.003937498
application	0.022982361 -0.038760804 -0.039657377 -0.076893404 0.028817374 -0.034625724 0.024499614 -0.044075254 -0.074323006 -0.025842026
error	-0.015413808 -0.018736180 -0.050040405 -0.006959459 0.060643967 -0.023403164 -0.024521351 0.005074372 -0.035747770 -0.024723113
lost	0.030651914 0.047082908 0.004490493 -0.072722591 0.034031495 -0.039913863 -0.023635166 0.000280519 -0.049831282 0.030556530
makes	0.033937354 0.006446141 0.010818554 -0.079433717 0.015231386 -0.045039963 -0.005784701 0.005116947 -0.029641658 -0.017500466
code	-0.067191981 -0.040039565 -0.056861337 -0.067355290 -0.020674290 -0.064171910 -0.041406307 0.021367565 -0.056027707 0.006028496
hardware	0.009024543 -0.020224173 -0.000472117 -0.088633545 0.065058276 -0.091189206 0.047579739 -0.053337067 -0.064877152 -0.026341833
board	-0.033569686 -0.017205080 -0.028195947 -0.115004547 0.028863514 -0.072990306 0.015936010 -0.022940926 -0.000070155 -0.003183206
ram	-0.039842404 -0.016287118 -0.072739467 -0.109739862 0.039273951 -0.113761194 0.046317719 -0.033943642 -0.100803837 0.026139703
texas	-0.057564966 0.042763531 -0.030255692 -0.047050454 -0.034147549 0.004050338 -0.040433329 0.027339153 0.009986470 -0.048527639
considered	0.014307615 -0.002810912 0.021658506 -0.036758292 0.049842145 -0.016304929 -0.000774567 0.023278292 -0.023056829 0.008495753
rights	0.035037998 -0.029795958 -0.017565476 -0.032512575 0.066145785 -0.081509762 -0.017943125 0.010178476 0.009436958 -0.001404697
top	-0.031372681 -0.038818035 -0.068920806 -0.059358232 0.064496599 -0.041582201 0.054941811 0.029030547 0.007723367 -0.045507845
mac	-0.023110610 -0.034076754 -0.054650418 -0.004333478 -0.005409459 -0.007479104 -0.013178281 -0.007058362 0.000736468 -0.044577718
higher	-0.000906385 -0.003089264 0.019964704 -0.057202011 -0.011616174 -0.044229977 -0.041137241 -0.045117296 0.003321947 -0.008494582
light	0.019169727 -0.015541477 -0.004509289 -0.047811832 0.011366706 -0.069272242 0.031240443 0.023986079 0.011360364 -0.049758375
