sale	-0.027979352 0.029227737 -0.022603257 0.011652471 0.065219469 0.046236642 0.000835838 0.091680460 -0.039578039 0.005930765
corporation	-0.028741647 -0.054966185 -0.040354703 -0.033879582 0.055774245 0.029641218 0.001082402 0.047100704 0.025996063 0.013761045
distribution	-0.042767569 -0.039811622 -0.074444167 -0.046882603 0.048695207 0.102097817 0.034432311 0.160644591 -0.013440051 0.190444335
nntp	0.013605813 -0.023568321 -0.081139632 -0.111764073 0.099626355 0.097483106 -0.009993354 0.185345575 -0.027960900 0.189216048
posting	0.032554042 -0.039236262 -0.067235060 -0.065370448 0.138990223 0.092341848 0.065981887 0.273429304 0.007789924 0.234470934
host	0.020499555 -0.054493897 -0.101758696 -0.046278246 0.131148577 0.026801353 0.008577011 0.207399264 -0.038101964 0.179283842
box	0.013837953 -0.019864658 -0.064517736 -0.059813697 0.092268199 -0.003018111 0.003926724 0.157527342 0.007844896 0.153596058
type	-0.039971404 0.006250952 0.013915177 -0.051766790 -0.010916106 -0.005871127 0.023167299 0.095338717 -0.041799314 0.078676082
stuff	0.036647774 -0.000058219 -0.008092678 -0.038705960 -0.009000870 -0.007335327 -0.017994154 0.034907907 0.046460081 0.102816954
contact	0.017433690 -0.038490523 -0.049633689 -0.067833379 0.001944967 0.029326234 0.052488487 0.134145111 0.033188011 0.137413725
mail	0.028951826 -0.009016696 -0.012126498 -0.054465637 0.083825313 0.059754830 0.007497249 0.106381603 0.040994305 0.156069145
windows	-0.015218452 -0.039999817 -0.101621278 -0.078990921 0.115380913 0.024620101 -0.005521517 0.224156767 0.025885802 0.108793795
line	0.041572563 -0.080977969 -0.066248834 -0.065500855 0.048041660 0.008995874 -0.020437300 0.163123012 -0.004537641 0.172285289
reply	-0.051239520 -0.030198403 -0.041464787 -0.039124470 0.043557625 0.029584913 0.019181572 0.178268716 0.019855410 0.164850608
pc	0.001289525 0.009998423 0.002469435 -0.065263793 0.101192340 0.103627019 0.036377545 0.141796425 -0.006953668 0.149723977
division	0.031843584 -0.011512538 -0.028553545 -0.094577298 0.049670924 0.051359963 0.004959017 0.157763973 -0.028525716 0.132258713
cs	0.005358836 -0.041531671 -0.083073571 -0.117780805 0.093983240 0.007068427 -0.007140460 0.184112191 -0.035227019 0.190006688
world	-0.050348707 -0.084338531 -0.106227517 -0.122033879 0.100632876 0.038032811 -0.025900861 0.202943593 0.040815964 0.183780998
message	0.024341222 0.015355363 -0.042960908 -0.078365996 0.084515586 0.001647346 -0.000276193 0.094934545 -0.026118351 0.096678950
apr	0.036834497 0.022097787 0.023096671 -0.010404430 -0.004942917 0.035711806 0.018551666 0.133012295 0.039151054 0.041672148
originator	-0.049692761 -0.005954553 0.019723723 -0.019359784 0.038716681 0.071368366 -0.015656358 0.027483903 0.009122052 0.023709370
school	0.001884026 -0.055272721 0.009323684 0.024783371 0.055481415 -0.005949215 0.028177509 0.052390590 -0.013954166 0.077583522
computer	-0.014331169 -0.048716798 -0.042867951 -0.121530212 0.087734483 0.052533131 0.040587567 0.247226059 0.027928632 0.157605901
science	-0.041600723 -0.034611162 -0.070522428 -0.084506616 0.099710591 0.020900032 -0.025480172 0.180807829 0.001471307 0.178978100
university	0.022340160 -0.048640151 -0.050514571 -0.071117483 0.108766697 0.069645457 0.028247433 0.245055020 -0.006877496 0.214874476
article	0.018269559 -0.058797404 -0.097213104 -0.098607309 0.128056288 0.099918678 0.014766583 0.293666363 -0.030180166 0.202758580
writes	0.004066847 -0.066272482 -0.140064165 -0.137993991 0.145438537 0.155821010 0.021951599 0.308492243 -0.002619898 0.319115967
great	-0.028013481 -0.093600258 -0.068839312 -0.130481765 0.106527969 0.107379511 -0.026396312 0.161667988 0.041777298 0.131219625
live	-0.001161037 -0.034236375 -0.004701505 -0.010644399 0.013805991 0.067304775 0.016086686 0.102310672 -0.025557531 0.065076664
guy	-0.037470561 -0.032936521 -0.024481798 -0.104469620 0.119319774 0.026667120 0.049067888 0.214558363 -0.024015360 0.153944686
talking	-0.031608075 -0.018791344 -0.001687692 -0.051424805 0.032573070 0.043363705 0.012132237 0.208720610 -0.015843647 0.200730398
real	-0.042834502 -0.110813454 -0.039043307 -0.136309981 0.072608635 0.082393520 0.051221967 0.256932616 -0.007881284 0.255908608
agree	0.026230952 -0.026530029 0.000518936 -0.013033344 0.010013376 0.051718790 -0.003185874 0.079339795 0.035158265 0.094488703
internet	-0.014838497 -0.034211610 -0.052433703 -0.043164074 0.086370632 0.017900566 -0.024586150 0.056572821 -0.044066925 0.038384590
phone	0.013199938 -0.008695469 -0.055363599 -0.064208157 0.061989080 0.060292389 0.004233691 0.087537564 0.043998301 0.061654780
fax	-0.016534176 0.014341929 -0.036631763 -0.019603230 0.075479843 0.021035893 0.047741994 0.137367845 -0.021189125 0.118066162
usa	-0.025644019 -0.048983909 -0.094708249 -0.129892021 0.092271924 0.100156143 -0.012712552 0.210273281 0.016729852 0.174510926
systems	0.010877520 -0.018065058 -0.020981301 -0.107197821 0.105055317 0.066443041 0.006560199 0.092826627 -0.004947592 0.127031431
newsreader	-0.058132425 -0.049148783 -0.068169311 -0.019556383 0.047606908 0.094700307 -0.001791166 0.123818979 0.014392583 0.167219743
tin	-0.038878042 0.019541064 -0.017384294 -0.069329590 0.080847122 0.003531062 0.055022441 0.162076280 -0.005161816 0.088847019
version	-0.042216938 -0.040515289 -0.071576566 -0.056495178 0.067769848 0.110297993 0.056403577 0.150422871 0.012059884 0.203727916
robert	-0.057353508 -0.037189517 -0.013134622 -0.007438687 0.003292641 0.020341296 0.059475645 0.162284479 -0.002254720 0.119978085
wrote	-0.030041553 -0.099702954 -0.079557121 -0.102174506 0.057229508 0.045273218 0.020976290 0.255218476 -0.047065359 0.167220339
chip	-0.021656437 -0.029527638 -0.028883122 -0.032158025 0.093086898 0.030513644 0.050888363 0.122472979 -0.046517618 0.104058728
low	0.003192885 -0.067586176 -0.052006971 -0.095700815 0.106004335 0.043500662 0.033908073 0.148482144 0.044837631 0.153898045
pretty	0.007547998 -0.076355785 -0.070814297 -0.024101047 0.051374651 0.019049821 0.059933551 0.124667265 -0.048406761 0.098886199
nice	-0.035621513 -0.040728051 -0.006629731 -0.072318144 0.039707713 0.029461173 0.041466076 0.120478570 -0.010784674 0.062217005
address	-0.006457719 0.005164305 -0.015032007 -0.039410841 0.055221692 -0.007641718 -0.021063047 0.139476657 -0.013887385 0.078832552
number	-0.030154960 -0.101550445 -0.090346679 -0.082564808 0.038667820 0.103858590 -0.014987520 0.179976806 -0.023644507 0.150971904
information	-0.052411083 -0.087304607 -0.057675038 -0.070115536 0.024340739 0.032802533 -0.007301731 0.138351917 -0.046088833 0.149460748
thing	-0.003085241 -0.055087082 -0.086458921 -0.092426077 0.064639263 0.018427575 0.034736961 0.194180623 0.002962750 0.144321531
person	-0.048845332 -0.010920350 -0.064073958 -0.107302077 0.042341009 0.072203174 -0.029227022 0.158055499 0.043131903 0.137371287
sense	-0.027635051 0.001523839 -0.025271315 -0.036120228 0.008008060 0.016737808 0.056027025 0.122925699 -0.030122271 0.053666327
required	-0.004838617 -0.028744433 -0.003506713 -0.044210870 0.050961681 0.063720524 0.047620200 0.107920483 0.024223510 0.026942234
laboratory	-0.052377403 0.005159119 -0.006008942 -0.006062952 0.039540034 0.013178476 -0.029282086 0.062154405 0.043101821 0.086170144
tom	0.009531406 -0.021387136 0.006074800 -0.014788423 0.080694705 -0.003913335 0.051488329 0.114714190 -0.018681694 0.088285431
lot	-0.054838184 -0.042106755 -0.011492701 0.005540477 0.013490841 0.068930037 -0.036560427 0.073984653 -0.046637051 0.119732253
guess	-0.032517552 -0.079333328 -0.090342499 -0.066712916 0.073702052 0.052122422 -0.010568994 0.147202089 0.033764426 0.101006992
give	-0.030711127 -0.084488548 0.001730735 -0.106553987 0.081728317 0.032511719 0.055900153 0.123603374 -0.013701099 0.187821075
total	-0.044167012 -0.059684187 0.002715594 -0.046530146 0.027099919 0.007923172 -0.030936491 0.122953586 0.030182589 0.080036327
cost	-0.029081345 -0.072196029 0.006344380 -0.073086873 0.082183018 0.068375416 0.022142043 0.116288967 -0.024368940 0.077107213
company	0.020316079 -0.020827958 -0.043680456 0.000592502 0.011010620 -0.009803114 0.034133922 0.060190488 0.007420786 0.007448904
word	0.019824073 -0.080993839 -0.061674848 -0.136483207 0.078845955 0.027328841 0.008791517 0.166247249 -0.029590759 0.117292322
takes	0.040048163 -0.014689885 0.001857670 -0.092262119 0.042529222 -0.003912443 0.058587994 0.116379552 0.027444271 0.065938741
state	-0.020882260 -0.011956392 -0.048504770 -0.138127223 0.089848228 0.049724601 0.068297319 0.243916571 0.000001284 0.218826711
today	0.039752986 -0.072583131 -0.096389681 -0.124544449 0.107310049 0.097565867 -0.023751706 0.141758725 0.042745907 0.121642984
money	-0.026818505 0.000765401 -0.016002407 -0.066190042 0.011896212 0.008810332 0.008315570 0.138265789 -0.045758717 0.072123937
pay	-0.006903127 -0.022483969 0.017445648 -0.053667810 0.004301580 0.007117421 0.052434150 0.078579217 0.007633444 0.012406952
large	0.039045051 -0.048259072 -0.046915691 -0.047380742 0.075919360 0.050075825 0.015634492 0.119990915 0.030161496 0.183679640
true	-0.007689661 -0.025635535 -0.049009845 -0.064031087 0.080119424 0.013802714 0.025398409 0.220136449 0.008629034 0.164724216
call	-0.009004294 -0.014517979 -0.027974892 -0.080000974 0.053304322 0.048587505 0.044792049 0.151050732 0.015744947 0.175205588
job	0.016797792 -0.011668109 -0.017289257 -0.029212207 0.066103451 -0.026267508 -0.043586213 0.039861135 0.022675769 0.080348268
dod	0.013842061 -0.031248216 -0.020361677 -0.052253049 -0.019940071 0.038813356 0.011258733 0.068415962 0.023581045 0.005355701
bike	0.027918564 -0.042317770 0.000941861 -0.124680653 0.089881092 0.054659385 0.022988375 0.226739526 -0.001021186 0.152295187
disclaimer	-0.031733260 -0.001638174 -0.050554261 -0.068498358 0.034216467 0.037236769 0.017408201 0.159153163 0.016284987 0.152253613
board	-0.011334133 -0.012550154 -0.071014769 -0.012250303 0.033145770 0.016728966 -0.029727032 0.071541771 -0.039382651 0.054631162
copy	-0.022307254 0.021750245 -0.002952247 -0.011411417 -0.002212625 0.024193572 -0.020852523 0.117061481 -0.000186425 0.107568584
network	0.038678501 -0.052035939 -0.064519100 -0.037813835 0.059740324 0.084575310 0.023382375 0.131441250 0.024892991 0.152886599
posted	0.020399412 -0.030106898 -0.060886730 -0.042260688 0.041856419 0.036013890 -0.016425554 0.063300118 -0.032332573 0.095642842
opinions	-0.044869427 -0.065317892 -0.039197534 -0.076590329 0.086287946 0.049403686 0.013984225 0.185276166 0.002629597 0.153216988
expressed	-0.040976532 0.031651299 -0.020647734 -0.056798659 0.066941805 0.065129928 0.035930585 0.051149119 -0.031782832 0.050071519
bill	-0.005582649 0.012796430 0.010066794 -0.032238040 0.025291281 -0.022637689 -0.007280858 0.061911114 -0.040123381 0.116534494
date	0.046146583 -0.060985047 0.008245996 -0.046240132 0.049791437 -0.009334681 -0.007177537 0.087398827 -0.012471305 0.028910521
write	0.007569871 0.004250064 -0.019065950 -0.059939489 0.036875799 -0.002620484 -0.012065106 0.101027504 -0.050444439 0.098408982
good	0.028834093 -0.055224646 -0.115739539 -0.068441935 0.151338145 0.119231306 -0.001946681 0.264989018 -0.039853837 0.197214708
software	-0.037996653 -0.071608938 -0.090783916 -0.032307953 0.022286391 0.052430760 0.009571681 0.126605362 -0.051673882 0.155732244
couple	-0.011716786 -0.076802313 -0.004474130 -0.084701374 0.019371059 0.044359680 0.018478710 0.100344181 -0.030904353 0.101827987
program	-0.014569351 -0.006780998 -0.056020726 -0.086296812 0.015005640 0.022894306 -0.018291511 0.115913026 0.013336326 0.165236980
similar	-0.029136749 -0.015511647 -0.070603773 -0.098682418 0.084594771 0.067681022 0.010894042 0.125345901 -0.002733382 0.125408873
send	-0.041858602 -0.063029908 -0.051695805 -0.071499825 0.062216707 0.044861861 0.038370155 0.156758010 0.043241944 0.143883854
free	-0.052136254 -0.019001540 -0.009654972 -0.026382107 0.009835006 0.058535662 0.001003045 0.104418695 -0.016706202 0.020832900
support	-0.047972888 -0.037178613 -0.062699988 -0.037904866 0.029189432 0.054137968 -0.040013604 0.055193439 -0.023089956 0.036716733
small	0.043885861 0.008439461 -0.041350096 -0.037956215 0.004306197 0.061304074 -0.034767706 0.149410188 0.007782951 0.072912253
figure	-0.000281314 -0.056648362 0.014685609 -0.029827038 0.078282975 0.056565765 0.025569998 0.092500180 -0.046215266 0.100312077
price	-0.038575962 0.029314728 -0.020647191 -0.026778378 -0.008961277 0.076571152 -0.032521658 0.063763984 -0.024957364 0.082285531
bad	0.005530788 -0.021381693 -0.088216998 -0.072505400 0.061646599 0.093295991 0.071723528 0.150019646 -0.004876000 0.207890451
ca	-0.009162138 -0.026916105 -0.004621110 -0.058916558 0.123002604 0.089593485 -0.006018649 0.218746647 0.042591304 0.152707592
john	0.029517692 -0.076528229 -0.003436113 -0.112441026 0.045070983 0.059242439 -0.006328788 0.147201866 0.029341571 0.112479702
city	0.008941201 -0.036160696 -0.043774825 -0.007077835 -0.004815484 0.035928525 0.043417469 0.095898658 0.028492466 0.032349784
time	0.005475434 -0.075825378 -0.117222667 -0.116477169 0.073041879 0.087263227 0.029157093 0.204733357 0.020288553 0.241186470
effect	0.003265805 -0.019928856 -0.085861318 -0.067338198 0.032155979 0.021104639 -0.027803984 0.102152452 -0.021077340 0.077450112
year	0.004852050 -0.012915937 -0.059650149 -0.117999300 0.068318374 0.060321864 0.016105315 0.119364567 -0.032575056 0.178743899
stop	-0.039470896 -0.068246447 0.026792174 -0.030637389 0.046349280 0.033737078 0.034683891 0.035499230 0.032368336 0.091960706
heard	-0.011579293 -0.071618527 -0.024548793 -0.082813747 0.093367644 0.060071085 0.038089633 0.199802071 -0.051332943 0.125537321
current	-0.019261040 -0.053617202 -0.000139058 -0.043128211 0.065357104 0.099246398 0.036921967 0.134178951 -0.041108780 0.142730996
top	-0.022948036 0.013448313 0.015502854 -0.041674901 0.018149935 0.045716099 -0.034306951 0.051382758 0.044795860 0.034237724
interest	0.029567359 0.024948178 0.031907979 0.000846834 -0.005491349 -0.029858276 -0.016457023 0.008950386 0.010953830 0.035932511
understanding	0.011498694 -0.001786152 -0.054030426 -0.048681054 0.107915208 0.074836202 0.028708460 0.192966461 0.000315430 0.161071301
major	-0.038602319 -0.054895289 -0.026013346 -0.090777509 0.099483877 0.068722151 0.000913683 0.213895068 0.044087429 0.163979530
years	-0.006499059 -0.076200761 -0.056083124 -0.120024279 0.081136487 0.090824172 0.010532360 0.243975922 0.006594485 0.186786935
ms	-0.049192805 -0.061824780 -0.047150042 -0.072694518 0.039031886 0.005405022 0.041152909 0.134298235 -0.025308760 0.038038950
dos	-0.054287106 0.010459308 -0.050696950 -0.048018325 0.024529213 0.075938672 0.057686567 0.147380173 -0.051556498 0.166177079
found	-0.042360302 -0.002818202 -0.081095897 -0.091909893 0.113320224 0.080605365 -0.012958552 0.109134153 -0.025332162 0.167129844
cc	-0.043950047 0.001350132 -0.054579042 -0.078551851 0.127524152 0.057097305 -0.023812206 0.204586312 0.004948121 0.184301913
sun	-0.007251148 -0.094536930 -0.034304675 -0.091956742 0.127676472 0.099343501 0.000467234 0.235182941 0.020611906 0.192094445
problems	0.019140828 -0.012223969 -0.045654744 -0.041365370 0.028346945 0.067184582 0.033253610 0.107818030 0.036184534 0.134243637
start	-0.009009693 -0.013952652 -0.033977509 -0.090309799 0.034739133 0.097584493 0.026985081 0.131168887 0.045633040 0.083109282
display	-0.035041541 -0.070798002 -0.001428806 0.001096169 0.015923552 -0.007257574 0.059354007 0.093959711 -0.001850423 0.074835517
file	0.004823941 -0.031624895 -0.046986163 -0.105793320 0.109216273 0.110092372 0.021941891 0.216936275 0.044097077 0.231261492
hard	-0.016598916 -0.073565811 -0.047695938 -0.041533772 0.104105897 0.008931571 0.028475853 0.203156069 -0.049790367 0.151007488
disk	0.036195874 -0.066396467 -0.074513070 -0.010340748 0.034509610 0.082113460 0.013129265 0.075119905 0.024215320 0.117968597
back	-0.017731914 -0.081522577 -0.057921473 -0.068755805 0.050211485 0.042154633 0.022765813 0.256602556 0.003686527 0.168222114
run	0.018716926 -0.062314354 -0.088280424 -0.068628527 0.023482919 0.020921493 0.054831948 0.145662218 -0.052371174 0.134352133
advance	-0.051240172 -0.031653285 0.006512116 -0.033758659 0.044887077 0.059439342 -0.038176328 0.105279632 0.007003101 0.094962493
keywords	0.040831413 -0.020080298 -0.006213582 -0.091861866 0.098404370 0.087276109 -0.008287067 0.138301209 -0.047843512 0.181990102
de	-0.044739462 -0.026052689 -0.071295463 -0.097313203 0.092262745 0.013859522 -0.025653118 0.058289435 -0.021218367 0.092860892
interested	0.043113258 -0.053642809 -0.011818940 -0.033225503 0.022391541 0.049730893 0.010455224 0.058355838 0.001360781 0.018880369
au	-0.023321968 -0.069920570 0.004064900 -0.075163379 0.082399823 0.083379373 0.050124697 0.201302946 0.009735694 0.123512924
friend	0.038459614 -0.051839557 -0.024710858 0.006807108 0.061660558 -0.026295088 -0.030490335 0.078040481 0.026254421 0.087478369
computing	-0.046996694 -0.050399158 -0.025733039 -0.022626817 0.045537621 0.061232660 0.003178849 0.020251431 0.009283713 0.020893781
national	0.026589287 -0.066092841 0.001325317 -0.097281188 0.111492433 0.091615818 -0.010829928 0.191712782 -0.047401093 0.128299296
image	0.030965028 -0.031918727 -0.079695031 -0.008920568 0.044070579 0.051214628 -0.035286166 0.107567877 0.028195435 0.060347375
work	-0.022734012 -0.096001476 -0.034195095 -0.091967300 0.032358669 0.088329464 0.032485314 0.194528028 0.017330782 0.164287001
technology	0.018867241 -0.080299787 -0.054019418 -0.122323722 0.120135605 0.093855932 0.052476622 0.192646503 0.013179657 0.152942359
machine	0.005776740 0.013478826 -0.055579193 -0.032516688 0.021022553 -0.001847113 -0.031948604 0.074849255 -0.021326860 0.088899747
hardware	-0.047020867 -0.008733178 -0.039228383 -0.015562613 0.064455017 0.031597029 0.036236908 0.023982245 -0.027421841 0.086135790
technical	0.038537674 0.017928952 -0.002584720 0.015426405 0.022292888 0.043071020 -0.030740162 0.061594479 0.029859960 0.076341622
results	0.016749380 0.005127658 -0.079661936 -0.021151122 0.048878916 0.041637532 0.048463657 0.158002347 -0.042361379 0.074384712
final	-0.032902226 0.006491649 -0.002583044 0.002096057 0.005879628 0.052164685 0.059748318 0.086280942 0.036034811 0.069710538
form	0.036679741 0.010296859 0.003623247 -0.041816771 0.055479463 0.017403608 -0.022711663 0.079159036 0.035194565 0.034829691
important	0.019482015 -0.062251922 -0.032186925 -0.093781240 0.037098061 0.056372415 0.034322862 0.126066536 0.026923338 0.085292652
due	-0.048910026 0.000417757 -0.048444871 -0.072726578 0.043924909 0.018811386 -0.028384652 0.066861764 0.005081904 0.114031568
college	-0.000778251 -0.015232512 -0.031423315 -0.067846917 -0.017991541 0.058140732 -0.038189892 0.095135398 -0.001963120 0.044210508
email	-0.044289507 -0.082936160 0.001944140 -0.027262298 0.089776345 0.051673938 0.056640737 0.124563143 -0.049115755 0.111197039
made	-0.011344304 -0.022522569 -0.081184015 -0.068720371 0.070427582 0.089782096 0.029630519 0.134222001 -0.028051816 0.117280342
international	-0.012460791 -0.035227869 -0.013149082 0.010744254 0.061898716 0.071642712 0.036327921 0.074084684 -0.007109111 0.113718063
card	0.031300087 -0.058330279 -0.040961504 -0.097678050 0.059152283 0.065595411 0.049046274 0.171259448 0.013585935 0.144466430
questions	-0.020924492 -0.027979989 -0.008078021 -0.050878968 0.029792948 0.029996414 -0.011675102 0.079686694 0.018543549 0.033020675
bit	0.016847020 -0.011741663 -0.073766902 -0.075778760 0.050018080 0.117350519 0.022941472 0.150304332 0.023908362 0.123069622
ram	0.030565739 -0.054107942 0.000030864 -0.062374156 0.059680138 0.091465563 -0.030809619 0.193997696 0.015052963 0.098044053
general	-0.040497322 0.010709723 -0.056503952 -0.081097871 0.061275620 0.045927841 0.060106531 0.151418060 -0.042015336 0.127666578
faster	0.025081534 -0.017349083 -0.043253914 -0.065216623 0.043576576 0.083457641 -0.014151037 0.077925958 -0.049490176 0.081466034
problem	-0.030854534 -0.064247705 -0.030164538 -0.090141624 0.071445182 0.074239753 0.039146107 0.172719419 0.005998367 0.187243074
read	-0.032882381 -0.048857499 -0.057761781 -0.022071285 0.089854784 0.036825847 -0.032291852 0.142860964 -0.006004900 0.120654181
system	-0.020341864 -0.088540651 -0.075391643 -0.083793603 0.056066278 0.119432896 0.055500787 0.223827064 0.003877259 0.171794206
strong	0.037476130 -0.011677782 -0.086329505 -0.025452713 0.055483855 0.064610884 -0.013890853 0.110448502 -0.022270493 0.111557998
opinion	-0.002079479 -0.013257394 -0.002205369 -0.091707081 0.102924243 0.048532598 0.037012629 0.149988979 0.045077238 0.121435963
early	0.002337465 -0.038812436 0.008917760 -0.060076334 0.072444253 0.044896800 0.036852654 0.089607991 0.041495085 0.049090125
mac	-0.008359442 -0.071685106 0.009132302 -0.018114517 0.034142002 -0.001145141 0.050312474 0.115768075 -0.043814052 0.088352762
department	-0.008667854 -0.066904299 -0.070430428 -0.094183952 0.016172096 0.014523529 -0.031424180 0.077887066 -0.036606293 0.050453577
christian	0.003225273 -0.028575724 -0.049696278 -0.074197382 0.023569960 0.045379601 0.035260942 0.044365380 0.036078371 0.099791542
nasa	-0.051717088 -0.039979622 -0.011778245 -0.113259181 0.075134762 0.093936495 0.037448432 0.215715498 -0.011020781 0.180174083
love	0.025226289 -0.017910587 -0.015543124 -0.025551470 -0.025998229 -0.002538652 -0.024629036 0.030044971 -0.034726497 0.010298586
god	-0.011918602 -0.021918433 -0.090479769 -0.132920787 0.130968049 0.116790496 0.019543082 0.191330835 0.040909208 0.178947464
simple	0.029817337 0.018650744 0.008287479 -0.078997493 0.015597385 0.021498755 -0.013407203 0.138104647 -0.015107511 0.069978103
bible	-0.026202254 -0.043883871 -0.063280627 -0.023780528 0.038516831 0.059125643 0.053066082 0.092061803 0.019848080 0.090941891
reason	-0.049876794 -0.073281430 -0.006689358 -0.097328618 0.023445090 0.009543240 -0.020477023 0.185225785 0.044755388 0.157854080
simply	-0.056818772 -0.091889918 -0.015364716 -0.077602774 0.092551693 0.097547725 0.026185255 0.151628092 -0.035785247 0.145251602
truth	0.033307891 0.005416451 -0.064913489 -0.024250943 0.025358751 0.051708758 0.056075178 0.146829829 0.047126591 0.097238205
religion	0.003183800 -0.075402908 -0.003614129 -0.032213338 0.015302697 0.070577718 0.011823667 0.074389622 0.029139038 0.121970847
show	-0.016435830 0.006938660 -0.029067991 -0.044596948 -0.024338247 0.009251369 -0.021581633 0.072641060 -0.047245078 0.071428902
life	-0.027969878 -0.072333083 -0.075074211 -0.069377489 0.111819029 0.030811947 0.029874401 0.177039132 -0.035982840 0.157873631
book	-0.051928520 -0.086939119 -0.048864219 -0.137769833 0.080294780 0.030762214 0.064444311 0.174681097 -0.001036254 0.145021513
fact	0.027474077 -0.042822335 -0.105482809 -0.082201995 0.150382355 0.057427756 0.005754233 0.254036099 0.028962178 0.262295783
question	-0.018257968 -0.060590658 -0.076870397 -0.091695055 0.076949768 0.118079446 0.033996396 0.224367455 0.022886027 0.160601512
history	0.003942469 0.001044501 0.013389485 -0.029707223 0.092991956 0.035495140 0.040524065 0.141269013 -0.018313240 0.119534776
class	-0.051563632 0.000052391 0.015956663 -0.014327603 0.064677045 0.071213037 -0.022492887 0.036879685 0.033318702 0.076617636
matter	0.030422026 -0.009780581 -0.086383194 -0.083439812 0.113363668 0.054596342 0.032986514 0.148371264 0.032892611 0.100126460
people	0.031154005 -0.105311945 -0.066074669 -0.167413220 0.202297315 0.098209724 0.085916214 0.335530341 0.026444267 0.350028068
told	-0.028355854 -0.016821150 -0.034597639 -0.009297867 0.042959586 0.064061396 -0.021725200 0.061233293 0.032511521 0.030107293
ago	0.028747858 -0.050707251 -0.027710987 -0.064554177 0.007762474 0.060331106 0.063506648 0.084157482 -0.031530913 0.151776314
means	0.034719355 -0.041094430 -0.009983658 -0.027885811 0.041810416 0.037281200 0.019546319 0.090514384 -0.032004658 0.069285944
big	-0.039016191 0.009581919 -0.036715917 -0.013966548 0.078399584 0.078630090 0.019588323 0.063285165 -0.050095856 0.113842882
washington	0.011774375 -0.057104155 -0.065009966 -0.077638097 0.048638307 0.033954602 -0.029424187 0.130895004 -0.024198633 0.111224793
coming	0.020422867 -0.023753641 -0.029925672 -0.081798829 0.063106686 0.024911836 0.053167995 0.032839235 -0.026684491 0.113499530
day	-0.016625697 -0.030958991 -0.000490824 -0.105061382 0.073716685 0.078444518 -0.020942196 0.168667972 0.041730959 0.147677988
thinking	-0.010875608 -0.070945963 -0.005152418 -0.057490271 0.031426437 0.051244684 -0.008824701 0.073381625 -0.014812744 0.098921679
feel	-0.015534010 -0.029705612 -0.073919334 -0.111023806 0.068811044 0.048556406 -0.001389207 0.177508608 -0.019400604 0.176215440
case	-0.018642634 -0.074094422 -0.046887551 -0.087580070 0.066316910 0.073613405 0.069462687 0.264378756 -0.023077331 0.167736173
thought	-0.044047520 -0.087808378 -0.027774500 -0.024037447 0.058920223 0.048854858 -0.004853951 0.140347138 0.041606691 0.147831574
understand	-0.035627097 -0.006045587 -0.028403165 -0.053360865 0.095657595 0.100582466 -0.015093129 0.204676792 -0.011992417 0.106948294
mark	0.003047869 -0.046245169 -0.068826541 -0.075221695 0.102071643 0.063289531 0.056805890 0.195832118 -0.025083315 0.117422588
dept	-0.002070218 -0.027811233 -0.048189677 -0.084167972 0.078203432 0.075302586 -0.011990703 0.067403212 0.029682290 0.023389250
reading	-0.035742808 0.009977550 -0.026866859 -0.072361134 0.004603755 0.065750204 0.016484559 0.116518378 0.017396266 0.121110409
project	0.002553479 -0.042504903 0.003511777 -0.027483786 0.095139228 0.008931000 -0.005045614 0.114313081 -0.041492309 0.130074114
government	0.014512463 -0.092297174 -0.070594199 -0.100518607 0.091084592 0.086866260 0.026706301 0.211725831 -0.014060066 0.204265580
hold	-0.038910802 -0.059065927 -0.084395193 -0.088941716 0.033666201 0.087656863 0.061580308 0.125767753 0.005369727 0.166468322
code	-0.035013501 -0.074292503 -0.009251545 -0.116190583 0.075001851 0.029817488 0.060566641 0.120831750 0.024592843 0.152935103
things	0.018056965 -0.053203315 -0.025048655 -0.055839024 0.115037419 0.065711938 0.032263219 0.178964928 0.025910581 0.200239673
claim	-0.041175365 0.001202193 0.018879712 -0.068978444 0.080777757 0.038725235 0.018376729 0.057834052 0.025187025 0.106591925
sci	0.009986853 -0.068927594 -0.069505617 -0.015187892 0.057070438 0.001641593 0.043295097 0.053981561 0.021279940 0.108440012
net	0.011812549 -0.039990440 -0.047022484 -0.060051218 0.074994922 0.014127990 0.015333717 0.145287156 -0.018893005 0.131336957
hell	0.028806755 -0.013998985 -0.059997533 0.002736283 0.002771717 0.038917013 0.030114062 0.104780585 -0.047621608 0.067771897
view	0.002189759 -0.064195320 -0.041267123 -0.088281162 0.053317729 0.044337295 -0.016743463 0.153131634 -0.029696908 0.072487324
easy	-0.026746891 0.006635320 -0.019615192 -0.011004478 0.009070710 0.061499558 -0.015815353 0.024240974 -0.033627082 0.033495009
jim	-0.000540992 -0.012057008 0.022206733 -0.040773410 -0.022576127 0.010517100 0.052862845 0.063365720 0.024863383 0.048845898
mine	-0.013783352 -0.055765554 0.021327090 -0.061396737 -0.003970868 0.045869894 -0.003700736 0.056409165 -0.046431355 0.082003079
folks	-0.000266462 -0.035436418 -0.039816137 -0.063685559 0.012828826 0.073037997 -0.004858518 0.089311287 -0.047623005 0.130128428
months	0.021918306 -0.017821681 0.003558248 -0.051722046 0.046191078 0.055693112 0.061507113 0.125414431 -0.028162682 0.077163115
make	-0.029698819 -0.033532951 -0.091571167 -0.090325870 0.087745927 0.050242703 -0.016305305 0.253390759 -0.001399505 0.203726113
center	0.010252315 -0.010403688 -0.056170505 -0.077065609 0.032631811 0.057276919 -0.026444312 0.157893181 -0.029360875 0.127173990
research	0.014197626 -0.058052823 -0.062361442 -0.038372252 0.059864298 0.069195963 0.058864288 0.166683495 -0.030145938 0.162479609
makes	-0.026134878 0.034392789 -0.033063073 -0.027405681 0.000205916 -0.010682943 0.034908399 0.049617194 -0.015664734 0.060602013
week	0.028847225 -0.005552578 -0.066705920 -0.022666262 -0.004534454 -0.019097274 0.023385419 0.114272989 0.047108065 0.088905439
answer	0.026228365 -0.065987296 0.015273842 -0.066437721 0.065024868 -0.000090678 0.001476459 0.122498304 -0.038090903 0.060383204
place	-0.024359619 -0.008723812 -0.041193161 -0.069333397 0.110114381 0.028343536 -0.001721485 0.183405682 0.008992679 0.115756363
steve	0.003388035 -0.060662560 0.017232046 -0.062729441 0.053514864 -0.013618717 0.035811838 0.123981617 0.012258804 0.116645381
david	-0.020012615 -0.048827216 -0.022881141 -0.092901587 0.028795265 0.071177147 0.013532377 0.177448630 -0.044470664 0.157469407
considered	0.018780252 -0.019278066 -0.022102842 -0.038409740 -0.009783235 0.056548081 0.054860108 0.092092603 0.024350693 0.097810820
texas	-0.033123191 -0.003144364 -0.056312606 -0.039930630 0.076509148 0.067226484 -0.037293226 0.021094548 -0.011139291 0.091299161
called	-0.014159614 -0.070615962 -0.062384985 -0.047809031 0.070806645 0.024139974 0.048836894 0.159365892 -0.022199869 0.188242465
service	-0.043086410 -0.011164048 0.011389695 -0.038490742 -0.003303912 0.006545932 -0.028712209 0.116062239 0.021126011 0.092547201
calls	-0.047932971 -0.026476864 -0.039055973 -0.085631073 0.024657330 0.017443208 0.011221342 0.065329775 0.005806592 0.129723623
man	-0.008187086 0.020340448 -0.038186803 -0.005190198 0.083371036 0.039422974 -0.009546840 0.061790012 0.045149822 0.072576530
post	0.015041291 -0.078018233 -0.069157749 -0.081696324 0.095326729 0.078838423 0.040613715 0.202020854 0.050043680 0.184440121
wondering	0.044019591 -0.077589072 -0.061668932 -0.039323956 0.035502363 0.071169801 -0.037821695 0.114624992 -0.001016367 0.127643093
hear	0.039891239 -0.029257193 -0.045767713 -0.002339303 0.018385215 -0.007249882 -0.032086235 -0.006834588 0.014516105 0.046320830
left	-0.030962223 -0.051144488 -0.015621620 -0.102841742 0.032700714 0.082217127 -0.007433702 0.210358828 0.014836479 0.155743629
power	0.024049377 -0.046527226 -0.095562458 -0.135107368 0.073195525 0.079771213 0.041916054 0.229321674 0.001356082 0.135769442
end	-0.056816515 -0.039433815 -0.068690456 -0.110430531 0.112877190 0.052805718 0.065930940 0.194690600 -0.036064368 0.144226581
gas	0.041612934 -0.005276363 -0.027207613 -0.020118991 -0.021930104 -0.019999981 -0.041911166 0.038392745 -0.001220602 0.072888717
asked	0.034949545 0.018841643 -0.039287459 -0.049415525 0.015440363 0.082545586 0.011276675 0.103267066 0.005449864 0.127925754
clear	-0.005427715 0.004434382 0.008358270 -0.024059828 0.001053264 0.049032297 0.033925749 0.055325635 0.024883373 0.118674532
memory	-0.047187474 -0.104566805 -0.074959837 -0.087927468 0.103794865 0.083432652 0.001309818 0.212869734 -0.021448106 0.178420410
error	0.036507379 -0.052241173 -0.004730474 -0.065874852 0.086374566 0.002955732 -0.007815630 0.076475345 0.002677865 0.068988912
set	-0.028229268 -0.029945627 -0.046525873 -0.032710616 0.080061615 0.045090474 0.003953183 0.120698050 -0.047465459 0.055873040
possibly	-0.042317133 -0.059422251 0.003306921 -0.068939276 0.063762277 0.005098060 0.044659764 0.065014757 -0.038559671 0.077781133
institute	0.038226470 -0.036817476 -0.004792789 -0.029127235 0.032034799 -0.009820407 0.052107010 -0.019092333 -0.026592087 -0.019704057
issue	0.039193306 -0.047361277 -0.042987391 -0.038918886 0.067453958 0.024625840 0.029257778 0.216001213 -0.030369941 0.193538740
receive	-0.005494023 -0.039163545 -0.047202706 -0.087964952 0.081412055 0.051176209 0.027684115 0.113080300 -0.014244671 0.125607759
part	0.040030096 -0.041789059 -0.049101818 -0.113230824 0.085728385 0.092405193 0.061599139 0.133149669 -0.012873013 0.151662856
news	0.019143283 -0.034241084 -0.092988797 -0.060704980 0.047915149 0.106116764 0.007576629 0.231335282 0.033799116 0.145899460
mentioned	0.001038936 -0.057442866 -0.032873057 -0.063816555 0.043563250 -0.008254851 0.055140298 0.071086511 -0.007983477 0.045793597
interesting	0.034505617 -0.037277542 -0.001184435 0.017724356 0.024930436 -0.017505176 -0.015245753 0.076620981 0.037508041 0.089330181
mind	0.045706011 -0.048452571 -0.045893718 -0.033741124 -0.007947108 0.038937818 -0.035266258 0.094210304 -0.048336256 0.054622084
side	0.019170197 -0.076245271 -0.073856883 -0.106734186 0.031565376 0.043652415 0.025853766 0.085680723 -0.002151884 0.068497777
kind	0.028031213 -0.002928066 -0.023266004 -0.107107870 0.113213941 0.057474427 -0.023004400 0.187013090 0.014778767 0.113291547
situation	-0.046085741 -0.036755584 -0.034110099 -0.082537480 0.006288651 0.077864751 -0.036064729 0.086575061 -0.024890171 0.151759252
appreciated	-0.054233585 -0.062841758 -0.029252814 -0.080448881 0.094468549 0.061941434 0.016835544 0.122323886 -0.031868879 0.159379944
hand	-0.055330161 -0.087028675 -0.067380108 -0.081505932 0.064502627 0.083890468 -0.017072311 0.189808220 -0.012201947 0.175060332
rest	-0.017210098 0.012272410 -0.021941707 -0.049311284 0.074090101 0.072163604 -0.035211161 0.091816299 -0.001119373 0.126326576
written	-0.046493392 -0.048656859 -0.036439788 -0.047707018 0.052168436 0.049426310 -0.015768206 0.046561692 -0.033409279 0.107505336
common	0.037496105 0.023889037 0.020299749 -0.090553351 0.067462035 0.054223988 -0.034237027 0.048447583 -0.004333162 0.036267016
open	0.009947543 -0.010297623 0.005490787 -0.046053603 0.014859208 0.077828899 0.027905110 0.110012755 0.028305501 0.067149781
sort	-0.017501015 -0.056851100 -0.069258608 -0.066938795 0.029853575 0.088970147 0.039224155 0.137206584 -0.017926162 0.090949729
law	-0.017214488 -0.088600613 -0.068077840 -0.075783774 0.057952993 0.026924565 0.021531379 0.218858853 0.013961278 0.132643059
care	0.014804864 -0.058576364 -0.026910188 -0.007687070 0.072205514 0.018464705 0.041987058 0.095945366 -0.048491824 0.135176167
design	-0.041645426 -0.012161990 -0.022417966 -0.083742164 0.035857867 0.067530796 0.048034154 0.105443701 -0.004608803 0.066855766
point	-0.001893571 -0.049466122 -0.079726070 -0.129467279 0.117274716 0.122605681 0.010331630 0.216773286 -0.029905995 0.252921641
taking	0.040888634 -0.010572014 -0.003724159 -0.035049062 0.075005665 0.060970720 0.000810089 0.069204047 0.046983141 0.041649252
numbers	-0.031363208 -0.032049417 0.004736465 -0.052536692 0.043359991 0.043179214 0.012409357 0.056812312 -0.023547018 0.065863885
making	0.005264123 0.013690813 -0.007955231 -0.039919052 -0.003916404 0.079287261 0.007068373 0.106741667 -0.019332381 0.114633538
put	0.030793432 -0.066061050 -0.050486010 -0.073054209 0.021202588 0.014690362 0.060232632 0.192349032 -0.028523326 0.092101686
group	-0.027792331 -0.090706594 -0.002961067 -0.103217766 0.069503978 0.081339754 0.025298305 0.205310613 -0.012686563 0.132592708
info	-0.023812516 -0.057036187 0.002276026 -0.075297058 0.030451229 0.008790878 0.065647468 0.184496805 -0.003748534 0.120199323
car	-0.047894269 -0.050042022 -0.054596763 -0.032356258 0.021156207 0.054849312 0.004487948 0.190117151 0.018495679 0.153478041
higher	-0.035241079 -0.028005030 -0.031604446 -0.027560316 0.028622443 0.042803060 0.000125752 0.113119200 0.037576221 0.116348505
speed	0.013779523 -0.005264485 -0.001374946 -0.074290365 0.075355522 0.019341458 0.060164053 0.152006686 0.044210013 0.098171465
application	-0.052865840 0.031935126 0.022032123 -0.014601128 0.054681562 0.061271004 -0.042473089 0.097026132 0.019345470 0.032126557
california	0.012054462 -0.032145496 -0.029151984 -0.059409015 0.033464096 -0.004247012 0.011919924 0.038896386 -0.034550175 -0.000843453
org	0.023024442 -0.025229484 -0.000322065 -0.013746276 0.016082402 0.022483783 0.003352637 0.113891050 -0.008993465 0.104995236
continue	0.019065082 -0.032179467 0.010523325 -0.001523228 0.072417684 0.029250592 0.019859193 0.095668986 0.017663078 0.021778639
jews	0.025853001 -0.053049158 -0.068722934 -0.080946766 0.102417469 0.020265628 0.001833895 0.168292254 0.025586234 0.172122285
change	0.008134121 -0.026802100 0.004701929 -0.069784887 0.068733945 0.013316732 0.029243691 0.135386944 -0.047826476 0.041969158
worth	0.003079700 -0.045174405 -0.050518531 -0.031178994 -0.001387211 0.058684967 0.043944541 0.127246365 -0.029464258 0.113236882
home	-0.051461909 -0.042834267 -0.010049674 -0.010366485 0.054454595 0.044288568 0.003243801 0.105013892 -0.010643042 0.097217187
access	-0.041063305 -0.046293959 -0.028978858 -0.084908523 0.098490648 0.014430051 0.040472943 0.141568065 -0.028510045 0.195626304
hope	0.030835703 -0.042740468 -0.002275961 -0.020263869 0.064834505 0.041426904 0.000928571 0.078237735 0.022024814 0.036733340
long	-0.049603950 -0.013126689 -0.033420403 -0.077691726 0.115641877 0.058564622 0.023551723 0.183573142 0.009459340 0.172558308
space	0.017461972 -0.045453049 -0.042824168 -0.102321096 0.059537284 0.109310716 0.037966993 0.149408996 -0.022118775 0.202659458
data	-0.027109675 -0.106830209 -0.073520519 -0.078587614 0.050666537 0.081340194 -0.010715403 0.205101058 -0.000263892 0.229448155
close	0.011265544 0.016195357 -0.003285693 -0.066474020 0.057786435 0.023296174 0.043156665 0.129809856 -0.021129413 0.101842992
result	-0.016740406 -0.014985873 -0.004245382 -0.008123084 0.001357088 0.001265812 0.030117230 0.052441288 0.014120796 0.042087104
key	-0.021987960 -0.036090747 -0.089773864 -0.094048068 0.050986581 0.095629312 0.061381850 0.167165369 0.043233611 0.078385033
high	-0.015921962 -0.055925619 -0.075687848 -0.095629610 0.062460780 0.045876302 -0.014398150 0.161411703 -0.003626819 0.127883092
original	-0.019894972 -0.003305097 -0.048718981 -0.038399335 0.043794535 0.020248033 0.010134768 0.108565502 -0.033414859 0.101505816
including	-0.046246782 -0.066733465 -0.037376482 -0.051673643 0.019399669 0.053164240 -0.022708418 0.062331896 0.018782010 0.091958418
days	0.023263952 -0.041200656 -0.020583935 -0.067445636 0.096274190 0.018440170 0.066051215 0.166027948 0.046736524 0.184022099
late	-0.048202153 -0.048046716 0.003002848 0.001105825 0.009374360 0.033682205 -0.002740574 0.068399101 0.046469878 0.094937183
radio	0.030588988 0.016134003 -0.049465459 0.024112070 -0.003237745 0.062005058 -0.014258302 0.052076835 0.002847000 0.012547835
short	-0.039101828 -0.063409254 0.002712732 -0.029581385 0.073044755 0.032891959 0.010167355 0.038085070 -0.028077932 0.084258668
summary	-0.022609957 -0.021524215 -0.025152737 -0.010298479 0.020383799 0.046198066 0.046003457 0.139205039 -0.050270524 0.124785446
note	-0.026277071 -0.029409839 -0.004624856 -0.046254091 0.069668636 0.020338796 -0.042254180 0.025843656 -0.012891148 0.053250547
based	-0.030421223 -0.014118063 -0.090915382 -0.116718218 0.087084092 0.023601111 0.063681349 0.214872986 -0.026863502 0.196475655
white	0.037669927 -0.074469969 0.003258046 -0.092042103 0.054384865 0.010915947 -0.017468672 0.144857824 -0.039318580 0.098894916
gov	-0.006003975 -0.076214269 -0.093222253 -0.109174259 0.022007883 0.088167056 0.012998491 0.215717793 0.022435687 0.108341038
engineering	0.025156612 -0.000543872 -0.040316716 -0.076687552 0.008917544 0.068692222 0.053939424 0.070808865 -0.045327995 0.029703520
miles	-0.051415462 0.023826396 -0.029169807 0.010350958 -0.014670392 0.058286861 0.001252183 0.103375807 -0.017922139 0.087108441
population	-0.048901394 -0.071878016 -0.072214425 -0.121165991 0.070451513 0.018774930 0.069235258 0.184342951 -0.014385713 0.162143230
worse	-0.024764663 0.009723647 -0.061313301 -0.094431534 0.030353215 0.048881337 0.050780278 0.080485493 0.040424895 0.125348926
find	-0.006251797 -0.021839324 -0.058303926 -0.054871865 0.029622942 0.098916471 -0.020939855 0.198454052 0.009932329 0.154639632
times	-0.021625029 -0.028638769 -0.045019977 -0.092169158 0.056333710 0.109959789 0.022646487 0.171606943 -0.021632114 0.170816362
assuming	0.013411329 -0.051303364 0.011502771 -0.074971005 0.003140529 0.059131749 0.032608002 0.034410991 -0.035742316 0.045682374
sell	0.036309533 0.029004449 -0.014641959 -0.066564091 -0.003614684 0.043304596 0.034997027 0.051334258 -0.013436097 0.037314244
drive	0.001676063 -0.003170915 -0.034903962 -0.072947718 0.118649140 0.044946723 0.070259996 0.174429908 -0.015010717 0.133891091
idea	-0.005190696 -0.062331058 -0.015872480 -0.070514366 0.095818184 0.065661177 0.048985440 0.112860687 0.037274625 0.081449978
rate	0.015924085 -0.073320836 -0.013475810 -0.006455311 0.049212959 0.038923081 0.031151766 0.127941042 -0.000311930 0.068790510
ibm	-0.037028812 -0.075436309 -0.001611499 -0.112092458 0.122346312 0.048084028 0.060069516 0.181272760 0.013849107 0.105280764
remember	-0.016552977 -0.029554788 -0.014057799 -0.116571218 0.030861635 0.019998303 0.035984818 0.165977240 -0.043621615 0.181287363
uk	-0.015509851 -0.058804467 -0.039849289 -0.085438542 0.101445876 0.089092538 0.068655722 0.188514501 0.011446911 0.153712392
control	-0.005976940 -0.059971653 -0.098609045 -0.089845650 0.090995051 0.075686388 0.023248475 0.226499960 -0.009059377 0.153738692
public	-0.042717729 -0.026788762 -0.076658204 -0.039273281 0.064469613 0.040430255 0.011138236 0.233302861 -0.028339123 0.193821728
add	-0.036047846 0.016522137 -0.047399025 -0.061612051 0.070281208 0.054569058 -0.009075852 0.093948334 -0.022991762 0.071289338
list	0.026203044 -0.017714920 -0.098906957 -0.068452932 0.121848285 0.112182841 -0.006121700 0.189735651 0.047781408 0.187079862
wrong	0.021805933 -0.009008449 -0.004077544 -0.069375664 0.106142022 0.016999876 -0.015832266 0.148739427 -0.005047625 0.098538987
light	0.033130836 -0.027766291 -0.043938123 -0.057655849 -0.002451998 0.022740569 0.020815875 0.087385193 -0.032149713 0.032871641
ac	-0.005442903 -0.070029892 -0.037157241 -0.127484441 0.102392472 0.071896650 0.056585949 0.157347023 -0.052959453 0.119161971
order	0.029938823 -0.006451874 -0.052681822 -0.060874090 0.046997644 0.027446439 -0.032854225 0.092290178 0.005810744 0.060140897
fine	-0.006675019 0.006698222 -0.050390616 -0.021759940 0.008071833 0.010189008 -0.033752691 0.078156337 0.020412832 0.033964522
references	0.033588052 -0.034208428 -0.042646073 -0.049819410 0.030429274 0.012783031 0.001712916 0.070125222 -0.038597301 0.020850008
mike	-0.046904191 0.008729812 0.026892466 -0.026543817 0.004630092 0.036026429 0.051815692 0.122380890 0.017886154 0.095993020
experience	0.023514053 -0.002146107 -0.050555438 0.000629607 0.019238224 0.009644788 -0.028197495 -0.032406893 -0.000122078 -0.010613662
deleted	0.014851329 -0.045051292 0.016262338 -0.014798525 0.010421424 0.004554559 -0.015400520 0.091920666 0.024945304 0.136504486
turn	0.019640984 -0.045698777 -0.082057178 -0.116360083 0.083040446 0.048886184 0.061861392 0.260027796 0.036339469 0.233498871
buy	0.001113254 -0.042604450 0.033454616 -0.002303828 0.014263006 -0.019162226 0.019927695 0.084489323 -0.030372811 0.032953493
response	-0.041955568 -0.057132542 0.015632926 -0.011331250 0.062119279 0.023266092 0.004869367 0.119709983 -0.015291129 0.051970456
gun	-0.023812518 -0.078331098 -0.022576265 -0.132505164 0.112515122 0.102459617 0.015771177 0.153091475 -0.020978067 0.118477352
related	-0.033586886 -0.007844158 -0.001664284 0.003775652 0.059518795 -0.004324547 -0.007136846 0.019732926 0.034115579 0.075665466
children	0.028053461 -0.056174055 -0.064543895 -0.040350605 0.096594162 0.044531748 0.058813464 0.143079370 0.022856951 0.183292925
hp	0.013334401 -0.024480600 -0.026607089 -0.059640363 0.021523852 0.087589614 0.006229314 0.147156820 -0.045717187 0.095030941
full	0.025525548 -0.067882389 0.001924057 -0.050769351 0.052230116 0.000101281 -0.005318129 0.072313331 -0.005907375 0.081216320
east	-0.025158629 0.002961607 -0.014028325 -0.107447848 0.013548478 0.058714207 -0.034535132 0.123026058 -0.017203311 0.128562018
western	-0.034347750 -0.047471665 -0.032876294 -0.039068453 -0.009332754 0.016052555 -0.001050378 0.066811495 -0.023954187 0.025470043
single	-0.035960458 -0.066191643 -0.044936657 -0.055032287 0.034427583 0.044420313 0.025537891 0.123766303 0.008822558 0.118232511
toronto	0.007131388 -0.003507130 -0.040544961 -0.073697656 0.066026449 0.041712258 -0.021048868 0.172180235 -0.032229051 0.104926348
james	0.031691670 -0.037417695 -0.075193219 -0.069228619 0.050825723 0.001224092 -0.032165013 0.135874569 -0.037516668 0.104522102
front	-0.034923028 -0.020469785 -0.059776962 -0.119836777 0.120262906 0.014356191 0.019940061 0.164303839 -0.009452882 0.134135053
religious	0.044743732 -0.035052571 -0.054906942 -0.087380685 0.034344796 -0.007685235 -0.003422023 0.090149015 -0.001914883 0.112890393
parts	-0.012790331 0.025100488 -0.009354956 -0.069807172 0.070237570 0.019730089 0.003651129 0.089184806 0.005457786 0.085389480
game	-0.041060060 -0.093060605 -0.055180795 -0.118072696 0.082568139 0.029879780 -0.016316641 0.202437595 -0.020311799 0.213921607
sound	-0.020647375 0.004707231 -0.039651416 -0.023000166 0.008756253 0.030420233 -0.025679890 -0.008339379 -0.006579919 0.008682530
source	-0.034355059 -0.012244818 -0.030254809 -0.088658281 0.033760343 0.048757900 0.013643143 0.158023939 0.039967492 0.126566023
exists	-0.006464441 -0.003360474 -0.051795375 -0.046809290 0.038043007 0.027366497 -0.013905875 0.070309065 0.047802508 0.052029457
wanted	0.029398611 -0.053941347 -0.007345305 0.005133082 0.033857126 0.057547867 -0.006366974 0.071661346 0.025348078 0.045228902
canada	-0.014222817 -0.034658212 0.023092721 -0.035393037 0.061248641 0.049184307 0.035615660 0.031907178 0.008422931 0.076178558
lost	0.020427253 0.008245666 -0.000757464 -0.032587096 0.002206464 0.010116711 -0.028779060 0.007071778 0.044423401 0.040303838
rights	0.012252836 -0.027864218 -0.003034120 -0.111125886 0.019993829 0.017033204 -0.016593931 0.130943462 0.001175597 0.129879281
minutes	-0.023379207 -0.005174022 -0.062725931 0.007380161 0.061331093 0.018242644 -0.024445143 0.056817871 -0.005899890 0.026020892
